1113 128
1006 -0.15773383 0.20483172 0.09933424 -0.15119208 0.015102861 0.055519696 0.07135503 0.14088981 -0.060650952 -0.34073657 0.12050626 -0.31098261 0.056388929 0.47601554 0.29878566 0.12126585 0.13846515 -0.081041008 0.068109691 0.085655451 -0.0055030724 -0.37861687 -0.097884491 0.19897762 -0.33786005 0.049205367 -0.25322777 -0.24083947 0.14364302 -0.2216737 -0.17732362 0.6876049 0.31947058 -0.55333889 0.050488591 0.19234818 0.02220642 -0.2991021 0.34897947 0.03524977 -0.11760756 -0.024902603 -0.39797643 -0.087891504 0.21922421 -0.063694663 -0.54465371 -0.21253891 -0.18299711 -0.11556857 -0.32982403 0.11903899 -0.25223392 -0.088561006 0.10918514 -0.092921935 -0.13565974 0.42995515 -0.15094072 0.10116946 0.23937456 0.18791018 0.081944272 0.13130455 0.3184005 0.20460112 0.085224099 -0.092805237 0.0051122098 0.21372932 -0.014549476 -0.17812628 0.068325669 0.1535894 -0.058780622 0.31372592 0.26541731 -0.0056043146 0.43961257 0.1830162 -0.018235775 0.20075373 0.43313095 -0.21118884 -0.036827255 -0.087469377 -0.1776907 0.11037734 -0.41040513 -0.1206558 -0.55482864 0.19603109 0.2443631 0.33169842 -0.01263994 0.035956785 -0.51264203 0.37814629 0.08110287 0.079389289 0.31872082 0.27730045 0.091911919 -0.04653161 -0.10789308 -0.16151799 0.1388232 -0.007451145 -0.64722133 0.23982622 0.156748 -0.085242666 0.38868222 -0.052807365 0.13899469 0.37093511 -0.25348935 0.17181651 0.29063979 0.052455351 -0.12909588 -0.20336029 -0.16120017 -0.31170136 0.20804901 -0.16362812 -0.44363987 0.4143005
859 0.012605863 0.074749216 0.20759043 0.0018867153 -0.00058878399 -0.34819084 -0.12490776 0.3384833 -0.090377681 -0.32485294 0.32545763 -0.23780695 0.22071253 0.75216532 0.079496376 0.14495747 0.46557271 0.01233111 0.23027703 0.061178945 -0.07249178 0.055139352 0.14538167 0.15742004 -0.25466573 -0.098806247 -0.37155294 -0.072056316 -0.1971761 -0.31307766 -0.090734288 0.28554553 0.048585705 -0.66979003 -0.4586519 0.086336367 -0.14009637 -0.32777515 0.10146976 0.27005291 -0.28821141 -0.12966609 -0.3124342 -0.052827958 0.2250545 0.20352551 -0.6543895 -0.086100392 -0.21082214 0.00026285255 -0.45202163 -0.049191516 -0.05735397 -0.034889016 0.13740566 -0.17118742 -0.14684673 0.49586719 0.069365367 0.058043201 0.0089038555 0.12869325 0.02896874 0.25560343 0.34110391 0.06876719 0.14458479 -0.030811304 -0.090169318 0.14117907 -0.1667928 -0.059620876 -0.095551163 0.075065888 0.15180567 0.330134 0.35121202 0.11589906 0.068869695 -0.36792302 -0.06643521 0.13831957 0.32951131 -0.15639792 -0.1176427 0.0037742094 -0.0288422 0.20550343 -0.40671402 0.0069173104 -0.37824979 0.3983604 0.51977468 0.22470798 0.0080060139 -0.096432447 -0.47858512 0.22280231 0.2266629 0.23304012 0.098394029 0.12069318 0.10225146 -0.061209876 0.26687455 -0.2242526 0.29128394 -0.13826391 -0.78489536 0.17575121 0.20867534 0.10144537 0.1113354 0.15525244 0.24827318 0.19036339 -0.44683474 0.16393912 0.55983049 0.074545912 0.041138973 -0.1719714 -0.37634814 -0.30115086 0.16096574 -0.06840951 -0.46835724 0.34962532
506 0.026421815 0.041232284 0.23545575 0.04638847 0.066755556 -0.37350807 -0.20944542 0.39221272 0.026075598 -0.13335139 0.37354684 -0.41506559 0.23829378 0.49141845 -0.017255735 0.14699537 0.56866229 0.042563479 0.17303364 0.079839744 -0.12012527 -0.24047381 0.22891609 0.2989606 -0.29102683 0.048712377 -0.29138678 -0.097322397 -0.20486686 -0.36029431 -0.095463783 0.39680332 0.045517895 -0.69950396 -0.30575806 0.20114076 -0.19317628 -0.40767005 0.20721474 0.32387659 -0.16877986 -0.11449745 -0.45853287 0.12708086 0.077901773 0.023281429 -0.61502665 0.0050576092 -0.14887726 -0.13366207 -0.38039058 -0.020925779 -0.017388443 -0.11189572 0.046161585 -0.17251649 -0.16170304 0.65738124 0.070273511 0.12029275 0.15204309 0.037092321 -0.009025895 0.2235547 0.20880334 0.1556599 0.085281432 0.031779032 -0.17547134 0.072190486 -0.096325845 0.0025339541 -0.053178944 0.23629439 0.17034489 0.28681809 0.4423179 -0.058371969 0.16011953 -0.45626107 0.021225449 0.17080432 0.37475899 -0.0013598882 -0.084655613 -0.050172381 0.091436043 0.24648055 -0.26940584 0.078849725 -0.22771244 0.54624826 0.5386734 0.28528142 -0.022674268 -0.20388369 -0.53528529 0.093090832 0.29396507 0.23821418 0.125901 -0.071963236 0.055129826 -0.055229094 0.1528004 -0.20204274 0.31093642 -0.13315208 -0.84390908 0.25838628 0.13042971 -0.060518954 0.22356944 0.16653781 0.33479357 0.3245534 -0.49045065 0.089168862 0.57076216 0.13225324 -0.035449486 -0.052873544 -0.17329976 -0.37990305 0.08953625 -0.24106734 -0.48199612 0.24359371
823 0.013559452 0.028863855 0.1755404 -0.19271073 -0.090412766 -0.33154187 -0.050142035 0.3293741 -0.08685983 -0.19204541 0.24563308 -0.31196049 0.19279161 0.60354292 0.20086154 0.25446835 0.58134192 -0.091827773 0.20204374 0.094042704 -0.11977242 -0.15817605 0.078663118 0.19840112 -0.19976811 0.062893301 -0.3412292 0.0034489597 -0.17348856 -0.35474652 -0.16888829 0.36065343 -0.0018414179 -0.73604143 -0.43791994 0.17675543 -0.18375945 -0.48847905 0.19039708 0.19605719 -0.13894416 -0.1511623 -0.31505957 0.15749501 0.075499944 0.068239495 -0.5669241 -0.14213951 -0.007816622 -0.25758353 -0.40983081 -0.06650579 0.00780201 -0.10140341 0.22257063 -0.25330517 -0.1227355 0.59425169 0.09053605 0.19774182 0.0013374537 0.094712861 -0.021821268 0.24846302 0.35597605 0.16008069 0.15279925 0.025470138 -0.068082124 0.21895646 -0.093523324 -0.06956882 -0.091248207 0.16857903 0.16868773 0.3863796 0.42998275 -0.041155431 0.17571671 -0.40795869 0.047668286 0.18249661 0.32004088 -0.082157776 -0.028143954 0.017376104 0.11043264 0.1759413 -0.46196583 -0.035929855 -0.30064911 0.48974296 0.49733952 0.17904292 -0.041651532 -0.21019854 -0.5639416 0.056783587 0.33045626 0.14431648 0.11951128 0.076360933 0.087253422 -0.047137287 0.22517172 -0.27997071 0.32423234 -0.269851 -0.64454758 0.26068503 0.24413051 -0.030809887 0.21214005 0.050103068 0.21132934 0.14387569 -0.38099128 0.059189472 0.56726652 -0.0042986274 -0.14968771 -0.19619395 -0.31897607 -0.26063552 0.15911025 -0.29302409 -0.57976872 0.41980398
512 -0.065941848 0.04489094 0.23947622 -0.12552832 -0.080283724 -0.20689476 -0.073915802 0.27990237 -0.056767568 -0.13860375 0.15828548 -0.24450076 0.10433971 0.6190117 0.18152489 0.15049064 0.59780824 0.096374437 0.29209808 0.16076116 -0.063078694 -0.0023223683 0.2290155 0.25063396 -0.27341664 0.052458789 -0.34648988 -0.056423403 -0.25362712 -0.36586636 -0.15175691 0.34197873 0.015797762 -0.68883371 -0.32090592 0.26816043 -0.32136968 -0.28745621 0.21226139 0.20483166 -0.17403361 -0.18387115 -0.34371921 0.17800269 0.22475953 0.1274406 -0.71738911 -0.10915282 -0.13039754 -0.19574662 -0.4524608 -0.039536502 0.054070167 -0.15589741 0.17141074 -0.24890593 -0.16715507 0.5445407 0.095786914 0.26205105 0.066673562 0.11195149 -0.024201598 0.24065664 0.27483854 0.077002726 0.12019046 0.091874331 -0.13805072 0.29785442 -0.10398403 0.0014524732 0.10060324 0.12707542 0.10609596 0.29013178 0.47301173 -0.25346941 0.19180767 -0.45852312 0.024695691 0.18749541 0.36613259 -0.20631231 -0.14613746 0.058450691 0.19544952 0.1485512 -0.34158778 0.0015796552 -0.39415288 0.39397836 0.49371389 0.30087903 0.051886413 -0.17610124 -0.62929386 0.17560616 0.31755951 0.25503629 0.14969826 0.003786199 0.16743211 0.0087271789 0.24782562 -0.30775431 0.37472081 -0.095068447 -0.62327921 0.3918429 0.17697814 0.031850647 0.25902161 -0.027040787 0.28631079 0.24104497 -0.39981195 0.14441365 0.53142798 0.23020978 -0.041023571 -0.041645572 -0.4108645 -0.34637463 0.040506918 -0.23021182 -0.60625279 0.25278971
839 0.050674561 0.082625873 0.18150708 -0.051080737 -0.057607006 -0.3658967 -0.20125212 0.38014382 -0.011364161 -0.11817538 0.14132664 -0.35341761 0.20411642 0.54904068 0.17840526 0.16677409 0.49822322 -0.1079849 0.10874338 -0.049293008 0.034425598 -0.1852672 0.03273626 0.21268316 -0.26384661 0.092109263 -0.43536615 -0.1613601 -0.21070449 -0.41080999 -0.089535981 0.30346507 0.06770771 -0.83713514 -0.42212793 0.25179878 -0.18477657 -0.32553053 0.18258078 0.25710648 -0.18043852 -0.10897342 -0.46744612 0.18330066 -0.024511537 0.1661848 -0.70648897 -0.14273502 -0.19263412 -0.16173121 -0.38872835 0.08248619 0.005229305 -0.092999689 0.18625821 -0.14686523 -0.097560629 0.59282058 -0.042031124 0.17652306 0.034411218 0.031414252 -0.11341111 0.19614573 0.36241472 0.14184809 0.1814661 -0.038449455 -0.058773056 0.051802251 -0.19813074 -0.10965715 -0.021198794 0.27743757 0.34394336 0.34804431 0.40974483 -0.0061426465 0.26851442 -0.40647259 0.0041896929 0.04466258 0.47064865 -0.041907914 -0.026402358 -0.07497298 0.076591231 0.18794659 -0.37886536 0.046725377 -0.36481041 0.49740204 0.54381442 0.22605228 0.066245615 -0.11686056 -0.56309229 0.0083976155 0.29642144 0.20412846 0.18601105 0.016117912 0.11921668 0.016516848 0.24449821 -0.1689484 0.36399215 -0.14398697 -0.69244856 0.32245097 0.23270158 -0.12379718 0.25184688 0.27150309 0.36089167 0.29780102 -0.40466049 0.06851951 0.57517445 0.096241467 -0.021107912 -0.25252467 -0.36123729 -0.31976253 0.098286413 -0.18610129 -0.67649013 0.27552831
1004 0.2231731 0.44707924 0.22870991 -0.061183508 0.48700342 -0.24295871 0.18209644 -1.0443038 0.32023096 -0.55559415 1.0327864 -0.38919249 -0.093053676 0.52544528 0.53222305 0.57826436 0.11237235 -0.30696455 -0.0012732607 -0.25936604 -0.74486375 -0.40085581 -0.028828861 0.61005521 -0.59753597 -0.00080000906 0.051992398 -0.42769518 0.52861208 -0.24524964 0.26964962 0.2775692 0.15673946 -0.022191918 0.10436139 0.41882697 0.14291619 -0.58267456 -0.29501015 -0.049447667 -0.52685112 0.17133158 -0.40921122 0.51043397 0.75215614 0.12728573 -0.28933197 0.22586799 -0.094513424 -0.26120943 -0.45245484 0.076553002 -0.3680563 -0.22122265 -0.26722941 -0.47601333 -0.51367199 0.36319295 0.43639335 0.26253495 0.26973191 -0.11397181 0.34547386 0.008083296 0.7122581 0.26421276 0.43574038 -0.1792202 0.24388619 0.15630157 0.18318619 -0.35484481 0.29104611 0.12512672 -0.47795948 0.5725978 0.28534654 -0.15949278 0.57901454 0.14313757 -0.54057533 0.26937297 -0.0035057315 -0.29831848 -0.29263264 0.029140156 -0.82300943 0.0017636338 -0.36619294 0.036941312 -0.3771815 0.36955234 -0.043673988 0.041777618 -0.14444487 0.19256473 0.11964228 -0.11593395 0.22813013 0.29527751 0.12526801 0.4863627 0.12533903 0.13011916 -0.22451653 0.18867314 0.20915338 -0.054246861 -0.23568462 0.066456564 0.070279457 -0.79656947 0.019222064 -0.14841947 0.35100672 0.28875777 0.30624613 -0.4703739 -0.52354401 -0.083104134 -0.1043268 -0.32492432 -0.59202373 0.17624259 -0.039129969 -0.15259819 0.36726072 -0.023327293
178 0.26543435 -0.088363543 0.01320195 0.073483743 0.36751059 -0.046049103 0.052819088 0.12333485 -0.32623479 0.041631322 -0.10982495 -0.36181915 0.32607225 0.038912095 0.45008197 0.51340866 0.51267862 0.044037215 0.32778525 -0.17588292 -0.21444173 -0.077976622 0.52912438 0.41495752 0.20100224 0.071928866 -0.2465473 -0.32761246 0.069312066 -0.35635063 0.044023268 0.010042652 0.15464041 0.059690926 0.27823043 -0.21201737 0.3290301 0.0042656451 0.068238959 -0.050094988 -0.0040452438 -0.051006936 -0.033917926 0.21948831 0.2692467 -0.12481835 -0.047540754 -0.022422353 0.089540534 0.23730361 0.10709577 0.2177172 -0.068467431 -0.012677793 0.40117311 -0.16636153 -0.24138081 0.18750125 0.18742587 -0.020115811 -0.01214928 0.26122978 0.11569937 -0.086797521 0.0088745626 0.071272597 0.013421272 0.14736558 -0.22738731 0.33226469 0.47149575 -0.16377681 0.13887104 0.06169647 0.20083682 0.24938639 -0.28529567 0.06470231 0.57922781 -0.16570511 -0.32714951 0.25552863 0.21059072 -0.27437416 -0.043550067 0.084974155 -0.073886618 0.20942301 -0.092084937 0.26727983 -0.40365237 0.34948725 0.18587266 0.218707 0.13584535 -0.058796488 -0.0053724572 0.24362388 0.10232797 -0.047792468 -0.041735675 0.055212554 -0.32233551 0.081859171 -0.30066606 -0.44350377 0.20924333 0.31425732 -0.63044041 0.014436416 0.239769 0.00037746361 0.071662113 0.16387427 -0.29800826 0.13637085 0.18078844 -0.14418744 0.27629218 -0.019361282 0.37795106 -0.025731996 -0.12867382 -0.027336402 -0.11870228 -0.10562482 0.18813096 0.014779613
501 -0.023132773 0.29588607 -0.061422136 -0.032735161 0.030168144 0.15849398 0.061903447 0.068961032 0.072283849 -0.13515709 0.23653828 0.28149337 0.21709062 0.12035856 0.062253393 0.32472694 0.42339453 -0.16576754 0.067668222 -0.032088485 0.020561151 0.19282606 0.15352014 -0.089510895 0.075091831 -0.1411877 0.17942305 -0.049185418 -0.23216416 -0.50650483 0.22725916 0.14128922 -0.1143408 0.25602826 0.061490279 -0.014418561 0.25972894 -0.28579792 0.083750509 -0.087611154 0.3223041 -0.2586413 0.17152505 0.23386051 0.1149988 0.55730724 -0.20884018 -0.22840323 0.07078281 0.066923447 0.0017725793 0.067259178 -0.15123872 -0.14492781 0.014269844 -0.045514394 -0.064858064 -0.23222898 0.044201445 0.057940058 0.054736137 0.013383742 -0.17419915 0.025040034 0.11539128 0.37321827 -0.0043103462 -0.0063035344 0.081426539 0.47069371 0.28248847 0.20489262 0.019476457 0.39960676 -0.025765374 0.1704727 0.36715385 0.11307797 0.80504113 -0.12656172 -0.46321869 0.12326531 0.19339104 -0.17446962 0.26457411 0.1144952 -0.16096728 0.10291077 -0.1907648 -0.29095364 -0.3620407 0.30216229 -0.035735533 0.11420389 0.14576524 -0.21685404 -0.059992664 0.11950249 0.49312952 0.057649937 -0.17577444 -0.29252568 -0.22132286 -0.17140007 -0.25886819 -0.13265269 -0.033878677 0.12149621 -0.1703707 0.29663166 0.08849223 -0.014839644 -0.40150219 0.020978153 -0.047625672 0.30413237 -0.45005026 -0.070581459 0.16137829 0.010808147 0.27971315 -0.21016258 0.050798625 -0.0015076854 -0.065247856 0.36070225 -0.060751725 0.21646515
301 -0.22396362 0.10365393 -0.23324971 -0.081031553 -0.071456045 -0.3028836 0.024506817 0.056053415 0.018124819 0.17255504 -0.025487175 -0.26209047 0.034416847 -0.17537877 0.09440276 -0.018709559 0.13624237 0.23063387 -0.077565201 0.30507678 0.13329923 -0.17013218 -0.26098102 -0.048855659 0.17792903 -0.034090724 -0.05934751 -0.023121472 0.11926711 0.18027063 0.12769175 0.064488865 0.11638083 0.10703683 -0.046097953 -0.041598465 -0.30296347 -0.035020996 0.0082456814 -0.1674134 0.048732247 0.15494634 0.026310883 0.045018621 -0.15313865 0.27981865 -0.029888036 0.16991873 0.026368029 0.15144363 -0.34919503 -0.15478924 -0.067694187 0.072964907 0.16246858 -0.073216222 -0.02765194 -0.011477756 -0.077855013 0.18811011 -0.060822114 0.017357061 0.041177068 0.091503061 0.26309535 0.30068392 0.28410336 0.15792371 -0.078451507 -0.020355221 0.17158042 0.21621145 0.084397651 -0.027697351 0.2700623 0.03675095 0.14692605 0.24352698 0.058051359 -0.15707691 0.15847243 0.24206439 0.19815712 0.16442522 0.14062437 0.025098519 -0.23445378 -0.057624709 -0.15893483 0.18814206 0.092599347 0.017142914 0.099638246 -0.20682962 -0.061928585 0.04372739 -0.18957636 0.013231712 0.082908288 -0.076762021 -0.12577327 0.24665236 -0.24012765 0.037031423 -0.25994113 0.093851805 -0.09647169 -0.12049505 -0.11253048 0.32441059 -0.048597224 -0.095476016 0.14697677 0.01268274 0.071000822 -0.014565215 -0.010885292 -0.1370021 -0.081638411 0.054964066 0.070460357 -0.15489054 -0.0076883822 -0.11224323 -0.050887272 -0.021817464 0.17673317 -0.24348637
1005 0.068625167 0.48328841 0.071854085 0.090019919 -0.060743913 0.19216059 0.014684443 -0.0082356688 0.022710804 -0.0054631522 0.34344447 -0.47091237 -0.33497971 0.082515158 0.40550321 -0.086536765 0.0034518575 0.21362714 0.014141422 -0.090198755 0.057520535 0.28787717 0.29083088 -0.11160079 -0.41945854 0.32656381 -0.056304764 -0.071516134 0.18103799 -0.30691889 -0.020265801 0.075584255 0.048856087 -0.42326367 -0.084433809 0.27599311 0.056969501 -0.39948764 0.002959681 0.10017373 0.039330032 -0.18121719 -0.29412726 0.10318949 0.41638917 0.20588282 0.10107423 0.11755652 0.2808308 0.005173414 -0.025212888 0.16311768 -0.27965412 0.0070093931 -0.36730811 0.075018488 -0.43458399 0.069632649 0.040891539 0.10581526 0.093448326 -0.13169923 0.23767066 0.28843939 0.50328624 0.23467238 0.24576333 0.22362827 -0.094493471 0.021308154 0.26902452 -0.34820744 -0.030638648 -0.11118817 0.1618132 -0.045385063 -0.17381333 -0.24007063 0.77601373 -0.019573571 -0.23705567 0.53258592 0.061216041 -0.14621784 0.068563581 -0.17557596 -0.18399233 0.42290634 0.098365918 0.14529307 -0.3101871 -0.038341526 -0.16502999 0.23883471 -0.30267712 -0.047026917 -0.18236299 -0.18636315 0.088988103 -0.28128636 -0.044414133 0.31947353 0.070846915 0.044525672 0.15778972 0.30301595 -0.2114131 0.25774112 -0.35932547 0.15784335 0.46461707 -0.068602525 -0.16923635 -0.23751462 -0.5341627 -0.066116683 -0.031629372 0.043574616 0.12386325 0.14073591 0.39410043 -0.28584468 -0.14010929 -0.21745604 0.019875247 0.11390968 0.076307788 0.40019479
133 -0.14206174 0.03124973 -0.11469796 -0.19227846 -0.1876497 -0.33111438 0.16008349 0.12801345 0.124317 -0.031131525 0.15279371 -0.059529826 0.078862451 0.1335372 0.29529485 -0.038320117 -0.032272689 0.11603176 0.01455358 0.059103049 -0.28381112 -0.016375862 0.023936149 -0.26171228 0.3279033 -0.061806705 -0.18685894 0.0025804087 -0.12857392 0.012307523 -0.064456873 0.030998886 -0.12972242 0.12590624 -0.041935675 -0.0057688556 0.14026313 0.22603652 -0.15909725 -0.22697392 0.12148929 -0.13747518 0.082727261 0.036812041 0.10113042 0.46775195 -0.12723675 -0.016653234 -0.22053969 -0.014666478 -0.067356974 -0.11763597 -0.131955 -0.14019783 -0.10951079 -0.061217397 0.070764124 0.1620643 0.060994685 0.35867184 0.22677433 -0.10743041 0.071363918 -0.11689721 0.11983992 0.081678726 -0.081184603 -0.015605327 0.052185718 0.11390926 0.10773654 0.072000369 0.082584292 0.10010051 -0.072689004 0.046588391 -0.12074995 0.072412178 -0.12706733 -0.11294068 0.00060641184 -0.0039851768 0.17327991 0.13875359 0.045037605 0.071766369 0.005722492 0.15182221 -0.12975301 0.43784937 -0.16972312 0.012717901 -0.0098213553 0.027538767 0.18740906 -0.063956715 0.047609515 0.069234744 0.1392142 -0.15641008 0.12405462 0.084662952 -0.0095981508 -0.016049711 0.06519641 -0.095380679 -0.22455563 -0.18170814 -0.1521972 -0.070238113 -0.090845272 -0.061966974 0.039683852 -0.086283252 -0.069363594 -0.016450083 0.017645542 0.016572049 -0.10128449 0.010942526 0.060786135 -0.12561223 0.03015781 -0.14667216 -0.041991975 0.15860678 0.1508836 -0.041101631
404 -0.34581041 0.21691033 -0.10812712 -0.034881853 -0.19322556 -0.10336574 0.02295015 -0.045124702 0.18145077 0.13463628 -0.18354444 0.17457329 0.36394137 0.047655612 0.20252517 0.1870548 0.21657294 -0.0088646719 0.14810778 0.059081342 -0.052135024 0.017102353 -0.046218365 -0.12193984 0.022448251 0.050225217 0.20530675 -0.15615945 -0.19284366 0.091941305 0.0089000147 0.077825189 -0.13540047 -0.064920433 0.066111535 -0.028586829 0.0086308969 -0.30987376 0.008577046 -0.045570422 0.0049557555 0.053378254 -0.22416663 -0.23234539 0.21857981 0.13694642 0.21545973 0.32538778 -0.011510296 0.11966782 -0.00044566425 0.07498946 -0.16396874 0.040090166 -0.19442217 -0.15578192 -0.11246923 0.34344831 -0.0017750815 0.16383564 -0.020092841 -0.092213385 0.036552779 -0.16213296 0.13792622 -0.021818101 0.21363959 0.15583295 0.017232969 0.037926305 0.17400901 0.035704788 -0.14628409 -0.16924484 0.30280241 0.18364052 -0.05872393 0.063600548 -0.19575416 -0.018796775 0.17111233 0.19636376 0.18812095 -0.029375084 0.076299176 0.011603384 -0.27295637 0.077515632 0.10114788 -0.040450234 -0.1880237 0.012325892 0.27756923 -0.029662848 0.10285886 -0.037306342 0.40040717 0.051552091 -0.069158398 -0.10992604 0.067901291 0.056557916 -0.19233534 -0.023787955 0.071523674 0.18857269 -0.018176232 -0.25124729 -0.11427624 0.015065749 -0.25721034 0.067362785 -0.10725043 -0.1188842 0.080376886 -0.042772241 -0.0037579786 -0.19895865 -0.1613059 0.0037547781 0.15180059 -0.26233992 0.14059547 0.37757075 -0.0079570189 0.22285399 -0.27506351 -0.1307252
1010 0.22640128 0.36307591 0.12559155 0.026661627 0.27847725 0.081142016 -0.16373725 0.14409368 -0.090657689 -0.00030653615 0.10795724 -0.6253916 -0.16906202 -0.087583996 0.31065607 0.2547023 -0.19411165 -0.0010123821 -0.13514896 0.31439006 0.0086638844 -0.18103687 0.14058989 -0.059484504 -0.21059683 0.19989212 -0.1127717 -0.15109013 0.35337493 -0.21867199 -0.30692151 0.03066222 -0.22994259 -0.21635117 -0.04536473 0.066169247 0.23935778 -0.34974146 0.34983933 -0.0312066 -0.26329282 -0.14071053 -0.18838699 -0.035375826 0.20333658 0.09505482 -0.10394712 -0.10275126 0.080373928 0.020712433 0.081457309 0.081144892 -0.13353042 -0.27906615 -0.22657484 -0.095736004 -0.41872773 -0.19794238 -0.12077755 0.38868243 0.11377629 0.10164751 -0.072975971 -0.14292479 0.49429411 0.19864815 0.19262205 0.30932787 0.14979663 0.016670983 0.26939371 -0.098224245 0.04467877 0.092459589 -0.12035554 0.34752735 -0.0778725 -0.064915277 0.43433902 0.30093583 -0.30671138 0.27179366 0.064500079 -0.025842747 -0.27611232 -0.067085795 -0.31285185 0.49006331 0.23290409 -0.20007959 -0.53605735 0.062318239 0.040256809 0.23264948 -0.30478376 0.034837827 -0.31984326 -0.39494124 0.11602231 0.13304634 0.28711483 0.39582577 0.33306274 0.066354543 0.01380369 0.17712513 -0.18917586 0.093984276 -0.47461343 0.26871765 0.58236307 -0.29124737 -0.057580285 -0.026671896 -0.32141721 0.17107666 -0.38037536 0.16868088 -0.00098665885 -0.16239613 0.20892966 -0.11337985 -0.037313037 0.12969086 -0.10547712 -0.16560461 -0.010215177 0.2052727
432 -0.20961021 0.06445425 -0.063784227 0.002663644 -0.043590683 -0.25970453 0.10567939 -0.010135926 0.075739466 0.10916003 -0.014944683 0.05549847 0.15421948 -0.054406952 0.11384751 -0.059494752 -0.063077897 0.0072753769 0.078353837 -0.002939061 -0.093017265 -0.026687603 0.04526712 -0.30989453 0.0097559933 -0.1208086 -0.13801767 -0.020982414 -0.19323502 0.16136235 -0.0025825317 0.17533761 -0.053963199 0.23424663 0.0038736062 -0.19661391 -0.025681715 0.019299753 -0.078814261 -0.24642745 -0.046303138 0.045914736 -0.051789835 0.193634 0.084601395 0.36460501 -0.070963882 0.04471432 -0.034446724 0.15927055 -0.14664358 -0.14062369 -0.10555018 0.045696486 -0.091120996 -0.063808031 -0.049169239 0.074283227 0.11882196 0.058414634 0.16840796 -0.14597985 0.027331788 0.012259679 0.13309613 0.20044531 0.14702812 0.09115357 0.12010656 0.0030887811 0.1228264 0.081227057 0.083484501 0.091988854 0.12576823 0.12612534 0.043783255 -0.12137076 -0.032978222 -0.0060693296 0.21490276 -0.11273356 0.24594149 0.048692197 0.040565081 0.10062117 0.02514863 -0.13711812 0.03559066 0.24510831 -0.1261916 0.027036898 0.031021293 0.072081126 0.10789207 -0.042972513 0.055273619 0.051470265 0.032775093 0.058401074 0.12661706 0.15090445 -0.25611618 0.065126561 0.14088969 -0.051325638 -0.13068871 -0.058964882 -0.14974162 -0.073072396 -0.14595187 -0.084104776 -0.06265939 -0.08474911 -0.036947146 -0.13222405 -0.0096176742 -0.049681865 0.04444138 -0.044295929 0.12092837 -0.086016044 -0.10191271 -0.21240741 -0.12324226 -0.0078847902 0.071122967 0.098345332
234 -0.29849774 0.029327733 -0.15853553 0.022940513 0.011433156 -0.077286601 0.040532701 -0.016845191 0.14883298 0.065737851 -0.065937638 0.013763966 0.19266382 0.1188706 0.18219243 -0.056520112 -0.066588424 0.055979285 0.058084954 -0.025026564 -0.13885249 0.31073546 -0.028824545 -0.018999776 0.067701139 -0.0014448528 -0.0082110213 0.021440558 -0.20962392 0.12370432 0.020702705 0.10772056 0.067879848 0.014705594 -0.12101119 -0.13617855 -0.12415466 -0.089787841 -0.077284567 -0.024117012 0.0084687546 0.095696516 -0.058355078 -0.038296457 0.023689486 0.16101205 0.073142432 0.20035636 -0.092752919 0.25577426 -0.04276897 -0.060444932 -0.12887016 -0.13855238 -0.10417316 -0.10694688 -0.1223167 -0.051353868 0.23804183 0.16571772 0.3349686 0.084413297 0.00027558333 -0.15379773 0.029509226 0.13933237 0.10386299 0.18249726 0.13606097 0.075856067 0.11794697 0.086911559 -0.007678349 0.044659924 0.26421461 0.071246579 0.057185337 -0.17546216 0.093409754 0.045250338 0.017495936 -0.08131662 0.2018998 0.086843312 0.24222375 0.020210195 0.10071285 -0.041017693 0.047827758 0.13157609 -0.015591133 0.13057633 0.31141645 -0.040631533 0.087603971 -0.061032828 0.014469826 0.02924828 -0.20407704 -0.011501851 0.096071295 0.090141945 0.085450284 0.029343091 0.050058633 0.0011234292 -0.075379401 -0.1346551 0.0966658 0.11890756 -0.32985547 0.10798877 0.095033847 -0.1611076 -0.097338438 0.081988379 0.037111927 -0.0030275339 0.0087468894 0.039981052 0.13109602 -0.17585488 -0.089999385 -0.10014124 -0.17996469 -0.10271204 0.055095874 -0.048630267
187 0.011610465 -0.018040441 -0.11473075 0.017685998 -0.11512378 -0.17152151 -0.027693864 0.063416228 0.15706597 0.072258517 -0.032749768 0.071359344 0.14387 0.061355133 -0.051099524 0.038097452 0.0066605257 -0.11163901 0.12802278 0.087136254 -0.21778916 0.097823687 0.025238015 -0.020194741 0.083196647 -0.12890448 -0.044293556 0.19112512 -0.21812175 -0.04650525 0.082954213 -0.021933049 0.13473091 0.066132978 -0.11137035 -0.06033387 -0.037199445 0.23875163 -0.041805282 -0.18453653 -0.094592363 0.038137458 0.07096193 0.022446435 0.10001282 0.29234391 0.033802629 0.12620582 -0.064495176 0.01701422 0.17668471 -0.033076845 -0.10997178 -0.13826245 -0.14534438 -0.079478413 -0.067938574 0.13911927 0.14531459 0.21699665 0.20801975 -0.04523864 -0.07964927 -0.13712722 0.13608992 0.16954324 0.3045646 0.09680666 0.027236525 0.022619097 0.00045875029 0.014639014 0.077936858 -0.070566364 0.15731597 -0.050048072 0.11951874 -0.025421593 0.069220431 0.15704502 0.12729362 -0.0048897592 0.11375351 0.054537367 0.14678185 0.079609402 0.086037956 -0.013992275 0.035095669 0.21440314 -0.079692088 0.038906183 0.1123532 -0.10955887 0.19990388 -0.0024613773 0.13756755 0.035974361 -0.055963788 -0.0056231893 0.2365426 0.18284234 -0.065212756 -0.0094400179 0.069230229 -0.24269679 -0.10731204 0.0091937575 -0.041061074 0.039052635 -0.20106222 -0.026714945 0.035530161 0.048970625 -0.28540012 0.11252367 -0.027262446 0.10970606 -0.077509381 -0.017608898 -0.052206151 -0.065388821 -0.1231648 -0.11402391 0.0034359808 -0.010737962 -0.10923494 -0.012533311
101 -0.071122654 0.030424835 -0.16942795 -0.13329852 -0.14447348 -0.28666332 0.063816056 0.025858384 0.13222364 0.0095981965 -0.046603382 0.057811383 0.025087699 -0.027621988 0.002858751 0.037138153 -0.035136845 0.097005419 -0.19003524 -0.03764195 -0.053065859 -0.13001609 -0.049341392 -0.16472182 0.11523571 -0.017446589 -0.037294783 0.14303704 -0.0047387388 0.13552912 0.015190802 0.37040061 0.06588795 -0.019351264 -0.051310461 -0.25871268 -0.08799696 0.098353043 -0.24825728 -0.086618617 0.13542989 0.11758912 0.25310925 -0.054991309 0.12003148 0.01992351 -0.060625665 0.11502302 -0.040216107 0.068528414 -0.062564284 -0.21733506 -0.095054716 -0.049721852 0.041632593 -0.19306901 0.080101475 -0.15416081 0.074908175 0.19907874 0.22906344 -0.083880737 0.15770085 -0.10095819 0.20518225 0.23192099 0.16947553 0.13629439 -0.012238343 0.031345036 -0.059119061 -0.026420915 -0.061560571 0.17475641 0.10903306 0.1562245 -0.088171631 -0.11836245 0.060330495 0.061044734 0.074276663 0.058369737 0.1048382 0.05496002 0.076333269 0.16790657 0.024014639 -0.017754877 -0.041472234 0.23503079 -0.16289885 0.08721862 0.10089342 -0.13622028 0.033998322 -0.074754581 -0.054865394 -0.23149192 0.16502717 0.099647745 0.054855254 -0.043720618 0.13189138 -0.077040724 0.077849239 -0.24239138 -0.044874221 -0.064525589 -0.17176148 0.0095098456 -0.072677672 -0.04729322 0.15501994 0.052665669 -0.14140359 0.025929788 -0.025274403 -0.13026373 0.014274257 0.10560816 0.043774687 -0.030706622 0.037416756 0.1261283 -0.047374893 0.033311192 0.058449049 0.014184636
476 -0.19845611 0.01471411 -0.25752732 0.016279612 -0.036389504 -0.2509591 -0.098111495 -0.077817455 0.19229616 -0.023939542 -0.036514066 -0.1126499 0.059207328 -0.22472642 -0.0079558156 0.11470619 0.025132744 -0.0043699788 -0.11161083 -0.028775666 -0.19781177 0.035902265 -0.033054385 -0.18166035 -0.1255191 -0.070217207 -0.01287392 0.18221223 0.031010646 0.052413311 -0.0035152982 0.20574644 0.041060992 -0.017278893 0.071788818 -0.11180048 0.0040147696 0.069764398 -0.1747428 0.11131299 0.20065744 0.011140169 0.15862769 -0.051382169 -0.086953595 0.17834158 0.20567197 0.028572407 0.0045972653 0.04029502 -0.027799731 -0.11549714 -0.14887978 -0.17055462 0.060167853 0.080688633 -0.10460816 0.043204721 0.093841136 0.10047498 0.13153143 -0.023062818 0.12547925 -0.063653082 0.15810214 0.17687549 0.34436467 0.16177478 0.0065829121 -0.092307374 -0.13022995 -0.074935801 -0.12438803 0.2601999 -0.04282992 0.039925154 0.13790543 -0.033979814 0.16407597 -0.057214156 0.025833854 0.076281153 0.13537119 0.16726154 -0.0059860731 0.13477546 -0.062407061 0.1587888 -0.17884402 0.11928548 -0.031976242 0.10862519 0.16949256 0.10268888 0.08862152 -0.08084017 0.095182717 -0.22706455 0.26635402 -0.023461547 0.14386623 0.17326938 0.079094939 -0.135804 0.19282641 -0.26218063 0.089772753 -0.085549109 -0.088481389 -0.2572318 -0.14930055 0.24173217 0.095867582 -0.08232566 -0.066612273 0.1672935 0.12064827 0.026879491 0.022813831 -0.031249635 -0.01229725 0.012994073 0.18573508 -0.13716941 -0.023668265 -0.1273649 0.14829266 -0.17460018
135 -0.069111705 0.04366998 -0.034276836 -0.035398409 -0.07822793 0.0069750543 0.028517483 -0.091042437 0.21994786 0.17088653 -0.0091312909 -0.085717916 -0.029635461 -0.027699126 0.058909409 0.027653875 -0.10473492 -0.088181868 0.031409536 0.0788946 -0.032856036 0.0084866872 -0.066960245 -0.17483021 0.010489943 0.0074697682 -0.055860613 -0.11461616 0.056723539 -0.037202924 0.066583447 0.28102538 0.099464618 0.07348109 -0.032916699 -0.19379415 -0.11010935 0.080909766 -0.025920793 -0.088691622 -0.012293401 -0.014732495 0.088237926 -0.036909096 0.17405869 0.16292585 0.050172649 0.075117923 -0.039878651 0.10126041 -0.04356784 -0.084028274 0.0079445625 -0.058440536 -0.024351774 -0.1817389 -0.18296862 0.18197495 0.12385088 0.12606084 0.26855391 -0.13220088 -0.07071466 -0.15789752 0.037425168 -0.01746702 0.1368086 0.17738786 0.013909909 -0.14583983 0.0326459 0.093733445 -0.048669297 0.019003129 0.20539485 0.040053766 0.13491069 0.029856747 0.0033779528 -0.11964977 0.059038896 0.18967153 0.19149724 0.13340198 0.073034823 -0.0059449854 0.050996322 -0.09799587 -0.064829834 0.12343119 -0.034801345 -0.084792294 0.19259371 -0.040541608 0.093487762 -0.15712529 0.1031345 -0.055665724 -0.052355841 0.054787848 -0.011129415 0.093501963 -0.096610844 -0.12648548 0.013652938 -0.16405861 -0.023922589 0.038788546 0.0437144 0.0011218316 -0.10071015 0.016286464 0.1304453 0.13633402 -0.084903039 0.082850747 0.06593024 -0.051665749 -0.021536333 -0.02739054 0.12069619 -0.078954652 -0.11176595 -0.029463185 -0.22254249 0.062843941 -0.062711351 -0.11450945
69 -0.097588561 -0.0012585805 -0.074180491 0.054299098 -0.17751585 -0.27526617 0.047849156 0.050566949 0.0037603835 0.0025814159 0.061376218 -0.22154711 -0.023543676 -0.045828905 0.13204262 -0.044525761 0.05049504 -0.26546264 0.014995269 -0.063790761 -0.12752926 -0.070896901 0.039895188 -0.11890367 -0.050707892 0.0090137403 -0.11940573 0.19694616 -0.073757187 -0.013143814 0.0432708 0.16443245 0.12377097 0.15700276 -0.06907177 0.0048942789 -0.20077449 0.066897258 -0.076182231 -0.12173813 0.13454437 -0.029155012 0.23846647 0.047872931 0.062980369 0.0039172363 0.13222125 0.05021609 -0.003864246 -0.083560638 -0.042269897 -0.15778935 -0.13818844 -0.23163958 -0.027857888 -0.092836261 -0.27033091 0.21134514 0.0090100197 0.12954213 0.046380583 -0.1524033 0.16255519 -0.055875659 0.11210661 0.053465415 0.29713851 0.1282258 -0.17206484 -0.26282603 -0.10241441 0.12125025 0.02646845 0.08840628 0.19200458 0.16092384 0.22009875 -0.0034213227 0.053844243 -0.077284969 0.051513985 -0.058886293 0.24195012 0.18668224 0.19503418 0.17509937 0.021951757 -0.016489182 0.0041923025 0.020034119 0.053037278 -0.26998058 0.23976363 -0.19177353 0.0038082562 0.057592388 0.089335293 0.0055197552 -0.021857897 0.15034515 -3.4454233e-06 0.14622122 0.080839321 -0.079949647 -0.17118759 -0.1506912 -0.12909731 -0.015504953 0.034343954 -0.12489846 -0.076787353 -0.045395195 0.36518249 -0.073942207 0.0074013355 -0.057193585 -0.05746264 0.023715897 -0.17590396 0.16288035 0.029397577 0.1376925 0.0050914451 -0.19086875 -0.023217196 0.16117604 -0.010868942 0.23650588
459 -0.035092015 -0.016529351 -0.17217457 -0.013068575 -0.20111305 -0.24200641 0.22343603 0.11357804 0.15054195 0.10403959 -0.058959685 0.074311279 0.11300921 -0.043182861 -0.032693084 -0.089778237 0.20413445 -0.029536439 -0.010534422 -0.010453104 -0.025455829 -0.17498533 -0.027130742 -0.1450796 0.10368738 0.0053325435 -0.0014485943 0.19059457 0.016613211 0.071250938 0.085386194 0.27189955 0.086714163 -0.14630614 -0.079675034 -0.22786461 -0.10029217 0.011148695 -0.23614052 -0.13638236 0.033806663 0.27067718 0.33264053 0.046652924 0.1370531 0.077432506 0.010027071 0.25383359 -0.04304437 -0.0090931999 -0.10215732 -0.14045122 -0.080529407 -0.029355744 -0.094039597 -0.22934589 0.13342373 -0.019751649 0.065691903 0.2089476 0.057143874 -0.23118171 0.091637179 -0.14885703 0.27956721 0.19740574 0.12004714 0.061156042 -0.0051021902 -0.0079124877 -0.11086272 -0.052124981 0.10395162 0.20256592 0.014671985 0.19793068 0.06613183 -0.052648552 0.064464837 -0.00064028642 0.12250125 0.012816167 0.13206141 0.2308142 -0.06243306 -0.045130454 0.021127297 -0.019129714 0.14550653 -0.036372051 -0.10401608 0.037162136 0.20178919 -0.15605095 -0.088046663 -0.046009898 -0.046798527 -0.16516824 -0.060858797 0.023132641 -0.015482798 0.042885013 -0.025116788 -0.11136068 -0.12600972 -0.26581216 -0.049975414 -0.028931607 -0.082393304 0.019390719 0.0069342474 -0.18238597 0.13204286 -0.023055762 -0.083057642 -0.11096675 -0.12829144 -0.21586031 -0.1547246 0.24582629 0.070960857 -0.03946428 -0.1409521 0.086534277 -0.22660205 0.15678373 -0.072263733 0.034243703
294 -0.096512996 -0.064827539 -0.088714398 0.075025268 -0.18269435 -0.017322721 -0.01724237 -0.0064775045 0.3108446 -0.001321636 0.013205729 -0.1081533 -0.033864014 -0.0098062083 0.034723673 0.031725444 -0.03112236 0.065910533 0.23206431 0.064182609 -0.19521309 0.01358216 -0.12075993 -0.15550469 0.011696907 -0.1178612 -0.046933256 -0.13060533 0.047731671 0.12590541 0.14440817 0.043426581 -0.044143379 -0.0084471544 -0.0086404774 -0.080371201 -0.26446345 0.062181704 -0.18120021 -0.11536562 -0.001999561 -0.026124779 0.067383699 0.088239856 0.06782715 0.12465741 0.082446113 0.052741069 -0.024238985 -0.12231028 -0.047133408 -0.012594979 -0.15621263 -0.10943551 -0.086965546 -0.2038039 -0.15123634 0.22092797 -0.053701635 0.098903626 0.22272384 -0.11550145 -0.12934481 -0.20221847 -0.014352469 0.16208035 0.48340932 0.22237071 -0.11505854 -0.20687868 -0.13680094 0.22761329 -0.042181604 0.15991157 0.10316557 -0.026645817 0.072101891 -0.097302124 0.064731643 -0.073468469 0.066526897 -0.073355503 -0.0013487878 0.20266864 0.04659868 0.19214548 -0.10616568 0.03041436 0.045403853 0.03388042 -0.019071536 -0.13935287 0.080202885 0.077212311 0.10917688 -0.10927168 0.014104268 -0.1426034 -0.039336398 -0.10345919 0.080831759 0.03032445 -0.0066963974 -0.00019350002 -0.011255379 -0.13649739 -0.084638447 0.0038649898 -0.10376297 -0.034942947 -0.064749628 0.086420476 0.061917536 0.02768624 -0.1877954 0.07988786 0.083056301 -0.025545072 -0.10456409 -0.10715218 0.10492704 -0.17326328 0.038534291 -0.13856734 -0.087243393 -0.034958947 0.073783986 -0.030539442
215 -0.2830787 0.009340087 -0.2072082 -0.12590751 -0.30604556 -0.015401925 -0.14056779 -0.057153322 0.052995507 -0.061357252 0.00098335068 -0.14829199 0.018061517 0.029686419 0.13228902 0.019650007 0.090424292 0.12261613 0.1069221 -0.073137939 -0.123432 -0.015876785 0.064964324 -0.16389541 0.044178873 -0.089837343 -0.17295092 -0.067912772 -0.067537896 0.019425463 0.068431161 -0.029255357 -0.015882459 -0.018925324 -0.077111632 -0.037298694 -0.17662826 -0.12363771 -0.13560502 -0.1417475 0.18903829 0.17819443 0.014152324 0.32059807 -0.038601488 0.34115955 0.14226924 0.10377662 -0.044049513 -0.27230832 0.070076093 -0.16819696 -0.19418161 -0.12829064 0.030645065 -0.04099147 0.0050290152 0.26793677 -0.055754174 0.093319364 0.11753554 -0.25168717 -0.071768008 -0.22346132 0.056918569 0.18168388 0.28146967 0.066542841 -0.075143181 -0.040027682 0.027124932 0.11082191 0.13377766 0.25578219 0.036452845 -0.30419099 -0.086124144 -0.033007186 -0.05750956 -0.081688836 0.0051790951 0.10574841 0.2228884 0.30442461 0.080955684 0.10058864 0.040174004 -0.054634526 0.10452148 0.25444406 -0.062986188 0.08237014 0.14110348 0.12070134 -0.020201063 0.1067419 0.015836075 -0.13153307 0.025413731 -0.17961748 0.10356097 0.17415763 -0.16975397 0.16363734 0.0019694944 -0.2371529 -0.22370479 -0.19164966 -0.22929731 -0.02683194 -0.10794942 -0.10865556 -0.15080807 -0.042959332 -0.12600619 0.072793871 -0.013808672 -0.068336025 -0.16583012 0.12186885 -0.013031721 -0.36712396 0.1931926 -0.069006011 0.0084959585 -0.2094667 0.26761982 0.116056
33 -0.06157456 0.028306838 -0.081363849 0.041354503 -0.14571913 -0.10986785 0.046392459 -0.013522944 0.078094393 0.016678728 -0.0012099544 -0.0071909707 0.00039966896 -0.037526298 0.030745562 -0.077554278 -0.041168343 0.011716014 0.09079913 0.082283437 -0.060145587 -0.065935947 -0.0494623 -0.068088658 -0.0088608712 -0.099379353 0.026698926 0.082456253 -0.0066167461 0.095239565 0.04110964 0.19404696 0.011245397 0.032211449 0.016006365 -0.084561676 -0.029575279 0.079523541 -0.087996691 -0.13495839 -0.027824461 0.069944344 0.070727557 -0.050486155 0.11473011 0.22824526 0.023444662 0.14182943 -0.035412498 0.097234972 -0.065493934 0.040284552 -0.038688712 -0.17559284 -0.017351802 -0.21330851 -0.1389745 0.15418918 0.016305862 0.11974481 0.24949031 -0.20578997 0.071542792 -0.050771628 0.10720645 0.12680307 0.22763063 0.20339747 -0.13990544 -0.10484878 -0.045329254 0.0059720334 -0.014296256 0.15360613 0.10252231 0.11940853 -0.0044400087 0.068326548 0.03183401 -0.076853648 -0.015583735 -0.008878367 0.15804288 0.19359006 0.15119892 0.056638725 0.031373769 -0.078192756 -0.072258539 0.16744134 -0.123829 0.0046134791 0.13704988 -0.042980816 0.13748758 -0.12119512 -0.047962472 -0.010891628 0.013713029 0.078403048 -0.042343311 0.052190751 -0.015379569 -0.06875325 0.015226207 -0.19942594 -0.097998828 0.06175036 0.022770744 -0.097022176 -0.11414 0.022880096 0.11586179 0.12142207 -0.14143035 0.029870087 0.09671697 -0.0081744194 -0.091002628 -0.066364653 0.019746989 0.0040552514 -0.030445645 0.031071197 -0.09451028 0.026894469 0.062501721 0.028884163
209 -0.14207648 0.10888207 -0.040142074 0.011976672 -0.020800505 0.091157615 0.0020933426 -0.01276145 0.31442371 0.16610669 -0.034282863 0.046586346 -0.022767311 0.049474008 -0.011077986 0.13332669 -0.084803648 0.08420907 -0.058166683 0.11505824 -0.027139788 -0.049551014 0.028163075 -0.11488245 0.056457084 -0.064735435 0.010644275 -0.15860032 -0.11461715 -0.033578414 0.13094185 0.30031753 0.15681402 0.13894585 -0.044388719 -0.22585842 -0.015482252 0.039081011 -0.01064353 -0.14231366 -0.067616761 -0.054540034 0.22646415 -0.03706051 0.045957301 0.25806993 -0.0075144088 0.21131854 -0.13552289 0.048591726 -0.085357845 -0.16817248 0.0095918654 0.03136671 -0.028590672 -0.24023551 -0.15231109 0.14108093 0.05397141 0.14559357 0.28980091 -0.14130273 -0.018681826 -0.18391411 0.10262743 0.038910992 0.19088858 0.17656116 0.072346784 -0.13938972 0.14977829 0.12217363 -0.041654907 0.0032118023 0.11984236 -0.03319139 0.1186182 0.057555273 0.1046132 -0.16707021 0.22140305 0.22829889 0.13120753 0.22384901 -0.012255052 0.042003214 0.017019168 -0.16961381 0.015174029 0.088478133 -0.063359313 0.1000603 0.19203252 0.015249228 -0.021899145 -0.041847289 -0.1408675 -0.015790505 0.065193221 0.026693542 0.049192201 -0.024301685 -0.23803954 -0.058075089 0.092071578 -0.14074701 -0.10264231 0.077969871 0.057883743 -0.091320753 -0.10112511 -0.072790228 0.11491102 -0.010358457 -0.0065135327 -0.077862091 -0.042557925 -0.11141215 0.033060275 -0.079060726 0.10333247 -0.025245277 -0.11051104 0.15121944 -0.18056992 -0.084257558 0.092286497 -0.052062161
232 0.044637941 0.018876005 -0.089358941 0.073095508 0.034330796 -0.12529007 0.066692956 0.05646332 0.24771117 -0.062203601 -0.16566892 0.010287181 -0.0066266255 -0.098151356 -0.13077252 0.0053575565 -0.16837899 0.076263718 0.028826734 0.11046855 -0.050428197 -0.20858374 0.11099365 0.020906076 0.15622814 -0.16050492 -0.22360407 -0.040312991 0.012762343 0.19101208 0.018795693 0.21207219 0.064043403 0.01049667 -0.085349523 -0.082175426 -0.31717417 0.090942308 0.0038311705 0.035482604 0.029244462 0.033944931 0.20242646 0.21640889 0.11203025 0.15850589 0.2775428 0.022336042 -0.019980108 0.096823119 -0.12837714 -0.056506928 -0.047846638 -0.048401058 -0.018191693 -0.08959084 -0.18589559 0.18721893 -0.050969634 0.14386706 0.27914283 -0.068530656 -0.035588056 0.082733154 0.12473948 -0.054610282 0.16753727 0.23490509 0.19037209 0.041182559 -0.18405458 0.24025652 0.1272316 0.21727021 -0.048071399 0.12259141 0.22560103 -0.10106367 0.2004815 -0.036205076 -0.053599454 0.23139507 0.1387658 0.18682007 -0.081074692 -0.017236624 0.020993439 -0.10018636 -0.077702485 0.15558501 -0.15100664 0.050188459 0.17225756 -0.22034627 -0.12944628 -0.15886888 -0.05857465 0.022175478 -0.19004217 -0.0073340074 0.015524042 0.02912089 -0.20101218 -0.056463275 0.050938487 -0.043250822 0.045398213 -0.14338891 -0.11161017 -0.08395195 -0.22906905 -0.017820762 0.13161448 0.10400594 -0.15810697 0.069891438 0.073620543 -0.020974509 -0.10589314 -0.0027782477 0.31363177 -0.031275596 0.0021993357 -0.045370597 -0.073863231 0.10798475 0.0027565199 -0.11280801
467 -0.10076747 -0.11324635 -0.12837444 0.071957961 -0.19780585 -0.24638163 -0.053599857 0.089992262 0.12223686 -0.022273483 0.017351711 -0.19173406 0.016262149 0.020843733 0.26464298 0.038036939 -0.12422386 -0.048195917 0.0010332076 0.035839461 -0.17726661 0.077244543 -0.076100796 -0.19147336 -0.11598496 -0.13097003 -0.17138077 0.14322597 -0.076775268 -0.050682493 0.20006308 0.018307736 0.15437225 0.040822487 0.081814088 -0.022933867 -0.11025666 0.10747177 -0.094754145 -0.1038301 0.0016254089 -0.011582784 0.0362821 0.064486772 -0.07374455 0.20730579 -0.029205281 0.07690943 -0.11949775 -0.050863039 0.016987171 -0.16151841 -0.21191178 0.04690747 -0.14697555 -0.096971497 -0.12284847 0.18508729 0.19474408 0.26338604 0.25198898 0.066978104 -0.075322814 -0.1555268 -0.052652515 0.19764309 0.40182805 0.15439555 0.00071598403 -0.0339843 -0.051651444 0.0056686183 0.15871847 0.051566076 0.084188968 -0.071819089 0.0096114511 -0.13313238 -0.0049552601 -0.057873741 0.14315104 0.17500809 0.083087906 0.20305121 0.0094400765 0.13993452 0.11641794 -0.069557026 0.075687923 0.28063691 -0.053089295 -0.048309427 0.12005568 -0.0059649181 0.19138293 -0.040209409 0.17905922 0.15276544 -0.028692409 -0.00063479255 0.13318284 0.22519611 -0.05956031 -0.0088410368 -0.031823903 -0.09849593 -0.26139271 0.022329429 0.033508588 -0.028257499 0.028236175 0.073339716 0.00014606904 0.0088621415 -0.19579248 0.16585188 -0.024273403 0.098418072 -0.11661744 -0.046084478 -0.056140464 0.087627165 0.00042631716 -0.11912432 -0.06949956 0.051571906 0.035255224 0.03841953
337 -0.15340136 0.080690578 -0.092950694 -0.093349665 -0.098455898 -0.19586468 -0.12506987 -0.0039977767 0.13579892 0.14015065 0.04503857 0.13759875 0.016612954 0.067699537 0.020666953 -0.026509905 0.034581158 -0.063000523 0.077234857 0.084361166 -0.056623999 -0.10523897 -0.16442238 -0.11308809 0.13388219 0.01963407 0.074461125 0.09695939 -0.061670054 0.094778098 0.059846949 0.15178606 0.010661923 -0.030836005 -0.057814956 -0.12106498 -0.027323697 0.17526706 -0.026276965 -0.20719296 -0.015768798 -0.0013640341 0.11889622 0.035485923 0.25846097 0.28952828 0.088379562 0.096222706 -0.07498426 0.15820122 -0.10739355 -0.10229774 -0.1323926 -0.086676024 -0.073031917 -0.0471332 -0.042696636 0.15138985 -0.05355642 0.050186846 0.18635195 -0.003688633 0.098658718 -0.11400347 0.19103822 0.094800346 0.21820825 0.22376683 -0.011994498 -0.034614418 -0.12432888 0.069661535 0.01014425 0.035570916 0.10351484 0.16580805 0.009824167 0.23220198 -0.11450874 -0.10384213 0.034662209 -0.11488149 0.24748555 0.13764334 0.039103504 0.04885605 -0.081989944 0.09734939 -0.09427961 0.064097166 -0.1810441 -0.066112384 0.055507809 0.036729917 0.14179495 -0.13178691 0.084897473 0.080608614 -0.0057345717 0.041745201 0.008345088 0.20211838 0.060437184 -0.11154775 0.096035957 -0.25892392 -0.078281917 -0.053085387 -0.04728118 -0.1087347 -0.046647847 0.0097268829 0.13183565 0.019753151 -0.12635076 -0.016333576 0.04297309 0.064783148 -0.052041486 -0.088656798 0.085477754 -0.046211369 -0.14096785 0.11620629 -0.080906294 0.052147046 0.21952306 -0.002774751
256 -0.25079155 0.027321706 -0.020959586 0.10302269 -0.084324323 -0.093350172 0.18487987 0.0057477355 0.33994675 0.054390546 0.051618624 -0.037213858 0.13140006 -0.054929614 0.03033383 -0.13022666 -0.039347768 -0.062823012 -0.021037953 -0.050902795 0.052036535 -0.043669615 -0.096741423 -0.092235759 0.14730246 0.13902569 -0.031241756 0.14560679 0.051517498 0.043763842 0.0516342 0.13679306 -0.035487529 0.05861371 0.056139302 -0.14788848 -0.1259656 -0.00085934286 -0.12604815 -0.037896909 -0.036020532 -0.0055516739 -0.018960925 -0.17707464 0.18663715 0.16165677 0.021308586 -0.023252003 0.14013991 0.15192027 -0.12709865 0.0044868491 -0.14344449 -0.13097504 -0.01618435 -0.070003025 -0.12520052 0.034335863 0.13295734 0.22309674 0.30553308 -0.16526505 -0.067093901 -0.054256711 0.12931865 0.036752604 0.14998874 0.16870438 0.024327558 0.064544357 -0.044638623 0.035321731 0.032776255 0.10092698 0.052923728 0.15950422 0.037714843 0.14700796 -0.0057552014 -0.022747716 0.017309641 -0.026958233 0.26085266 0.017736482 0.06914454 0.055073984 -0.051186875 -0.0014878943 -0.017426997 0.10615589 -0.1503924 -0.068146721 0.12619227 -0.028267713 0.11203543 -0.20175144 -0.027733313 0.010056997 -0.083954871 -0.0081436159 -0.05734431 0.0055934247 -0.044945579 -0.11268999 -0.098243997 -0.18443489 0.002858425 -0.10498609 -0.05733325 -0.0012174691 -0.11700105 0.0015549018 0.2159615 0.03196229 -0.19138633 -0.063995272 0.090181813 -0.12755738 -0.025421077 -0.028130533 0.052743554 0.072195791 -0.14158249 0.099391781 -0.086275429 0.025086747 0.043868937 -0.021600176
390 -0.10136702 0.065074861 -0.12105425 0.037285265 -0.13542755 -0.1328288 0.045933928 0.0045958729 0.21413311 0.033594821 -0.13953945 -0.01687419 0.118508 -0.0072963275 -0.053245105 -0.055660937 -0.0042122696 -0.063671254 0.048023146 0.081036843 -0.081983738 -0.02261013 0.022843391 -0.017257143 -0.011377325 0.056656629 0.11790444 0.14649689 0.0017504544 0.085503414 0.10398836 0.19963256 -0.021015275 -0.0045691985 0.050672386 -0.11574079 -0.079232506 0.12259129 -0.076449499 -0.11717719 0.083863117 0.090860471 0.12288405 -0.065791264 0.21578364 0.15694532 0.066525295 0.16041742 -0.1087301 0.027925812 -0.1899285 -0.1145331 -0.034566343 -0.10511627 -0.070346072 -0.13973445 -0.1604958 0.15731065 -0.0094899526 0.13460819 0.26684061 -0.022752123 -0.042842213 -0.13641316 0.10171314 0.14288172 0.23549119 0.063241668 -0.015150122 -0.13845202 -0.033506088 -0.0072420221 0.027095357 0.096283533 0.05900323 0.13954131 0.074902132 0.10251608 0.096182048 -0.087513626 0.0063192989 0.0035927682 0.17853819 0.2000875 0.13116492 0.022342697 0.050524991 -0.050839663 -0.15168428 0.055773053 -0.044628266 -0.068801589 0.13547379 -0.16643389 0.048867777 -0.037783336 0.099231243 -0.096500516 0.016451016 0.040339567 0.020284737 0.093959875 0.048506163 0.034391478 0.019050336 -0.22779688 -0.076210141 -0.0069150948 0.013109272 -0.092854209 -0.10462668 -0.037261497 0.12943164 0.06883771 -0.068357274 0.034720935 0.081303589 -0.013486846 0.049304761 0.032386228 0.14424063 -0.042355791 -0.044702727 0.055309091 -0.1497481 0.11214238 -0.00428236 -0.013387037
323 -0.0067163464 -0.047062453 -0.16250437 -0.13797387 -0.065684371 -0.0022883792 -0.13750027 0.020100916 0.033063255 0.010040635 -0.060074031 -0.049449477 0.039481144 -0.091366507 0.046500415 0.1383906 0.022231024 -0.17206708 -0.056245085 -0.039643865 -0.036915593 0.079009295 0.014506668 -0.15344635 -0.19181055 -0.24866407 -0.02455459 0.17418872 -0.051416114 0.020461021 0.16456085 0.077558719 0.035189673 -0.035469986 0.010221813 -0.080217719 -0.20732367 0.13808927 -0.19666551 -0.22319376 -0.10239657 0.14712244 0.020258242 0.024739936 0.063900836 0.15455987 0.24628741 0.15692085 -0.03499151 0.27254966 0.11971639 -0.25131369 -0.012796238 -0.14833578 -0.10078893 -0.094716929 -0.2706129 0.31571403 0.13750878 0.029782549 0.21160048 -0.0070236097 0.0059630042 -0.12084472 0.18164888 0.17477261 0.16587655 0.11808574 -0.068419404 -0.018793309 -0.14225994 -0.11892154 0.18728413 0.17442419 0.20548999 0.0052501517 0.25537527 -0.013642819 0.019985506 -0.1125745 0.035474524 0.043971084 0.13734683 0.14163823 -0.015811216 -0.031111998 -0.14918536 0.14405772 -0.0047024875 0.0205878 -0.11068045 -0.22310483 0.25187874 -0.017375585 0.18912353 0.079059362 0.078546286 -0.056549206 0.058273237 -0.096175313 0.19844037 0.11901864 -0.12383406 -0.062217925 -0.019108824 -0.21130812 -0.019459942 -0.048539285 0.14586568 -0.092591517 -0.10503812 -0.10109419 0.14886819 -0.055694554 -0.050799701 0.14872491 0.0041842586 0.022633579 -0.087140322 -0.0093150381 0.13873763 0.020632174 0.0082449112 0.073071845 0.078083843 -0.0055108611 0.0068595051 -0.019787587
83 -0.05685363 0.11864153 -0.085319839 0.099459715 -0.096987322 -0.10562932 0.028945317 0.020066852 0.19297355 0.013239196 -0.028269261 -0.11337125 0.077891894 -0.068544254 -0.1167882 -0.053835966 -0.070777632 0.050081074 0.080703288 0.10109178 -0.08831019 -0.08780022 0.057296835 -0.091918796 0.026658906 -0.092663914 -0.064122625 0.020434691 -0.040851336 0.018273387 0.015241932 0.18861061 -0.062351678 -0.063947879 0.069560289 -0.17065601 -0.1853812 0.18919986 -0.16997974 -0.035300139 -0.047128927 -0.0071509629 0.087677024 0.057659816 0.21458879 0.10384342 0.1618204 -0.0012931571 -0.020768177 0.048926558 -0.024274645 -0.15985933 0.059419755 -0.074608304 -0.078704737 -0.035148516 -0.20718278 0.23125553 0.097788133 0.25356576 0.27125949 -0.12986317 0.026487201 -0.070167303 0.053720653 0.016528776 0.18526942 0.042084068 0.033862982 -0.013118856 -0.064856812 0.125367 0.010762238 0.2936323 0.04909071 0.083794549 -0.0009027982 -0.11611059 -0.060905479 -0.10465859 -0.045173105 0.050283466 0.21562745 0.131715 0.021668548 -0.014205064 0.041693665 -0.077255189 -0.0066299294 0.18587218 -0.15615571 0.12958328 0.079136647 -0.046151876 -0.10757371 -0.094593547 0.15321204 0.0059087593 -0.083567142 0.12650466 -0.054211479 0.0051765414 -0.10476896 -0.10177684 0.014859293 -0.11974492 0.083473481 -0.0060970481 -0.13710304 -0.1452851 -0.19896515 0.0013774084 0.10762742 0.19642533 -0.10934114 0.085697964 0.16756579 -0.092903696 0.00086919224 -0.050758112 0.23599359 0.094656512 -0.0074997549 0.036349427 -0.086316101 0.063035756 0.01125791 -0.021544276
167 -0.011090672 -0.046718508 0.034126837 -0.22099529 -0.24609707 -0.13633932 0.070816934 0.021899499 0.17039952 0.1390392 -0.069734171 0.091778457 0.14825124 -0.13598269 0.092115864 0.036242101 0.040539026 -0.17578298 0.090626627 -0.0059927218 -0.057271313 -0.16077486 0.0021302011 -0.14993921 0.10940599 0.18524952 -0.0032581349 0.027892062 -0.041647281 0.090587482 0.0098346509 0.2909368 0.047087051 0.098747052 -0.062762968 -0.17926653 -0.025701309 0.11813669 0.077308014 -0.28106225 -0.15922946 0.09423136 0.23938206 0.050698474 0.10089759 0.14668426 0.13123061 0.20944721 -0.058750041 -0.11689448 -0.12020446 -0.14439349 -0.079371609 -0.10974775 -0.058368009 -0.17243023 -0.054388817 0.17849731 -0.037582371 0.10997058 0.19468741 -0.24272045 0.16307783 -0.031422522 0.14561644 0.051657826 0.19573256 0.22160017 0.051788367 0.019708535 0.03714649 0.00067421451 0.091178462 0.14504805 0.027858917 0.27440989 0.13764718 -0.17534311 -0.059886951 -0.17397656 0.056849264 0.052924756 0.25630665 0.0095309447 0.094724685 0.20335375 0.10482694 -0.014083483 0.015343612 0.030071985 -0.046960142 0.13376054 0.14917138 -0.044473745 0.071665026 -0.033886667 -0.092577688 -0.037004117 0.037389915 0.19274512 0.047842186 0.16526878 0.038981713 -0.069719546 -0.084492154 -0.16283259 0.072069615 0.071051843 -0.028736472 -0.091002479 -0.081331365 0.01949683 0.024754167 0.018567998 -0.026939448 -0.11797396 0.048190892 -0.050388057 -0.045918081 0.083390966 0.023555819 -0.0097914124 -0.066597655 0.028000398 -0.15743439 0.15301156 0.046623487 0.045517083
343 -0.089971177 0.060940884 -0.074232161 -0.011915594 -0.054304846 -0.16672845 -0.038697422 -0.13844295 0.10758504 0.029143898 0.065941006 -0.12921193 0.0543602 -0.053916272 -0.08856298 -0.048968758 -0.03650422 -0.0095847854 0.056954764 0.12581067 -0.056812957 0.050260831 0.017289959 -0.072843306 0.15001194 -0.085657187 -0.011058159 0.036820304 -0.031517103 0.061827455 0.044182863 0.18891729 0.054113999 0.08240287 0.063468985 -0.076174214 -0.20727503 0.054035995 -0.027095191 -0.010849288 -0.011045528 0.066770859 0.1988811 0.053219717 0.15548038 0.18514846 0.013245835 0.074525766 0.016901383 -0.0033346147 -0.108451 0.0038030513 -0.093231909 -0.05478235 -0.048198372 -0.087194972 -0.1665865 0.12886077 0.10218144 0.1001046 0.29586017 -0.10963656 -0.071993381 -0.10421433 0.14966339 0.030094316 0.25289196 0.18801597 0.044436984 -0.1581354 -0.079491869 0.035834178 -0.064280666 0.15011805 0.13337058 0.12704317 0.13934921 0.12961359 -0.040253375 -0.030352155 0.078814045 -0.0077002854 0.1577915 0.06535282 0.11551523 0.0086821467 0.034676965 -0.015359908 -0.027844111 0.17049879 -0.11528945 -0.061650362 0.096384935 -0.13753802 0.039490756 -0.069930583 -0.0081541734 -0.038293883 -0.10999514 -0.027517609 0.11458701 0.066819265 -0.063582897 -0.0084363967 0.05784864 -0.15400384 -0.032217819 0.010624916 0.0045339246 -0.059186548 -0.18960039 -0.017338015 0.11231851 0.023883652 -0.14053054 0.037358854 0.11214065 -0.095186912 0.0013311877 -0.14349496 0.065051489 -0.065284982 -0.11297286 0.0073384028 -0.20678067 0.028678158 0.043955706 0.02160028
406 -0.078299001 0.0041188113 -0.16209067 -0.045124508 -0.08657635 -0.16932942 0.031388666 0.070275523 0.26507208 0.16140573 -0.035642073 -0.086837485 0.069078274 -0.16387133 -0.016914167 0.044932388 -0.034567572 -0.17842707 0.19348852 0.058765005 -0.12828729 -0.02833833 0.049202662 -0.055747326 0.026854638 0.069665968 -0.017277697 0.22909036 0.0074759573 0.21975203 0.025326308 0.29310399 0.11028954 0.011786661 -0.020581253 0.015979849 -0.25883093 -0.021193201 -0.22653149 -0.036227074 0.14051317 0.0037780625 0.21189687 -0.092988357 0.10309618 0.046857856 0.0044317646 0.10208248 -0.13607913 -0.044387035 -0.19678147 0.056227081 -0.041513845 -0.080876909 -0.070948787 -0.073044628 -0.10964223 0.15740874 0.06530416 0.062154148 0.14318705 -0.21675165 -0.034434829 -0.13883349 0.17707592 -0.0033405928 0.21476409 0.25439122 0.12065233 -0.11249408 -0.11101679 0.10753785 0.025626609 0.0033847101 0.085029945 -0.0071497578 0.27729964 0.037094988 0.049225822 -0.12421383 0.037548017 0.010221288 0.10027559 0.0014008448 0.12327167 0.048841342 -0.16755502 -0.020482989 -0.053144436 0.10798747 -0.0017881166 -0.036942109 0.18520941 0.02131759 -0.039260209 -0.048328176 0.04571712 0.11388599 -0.11013819 0.1168263 0.18142889 0.18331489 0.12875086 -0.15600233 -0.090831719 -0.14011416 -0.060902324 0.12107436 0.15932684 0.10274842 -0.12236892 0.046957403 0.11613144 -0.058199801 -0.0071374904 -0.035392612 -0.1096463 0.003472582 0.044613194 0.04314483 0.16687374 -0.050964255 -0.10907119 0.014235511 -0.181254 0.047705639 -0.057836454 -0.10947695
62 -0.082224026 -0.020845946 -0.16610333 -0.023340682 -0.089824252 -0.070439324 0.046369497 0.0616672 0.086149961 0.075810626 -0.13530833 -0.056083534 0.084802963 0.068106599 0.075000994 -0.027880274 -0.043416224 -0.088254318 0.073503412 0.032792885 -0.10729164 -0.17254186 -0.062581383 -0.10962518 -0.0054312744 0.05257624 0.082534879 0.25340524 -0.062562622 0.1515435 -0.01834462 0.19380347 0.00024155363 0.062636487 0.12763083 0.072370276 0.011755666 0.17427287 -0.19436705 -0.029440301 -0.001861824 -0.0080494136 0.21779104 -0.14932945 0.081267975 0.099731699 0.086853623 0.025544235 -0.03413729 0.014267648 -0.14277092 -0.054499071 -0.052922852 -0.14442134 -0.056894895 -0.1900124 -0.13783051 0.16970317 0.037975445 0.12300286 0.21650746 -0.14645827 -0.012943864 -0.21042092 0.11985455 0.048436575 0.16475543 0.1099338 -0.059837334 -0.14252271 -0.072261967 0.10344382 -0.10125329 0.0072116489 0.15704741 0.25066862 0.16220371 -0.0023730714 0.013856541 -0.16553628 -0.018916925 -0.067644089 0.20997916 0.10789683 0.12836763 0.035763003 -0.089704454 0.18416756 0.042269681 0.14089337 0.078098521 0.045334987 0.28368229 -0.17400545 0.12595926 -0.067614183 -0.047300696 0.063039713 0.040319338 0.17625231 0.11951962 0.14608321 0.14483123 -0.063509598 -0.13345502 0.012868773 -0.015889088 -0.19915578 -0.035911877 0.072827801 -0.14938672 -0.18210194 0.24857232 0.032331251 -0.115941 0.048704691 0.050141439 -0.095405377 -0.13613988 0.043278098 0.12280115 0.045448352 -0.0061111343 -0.097486958 -0.096654274 -0.037468258 -0.023165444 -0.071105994
373 -0.19553208 0.020523245 -0.0726927 -0.019105172 -0.067563146 -0.044429701 -0.13725415 0.02361073 0.32354495 0.011474708 -0.10511798 0.0090121953 0.11969019 -0.069821879 -0.03257414 -0.066080831 0.12752472 0.017750284 0.061085783 -0.09391126 0.039129943 -0.06522572 0.049502488 -0.12965322 0.030540546 0.035542633 0.026671059 -0.060129203 -0.0075273891 0.0068671014 0.084682807 0.10976158 -0.11790355 0.11749259 -0.10430544 -0.21129528 -0.1105309 0.071118534 -0.10826983 -0.029637672 0.032426555 -0.069773123 0.035684969 -0.0016929943 0.23568687 0.32299772 0.01870653 0.15330775 0.014749008 0.11546336 -0.13298941 -0.0052511697 -0.10452654 -0.025958538 0.036877327 -0.10623575 -0.082909755 0.09085951 0.012231908 -0.010649594 0.23772606 -0.020918686 -0.22667366 -0.13981101 0.2587035 0.28404227 0.25880909 -0.025107482 0.050201908 -0.080080077 0.23437336 0.0074457489 -0.037059318 0.12040338 0.01040944 0.11648013 0.025079252 0.035575047 -0.036273886 0.061453439 0.13181454 -0.029039437 0.2388819 0.16264553 0.05240659 0.038405977 0.020689908 -0.0048794062 0.099926047 0.064190641 0.06153712 0.0078895343 0.1310135 -0.13753831 0.026624862 -0.059652355 -0.063598752 -0.029510502 -0.21785781 -0.05625793 -0.1156097 0.067592002 -0.095835552 0.058009256 -0.091595434 -0.24525551 0.039281715 0.0018057112 -0.072890043 0.042812437 -0.073097967 -0.085428379 0.096235178 -0.056234922 -0.022662215 -0.12198649 -0.025360053 -0.10725906 -0.169241 0.084363207 0.1026039 -0.14449438 -0.1924046 0.25277153 -0.11772102 -0.0034474854 0.040547915 -0.026925778
251 -0.13347098 0.036344018 -0.090780564 -0.0095307902 -0.11680984 -0.093763627 0.027671013 -0.017057449 0.1719711 0.12280699 -0.030655481 -0.037986219 -0.0004809018 0.031237913 -0.027884005 0.025528986 -0.085883938 -0.099448673 0.053422321 0.033033632 0.066180795 -0.069569178 -0.073267624 -0.11546469 -0.022748586 -0.11070215 -0.079702161 0.05823813 -0.051357329 0.13091482 0.048991799 0.15055631 0.088121414 0.10480395 0.0021431297 -0.10775601 -0.11467656 -0.0032675129 0.017205125 -0.10833307 -0.00071942469 -0.057935975 0.078633182 -0.097195663 0.11894204 0.14172724 0.01840087 0.12697975 -0.06285961 0.095815673 -0.083661377 -0.024109049 -0.062092863 -0.079083733 -0.12739609 -0.18102422 -0.22337341 0.26608542 0.042441789 0.10145033 0.2993274 -0.064244092 -0.041341234 -0.091185048 0.058903053 0.17728646 0.26782894 0.19561793 -0.0068985005 -0.13476296 -0.059877109 0.091747276 0.046114888 0.1743308 0.034017269 0.066082753 0.085449331 0.013757551 0.071210563 -0.049790829 0.033680145 0.0703521 0.12137187 0.068534292 0.15036295 0.0090858536 0.11271495 -0.029187951 -0.044854332 0.13355714 -0.02374747 -0.026478624 0.13228269 -0.098255463 0.08432366 -0.020477038 0.043712098 -0.019410837 0.069631003 0.065309256 0.053684231 0.0078789452 -0.0024602022 0.0033069064 0.017777171 -0.22248639 -0.058207322 -0.013477813 -0.027585305 -0.033563908 -0.18006022 0.035962112 0.15484275 0.025240833 -0.073726565 0.0035215125 0.12479765 0.029346056 -0.022904104 -0.10807797 0.12435499 -0.02643064 -0.068226941 0.036638845 -0.12254404 0.090884134 0.14408289 0.0070600105
98 -0.11535112 0.064659856 -0.14750007 0.018160438 -0.14363432 -0.081550516 0.13030034 0.038919847 0.10005036 0.13555977 -0.045318585 -0.081688859 -0.052431315 -0.00043191409 -0.012074149 -0.074099503 -0.0026616384 -0.051890645 0.00074255787 0.10089529 -0.02837255 0.0074177338 -0.12527314 -0.15529981 0.081372425 -0.062207397 0.01923354 0.022773962 0.016148191 0.002346629 0.0088173598 0.17734715 0.073358506 -0.011326076 0.001132653 -0.023235183 -0.16696963 0.081698462 -0.0077144294 -0.060191765 -0.025796855 0.091444798 0.14915735 -0.016552363 0.12943509 0.11263728 0.10574815 0.11637877 0.068699911 0.03919518 -0.12924911 -0.045156341 -0.10972942 -0.069355831 0.03160385 -0.16956168 -0.18760079 0.11928836 0.052243929 0.08242546 0.30545011 -0.073180601 -0.026217345 -0.090502352 0.047236942 0.11963523 0.28553838 0.16683322 -0.011817649 -0.046712194 0.02121816 0.11825691 0.0066171186 0.068675809 0.086387083 0.170518 0.12334897 -0.014323862 0.019619508 -0.07748998 0.03640639 0.036851645 0.1455451 0.17861646 0.10037027 0.045404669 -0.10090362 -0.047421228 -0.074406832 0.10759835 -0.06378109 -0.044270609 0.17325053 -0.17134602 0.14553908 -0.095322192 0.020497726 -0.041103035 -0.14129329 0.11848714 0.070519075 0.02584105 -0.088306487 -0.074000552 -0.027232559 -0.17640239 -0.052371845 0.030562142 0.026485816 -0.011085349 -0.084103428 0.054779481 0.051812466 0.014630008 -0.19958915 0.0057257628 0.021510718 -0.039239272 0.010528302 -0.22986396 0.084032431 -0.055455253 -0.045214608 0.060122289 -0.064279713 0.030743817 -0.040763669 0.024786426
246 -0.092194974 0.10345189 -0.085166149 0.0030568379 -0.18710731 -0.080543377 0.05257402 -0.004970124 0.11959393 -0.0091130668 -0.079654276 -0.0058733644 0.019861288 0.011159924 -0.19331686 -0.14219868 0.11103261 -0.18940358 0.19547208 0.070437543 -0.063633457 -0.033631057 -0.038199022 0.029229542 -0.046946604 -0.057275843 -0.026955266 0.23390165 -0.17699389 0.07375256 0.082477465 0.014682489 0.090374798 0.047488607 0.005903061 -0.21578941 -0.10073327 0.13638942 0.016023202 -0.21513301 -0.046623591 0.031629395 0.10514936 -0.051369846 0.17367503 0.22371913 0.017711155 0.099898726 -0.095782742 -0.032151558 0.063404009 -0.073820628 -0.15796615 -0.13086876 -0.11686911 -0.13420621 -0.099609733 0.12028623 0.18368843 0.23081668 0.27946109 0.07430923 -0.02825775 -0.046032794 0.15144224 0.23990239 0.30030966 0.16841757 -0.046854269 -0.070730604 0.022460271 0.069055684 -0.017701684 0.0081802914 0.10086519 0.17151938 0.0043419795 0.036681786 0.073254772 -0.0003927511 0.039337855 -0.037501343 0.24133676 -0.027370874 0.13266942 0.10954545 -0.011483432 -0.037427697 -0.097313017 0.19205162 -0.20031442 -0.11839809 0.15199119 -0.081057549 0.14866114 -0.050077941 0.12836803 0.041601285 -0.099714726 0.063445576 0.16937833 0.011600501 -0.090486296 -0.054177925 0.043963257 -0.18305367 -0.015294065 0.019752109 0.0089661721 0.067745 -0.12996645 -0.015647329 0.0092234071 -0.032707542 -0.091942005 -0.043481346 0.1473822 0.033300832 -0.0745501 -0.011558146 -0.09665069 0.031056162 -0.062694073 0.018468831 -0.02018721 0.050076146 -0.0092938449 0.0099883471
353 -0.18438925 0.012030132 -0.070933245 0.13254057 -0.076431796 -0.13434546 0.044642214 0.010841219 0.14856879 0.092237674 -0.13329995 -0.041715331 0.092187099 0.032461911 -0.058640126 -0.14017437 0.029347213 -0.04080338 -0.017107137 0.025433958 0.04183773 0.037709799 -0.026461974 -0.12615611 -0.036228769 -0.021417787 0.034391083 0.063873351 0.088048652 -0.033587903 0.046321809 0.24175024 -0.0046625151 -0.00090632646 0.0082436334 -0.095987029 -0.058245257 0.10781739 -0.12445734 -0.11114223 0.10553712 0.10974162 0.13525493 -0.023451803 0.10483515 0.083853975 0.11741433 0.084243484 -0.0057178284 0.11024269 -0.19791014 -0.11615309 -0.073799446 -0.073925957 0.028206661 -0.15553692 -0.075225338 0.10643835 0.17916425 0.18168627 0.28116602 -0.10218895 0.013649938 -0.026459705 0.087889522 0.084231064 0.28906214 0.16222245 0.041000981 -0.051044397 -0.059446421 0.023660716 -0.18490247 0.12024821 0.068329141 0.2251787 0.11264883 -0.027055033 -0.0094988076 -0.035937417 0.026064942 0.0076286374 0.14172824 0.14455262 0.092420369 0.062854826 -0.017578337 -0.073141374 0.025008842 0.00829551 -0.10744717 -0.034382831 0.16208677 -0.033589799 0.15484029 -0.12098576 0.021599937 0.0018656035 -0.035101559 0.10488316 0.083941549 0.074426793 -0.0067620114 -0.030772181 -0.01859463 -0.1648418 -0.067878909 0.0031988393 0.0068260189 -0.011720186 -0.13460149 0.031271681 0.18186159 0.079697415 -0.064467154 0.04276 0.11673065 -0.058507387 -0.012516396 -0.14534508 0.15866978 -0.1231041 -0.071020916 -0.012945433 -0.127929 0.055300307 0.069076404 -0.046105783
51 -0.051878311 0.015262757 -0.16056028 -0.034891281 -0.077096492 -0.045868184 0.047570016 -0.069875479 0.16802864 0.083535381 -0.037845436 -0.047145713 -0.019622501 -0.059369478 0.0068449993 0.005907041 0.030177206 0.016313326 0.098512165 0.1271369 0.0054786541 -0.009201536 0.030468443 -0.15796544 0.035422698 -0.032889929 0.10108024 0.13409962 -0.090018496 0.18785894 0.11843097 0.15695207 0.099771492 -0.02246801 0.0064313938 -0.034574486 -0.02638568 0.099398613 -0.047456402 -0.12742712 -0.032573648 0.038768139 0.066250809 -0.052585583 0.22475411 0.18766151 -0.028209085 0.073031053 0.037303105 0.0054971632 0.068421885 -0.0069606882 -0.018499579 -0.011053432 -0.10463351 -0.25779074 -0.11393835 0.086415291 0.020076133 0.17644425 0.32250088 -0.15276632 -0.050515123 -0.099420711 0.1610904 0.064251371 0.23353557 0.18541209 -0.028830912 -0.2185324 -0.053496841 0.074590452 -0.0066510676 0.15271166 0.02192712 0.20617673 0.012230708 0.036123503 0.028512625 -0.099557139 0.010275298 0.028524835 0.14110361 0.049835328 0.026567226 0.054187644 0.027088284 -0.12115169 -0.070604108 0.10626643 -0.11070567 -0.076639056 0.086522721 -0.10597495 0.1022376 -0.080475293 0.012020169 -0.027375054 -0.022894688 0.068033703 0.077945568 0.041180689 0.024816161 -0.097655311 -0.017100509 -0.24416281 -0.018486457 -0.053771239 0.023271741 -0.026199216 -0.18752113 0.037856888 0.072619319 0.0076224781 -0.16217102 0.1676915 0.16285603 0.02943171 0.050595336 -0.057464514 0.17096937 0.073009267 -0.16454135 0.05454582 -0.042118236 0.033778124 -0.034455143 -0.020072861
173 -0.11365566 -0.0064548641 -0.15492152 -0.021105623 -0.052441269 -0.1252867 0.031876031 -0.059751634 0.22082905 0.13362885 -0.042831283 -0.01229119 -0.053058408 -0.013001213 -0.030969873 0.038628824 0.029529486 -0.0036073094 -0.008142205 0.050753374 -0.013300238 -0.11467382 -0.022751039 -0.12376479 0.056481205 0.012230235 0.082964793 0.07549566 0.032567576 0.08248955 0.094069868 0.30718255 0.1093175 -0.0056748581 -0.034518078 -0.15079285 -0.12147077 0.11502413 -0.020269236 -0.082372487 0.0045176866 0.02581056 0.11930644 -0.084228717 0.068513006 0.12019344 0.065817073 0.13812669 0.091587551 0.12986074 -0.14104953 -0.029373392 -0.11274408 -0.1417194 -0.051157638 -0.2290113 -0.12657887 0.12652525 0.10443756 0.18951136 0.27152863 -0.094246976 -0.0045228461 -0.13532138 0.15776126 0.052878745 0.18529898 0.16113497 -0.019926108 -0.13263626 -0.069973134 0.1289081 -0.010038597 0.11874164 -0.058404919 0.13237089 0.063601039 2.7391268e-05 0.05974127 -0.1288438 0.10588879 0.06108043 0.23093292 0.1610574 0.139671 0.1200196 0.015242517 0.017221427 -0.044116031 0.18000832 -0.070788175 -0.06984435 0.08310049 -0.044302579 0.029302308 -0.083116762 0.015555798 -0.10711426 0.015336994 0.13407952 0.10145899 0.0076570478 -0.017105065 0.073588781 0.053394891 -0.18961723 -0.061913341 0.021133015 0.0018529653 0.038512241 -0.08978752 0.0091335401 -0.026571093 0.1104989 -0.21730976 0.088526487 0.083486646 0.017092545 0.030146213 -0.050029412 0.10392155 -0.034463052 -0.087546058 0.0145107 -0.018303325 0.02014718 0.0087141823 -0.086467378
177 -0.075220346 -0.013527823 -0.11336827 -0.020328889 -0.1224108 -0.08494556 -0.023643911 0.027892943 0.17312831 0.020438053 -0.12738612 -0.0545008 0.14240134 -0.043096833 0.0013870066 -0.02944899 -0.09119419 0.030428724 0.059865732 -0.00641684 -0.087459326 -0.058115289 -0.05358028 -0.058054909 0.067665853 0.037235681 -0.0082503334 -0.03412132 -0.010697853 0.025886707 0.035764121 0.17033911 -0.028028022 0.098012231 0.01037964 -0.090738274 -0.10588543 0.094663233 -0.14684777 -0.023090346 -0.010552507 -0.010383897 0.12964019 -0.085524268 0.15214546 0.27718723 0.023217404 0.058034334 0.058628935 0.031845942 -0.059741735 -0.16696247 -0.0092010358 -0.08214739 -0.17416282 -0.16171728 -0.099847011 0.11095311 0.10819138 0.11366853 0.41468894 -0.10283514 -0.032060161 -0.10135633 0.076952249 0.038890176 0.20273881 0.16494504 -0.02793147 -0.034304965 -0.04530919 0.10157721 -0.059605651 0.091041416 0.12453111 0.15132716 0.080068685 0.087063633 0.039285567 -0.1031691 0.02458627 0.038358103 0.14134727 0.074546747 0.14221564 0.029257627 -0.058277734 -0.04865016 -0.056584034 0.13976786 -0.089501157 -0.10064629 0.063746475 -0.11679593 0.090439506 -0.078245416 0.019530319 -0.10101082 -0.0050600176 0.077577367 0.04496691 0.098281808 -0.00045954727 -0.070079401 -0.071886212 -0.17063798 -0.073772997 0.022311682 -0.028821705 -0.075125158 -0.14368707 0.025128329 0.076668188 0.033557519 -0.12505442 -0.019488204 0.14709996 -0.023821952 0.050595015 -0.048625164 0.17768615 -0.045944244 -0.18202645 0.053492352 0.035896864 0.03292134 -0.031074658 -0.0017068657
64 -0.076949492 -0.059529684 -0.1686618 -0.023315085 -0.058670308 -0.10300507 -0.0091703273 -0.2007347 0.13086101 0.064845853 0.018566033 -0.024518657 0.045630094 -0.15917605 0.04796131 -0.094846576 -0.035130493 0.10070509 0.10629889 0.23273036 0.04538203 -0.060485635 -0.054677092 -0.078368343 0.10778575 -0.14280546 0.11368147 0.027573127 -0.072386004 0.023327973 -0.0067738448 0.13748331 -0.076325603 0.065736778 0.16442755 -0.24343868 -0.11206133 0.2187705 -0.01551962 -0.066403314 0.049287092 0.066414133 0.13556471 0.079377934 -0.053846341 0.25122443 0.032701731 0.19556738 0.041673306 -0.028716406 -0.3069804 0.0068901218 -0.10204111 -0.06441877 -0.15831597 -0.031746551 -0.17696191 0.056802128 0.063541993 0.17613614 0.2780731 -0.080847263 -0.12591182 -0.11942704 0.29155093 0.13104278 0.26598659 0.1641809 -0.061806764 -0.073382489 0.055857707 0.18807921 -0.006969817 -0.0083703436 0.093096495 0.22751445 0.032321122 0.017143717 0.004750249 -0.07891643 0.060925424 -0.023988029 0.076690756 0.039173987 0.17763838 0.040448666 -0.08910203 -0.057284717 -0.07420928 0.067640908 -0.12246142 -0.0022300563 0.1440835 -0.042923983 -0.020444892 -0.13922545 -0.058683116 0.023766741 -0.059352867 -0.017039392 -0.013083332 -0.085719474 0.054885488 -0.0066755749 -0.017320352 -0.17846987 0.017965227 0.063851476 -0.12072513 0.033082228 -0.12171514 -0.11188913 0.14920966 0.028167523 -0.083190665 -0.081548907 0.097484358 -0.070180595 0.021785522 -0.12178867 -0.0029299909 -0.031697359 -0.22288872 0.090060689 -0.13945132 0.033810597 0.0093159787 -0.01031868
221 -0.0919827 -0.00038427688 0.015109459 0.052250545 -0.035406977 -0.077362239 0.010121481 -0.037296109 0.20279932 0.17746812 -0.025014004 0.0091088684 0.082198054 -0.024493778 0.012745541 0.043213084 -0.012431424 -0.068535313 0.066452205 0.055938259 -0.022207508 -0.036337163 -0.068901397 -0.04300927 0.085420854 -0.026774829 -0.026633706 0.12292358 -0.043910097 0.087809265 0.10868765 0.26805258 0.10519315 0.10723983 0.082873985 -0.086061142 -0.089774035 0.15026852 -0.0794136 -0.14027584 -0.05895669 -0.010535845 0.12046862 -0.062533312 0.14396256 0.1761401 0.12707265 0.15994421 -0.1370208 0.12864436 -0.066803575 -0.12922816 -0.0035110735 -0.055105828 -0.039838534 -0.1579968 -0.21741302 0.18427892 0.065224953 0.22379662 0.28072128 -0.14761303 0.011215236 -0.10034359 0.099720024 0.021774232 0.28343192 0.14368121 -0.089756288 -0.15560615 -0.09893202 0.019678719 -0.0078304522 0.10478029 0.053063136 0.099046387 0.018677153 0.059984364 0.052316353 -0.13486829 0.0052875648 -0.0048773936 0.133295 0.18307076 0.11031666 0.015713103 -0.0015018472 0.029512035 -0.089467496 0.088542409 -0.13323982 -0.068440713 0.13913976 -0.0050623533 0.061609905 -0.089631885 0.047208238 -0.041822065 -0.018976001 0.046284322 0.013840948 0.074316211 -0.019651046 -0.0012173358 0.097507708 -0.17337039 -0.070857741 0.14066023 0.013192384 -0.038872 -0.032578699 -0.045072306 0.079508089 0.063533977 -0.056471534 0.038448244 0.073728919 0.067396641 -0.0021573342 -0.021551646 0.10653184 -0.049104467 -0.099486046 0.01547436 -0.086863592 0.1380108 0.022792226 -0.0024263484
264 -0.096514411 0.065736987 -0.13927996 0.041418087 -0.12827165 -0.1307766 0.0047776154 -0.055691153 0.13786349 0.10452743 -0.037558675 -0.020085439 0.017696688 0.040167607 -0.052823253 0.013055376 -0.060298443 -0.064281307 0.13443957 0.12193087 -0.0023371566 -0.044161536 -0.00067556754 -0.078949034 0.08492443 -0.15063161 -0.0083724605 0.048030347 -0.011737024 0.15104632 0.068844803 0.23815539 0.010743063 0.064593583 -0.020285975 -0.111949 -0.047307573 0.022531915 -0.069888517 -0.051801492 0.029332465 0.14403476 0.095403902 0.035782982 0.090470381 0.21715079 0.059307128 0.12394694 0.079492934 0.11396559 -0.05821953 -0.034518626 -0.030005317 -0.074382424 -0.070529848 -0.1531976 -0.26160392 0.13002308 -0.046134986 0.064586006 0.34586388 -0.018690515 -0.14172509 -0.10987983 0.16946557 0.13160422 0.19227007 0.23307064 0.033773255 -0.075951226 -0.059962362 0.15071446 -0.022265086 0.05360565 0.12162267 0.17354487 0.033680215 0.029587084 0.026935276 -0.064389929 0.050054736 -0.038679 -0.0011326699 0.19060577 0.14878424 0.048664749 -0.03695019 -0.15449634 0.063308097 0.042978965 -0.022543261 0.012977237 0.075583987 -0.092690408 0.094352424 -0.20313022 0.0054842019 -0.0013391224 -0.017140169 0.078255557 0.070715994 0.045990817 -0.067022778 -0.061824929 -0.0382686 -0.23745991 0.0012212894 -0.048111342 0.0043861107 0.035509497 -0.10734911 -0.00052798277 0.11549979 6.8166883e-05 -0.097970769 0.022645084 0.06167233 0.0058702147 0.081297562 -0.1376579 0.037254982 -0.044456694 0.0049197604 0.083009839 -0.22652508 0.123734 -0.0038963158 0.086520769
56 -0.27043355 0.0027279754 -0.074667394 -0.048519582 -0.1505432 -0.079554461 0.040596567 -0.0086287716 0.10699761 -0.028663088 -0.050466519 0.0057958756 0.16870672 -0.073817402 0.05916873 0.01130225 -0.043882728 0.047224235 -0.039728872 -0.1058107 0.019471139 0.031810462 0.088379435 -0.10438243 -0.11252227 0.033389445 0.02338808 -0.0010426895 -0.14939989 -0.021325048 -0.012328616 0.054214928 0.14734042 -0.015878236 -0.088695623 -0.17660414 -0.10204554 0.10747634 -0.13981265 -0.15172283 -0.012956227 0.13927393 0.039782602 0.053603657 0.11643679 0.14606361 0.13423635 0.14980234 -0.0012246805 0.15799214 -0.01164208 -0.23643507 -0.073099956 -0.15664206 -0.082128853 -0.035687931 -0.23752381 0.00012253033 0.12944987 0.14356974 0.39145818 0.049883019 0.02650162 -0.078764595 -0.02928685 0.097739808 0.22463414 0.15442829 0.035525311 -0.017792009 0.015819686 -0.045476053 0.12159701 0.059379332 0.0010682322 0.050534893 0.16831495 -0.20833459 0.031474352 0.0080715986 0.020590905 0.053738248 0.31767231 0.09574955 0.17779364 0.11097503 0.032290757 -0.16661334 -0.026211198 0.023998944 0.019335885 -0.025211081 0.17241815 -0.075472601 0.017318625 0.017983368 -0.087776497 -0.011890954 -0.074077278 0.10323379 0.031889476 0.0031524992 -0.10000178 0.098496951 -0.055160385 -0.15600741 -0.039065287 -0.078430757 0.025285 -0.015875766 -0.24495317 0.014627104 0.037263341 0.097525798 -0.1266259 0.049186103 -0.035448305 -0.049192045 0.183098 -0.056939185 0.15300244 -0.11748629 -0.064505287 0.10219698 -0.034123655 -0.037980471 0.14136273 0.071891665
477 0.040879559 0.087189749 -0.018499296 -0.13973828 0.1673592 0.16077366 -0.29275921 0.050128855 0.47167975 -0.1336156 -0.17418242 -0.051529638 -0.10096621 -0.11863027 0.075047418 0.066652715 0.30126703 0.073064148 0.04096707 -0.20605692 0.076222502 0.10443688 0.34080696 -0.20838785 0.097794078 -0.021005999 -0.13699648 -0.13905412 0.18939348 -0.13332094 0.25262389 0.22605287 0.02007811 0.2160956 -0.26218748 -0.22884482 -0.080875337 -0.41429529 0.045686189 0.020922979 0.13234454 -0.13611083 0.10524841 0.1243358 0.15240856 0.10303099 0.19978119 0.09471032 0.048209526 0.0087685343 0.014351435 0.14816067 0.17396349 0.1279238 -0.032081254 -0.15149078 -0.14842278 -0.18633305 -0.077846512 0.014248117 0.34919074 -0.14194551 -0.041084811 -0.16362245 0.073896281 -0.0018392936 0.37465909 -0.011530992 -0.00742778 0.13063897 0.15805601 0.22279492 -0.13868929 -0.1479644 -0.070914403 0.15831023 0.17309694 -0.03325469 0.014261232 0.055135418 -0.034455065 0.10700244 0.19008802 0.26481527 -0.0097577274 0.16701461 -0.28047517 -0.27924955 -0.10298408 0.26969618 -0.070194244 -0.12281391 0.26590943 -0.13776988 -0.063733399 0.064282827 -0.19139734 -0.06338156 0.13818412 -0.26029375 0.39343005 0.11355313 -0.28231943 -0.24295668 0.13408764 -0.0083043054 -0.24907219 -0.18076049 -0.26731962 -0.057668693 -0.16612257 0.0051430636 0.086516999 0.022241786 0.2259685 0.067004837 0.079404116 -0.077701464 -0.36872399 -0.097728431 0.21789573 0.16229939 0.07665772 -0.022502879 0.19216235 -0.0044380496 -0.059183307 -0.0399644
53 -0.16320206 0.062031697 -0.10116762 0.014822913 -0.084416315 -0.13823789 0.014148201 0.044435121 0.15380606 0.0046685641 -0.039675184 -0.12013726 0.0040460057 -0.061209947 -0.099893346 -0.10888659 -0.023905929 -0.092503145 0.1276695 0.066625424 -0.1268675 -0.043268781 -0.10133661 -0.084095433 0.090133481 0.0053824135 0.042906288 0.080172047 0.081851788 0.11998798 0.092574246 0.25805044 0.12205973 0.074216656 -0.067390494 -0.11521305 -0.074836262 0.097175501 0.060382746 -0.063755855 0.045983661 0.050574329 0.063619539 0.017195201 0.15118782 0.18005656 0.09210442 0.063998923 -0.012078376 0.068644561 -0.18873134 -0.070887797 -0.035104953 -0.055302326 -0.040741578 -0.12535025 -0.096236952 0.10738195 0.14241175 0.010094029 0.33828363 -0.061581869 -0.10803175 -0.055894554 0.083533093 0.1029052 0.23126826 0.10691724 0.049515907 -0.14924847 -0.032252397 0.13193664 0.021658406 0.053747624 0.058553454 0.19331862 -0.038303327 0.018652271 0.065547258 -0.10151526 0.084725052 0.11147068 0.17821613 0.12874028 0.036742926 0.079882652 0.099713773 -0.040366165 -0.073686354 0.11809991 -0.17855519 -0.070038661 0.04827401 -0.050420634 0.017540557 -0.027841657 -0.0039302651 -0.020258665 -0.048415467 0.040514775 0.10592067 0.05086381 -0.04718899 -0.10261114 -0.011591995 -0.27270973 -0.10047793 -0.037005331 -0.047444608 -0.050493445 -0.081924707 -0.063120991 0.011825138 0.11447638 -0.17143098 -0.017744815 0.1142597 -0.05166997 -0.00047787774 -0.023477118 0.05656128 0.038501415 -0.13140254 -0.040949203 -0.16135792 0.054436658 0.017966047 -0.016556909
485 -0.14079234 -0.039624255 -0.09216015 0.09780471 -0.054880816 -0.1374353 0.085785292 -0.012773041 0.24853885 0.066443823 -0.0031095007 -0.024026498 0.067626812 -0.14487477 -0.036191627 -0.038815748 -0.080001429 -0.0063452837 0.076470628 0.064272702 0.01810012 -0.050017264 -0.055928208 -0.011625004 0.0025585636 -0.028163299 -0.0085146111 0.094207719 -0.09915562 -0.0046815877 0.011697398 0.22013326 -0.0036719085 0.026108891 -0.066585876 -0.080780461 -0.24585211 0.074040733 -0.051098898 -0.0048380885 0.00062914187 -0.002813421 -0.0073190709 0.0056967777 0.07600303 0.11643942 0.056894805 0.20761669 0.084941834 0.0047532083 -0.12633623 0.011093393 -0.061071046 -0.13956711 -0.094290234 -0.035431251 -0.16840795 0.200784 0.08269044 0.14120691 0.30219847 -0.088510789 0.0045487257 -0.11203993 0.14139616 0.090840019 0.2196755 0.22697851 -0.044676643 -0.12798305 -0.071518451 0.097548984 0.0062559624 0.12673718 0.11301401 0.12276381 -0.035169192 0.012973327 0.10616182 -0.083468318 0.01903093 0.0056861816 0.16089211 0.1091423 0.10195103 0.002476196 -0.037190117 0.033705775 0.029746814 0.12008797 -0.071892358 -0.071071066 0.087290384 -0.12142821 0.042671993 -0.05914674 0.048545282 -0.065089814 -0.023899285 0.12998308 0.03863401 0.037857283 -0.067965426 -0.053063162 -0.005846763 -0.096282199 -0.048107173 0.033638336 -0.024194485 -0.031419553 -0.24118914 0.013132232 0.13160087 -0.020188708 -0.081552692 0.036225241 0.10766272 0.034125287 0.0730948 -0.0097576529 0.092016667 -0.02577599 -0.042810034 -0.024447612 -0.11883655 0.0828624 0.095334977 0.043107018
91 -0.12198047 0.10242477 -0.14773218 -0.0053121117 -0.063478775 -0.10820678 0.048413243 -3.0322975e-05 0.11032306 0.064628869 0.0098967412 -0.023123166 0.016087309 -0.066475525 -0.0018754138 0.01077571 -0.028813839 -0.067051627 -0.001560051 0.032200817 -0.019882476 0.063246116 -0.06846384 -0.15550275 0.021243863 0.024552297 0.0077179414 0.16620305 0.035542484 0.12767886 0.015552076 0.18520285 0.00035526429 -0.044482831 0.076694779 -0.10989962 -0.055102553 0.06758938 -0.17558864 -0.077487759 -0.076398574 -0.019606924 0.17485528 -0.064769432 0.11455965 0.16467646 -0.044427395 0.083187222 0.074049689 0.088999212 -0.16673051 -0.10760834 -0.041830257 -0.032129362 0.070573531 -0.15859286 -0.25832337 0.086540356 -0.0047619636 0.069867246 0.33089024 -0.052186441 -0.056330908 -0.18144898 0.090307206 -0.018676594 0.21609516 0.22527003 -0.0010189854 -0.040445182 0.045052353 0.0067311632 0.082526706 0.1044967 0.13564292 0.14297037 -0.0030224221 -0.018786341 -0.029876269 -0.17667815 0.086686604 0.093781687 0.15507002 0.1320449 0.14984597 0.069531418 -0.011745961 -0.1579275 -0.049987756 0.1374492 -0.089884683 -0.015036677 0.053141512 -0.23423769 0.063628927 -0.15062103 -0.035739649 -0.0092272293 -0.012825968 0.052050889 0.067981765 0.071995661 0.055221617 -0.061688602 -0.037814364 -0.28647259 -0.04710402 -0.02953849 -0.13165845 -0.088131346 -0.15475719 0.12121426 0.091209196 -0.0074542873 -0.14071789 -0.043487966 0.10987176 -0.016485011 -0.01095401 -0.080828913 0.11371804 -0.062396277 -0.08288908 0.10706306 -0.12987797 -0.017035281 0.049597427 -0.055444054
169 -0.061649617 0.016074453 -0.07779438 -0.0070931022 -0.048235722 -0.064286813 0.11948269 0.00073392718 0.17195775 0.057689775 0.14219056 0.015968399 0.10411704 -0.0517704 -0.023318894 -0.067458168 -0.0055770739 -0.009294454 0.11840892 0.038386002 -0.081469685 0.020235941 -0.15926474 -0.086650714 0.0038873607 0.062904194 0.050418403 0.011448072 -0.038762391 0.1804619 0.038891975 0.13815525 -0.028513137 0.065221287 -0.024156634 -0.11706553 -0.11886161 0.06394621 -0.078657769 -0.084465221 0.018893398 0.0032349136 0.10851871 -0.052224193 0.16186695 0.19951394 0.10765925 0.12550348 0.050276872 0.071409255 -0.085748971 -0.043738581 -0.099447548 -0.19597876 0.043687899 -0.08511509 -0.19681124 0.24094003 0.065682307 0.07174623 0.33577797 -0.055712841 0.023042489 -0.056343827 0.10969102 0.1559146 0.30130997 0.12970941 0.030297816 -0.045673247 -0.093464799 0.038371567 -0.08074332 0.13659078 0.19752397 0.16152154 0.037694812 -0.039927073 -0.060655061 0.024730105 0.043714184 -0.024457851 0.11840893 0.21547188 0.11084304 0.037448328 -0.16291368 0.033346903 -0.0021347115 0.067373589 -0.075486064 -0.045397162 0.13835742 -0.12182523 0.11220735 -0.060228579 0.020239761 -0.09102352 -0.015226869 0.082956068 -0.035145342 0.12375261 0.026761953 -0.030077308 0.030189965 -0.15107538 -0.013555383 0.013664484 -0.015791157 0.034320489 -0.1451762 0.099689938 0.21189655 -0.036021013 -0.085594647 -0.058468349 0.055639263 -0.074280061 -0.04545721 0.092996217 0.19415142 0.0010406277 -0.068037547 0.085649319 -0.067630194 -0.012612404 -0.014711493 0.066863172
86 -0.15696758 0.0058216057 -0.11387662 0.031867124 -0.12289721 -0.087122262 -0.0014507927 -0.0055708913 0.1639002 0.013729647 -0.076505184 -0.079209387 -0.019333225 -0.080218315 -0.046948541 -0.033069748 -0.10844474 -0.058814727 0.13642968 0.0060474002 -0.069982156 -0.03539275 -0.052394297 -0.029481743 -0.030483583 -0.035582144 -0.024823021 0.021222902 0.0072519705 0.1057812 0.058290534 0.34474981 -0.042497497 -0.033263668 -0.027378697 -0.13824417 -0.13205178 0.0726659 -0.10830244 -0.1150495 0.019542761 0.046559308 0.06177298 -0.051906753 0.099401623 0.18139958 0.040378205 0.081242651 -0.052305698 0.06147819 -0.14989953 0.028265843 -0.038642079 -0.12678015 -0.052499454 -0.17804927 -0.09235315 0.11335114 0.08260262 0.080327421 0.38953161 -0.041971482 -0.01661952 -0.07103277 -0.0091019645 0.11797219 0.1876917 0.22131087 -0.018734217 -0.095276877 0.0038250294 0.031744875 -0.045689616 0.16918403 0.21886742 0.13878097 -0.035524666 0.046512261 0.091029502 0.056706086 -0.00028948073 -0.0054674111 0.095191613 0.20253485 0.1459382 0.034335233 -0.049791913 -0.089508452 0.045080196 0.10631662 -0.020810768 0.024822798 0.17408685 -0.024632523 0.050430857 0.024034534 0.023937009 0.092100278 0.02564607 0.076548703 0.03873568 0.042361606 0.084712148 -0.026924765 0.021130987 -0.18236911 0.044513267 -0.057249907 0.0081495782 -0.01016264 -0.14440143 -0.042510461 0.02830459 0.059354655 -0.10450396 -0.0022716778 0.20507024 -0.010229169 0.010639148 -0.10499108 0.10870878 -0.073825009 -0.10275216 -0.001677647 -0.084624328 0.021656435 0.067867339 0.00263135
189 -0.023624761 0.021175202 -0.11564192 0.092451163 -0.21801239 -0.16382405 -0.036096241 0.019481983 0.15167971 0.080004513 -0.0065824031 0.069172606 -0.057824891 0.086264662 0.094828978 0.0060535343 -0.035615083 -0.0044473652 0.010693894 -0.024115322 -0.066003636 -0.033406589 -0.081560627 -0.16071026 0.045866515 0.034616042 0.10760448 0.049934562 0.031863127 0.020630021 -0.014886813 0.1820866 0.094660297 0.011126673 0.033688184 -0.12240837 -0.073272228 0.10346233 -0.084312022 -0.14711991 0.092080727 0.0079023559 0.13764106 0.0029363232 0.096375085 0.15904081 0.062048662 0.087317824 0.076533422 0.036388829 -0.048714083 -0.14014852 -0.039648332 -0.039047576 -0.086623207 -0.061702769 -0.066633083 0.12833771 0.14387123 0.1201706 0.2995508 -0.050619379 0.03441589 -0.10899965 0.14155878 0.11720555 0.25032774 0.21963179 -0.0092380065 -0.14378117 0.018540999 0.010515876 -0.071789756 0.068093978 0.11405557 0.15347351 -0.047623049 0.0022593476 0.08367727 -0.12999554 0.19129771 0.028997473 0.10155525 0.14611749 0.10962956 0.054643314 -0.075245194 -0.11898083 -0.078276947 0.093777806 -0.06439133 0.0047263503 0.1723119 -0.15389287 0.081528507 -0.064799078 0.04027015 -0.017857319 0.10393777 0.10291182 0.15571977 0.049016003 0.010969783 -0.025417302 0.016678452 -0.25461882 0.048764005 0.050874297 -0.02752313 -0.10698017 -0.18676047 -0.066889592 0.072250597 0.079545535 -0.10721948 -0.012854918 0.15791757 -0.032550894 0.064820729 -0.11624117 0.15447733 0.02095777 -0.12125591 0.1137788 -0.12681949 0.098853625 0.012135495 0.062063899
282 -0.086936951 0.0092270793 -0.1619371 0.0041954415 -0.058970876 -0.12790172 -0.077852681 -0.13071114 0.025308698 -0.020887554 0.061565235 -0.067424387 0.03926659 -0.043949399 0.1861109 -0.092220239 -0.113557 0.037114352 0.030867787 0.026349025 0.019247368 -0.0077513112 -0.035461534 -0.039256558 0.090225279 -0.1513807 -0.042341739 -0.096076779 0.035637945 0.072204664 0.066092245 0.10428654 0.18721472 -0.033706281 0.038609415 -0.20430921 -0.23800971 0.11373252 -0.10709359 -0.10801884 0.044254798 -0.046645451 0.25923476 0.030431233 0.032340247 0.15361461 0.047541086 0.12809417 0.079755671 -0.049940679 -0.10619932 0.068547241 -0.063302472 -0.17578448 -0.072807595 -0.14708231 -0.027109843 0.13446216 0.035600055 0.12762189 0.43316999 0.049914666 0.022171961 -0.10850474 0.010258388 0.16299218 0.34894082 0.23257838 -0.2647593 -0.10273889 -0.061085597 0.18743466 0.030950069 -0.0118274 0.016689265 0.20719308 0.095349416 0.030122697 0.053818788 -0.0048889699 -0.061197478 -0.012806561 0.093749486 0.14474092 0.12635057 0.091401733 -0.096395783 0.0098366477 0.0072124521 0.0042126514 -0.049225867 -0.17862046 0.19141625 0.014189644 0.028041283 -0.11689236 -0.032691814 -0.10950417 -0.043488167 -0.0657648 -0.089360848 0.069331042 0.044252586 0.10601055 0.014283957 -0.14756772 -0.045490578 -0.057365827 -0.1204963 0.10870659 -0.17358613 -0.022628555 0.062800273 0.11303636 -0.08073131 0.020281244 0.16827327 -0.059320442 -0.029966926 -0.17144544 0.072038122 -0.086243518 0.11795268 0.095461726 -0.046091221 0.072056003 -0.012121365 -0.20639332
127 -0.029905468 0.015873764 0.00084008416 0.051094342 -0.10913338 -0.14565261 0.087891914 0.051481176 0.22622377 0.058404218 -0.067448489 0.031620324 0.14586398 0.058062159 -0.009470758 -0.14688388 -0.090689838 -0.097480059 -0.049683303 0.040287316 0.0063431226 -0.01123706 -0.010662418 -0.12186789 -0.0075482586 -0.053734954 0.070620634 -0.051026326 -0.088219866 0.019270157 0.0028659031 0.25873393 0.033756342 0.076695584 0.028502217 -0.061588299 -0.054401841 0.10027299 -0.11343531 -0.071370177 -0.022281636 0.072732747 0.16551027 -0.1074613 0.13714971 0.051569447 0.13982135 0.0066986051 0.025674924 -0.035337795 -0.076169103 -0.048554935 -0.015255406 -0.057210013 -0.10757726 -0.093353696 -0.16348258 0.16841875 0.15775079 0.10802544 0.35504639 -0.061633501 -0.027541295 -0.0042409212 0.055791713 0.075313754 0.26580688 0.081117801 -0.071849689 -0.1791179 0.027186524 0.070686832 -0.033613529 0.11948273 0.026789425 0.21008448 0.023443079 0.0026738259 0.05416492 -0.12433981 -0.019069171 0.087694831 0.13302223 0.17527127 0.21225649 0.088340864 -0.033489786 -0.051893629 0.037496123 0.097089313 -0.063708916 0.0032019911 0.20879945 -0.12421475 0.0082220547 -0.15796736 -0.014339826 -0.05628518 -0.0069241798 0.037493985 0.051334683 0.12465494 0.0057853921 -0.034349419 -0.0059766062 -0.17180167 0.0004407517 0.014216684 0.021993676 -0.024935817 -0.17473251 0.0014820843 0.19604206 -0.037498757 -0.065121137 0.0058603836 0.12123148 -0.16508339 0.023550319 -0.017036878 0.13565056 -0.031998541 -0.038633268 0.072335757 -0.15643892 0.19200331 -0.054045763 -0.029575365
183 0.028056003 -0.024044314 -0.20647776 0.017337376 -0.12747669 -0.23099089 0.12430568 -0.055849668 0.10626844 0.11359078 -0.10976762 0.017119775 -0.095724337 0.18242134 0.043970048 0.0029320649 0.061487716 -0.1087179 0.089469999 -0.018775709 -0.075694293 -0.028909717 -0.014219134 -0.019362004 0.048375241 0.062843278 -0.14462459 0.30739903 0.087916724 0.17299815 -0.16609445 0.20547418 0.061575148 0.049226321 -0.093959861 0.05572702 -0.29021591 0.1142237 -0.12907122 0.017377948 0.11158975 0.006663241 0.21999539 -0.25482762 0.21034867 -0.025270311 0.14548112 0.19916619 0.023272211 0.074467361 -0.12528507 0.022357374 -0.18003424 -0.083679169 -0.097798496 -0.054446574 -0.18060732 0.12394916 0.15077911 0.1982346 0.18286161 -0.17376004 0.10779315 -0.17852075 0.1941312 0.17903143 0.20419745 0.080917381 -0.055435959 -0.031874981 -0.030614113 -0.01133887 -0.096073896 -0.076631375 0.094817527 0.3058382 0.16098168 0.0094585568 -0.089554615 -0.22765525 0.014836112 -0.083410613 0.10877576 0.071602501 0.24284323 0.10610487 0.055074446 0.14662072 0.12335457 0.034566574 -0.024734836 0.064275667 0.3095347 -0.16596109 0.0019554442 0.10135607 -0.025291989 0.13416024 -0.11824165 0.20798407 0.071655318 0.17594722 0.078983903 -0.043984488 -0.12083812 -0.056983836 -0.0020222077 0.11993679 0.19222294 0.21077827 -0.1444384 -0.097101517 0.21073855 0.13252415 0.032950398 -0.0097133527 -0.048449539 -0.17633989 0.050475772 0.049788654 0.18635933 0.061152231 -0.13839409 -0.10155044 -0.12010593 -0.0089535285 -0.033580691 -0.047009993
393 -0.12842433 0.010776214 -0.14404501 0.020933704 -0.18970907 -0.16822924 -0.03213739 -0.018008627 0.18933176 -0.068473183 -0.058358658 -0.076378025 -0.073267497 -0.13507915 0.026904739 -0.011358682 -0.022886284 0.13858448 0.0027233271 0.011227787 -0.12360133 -0.012589704 -0.038482267 -0.10260684 0.13033195 -0.055352919 -0.051279239 0.1795332 -0.072582684 0.0076446491 0.10696989 0.21143152 0.093383536 -0.045601837 -0.13241078 -0.10457028 -0.052510206 0.042909689 0.01784895 -0.12446088 -0.060257249 -0.044202704 0.084947079 0.10599346 0.092207447 0.29902983 0.059334051 0.0093481168 0.017133696 0.074254215 -0.11776172 -0.039235339 -0.12453213 -0.021117 -0.079631098 0.038754746 -0.13166565 0.12476554 0.16271895 0.2149415 0.27821216 -0.066442989 -0.1269616 -0.063663602 0.12082332 0.0056307637 0.3051061 0.20624866 0.040730167 0.11380053 -0.020287788 0.046075545 0.17803973 -0.00079868332 -0.09513367 -0.028818263 -0.0033472287 -0.040984962 0.030250948 -0.073829748 0.0094013643 0.0020052427 0.050064728 0.21546413 -0.014715191 0.030251011 -0.046080828 0.096010469 -0.14986302 0.11263788 -0.14831826 0.0045027989 0.11127388 -0.12056924 0.20781533 -0.023758678 0.012575509 -0.016682545 -0.044072814 0.071820498 0.093787909 0.067489475 -0.17216006 -0.0096670492 0.0014774213 -0.2333229 -0.048744 0.029608846 0.075188346 -0.082797371 -0.29917482 0.056131858 -0.0020840298 0.13394573 -0.13398357 -0.1064309 0.034119278 0.031521954 0.10454356 -0.17160097 0.084183708 -0.047776103 0.050381064 0.0100391 -0.28527653 -0.033621997 0.11217897 0.059895542
394 -0.18482764 0.0079846978 -0.047256641 0.063350774 -0.09910734 -0.19303566 0.020414134 0.056116827 0.13641176 0.10144722 -0.01790254 0.010012459 -0.075661868 0.066134445 0.023828726 -0.055869512 -0.038588814 -0.038252287 0.0075878077 0.04134031 -0.059788037 0.033307061 -0.079422481 -0.065882593 -0.010688202 -0.01920983 0.00044734072 -0.0099125728 0.0089001404 0.16130432 -0.0086777657 0.2556653 -0.004680065 0.053998746 0.0021581214 -0.1258252 -0.16041341 0.15564676 -0.05023751 -0.037502199 0.063741811 0.053611584 0.14778177 -0.046042521 0.17815338 0.10287382 0.10240213 0.039015584 0.051982615 0.11628644 -0.12980285 -0.08301758 -0.01601111 -0.13683 -0.028746519 -0.10955185 -0.22235061 0.083087169 0.11183567 0.11887156 0.38099897 -0.051609538 -0.02998423 -0.072722882 0.18705657 0.052433703 0.23787996 0.14051726 -0.045935694 -0.27217191 -0.062186245 -0.023931414 0.021970032 0.043194313 0.0076780901 0.15991488 0.017969474 0.064994946 0.077139318 -0.060839757 0.11328241 0.018525325 0.14629284 0.18592176 0.053898282 0.13924919 -0.13423593 0.025600607 0.004214508 0.054319061 -0.11665987 -0.0040907855 0.1631487 0.0037210002 0.17874815 -0.13263024 0.078358077 -0.085199527 -0.077338055 0.089863732 0.067524686 0.1209893 0.084555618 -0.21321818 -0.065958664 -0.19346379 -0.058429606 0.040743019 0.046921324 0.073361188 -0.21805649 0.0026642526 0.076353379 0.013999553 -0.14215446 -0.081619397 0.021112373 0.037433602 0.081573285 -0.033253156 0.074748248 0.026168242 0.0060978564 0.04285701 -0.14915819 0.098968133 -0.0052062701 -0.056062311
279 -0.084518746 0.04785005 -0.081153847 0.019159639 -0.074225113 -0.12194751 -0.038991313 0.010461546 0.22465734 0.11990368 -0.035016179 -0.020565279 0.066094361 -0.039616514 -0.0055621262 -0.10481542 -0.0030632783 -0.13578214 0.057896335 0.050619811 -0.075168438 -0.10855375 0.026449308 -0.11250213 -0.12744629 -0.026796443 -0.034323882 0.049636781 -0.041413754 0.05517422 -0.0041445019 0.23015039 -0.059701703 0.08645463 0.011304733 -0.042405784 -0.1023026 0.15966398 -0.1194131 -0.1564599 0.015853191 0.037282504 0.10764676 -0.063470826 0.14181979 0.076316722 0.12905791 0.10725378 0.055990286 -0.016589269 -0.15775241 -0.033075225 -0.11809281 -0.10734507 0.010466448 -0.14587381 -0.19763896 0.16623525 0.083418682 0.10416953 0.28834012 -0.1572893 0.068074077 0.0040225717 0.029119244 0.050823357 0.25809619 0.20849748 -0.013296921 -0.13187188 0.0088977655 0.083335459 -0.0074242302 0.062358767 0.077268653 0.12537795 0.013848988 0.019076338 -0.036022455 -0.1830608 0.1022713 0.01169622 0.19735718 0.069223113 0.056190208 0.075022958 0.014684916 -0.067609191 -0.062438108 -0.017944416 -0.09489423 -0.12697421 0.13285121 -0.14164217 0.071186252 -0.11574924 0.013461832 -0.079477519 0.046556462 0.094716549 0.0030205897 0.099507511 -0.022102749 -0.087672643 0.0057326215 -0.27429408 -0.035498537 0.022717742 -0.039173134 -0.040298641 -0.11480037 0.013669239 0.072353221 0.12926131 -0.038648866 -0.01295636 0.090973623 -0.0033739014 0.072309881 -0.041169457 0.071259402 -0.16515186 -0.017204089 0.037735276 -0.12305066 0.10385327 -0.00017580071 -0.02313507
375 -0.084502079 -0.1048245 -0.039280139 0.092844583 -0.13164537 -0.19113566 -0.031013034 -0.078609847 0.23658474 0.11610629 0.065932229 -0.028131152 -0.0353049 -0.02780121 -0.04929113 -0.076479957 0.051481556 -0.013216463 -0.0025274165 0.12706204 -0.024667488 -0.04523987 0.028852072 -0.028604429 0.018134795 -0.024492962 -0.0093691126 0.086901315 -0.016392024 0.092896685 0.047052816 0.25028101 0.053659312 0.04383428 0.030881278 -0.13513251 -0.024176842 0.01308227 -0.040610425 -0.17839208 0.013734045 0.077439785 0.10609818 0.035752419 0.13183111 0.074982636 0.050285332 0.18301208 0.12991019 0.0038122949 -0.099575035 0.083620481 -0.079472557 -0.10136459 -0.044135518 -0.23304462 -0.13641681 0.087937459 0.001090647 0.07931269 0.2584849 -0.13107121 -0.10280032 -0.091631584 0.080100663 0.078336425 0.31879485 0.24224624 0.026831318 -0.1811669 0.020314416 0.18301 -0.12116906 0.0511504 0.057367928 0.054404449 0.016226891 0.081184447 0.026773769 -0.042401861 0.10818496 0.078809999 0.11671793 0.21310261 0.1306005 0.094766915 -0.039669171 -0.14275235 -0.01919231 0.079737037 -0.061347164 -0.072667427 0.24330908 0.0049853581 0.076411411 0.009778372 -0.0063035539 -0.0041298685 -0.068441547 0.058903363 0.074718229 0.055991322 0.022474781 -0.073627532 -0.020562883 -0.27152762 -0.035649221 -0.048198443 0.035767172 -0.061381899 -0.075475909 -0.036804598 0.061574508 0.019836871 -0.093260691 0.0089021623 0.047964346 -0.023939805 0.093491964 -0.02570245 0.10715675 0.031604428 -0.09256611 0.061098311 -0.10900381 0.02010311 0.004075611 0.073203012
45 -0.057081461 -0.044548322 -0.066683985 0.056114502 -0.16811702 -0.19698782 0.022408422 0.036147065 0.19080324 0.080406055 0.021058111 -0.15917882 -0.029139167 0.098479912 -0.15794051 -0.10453768 0.012694424 -0.097958922 0.029330816 0.058310132 0.0053807427 -0.064159967 -0.047916878 -0.13206069 0.036328457 0.0096427808 -0.019934181 -0.0029391476 0.030113623 0.0053033954 0.10925816 0.20468925 -0.00081762235 -0.035517372 -0.017446354 -0.10288285 -0.047331218 0.12868655 -0.11621032 -0.05983834 -0.01775171 -0.029395228 0.082408801 -0.04423476 0.15314521 0.13654092 0.025740009 0.095933214 0.091585159 0.093463652 -0.1613608 -0.072739832 -0.036025926 -0.14417215 -0.059451222 -0.14860405 -0.18752798 0.10580279 0.19644132 -0.063109562 0.36422449 -0.015251778 -0.12464125 -0.11921138 0.12676238 0.046199866 0.29530329 0.20912127 -0.027467476 -0.062948383 -0.067472383 0.10843355 0.032971878 0.14234646 0.11949843 0.15672259 0.1141721 0.02307779 -0.033733543 -0.0069759986 0.098814949 0.057900976 0.10204191 0.12004045 0.13916321 0.015546515 -0.090808243 -0.0020504703 0.0065177418 0.21331473 -0.088852018 -0.075770922 0.065624215 0.0086012948 0.11990254 -0.055882361 0.055186272 -0.019953908 0.039297029 0.12358691 -0.001696265 0.00018258062 -0.0072026197 -0.16743119 0.035274439 -0.1062724 -0.026419871 -0.011520564 0.12661219 -0.045224555 -0.062054832 -0.01602358 0.072982177 0.050301101 -0.11306344 -0.0060006562 0.14255179 -0.06656234 0.044818856 -0.048055355 0.1690598 -0.043654215 0.0088052629 0.14161903 -0.22939903 0.13638131 -0.024506435 0.0002784383
