1113 128
1006 -0.013991525 0.12013859 -0.012252626 0.059110407 -0.0062046126 0.37046489 0.2275278 -0.24498242 -0.39998338 -0.06511917 -0.060911443 0.32930771 -0.31227493 0.3647469 -0.26234397 -0.0056973244 -0.47791421 0.23699975 -0.008286925 -0.14027332 0.13884957 0.090926223 0.10837418 0.0064652055 -0.40424445 -0.015394129 0.18440226 0.2267672 0.18980481 0.070235536 -0.08084251 -0.16742532 -0.4754194 0.37383613 0.34159848 -0.31555596 -0.00043441323 0.71776205 0.17850648 -0.29631341 -0.13650359 -0.04358473 0.27925599 0.17833474 -0.091384776 0.17337166 0.18950494 0.3359473 -0.22154579 0.1513035 -0.15180941 0.30534315 0.25777504 0.17664012 -0.068564348 -0.36978164 -0.1782338 -0.0036324742 0.1727235 0.27002904 0.16610709 -0.22331111 -0.034431178 -0.02754618 0.071675941 -0.34143174 -0.12795928 -0.27188963 -0.011880976 0.44714245 0.13045624 -0.22576764 0.075948618 -0.39469659 -0.52467066 0.016493885 -0.45794845 -0.26732704 0.32884037 0.56097841 -0.18018138 0.2643356 -0.057825036 -0.35156652 -0.31280226 0.073713794 0.19852509 -0.20908056 -0.30744746 0.16616134 -0.18904823 -0.11771153 0.035810445 -0.11404123 -0.032499027 0.22270179 -0.1001448 0.011079627 -0.0017132207 -0.10712191 -0.019786611 0.063332394 -0.18288387 -0.09153606 0.0083522769 0.070881821 -0.15923318 0.095505595 0.20041691 -0.047453407 -0.04315925 -0.17850523 -0.15048765 -0.079663388 0.152816 -0.10946106 0.05785023 0.23778702 0.059431374 0.31661776 -0.32992917 0.30082515 -0.54009306 0.18603933 -0.25026891 -0.039978378 -0.33732867 -0.24483535
823 0.038390446 0.19128786 0.27818292 -0.049891539 0.071587689 0.33910131 0.10223866 -0.2253311 -0.29053459 -0.19213787 -0.23548882 0.20789698 -0.47391745 0.87570435 -0.34088275 0.067638054 -0.38933101 -0.063310057 0.085131466 -0.069714516 0.16657096 -0.073825054 0.22568235 -0.038630668 -0.22987354 -0.065083921 0.1943409 0.43483999 0.055614263 0.19422375 -0.10066218 -0.11836028 -0.49909648 0.45249939 0.45124063 -0.074308723 -0.25137389 0.56945658 0.27964479 -0.27689448 -0.20819902 0.1299096 0.41150671 0.26147181 -0.12542011 0.0012147796 -0.061922524 0.35382062 -0.48316285 0.12479535 -0.17627996 0.071062684 0.25211921 0.139558 0.011834852 -0.15141615 0.021381397 -0.099925719 0.24199644 0.21201295 0.20465858 -0.50438106 0.056841467 0.12778346 -0.025809504 -0.13349451 0.067227066 -0.31610569 -0.1649147 0.6168704 0.28166625 -0.36087221 0.18568969 -0.25849885 -0.31919017 -0.13408388 -0.40239301 -0.31843129 0.29356113 0.66210836 -0.17026328 0.014603272 -0.27409768 -0.17446104 -0.55893868 0.22419205 0.047346648 -0.36341172 -0.34841135 -0.01525323 -0.12651455 -0.2116884 -0.12463156 -0.060805634 0.0063302433 0.23617327 -0.18566413 -0.13208027 0.072857842 -0.23012716 0.20875908 0.080212779 0.043402538 -0.016774051 -0.12209515 -0.10999753 -0.30754459 -0.10501182 0.29653147 0.070529073 0.10915547 -0.061326969 -0.24009311 -0.25827679 -0.003754402 -0.097012743 0.0050714132 0.45983139 0.2732546 0.16085805 -0.40039155 0.38909271 -0.32206678 0.31933612 -0.045135844 0.036551304 -0.4210729 -0.074372165
839 -0.019291067 0.23061827 0.26776749 -0.051729478 0.13211009 0.34061137 0.10395645 -0.24644758 -0.33517522 -0.17828777 -0.20544779 0.17560266 -0.17052941 0.70825344 -0.3262544 0.1278519 -0.47795674 -0.045437526 0.089953534 0.071395427 0.21587743 0.019193852 0.26916027 -0.065725081 -0.18074924 -0.13632211 0.2494787 0.39986289 0.033000112 0.12734126 -0.0029849487 -0.19775203 -0.58475137 0.42016095 0.35684568 -0.062318742 -0.26349971 0.5431906 0.39014333 -0.23560159 -0.27591687 0.061607335 0.37323797 0.21388306 -0.016835509 0.010986846 -0.13169888 0.37814742 -0.40075886 0.16170543 -0.14272341 0.060285475 0.30486488 0.18500559 0.034192163 -0.11661272 0.023185544 -0.093432911 0.27982625 0.18213208 0.10708344 -0.50478965 0.085084513 0.064699449 -0.13019142 -0.12375115 0.088640489 -0.33300167 -0.1576408 0.4425222 0.1563828 -0.38759452 0.24775942 -0.25626957 -0.34503749 -0.20522584 -0.28137365 -0.33227172 0.353782 0.63310575 -0.071133561 0.036949273 -0.36806443 -0.12991461 -0.67244899 0.42307109 0.11326116 -0.41918969 -0.41468263 0.018258385 -0.2125181 -0.11668547 -0.17060539 -0.095340014 -0.084759243 0.40283945 -0.28042281 -0.035226617 0.12563594 -0.28747204 0.16594927 0.15772945 0.050747924 -0.009422984 -0.1847091 -0.018795418 -0.22191256 -0.055197436 0.33342344 0.02382439 0.17480187 0.01086612 -0.29502544 -0.32719642 0.041233975 -0.026757855 -0.11349817 0.36510998 0.31187946 0.073311247 -0.36784115 0.44770649 -0.38045296 0.32523668 -0.18641584 -0.0059271124 -0.34032321 -0.083246544
506 -0.048937365 0.19413236 0.34833628 -0.088622719 0.016204719 0.27178156 0.1390709 -0.23513614 -0.1428936 -0.17168786 -0.13591868 0.37040356 -0.34827739 0.74758333 -0.34929514 0.10575207 -0.35249162 -0.038268376 -0.045388006 0.020428363 0.22055006 -0.1834619 0.19093464 0.017809436 -0.25212908 -0.083924882 0.26392379 0.46421853 0.13510494 0.11487399 0.015891835 -0.30167565 -0.5165419 0.39928329 0.47649115 -0.043787174 -0.25449869 0.47891888 0.39851531 -0.24012049 -0.12896095 0.0399119 0.42137063 0.20985 0.012834647 0.0085815983 -0.10452731 0.12637185 -0.36345047 0.16002247 -0.063399754 0.053537689 0.24800259 -0.025168354 -0.013544203 -0.20388933 -0.0034239935 -0.19304508 0.29963011 0.21492355 0.25383034 -0.53735781 0.17948301 -0.010458262 -0.2235432 -0.083784245 0.045169812 -0.33202344 -0.33231819 0.590671 0.1644017 -0.36146876 0.18534663 -0.32604304 -0.25908014 -0.22270268 -0.41225278 -0.33879244 0.10681665 0.5125708 -0.25396642 0.10997923 -0.28063571 -0.30795118 -0.51618433 0.23059085 -0.013244806 -0.53839946 -0.40768453 0.027847692 -0.2195702 -0.1949193 -0.10597266 0.062229123 -0.14709017 0.32975626 -0.24009672 -0.046739068 0.15130778 -0.19842839 0.11055863 0.068090148 0.0022925052 -0.064379252 -0.11048111 0.0010274685 -0.27367747 -0.044991724 0.27607271 0.11742916 0.23715225 -0.024965851 -0.33161235 -0.12961553 -0.04407334 -0.06158689 0.0042708227 0.50726098 0.3477594 0.18653487 -0.29672131 0.52683473 -0.41293737 0.36685026 -0.27209875 0.075942762 -0.24421749 -0.22056033
859 -0.0034572883 0.17687999 0.35160306 0.011638212 0.12918282 0.28227291 0.15103164 -0.18504794 -0.13640052 -0.14211243 -0.10743224 0.21871431 -0.4258264 0.65921468 -0.27299869 0.16588397 -0.33951798 -0.049035151 0.1163232 -0.023803251 0.29245701 -0.011252364 0.37435639 -0.00086324074 -0.07185556 0.011034898 0.28107122 0.36339107 0.084165268 0.11281452 -0.13384816 -0.16927846 -0.3776536 0.40288615 0.2639522 -0.10285079 -0.1254956 0.57718354 0.32233241 -0.23053366 -0.25515547 0.086298048 0.33392134 0.34343553 -0.10085861 0.07301823 -0.080053166 0.29408446 -0.4118132 0.075621203 -0.22878887 0.2797032 0.13520193 -0.0056022936 0.023769932 -0.1229517 0.036613047 -0.095570408 0.37234113 0.23014368 0.30485222 -0.3224431 0.075647913 0.12615423 -0.18587595 -0.14475007 -0.0094772121 -0.25507745 -0.11343049 0.49435383 0.18636504 -0.35479802 0.24552716 -0.11223465 -0.47772217 -0.24193056 -0.35064563 -0.44292238 0.20315254 0.54192775 -0.089159548 0.047951713 -0.28282365 -0.19562127 -0.53621924 0.22265524 0.21530844 -0.40517804 -0.51952946 0.038354378 -0.041119121 -0.12397011 -0.13837211 0.11676206 -0.12273698 0.38129345 -0.13541348 -0.17237763 0.088015392 -0.28324711 0.21276218 0.013313786 0.057883978 -0.060401175 -0.042282682 -0.096614659 -0.26471797 -0.094338596 0.37535095 0.095107682 0.17968461 0.10822314 -0.1996901 -0.19078009 -0.050625741 -0.13377121 -0.057075083 0.41916692 0.27663231 0.19639361 -0.36592573 0.51954639 -0.40753123 0.18463673 -0.17036562 0.13286757 -0.43693751 -0.094110869
512 0.13138197 0.069952793 0.36153671 -0.015777992 0.30618507 0.24567778 0.26077354 -0.39643586 -0.11662835 -0.12323269 -0.29214245 0.029424381 -0.25275931 0.7782768 -0.22666754 -0.057296831 -0.47814605 0.021537153 0.21641415 0.057429481 0.21999077 -0.013003841 0.31360304 -0.069608457 -0.1762208 -0.088056318 0.087445468 0.30136406 0.082504734 0.11519574 0.02910685 -0.20673247 -0.54983091 0.46280429 0.31856263 -0.13711181 -0.20392813 0.61452329 0.50741243 -0.16616857 -0.17344204 0.1766123 0.36712927 0.12763546 0.024468532 0.014172703 -0.19326086 0.202207 -0.48961291 0.31705144 -0.23350619 0.20478708 0.30521122 -0.037915822 0.094097309 -0.2156866 -0.15561618 -0.1090953 0.26443455 0.2474526 0.25069338 -0.53437829 0.038063679 0.069745868 -0.18533359 -0.15010218 0.031639766 -0.29939115 -0.10853244 0.65010571 0.32389015 -0.38278782 0.22375038 -0.21906103 -0.2570866 -0.1971208 -0.36613095 -0.14979948 0.35506067 0.44045985 -0.12028216 0.061956894 -0.31134224 -0.29250208 -0.60129279 0.31626201 0.10574779 -0.43562078 -0.31097987 0.18467177 -0.18447806 -0.24576393 -0.26523888 0.023089224 -0.029882228 0.37442797 -0.15850978 -0.031360116 0.094278216 -0.33649847 0.20237134 0.18046671 0.022708127 -0.062364064 -0.046716291 0.012877856 -0.30101353 -0.053802364 0.28938577 0.23267786 0.080373965 -0.0063488651 -0.20006248 -0.11724462 0.069138892 -0.059992734 0.039401393 0.43213093 0.13964027 0.20653862 -0.32832685 0.39902985 -0.45731342 0.35939556 -0.040107135 0.077083014 -0.37789711 -0.13958314
1004 0.16652007 0.19003366 -0.20433624 -0.65082669 -0.55265456 0.76046491 -0.3503392 -0.9121666 0.27762347 0.40581286 0.0073492704 -0.012031481 0.11441538 0.22996725 0.11583357 0.0038475029 -0.3336384 0.30143887 0.13437366 -0.19335617 0.92138761 0.71391058 -0.088350013 -0.38442695 -0.47728422 0.22914088 0.14106269 0.14959787 0.72966307 -0.053190771 -0.35794052 -0.6699819 -0.6569342 0.56614816 0.30438042 0.24616584 -0.021691555 0.49306452 -0.69061488 -0.089064181 -0.10093481 -0.44469732 -0.24684884 0.089380249 -0.24897195 0.097303323 -0.1554255 0.0034549583 0.086584814 0.35512722 -0.0045283563 0.0087648071 -0.58669162 0.76531917 -0.19724345 -0.061221201 -0.68463278 -0.24762112 -0.26977688 -0.062442891 0.31826425 -0.25401458 -0.51692241 0.0056749843 0.55343056 -0.38311347 -0.38101032 0.14593223 0.48302567 0.69569737 -0.15689404 -0.079339951 -0.28492725 -0.39716309 -0.43327895 0.51920754 -0.85575563 0.035147607 0.18644077 0.199432 0.038046449 0.32355613 0.45511335 -0.053368293 -0.34121203 -0.018560946 0.19379777 0.057730976 -0.89973092 0.032223973 0.10240274 -0.071768425 -0.065910086 -0.0032434741 -0.36832795 0.86139476 -0.017961962 0.38767308 0.21863574 0.34752688 -0.33550432 -0.44781035 0.084333315 -0.48929062 0.19975077 0.28586107 0.1057804 -0.1739897 0.25444531 -0.074086696 0.040858865 -0.027168131 -0.48906919 -0.20014405 0.1117179 0.26025307 -0.089047372 0.14459376 -0.33392972 0.29636335 0.058341898 0.26930538 -0.20206931 0.11203213 0.084941976 0.43726879 0.16846535 -0.053366445
178 0.23009999 0.42971089 0.28662685 -0.020347845 0.094019324 -0.24890703 0.33801818 -0.068249866 0.22015207 0.054106675 -0.12073532 0.36076251 0.12312336 0.12042442 -0.15656155 -0.21985461 -0.27334869 0.04543164 -0.25309524 -0.30674776 0.50765532 0.010961642 0.13651426 -0.081117257 -0.47266936 0.11298833 0.20744792 0.12971891 0.14583254 0.012445817 -0.28431314 -0.39777201 -0.13221797 0.16590805 -0.033895634 -0.34406063 -0.086736634 0.31191042 -0.10734295 -0.31173944 -0.2220201 -0.42769599 -0.11196601 0.31144074 0.062135026 0.39040333 -0.11775386 0.070826322 -0.12998198 0.15578568 -0.049562048 0.22642146 -0.12617037 0.021581119 0.15008211 -0.070660628 -0.16731888 -0.05516566 -0.3332344 0.10537862 -0.20614311 -0.52804303 -0.010649161 -0.13568111 0.20004115 0.16361208 -0.25173372 -0.16957986 0.06176649 0.13079636 0.071605101 -0.17410602 -0.011194021 -0.099850208 -0.027272442 -0.052132685 0.50709003 -0.45751727 -0.16247416 -0.00266596 -0.40728292 0.02237463 0.13177164 -0.071925282 -0.21967815 0.07026089 -0.073102221 0.10545185 0.064666338 0.36799392 0.01775972 -0.064297795 -0.39526209 -0.16595696 0.016273495 0.27044806 -0.025182132 -0.13060558 0.17152089 -0.23162414 0.19587176 0.0021084535 -0.091727123 0.3062022 0.074582376 0.25637406 -0.10820103 -0.29327014 0.64707989 0.59798473 -0.10762352 0.059814818 -0.25873801 0.00061729678 -0.04382794 -0.072872728 -0.063045874 0.30984461 0.41059831 -0.13713391 -0.55607772 0.12137679 0.11468353 0.11171154 -0.16476561 0.12849325 -0.0014435309 -0.33050734
501 0.19541219 0.18301116 0.21201843 -0.37031367 -0.11913989 0.20029157 0.35551959 0.12024036 0.27723631 0.13441658 -0.074499086 0.092755847 0.019492749 0.084746309 0.092256323 0.15243885 0.1225716 0.058828034 -0.28153992 0.036213823 0.2824187 -0.050520811 0.064704329 0.21695575 -0.31998369 -0.057090916 0.058887217 0.12156157 0.12987578 0.1595884 0.31014004 -0.1819253 0.10343871 0.23820363 -0.20688412 -0.13968448 0.41080862 0.31111127 0.12147044 0.088672332 0.24985893 0.15426821 -0.018176941 0.24977735 -0.21163262 -0.09177196 -0.019466409 0.27935296 -0.12038779 0.62106246 -0.21954025 -0.042072143 0.31334835 0.43949834 -0.01920026 -0.14754525 0.0050787665 -0.12892683 -0.13411555 0.38496733 -0.059597276 -0.04007091 0.13414347 -0.07065507 0.18440755 -0.17662628 -0.42400354 -0.067899987 0.030241914 0.16702065 0.063583873 -0.29796913 -0.11515234 -0.25222945 0.002827717 -0.21697292 0.1211466 -0.34449035 0.18228783 0.39886335 0.3581939 0.10074646 0.16835915 -0.16749367 -0.421673 -0.35013932 -0.27622443 0.31585175 -0.016784692 0.49432909 0.083605006 0.19574162 0.13798557 -0.41541436 -0.4142645 0.53053951 -0.092896841 -0.22403531 -0.024219848 -0.29391053 0.28282356 0.16348261 0.034851402 0.13444111 -0.11892726 -0.081939086 0.010838221 -0.2565234 0.34391207 0.29739246 -0.35064369 0.010503942 -0.0083160056 -0.055102758 -0.099223271 0.0967739 -0.014483807 0.06941475 0.2604807 -0.03509637 0.031220675 0.27168518 0.21283159 -0.088855237 -0.24193026 0.3460874 0.18426843 0.066158324
301 -0.020009108 -0.13686052 -0.27802613 0.033379313 -0.022069849 0.10185779 -0.11264385 0.18525457 0.011623994 0.081115529 0.0044259117 0.044002678 0.10456419 -0.030644868 -0.032418728 0.11425407 -0.13406363 0.25373471 0.054873321 -0.21523085 0.038531087 0.17360258 -0.047074359 -0.20066023 -0.057882484 -0.13196519 -0.053240009 0.22934198 0.19874747 -0.12370054 0.10909564 -0.19874021 0.15408491 -0.014780839 0.078921206 0.00063593884 0.25132594 -0.2218554 0.16235153 0.2564905 -0.089080662 0.12852582 0.16488349 0.081757985 0.14519548 -0.077821054 0.046522211 -0.11217237 -0.14481074 0.029208481 0.13400961 -0.076513179 0.055094663 -0.066377841 0.21800755 0.073069982 -0.13806495 0.026667174 -0.0047131935 -0.2381992 -0.058224197 -0.11284963 0.03016834 -0.10105418 0.18900414 0.00027925606 -0.26054239 -0.072486319 -0.12333082 -0.0086033475 -0.084481016 0.15082398 0.24058554 -0.10504328 -0.055203777 -0.069799297 0.096959777 0.18612926 0.15062459 -0.034968216 0.20518546 0.078866214 -0.0067305774 -0.1525972 -0.18545531 0.29647726 -0.22232459 -0.022086544 0.05878821 0.082247145 -0.20847172 -0.020460894 0.042027228 -0.011707576 -0.057388265 0.019162573 -0.22855225 0.16629612 0.055262174 -0.07480558 -0.11429757 0.25103375 0.07435178 0.04336378 0.032219201 -0.094042808 -0.12347282 0.033632826 0.22228819 0.090578765 -0.11885714 0.11768541 -0.20983762 -0.27701792 0.13758197 0.21784711 -0.0092832008 -0.030011233 -0.11449096 0.26884499 -0.29960418 0.19277595 -0.0053569926 -0.03776129 -0.028619975 -0.059188969 -0.074587882 0.088045754
133 -0.097338833 -0.29658845 0.050156139 -0.035084736 0.06284678 0.013768353 -0.035015162 0.0027356532 0.16435343 0.026059857 0.059696738 0.014708877 -0.11998117 0.18705638 0.16192205 0.0075439159 -0.13813786 0.023339564 -0.070243649 -0.12817118 0.088757284 -0.25877851 -0.03057038 -0.068907134 0.087241814 -0.2662017 -0.098951727 0.045431156 -0.058443625 -0.10452215 -0.22428373 0.050013784 0.28004539 0.093717195 0.015321985 -0.085719489 0.29564863 0.071491957 -0.19864717 -0.046991542 0.098934561 -0.0016523323 0.25518709 0.15408434 -0.038793039 -0.11804932 -0.076004103 -0.062464811 0.063392431 -0.086407378 0.032651052 0.017971003 -0.14070289 -0.079314567 0.11288861 0.073309742 -0.21425822 0.21611238 0.15709223 -0.1112859 0.02451585 0.12169199 0.14925003 -0.035949111 0.14458561 0.19122402 -0.13285209 -0.20537075 -0.049658008 0.069924466 -0.050570451 0.10106066 -0.057861973 -0.079604663 -0.34298831 -0.067053579 0.18850094 -0.10746348 0.077928722 0.014309937 0.18950815 -0.019703476 0.18716191 0.26139104 -0.23783298 0.055442926 -0.12755004 -0.29228649 -0.12890443 0.14037138 -0.040871847 0.31319198 0.26527497 0.067516297 -0.16477557 0.21491569 -0.13777986 -0.12489803 -0.076630168 -0.031494677 -0.001032106 0.15420863 0.046504132 -0.091090538 -0.061663747 0.1993448 -0.1660704 -0.091875292 0.065923616 0.0011421276 0.095488258 0.048253499 -0.14013484 -0.26295796 0.063647732 0.0030928592 -0.079685219 -0.14635718 -0.065818459 0.052594692 -0.13609071 0.0053217444 0.14558262 -0.16428114 0.11998576 -0.032906372 -0.12774588 -0.026888233
476 0.068379812 0.025991645 -0.12072633 -0.15217996 -0.047468986 0.097303979 -0.086020127 0.092739508 -0.25722608 0.067612097 -0.070940249 0.010082006 -0.035974693 0.2842626 0.15234868 0.14128084 0.067571782 0.086312063 -0.1956217 -0.12332547 -0.014208551 -0.18612921 0.045986969 -0.0021731576 -0.19020903 -0.27472171 -0.032298513 -0.12730625 0.010320068 0.06799183 -0.1299096 0.12235132 0.078163736 0.20427199 0.11823513 -0.17599887 0.27181551 -0.076880299 -0.15297648 0.09687119 -0.14607391 -0.0035652709 0.18390796 0.038356435 -0.065542206 -0.20223972 -0.090151317 -0.082040839 -0.0036120673 0.023017645 0.082930572 -0.022902491 -0.067897409 0.0945995 0.028130457 0.023157222 -0.051677462 -0.18163417 -0.061569549 -0.10875077 -0.030247109 0.090341769 -0.019388782 -0.1171736 -0.05582045 0.048481222 -0.032758523 -0.14744863 -0.0037459705 0.10241631 0.14015999 0.18206611 -0.058084425 -0.14983676 -0.06594608 -0.066928916 0.013082784 0.033784475 -0.035061885 -0.028100148 0.029279936 0.17056257 0.12683831 -0.013238963 -0.10436215 0.1640041 -0.092469573 -0.39852563 -0.019463617 -0.1633109 0.13689491 0.12319171 0.11071658 0.11159333 0.082855105 -0.1391367 0.088780835 -0.0022695886 -0.00037987743 0.099031679 -0.22271545 0.1661104 0.1529527 -0.028245894 -0.14603549 0.15875244 -0.12991032 -0.071742781 0.22551194 0.29740405 0.12454176 0.057014313 -0.081053838 -0.23179133 -0.054149404 -0.19773667 0.019375209 -0.16763195 0.077547677 0.016826171 -0.093241535 0.0051657003 -0.02604658 -0.098698266 -0.067824736 -0.13316625 0.19049321 0.082045108
1010 -0.038750138 0.15832733 -0.14443073 -0.17727427 -0.037472967 0.26072142 -0.097231857 -0.032053631 0.06499023 -0.21020702 0.14008333 0.02594848 -0.12265298 -0.039095446 -0.11717558 -0.027216012 0.00030066771 -0.00012772827 -0.43446076 -0.1900709 0.23770021 0.12099618 -0.042180348 0.16335882 -0.29294842 -0.16459459 0.061570108 -0.10021345 0.054431956 0.043769147 -0.36151147 -0.40447277 0.0041546524 0.42925802 0.20678304 -0.29758242 0.27814773 0.30756626 0.14506572 -0.32053229 0.090133585 -0.57889682 -0.044309642 0.33024356 -0.21477622 0.34844857 0.072785266 -0.043441463 -0.3215389 0.32993618 -0.4782185 0.11835989 0.17344186 0.20935185 0.012287677 -0.18779115 -0.13657713 -0.01839301 -0.19497338 0.20895611 -0.15917996 -0.15717773 0.09982419 -0.28801453 -0.03956607 -0.40149117 -0.19658957 -0.15482447 0.039109059 0.48180458 0.39653987 0.095399678 -0.093936004 0.030357474 -0.34345374 -0.14850137 -0.36049086 0.066173293 0.4272176 -0.038467452 -0.099985927 -0.085753351 -0.079556443 -0.32612756 0.11052214 -0.38869527 0.16752766 0.0606017 -0.44609633 0.23187986 -0.0013575782 0.12108896 -0.55137897 -0.18633138 -0.062039003 0.33983642 -0.38519686 0.40234739 0.085800111 -0.060335547 0.21993509 0.037797395 0.24258414 0.28778213 0.50330096 0.35738471 -0.019268762 -0.2182028 0.088217586 -0.40779531 0.23563412 0.0062581543 -0.29873389 -0.30341306 0.23007448 -0.10476764 0.066193968 0.0090970946 -0.22392425 -0.08900319 -0.053238917 0.12058382 -0.46916646 0.19745198 -0.0045732409 -0.24527118 0.064819835 -0.31241646
432 0.073485941 -0.13459592 -0.17359141 -0.073251717 -0.066874266 0.02902722 0.026406571 -0.054203458 0.043161336 0.020575279 -0.14006011 0.021675965 -0.019341325 0.12836201 0.30552074 0.095399797 0.0014655279 0.057716627 0.14787456 -0.12411189 0.034194041 -0.13550197 0.13051604 -0.096610002 0.16815774 -0.16862959 0.063288629 -0.040699411 -0.0041190903 0.09869957 -0.12379631 0.1205916 0.080514058 0.034942225 -0.023388205 -0.1360482 0.080973774 -0.072529733 0.0079922136 0.06489902 -0.13595507 -0.037808415 0.075691178 0.048854295 0.088724457 -0.15468545 -0.060228713 -0.15599369 -0.26047122 -0.093488924 0.068953902 -0.033577628 -0.058130283 -0.026120506 0.32821566 0.092217378 -0.32866943 0.070320725 -0.013395359 -0.082233101 -0.053984873 0.072540879 -0.098439023 0.017856805 0.084147125 0.16767947 -0.07461869 -0.057228703 -0.20018573 0.12030835 -0.042280007 0.031433392 0.071329772 -0.058179967 -0.22266369 -0.022877181 -0.030769257 0.099500366 0.042763133 -0.0454298 0.13264976 -0.032223545 -0.14183819 0.15386333 -0.21353558 0.01394708 -0.17933422 -0.19758199 -0.13832231 0.13037372 0.060413819 0.2203991 0.073927127 0.075877711 -0.11498758 0.097751096 0.041596945 -0.093741775 -0.033708915 0.13524541 0.044348013 0.11087475 -0.063955486 -0.12717141 0.034517579 0.16715127 -0.050383255 -0.22532685 0.21810418 0.098541439 -0.037604108 0.061421711 -0.20566468 -0.07243751 0.10385104 -0.022211643 -0.11776486 0.036261722 -0.002919646 0.1135215 -0.051079918 0.013943344 0.1589642 -0.30332455 0.010877404 -0.092304654 -0.07990551 -0.045519441
69 0.10451402 -0.038686894 -0.14209896 -0.046121579 -0.057170611 -0.011210448 -0.085863806 0.073725417 0.023051914 0.078448661 0.042919096 -0.17242844 0.034362249 0.25931013 0.19719139 -0.10411447 0.15945949 0.067064255 -0.02120449 -0.030822445 -0.107682 0.10806881 0.19652823 0.20022114 -0.035547987 -0.19448824 -0.065772593 -0.1539204 -0.044868942 0.09784285 -0.083991125 0.079014882 -0.023961429 0.064704858 -0.008139086 -0.095983088 0.35593385 0.14855994 -0.10864304 0.22394122 -0.074420512 0.020800786 0.1639201 0.092214808 0.11670312 -0.22506349 0.159392 -0.048581708 -0.086310253 -0.17280595 -0.017835395 -0.032563042 -0.11544649 -0.029227329 -0.0065480368 0.089611746 -0.18306541 -0.064917177 0.089413561 -0.10765602 -0.25752023 0.089907147 0.19498791 -0.018224243 0.077416524 0.01339795 -0.16431156 -0.078791946 0.010467095 0.19021015 -0.1066182 0.0075427932 0.12510388 -0.18779652 -0.18912698 -0.17672937 0.064004809 0.056501653 -0.017147329 -0.062127285 0.28785515 0.22901599 0.025258586 0.17580788 -0.089761756 0.035533417 -0.034234893 -0.33060127 -0.26285243 -0.071450308 0.0099751558 0.088580392 -0.12523805 0.11431204 0.22091082 -0.17620073 0.087808415 -0.12528843 0.01929944 0.099080168 -0.020017486 0.10692519 0.032196131 -0.099547364 -0.097981967 0.10685826 -0.28932086 -0.027669322 -0.066626258 0.1121615 -0.045579519 0.31436583 -0.20180866 -0.12159356 -0.10452217 -0.070532575 0.0022061013 0.050179388 -0.0025524979 0.15285787 -0.26416978 0.041000381 -0.053603131 0.021322628 0.10335781 -0.020226261 -0.058069646 0.014545221
467 -0.0013244842 0.072981536 -0.044924304 -0.18230027 0.040317513 0.096849255 -0.038773868 -0.10738336 -0.059468858 -0.13365565 -0.029810356 -0.14075337 0.0085686659 0.19998591 0.11267056 0.030818505 -0.10433417 -0.013163658 -0.13455835 -0.089607455 -0.15354821 0.077158995 0.02040193 0.066193663 0.080528177 -0.11571278 0.094909154 -0.18032871 -0.014630093 0.049384944 -0.10589381 0.055383116 -0.15826775 0.010200126 -0.028677525 -0.022443371 0.043181546 -0.02363036 -0.077141941 0.1993857 -0.054774068 0.077680357 0.18613076 0.049299102 -0.075729631 0.087309986 -0.30031174 -0.26041713 0.066506505 0.021789549 0.16578105 -0.067252398 0.040981662 0.070069931 0.14327604 0.0027711301 -0.049693447 0.047848478 -0.00081250968 -0.064684376 -0.05896249 0.12812884 0.19798091 -0.2129032 0.16250651 0.13720475 -0.12133425 -0.21847674 -0.098417811 -0.0043858951 -0.041471835 0.097026758 -0.011885708 0.036913209 -0.15458564 -0.063211493 0.075188421 -0.040389165 0.10762561 -0.0062817303 0.20397606 0.18716346 0.064839728 -0.041712277 0.14027967 -0.014834322 -0.096460745 -0.26562735 -0.088719837 -0.029772108 -0.05004305 0.23503916 -0.1299374 0.3193768 -0.092692941 0.049483187 -0.0016667224 -0.080806017 -0.047181595 -0.015868932 -0.05708079 -0.022790954 0.15821126 -0.032838874 -0.20758665 0.14304811 -0.12183119 0.095040664 0.15446015 0.22792815 0.073298357 0.22962967 -0.22783849 -0.20788549 0.15965489 -0.29120877 0.13544981 -0.199716 -0.092203826 0.12988612 -0.069585882 -0.15439698 0.097486503 0.071394026 0.1320655 -0.059344068 0.040879812 -0.021919865
404 -0.073681869 -0.26404434 -0.14987464 0.1587123 -0.15205739 0.074104577 -0.011904951 -0.19087987 -0.026206892 -0.13261589 -0.12347931 -0.35660738 0.086769931 0.30656219 0.097243145 0.25997564 -0.024874488 -0.070227347 -0.083772033 -0.094635531 0.16396177 0.14968148 -0.043804947 -0.058950629 -0.27101725 0.15351748 -0.12176514 0.048748605 0.15646139 -0.073004194 0.14947277 0.11160722 -0.018478248 0.13725835 0.45598853 0.14221497 0.12599821 -0.23477839 -0.20549899 0.23331839 0.01879161 0.084347025 0.035905879 0.32062179 -0.27222285 -0.043347504 -0.077483326 -0.22750741 -0.023729535 -0.22110735 0.051461536 0.031181777 -0.09914273 -0.0073043886 0.25948671 -0.14490771 -0.18056756 0.087842807 -0.051840134 0.0050785965 0.11574103 -0.10239329 -0.10938712 0.037114393 -0.20806128 0.066875294 -0.097101159 0.46698976 -0.2084599 -0.083856091 -0.030860106 -0.12706482 -0.19077045 -0.019995185 -0.20682952 -0.11060956 -0.13780546 -0.074998021 -0.093118705 -0.013471772 0.064609699 0.013526057 -0.090639807 -0.042610414 -0.22623686 -0.034417108 -0.23737891 -0.1296379 0.072478808 -0.058874395 -0.11880218 0.65224189 -0.085469529 0.034405675 -0.12713234 0.067496963 -0.10459883 -0.13186675 0.036757033 0.04349146 -0.0043773339 0.25056934 0.039059144 0.041014746 0.0071138213 -0.17027397 -0.19309613 -0.23265128 0.060017865 0.10783376 -0.21524145 0.19368392 -0.089018531 0.071284242 0.073225953 -0.10519701 0.010509379 -0.03385732 -0.083164707 0.076243907 -0.068188079 -0.20911948 0.33409005 -0.090787895 -0.13793683 -0.3127557 -0.049981993 0.0061352481
232 0.053098574 0.10368135 -0.011800573 0.072961971 0.048704099 -0.065707535 -0.14872216 -0.11880387 0.067581549 0.29308906 -0.1812793 0.060040213 0.092642769 0.014398489 0.12508023 -0.12738137 0.074759901 0.056295328 -0.30313092 0.03410526 0.056209303 0.1570331 0.10912637 0.13172495 0.0024293761 0.12471266 -0.10838347 -0.060684204 0.11713499 0.019449508 -0.023450224 -0.049077731 0.12061518 0.20237127 0.051915437 -0.20422515 0.062020507 0.027886966 0.062847503 0.030065536 -0.0051148292 0.017644979 -0.084115766 0.039635681 -0.00074764248 -0.22109716 -0.12428357 -0.24975502 0.036416311 -0.14489865 0.076287806 -0.050001182 -0.080641329 -0.0968697 0.054083575 -0.048177376 -0.02595439 0.036218572 0.029117277 -0.133451 -0.050809614 0.15424629 -0.15178025 -0.22272117 -0.021086469 0.13927518 -0.19153644 -0.11933195 -0.3907792 -0.053609189 -0.19471891 0.099377684 -0.056706436 -0.10524936 -0.17295115 -0.068127587 -0.097682446 0.26929939 -0.046535738 0.099191301 0.078845084 0.012802473 0.16358508 -0.037896287 -0.021303726 0.35278293 -0.055530239 -0.11949374 0.018633408 -0.0026471457 0.013176038 0.051634215 0.081105039 -0.027654385 0.098928615 0.20949465 -0.065101795 -0.055930279 0.05653682 -0.091826357 -0.19023274 0.24124065 0.16464767 0.11220951 -0.11175377 0.22229084 -0.0825314 0.10670891 0.21602814 0.22383539 0.10627197 0.15640289 -0.16738835 -0.20398343 0.017350907 -0.27264091 0.034781408 -0.093409069 0.19651292 0.12903021 -0.16591278 0.11958331 0.013840296 -0.19721088 -0.062281407 -0.048475776 -0.25578877 0.15497667
234 -0.09144634 -0.086271912 -0.03756104 0.086364344 0.041284662 0.032021504 -0.059266537 -0.067753255 -0.06846942 0.08537896 -0.1171023 -0.02273885 0.017186785 0.090172611 0.17643169 0.091214247 -0.026556257 -0.031900965 -0.015002103 -0.062981933 0.022720711 0.068167821 -0.10969524 -0.0072941366 -0.04410997 0.0016324685 -0.044265412 -0.051739112 0.1356016 0.26389319 0.01332083 0.25168154 -0.1346733 0.059937637 0.086877361 -0.15468989 0.042042166 -0.073858477 0.05558908 0.31725931 -0.018044895 0.16679271 -0.14587037 0.05068025 0.017499037 -0.1372907 0.0014385249 0.020503744 -0.17317091 -0.15640172 -0.25584471 -0.093694896 -0.10168242 0.15896915 0.081340224 0.18402489 -0.1397517 -0.13449925 0.057616636 -0.05528874 -0.06723775 0.023944531 -0.088620633 -0.24626584 0.08296746 0.14629154 0.078536712 -0.056358807 -0.021509169 -0.046609204 -0.011532936 0.052078631 -0.074147485 -0.030100768 -0.17790666 -0.23056218 -0.17525484 -0.023908492 -0.0076736873 0.0055615744 0.20233747 -0.015101766 -0.0039927233 0.011926197 -0.03503675 0.21851833 -0.073081546 -0.14963119 0.018729934 0.18441361 0.0062965909 0.19456547 -0.018695185 0.099907763 0.0081274165 0.016310886 -0.13892636 -0.19851735 0.023869578 0.13870786 -0.065441474 0.19807787 0.19264328 0.13669623 -0.077439889 0.13523062 -0.13149172 -0.030165516 0.31714857 0.22978154 0.075312562 0.19853602 -0.17709972 -0.13119774 0.11922041 -0.20080213 -0.11782978 -0.054313079 -0.079449691 0.13386704 0.090601988 -0.14154205 0.19892156 -0.21275146 -0.08738862 0.04202316 0.046261061 -0.19269229
120 0.030220989 -0.014020512 -0.16548628 -0.023807995 -0.015878282 0.067359611 0.0024847279 0.047623295 0.047307219 -0.038025275 -0.087602347 -0.077150799 -0.02795504 0.22014882 0.057347342 0.054243512 0.10895195 -0.067990169 -0.12644371 -0.075291 -0.06576433 0.077705212 0.045999542 0.033396591 -0.11981786 -0.015659286 0.061389469 0.015713386 0.095199794 0.077551275 -0.074897423 0.10280333 -0.021973582 0.11641131 0.0069756857 -0.15961182 0.18412082 0.1277703 -0.095872752 0.16462377 -0.1431956 0.12813669 0.022921672 0.05781389 -0.0045392429 -0.050456297 -0.078902461 -0.054353993 0.039697155 -0.10783923 0.022820871 -0.048110038 -0.11798696 -0.079392716 -0.028720759 0.060733605 -0.015696278 -0.073754646 0.053672474 -0.13147204 -0.0229917 0.061737195 -0.0026254335 -0.10149208 0.0078699766 0.068954669 -0.0018525365 0.010450748 -0.049708206 -0.087174527 -0.061888918 0.1263435 -0.045102939 -0.020487536 -0.053828847 -0.05023028 -0.034542449 0.14520586 0.078589618 0.085518532 0.14570622 0.15366937 -0.15838119 0.072134919 -0.02908886 0.15492514 -0.14727841 -0.13544913 -0.1658272 0.1617357 0.029112874 0.099963866 0.11422294 0.077082455 0.025027512 0.076499566 -0.080043592 0.02498218 -0.011413873 0.1197353 -0.10559808 0.14087261 0.05362381 -0.0079174107 -0.091983743 0.052838791 -0.2279707 -0.015939295 0.02541348 0.20929514 0.035207748 0.1254767 -0.23435104 0.038358167 0.065317795 -0.14399636 0.10687397 -0.16423197 0.042340871 0.22144128 -0.027988326 -0.040959004 0.096962973 -0.051829565 -0.021770023 -0.044520076 0.054863449 0.066937357
459 -0.0023668297 -0.15319349 -0.22894274 -0.096822478 -0.0091936179 0.04605335 -0.028280765 -0.1225234 -0.014076141 0.05688861 0.020269189 -0.090037517 -0.051036708 0.015278808 0.26660207 -0.11501777 0.016223688 0.028705277 -0.27591556 -0.14495043 -0.13308671 0.058976907 0.19819002 0.067612134 0.060137734 -0.040978141 0.18197878 -0.069355041 0.16738489 -0.0040682475 -0.13903506 -0.077307627 0.11241663 0.044386569 0.030386461 -0.023670336 0.12094671 0.16364168 -0.034081765 0.054515813 -0.10240784 0.23001491 -0.0053720991 -0.089864716 -0.130492 -0.070630521 0.05312524 -0.057338644 -0.022684656 -0.18070248 -0.17109004 -0.087399617 0.079239309 -0.092127942 -0.02969097 0.041399609 -0.12930514 -0.020048611 0.054776244 -0.024409497 -0.21337362 0.13256995 0.014263421 -0.1049073 0.029947257 0.082240127 -0.083621785 0.11312604 -0.091924667 0.070657253 -0.17470311 0.17427769 0.095659956 -0.13654913 -0.08333239 -0.0275367 -0.060371909 -0.03776874 -0.054315425 -0.02552538 0.10061206 0.099812455 -0.17797472 -0.17532542 -0.29264215 0.18928184 0.070895247 0.038933482 0.020944986 0.32620764 -0.27823704 -0.060921118 0.049781341 0.33214948 0.031728536 0.083646469 -0.17763737 0.1212578 -0.17909892 0.23696318 -0.1373578 0.30126101 0.24016213 0.071694717 -0.11068473 -0.086788185 -0.074935921 -0.09511672 -0.029301669 0.17894962 -0.043486711 0.067144252 -0.10440134 -0.096431278 0.056884848 0.024987726 0.078735985 -0.042106003 0.1390821 0.27317312 -0.28230956 -0.034070179 0.076373614 -0.021914814 0.059894726 0.24221581 -0.2553986 -0.11767805
16 -0.01544755 -0.0088377139 -0.20251764 0.04028235 0.038521305 0.068937272 -0.039942872 0.025772134 0.048271 0.077382632 -0.05988548 -0.02240487 -0.10157827 0.19151813 0.061127339 0.037686031 0.10479823 -0.055001918 -0.098700076 -0.20236154 -0.034081735 0.028699569 0.14493437 0.021215834 -0.09195064 -0.087017514 0.048576273 0.048579961 0.1215474 0.018703759 -0.054214224 0.11657494 -0.038255624 0.027177354 0.026945494 -0.094551176 0.073356681 0.13687669 -0.068544559 0.19476923 -0.07580623 0.022854462 -0.0024778661 0.059768353 -0.018516617 -0.03167434 0.02447119 -0.068341553 -0.014078093 0.004599527 -0.048661165 0.0061507262 -0.11114777 -0.049310658 -0.030493617 0.06492994 -0.071675323 0.10239408 0.0071005276 -0.084129632 -0.021745879 0.11394413 0.054669648 -0.10053491 0.058674246 0.09746556 -0.027688036 -0.061153784 -0.1309396 -0.037767161 -0.11560139 0.12311397 0.026555309 -0.029310312 -0.19952458 -0.031577393 -0.0029344882 0.066594586 0.1245518 0.056049097 0.10800151 0.11870228 -0.022122996 0.077389054 -0.015047843 0.038069192 -0.11379199 -0.18147574 -0.00084842241 0.060728703 -0.021743575 0.20301655 0.091624886 -0.040254213 0.11304542 0.079101942 -0.060601003 0.074357465 -0.033991579 0.14397284 -0.090458184 0.069734074 0.15014854 -0.050814897 -0.032219078 -0.014466029 -0.25067753 0.056774922 0.049013723 0.21785061 0.0058826152 0.12878951 -0.24318993 -0.080460876 0.078545466 -0.19433174 0.12027297 -0.14987847 -0.012201124 0.20116572 0.020486649 0.005977591 0.055282835 -0.039630063 -0.011416536 -0.039761338 0.044118356 0.05083289
337 -0.0072658318 -0.067004658 -0.17083222 0.026415383 0.071541078 -0.035864886 -0.0050074859 -0.08743915 0.078815527 0.022852428 -0.056555316 -0.012471663 -0.19322121 0.163958 0.13490057 0.091197252 0.099406309 0.051861297 -0.083127119 -0.14201094 -0.028733587 0.13136166 0.21965741 0.024908604 -0.10021207 0.10023476 -0.055982951 -0.06542322 0.13052361 0.059877872 -0.12334862 0.045125086 0.14587107 0.050248258 -0.0460779 -0.12386128 0.15293366 0.11319029 -0.092695646 0.11878468 -0.11662243 0.11433334 0.097040333 -0.026619175 -0.0010510401 -0.058013339 -0.096408397 -0.10863096 -0.11040551 -0.016812801 -0.065656558 0.082361616 -0.31878182 -0.11391882 0.063645206 0.094912119 -0.042380929 -0.075799555 0.048720893 0.066369578 -0.054527339 0.15036522 0.064591669 -0.030533899 0.011758777 0.065727606 -0.0088515095 -0.21994565 -0.14802265 -0.10135171 -0.12844586 0.15564084 0.0078962902 -0.035303045 -0.24794106 -0.044218436 0.083471671 0.0541104 0.095728986 -0.067098841 0.19993715 -0.069274284 -0.013706933 0.14912646 -0.11025867 0.047499347 -0.15450592 -0.13074271 -0.1320893 0.13266954 -0.095060341 0.17455895 0.050373167 0.057980031 -0.0031762195 0.12930667 -0.19803932 -0.032320298 -0.073769614 -0.062973112 -0.035297185 0.065268546 0.0025849203 -0.035349678 -0.12623024 0.05205708 -0.063469388 -0.14482203 0.094685741 0.068813592 0.13136294 0.19153717 -0.22407717 -0.092463501 0.046735357 -0.072416 0.030540837 -0.13112527 0.058379825 0.2172329 0.01602087 -0.023512939 0.031340193 -0.092801459 0.034079075 -0.037352338 -0.096287966 0.044928193
264 0.050185435 0.01877162 -0.091217905 0.038159467 -0.15785488 -0.032422643 -0.01391701 0.008806454 -0.021154504 0.063258626 -0.087615974 -0.050005186 -0.018334294 0.12951045 -0.031538803 0.046499617 0.234093 -0.083901979 -0.15664333 0.0013016581 -0.059066001 0.08162415 0.12815329 0.072445177 -0.14337297 -0.027361566 0.061811157 -0.045924556 0.077820145 0.087099321 -0.022535684 0.02164137 -0.022631466 -0.024833547 0.064360812 -0.12652043 -0.039484996 0.04110036 -0.10418623 0.17494656 -0.13016514 0.093244128 0.029724227 0.044055331 0.0041882563 -0.051182043 0.07863494 -0.20505834 -0.0011599706 -0.023886729 -0.01433518 0.01489094 -0.056599539 0.054061141 -0.039812148 0.10484518 -0.089700192 0.058507908 0.050365865 -0.12109589 -0.042897787 0.0115734 -0.0041096262 -0.17064972 0.093333259 0.16301692 0.012709475 -0.059201125 -0.12798923 0.017614057 -0.11335752 0.11919523 0.051006299 -0.020929258 -0.1142937 -0.063193597 -0.078452796 0.14291774 0.10011843 0.035279773 0.15167661 0.076677024 -0.068779878 0.084367305 -0.046032581 0.13156199 -0.19108085 -0.1044824 -0.043233775 0.13908485 -0.0088087115 0.1629061 0.083115101 0.049633715 0.067292869 0.1097152 -0.090056948 0.002555731 -0.018671615 0.078025289 -0.12091633 0.2578837 0.16694541 0.019109609 -0.033364516 0.097561844 -0.22624117 0.064372972 0.04692556 0.25674319 -0.085779265 0.095113717 -0.16649675 -0.063047476 -0.024059292 -0.13755481 0.12895244 -0.17500743 -0.071904719 0.20592584 -0.011053808 0.011525004 0.070053577 -0.070369437 -0.026361179 0.027597187 -0.12882915 0.11073751
323 -0.028714243 -0.13748245 -0.20611969 -0.0065219868 0.18842071 -0.049333353 0.052734461 -0.057236597 -0.026999766 0.0014073122 -0.11475054 -0.10704804 -0.0006568532 0.15860499 -0.053409092 0.22491944 0.036787957 0.13096073 -0.027596552 -0.03671214 0.088853516 0.16438514 0.049801659 0.058789503 -0.094163343 -0.13649167 0.2602956 0.033826496 0.096521147 0.20383711 -0.15077673 0.051562048 -0.0061888522 0.054861106 0.016447064 -0.039531771 0.088263735 0.056940783 -0.18214357 -0.0126112 -0.088871524 0.081258275 0.14947735 -0.10114016 0.016469521 -0.12849715 -0.15733406 -0.10097302 -0.059334371 -0.052994236 -0.046821445 -0.079870932 -0.10873803 0.036343582 0.037718415 -0.18431762 -0.14190041 -0.011545843 -0.032512709 -0.15140474 -0.1368733 0.16860946 0.015476901 -0.21866876 -0.069607787 0.018028684 -0.048414737 -0.085586369 -0.0041382769 -0.084632866 0.059606552 -0.018477118 0.084758699 -0.031593241 -0.056802325 -0.0056803646 -0.084122077 0.018813366 0.16531363 -0.26415256 0.23639113 0.16802312 0.017555635 -0.030772338 -0.042060815 0.1772968 -0.20860991 -0.20409675 -0.084762745 0.15227105 0.027244678 0.25711223 -0.066275537 -0.11493371 0.16285227 -0.11918489 -0.027840625 -0.2917265 -0.22222221 0.06447985 -0.21754996 0.16032794 0.33067465 -0.031094862 -0.093717016 0.039495047 -0.08030647 0.11595021 0.16722868 0.13697995 0.0089569446 0.069447652 -0.23548421 -0.16094458 0.14399482 -0.16185389 0.15474063 -0.18919706 0.2288622 -0.016898381 0.013458271 -0.053027771 0.19136874 0.10928284 0.03185048 0.054685384 -0.18894531 0.044047616
299 0.024507931 -0.12106788 -0.14147869 0.037474349 -0.073268399 0.060769327 -0.047537874 0.075086765 0.013675103 0.052333552 -0.12218864 -0.073411152 0.00094182976 0.16986533 0.054961998 -0.018360548 0.013189335 -0.10003649 -0.13231315 -0.036668092 -0.056075998 0.035124104 0.10770378 0.017364349 -0.12557888 -0.010442338 0.0018042163 0.052070003 0.037783582 0.075013287 -0.065023914 0.064529985 -0.10431132 0.1007522 -0.0090377331 -0.10104651 0.061874792 0.036968354 -0.11925864 0.18394408 -0.039133281 0.16431098 -0.060546041 -0.0084315054 0.101861 -0.098485298 -0.046247896 -0.046624321 0.00015623844 0.070634924 -0.055767361 0.076894745 -0.080715142 -0.018718384 0.0077819228 -0.021820746 -0.13211522 -0.11300568 0.026860645 -0.098712735 -0.037779808 0.11770773 0.054197509 -0.15488452 0.097960837 0.15611151 -0.033489265 -0.018304922 -0.14805396 -0.11197838 -0.10231245 0.15534204 0.011731547 -0.065825738 -0.18599072 -0.10930528 0.014845159 0.18946353 0.14652583 -0.017824851 0.050633505 0.12603731 -0.16084713 0.06451603 0.014826647 0.17834823 -0.1670631 -0.13148408 -0.074342459 0.13383427 0.055370193 0.057160445 0.070795037 -0.0025645392 0.0029005758 0.064867742 -0.17336395 0.018525636 -0.08231964 0.12846725 -0.08126653 0.1111268 0.17849392 0.039502691 -0.026895279 0.097740658 -0.19288495 0.024354877 0.10534863 0.29996669 -0.084922172 0.043197572 -0.22158109 -0.0093194377 -0.014280322 -0.15153398 0.15059321 -0.074253395 -0.019815557 0.23432091 -0.065282889 0.015248665 0.12240973 -0.10317276 0.02159323 -0.028734095 -0.019500667 0.10454345
187 0.11715297 -0.055246092 -0.058197513 -0.098465823 0.15755916 0.0050223414 0.054715272 -0.20553881 -0.046299145 0.0098885177 -0.038799834 0.0013200071 0.081681453 0.10219637 0.016063297 -0.054223843 0.085999437 -0.022135206 -0.061192922 -0.048250798 -0.1060925 0.038812853 0.080898441 0.055508509 0.041782569 -0.15442272 -0.12329996 -0.091812223 0.064594753 0.20591335 -0.081659548 0.1696894 -0.25858918 0.054487523 -0.090691566 0.022490397 0.13445257 -0.013078912 -0.058603127 0.046906091 0.064977452 0.014574993 0.10593357 0.17297557 0.060982242 0.096340783 -0.14707801 0.02650884 0.032853797 -0.20455888 -0.14762934 -0.11381871 -0.039206792 -0.030729178 0.11384526 0.0017090872 -0.18798718 -0.07991489 0.037522852 0.0027879388 -0.1561228 0.17138948 0.10807818 -0.10057221 0.12100714 0.18712756 0.023239264 -0.19400457 -0.11571356 0.049366355 0.048030276 0.097160906 0.013088199 -0.076907538 -0.097691059 -0.13252698 -0.060475055 -0.070959277 0.00013691832 -0.029953701 0.16696648 0.10154579 0.074550115 0.074037686 0.013911256 0.090904459 -0.16141598 -0.2417417 -0.18806547 0.048525654 -0.077517837 0.1360739 0.056338146 0.045142371 -0.14526723 0.04118203 0.0092405919 -0.27809548 -0.23669927 0.21359956 -0.18507917 0.27246106 0.33196834 0.053669218 -0.17560673 0.040700138 -0.16424413 -0.059204947 0.043838073 0.28637183 0.11086255 0.14714924 -0.24192846 -0.082637802 -0.0056394176 -0.10346387 0.0036382582 -0.19357081 -0.071374975 0.14758669 -0.02221469 0.011850369 0.045057811 -0.12518157 0.0031439664 0.026605703 0.02017853 -0.1474205
145 0.0011538562 -0.041008711 -0.12824726 -0.034979384 0.084880166 0.0030871634 -0.099388644 0.0075093573 0.016015818 0.042398904 -0.1165005 -0.056160733 -0.11957245 0.18861702 -0.0052346615 0.00089074386 0.12284541 0.022829602 -0.070445918 -0.033290807 0.034825224 0.04399782 -0.018550117 0.095598876 -0.14117964 0.011599516 0.065327637 -0.06328363 0.11618318 0.021331448 -0.1714859 0.1940659 0.033897266 -0.025897622 0.024847109 -0.084279269 0.19922324 0.1049365 0.030963704 0.2024294 -0.077874184 0.069757923 0.016562361 -0.053356338 -0.0113569 0.065079421 -0.13264894 -0.056333095 -0.035348866 -0.014724172 -0.079185463 0.059997834 -0.14025764 -0.11564469 0.027391212 0.11907124 -0.11203896 0.016479472 -0.12474236 -0.072089247 -0.070878252 -0.074739248 0.07301268 -0.096864112 0.0040311073 0.047020342 -0.082102269 0.065355197 -0.065402336 -0.0055071036 -0.11908445 0.12735493 -0.032998648 -0.11085542 -0.077540033 -0.097568311 -0.031990446 0.14850689 0.10416043 0.033309866 0.16197069 0.18556885 -0.0011976145 0.15141274 -0.075338356 0.27933028 -0.26699081 -0.16677117 -0.033791609 0.1064103 -0.060225863 0.16929118 0.13896026 0.079186976 0.017962582 0.082835041 -0.028169051 0.030753404 0.046980437 0.087927341 -0.11244222 0.13526164 0.039925791 -0.031879604 -0.0288985 0.15552457 -0.24278085 0.032444313 0.067849167 0.29646787 -0.088351779 0.16358039 -0.16253899 0.014336137 -0.015647421 -0.23519586 0.091552801 -0.043240618 -0.042368844 0.24512763 0.043062657 -0.022974707 0.066509865 -0.025461573 0.12023494 -0.035942275 0.020603999 -0.0017385321
209 -0.053876705 -0.015589146 -0.12587212 -0.077069826 -0.14478301 0.037708171 -0.064570911 0.13439561 0.2753014 0.056458328 -0.085802577 0.043852869 0.043893315 0.093703642 0.2079325 0.065144762 0.048889682 0.096751861 -0.15447114 -0.24143715 0.075324804 0.22382827 0.20196353 0.10773768 -0.048019219 0.062891141 0.10100345 -0.036101915 0.023868859 -0.034486797 -0.049165379 0.070373073 0.031060768 0.03215301 -0.035626311 0.090324104 -0.01605222 -0.063943319 -0.050661448 0.068934903 -0.12113073 0.12783648 0.16035514 -0.1104577 0.087559938 -0.17969689 -0.046664912 -0.15778117 -0.16153167 0.065136477 -0.15045364 0.011545885 0.01448494 -0.22806674 0.095148161 -0.14318991 0.011509584 -0.013731251 -0.023805832 0.08242628 0.020111542 -0.0056107314 0.03375046 -0.19596899 0.12704012 0.16366279 -0.15767963 -0.011504038 -0.26251161 -0.091978833 -0.19363701 0.15192975 -0.010939647 -0.007442343 -0.1109454 -0.1174164 -0.079950549 0.0042158966 -0.019209955 0.13597251 0.23831798 0.090329707 -0.21723935 0.033598706 -0.073447175 0.15849091 -0.15382263 -0.25411314 -0.12100355 0.049319997 0.12186517 0.085826755 0.097086199 -0.0028338118 0.055220496 0.18772468 -0.19686428 0.035323258 0.022402409 -0.010453951 -0.07502602 0.10168134 0.18410771 0.046657685 -0.14020988 0.17091154 -0.14576878 0.15315358 0.15875867 0.19823734 -0.032381061 0.13491544 -0.18056245 -0.11870081 0.043892182 -0.092077963 0.026043974 0.026831465 0.010134953 0.16991371 0.06872464 -0.13229989 0.14521445 -0.065359965 -0.21536379 -0.07958734 0.11927649 -0.068002254
101 -0.099178702 -0.099095635 -0.25743967 -0.081758812 0.0093276463 0.18488526 -0.14102598 -0.018925229 -0.043191295 0.05757957 -0.056912445 -0.079267107 -0.099785343 0.06187202 0.077631615 -0.06733647 0.026248751 0.021746403 -0.31457269 -0.091734499 -0.077766344 -0.19522977 0.13225354 0.070745431 0.14733613 -0.21134247 0.022068221 -0.0096385414 0.2488053 0.13367152 -0.22963223 -0.037443202 0.078670271 0.084565893 0.096656226 -0.1020955 0.14625083 0.049043838 0.10822934 0.10660041 -0.095973305 0.15667342 -0.017858595 -0.07652881 0.16900854 -0.085038669 0.0018223131 -0.10546635 -0.04447905 -0.12257218 -0.14538349 0.074967176 -0.091419764 -0.058711316 0.12884815 -0.015434786 -0.034422498 -0.10777404 0.0066464515 -0.15903164 -0.13628384 0.089103147 0.048454363 -0.21895587 0.14436106 0.035746422 0.015449926 -0.04350397 -0.0034467846 -0.00027214104 -0.031066775 0.22583368 0.060834281 -0.20767316 -0.069352373 -0.097478427 -0.09474007 0.08410871 0.015874894 0.025880527 -0.010227942 -0.042704694 -0.06311363 -0.046182297 -0.086810142 0.14684488 -0.077827677 -0.026732208 0.063109599 0.22713113 -0.040883467 -0.02310276 0.041291524 0.0087685334 -0.019681197 0.093280725 -0.13174072 0.08931718 -0.0083151236 0.16917674 -0.11838334 0.093736157 0.081134066 -0.12374327 -0.11793052 -0.015774814 -0.13426171 -0.1298569 0.19351962 0.37123442 -0.13504842 -0.0026164306 -0.28351712 -0.054358173 -0.13170862 -0.073750488 0.075171597 -0.10922857 0.044353761 0.17691365 -0.053615484 -0.046050571 -0.0067119333 -0.051942009 0.037755661 0.011810164 -0.14388709 0.0055845859
246 -0.0078189056 -0.064573079 -0.14936587 0.052596357 0.068850987 0.017185979 0.053447392 -0.10185737 -0.0088768965 -0.0068847546 -0.10964807 -0.018516362 -0.013392405 0.25530767 0.10196248 0.019822245 0.098634966 0.064386405 -0.2321505 -0.085698411 -0.019735968 0.05753779 -0.011236166 -0.0024953024 -0.045794956 -0.077307165 -0.038456634 -0.058156453 0.10070004 0.13771293 -0.050101183 0.11535425 -0.07449206 0.19450469 -0.099495843 -0.033482343 0.19012481 0.12420434 -0.26428306 0.043419879 -0.060027976 0.16117039 0.14555468 0.052499261 0.008323418 0.028365519 -0.11730386 -0.043513577 -0.012869074 -0.019231608 -0.089067586 -0.03261051 -0.033580273 0.078298792 -0.172978 0.043332353 -0.1619384 -0.066034146 -0.01516107 0.062006209 -0.1505986 0.18506528 0.07217291 -0.15108593 0.035278197 0.1171117 -0.088905685 -0.11208989 -0.015167895 -0.1584934 -0.048505198 0.072369054 0.098538786 -0.060644165 -0.15098184 -0.071193852 -0.066806205 0.13436808 0.0332627 0.085180379 0.065838762 0.1158568 -0.10098536 0.13456859 -0.10193993 0.12582603 -0.13502885 -0.12415186 -0.13576637 -0.024493665 -0.13354646 0.12590867 0.0010425526 0.32578421 -0.067943014 -0.10628093 -0.0063389847 -0.059211094 -0.21594678 0.16839793 -0.13574462 0.1932451 0.2011597 0.085521832 -0.13357149 0.059893135 -0.11904754 -0.061517056 0.031149503 0.26338068 0.10554201 0.092870958 -0.27159235 0.046853714 -0.055424992 -0.12948987 0.059061371 -0.25971702 0.086645007 0.15896997 -0.12125836 -0.023797378 0.059577659 -0.16543959 0.050741736 0.062162425 -0.10293256 0.039284237
9 0.14544524 0.0028256278 -0.17513517 -0.0058050333 0.07519976 0.088194989 0.044387981 -0.0048765359 0.023363693 0.093736745 -0.085193522 0.074289285 -0.1287601 0.081807189 0.17633909 -0.13202789 0.25624004 -0.063633107 0.0092462553 -0.032813922 -0.02451849 0.1159754 0.14686875 0.12040585 -0.07814727 0.090142079 -0.030434512 -0.034159772 0.15275484 0.057527877 -0.0057018995 0.023586839 0.030276993 0.087863885 -0.055651497 -0.1047149 0.04965315 0.018283257 -0.050724361 0.071005814 -0.12530567 0.043948825 0.010418647 0.047223676 -0.065409914 0.059080701 -0.082739316 -0.1311367 -0.091934703 -0.076844551 0.045418039 0.061217576 0.020753782 -0.16683291 0.15089868 0.15217125 -0.036058679 -0.10490651 0.092681557 -0.096235774 -0.091718532 0.067072116 -0.07025601 -0.18405539 0.10999783 0.057507426 -0.16698241 -0.10766889 -0.16455144 0.093684234 -0.055672005 0.21395789 -0.16291463 -0.09023954 -0.13070174 -0.086546712 -0.13007265 0.17412417 0.050991416 0.05171695 0.11712176 0.085142337 0.009666021 0.013110806 -0.045649659 0.18346833 -0.21248268 0.067691252 -0.020741083 0.094237678 -0.010422974 0.05755724 0.14241564 0.039036866 0.17436938 0.12530728 -0.043099914 -0.044422805 0.12575406 0.098301686 -0.1602941 -0.049001954 0.018038154 0.029532002 -0.092181079 -0.027883353 -0.096729241 0.016071104 0.26953703 0.30519024 0.044938728 0.02343508 -0.16848885 -0.081224829 0.10749425 -0.23400871 0.040546775 -0.13536526 0.015722718 0.32627878 -0.018596981 -0.051451851 0.043815393 -0.13320906 -0.05445227 -0.046790361 -0.15524487 0.075321428
373 0.050453253 -0.20090781 -0.13645414 -0.17460923 -0.086357504 0.046210937 -0.018000077 -0.086514629 0.13960014 0.22029483 -0.069704883 0.012721726 -0.025878498 0.2375083 0.14585911 0.018471122 0.14846608 0.069939636 -0.15496983 -0.13611534 0.061766554 0.099909522 0.05332619 0.17516765 0.028458536 -0.099163644 -0.044761889 0.090313971 0.075728692 -0.029220324 -0.031239003 0.12491342 0.079682432 -0.0062027806 0.05381522 -0.089539997 0.082728669 -0.14249128 0.063495152 0.13432783 -0.031834468 0.13063571 0.048153009 -0.042677503 -0.086836167 -0.042670876 0.051901396 -0.15183342 -0.12399132 -0.0039053948 -0.12924917 0.076685175 -0.035895493 0.028296908 0.16556811 0.021281784 -0.13980676 -0.067346677 -0.042137299 0.060270231 0.01216822 0.058920074 -0.052524716 -0.1224555 0.2978546 0.2040915 -0.063814014 -0.032003123 -0.28560534 -0.0092402585 -0.13224623 0.24347933 0.028660407 0.06981989 -0.11125865 0.029562579 -0.086255692 -0.036349677 0.21673538 -0.13538812 -0.0059872433 0.025921548 -0.13019778 -0.0063890372 -0.083813287 0.19540806 -0.20915695 0.010048506 0.078167483 0.10089087 -0.21246709 0.15067725 -0.056361381 -0.0082383845 0.041092828 0.042283211 -0.040450968 0.026259817 -0.067424223 0.044196714 -0.12418057 0.1441538 0.058852199 -0.0030557048 0.048608761 0.079694569 -0.12854418 0.043520208 0.17388809 0.20492461 -0.0087453639 0.040977053 -0.23109113 -0.005213751 -0.0070008072 -0.22167853 0.16538286 -0.019195471 -0.026605289 0.28689089 0.11616278 0.062507369 0.20826331 0.031163078 -0.14477736 0.093934387 -0.062759995 -0.044171512
62 0.0030955365 -0.060643259 -0.062186055 -0.05673831 0.066511765 0.037948608 -0.082631499 0.071208835 -0.024766728 0.12796885 0.0295706 -0.099117383 -0.068788312 0.16217679 0.089899637 -0.15981345 -0.035855133 0.14128268 0.023545669 -0.05532255 0.01826714 0.040378958 0.14228734 0.080728643 -0.012906728 -0.1822357 0.055103876 -0.13925242 0.089426339 0.079562217 -0.14302297 0.071902633 0.14677307 0.15477827 0.090228617 -0.26116455 0.17181857 0.16024595 0.022120649 0.21283114 -0.10248762 0.14648107 -0.09145344 -0.059060901 -0.058669288 -0.15444241 -0.097853199 -0.077058315 -0.14783634 -0.1232466 -0.086246952 -0.064951688 -0.029481353 -0.024482759 0.044682708 0.14199606 -0.10636555 0.07448075 0.03556734 -0.15977591 -0.12993519 0.051173396 0.04452391 0.11085083 0.10816286 0.11926077 0.017042542 -0.046077326 0.20006984 0.08042711 -0.15710355 0.22995168 0.084583335 -0.22048835 0.082471147 -0.017620649 -0.088129684 0.083543256 0.12784795 -0.039700098 0.0045425659 0.19760332 -0.18868102 0.12132417 -0.15577126 0.21547672 -0.11225591 -0.28524837 0.080416977 0.1431708 -0.275282 0.17928454 0.096357271 0.10396034 -0.0041758595 0.13923289 0.072663173 -0.0027665927 -0.040799454 0.16069257 -0.1269592 0.066496089 0.1242846 0.070617855 0.1153046 0.037740696 -0.28124738 -0.045587573 0.062139444 -0.054256316 0.084341437 0.12407631 -0.22181021 -0.14889482 -0.036722757 -0.14489207 0.11843213 -0.094465643 0.075571924 0.1169149 -0.33146617 0.15151669 0.021921925 -0.047439922 -0.014922622 0.055594169 0.065028869 0.14929388
379 -0.0069887899 -0.1128788 -0.040501326 -0.00551057 -0.067784771 0.088514358 -0.028373506 0.027461872 0.001092075 0.14004225 -0.14103061 -0.04559841 -0.11027824 0.22213277 0.066025443 -0.024501236 0.11525153 -0.02030817 -0.14784987 -0.12921968 0.012487542 0.0090755224 0.10414883 -0.00687706 -0.071021423 -0.15811637 0.08841598 0.034636732 0.093419977 -0.0086356401 -0.094488606 0.14199735 -0.02963059 0.043222222 0.14517932 -0.11342888 0.16282746 0.0033372827 -0.094866984 0.17748913 -0.17186473 0.0022102003 -0.011129611 -0.035192445 -0.044283755 0.03314513 0.0032764899 -0.10870843 0.019348403 -0.06455195 0.033179689 0.016387895 -0.0055512227 0.045204394 -0.019208867 -0.05929634 -0.10242461 -0.079092339 0.016637949 -0.018776892 -0.037115086 0.088738076 0.10668513 -0.07188648 0.020825541 0.099803656 -0.059542507 -0.083902143 -0.10961349 -0.04343636 -0.062771149 0.13367294 0.01528947 0.027957356 -0.11085502 -0.07874883 -0.015270792 0.11757071 0.070652679 -0.052987613 0.16806851 0.15043256 -0.120796 0.048049878 -0.0089562619 0.12390237 -0.22256815 -0.060484428 0.015162765 0.16347724 0.045653943 0.19365686 0.082355082 0.041359637 0.16937128 0.10690535 -0.050291538 0.069379292 0.004847459 0.05849158 -0.10342437 0.036039256 0.12073246 0.049912062 -0.062287584 0.10814066 -0.14985715 -0.02507785 0.12997782 0.19204131 -0.02508216 0.0013155617 -0.21079557 -0.018707084 0.14995673 -0.20673221 0.21257482 -0.1524626 0.023726499 0.25832915 0.025248038 -0.025679421 0.070211366 -0.0077410727 -0.0192398 -0.017134799 -0.015544279 0.11276358
64 0.091792524 0.082453631 -0.097578995 0.073093593 0.068929724 0.040268425 0.045433693 -0.0074105849 0.058755189 -0.0653859 -0.098082677 -0.042504739 0.0024261954 0.11117592 0.047243554 -0.043629121 0.0448329 0.097233444 -0.057418939 -0.10819906 -0.017275665 0.012727258 -0.017097458 -0.039148178 -0.049299154 0.032120809 0.00012116556 0.17058662 0.12194268 0.08715301 -0.036095638 0.030718211 -0.016804617 -0.026248546 0.063025646 -0.14143053 0.02241987 -0.097162671 -0.026098942 0.29031685 -0.21668188 0.099837817 0.011945359 0.023288054 0.060310069 -0.093740568 0.12079283 -0.14427835 0.06478136 -0.0044339313 0.06945312 -0.08497376 -0.12183405 -0.11235128 0.036376704 -0.020845927 -0.16380955 -0.011907266 -0.034565743 -0.16135032 -0.078771286 0.057744149 0.042408735 -0.18136403 -0.0020068465 0.072185814 -0.092413627 -0.045867335 -0.24243689 0.0064277146 -0.16190229 0.19943878 0.093103461 -0.12814474 -0.12234243 -0.024436489 0.037346311 0.13171069 0.13706055 -0.0053857714 0.057030082 0.10177825 -0.096411213 0.0047193156 -0.020927405 0.22353595 -0.2252823 -0.13074611 -0.10942041 0.095649123 -0.091360018 0.13891767 0.15832289 0.027827932 -0.019761374 0.086238645 -0.14884195 0.064997487 -0.018184019 0.049973868 -0.06983164 0.0085409004 0.11646394 -0.05842137 0.043619953 0.15573603 -0.18134409 0.01129338 0.19945252 0.2898367 0.00067190215 0.10791261 -0.19007431 -0.027581032 -0.013464333 -0.031330939 0.23085497 -0.085906789 -0.093753487 0.24387226 -0.043436978 0.040679656 0.059801098 -0.088292867 0.093907371 -0.055600516 0.032385614 0.11666657
167 0.014703496 -0.08263202 -0.015501163 -0.019104118 -0.09667626 0.042152561 -0.0012349365 -0.077043779 0.055415023 0.018639285 -0.01599868 -0.062978864 -0.025645042 0.27695775 0.1380278 0.036366384 0.087595887 -0.045689322 -0.25563541 -0.037127275 0.019840732 0.2450832 -0.018703828 -0.023770105 0.034334347 -0.075425155 0.034298919 -0.032726921 0.004943355 -0.0065006008 -0.076975062 0.02469364 0.19062011 0.094173372 -0.038051203 -0.1377068 0.0025120839 0.1670624 0.027486127 0.1725726 -0.17916375 0.20127267 0.13584541 0.057348114 0.044707522 0.082854047 -0.090285614 -0.21447098 -0.12090822 -0.011674806 -0.023269683 0.10365251 -0.15624507 0.04575118 0.16331756 0.14291714 -0.19145688 -0.011447816 0.049290642 0.016220011 -0.068374634 0.21455994 0.071083128 -0.05536538 0.044275373 0.053085685 -0.068282284 -0.099997826 -0.10561372 0.11124351 -0.11234435 0.11498279 0.18017519 -0.13007955 -0.14721553 -0.072903253 0.080437988 0.089812905 -0.062952414 0.050748073 0.14337026 0.0047891275 -0.055980112 0.030320877 -0.010869659 0.069826938 -0.31273913 -0.14440157 -0.039669361 0.2558583 -0.11817103 0.1281292 0.17718615 0.16527854 -0.12194899 0.17945124 -0.10766283 0.13138135 -0.14996926 0.099245466 -0.17206936 0.053210821 0.041597575 0.081780583 -0.12207454 0.086044081 -0.22625998 -0.17227107 -0.0035605743 0.16687052 -0.013944355 -0.027153883 -0.10737406 0.090826146 -0.089192107 -0.025044695 0.12458876 -0.10338437 0.031132657 0.19796242 -0.18250805 -0.16745029 0.050780509 0.017990002 0.070530839 0.080653004 -0.10580331 -0.0039860616
225 0.076985598 0.017565638 -0.0089747962 0.0084865503 -0.1334855 0.16474673 0.1315718 0.0017293406 0.16399656 -0.062565938 -0.22771133 0.018346058 -0.15078063 0.09218929 -0.050747216 -0.027805787 0.11076408 0.0076532597 -0.10185164 0.058859035 -0.067096233 0.01433463 0.09089607 0.012961884 -0.12228899 0.12577228 0.093652941 0.028238969 0.11307619 0.15918724 -0.080699205 0.1563033 0.032121532 -0.004752263 -0.068121001 0.058782164 0.21771756 0.04585113 -0.073268667 0.20938757 0.034097277 -0.1152277 0.040797286 0.026952853 0.0057359478 -0.086377271 0.0019779955 -0.10383099 -0.00061600178 -0.1394534 -0.13716477 -0.091930211 0.12203293 -0.073587045 0.011034191 -0.040127199 -0.11785395 0.16296077 0.082332015 -0.015727177 -0.04673415 0.12878422 -0.0057740896 -0.20872261 0.047073156 0.28779227 -0.0046560727 -0.23550677 -0.030399486 -0.10279274 -0.14635527 0.21989135 0.014828281 -0.13810128 -0.1104819 0.038216986 -0.11963832 0.12081213 0.099153437 0.030319041 0.053094298 0.11546369 -0.14112143 0.16792612 -0.10724467 0.143997 -0.060014341 -0.10854193 -0.06915243 -0.030883918 -0.19932716 0.14436945 0.10018212 0.069396265 0.012738419 0.14552362 -0.025008963 0.010385282 -0.0068156174 0.21227181 -0.0080990391 0.19226368 0.11150816 0.015175355 -0.031774674 0.042711183 -0.27514216 -0.056449551 0.03450992 0.21838595 -0.048323806 0.10786849 -0.25854141 -0.075985774 0.084469885 -0.14400759 0.10340146 -0.05081686 -0.027358109 0.13605739 -0.062203262 0.093429387 0.067768335 -0.077598125 -0.070192762 0.026188495 0.028997757 0.12079585
249 0.13383378 -0.071225367 -0.028866911 -0.08896327 0.046762727 -0.095965356 0.17433332 -0.051386911 -0.19688633 0.038903184 -0.057977784 -0.22035754 0.086965576 0.06822253 0.10652003 0.20556968 0.09825933 -0.014216543 -0.092820384 -0.15010022 0.13253018 -0.15661277 0.075830251 0.19076335 -0.061144747 -0.070686504 0.12140118 0.096710496 0.1550381 0.086337484 -0.058014482 0.15933938 -0.15186311 -0.12207549 0.14571722 -0.053942323 0.11695697 -0.030693315 -0.12542352 0.031073447 -0.17615899 0.23244777 0.024729919 0.082099788 -0.22781898 -0.16851597 -0.089075685 -0.30313209 0.078639619 0.072459847 0.20613004 -0.087408207 -0.0078354962 0.1571134 0.029388648 0.12269329 -0.21441479 0.20414537 -0.073860481 0.043362103 -0.057761896 0.23347948 0.045289084 -0.25621352 0.11063096 0.024816182 -0.10580564 0.10205415 -0.22348654 0.02865592 -0.037177566 0.16373709 0.10156201 0.1009979 -0.09267284 -0.081816994 0.022293448 -0.18201582 0.30411345 0.040521543 0.22071815 0.063958205 0.03838199 0.11108122 -0.13645591 0.059799798 -0.069470309 -0.11097377 -0.066022381 0.0098201819 -0.11430138 0.19966315 0.12470238 0.093216479 -0.19723932 0.041250784 0.12855111 0.1564839 -0.01735818 -0.0086952122 -0.015294316 0.26524025 0.24148121 0.051417399 -0.11104868 0.096945733 -0.29934439 0.020896329 0.084955871 0.098431632 -0.08978942 0.0095782233 -0.13148268 -0.0407511 0.03250565 0.21703263 0.16385052 -0.039460246 0.027126715 0.17311421 -0.03862628 -0.17869893 0.18181208 0.064531982 0.10414658 -0.22338122 -0.22391702 -0.032564547
485 0.092631422 -0.072785027 -0.20263781 -0.02946545 -0.071177073 0.021206291 -0.018851073 0.11144857 0.11071279 -0.026706336 -0.039844304 -0.1378196 -0.068116277 0.24166268 0.082486294 -0.11163713 0.062826671 -0.015658585 -0.11793126 -0.03496372 -0.034334615 0.11640637 0.091921493 0.036376283 -0.11319233 0.021139201 0.1309692 -0.023695726 0.11542985 0.15234107 -0.067138456 0.068968594 0.025563378 0.062049098 -0.020153711 -0.016257253 -0.010977334 -0.044382162 -0.081059858 0.074422799 -0.052463152 0.10452683 0.017866898 -0.049486961 -0.06617178 0.010525173 -0.1397206 -0.083935499 0.0063366327 -0.07624092 -0.025550762 -0.035001051 -0.051550452 -0.015401639 -0.050924473 0.041469358 -0.15157369 -0.071815968 0.094320476 -0.11463829 -0.077957913 0.092125468 0.098719999 -0.14103241 0.093904026 0.13337742 0.10501079 -0.100421 -0.10760739 -0.054075178 -0.086261809 0.13523924 -0.019260287 -0.031098746 -0.15610087 -0.056960721 -0.084234215 0.13822296 -0.064535059 0.11467133 0.072955601 0.11249204 -0.034258787 0.057378192 -0.0071556889 0.15372404 -0.19988564 -0.11443443 -0.059741274 0.059616957 0.0021667075 0.19407885 0.075418435 0.059834391 0.071401358 0.031493437 -0.11323158 0.00049098197 0.062719733 0.080644362 -0.2145565 0.085147522 0.088689849 0.13367978 -0.084096096 0.13585043 -0.24020225 0.0089189457 0.12899469 0.23361632 -0.038071867 0.049943585 -0.23213109 -0.060754046 0.080271184 -0.24155511 0.223 -0.099919759 0.019811349 0.21129504 -0.093374573 0.03064339 0.016581522 -0.097838856 0.0083254538 0.054217685 0.015391393 0.011042117
406 0.12859704 -0.12678443 -0.22818314 -0.10099241 -0.051800996 -0.010471009 0.028168742 0.041840326 0.057861611 0.13733281 0.020980192 -0.12949905 0.010005414 0.29693297 0.11114398 -0.095799193 0.0017456065 0.047651883 -0.092118807 -0.058908772 0.048577853 0.19590805 0.068042897 0.017321132 -0.065586008 -0.098983109 -0.044117637 -0.11379799 0.12215579 0.14331403 -0.012755997 0.037815996 -0.045205381 0.035608463 0.1314375 -0.15720585 0.22889219 -0.054944035 -0.05415247 0.24783452 -0.14406025 0.091512665 -0.0085111698 -0.047626123 -0.048741169 0.076218225 -0.10436366 -0.074937552 -0.064498484 -0.0011988112 -0.087249003 -0.060970802 0.050525915 -0.043691017 0.057317633 0.11219975 -0.013330841 -0.10958865 -0.026911525 -0.1187762 -0.12125666 0.019544946 -0.038296334 0.0065249377 0.045395307 0.17832538 0.087620482 -0.1637667 -0.1519677 0.096260056 -0.081708863 0.1052999 0.14095789 -0.10588142 -0.033954386 -0.00032362348 0.026107419 0.3414003 0.014937152 0.06220258 -0.013357655 0.19032831 -0.18824948 0.049056519 -0.088947691 0.076829121 -0.015261903 -0.16872656 0.03953753 0.087982409 0.012768645 0.20684029 0.16918926 0.080953903 0.19673695 0.062628157 0.086238384 -0.098681964 -0.012912324 0.30597991 -0.14601196 0.11352538 0.042012159 0.018476848 -0.11367243 -0.076225273 -0.25231069 0.1615635 0.093886748 0.060296997 0.038698692 0.1041438 -0.29777431 -0.16828626 -0.032619096 0.029038448 -0.043332361 -0.14250335 0.1361872 0.21471955 -0.3239947 0.02667514 -0.12167071 -0.0065282397 -0.11320312 -0.014044411 -0.055667844 0.12403887
82 -0.040063627 -0.082987867 -0.082250319 0.0070522712 -0.046176296 0.10811449 -0.14563853 -0.022133529 0.067920752 0.13661177 -0.17117105 -0.096395209 -0.018218936 0.0513255 -0.025957258 0.076323554 0.034118187 0.019541752 -0.049088117 0.0053048348 -0.053976942 0.025238115 0.16904357 0.07093969 -0.093308352 0.013414125 0.092149101 0.0062812124 0.11118238 0.073928349 -0.13973172 0.17483561 0.00013444123 -0.012423137 -0.0063415365 -0.11909191 0.20715709 0.14263192 -0.15742338 0.16646375 -0.15533838 0.041501474 -0.030334853 -0.045163386 0.021392286 0.015805112 -0.017045444 -0.11358728 0.005378319 0.048403498 0.024729282 0.029921401 -0.10483159 -0.062611662 -0.04414143 0.012788456 -0.055562094 -0.073789336 -0.030291269 -0.016494475 -0.055420127 0.022009784 0.029560471 -0.10561884 0.0047996789 0.0019508675 -0.092471719 -0.12781063 -0.17792282 -0.094325863 -0.10848162 0.06244763 0.045273609 -0.1285197 -0.14866665 -0.067712091 -0.0020066518 0.020143829 0.14888561 -0.0015067435 0.10655878 0.20670542 -0.037786547 0.098612726 -0.03850418 0.082823455 -0.19243371 -0.17370686 -0.11250226 0.13402256 -0.026570534 0.16675754 -0.023787633 0.025790626 0.01314652 -0.020130359 -0.12198635 -0.059857044 -0.06914264 0.091704257 -0.13265032 0.067672096 0.12237766 -0.078169882 -0.15009619 0.070201792 -0.35644686 0.027319619 0.047187891 0.2252581 -0.050471656 0.16499336 -0.18386139 0.024982104 0.063633189 -0.1482864 0.0636255 -0.15628302 0.055187065 0.19565724 -0.0051771868 -0.065487184 0.12710185 -0.059416108 0.0090730432 -0.095296703 -0.038278356 0.079298578
477 -0.18383339 -0.057485532 -0.16392109 -0.20110275 -0.23725776 -0.0063737598 -0.13703063 0.11082444 0.29413325 0.25465873 -0.036372155 -0.084243648 0.080886558 0.1190604 0.12366447 0.03507873 0.042991143 0.065871179 -0.28345844 -0.33420885 0.056587934 0.18929546 0.095107585 -0.018178446 -0.24709439 -0.1243668 -0.20007563 0.049584609 0.11733719 -0.12595567 -0.044972818 0.087804183 -0.13975523 0.11940627 0.19433862 0.069621667 0.07631509 -0.044834331 -0.021906992 0.074506171 -0.1084846 -0.020822089 0.057431187 -0.044838835 -0.13622759 -0.30884895 0.053634334 -0.37667403 -0.1656405 -0.29425812 0.039611526 0.10365634 0.12406401 -0.29191628 0.25150809 -0.70001537 0.22458996 -0.021951303 0.071387663 -0.036882006 -0.2436312 -0.090976417 -0.062752187 -0.13275789 -0.021251697 -0.14415178 -0.10619687 -0.15738021 -0.096726403 0.21433586 -0.11709077 -0.09202487 -0.21833207 -0.1292634 0.060944296 -0.049174331 -0.041950591 0.19554712 0.082951367 0.25969258 0.096984193 0.023278713 0.070802033 -0.087980203 -0.077124052 -0.10452061 -0.37696731 -0.064692974 -0.18100819 -0.17409235 -0.19537275 -0.042526275 -0.14919204 -0.0048969942 -0.053178903 0.1758883 0.044323992 -0.03147769 0.027831806 -0.043506309 -0.15274523 0.25701097 0.12177229 0.074163437 -0.14963037 0.092120111 0.033032537 0.11065001 0.29614234 0.23436472 -0.2778995 -0.08616069 0.15843648 -0.080429479 0.20639464 0.064204402 0.38903683 -0.037800319 0.11315323 0.012706868 -0.064895287 -0.21790512 0.15420489 -0.34987977 -0.15152615 -0.36134988 0.018630592 0.11020841
183 0.081388995 -0.081948377 0.059868641 -0.065687336 0.038751449 0.02248301 -0.13589649 0.091987908 0.1164607 -0.0098219654 0.031755742 0.051736742 -0.13938177 0.11105419 0.1814156 -0.26795053 0.014103329 -0.0076530874 0.032778468 0.0030047938 0.047838926 0.083833463 0.059425633 0.21919978 -0.13283813 -0.14289236 0.05238444 -0.018657478 0.18371001 -0.0028383385 -0.28710464 -0.015868954 0.18645625 -0.011851005 0.031782307 -0.079731651 0.25120133 0.24838316 -0.07814385 0.16385104 -0.15515785 0.1468811 -0.044012409 -0.05341528 -0.00061555649 -0.25969169 -0.10079725 0.0048510497 -0.084549844 -0.13091139 -0.060020227 -0.085909486 0.016931981 -0.032166898 0.11483355 0.17030005 0.11141679 0.021329826 0.056611508 -0.1611239 -0.039978284 0.041344535 0.11645634 -0.025886443 0.01736477 0.2730445 0.015307751 -0.13493338 -0.011073228 0.064485811 -0.29918715 0.22514354 0.13064875 -0.041692715 0.093910776 -0.0072164526 -0.24686679 0.089197308 0.0015184124 0.0065359124 0.017658906 0.073481791 -0.26518899 0.038768683 -0.20920235 0.18079299 -0.10155016 -0.13504404 -0.0072856653 0.012573706 -0.13523306 0.12674262 -0.0388363 0.10728854 0.030472741 0.054820906 -0.057897724 0.02495715 -0.041584656 0.14049354 -0.088620275 0.040268514 0.17769611 0.076063491 0.018709609 0.095666565 -0.27914932 -0.0084549366 0.032428291 -0.12936312 0.058997948 0.22198227 -0.30430412 -0.14730638 0.1192836 0.04477692 0.20857018 -0.11109842 0.14907788 0.2971209 -0.23446922 0.11510237 -0.091678455 0.092769146 -0.036121063 0.025884777 -0.079288751 -0.0055955769
325 0.056684118 -0.0026900314 -0.13529907 -0.051988006 -0.060393959 0.020283887 -0.002766039 0.0057039456 0.094360217 0.037115846 -0.063303076 0.071748659 -0.025055129 0.20874371 -0.029063679 -0.025021283 0.15555665 -0.0550295 -0.10944906 -0.05598652 -0.018691104 0.066250272 0.20298032 0.10650486 -0.089092083 0.032907847 0.065207615 -0.047703568 0.07721696 0.024326716 -0.051613949 0.087781593 0.0096608298 -0.017718023 -0.018841712 -0.10228462 -0.0072745257 0.061542172 -0.073266409 0.14792959 -0.11346118 0.13343199 -0.012600254 -0.0009220349 -0.11885568 -0.010254157 0.0047094994 -0.13251533 -0.048972722 0.0025344212 -0.021189936 -0.050646674 0.038439885 -0.079217315 0.0010927705 0.044587348 -0.10816184 -0.014325459 -0.015831083 -0.017076729 -0.018722409 0.05998655 0.081542321 -0.073192619 0.098262258 0.099008001 0.032470357 -0.081052855 -0.10397176 -0.11277501 -0.1430074 0.13714299 -0.017439062 -0.12977688 -0.049787436 -0.016198376 -0.001734063 0.1822381 0.12154815 -0.0040864577 0.2743209 0.088841334 -0.11269762 0.14592159 -0.017294684 0.1035762 -0.18557778 -0.14118467 -0.078454942 0.13163078 -0.062604882 0.23523758 -0.099439271 0.014857776 0.12689844 0.1228983 -0.10046234 0.085603856 -0.015040135 0.071769558 -0.12797195 0.062815934 0.04363184 0.040231861 -0.079136699 0.1451961 -0.18168105 -0.031931695 0.087676659 0.1208059 -0.06113784 0.11826906 -0.24382314 -0.047449376 0.088914596 -0.15139179 0.095183082 -0.17571251 0.014514724 0.2474068 0.034204129 -0.018173382 0.13923225 0.0075683482 -0.011379738 -0.10103809 -0.049259774 0.052120022
371 0.088113636 -0.081425115 -0.12322664 -0.0012493029 -0.080649793 0.092258818 0.056516193 0.087182149 0.026456142 0.037525181 -0.15106258 -0.0033787768 0.0094329845 0.042574745 0.032255396 0.0051696692 0.018810876 0.038624801 -0.1597165 -0.093240514 -0.058998205 0.016015422 0.13576801 0.078252651 -0.11989815 -0.0056374818 0.074566357 0.029149473 0.076324247 0.14079773 -0.039778568 0.049787994 0.0056532826 0.081782855 0.084065363 -0.074396588 0.080274761 0.017340193 -0.011592614 0.12785912 -0.18127665 0.042899605 0.017548105 0.074872054 -0.063577607 -0.053591255 -0.017722296 -0.061687306 0.0080548394 -0.065379977 -0.06109263 0.027375923 -0.11455952 -0.057918657 0.089651167 0.10348204 -0.09921544 0.011419171 -0.026037818 -0.087872632 0.005330639 0.10510134 0.087260701 -0.090189889 0.013136834 0.14203615 0.016506415 -0.02643735 -0.086705737 -0.043215789 -0.038807761 0.10492193 0.085572042 -0.14818236 -0.063955151 -0.048077878 -0.029675709 0.19440122 0.078586228 0.019023152 0.20381527 0.1235573 -0.16015957 0.10879698 -0.070728935 0.16911916 -0.089532338 -0.14676845 -0.047338229 0.13947611 0.020195473 0.072180748 0.13873164 0.076419778 0.0042636637 0.050185226 -0.079919085 0.059054598 -0.0083582904 0.039872751 -0.14478073 0.048601221 0.0089576561 0.11782756 -0.13702522 0.044300698 -0.25748906 0.028841412 0.10582053 0.23780711 0.030417249 0.079679005 -0.293764 -0.053586699 -0.0089629553 -0.10447361 0.18729454 -0.16382451 0.0018894334 0.26759174 -0.043011151 -0.065638743 0.051832102 -0.062083345 0.077309012 -0.0037791911 0.049014222 0.12505551
135 0.07885883 -0.010783099 -0.17330278 -0.030487983 -0.052494369 0.19268838 -0.031753018 0.072019704 -0.014511166 0.11018395 -0.055058286 -0.022907048 0.046263631 0.086562924 0.050850626 -0.015757024 0.097664006 0.024100875 -0.10736628 -0.10127212 0.0060934685 0.075647771 0.19507912 -0.041368641 -0.10489046 0.053157929 0.1283522 0.067636617 0.25867581 0.082355432 -0.058238022 0.078414828 -0.036703393 -0.0071777636 -0.085615933 -0.098976575 0.13386895 -0.015482957 0.0034496901 0.10095349 -0.024664326 0.074526668 -0.027225651 0.068755396 0.022325901 -0.086508676 0.051472358 -0.10195567 -0.016669955 0.01301417 -0.066955745 0.015246635 0.035250638 -0.16825601 0.0088179493 -0.040485818 -0.017093563 0.073834799 0.01939906 -0.066118054 -0.10206095 0.068363249 0.094681673 -0.11908127 0.088453561 0.1218683 -0.11710542 0.011995551 -0.10221508 -0.051293235 -0.098352276 0.14131276 0.096764714 -0.074072823 -0.1148288 0.041658513 -0.053101189 0.10657521 0.075805292 0.10778768 0.18504322 0.17123087 -0.13022956 0.14220668 0.016046856 0.063796267 -0.20384003 -0.24892069 -0.10231786 0.093413092 0.020519981 0.11153472 0.082975052 0.036303859 0.084233321 0.03043212 -0.064066805 0.146047 -0.041245334 -0.0137099 -0.11045092 0.17622049 0.13783343 0.054349184 -0.1325662 0.030665124 -0.34707198 0.060098741 0.098383106 0.12913042 0.023916693 0.081932902 -0.20132896 -0.13623518 0.069092579 -0.11460818 0.21662062 -0.084042035 0.027320677 0.23177221 -0.020318884 -0.11006228 0.1059264 -0.066607706 -0.017948559 -0.086316541 -0.0030985617 -0.00015440454
215 0.047909126 -0.23409925 -0.0053886538 -0.21024118 -0.23999533 -0.25893214 0.0014602608 -0.095367827 -0.017927995 -0.07369376 -0.10905723 -0.13006632 -0.020155728 0.048419647 0.22712034 -0.045862742 -0.063035116 0.0056916354 0.05805384 -0.12553079 0.08287482 -0.19723029 -0.0096351942 -0.047459401 0.09800005 -0.10394933 -0.00048157811 -0.040414255 0.048119724 -0.18930219 -0.033019293 0.21580115 0.018036073 0.33705005 0.15222813 -0.17865917 0.024924265 0.12229583 -0.11100425 0.17033954 0.032142036 0.087741263 0.21930376 0.15601791 0.0087341936 0.16217643 0.029217511 -0.02906673 -0.14724977 -0.37182072 0.1180248 0.061630245 -0.034896739 0.08252798 0.2709091 -0.096698448 -0.28531444 0.016912563 0.019576561 -0.22361411 -0.15008047 -0.07650616 0.20130998 -0.079982944 0.10421728 0.004575206 -0.10565929 -0.1837797 -0.11042123 0.2683557 -0.0713806 0.15031111 -0.14649354 -0.018356638 -0.064835258 -0.38676649 0.068411119 0.14444111 0.12944326 -0.094496205 0.32562456 0.011641962 0.025075605 0.0077862977 -0.055060353 0.002691916 0.070932008 -0.031719908 -0.22524478 0.039603762 -0.15123545 0.068632081 0.16323498 -0.28788704 0.039916411 0.019663315 0.031613607 0.00067198876 -0.16533327 0.073419198 -0.069358133 -0.02806798 0.23533495 0.10915526 -0.28921828 0.0098786 -0.1226749 -0.016407654 0.30537188 0.17364499 -0.20226692 0.022891382 -0.17895335 -0.31373259 0.080771782 -0.122521 -0.07445842 -0.21499059 0.054953665 0.025430534 0.17431769 -0.18045795 0.13669145 -0.033032753 0.10810069 0.03737998 0.034024209 0.093381256
185 0.036062367 0.0046939864 -0.16888025 -0.03912764 -0.035614461 0.11917205 -0.030142693 -0.0079585426 0.120152 0.059775267 -0.039928064 0.064310946 -0.037677325 0.099323459 0.13132299 -0.024494419 0.16778839 0.00073342927 -0.10154549 -0.10857429 -0.034844302 0.091078743 0.15814689 0.0050789719 -0.084987812 -0.01424278 -0.031608578 -0.018071605 0.10482934 0.031638727 -0.10576116 0.096478239 -0.0038350257 -0.011812124 -0.03158737 -0.10311761 0.13373014 0.028014708 -0.11180954 0.21887892 -0.12913775 0.010752837 0.026184121 0.039852351 -0.046461988 -0.11444169 -0.025585778 -0.097503446 -0.017127143 -0.051148474 0.0087809348 0.0013699033 -0.015403642 -0.15744884 0.046308324 -0.045144353 -0.11977144 0.11798265 0.053299569 -0.11911325 -0.04628728 0.012132215 0.012264087 -0.086917415 0.022208802 0.065723374 0.029509937 -0.13521031 -0.17880148 -0.023048133 -0.057632718 0.11822081 -0.0014503375 -0.072060078 -0.10082521 -0.041695207 -0.069971986 0.037896972 0.094111905 0.069612838 0.22017154 0.10405761 -0.11282945 0.083745748 -0.036955778 0.25702488 -0.17063466 -0.063073799 -0.080833219 0.051140461 -0.0059988587 0.093704931 0.11103273 0.079926856 0.17422991 0.045573227 -0.10744169 0.004503137 -0.0073245415 0.12947746 -0.12118226 0.0093410565 0.051502995 0.022754479 -0.023814434 0.098944806 -0.18782216 0.077923261 0.27425823 0.19149821 0.016585499 0.04031511 -0.22319613 -0.069750778 -0.12788095 -0.25551671 0.26151291 -0.062219732 -0.0091922283 0.26442453 -0.013178905 0.11672894 0.053722672 -0.059080768 0.062218037 0.0023518347 0.013338034 0.076250054
5 0.10620068 -0.024865583 -0.091335751 -0.048855815 0.014175595 0.048843 -0.089534439 -0.062147219 0.064156547 0.051433194 -0.034780119 0.039473057 -0.098460644 0.18364598 0.10227766 -0.034184229 0.10220004 0.0065496531 -0.16139196 -0.028106324 -0.015007325 0.04766579 0.031205282 0.076174438 -0.11268821 -0.05248899 0.033582456 0.063159555 0.025123268 0.061635494 -0.11826795 0.11917023 -0.089939885 0.034985851 0.04543642 -0.17771007 0.044504832 0.034758933 -0.069292188 0.17372169 -0.16815144 0.14258707 0.10321494 -0.0066743474 -0.065377869 -0.017631592 0.040173575 -0.079766266 -0.10021666 -0.083746329 -0.088092215 -0.0017385314 -0.054104045 0.023106651 0.012008475 0.040462576 -0.16802 -0.0060269418 -0.016206173 -0.10418109 -0.037073169 0.010709291 -0.017078463 -0.059823912 0.1051495 0.1883321 0.1025693 -0.11421164 -0.081631042 -0.04379436 -0.15782532 0.11391702 -0.01665685 0.0052610207 -0.11019623 0.0034292424 0.02019598 0.23319003 0.10164456 -0.14769572 0.082149446 0.15383938 -0.18037041 0.047351189 -0.077959523 0.17745331 -0.19882528 -0.061905298 0.03520041 0.028084628 -0.046868078 0.19596297 0.062731035 -0.025655525 0.10435697 0.014371743 -0.13342321 0.090733372 -0.0029199461 0.12933059 -0.22517617 0.094146006 0.11210163 -0.056459039 -0.038704783 0.021052156 -0.25591338 -0.024478041 0.10214731 0.1735836 -0.023470951 0.06410864 -0.33620539 -0.08539883 0.00085641857 -0.1301699 0.068955541 -0.13080163 -0.022297259 0.17832348 -0.021512918 0.052822813 -0.016735191 -0.11087143 -0.0052840267 0.016221419 0.0051100696 -0.0082566971
114 -0.013052477 -0.036705304 -0.11924334 0.0012780315 0.00038967168 0.084638588 -0.028531099 0.027649822 0.11773708 0.11649019 -0.013319135 -0.033349521 -0.023352955 0.14785562 0.0621734 -0.023926154 0.069019467 -0.0016768724 -0.13081507 -0.04556017 -0.010300996 0.13728869 0.15573239 -0.0031121902 -0.11308933 0.13261132 0.036847431 0.03902806 0.040955003 -0.0049090991 -0.13134633 0.05978677 0.065934934 0.021937447 -0.036029618 -0.022154575 0.035442654 -0.011808159 0.031888478 0.21191783 -0.11254244 0.045770112 0.018045554 0.05685835 0.0069074077 -0.064340107 -0.010632279 -0.10188998 0.033492159 -0.02193509 -0.033313498 0.051850121 0.025985945 -0.013294495 -0.0020969145 0.050833948 -0.15607922 -0.0030206344 0.01317205 -0.020330822 0.0017487468 0.04419893 0.016069336 -0.04831456 0.028578604 0.14852303 -0.021244487 -0.037018631 -0.1290583 0.03032106 -0.10807142 0.10733284 0.010213684 -0.12736899 -0.10609581 -0.097895719 -0.013016646 0.029079631 0.06143523 -0.11426765 0.086191162 0.076758929 -0.15333967 0.013930107 -0.065040149 0.1958556 -0.21036822 -0.2234278 -0.062077876 0.10485669 0.040335689 0.19654836 0.017031401 0.048968837 -0.044893581 0.024362756 -0.11181662 0.0085658152 0.029244315 0.10525007 -0.17664051 0.017515091 0.15076876 -0.02104819 0.01624571 0.13038635 -0.21872148 -0.076408841 0.063453875 0.18907875 -0.049859703 -0.014825918 -0.24191289 -0.030005585 0.062589549 -0.20438108 0.23868056 -0.17069551 -0.16207346 0.26260701 -0.033096552 0.033326268 0.15059778 -0.080810912 -9.5420015e-05 -0.056267034 -0.092628688 0.068323858
189 0.062758774 0.0068619638 -0.062996961 0.029174395 -0.043814853 0.034511823 0.00060995365 0.099623509 0.071994163 -0.035923317 -0.12554312 -0.00019566428 0.015738936 0.090091228 0.082866319 0.024610367 0.18090862 -0.04008026 -0.10815175 -0.13283615 -0.036101326 0.00065057131 0.18547474 0.0085688308 -0.10852022 -0.030147657 -0.0095521025 -0.034282263 0.04012727 0.0080374274 -0.12754987 0.20583291 -0.025895756 0.029733395 0.029197572 -0.12986436 0.038785703 -0.036106125 -0.060457315 0.15871499 -0.073657371 0.095101103 0.11641783 -0.0090120444 0.06511841 -0.013693401 -0.13434409 -0.1385695 -0.015298168 0.020169908 -0.056657746 0.11264995 -0.13124859 0.15317866 0.031727776 0.084418185 -0.041779567 -0.072472773 0.040806014 -0.1563032 -0.12732956 0.021261785 -0.012004763 -0.092662953 0.092637427 0.097038403 -0.089907087 -0.042862877 -0.12443726 0.010069767 -0.12011037 0.21309872 -0.0048903823 -0.071097352 -0.17084557 -0.053434681 -0.044881143 0.11902057 -0.00010457561 0.098555297 0.11010654 0.020638615 -0.20328221 0.11231206 -0.060816221 0.20900016 -0.13142897 -0.049790066 -0.080621853 0.11704122 -0.10712264 0.14196844 0.081165545 0.10391586 0.0036536332 0.11897971 -0.18545032 -0.051640444 0.063996904 0.13417414 -0.11894573 0.16325614 0.076757409 -0.056432143 -0.095798306 -0.013167586 -0.25796124 -0.0074185603 0.097936198 0.16312055 -0.099804819 0.070010692 -0.22836672 -0.025148246 0.064391464 -0.16637433 0.13359931 -0.14507215 -0.0042037559 0.26352379 0.014653002 -0.017693536 0.017202731 -0.069501564 0.11855188 -0.046002384 0.046169687 0.024121702
231 0.015111103 -0.076025613 -0.10439935 -0.13003178 -0.027970968 0.022100946 -0.11209007 0.10718574 0.065020896 0.10700504 -0.06355153 -0.0039418978 -0.045030672 0.25525653 0.002552727 -0.056781929 0.089229651 0.032969367 -0.17461853 -0.09736228 -0.14263846 -0.0044696326 0.095927298 0.10404676 -0.10930095 -0.017274756 0.042390663 -0.072024919 0.17335807 0.045149148 -0.11364225 0.19902618 -0.027258122 0.021044241 0.020361308 -0.17190041 0.087033242 0.037856515 -0.10099217 0.14187412 -0.20480455 0.14271083 -0.036799714 -0.0072280485 0.024088152 -0.020636566 -0.033244755 -0.088945054 -0.018334692 0.043387201 -0.020906402 0.051173337 -0.12249808 0.027606661 0.024663255 -0.023150599 -0.13664789 -0.017799582 0.039559212 -0.082871988 -0.065650307 -0.03559491 0.03782934 -0.10983734 0.048591889 0.064861298 -0.060632069 -0.016713187 -0.16726512 -0.008633689 -0.098894022 0.11833496 -0.02575135 -0.022231862 -0.081771433 0.015211022 -0.017781461 0.16818531 0.06163751 0.075634785 0.13045102 0.060432877 -0.12577906 0.12257726 -0.0024696819 0.098520391 -0.13727151 -0.1844784 -0.036014747 0.21104683 0.03331716 0.20070159 0.084930196 0.024013529 -0.060463645 0.073467851 -0.067267373 0.031365655 -0.061962783 -0.0024904511 -0.084907502 0.090359353 4.5177581e-05 -0.043389332 -0.040696152 0.050932895 -0.18952975 -0.014878 0.031923592 0.28103495 -0.084756158 0.09462405 -0.22799276 -0.04618521 0.059943069 -0.16445172 0.09993095 -0.088375069 -0.014576484 0.23877814 -0.0067285481 -0.090692364 0.052702848 -0.02634785 0.091366768 -0.072118551 -0.038318787 0.056732807
102 0.020533537 -0.0088083763 -0.10738493 -0.0077814078 -0.014999575 0.084084354 0.0039269011 0.11201402 0.068087064 0.077258706 -0.0089847827 0.025039127 -0.073521592 0.13640933 0.033378173 0.020681856 0.058715839 0.0032668263 -0.18408895 -0.014110261 0.02617375 0.026831312 0.035752099 0.073918514 -0.16686267 -0.081106462 0.0094427969 0.039238285 0.14367293 0.062209662 -0.15940377 0.12810631 -0.038987089 0.082047634 -0.021990621 -0.1008072 0.056905098 0.026270285 0.021258973 0.16999365 -0.090226434 0.058334045 -0.020543652 -0.044811469 -0.13663089 -0.035879452 -0.061335407 -0.10227999 0.061876845 0.03636701 -0.0063185659 -0.02027777 -0.03458146 -0.016201342 -0.030961664 0.059024923 -0.12063348 -0.059585035 0.021403076 -0.1241001 -0.01947812 0.17251727 0.045412716 -0.12322792 0.088238269 0.16563953 0.018356392 -0.11512112 -0.16444173 -0.038642287 -0.082851768 0.14096722 0.070576467 0.0014435712 -0.082200639 -0.02568404 0.0080407169 0.24335268 0.13633358 -0.020452904 0.081984185 0.12976483 -0.19471096 0.082798086 -0.034763087 0.13872209 -0.20713796 -0.12923744 -0.069719963 0.11850099 0.038912438 0.15564607 0.012599608 0.06406866 0.039037708 0.051966865 -0.0045423801 0.01665364 0.034560796 0.073093317 -0.18988143 0.10189793 0.11997779 0.061152939 -0.10492674 0.036041223 -0.13655037 0.0014312862 0.059662286 0.16562144 -0.091388039 0.0434945 -0.21999498 -0.12152752 0.064815149 -0.21871664 0.17260058 -0.025805932 0.0063469065 0.18569849 -0.039432105 0.052424449 0.06873206 -0.055491187 0.040998377 0.0031807015 -0.11663139 0.057584018
416 0.067503698 5.6250607e-05 -0.16262613 0.095855996 0.022623289 0.12497357 -0.037203684 -0.037900489 0.0038464901 0.011452763 0.0077225557 -0.058639351 0.079909623 0.13924615 0.035734598 -0.058998778 0.12855615 -0.070233114 -0.10766374 -0.096830435 -0.022599099 0.024722757 0.097440571 -0.014799314 -0.083782762 -0.12510319 0.20088205 -0.00050311658 0.17437793 0.096193217 -0.17917369 0.079001725 0.021366525 -0.01290074 -0.043521326 -0.14842588 0.10607257 0.036828898 -0.073339455 0.092927501 -0.057768103 0.067597255 -0.0067005679 -0.055401102 -0.047472656 -0.12409463 -0.010328772 -0.028364636 -0.052346859 -0.0071469615 0.040508874 0.054441743 -0.080840237 -0.044569209 0.03051661 0.13639206 -0.11830176 0.022113152 0.061100032 -0.0025525854 -0.082350634 0.104807 -0.014156272 -0.094880238 0.057488605 0.081882201 0.020546334 -0.13244325 -0.013223656 -0.10136276 -0.051814314 0.1057434 -0.0037630782 -0.097044952 -0.12688357 -0.050069194 0.038449004 0.14175248 0.046059046 0.14433962 0.16111155 -0.010976491 -0.094758101 0.092981696 0.022525929 0.18845832 -0.17394914 -0.19079733 -0.084288247 0.067320324 0.022379175 0.11935451 0.07649368 0.11979762 -0.012388126 0.090336226 -0.091443814 0.076527856 0.035130214 0.1777917 -0.20041986 0.10964844 0.14541993 0.013915823 -0.072873756 -0.004726673 -0.15595882 -0.046630211 0.10110555 0.19866933 0.018550379 0.025479624 -0.27366635 -0.063619308 0.060168728 -0.16452651 0.16046695 -0.038908496 0.019789994 0.26584396 -0.067390777 -0.074881881 0.10033246 0.0032962572 -0.041991711 0.024689116 -0.044092443 0.098041281
141 -0.015371832 -0.0095406733 -0.069072634 -0.06962388 -0.0094302725 0.0086439168 -0.11186261 0.078664206 0.037665799 0.1044487 -0.056677576 -0.075812608 -0.00089958566 0.22101219 -0.020452838 -0.11216833 0.14527754 -0.077954538 -0.16462339 -0.063992232 -0.0057815742 -0.016998073 0.12632781 0.055959821 -0.1361607 0.0076762908 0.011901738 0.034456771 0.09038683 -0.004514813 -0.065486826 0.083553523 0.037064977 -0.035996508 0.094882198 -0.1033051 0.11535508 0.043172456 -0.11461425 0.15293325 -0.16940323 0.024303343 0.0076098777 -0.034929104 -0.055796273 -0.0012534412 -0.02557303 -0.072914951 0.0081135957 -0.001029017 -0.07600987 0.018409774 -0.10437858 0.0489241 -0.068812966 0.07230635 -0.11439549 0.056418709 0.033627406 -0.016074583 -0.040959258 0.10068041 -0.044108901 -0.11858082 0.11929403 0.2258333 -0.026482701 -0.026214465 -0.081225127 -0.043455631 -0.0089684157 0.13937828 0.042027932 -0.14609458 -0.1052704 -0.053016476 -0.010832353 0.10135278 0.13120808 0.11843487 0.12359186 0.028548503 -0.07964202 0.11078713 -0.14365916 0.17342152 -0.2182859 -0.13347933 -0.0080532571 0.072125651 -0.0061764298 0.20253445 0.092259988 0.037887208 0.13563545 0.13937892 -0.1876127 0.045106005 0.019518754 0.10632481 -0.12785222 0.16386864 0.13803667 -0.0096509298 -0.049975891 0.0081838258 -0.15954742 -0.11890455 0.065927185 0.20580798 -0.081194319 0.03814128 -0.19481386 -0.0095024901 -0.0055303131 -0.14815743 0.19383608 -0.16386293 -0.078211799 0.21627638 -0.01387577 0.011759576 0.031494696 -0.017846432 0.0069125816 0.036682434 0.0058994722 0.078770749
430 0.00096747238 -0.028639423 -0.14287373 -0.048370238 0.067628331 0.10605276 -0.010654872 0.035517916 0.10938071 0.088887565 -0.03476087 -0.0087521868 -0.093190387 0.18742473 0.077596068 0.009354149 0.037264101 0.03784031 -0.11951181 -0.080302805 -0.029222846 0.012915256 0.15929762 0.065190747 -0.02642142 -0.0011106565 0.058312375 0.0083980961 0.0072994987 -0.040774368 -0.17914832 0.19898894 -0.0052676564 -0.0077225161 -0.019351155 -0.089255281 0.17950331 0.041958634 -0.079144932 0.12753591 -0.11398154 0.11668079 -0.026065996 -0.028834341 -0.054143231 -0.096048668 -0.078892633 -0.07141795 -0.053239498 -0.11750187 0.0055414843 -0.044595052 -0.15271558 -0.13060738 0.019264909 0.10826118 -0.07658314 -0.04820792 0.036607757 -0.00016472259 -0.091575094 0.025650792 -0.037581529 -0.090001792 0.015236346 0.10398336 -0.019294269 -0.043517932 -0.18781802 0.031769421 -0.0085568782 0.097712934 0.013863965 -0.13007183 -0.20909779 -0.075512446 -0.013559819 0.14304386 0.0043610311 -0.051576827 0.15084371 0.067265265 -0.2097944 0.049599156 -0.080630094 0.13223274 -0.15784614 -0.067498416 -0.11327145 0.11065318 0.034798708 0.16158535 -0.038220417 -0.014567235 0.028810048 -0.0090913614 -0.07247331 0.016510656 -0.042908676 0.19208878 -0.1407287 0.11850899 0.091105677 0.11836639 -0.081083678 -0.033898838 -0.21918339 0.019493453 0.082052633 0.088043958 -0.022291224 0.16824736 -0.2168785 -0.11777966 0.03424244 -0.13155551 0.10802463 -0.13953505 0.092500299 0.36482564 -0.05619996 0.019645175 0.037039045 -0.1135413 -0.058713131 -0.035416741 -0.011085816 0.064919524
226 0.056804322 -0.013379265 -0.19991831 -0.066893615 -0.025873143 0.13233289 -0.043061804 0.05985627 -0.075336598 0.052441157 -0.1413677 -0.061322659 -0.063070789 0.20618278 0.05829316 0.027169382 0.19438335 -0.037407216 -0.10253166 -0.10305079 -0.043809313 0.01811666 0.13499352 0.040171336 -0.17625873 0.034287449 0.067504875 0.0072128759 0.1191183 0.074313603 -0.13653764 0.05309929 -0.0040730666 0.00094354106 0.040224712 -0.057165615 0.080291316 -0.030560395 -0.0032579161 0.1585792 -0.11832754 0.059671707 -0.088185906 -0.011711586 -0.00041460124 0.0045879353 -0.027367348 -0.14265738 -0.087978974 -0.016253086 -0.04969218 -0.025218779 -0.02999592 0.033379473 -0.039388269 0.083862044 -0.088639349 -0.011443718 -0.00023580706 -0.022721836 -0.082128949 0.096001692 0.018163236 -0.059322573 0.023403695 0.1902917 -0.043542065 -0.063306212 -0.13461627 -0.043138105 -0.043449428 0.25036988 0.0043693413 -0.042753231 -0.1209719 -0.048210837 -0.018924469 0.12371039 0.075948775 0.064553291 0.10887077 -0.015493142 -0.14061861 0.13050555 -0.059381459 0.12347298 -0.069467016 -0.13841769 -0.018948095 0.017303493 0.045389239 0.15822496 0.087688603 -0.068596892 -0.045761064 0.098445088 -0.026235241 0.015754456 -0.024079829 0.14676689 -0.035697933 0.11954825 0.18619809 -0.0067317337 -0.11174659 0.018736657 -0.22631225 -0.018472942 0.063671604 0.26837593 -0.00064239162 0.11227877 -0.27039817 -0.17203379 0.0051683635 -0.12042503 0.11075387 -0.18109432 0.10444576 0.25282538 -0.044658713 -0.02623767 0.069312416 -0.098583817 0.071652338 -0.040205564 -0.023868609 0.10899187
401 0.05424688 -0.10765118 -0.10547996 -0.0030843217 0.0031880543 0.10030832 -0.027973656 0.031101465 0.053613763 0.12699312 -0.0082961973 -0.045305319 -0.12447397 0.16466501 0.01983439 -0.063139245 0.18243514 0.031755723 -0.15207316 -0.078158937 0.0388817 -0.0079368744 0.11968689 -0.071755677 -0.162716 0.0077135633 -0.0025026281 -0.021027749 0.011174592 0.049519751 -0.031412546 0.1359648 -0.048442457 0.04053507 0.0080106892 -0.1841017 0.052230924 -0.0031761273 -0.095550917 0.20478375 -0.056328237 0.16155985 0.03247397 -0.048040371 -0.059985902 0.032702751 -0.020045653 -0.091580145 0.062672995 0.035313703 -0.069726683 -0.033703826 -0.10413938 -0.078239925 -0.0029741002 0.063820235 -0.056659576 -0.038742021 0.060412884 0.05500133 -0.07235159 0.022676125 0.048598893 -0.097440183 0.05462575 0.091558926 -0.022825135 -0.033998162 -0.035240475 0.017362153 -0.012685923 0.19262184 -0.052680526 -0.13895924 -0.051399585 -0.058130082 0.10124125 0.13856661 0.086010262 -0.0054256842 0.075833052 0.10655285 -0.22530901 0.083879031 -0.12418376 0.21732852 -0.21835293 -0.15738335 -0.056141257 0.1189216 -0.021070438 0.27660841 0.11110682 0.07693354 0.013880145 0.15681773 -0.063377276 0.064168192 0.01472836 0.11647251 -0.10437836 0.081724234 0.12287138 -0.0019233037 -0.00022217228 -0.025046591 -0.20705162 0.055562988 0.17951281 0.12502164 -0.0066409782 0.052583642 -0.22482072 -0.08038424 0.056595154 -0.21483012 0.13653958 -0.22321531 -0.0071619069 0.26225436 -0.0082605695 0.012743101 0.13095193 -0.094901256 -0.0018300856 -0.0076591051 -0.018509738 0.084201299
391 0.0020969021 0.023225334 -0.14212215 -0.054162677 0.038740017 0.050912339 -0.075606845 0.023881214 0.031342417 0.131209 -0.021195276 -0.042461567 0.060825884 0.17332363 0.054728448 0.050945301 0.13622794 0.075950876 -0.078911565 -0.13555619 -0.10074408 -0.058847446 0.16086455 0.053858336 -0.10191707 -0.042557303 0.05342529 0.014147405 0.08955504 0.026770933 -0.054935381 0.085423328 0.058045484 0.086965978 0.072971493 -0.13957037 0.030370226 0.022879938 -0.05576206 0.13971101 -0.077865571 0.07656239 0.0065550841 0.057522204 -0.086251058 0.01380173 0.01206674 -0.12830549 -0.050785728 -0.046638932 0.037260696 0.025283031 -0.099475041 -0.024922714 -0.017263209 0.025708739 0.018099915 -0.017962117 0.046766479 -0.028608879 -0.041356783 0.084203176 -0.017110959 -0.1734387 0.0091783302 0.2196953 -0.010478674 -0.058961775 -0.045282293 0.012983563 -0.080328315 0.18457359 0.027912691 -0.12474161 -0.093650825 -0.088280164 -0.068713218 0.031726032 0.097057901 0.12218351 0.1404665 0.1713331 -0.08644221 0.085139103 0.0048020128 0.18216555 -0.25083745 -0.08003746 -0.03741993 0.17087299 0.01191092 0.18367103 0.062305827 0.023193253 0.054457039 0.10668299 -0.061457463 0.101749 -0.0013643091 0.065980442 -0.11520744 0.039836217 0.055608276 0.099387132 -0.059271988 0.041450381 -0.11691979 -0.00017270612 0.10904752 0.21166842 -0.03272156 0.0018487817 -0.25736955 -0.064934708 0.15398957 -0.20571582 0.15300018 -0.15307336 -0.067710765 0.28009823 0.022680216 0.0045001977 0.13244809 -0.039129026 0.0077593662 -0.096750468 0.091536582 0.042994358
54 0.1756438 -0.0022382175 -0.15658049 -0.10233871 -0.13375342 -0.020439178 0.055547606 0.01591184 -0.0036637678 0.017719541 -0.0023843609 0.012371277 -0.037641518 0.14747013 -0.032435991 -0.01531584 0.010888555 0.085829869 0.039466467 -0.061329085 -0.058911975 -0.044973426 0.02865411 0.048438858 -0.095073946 -0.038670205 0.07648202 0.1247202 0.15845132 0.14619128 -0.062493358 0.14320077 0.10603062 0.019707208 0.029365933 -0.095254555 0.021220764 -0.048756916 -0.0014914566 0.19269201 -0.1911823 0.11019263 0.077035628 0.058892023 0.12711588 0.01894396 0.096473135 -0.072628476 0.022199057 0.049205951 0.20738639 -0.040049501 -0.11683526 -0.092215478 0.025809398 0.039832234 -0.061738458 -0.054010563 0.016758841 -0.26329675 -0.066599958 -0.018657889 -0.028913775 -0.039786104 0.069482282 0.14169277 -0.1165119 -0.076192029 -0.19095623 0.083325677 -0.12336636 0.34594604 0.08190573 -0.10723849 -0.12605128 -0.12516159 -0.02258054 0.28829694 0.10706281 -0.015490346 0.13453719 0.15269612 -0.21036164 -0.01501934 -0.057797696 0.053935952 -0.26959994 -0.12463143 -0.12928078 0.0079809017 -0.044094626 0.12648898 0.056080528 0.18007612 -0.037882704 0.15899824 -0.13043474 -0.081828348 0.037273198 -0.010061958 -0.021386061 0.0044209557 0.068646923 0.033194508 0.073880784 0.10577182 -0.097196497 0.14196266 0.13114133 0.20889351 -0.11777639 0.10691042 -0.14845662 -0.037986558 -0.05804763 0.10108223 0.28531566 -0.12059002 -0.085251905 0.30814967 0.0061192405 0.11912418 0.10748193 -0.054579426 0.11944532 -0.12375473 0.10713913 0.10601851
152 -0.015163064 -0.030205389 -0.092650391 -0.020229632 0.0031559484 0.055364378 -0.040122103 -0.046928231 0.070811026 0.11072222 -0.044754259 -0.081105113 -0.050964493 0.034328204 0.16368601 0.013974591 -0.068088189 -0.024172824 -0.11238858 -0.082358062 0.023480795 -0.096995227 0.05556282 -0.012030834 -0.072135791 0.11701919 0.063246123 0.099481627 0.12267201 0.049977176 -0.050602213 0.12006061 0.075144209 -0.090186179 0.0044130725 -0.030560754 0.061115395 -0.014752139 -0.01294118 0.067056015 -0.10319725 0.10891085 -0.067936763 0.099091694 0.070571281 0.059585489 -0.043288905 -0.087469973 -0.0045221257 0.031515572 0.080921404 0.039052378 -0.066261873 -0.20492834 0.11413077 0.11681569 -0.025680842 0.0025099155 0.023521928 -0.2032721 -0.17894378 0.12560247 -0.010094312 -0.23958243 0.16780999 0.17574418 0.010219332 -0.097606264 -0.10941172 -0.023382053 0.028292691 0.19273041 0.13748623 -0.21162175 -0.17188242 -0.043355372 -0.015338174 0.098756649 0.22604854 -0.019803116 0.10459228 0.13113002 -0.058617085 -0.014198519 -0.087591246 0.10480126 -0.17273434 -0.10532115 -0.12954751 0.17256589 0.036877871 0.12737301 0.047524534 0.1100995 -0.12037301 0.12720755 -0.23768386 0.0074228705 0.073045574 0.065760635 -0.17951854 0.10432626 0.15800139 -0.070231371 -0.07218273 0.06330476 -0.20464948 -0.080345169 0.087844551 0.24299793 -0.093885012 0.22894396 -0.18178205 -0.045544364 0.022496605 -0.20301723 0.12870772 -0.1041302 -0.052392244 0.19681919 -0.048441451 0.049069066 0.034549784 -0.13025986 0.14552765 -0.0035447117 -0.0312718 0.021890223
83 0.08614748 0.024793448 -0.028903058 -0.018864417 0.028686538 -0.059098497 -0.0074529354 -0.10159375 -0.033913542 0.15409119 -0.07786189 -0.091242187 -0.00074943999 0.087046444 -0.0079977037 -0.055313211 0.21579599 -0.02520041 -0.074688926 -0.068694919 0.060702246 0.016917303 0.12112152 0.035310991 -0.083160006 0.060286362 -0.048711199 -0.12328762 0.073874101 0.13199916 -0.12544851 0.017762469 0.17645347 0.134763 0.1009115 -0.16553484 0.0012745262 -0.10716647 -0.1199834 0.041510291 -0.15012348 0.0329284 0.10137795 0.061281048 -0.049206514 -0.051037539 0.031257015 -0.11051372 -0.083386511 -0.044344794 0.20636873 0.032433629 -0.073382705 -0.071855456 0.081735887 0.052122824 -0.072010189 -0.019677022 0.1055916 0.0064436649 -0.067692034 0.10011236 -0.12643118 -0.09309034 -0.043166354 0.088045292 -0.018809838 -0.1190775 -0.20210153 -0.046980944 -0.0948966 0.24839495 -0.076282546 -0.15021251 -0.15230158 -0.023289194 -0.031140845 0.18204969 0.029971771 0.078987882 0.11962766 0.17961688 0.03445496 -0.034558572 -0.11592396 0.21485472 -0.28761289 -0.11849257 -0.034722373 0.084035844 -0.088143937 0.21428844 0.040884364 -0.044445451 -0.041097883 0.17178769 0.09746585 0.13436338 0.024587037 0.078935549 -0.15224256 0.10446946 0.098211132 0.01958636 -0.16035299 -0.04939438 -0.11641471 0.098271012 0.19713046 0.085549779 0.003329616 0.0065713669 -0.24924225 -0.10268597 0.073953442 -0.308862 0.091674611 -0.025172532 -0.063240737 0.24128342 -0.04472217 0.04908473 -0.00095802842 -0.11304442 -0.070815645 -0.11263003 -0.022911867 0.050485745
106 -0.023736954 -0.042755753 -0.1326952 0.03561841 0.012921329 0.14522296 -0.093035907 -0.02893923 -0.053266335 0.071276695 -0.11669423 0.074480787 -0.012022806 0.048581712 0.060632594 -0.011025084 0.090829246 0.024543485 -0.08484602 -0.10721539 0.014117956 -0.012129941 0.062625825 0.039679993 -0.14219084 -0.0091600874 -0.014031233 -0.01943619 0.049588099 0.032403719 -0.097469531 0.11317642 0.0072071026 -0.0099669416 0.042692639 -0.14116788 0.13158384 0.07835906 0.073418193 0.13067354 -0.13359168 0.024645668 0.016513361 -0.083068892 0.070063308 -0.013430412 -0.05817714 -0.080092423 -0.0099739274 -0.046305992 -0.094135553 0.066336378 -0.10625006 -0.0025255443 -0.072498262 0.087423339 -0.017466839 -0.044499703 -0.089272849 -0.13610193 -0.065681435 0.099225044 0.02889044 -0.15790756 0.017054122 0.1303457 -0.021089468 0.0085690049 -0.12928738 0.020707343 -0.1706914 0.16490577 0.057425626 -0.089585781 -0.19481641 -0.070757106 -0.12066182 0.11811956 0.12973367 -0.039377209 0.18218285 0.064594761 -0.18698201 0.091102719 -0.06035516 0.15538391 -0.15891387 -0.11877246 -0.12630549 0.22537315 -0.013801494 0.19018742 -0.064158961 -0.015594434 0.092533052 0.0909274 -0.10664649 -0.017510071 0.024127478 0.091400847 -0.033047922 0.13617618 0.065604076 -0.035031509 -0.093569882 0.083672993 -0.21967755 -0.021964757 0.10078683 0.15039138 -0.055704299 0.14619449 -0.25504184 0.035702128 0.010938806 -0.17492953 0.03996142 -0.10537308 0.095055394 0.24182615 -0.042462308 -0.053173903 0.140246 -0.11646139 0.07284575 0.070173152 -0.062924445 -0.054276548
