1113 128
1006 0.0097432146 0.036225539 0.25358012 0.035103075 0.19102289 0.043684624 -0.050046016 -0.34114978 -0.095591776 0.11733653 -0.10364552 -0.12808546 0.34642413 -0.59205908 0.16836467 -0.65096354 -0.10356251 -0.045576323 0.59577537 -0.25823364 0.25276718 -0.21125191 0.058188014 0.43532601 -0.10483241 -0.059376344 0.073045045 0.21104553 0.064565405 0.61915666 0.16135918 0.13430969 0.17050019 -0.18991484 -0.21316804 0.11749808 -0.053771444 -0.15192434 -0.028130366 0.10598337 -0.27122176 -0.0063188956 -0.48254144 -0.20558126 0.14673544 0.29721051 0.025745288 -0.45410964 0.60162044 -0.19470526 0.19224884 0.24937116 0.36074004 0.078041822 0.22430669 -0.036447749 0.14264426 -0.15691547 -0.05869887 0.010920698 -0.0926212 -0.12998345 -0.016967768 -0.19840761 0.49327514 0.013858446 0.1988868 -0.0092688976 0.011730811 0.35050386 -0.1153777 0.10775283 0.041326519 0.27142441 0.0086065261 -0.070960775 0.00096621609 0.16672903 -0.038670726 0.28855178 0.0072630006 -0.14663225 -0.22903758 -0.08280506 -0.18152083 0.099420629 0.041911412 0.1554388 0.25598943 -0.20343135 -0.26185298 -0.20692305 -0.27000314 0.48256895 -0.0097325882 -0.12459467 0.44225684 0.4288885 0.091049083 -0.35327783 -0.022961287 -0.28948218 0.10857595 0.20922695 0.085762739 -0.1428525 0.42158368 -0.11972978 -0.25840038 -0.24564858 0.12017033 0.28630501 -0.35436743 0.63238293 0.31639054 0.060644738 0.17086847 0.39421695 0.05972534 -0.0062184087 0.073477335 0.19081615 0.42059273 -0.15001041 -0.051731694 -0.080699705 0.21222161 -0.14223459
512 -0.087810412 -0.026558138 0.31862745 0.016738854 -0.056387905 0.14594525 -0.11488378 -0.19152154 -0.085392162 0.066016234 -0.070842735 -0.15853879 0.48312396 -0.37541592 0.19807665 -0.53694439 -0.043308049 -0.12266498 0.340455 -0.40684822 0.45754859 -0.11498499 0.2148851 0.24701601 -0.27853158 0.1034882 -0.054920882 0.36841121 -0.34537283 0.86198401 0.075715668 0.17439522 0.11630441 -0.13600695 -0.080654174 0.43418983 -0.090387315 -0.19978796 -0.021335013 -0.063438945 -0.1816884 0.029178698 -0.28911677 -0.42952454 0.017677503 0.084423602 0.19310237 -0.49030828 0.71618825 0.088592827 0.01173035 0.20122479 0.20998687 0.0720305 -0.11338807 -0.13689044 0.17633532 -0.14738338 -0.094073534 -0.074406676 0.15358791 0.33731285 -0.36266121 -0.16806337 0.16436315 -0.13305643 -0.00038361817 -0.0087502589 -0.028739018 0.50696349 0.088733196 0.30653793 0.050637498 0.34056795 -0.17611505 -0.068084873 0.0020883451 0.30749393 -0.048950855 -0.073940717 -0.35640669 -0.29259011 -0.093897656 -0.11305676 -0.19811478 0.11914 -0.053739332 0.11003329 0.0015563072 -0.22045621 -0.29773736 -0.055834144 -0.44042832 0.51554322 -0.021560822 -0.097671188 0.4299348 0.52516925 0.036141131 -0.41926655 -0.15003228 0.086683929 0.038989924 0.28252125 0.12004246 -0.1172163 0.36986321 0.023766113 -0.29440567 -0.27529064 0.20759194 0.27706593 -0.30561286 0.81118214 0.19307694 0.021479722 0.063842967 0.21456532 0.19254377 -0.090498731 0.021604296 -0.12256542 0.49831498 0.039083321 -0.19662946 0.064020835 0.09765929 -0.26217315
506 0.020255079 0.026299888 0.26510414 -0.0078527341 -0.02229147 0.165024 -0.35094425 -0.20860223 -0.047343072 0.12463697 -0.065007716 -0.12163086 0.43548143 -0.5063346 0.18339694 -0.5532878 -0.046456847 -0.12980577 0.29588237 -0.40794379 0.38464737 -0.029553192 0.28045592 0.12440313 -0.18715307 0.11067122 -0.056398962 0.36844948 -0.23463005 0.85433978 0.10217343 0.26615092 0.15594889 -0.062530234 0.052674074 0.4869414 -0.073291242 -0.23279969 -0.030227162 0.042084258 -0.14065017 0.023851695 -0.2291252 -0.35530588 0.024334384 0.16196075 0.12784316 -0.51287687 0.67449218 0.10421869 0.089107446 0.17961287 0.13071564 0.0373425 -0.057615768 -0.10175 -0.0089523951 -0.075989187 -0.16099527 -0.20267904 0.11942418 0.26017633 -0.29431978 -0.2654438 0.2284877 -0.024265196 0.037399847 0.00069674384 0.014044927 0.41351405 0.055746499 0.42106721 0.13544644 0.28896359 -0.17890358 -0.065115549 -0.062946536 0.37877271 0.10660993 -0.0073280567 -0.40322816 -0.26848823 -0.078418933 -0.099809282 -0.21129751 -0.026332462 0.023773633 0.063305952 0.031429835 -0.2127872 -0.44178656 -0.074633889 -0.42759636 0.58034837 0.0013498716 -0.099444546 0.43684098 0.466279 -0.014627164 -0.42782205 -0.28857046 0.058695018 0.10771377 0.30032042 0.055974785 -0.085460588 0.2989302 -0.071888886 -0.29817232 -0.29675511 0.13031928 0.22538967 -0.24863932 0.86617124 0.16296402 0.07881619 0.1535152 0.20774172 0.11301012 0.04130917 -0.028005976 0.066055097 0.49274266 -0.01558703 -0.05927866 0.018069586 0.058835115 -0.27542087
859 0.050980709 -0.010613819 0.24525389 0.046509374 -0.10051312 0.13656558 -0.15537296 -0.2612682 -0.1333466 0.024651445 -0.20352922 0.031964019 0.52714318 -0.40138268 0.11467963 -0.71175432 0.028969223 -0.1322061 0.33994979 -0.39292118 0.50277686 -0.048607025 0.05178421 0.15256505 -0.37810123 -0.057079151 0.1401563 0.3423678 -0.20041348 0.72460037 0.13334784 0.26181108 0.10387174 -0.10910571 -0.044399288 0.44049612 -0.12928061 -0.25707808 -0.19387458 0.12599912 -0.033540543 -0.077510357 -0.15032177 -0.31267098 0.10627464 0.060426395 0.17636037 -0.49247706 0.7687341 0.09152405 0.21666728 0.19350383 -0.040425215 0.056426514 -0.12019523 -0.078248478 -0.13366792 -0.19864993 -0.12976633 -0.17925408 0.22133663 0.28091344 -0.20231691 -0.14389484 0.15926193 0.063738748 0.11833787 0.19077806 0.077900022 0.34817988 0.18417487 0.21435685 0.12282515 0.44082049 -0.14753604 -0.14396305 -0.022546813 0.28718445 0.0056250854 0.018422203 -0.41989988 -0.37511548 -0.23725732 -0.14809512 -0.20366469 0.046000861 0.030766023 0.068133563 0.12019055 -0.18456541 -0.25355741 -0.13670294 -0.4147763 0.56847429 -0.02661412 -0.0015220314 0.37113816 0.47338167 0.17011529 -0.38215557 -0.24129932 0.10695814 -0.067151062 0.28991997 0.079931445 -0.17961608 0.39485133 -0.040165298 -0.29736426 -0.33974054 0.16089724 0.10547449 -0.23733047 0.75181293 0.065307513 0.047880154 0.036119904 0.17863874 0.27475089 0.0062065939 -0.08996965 -0.083318688 0.53386796 -0.079940386 -0.13231462 -0.01775036 0.041342955 -0.33487964
839 -0.15001105 -0.0012671957 0.28271946 0.090580411 0.034583341 0.2120079 -0.28267041 -0.20151627 -0.097953759 0.1979778 -0.16804051 -0.11350094 0.4557718 -0.44552493 0.13343246 -0.51158863 -0.097364463 -0.15828142 0.33048052 -0.34997919 0.38939452 -0.018844269 0.29771402 0.13129565 -0.39013201 0.15827049 -0.115022 0.35901296 -0.36795855 0.87771773 0.095192529 0.16555503 0.081163816 -0.056022502 0.067417145 0.43852541 -0.16410263 -0.21622908 -0.0067861234 -0.12226086 -0.12103882 0.035909694 -0.28915587 -0.40721411 0.10207661 0.096351705 0.16915053 -0.54261911 0.76053768 0.015555995 0.12880388 0.14489634 0.20517607 0.088573098 -0.067073673 -0.14327511 0.019253679 -0.13646106 -0.038919754 -0.081022635 -0.0017733376 0.31560451 -0.30320275 -0.14667459 0.17969848 -0.14282025 -0.039930724 0.055052001 0.033328738 0.44357553 0.11998925 0.35255542 -0.0069800066 0.27908841 -0.15336584 0.054051764 0.13466559 0.23363358 0.18934837 -0.038370196 -0.33183059 -0.28016821 -0.076627001 -0.32168835 -0.26960942 0.079949491 0.10271528 0.037772428 0.0082493043 -0.27098796 -0.34443843 -0.038936447 -0.55693352 0.63091713 0.021007545 -0.091688417 0.45481712 0.57839757 0.041949671 -0.48136419 -0.22407639 -0.067543499 0.037489925 0.21648441 0.15735437 -0.1206011 0.2953223 -0.08852458 -0.30868492 -0.22126338 0.30261949 0.20338984 -0.22411579 0.82036424 0.14920843 0.12894955 0.19930877 0.21690974 0.1692082 -0.11347653 0.0023975594 -0.0013999194 0.45503408 -0.020887453 -0.16188443 -0.039767716 0.11952236 -0.25787851
823 -0.10302275 0.046940528 0.22108519 0.089883916 -0.13721672 0.20688076 -0.13355918 -0.23618697 -0.065896332 0.088642225 -0.045147561 -0.17910428 0.42329362 -0.42613393 0.16087469 -0.51349825 -0.13979587 -0.24090588 0.31915414 -0.45663491 0.47929752 -0.063019298 0.21792774 0.19622682 -0.21461828 0.0087196957 -0.10530532 0.35809463 -0.17899416 0.73522896 0.12720083 0.24270903 0.10733309 -0.16578636 -0.14109075 0.46076009 -0.14070655 -0.28844032 -0.27532697 0.025625803 0.10331582 0.018633114 -0.33517772 -0.36467308 0.14482325 0.19502084 0.3174352 -0.4934355 0.67926967 0.14148594 0.03530588 0.051254466 0.082233109 0.084233835 0.020542426 -0.19473463 -0.025874339 -0.25962496 -0.048916433 -0.080533691 0.23616165 0.19861515 -0.38072771 -0.20819144 0.26761445 -0.21424694 0.063700333 0.119344 0.040822517 0.38239542 0.06701351 0.29444021 0.047665998 0.38808194 -0.13320027 0.013544978 -0.10472283 0.27890208 -0.068540245 -0.060688175 -0.39261049 -0.32839587 -0.096287794 0.012630136 -0.19426391 -0.079319395 -0.015668849 0.097833835 0.095077649 -0.20521601 -0.29328901 -0.079972073 -0.42096257 0.70948482 -0.087055691 -0.094229333 0.48020402 0.54903704 0.072634101 -0.44621292 0.031768449 0.18448861 -0.053044986 0.34303945 0.11604905 -0.13319059 0.46911058 -0.052842565 -0.27531314 -0.22064757 0.20775251 0.24361075 -0.32680365 0.77658027 0.14189392 0.092300683 0.086722381 0.23029426 0.18242373 -0.077401146 0.0043254537 0.029518779 0.41090593 0.010107445 -0.15353799 -0.063081667 0.14300326 -0.27891096
178 0.011277125 -0.19096905 -0.36418182 -0.058791667 0.039742082 -0.2198991 0.078057639 -0.237284 -0.054645449 0.087609194 -0.34191301 0.28410029 0.11540863 0.0044437763 0.19692981 -0.2271474 0.092805408 0.20505498 0.37748796 -0.32713142 -0.011158694 0.40847519 -0.094679825 -0.57434624 0.0030541564 0.19449626 0.025873909 0.011865032 0.12915935 0.26871276 -0.27181062 0.099591158 0.0065454757 -0.010954089 0.059302837 0.18069707 0.057273824 -0.38047829 0.10384295 -0.32019961 0.16860634 -0.305592 -0.18973957 0.059141204 -0.050806798 0.23842706 -0.53381407 -0.40844849 0.42501813 0.20783459 -0.042977992 -0.082586631 0.3071385 -0.05411737 0.048046555 -0.077838615 -0.11544862 -0.23137425 -0.1841466 0.13496824 -0.19375776 0.18703134 -0.22604251 -0.16773379 0.36223403 -0.005641486 0.16938785 0.084213212 0.045745507 0.27768195 -0.15628058 0.28872937 0.20855595 0.32790747 0.17715786 -0.17677236 -0.30224276 0.10258466 -0.038158789 0.3193613 0.094596289 -0.2282483 -0.37525541 0.0049047158 0.12607846 -0.11644655 -0.1234837 -0.19709554 0.1067623 -0.13687935 -0.22266567 0.20121337 -0.13813515 0.01862229 -0.0021075401 -0.2746056 -0.1034438 0.018816492 -0.27412003 -0.41163075 0.087083243 0.19941299 -0.15929358 0.17670628 0.4866195 -0.24130136 0.34889877 0.31512329 -0.11970064 -0.21375233 -0.13368826 -0.00038156411 -0.41658533 0.26074287 0.2562013 -0.36325359 0.35566077 -0.28737876 -0.26050022 -0.13879763 -0.0020491183 0.1551289 0.51408833 0.059664883 -0.07915578 -0.01799212 -0.14565609 0.11322042
1004 -0.31028196 0.47392368 0.0033094015 0.15377027 0.41946104 -0.082008623 -0.078872055 -0.56236303 0.074105434 0.74352396 0.022225965 0.018650554 0.13519725 -0.18157193 0.097171083 -0.71217364 -0.078892037 0.29491618 -0.10269748 -0.13509907 0.29230455 -0.08966919 -0.0026749747 0.61504179 0.062658466 -0.078310065 -0.18244804 0.1308082 -0.11050089 0.41344988 -0.67333186 -0.55681157 0.015600977 -0.4547064 0.28333876 0.06079787 -0.0011916879 0.06165662 0.025747461 0.49578145 -0.14831184 -0.54284096 -0.40231282 -0.023540191 0.23630261 0.086960681 -0.46396333 -0.46975133 -0.14417188 0.3214204 0.070191726 -0.25226218 0.27789918 0.32610223 0.34207952 0.15050465 -0.029483603 0.17471805 -0.087595724 -0.47709092 0.02776129 -0.0019576629 -0.095274344 -0.065489009 0.80990058 -0.13382936 -0.28281841 -0.20826685 0.27105767 -0.20030697 0.1522682 -0.0055875443 0.047776639 0.17081033 -0.34333667 -0.91257232 -0.2682099 0.1773089 -0.15824966 0.74892515 -0.13129096 -0.31528878 -0.95236599 -0.50120074 -0.46858388 0.70971632 -0.23021208 0.098537229 0.29961693 0.61758947 -0.09028364 -0.56331152 -0.76685256 0.029539779 0.26794657 -0.30136079 -0.16685553 -0.048742887 0.28091681 0.17061228 0.21747002 0.027600465 0.67244089 0.13100052 0.034825724 -0.71443844 0.44044641 -0.10779469 0.12011141 -0.33297458 0.16505006 0.56292534 0.65674639 0.48978835 0.51552302 -0.0056122756 0.05031481 0.33963725 -0.49480793 0.24482103 0.079330206 0.20922177 0.51035732 -0.47279045 -0.22021706 -0.37018931 0.49940723 0.067799374
501 0.14138937 -0.41392902 -0.23849151 -0.47396985 0.31764567 -0.045618661 0.14757165 -0.18654022 0.19910772 0.032477368 -0.067507938 0.30335382 0.23512986 -0.23515955 -0.10038107 -0.086936384 -0.20961507 0.078822188 0.054626189 0.098558664 0.11495782 -0.062332921 0.24847481 0.21210685 -0.088980131 -0.29319653 0.10915361 0.19068432 -0.1175649 -0.06745486 -0.018215261 0.070789076 0.15883279 -0.073791079 0.04146878 -0.050669119 -0.50593626 -0.34442025 -0.099945419 -0.14902271 -0.059450857 0.042827785 0.11232126 -0.081779487 -0.13637125 0.1633487 -0.22342351 -0.29976624 0.050196033 0.26011989 -0.19398171 -0.48404074 0.4276827 0.17859046 0.31414908 -0.093141459 -0.11687142 -0.11475215 -0.2039741 -0.17899209 -0.11598992 0.042077154 0.017274801 0.11992746 0.14231624 0.18818802 0.065725937 0.42592758 0.22660674 0.29414955 -0.19353564 -0.25825602 -0.31129271 -0.051505752 -0.098755777 -0.22385696 -0.18282804 0.1974991 -0.22809865 0.0058013741 -0.017109614 -0.37754938 0.046819221 -0.32588282 0.29902783 0.086001061 -0.37341565 -0.34723863 0.35966367 -0.083061561 0.040616516 0.094524838 0.046694249 0.20007131 0.14905608 -0.31445202 0.023750456 0.171913 -0.27776963 -0.19941077 0.066720851 -0.087073058 0.082161792 0.028075963 0.33434832 0.1054233 0.26281831 0.40410024 0.082622014 -0.041001849 -0.02630165 0.26109305 0.19956678 0.082080781 0.17630512 -0.61465329 0.25888428 -0.018427081 0.11432345 -0.1621365 -0.027554611 0.36601049 0.53287137 -0.10647394 -0.36056051 -0.19251151 -0.109773 0.21761148
301 -0.013246002 0.028434312 0.27379707 0.054806333 0.30214721 -0.086075805 0.048629671 0.028533332 0.28172466 0.14458242 0.048584301 -0.24064282 0.16348474 -0.12484295 0.098445609 -0.097970106 -0.16525614 0.39550945 0.22060919 -0.07498984 -0.11187284 0.13638775 -0.087300166 -0.12425138 -0.062165763 -0.19730823 -0.03197515 0.044313006 0.049170375 0.21982999 0.16752784 -0.12465115 -0.18138818 0.027133578 0.14029603 0.17601861 -0.10125827 0.093632281 0.077821739 -0.084444627 -0.037515543 -0.13796709 0.048907749 0.13994382 -0.011635447 -0.019291785 0.18239242 0.0054097888 0.065781601 -0.076601081 -0.1106604 -0.052667923 -0.021391865 -0.13726516 -0.055512588 0.15745804 -0.049373589 0.16519871 0.011817908 -0.074612573 0.05351983 -0.14072497 0.13268884 -0.0099151442 -0.066554539 -0.15524767 0.054400261 0.068551786 0.18131483 -0.18110678 -0.052432235 0.20406759 -0.011649182 -0.028468881 -0.097950287 -0.11181579 -0.0071535395 0.21562928 -0.21175186 -0.091895334 -0.055224426 -0.18381779 0.1238676 0.056347176 -0.26723117 0.037519056 -0.017370632 -0.011470992 -0.28384134 0.12048255 -0.036649194 0.13512219 -0.15086241 0.12885304 -0.014399275 0.017803827 0.035862979 0.036572963 -0.10375357 -0.19026478 0.047742419 -0.2152295 -0.067870691 0.21328017 -0.12935142 0.0050263372 -0.069259562 -0.14215218 0.095922329 0.33876613 -0.14766671 0.12500946 0.08568874 -0.097517014 -0.043468062 -0.036356192 0.274524 -0.27433363 -0.086907431 -0.35532373 -0.1545004 0.18748333 0.2197624 -0.059362974 0.090567805 -0.0043042516 0.14658891 0.074652731
133 0.25873107 0.067243412 0.10997654 -0.082504474 0.19325347 0.028997699 -0.13299479 -0.0042497483 0.077697128 0.11788888 0.17925408 -0.074758306 0.18017337 0.098472185 0.33477306 -0.1170871 -0.069451481 0.38855061 0.092818543 0.069640227 0.012574315 0.071682215 0.24878545 -0.097635821 -0.3100557 -0.29667747 0.119021 0.12168245 0.01844967 -0.013678124 0.014623729 -0.13617738 -0.08434774 -0.020370321 -0.0038363165 0.18648617 0.10714336 -0.067041226 0.056638148 0.019702891 -0.087848417 0.039633181 0.17475335 0.47157404 0.058557197 0.0077918884 0.017585494 -0.026634768 -0.013617217 0.10264813 0.062907688 -0.13657671 -0.058816452 0.14069524 0.11244164 0.011444722 -0.015846625 -0.13570248 0.14233808 -0.19998702 0.016332058 -0.060423356 0.045908418 -0.049318172 -0.23712237 -0.057756893 0.21444777 0.089178309 0.1753501 -0.17994507 0.10521268 -0.11031186 0.054302298 0.010622103 -0.14252511 -0.044797383 0.077451117 0.10425092 -0.095774405 -0.03825251 0.091810837 -0.13941692 -0.096009254 0.10493042 -0.31794229 -0.044278335 -0.14549793 0.0034335535 0.055274524 -0.035811268 -0.13880044 0.25499874 -0.021100044 0.077164605 -0.15317619 -0.014232012 0.11062127 0.12233637 -0.047328591 0.076963492 0.1548098 -0.026807932 0.050842613 0.11581363 -0.096180335 -0.061987936 0.1616037 0.21319653 -0.23617271 -0.13741443 0.076880902 0.09989351 0.088086538 -0.12226819 0.056225467 0.01245613 0.049397588 -0.18439198 0.035975225 -0.021253996 0.094264418 -0.0024122184 0.11216689 0.058279615 -0.023374621 0.022947539 0.035114791 0.042652462
1010 0.10829062 0.19690993 0.13522042 -0.51186883 -0.012518069 -0.059915785 0.19399436 -0.25586799 -0.13170515 0.29430872 0.0011851531 -0.27936882 0.20977229 -0.36703834 0.23902048 -0.44010562 -0.19615346 0.091151118 0.47845671 -0.16683367 -0.36326468 0.08320231 0.31961498 -0.12485449 -0.2845982 -0.18223284 -0.13734123 -0.11418181 -0.18438378 0.2130259 0.19689555 -0.22939482 0.19800495 -0.28703785 -0.051893268 -0.034759585 0.021883026 -0.01762677 -0.11812504 -0.060915079 -0.0420372 0.16795778 -0.24671848 -0.13893965 0.11576814 -0.13997902 -0.36215898 0.067635491 -0.035885926 -0.070073858 0.17175111 0.19397478 0.23407339 -0.19060241 0.21242914 0.0063594147 -0.52102727 -0.019363448 0.047761418 -0.056506392 -0.015672814 -0.056762401 -0.29485083 0.07643868 0.51665777 0.3815968 0.024372032 -0.12356615 0.42023033 0.27586186 -0.17430317 0.091995575 0.12704732 0.17504916 0.19963111 -0.44361365 -0.19391192 0.39933142 0.20927972 0.063883379 0.16037996 -0.28140616 -0.0066965604 -0.028583687 0.28626677 0.01429969 -0.21111776 0.2296629 0.6360634 -0.12734257 0.047791481 -0.47040406 -0.31116214 -0.19070372 0.0184427 -0.37615931 -0.24251904 0.25470349 0.032087572 -0.45354444 0.43569514 0.061176375 0.09914764 0.26577699 -0.016743371 -0.16646472 0.12120301 -0.12925464 -0.078410327 -0.39066532 0.18027763 0.50757998 -0.15988754 0.22291501 0.086437538 -0.20109604 0.1749524 0.3070969 0.097503468 -0.028090138 0.21988076 0.39855245 0.24851759 -0.093154378 -0.051936325 0.013493909 0.34526566 0.11073644
1005 -0.11764891 0.18487555 -0.18118992 -0.27187696 0.024532918 0.3325513 0.21268548 -0.29898494 -0.28388667 0.24404804 -0.12480968 -0.2735343 0.29039815 -0.27979237 0.12802605 -0.32226723 -0.24547553 0.054312058 0.1654796 0.043971602 -0.20584923 -0.011295188 0.14589971 -0.27477387 -0.056679208 -0.3841106 -0.36146829 -0.1206239 -0.13191164 0.13109165 0.39782655 0.20641229 0.062872224 -0.33938399 -0.1797661 -0.31927234 0.23033585 0.014632147 0.37045282 -0.25525987 -0.2072673 0.31586179 -0.44633922 -0.06582614 -0.013430535 -0.18184718 -0.35599068 -0.16188081 -0.0041168421 0.057950597 0.015783954 -0.15031387 0.13341667 -0.058319185 -0.024259815 0.035295751 -0.31983256 -0.0061528129 0.089247398 0.022788979 0.12219928 0.072182275 0.035652544 -0.023732292 0.3635844 -0.035736516 0.22723795 -0.17228451 0.37334904 0.13003448 -0.005504604 -0.19733687 0.36775666 0.22066733 -0.023624333 -0.44501662 0.13968793 0.31815585 0.3037658 -0.10268647 -0.0066448897 -0.10245717 -0.2646358 -0.42068487 0.22006316 0.37246737 -0.22851171 0.22553952 0.35168433 0.10670099 -0.34067005 -0.52187812 -0.12258553 0.085239142 0.085417338 -0.16111974 -0.23824154 -0.020276137 -0.016068151 -0.38151947 0.20091809 0.35395032 0.13736255 0.090189762 0.034410745 -0.1054057 0.11756223 -0.15689172 -0.32797879 -0.4311122 0.040294882 0.24509202 -0.033625986 0.25539631 0.038509727 -0.48054519 0.18313441 0.14281701 -0.058458261 0.0056322673 0.32246533 0.084447257 0.64063448 0.17877965 -0.24861525 0.21715373 -0.22814287 -0.092651948
432 0.056121435 0.054276768 0.059548032 0.084799707 0.23483317 0.089798942 -0.1785191 -0.038165629 -0.014338847 -0.10916364 0.10885857 -0.051471908 0.12088705 0.034605347 -0.0074834297 -0.084557138 -0.23401017 0.28220475 0.03901552 -0.0014342507 0.073266357 -0.036999587 -0.067108437 0.010194695 -0.063231103 -0.34010953 -0.024230339 0.11041705 -0.096068673 0.071989618 -0.050151568 -0.11176547 -0.28115803 -0.14332326 -0.04506607 0.096767247 0.068192765 -0.017515857 -0.072353572 -0.080284961 0.060352981 -0.073069759 0.22888178 0.27764815 0.10771825 0.15753806 0.24534242 -0.0027107017 -0.11757512 -0.05172164 0.0038924518 -0.18291707 -0.10190481 0.013791933 -0.035709146 -0.095059842 -0.0072159194 0.0069425819 0.10687773 -0.027740333 0.032490816 -0.010943614 -0.035098605 -0.009333726 -0.25766227 0.063081264 0.14190935 -0.010058319 0.13899609 -0.11047222 0.047681879 0.034192853 0.16816834 0.015414807 -0.11560833 0.030533865 0.092243657 0.066439018 -0.13980216 0.13717423 0.16834027 -0.058723692 -0.039334472 0.031915836 -0.33432636 0.0061515686 -0.066073783 -0.015925225 -0.033817887 -0.13123327 -0.1307161 0.22663178 -0.0049769799 -0.10927335 0.051576067 0.091901109 -0.0070428834 0.10642228 0.010621009 -0.21111512 0.064215124 0.054304827 0.0089613721 -0.0075994162 -0.10637917 -0.012583734 0.067050867 0.089264661 -0.045839325 -0.12494198 -0.10571256 0.030970342 0.11182917 -0.030644938 0.043641932 -0.0695602 0.18461107 -0.14459592 0.053909544 -0.22385822 -0.033237882 0.088676058 0.20318036 -0.041482966 -0.22723372 0.098469988 0.12316773 0.034724291
476 0.093029238 0.12000759 0.10670228 0.14435171 0.19678679 0.067350604 -0.061494127 -0.075215295 -0.0075940122 -0.020674594 0.24666971 -0.053373691 -0.072675951 -0.015798178 0.051460478 0.071599886 0.078172781 0.27155226 0.020730503 -0.096354224 -0.11758969 0.011968925 0.21731693 -0.024474883 0.064520612 0.011198569 -0.10595945 0.032351766 -0.10080373 -0.092938967 -0.13298817 -0.0091087399 -0.030899331 -0.050358165 -0.1048058 0.089379996 -0.10217398 0.14229724 -0.022974711 -0.21927039 0.024496591 0.031256441 0.16607767 0.4786208 -0.086375304 0.13120419 0.18747224 -0.072467819 -0.00050650083 -0.024656562 -0.11544559 -0.063385427 0.11791725 0.052679449 0.20040666 0.079653837 0.12815499 -0.0028404137 0.063993767 -0.011218002 0.12486721 0.040155284 0.29570079 -0.033486873 -0.16072878 -0.14422703 -0.15987939 -0.0090640644 0.33344805 0.073368736 0.060460102 -0.13964574 -0.045338091 0.22474708 -0.20626545 -0.15801957 0.045843519 0.24671529 0.074666895 0.0056101708 0.1372551 0.041781433 -0.2221694 -0.062907979 -0.25064117 -0.10316588 0.16678034 0.070766389 -0.00076165207 0.019597352 -0.0095608663 -0.047100641 -0.072476074 -0.022946652 0.031094495 -0.030498229 0.12070705 -0.082026787 -0.19911894 -0.23120365 0.02068346 -0.067273885 -0.055023931 0.11787114 -0.095172748 0.057046361 0.049251109 0.053910792 -0.0040986151 0.00025377754 0.046964206 -0.13743071 -0.19558103 0.11717436 -0.27439541 -0.031702876 -0.080332093 -0.27714899 -0.02585645 0.0015604562 -0.072293006 0.36692348 0.2784169 0.018643396 -0.2433335 0.11929388 0.084181994 0.066709109
404 0.12211692 -0.24615364 -0.11599442 0.031717736 0.13012673 -0.22567196 0.024460394 -0.03703079 -0.027160969 0.40633589 -0.094363526 -0.15586628 -0.057900485 0.15899928 0.085346431 -0.092776045 0.1593983 0.12060547 0.15681803 -0.36494029 0.055363066 -0.003413866 0.12615032 -0.041323122 -0.10307357 -0.37985358 -0.046670355 -0.25789124 -0.27223718 0.17540619 0.23823985 -0.27080667 -0.17606404 0.14998865 0.28619942 0.16788651 0.054996062 0.048647728 -0.062982127 0.047363609 -0.021645866 0.19603156 0.11102911 0.2778286 -0.17920192 0.12138058 0.12238146 0.013436557 0.0089897225 0.032548144 -0.01020592 -0.15342949 -0.090200506 0.2689327 0.019268803 0.070557006 -0.0029283289 0.0050963755 -0.048095003 0.11807099 0.10721865 -0.2414137 0.1075969 0.045315035 -0.11946464 -0.077299029 0.047962863 0.054172534 0.16059513 -0.0082873786 0.031598072 0.065749064 -0.051764842 0.069747396 0.050009187 -0.048074737 -0.058396809 0.070187874 -0.19258255 -0.006191059 -0.033871308 0.12393854 -0.080004118 -0.16312158 -0.37579948 -0.14890526 -0.21085173 0.10790876 0.16835353 0.031798311 -0.073370412 0.11697273 -0.30040583 -0.12834828 0.039915286 -0.0065653282 0.15160446 0.26500994 -0.25970894 -0.022592295 0.038403589 0.030356538 -0.12391766 -0.14115399 -0.26425609 0.080292955 0.094931692 -0.17042342 0.16948196 0.0061652111 -0.39176589 -0.077482 0.14393777 -0.22266047 0.0040380945 0.0092007807 -0.19695392 0.17533898 -0.013021838 -0.13594046 -0.17388394 -0.19801144 0.35691965 -0.11091802 -0.026680907 -0.075556718 -0.15883127 0.19107984
9 0.048185203 -0.0088951783 -0.10090433 0.0033993844 0.14429091 -0.027510801 -0.16070193 -0.074310109 -0.0172658 -0.08120276 0.048090011 -0.1893868 -0.18731305 0.20143346 0.2167853 -0.030078636 -0.074159265 0.24167447 -0.03355303 -0.1566647 -0.10375665 -0.089234591 0.076197989 0.15769567 0.087006837 -0.18736063 0.042462781 0.19154845 -0.026103061 0.076460533 -0.019845307 -0.053895671 -0.11934727 -0.0021293678 0.086371556 0.029450959 -0.031497858 -0.0044746641 -0.024812801 0.014750027 0.034425598 -0.072911084 0.14047097 0.27754074 -0.013729813 -0.062335055 0.085576147 -0.026123453 0.0077150553 -0.072829656 0.0082975049 -0.11515845 -0.24331498 -0.094990633 -0.0046507255 -0.013533079 0.25535578 -0.040551927 -0.029175192 0.0064997347 -0.0022798185 -0.16115271 0.21534973 0.25132266 -0.093843088 -0.003825479 0.068226516 0.11041677 0.13269393 0.15109839 -0.025876082 -0.069950081 -0.20802845 -0.011178638 -0.14228819 -0.17554699 0.18074121 0.28560728 -0.018073119 -0.079114191 0.020140236 -0.086615883 0.025564093 0.0012034796 -0.34850851 -0.033207942 -0.10187364 0.033582956 -0.064461358 0.077551551 -0.015009187 0.025195317 -0.041962411 -0.0492713 -0.087708533 -0.0051039504 0.14898077 -0.085251018 -0.052523296 -0.20739813 0.012352536 0.023336282 -0.067001879 0.21565375 -0.014560563 -0.064236596 -0.008095488 0.13080195 0.015896741 -0.025983272 -0.0058943336 0.19197859 -0.19017969 0.051516134 -0.1576709 -0.081930049 0.023945071 -0.060045894 -0.080995224 -0.084670983 0.10213537 0.14709432 0.19143412 -0.16607364 -0.12244902 -0.066881984 0.088591635 -0.12729977
459 -0.020394741 -0.019384418 -0.26841941 -0.04450703 0.093844369 0.043758493 -0.34454188 -0.13575208 -0.065478392 -0.019533604 0.17793393 -0.092150465 -0.15485619 0.06315574 0.23792933 -0.17512074 -0.29281688 0.099434815 0.097224846 -0.049704581 0.1722666 0.19465849 -0.039305937 -0.057967417 0.028181709 -0.31623468 -0.18380405 0.068455532 -0.09185309 -0.0025643134 0.17554531 -0.25149426 -0.10871784 0.018567681 0.084602199 0.096060477 -0.075587802 0.14400423 -0.052753899 0.046181668 0.040294435 -0.22210279 0.15652411 0.17404906 0.13064629 0.011589003 0.12628946 -0.084443919 -0.0068200179 -0.20484614 -0.14084604 0.036993966 0.061946217 0.059669252 0.049429491 5.1956937e-05 0.081208736 0.15931395 0.044426903 0.039190345 0.10269095 -0.16650206 0.050902653 0.19101818 -0.092348434 0.17149484 0.043280929 0.10034277 0.099196799 -0.051528484 0.12344258 0.077996857 -0.012833118 -0.021301473 0.16731472 -0.052399494 0.050056182 0.098082989 -0.046560578 -0.18380459 -0.04860742 -0.21948533 0.013190068 0.0741456 -0.44180289 -0.043517865 -0.0020020958 -0.059223633 0.19144082 0.0019758621 0.013481548 0.16766037 -0.15147686 0.072088674 -0.20054534 0.12270389 0.1644987 0.051818162 -0.0020783343 0.010962134 -0.27193341 0.034194633 0.021027949 0.080148853 -0.016559923 -0.18868141 0.13238868 -0.022948587 0.085957542 0.06227272 0.067991413 0.1555621 -0.20287466 0.015156126 -0.12196541 0.18003039 -0.073301539 -0.18337186 -0.033161357 -0.22892404 0.027530961 0.12055716 0.21413659 0.083011597 -0.11565518 0.052649476 0.15959895 0.04047326
183 -0.068497337 -0.13914225 0.0046039508 0.14331219 0.29532748 -0.029944958 -0.2791054 -0.041087888 0.0036911927 0.031689707 0.18534119 -0.16811717 -0.025923263 0.12878209 -0.013358267 0.094860323 -0.083255433 0.083686307 0.2482792 0.0034297449 -0.022450916 -0.041680869 -0.013544476 0.11875872 0.10061578 -0.13478771 -0.28526637 0.049119864 -0.13022633 0.22819778 0.2336538 -0.25171441 -0.17413883 -0.081099264 0.14212708 0.23222286 -0.1261654 -0.069241159 0.029036829 0.047012612 0.13155934 -0.0076687243 0.077951893 0.16531095 0.1192387 -0.029486429 0.06635543 -0.10428277 0.011695351 0.002396957 -0.15514652 0.12405079 -0.090908282 0.14560559 0.081607811 0.080220997 0.0076644616 -0.027197428 0.061891466 -0.16852513 0.073401131 0.15195785 0.24758209 0.022053443 -0.013168771 -0.16377074 0.053188615 0.018220067 0.13475773 0.037320357 0.13644692 0.0084461942 0.033596113 0.034019109 -0.078534655 -0.18383025 0.018475886 0.16842371 -0.033926506 -0.13956541 -0.03286868 -0.12722853 -0.077471323 0.027997123 -0.37242231 0.098885603 0.064181365 -0.1164478 0.12323389 -0.2449993 -0.038767587 0.18586658 0.062678605 0.03716309 -0.1010479 0.031245364 0.026490467 -0.066116512 0.033420414 -0.051922072 -0.031169979 0.13067611 -0.14394724 0.2639094 -0.030947438 -0.038568176 -0.13621332 0.075907111 0.22039291 0.033037845 0.068484128 0.065637909 -0.17903554 0.044285048 -0.12872341 0.23307879 0.079434842 -0.029391076 -0.22398704 -0.21301045 0.13115729 0.0090553658 0.067939073 0.12838857 -0.14916433 -0.12329546 0.091126323 0.19441989
467 -0.096450627 0.0026794965 -0.16029537 0.067693599 0.042689241 0.10723846 -0.051224004 -0.10013165 -0.11273241 0.1193449 0.18473898 -0.17405973 -0.12340871 0.16353661 0.12450506 -0.050587315 -0.089754522 0.29748011 -0.061333638 0.014925243 -0.096896499 0.057625286 0.020147335 -0.1192183 -0.097515158 -0.15911435 0.028435983 0.10823613 -0.18040496 0.20654367 0.072422564 0.18449293 -0.02537808 -0.098538108 -0.077394746 0.18496376 -0.012233773 0.060425121 -0.17576137 -0.13428101 -0.06025891 -0.25651729 0.24108793 0.27237853 0.0030171555 0.23694889 -0.025979634 -0.030776639 -0.041479088 -0.026404753 -0.040626619 0.091799669 -0.030759681 0.013969862 0.034410547 -0.26557186 0.22034329 0.0038032131 0.047386531 -0.091641746 0.063916795 0.041936334 0.015987121 -0.012083481 -0.16840868 -0.069645137 0.03935175 -0.041930828 0.040660691 -0.14415467 -0.080070287 0.059185546 0.084207274 0.023466682 -0.14695598 -0.23829643 -0.092844009 0.17615269 0.02508194 0.00061770075 0.16674669 0.093442217 -0.11565723 -0.010316734 -0.26377851 -0.14006807 -0.047423918 -0.12277607 0.15035459 -0.14164773 -0.2893613 0.12061961 0.01083685 -0.015072034 0.049828794 -0.016245656 0.031643838 0.081483237 0.15466629 0.062289361 0.10526943 0.013267989 -0.10089689 -0.13348542 -0.19483234 0.12068396 -0.072162785 0.072531499 0.094387159 -0.062440824 -0.13938129 0.23171629 -0.012393731 0.10578061 -0.081527419 -0.047231454 -0.099374697 -0.12468515 -0.03536031 -0.082457647 0.10111288 0.11029691 0.19090657 -0.017730916 -0.081761554 0.060595814 0.043286547 0.025416268
209 -0.095529653 0.019332444 -0.094342753 0.0031857521 0.17739744 0.054816384 0.02652375 0.095142275 0.056566387 -0.045164745 -0.010367295 -0.16702427 -0.13684364 0.17503947 0.11997115 0.028949285 -0.27931246 0.24999441 0.089369699 -0.044802357 0.062558025 -0.02230493 -0.0081193913 0.15919276 -0.0019938899 -0.33650932 0.020804914 0.052021265 0.060532551 0.12082428 0.091169365 0.037291821 0.0085222963 -0.019062581 0.10779788 -0.03852642 -0.055227935 -0.046531685 0.057842769 -0.14185292 -0.098745055 -0.074026532 0.10971741 0.22048832 -0.11099506 0.15661836 -0.052471943 0.035137329 -0.10429026 -0.04805259 -0.1622971 -0.0106272 -0.29998252 0.017024372 -0.0714764 -0.039366174 0.054162122 -0.069581836 -0.020267989 -0.064688176 -0.037686169 -0.025377341 0.12940501 0.36112684 -0.20131047 0.07200031 -0.025154602 -0.1461838 0.10817976 0.011239269 0.029689047 0.056416672 0.046695039 -0.0043886798 -0.052458193 -0.19787134 0.01707679 0.060223378 -0.079821408 0.17149627 -0.143527 -0.098870806 -0.034455653 0.025272235 -0.16550097 -0.054976925 -0.02983512 -0.014609206 0.024788506 -0.16469128 -0.080866367 0.11224697 -0.16724604 -0.087135643 -0.072133079 0.046035137 0.082996257 0.047624633 -0.12616734 -0.2447097 -0.062657267 -0.072716951 -0.028424487 0.0026185715 -0.12780873 0.044421718 0.11009734 0.051827796 0.14266396 0.05461511 -0.055681244 0.052679341 -0.047519706 0.088941753 0.028005246 0.077666566 0.20397766 -0.14989056 -0.10424689 -0.23472311 -0.09713193 0.02940724 0.25528854 -0.11292499 -0.16438404 -0.075835094 0.092669919 0.016038598
323 0.019546932 -0.0012114764 -0.069233201 0.023424909 0.25632951 -0.025128419 -0.038952649 -0.066240512 -0.12168396 -0.098456942 0.16862208 -0.0042324872 0.1003269 0.11039366 0.0025401465 0.0055545438 -0.100762 0.25207695 -0.011098038 0.036467154 -0.054770745 0.034608845 0.094764434 0.10791197 0.052262042 -0.032110568 0.054723348 0.070698865 -0.097631074 0.055435166 0.044608854 0.00034449235 -0.17150457 -0.071024626 0.03145333 0.19937149 -0.11366666 -0.02805567 -0.16632117 -0.36286581 -0.041814569 0.0017874152 0.086846612 0.3815082 -0.012678214 0.0128548 0.10995746 0.041072682 -0.090085641 -0.032439396 -0.18717463 -0.036489982 0.032585822 0.10126297 0.029955033 -0.23341034 0.03628435 -0.079205357 0.011398176 0.17417191 -0.042374376 0.11768817 0.19998635 -0.0037653528 -0.2738221 -0.13047729 -0.20018542 -0.093232259 0.19016415 0.12987895 0.11433143 -0.10892158 0.020725189 0.075787112 -0.04343313 -0.22495295 0.16001454 0.15432066 0.23033433 0.11070099 7.6674514e-05 0.15699433 -0.21283726 -0.067275964 -0.31102899 -0.20188694 0.060465194 0.085675612 0.10837197 -0.18612568 -0.14630263 -0.064015009 -0.0061959894 0.035598654 -0.10198382 -0.077656962 0.035463393 0.033967204 -0.073406056 -0.20279309 0.074326545 -0.10088621 0.12657838 -0.027955879 -0.23863265 -0.024730178 0.12684447 0.0075173061 0.14064169 -0.17565943 -0.068727478 -0.033798378 -0.1140096 0.041301079 -0.22187832 0.10090151 -0.16055919 -0.15080832 -0.15066983 -0.15121421 -0.010253658 -0.0055354317 0.15726578 -0.047253426 -0.051985692 -0.017565049 0.02816033 0.0036707434
234 0.092089847 0.011465118 0.0097654471 0.098525718 0.42011017 -0.087822914 -0.2150903 -0.066155091 -0.02206579 0.084273063 -0.039002039 -0.027205288 -0.15257531 0.25410932 -0.10437036 0.015445121 -0.15535671 -0.013311487 0.16880006 -0.073725626 -0.10478826 -0.073362239 0.010536426 -0.16153254 -0.1496613 -0.11676192 0.0075887968 0.1457213 -0.13122334 0.023442287 0.065339126 -0.020162642 -0.080041863 0.04032246 0.16257086 0.15162581 0.06015322 -0.031830531 -0.014927324 0.022360047 0.123341 -0.15025905 0.11878581 0.29602075 0.08348006 0.26296294 0.064583376 0.081819832 0.049855549 -0.16577144 0.066872753 0.086481936 -0.0048207236 -0.0048847822 0.049510594 -0.20852998 0.024014721 0.20597069 -0.14605767 -0.21194601 0.10701449 -0.0082062092 0.32795092 0.17194574 -0.18733688 -0.053841218 0.035964523 -0.25085956 0.17750449 0.014947142 0.27198792 0.022856206 0.064929537 -0.083392628 -0.1129211 -0.059338905 -0.026734063 0.17126283 -0.085296959 -0.10657959 0.16760764 -0.18793388 -0.1256244 -0.10486938 -0.089927055 -0.20097741 -0.14410274 -0.11352294 0.13295506 -0.12445912 -0.16397607 0.005969407 0.041509487 -0.07982368 0.15999991 -0.095501505 0.1220132 0.091858126 -0.13551936 -0.15192281 0.024123911 0.16926245 0.082235731 0.08391133 0.0051673162 0.064742997 0.13914262 0.12306569 0.041485008 0.21532941 -0.095223665 0.1685466 0.016385552 0.022113198 -0.058071513 0.12520856 0.0080709578 0.0066827103 0.023882305 -0.04403742 -0.0735071 -0.05216426 0.14463393 -0.084147066 -0.21023746 -0.012339841 -0.03889503 -0.039406441
387 -0.044671997 0.039649554 -0.014528159 -0.14308512 0.21280044 -0.030083196 -0.2073409 -0.016256865 -0.00058550487 -0.065735258 0.085353613 -0.1528793 -0.12038676 0.13644819 0.0078761522 -0.047647227 -0.22488229 0.17037117 -0.029514981 -0.1642855 -0.035229873 0.0010625273 0.034400068 0.033726871 -0.036864392 -0.14529693 -0.073310047 0.047539562 -0.082807876 0.058912493 0.14708054 -0.03726808 -0.050986584 -0.040721159 0.17718446 0.10409502 0.040303186 -0.020860838 0.0058297943 -0.03936163 0.073121905 -0.026964398 0.14698908 0.28998435 -0.05733585 0.026050672 0.19081186 -0.029230649 -0.031375479 -0.036807526 0.019481091 -0.075475752 -0.085942365 0.1357891 0.019101404 0.052848794 0.077938899 -0.048300371 -0.06807892 -0.054730766 0.052973554 0.00074209669 0.059243344 0.13801759 -0.044891179 0.011952322 -0.013479444 -0.025577793 0.043614302 -0.049295958 0.15490846 -0.078954332 -0.042722486 0.0056365845 -0.24231584 -0.21499054 0.10066655 0.16085348 -0.012430656 -0.061690535 0.10828929 -0.0049385512 -0.25111675 -0.020237442 -0.19393635 0.0099841719 -0.032558277 0.086134873 -0.0064457934 -0.13362963 -0.10477993 0.11117677 -0.018432928 -0.055767719 -0.017828761 -0.071747839 0.14347781 -0.035720959 0.026287844 -0.14119536 0.072706915 -0.012324064 -0.14155965 0.0084070079 -0.071320988 -0.070609868 -0.023337962 -0.013805943 -0.024287723 0.085159421 -0.04206457 0.04376791 -0.13197438 0.13789542 -0.082558781 0.14166649 0.022312753 -0.21223859 -0.082293689 -0.038839892 0.113056 -0.0040690033 0.14205553 0.00033732309 -0.049054272 -0.10424481 0.14696477 0.10737444
215 0.16475639 0.093747981 -0.18921222 0.12923105 0.16707951 0.087112345 0.1508192 -0.065077275 -0.00081071962 0.20158358 0.12554507 -0.09607821 -0.13125664 0.097905658 0.164905 -0.041742254 -0.26578721 0.22525148 -0.067365676 0.13683082 0.054715831 0.25314349 0.061869435 0.048790883 -0.008228465 -0.31371218 -0.11605443 0.060359858 -0.27553061 0.081942998 0.081342809 -0.004679386 -0.25441241 -0.22539847 0.11021498 0.069717534 0.2097059 0.0042139473 0.082373835 -0.20532946 -0.039526854 -0.03179244 0.30363098 0.39591137 -0.025230967 -0.020000925 0.28382713 -0.061238725 -0.13839109 0.10625792 -0.11270804 0.044703756 0.033631057 0.068846084 -0.012292853 -0.14637725 0.14460056 -0.031319048 0.25832659 -0.3300561 -0.024643045 -0.10572854 0.095885687 -0.1335189 -0.098862953 -0.031878106 0.18151087 0.049262777 0.016376242 0.26338121 0.18379243 -0.049605239 0.078549877 0.19815443 -0.01956309 -0.29828444 0.051628862 0.055864159 -0.053868704 0.091788545 0.29219529 -0.11267596 -0.12208877 0.12436441 -0.22403429 -0.16900045 -0.14271814 -0.013349678 0.12277172 0.02190065 -0.31904662 0.097188972 -0.13737471 -0.12456195 -0.14150679 -0.093556687 0.070494033 0.15790021 0.002199274 0.19758242 -0.034442257 -0.16373628 0.034293205 0.031116128 -0.097773299 0.26968852 0.058831863 0.11258055 -0.1707004 -0.070647061 -0.10601041 0.064783849 -0.0082100071 -0.053926762 -0.19486757 -0.17035064 0.11572039 -0.10557213 -0.038325574 0.044353448 -0.033366792 0.070958138 0.11070304 -0.04214672 -0.10165028 0.022556476 -0.2053421 0.066099733
101 0.065857768 0.038941558 -0.14540948 -0.095185876 0.18823384 -0.0091792494 -0.31729233 -0.098292626 -0.12495711 0.10229315 0.072628811 -0.12497868 -0.19472024 0.13295038 0.087183647 -0.051691469 -0.18167385 0.16889097 0.095409527 -0.20974122 -0.05121737 0.27588066 0.011568404 0.023622403 -0.037644327 -0.23446739 -0.081007108 0.098902673 -0.068552919 0.0285453 0.16472757 -0.049015522 -0.077170409 -0.14248532 0.055661436 0.074298881 -0.055425584 0.10682732 0.046377283 -0.049381644 0.10519058 -0.13922714 -0.066691689 0.25716758 0.015258565 0.19241291 0.1086163 -0.0025201708 -0.05394708 0.019062757 0.188352 -0.11773945 -0.086746275 -0.045410585 0.062682658 -0.055296775 -0.0028129236 0.0383352 0.12704509 0.025829362 0.10596085 -0.21182495 0.11989479 0.2755979 -0.10739987 -0.020708336 0.010515367 -0.050725605 0.08108522 -0.051748823 0.27271488 -0.018826446 -0.048217874 -0.083323561 0.046010606 -0.038556837 0.020394694 0.046791513 -0.10440865 -0.095494345 0.10069898 -0.056561042 -0.10385938 0.030236555 -0.40440544 -0.013990602 -0.018079458 0.048329063 0.070971593 -0.0063733552 0.10732375 0.14922462 0.045087583 0.1790936 -0.042332541 -0.11031787 0.12839758 0.014695377 0.084166937 -0.12338392 0.042791057 -0.13108653 -0.041651677 0.14889313 0.068535626 -0.12200271 0.13131331 0.078257166 0.074170895 0.093427174 0.10404219 0.028238805 -0.28245163 0.16090871 -0.039022498 0.038966175 0.026893824 -0.17543535 -0.019060118 -0.28570667 -0.0059979977 -0.056634218 0.015152029 -0.081237294 -0.039039917 -0.0067140753 0.2318536 0.074364975
446 0.040553596 -0.020542065 -0.0548921 0.038134307 0.30700129 -0.059593476 -0.16458231 -0.129078 0.053486433 0.011670211 0.066238046 -0.070562594 -0.084907748 0.18903758 0.10959899 -0.03764772 -0.15465583 0.19331725 0.077320151 -0.015172044 -0.039571039 -0.047983762 -0.046530701 0.096941233 0.026018394 -0.20914111 0.040967382 0.12124676 -0.091724813 0.021639764 0.13195965 0.054410972 -0.025476934 -0.003834483 0.079200022 0.16725123 -0.084869139 -0.010201018 -0.029330162 -0.027714005 0.12494697 -0.11741633 0.24341612 0.17223886 0.070807844 0.068923727 0.0026445896 0.14882125 -0.08175239 -0.076941766 -0.032563705 0.01063132 -0.029528098 0.013249256 0.050969247 -0.14958355 0.084243566 0.058116101 0.07512667 -0.077755503 0.031732257 0.11390966 0.13401873 0.18861201 -0.094224602 -0.073749825 0.003371279 -0.045183517 0.010582652 -0.12016729 0.080005258 0.10138889 0.16102029 0.042561773 -0.27804393 -0.059390202 0.069392577 0.18407659 -0.038095165 -0.04927741 0.1273838 -0.036885489 -0.009496659 -0.073097229 -0.22051094 -0.08332704 -0.053912804 0.079754077 0.026186405 -0.10386248 -0.09434323 0.11474262 -0.071083069 0.013981608 0.044677328 -0.023655394 0.031261086 0.049450766 -0.08799506 -0.13131404 -0.033597924 0.087828025 -0.095911913 -0.020648941 -0.024844076 0.089047246 0.037289843 0.095704615 0.10299923 -0.085422926 -0.087999493 0.17886163 -0.14250062 0.088784523 -0.061583918 0.12135675 0.018242795 -0.10236822 -0.072017513 -0.17854998 0.059048295 0.0070236754 0.1587256 -0.051305868 -0.1047442 0.058276251 0.14434342 0.11273541
167 -0.036323849 0.035859495 -0.17746454 0.05432317 0.26483417 0.047111735 -0.13049152 -0.073435001 -0.039846923 -0.021840513 0.11921252 -0.19230595 -0.15340021 0.069499478 0.097676754 -0.0044575031 -0.28730658 0.13042027 0.016628297 -0.17651227 0.040924478 -0.017915433 -0.037117481 0.022685224 0.048172481 -0.20637301 0.041502181 0.12628384 -0.0017622977 -0.052367937 0.062830761 0.090822309 0.030609855 0.059010789 0.065086529 0.1004508 -0.0057927328 0.12125827 -0.069583662 -0.074857563 0.024327697 -0.14897472 0.13769624 0.33164474 0.024436262 0.050433159 0.078905053 0.043997627 0.01067157 -0.016390748 0.037071124 -0.0042951717 -0.088300452 0.088686794 0.013876523 0.057456337 0.093577571 -0.059727136 -0.061733067 0.057333257 0.044171639 -0.1570891 0.014272145 0.12128455 -0.059164241 -0.0079813637 0.010708658 0.055676121 0.0056724008 0.050382674 0.14936559 -0.098316781 -0.083991051 -0.0074181752 -0.04741 -0.28763998 -0.053685997 0.070464604 -0.1412594 -0.075933814 -0.067434147 -0.19486158 -0.038113579 0.15964431 -0.28516814 -0.12382134 -0.020959625 0.035278998 0.19488975 -0.076583713 -0.075251095 0.28950188 -0.03181212 0.037473094 -0.16805571 -0.040225346 0.088440493 -0.11903978 0.055741228 -0.17975953 0.10989311 0.049366411 -0.03603711 -0.088108905 -0.094930232 -0.036082052 0.15201911 -0.12877262 0.0041330103 0.025795475 0.14778954 0.11989847 -0.078758709 0.0960586 0.013090462 0.03015298 -0.0058454974 -0.13998842 -0.048796263 -0.22861932 0.16481982 -0.080995068 0.20913045 0.068455316 -0.1572746 0.07799504 0.15368304 0.10711906
187 -0.039852623 -0.081502616 -0.096134804 0.13610749 0.15523213 0.17680719 -0.029707421 -0.19539805 0.085716367 0.019770907 0.04558913 -0.20043632 -0.10895207 0.12695529 0.04009096 0.013083731 -0.071861848 0.079289339 0.10810587 -0.03621069 0.03657864 0.24367073 0.01753455 -0.14336237 -0.13824198 -0.087967604 0.13094839 0.1780865 -0.18794362 0.095641308 0.17616211 -0.052486334 -0.14613014 -0.00069189561 -0.061282508 0.14813916 0.22922198 -0.11226434 -0.12130201 -0.049236022 -0.13858016 -0.11651398 0.048702754 0.26663268 0.014879741 0.22835946 0.16665247 -0.016445853 0.0052732676 -0.034179673 -0.059782919 0.02493945 0.10527573 0.073770508 0.17888358 -0.16937828 0.14087613 -0.0082731145 -0.031500973 -0.012380788 0.0480575 0.1785394 0.059404388 -0.019046327 -0.2889826 0.053988773 -0.14978313 0.10211848 0.26665038 -0.064428806 0.16480464 0.086046368 0.063634783 0.047099732 -0.24177513 -0.15885901 0.039525319 0.079533502 0.068735026 0.010183449 -0.010320022 -0.030668247 -0.063947201 -0.0016528352 -0.24816017 -0.17036514 -0.10780377 -0.12038053 0.21330522 -0.15061887 -0.1620474 0.068431489 0.041573461 -0.13681936 0.037307847 0.0072510461 0.047273554 -0.037196591 0.20173161 -0.15061848 0.12684721 -0.030800587 0.091934435 -0.014871458 -0.19705236 -0.065997072 -0.0041229795 0.081231058 0.1233366 0.077021159 -0.068763226 0.23199117 -0.094459161 -0.0070890626 -0.12532008 0.093854621 0.067533351 -0.18529588 0.13494796 -0.1708284 -0.063341238 0.16091251 0.062688164 0.042892084 -0.18641694 -0.035364211 0.086704597 0.070505321
406 -0.043135129 -0.039634641 -0.13152215 0.08620961 0.22525676 0.044819262 -0.33759919 -0.21247628 0.060073245 0.044991162 0.15070747 -0.066896468 -0.10730866 0.040296674 0.10226195 -0.12900728 -0.040106334 0.20633578 0.074211515 -0.005142245 -0.051193897 0.13317759 -0.11183227 0.044165913 -0.15773945 -0.22312248 -0.065698668 -0.018252403 -0.1191839 0.14260319 0.12511493 -0.17112797 -0.10342234 -0.024697773 -0.034676529 0.21506046 -0.0058520697 0.091421388 -0.018740062 -0.06948591 0.099568225 0.018469425 0.15063219 0.13036115 -0.040357444 0.035472009 0.13703047 0.080064848 0.032893203 -0.085749619 -0.1437954 0.074839979 -0.055661269 0.086527735 -0.0012362351 0.07830701 0.055646449 0.091203079 -0.067277394 0.0003527576 0.039466418 0.1698474 0.2625123 0.13823812 -0.02131149 -0.17756923 -0.065169811 0.071834616 -0.04906182 0.015849993 0.076028086 -0.053840209 0.010465791 0.030673174 -0.14346598 -0.26472971 0.064594418 0.14573649 -0.00056217646 -0.13707948 -0.18660557 -0.071832642 0.10296328 0.093791038 -0.31256956 -0.069399215 -0.037123751 0.0065007205 0.13758655 -0.14401329 -0.17618831 0.0072395504 -0.029153934 0.036334101 -0.13958161 -0.060722664 0.041735679 -0.17405003 0.026322246 -0.087417126 -0.019599233 0.060699128 -0.06772089 0.037118353 0.020947129 0.0053782105 -0.081505001 -0.08739166 0.19028747 0.0011050313 0.062133554 0.13004585 -0.16883589 0.073659196 -0.049315885 0.10097592 0.18277563 -0.2698034 -0.076258637 -0.1362754 -0.071734041 -0.054297734 0.15460697 0.15238118 -0.1123254 -0.086571231 0.024305614 0.21709055
325 -0.010510487 -0.036379028 -0.11703118 0.056381077 0.32837448 -0.049088355 -0.18530777 -0.14649744 -0.027991194 -0.10404264 0.024488026 -0.16801363 -0.17964534 0.19990383 0.018231329 -0.033759151 -0.092498511 0.11818241 0.012805883 -0.088643 -0.0098875156 -0.1294799 0.027462892 0.11273716 0.03774029 -0.23352696 0.066111222 0.13879305 -0.11937452 0.037033319 0.11087304 -0.047337182 -0.090261348 0.0070437412 0.10138012 0.10250376 0.076422326 0.0070273122 -0.014584243 -0.08005286 0.096892007 0.00037291204 0.096041948 0.18934433 -0.0018284539 0.0051747095 0.022633884 0.039474666 -0.047697954 -0.14618404 -0.011642134 -0.067250766 -0.25330964 0.15210392 0.027613997 0.053795818 -0.0063905781 0.052914251 0.023382124 0.055336084 0.0028159246 -0.037979875 0.15269718 0.14213297 -0.023613503 -0.080119528 -0.023837719 -0.11129457 0.018256489 0.072791502 0.12569217 -0.044788126 -0.048276898 0.02389567 -0.22319342 -0.11073937 0.1695835 0.1522963 0.028753445 -0.040169965 0.074139729 0.0289336 -0.028794482 -0.05328146 -0.24389952 -0.11557573 -0.027552567 0.023286041 0.088306822 -0.15666337 -0.045659747 0.031998411 0.015238404 -0.048580062 -0.10990898 -0.029314745 0.031237405 0.051433429 0.0041845934 -0.10288952 -0.014875452 -0.082319587 -0.046534829 -0.01409227 -0.03138987 -0.053791739 -0.026459184 -0.01603009 0.03993728 0.0065918127 0.0021013017 0.19390951 -0.11300563 0.12218478 -0.10394739 -0.0053894473 0.0022103505 -0.14789088 -0.1228398 -0.21229476 -0.0029190956 0.027691161 0.2957502 0.044796422 -0.0794058 -0.024127575 0.1416111 -0.01339909
294 0.026804015 0.080249831 -0.16580082 0.08120732 0.14515854 0.10501748 -0.058161944 -0.11657143 0.08014594 0.013135758 0.072771966 -0.061764009 -0.11110694 0.14633314 0.11289027 0.067853048 -0.10628466 0.17606506 -0.097082838 0.029307522 0.0040076547 -0.013607271 0.039528795 0.11073167 -0.08169058 -0.20198502 -0.087653354 -0.0055508818 -0.15619648 0.12362713 0.12025953 0.030860068 -0.037745133 0.026260491 0.047366649 0.070317008 0.12139939 0.0088503454 -0.046896771 -0.1150391 -0.0027649333 -0.07327491 0.1297453 0.22382666 -0.080122374 -0.034312759 0.14143823 -0.024486609 -0.052131228 -0.074783929 -0.19896539 0.0036098063 -0.17323776 0.027759464 -0.067532375 0.047174513 0.059602007 -0.094061881 -0.08482793 0.023452252 -0.039944358 -0.05546983 0.12350919 0.075679719 -0.14267215 0.0047568767 -0.045538407 -0.19522713 -0.062578484 -0.0042538941 0.12893809 -0.063861728 -0.046999518 0.15478927 -0.24505197 -0.20409133 0.06372425 0.16071326 0.056964234 0.01893289 0.25558814 -0.10964927 -0.16945764 0.057013463 -0.20414856 -0.062609322 -0.07908351 -0.0012028677 0.1340877 -0.16302782 -0.18791334 -0.015484811 -0.15586884 0.018867226 -0.063661963 -0.19252868 0.056701686 -0.032335002 0.06620612 -0.069954924 0.13656045 0.037348274 -0.11293435 0.02084454 -0.085765108 0.21192375 0.055837363 0.084679663 0.1195882 0.093620166 -0.10808662 0.10034923 -0.065488108 0.075177141 -0.23125906 0.011386993 0.21812995 -0.2091537 -0.14568074 0.017874621 -0.013149784 0.11351469 0.17810225 -0.072671533 -0.051849209 0.11857264 0.016068591 0.13306132
337 0.047765575 0.018481951 0.0071701379 0.042544659 0.37676319 0.0073013268 -0.12185112 -0.12762412 0.009908312 0.031792246 0.08412616 -0.0512801 -0.021895271 0.12431688 0.21160293 -0.04635527 -0.16108882 0.053011134 0.034297675 -0.050871771 0.0023520775 0.035161674 0.030355038 -0.091100678 -0.1707975 -0.12820698 0.065096244 0.10407359 -0.12305659 -0.047509789 0.045048885 -0.043477647 0.002499796 -0.05206763 0.11737565 0.20476659 -0.0028882646 -0.019104104 -0.16184689 0.010127286 0.013673951 -0.072351828 0.24315062 0.31448096 0.0027538126 0.023751808 0.0038763715 0.11308828 0.038737677 -0.12337346 0.034078326 0.14336155 -0.17446302 0.22087505 -0.045303792 0.0066772518 0.11278699 -0.093327202 -0.059887145 -0.061900131 0.035935909 -0.044851381 0.15858017 0.12721275 -0.008783076 0.01455094 -0.00047775992 -0.06656538 0.10510758 -0.17357637 0.19830564 -0.21228991 -0.064161569 0.074734047 -0.20438831 -0.14877863 -0.022692133 0.16385034 -0.091628402 -0.11551097 0.10210771 -0.026737461 -0.067580827 0.13481036 -0.15299764 -0.051219013 -0.0023409782 0.087792657 0.060631067 -0.14275587 -0.1553009 0.14403372 -0.061072327 0.0019806158 -0.18504442 -0.087012291 0.046852015 0.11032699 -0.14923853 -0.12516071 0.073087439 0.029170992 -0.0011212564 -0.047037076 -0.15810618 -0.10866817 0.053247813 0.11114259 -0.024456767 -0.10166852 0.058269434 -0.020177469 -0.10386291 0.053406101 -0.048092365 0.12678142 -0.045321759 -0.20165685 -0.086256579 -0.13042738 0.11112174 0.058018666 0.25446686 0.12310971 0.084242761 -0.0039060689 0.16958559 0.025528379
373 0.024875334 0.052250631 -0.15935911 0.035783634 0.23977809 -0.17577882 -0.095759794 -0.068098947 0.0013052408 0.10363413 0.095984198 -0.13243955 -0.21334419 0.068666689 0.18082157 -0.19553126 -0.23202305 0.14393079 0.048818659 -0.011833743 0.094010465 0.0063338871 -0.1828537 -0.05240836 0.075685121 -0.27097404 0.047785059 -0.067725882 -0.061999474 0.016161755 0.05214325 0.084839791 -0.13912529 0.063861527 0.23274173 -0.0060558817 -0.11235029 -0.0029821773 -0.0048507154 -0.0065451018 0.20494503 -0.063999005 0.15902102 0.13195254 0.13574851 -0.038660593 0.12443416 -0.015589862 -0.01885167 -0.17963752 -0.065582708 -0.06090929 -0.080838464 0.0039164647 0.058001988 -0.033873856 0.085743897 0.107582 -0.091591381 0.029327368 -0.01968958 0.0025927157 -0.040825117 0.11107242 -0.12372719 0.026054336 0.030514669 -0.014983058 0.22160506 -0.10796835 -0.044453584 0.02728162 -0.056278445 0.048469786 -0.067826174 -0.070210375 0.1085844 0.21100691 -0.090505049 0.037825238 0.0025095439 -0.22592573 -0.047676437 0.051272701 -0.18121277 -0.23594514 -0.13662836 -0.10434131 0.063686877 -0.04354658 -0.0474343 0.10199138 -0.26383901 0.039791077 -0.2262018 -0.048913807 0.1189175 0.023825152 -0.13172676 -0.13723129 -0.092620544 0.0016217151 0.033131305 0.023263775 -0.13184968 0.047306724 0.071290448 0.14581993 -0.027059631 0.19203793 0.17169683 0.069495462 0.0063738325 -0.095437221 -0.15659308 0.14872438 0.14703153 0.022691866 -0.075347461 -0.20846964 0.090420038 0.036574163 0.17147787 -0.061848737 -0.078152366 0.040108126 0.17486717 0.10795064
106 -0.05958765 -0.0079699215 0.054526836 -0.019844819 0.24404129 -0.059869107 -0.19807921 -0.17602535 -0.036081843 -0.14538488 0.0032121995 -0.21654427 -0.11804808 0.1818362 0.11314351 -0.0170781 -0.10199537 0.084971137 -0.0039402745 -0.017352398 -0.061377525 -0.035198554 0.004666789 -0.036590494 0.031163184 -0.23033176 0.012165099 0.045355536 -0.038163874 0.087590046 0.099599697 0.048934642 -0.042492639 -0.052564159 0.081322111 0.10940579 0.033761546 -0.075518146 0.0033265296 -0.07288304 0.047280475 -0.089489885 0.11115795 0.19642255 0.079404436 0.092728369 0.054181956 0.12414998 -0.020624606 0.003809222 0.027318101 0.023626972 -0.06429524 0.029024962 0.014541393 0.068564929 0.077698596 0.011241431 -0.10372134 0.02551673 0.027940169 0.017157927 0.13760228 0.098618343 -0.088238031 -0.010616024 -0.060159173 -0.022469912 0.10488955 -0.053134993 0.0325564 -0.065988347 -0.029510835 0.095166191 -0.1789486 -0.19979049 0.14244358 0.223042 -0.023122249 0.049274676 0.17555062 0.0028707457 -0.044880018 -0.049650192 -0.26224756 -0.034069251 -0.11341097 -0.0056396876 0.042951927 -0.20110175 -0.094589882 0.10753489 -0.042779982 -0.042928025 0.0017245377 0.051625639 0.066865027 0.021442186 0.0044296691 -0.21844479 0.0086892843 0.011356357 -0.10577694 0.005385004 -0.15042105 -0.021322925 -0.11437149 -0.0038950753 0.17862248 0.041272704 -0.050209798 0.089782976 -0.075258851 0.18760549 0.010766104 0.098348394 0.072004676 -0.037587442 -0.13143501 -0.19936343 0.1332967 -0.011163348 0.16092946 0.0058216886 -0.064643964 -0.11285543 0.14193107 -0.041311629
370 0.012011968 -0.022782195 -0.042745247 0.088194922 0.2611236 0.0089964475 -0.26403317 -0.13067649 -0.04171608 -0.064084157 0.097145669 0.0063776937 -0.10840799 0.093461454 0.034933601 -0.044546932 -0.17838985 0.18370749 0.010024016 -0.058557529 0.047894087 0.03718172 0.038239397 0.0090579325 0.079902604 -0.19924715 0.035952877 0.087819248 -0.097954296 0.011549142 0.081893638 -0.091763236 -0.079934515 0.035022978 0.10818575 0.038818996 -0.038923033 -0.0027489981 0.0024563831 -0.064600341 0.20048773 -0.041138038 0.072258912 0.21726133 -0.0022959809 -0.045496315 0.12076189 0.089112796 -0.027435141 0.015939064 0.034110084 -0.05306603 -0.18276398 0.023692384 0.087140881 0.039763048 0.099291526 0.076004133 -0.091595784 -0.061159484 0.024056654 0.062612973 0.17161518 0.10845107 0.026022309 -0.026483454 -0.040901881 -0.053923402 0.029074373 0.0086336946 0.15925235 0.092075892 -0.12596264 0.0059701935 -0.083444193 -0.18792096 0.15796562 0.21074772 0.045766499 -0.10115984 0.14671868 0.023704955 -0.083584175 -0.088841811 -0.25834239 -0.043473102 -0.068794675 0.10519214 -0.029419668 -0.16815165 -0.070027806 0.028188296 -0.069960766 0.011635731 -0.056435451 -0.020096421 0.017631283 0.075938851 -0.042081021 -0.10023887 0.11087213 -0.0087073371 -0.065422878 0.071288884 -0.0028731355 -0.023390915 -0.040061049 -0.0016824545 0.055069223 0.027340271 -0.0053677345 0.21834204 -0.023178881 0.079134703 -0.1053728 0.073271506 0.030886739 -0.050644416 -0.054670364 -0.20511885 0.029296426 0.10495228 0.1981754 -0.10386705 -0.057249095 0.095976055 0.051737715 0.059841856
230 0.079665825 -0.029955801 -0.068362273 -0.035082947 0.24680024 -0.0064747389 -0.21967883 -0.17110263 -0.00078494818 -0.05812164 0.058973476 -0.20815235 -0.13177978 0.10490301 0.067575954 -0.073724508 -0.25849921 0.011068197 -0.098907933 -0.040885128 -0.041965604 -0.0050656176 0.0043246015 0.039495692 -0.029086841 -0.18279001 0.051394973 -0.02460891 0.0032488445 0.012220751 0.15631488 0.013233037 -0.060737167 0.045636404 0.082587458 0.046529423 -0.025361834 0.0032298621 -0.006732991 -0.0079703433 0.068867184 -0.040196981 0.072520107 0.14824861 -0.012377326 0.12745507 0.027689034 0.057086222 0.0085520046 -0.024733655 0.0055539673 -0.071188189 -0.19345383 0.00482227 0.019080492 -0.03613976 0.10994047 -0.11679236 -0.028562475 -0.050182343 -0.010417463 0.0010850331 0.018607562 0.12498339 -0.065585099 0.058346022 -0.012980909 0.02307372 0.071938813 -0.13892481 0.13045767 0.0090256361 -0.048569936 0.10446071 -0.23847845 -0.3046667 0.10269064 0.16973811 0.030231839 0.064179234 0.16145976 -0.016268253 -0.088631444 -0.047200486 -0.37576887 0.0092962049 -0.017091611 0.048539262 -0.021038741 -0.13611007 -0.10338102 0.10227779 -0.023570107 0.089688532 -0.042376537 -0.019906813 0.1002418 0.0013420753 -0.013368028 -0.061842319 0.076656833 0.028753046 -0.11234278 -0.02557761 -0.13601056 -0.026171234 0.017476253 0.039335702 0.057735421 0.0480376 -0.14331158 0.12801138 -0.03920313 -0.0018018058 -0.077184133 -0.0014606082 0.077267513 -0.12766512 -0.1059242 -0.20335411 0.044818237 0.036768362 0.24049251 -0.035480022 -0.04464715 0.0087351426 0.080408961 0.065716684
53 0.033825148 0.023482651 -0.11882161 -0.00053603202 0.24389727 -0.047246072 -0.26015991 -0.015513014 -0.073484473 -0.043422922 0.047902528 -0.17643486 -0.13591485 0.089303307 -0.010801583 -0.14431112 -0.2367204 0.13405402 -0.0042156884 -0.095697552 0.066254944 0.012211264 0.0076508662 0.045039561 0.053343486 -0.20544939 0.009493622 0.060878791 -0.024060382 0.03257953 0.087182626 0.065846913 0.034620684 0.018810423 0.19222631 0.068160817 0.0086917747 -0.062323503 -0.05130399 -0.1662695 0.11819272 -0.088876389 0.086095653 0.22987875 -0.038868941 0.0028317519 0.095243298 0.053575531 -0.094827063 -0.044413745 -0.0099761356 -0.0093700076 -0.15455547 0.17933127 0.057922784 0.017021239 0.03493778 -0.022709059 -0.041968055 0.0082037784 -0.037762359 -0.031161258 0.21981901 0.15778317 -0.024846554 0.10193039 -0.065854557 0.026439425 0.015797319 -0.013619206 0.19103405 -0.010962564 0.044334736 -0.053124342 -0.15077658 -0.14188065 0.067226723 0.13382362 -0.0043680249 -0.030820636 0.14589679 0.003479122 -0.13491432 -0.076381341 -0.2524336 -0.12664019 -0.090854406 -0.009282276 0.076049715 -0.11047106 -0.09087462 -0.030181056 -0.055024166 -0.047527257 -0.030543953 0.019576248 0.084843852 -0.062256362 0.018665668 -0.20308156 -0.01529187 0.024750026 -0.035079889 0.0099627534 -0.073038004 0.049447346 -0.094596446 -0.05796317 0.092147522 -0.089693815 0.026920604 0.12499382 -0.089809433 0.062753007 -0.049737502 0.097942546 0.048693765 -0.11058749 0.008725659 -0.13471454 -0.049314979 0.083165355 0.16803233 -0.06273324 -0.024701195 -0.01783601 0.075492218 0.011084384
152 0.091098316 0.021975655 0.055805184 0.074681103 0.31299326 -0.13623667 -0.20493719 -0.11396959 0.023038771 -0.07132566 0.075662911 -0.26644436 -0.062297415 0.037889648 0.23883258 -0.024830647 -0.1652291 0.081498288 0.055015698 -0.12477205 0.059885807 -0.010985421 0.01196752 -0.0013178445 -0.078095518 -0.1804274 -0.050373428 0.061963454 0.028536547 -0.019842904 0.13389932 -0.020378202 0.022464773 -0.00069978932 0.08558844 0.16677377 -0.048057053 -0.035067275 0.0088548046 -0.05718597 0.089998297 -0.15267928 0.14369245 0.25862455 -0.056573965 -0.02241041 0.080519669 0.11201671 0.082430474 0.01587121 -0.051747344 -0.12986071 -0.11736187 -0.0068664309 0.012434094 -0.017892413 0.0051551643 0.085214511 0.038254224 -0.082882583 0.091023557 -0.031483687 0.10798883 0.2335746 -0.037201826 -0.011952785 -0.050326545 0.05445746 0.031241518 -0.059899576 0.21143022 0.0026567513 -0.030876266 0.0079303412 -0.21728572 -0.12697507 -0.0067083151 0.21064948 -0.085922986 -0.021167928 0.11299917 -0.0083144484 -0.10157018 0.040843066 -0.1734978 -0.042756721 -0.16657886 0.070253566 0.069314383 -0.041843668 -0.058483787 0.11372285 -0.12594649 -0.0065460638 0.052407291 -0.013108607 0.0088559519 -0.017073376 0.061511241 -0.022437625 0.10750273 -0.030618923 -0.074129112 0.096573442 -0.13500562 -0.052129123 0.024562163 -0.026758768 0.061863035 -0.015755627 -0.08643432 0.066208594 -0.12073291 0.052894387 -0.1101587 0.050370857 0.15554586 -0.29799217 0.035043325 -0.17344993 -0.03877626 0.095592439 0.14612223 -0.035810057 -0.061231337 0.0045338911 0.058078509 -0.075794548
54 0.045315947 0.15331927 0.17236182 0.088251807 0.32824862 -0.089483269 -0.15675141 -0.10515277 -0.01836898 0.0027223944 0.10469544 -0.058396425 0.044036325 0.087582849 0.055549748 -0.020893663 -0.23427109 0.33484358 0.064749733 -0.19612223 0.030407734 0.024993796 -0.0070140795 0.10682052 0.052620631 -0.14993866 -0.029713472 -0.016858736 -0.044062957 0.069155656 0.01035161 0.017272491 -0.11122534 0.083452895 0.064117655 0.22331069 0.09164422 0.025254315 0.019032624 -0.069372572 -0.084666677 -0.075582549 0.086251743 0.14704126 -0.026701292 0.010051161 0.014446571 0.12056953 -0.20879246 0.032873627 0.036225777 -0.20865333 -0.080834515 0.17920032 -0.014643486 0.066412263 -0.058359873 0.15522894 -0.1048932 0.012900507 -0.048377831 0.058307573 0.17844373 0.032126613 -0.10260281 0.051778011 -0.056705184 -0.058823686 0.053986453 -0.09379065 0.064751312 -0.022582194 -0.069071382 0.051837362 0.037070282 -0.023139024 0.16454358 0.16339843 -0.079232655 0.0012363396 0.17928161 0.036201809 -0.069799647 -0.0049476703 -0.30088335 -0.025631843 -0.17186788 0.031750958 -0.080619283 -0.11466866 -0.12964463 0.075219147 -0.051564079 0.01292228 0.040120672 0.023321606 0.037455719 -0.092479333 0.093845375 -0.24960801 0.15187305 -0.03010549 -0.22402881 0.021111656 -0.18131572 -0.048698705 -0.020552497 -0.032439008 0.02182932 -0.04863457 -0.13234712 0.10781767 -0.18080144 0.13475671 -0.12857567 0.044313587 0.093902253 -0.212669 -0.033810984 -0.15648305 0.00042502914 0.065767847 0.29577589 -0.065207712 0.03202939 0.0045746155 -0.0091626924 -0.018490843
469 -0.006459692 -0.017490441 -0.080438673 0.017859992 0.29653183 0.010994423 -0.13397266 -0.17502972 -0.081728533 -0.034610596 0.10791332 -0.096820861 -0.024922065 0.21217695 0.12375352 -0.019208768 -0.16560949 0.10768086 0.025068251 -0.051264469 0.13808531 -0.048905406 0.009448682 0.045937035 -0.0025196406 -0.17009921 0.004838747 0.031066921 -0.20344558 0.084168561 0.28924596 0.018074667 0.033850443 0.11342651 0.097290315 0.053600874 -0.0027550419 0.051513061 0.11291687 -0.053259078 0.077103302 -0.032778654 0.13444231 0.21413186 -0.0037549927 0.060378719 0.053603936 0.12056594 -0.007245665 -0.09689831 0.05067445 -0.045812096 -0.22500078 0.1597968 0.1071645 -0.056678928 0.081758469 -0.013850181 -0.085339271 -0.051499285 -0.0090723904 0.042665396 0.22223784 0.18615568 -0.04491169 0.059752926 -0.055344272 -0.10985231 0.079651147 -0.050848763 0.11481994 -0.038801339 0.026257411 0.064345315 -0.045314815 -0.20096177 0.12781109 0.081132099 -0.027297759 0.035699923 0.14018424 -0.010944778 -0.13922146 -0.091026388 -0.18319879 -0.097905852 -0.1294723 -0.0095233554 -0.0020526911 -0.12618966 -0.071249574 0.075803176 -0.030150887 -0.034213319 -0.083736964 0.044359084 0.08776655 0.0039236145 0.026599463 -0.053002842 0.087707609 -0.038936459 -0.051367451 0.001749243 0.0020896916 -0.075939067 -0.088485599 0.033102412 0.052092627 -0.050303686 -0.11325484 0.16248652 -0.1141458 0.23136407 -0.1086471 0.16673714 -0.026249768 -0.15087067 -0.10187447 -0.18743263 -0.01417438 0.040938631 0.18799432 -0.0029181179 -0.060908638 0.013648327 0.064471088 0.076260671
62 -0.051900074 -0.10040338 -0.070829496 0.095599629 0.22616316 0.031670067 -0.22350881 -0.069080859 0.0041654781 0.082320772 0.14347765 -0.18159677 -0.039772939 0.12659553 0.088732123 -0.014467007 -0.085437842 0.2208596 0.16370356 -0.078219198 -0.047692571 -0.034330375 0.034646779 0.047735438 0.11807682 -0.055946469 -0.078720734 0.13380636 -0.23792623 0.18097353 0.3207911 -0.10342117 0.0058057825 0.0077055842 0.0025970964 0.10413822 -0.18407656 -0.0081055453 -0.15654944 0.12041499 0.23578556 -0.061578061 0.14759134 0.2723262 0.055721134 -0.09422835 0.11008289 -0.095849767 -0.019504769 0.032556772 -0.14107537 0.05484372 -0.032908168 0.11047025 0.044164054 0.18879427 -0.044337563 -0.012663506 0.048957556 -0.10875108 -0.038482178 0.11012042 0.17716594 0.23825333 -0.16134104 -0.073471919 0.087723732 -0.051263373 0.0093797715 -0.040787175 0.081383303 -0.039602816 0.03943212 0.11435615 -0.085228249 -0.21806185 -0.0027319228 0.21435571 0.010869636 -0.068321705 -0.091177441 0.12960237 -0.0046633217 0.10484456 -0.32025632 0.03706168 -0.022790572 0.10880321 0.15773363 -0.1286923 -0.085908763 0.17509969 0.0098736351 0.10992433 -0.16368155 -0.03527366 0.11198378 -0.058066726 0.044049013 -0.087840475 0.07584668 -0.0017026549 -0.087251514 0.18900588 0.0011502198 -0.11547142 0.027139209 -0.095467083 0.12162212 0.020852225 0.071810022 0.022472644 -0.10490698 0.043308288 -0.015990447 0.25556183 -0.016162904 -0.16200799 -0.29328117 -0.28574792 0.08880417 -0.10327051 0.067987315 0.039794266 -0.081172228 -0.12751578 0.13261782 0.16015185
461 -0.032915182 -0.052946404 -0.063815728 0.077016525 0.22249053 -0.099918388 -0.1458879 -0.15835592 -0.060998324 -0.065598384 0.0016859546 -0.1146255 -0.053829834 0.11119413 0.059202664 -0.014206185 -0.24552327 0.20018129 -0.020845806 -0.12179105 0.015551735 -0.032095697 -0.068406276 0.034981214 -0.11138231 -0.17598084 -0.033919875 0.074266091 -0.064171664 0.04164765 0.16162805 0.0084033497 -0.0040829601 -0.017983319 0.17277604 0.043083563 0.036496807 0.08682818 0.031342518 -0.14537531 0.14561431 -0.036960043 0.1582015 0.21413241 0.0030581818 -0.039644066 0.1583399 0.0052620759 -0.055901151 -0.11504126 -0.098059893 -0.012787327 -0.16849366 0.074140213 -0.022192763 0.0094009163 0.09722396 -0.03743903 -0.10844722 0.00030011564 0.089667305 0.088266313 0.18119304 0.18132631 -0.058576319 -0.069685422 -0.025270063 -0.0472124 0.085534252 -0.034978863 0.066934183 -0.016248466 -0.047875531 0.019055333 -0.24584891 -0.16147412 0.046530839 0.17620352 0.030511992 0.0089065265 0.13579558 0.040122285 -0.015071791 -0.042943768 -0.22610292 -0.069042154 -0.1324244 0.15937376 -0.042467073 -0.086414322 -0.063375585 0.027710404 -0.12684824 -0.059373692 -0.075981773 0.073719673 0.013894894 0.038429081 0.025807301 -0.16058557 0.019172236 0.010455821 -0.020958578 0.02679904 -0.00021454535 -0.018084228 -0.065027706 -0.012329529 0.089101717 0.043035254 -0.040348124 0.12917382 0.006463279 0.17408988 -0.099745646 0.057349753 0.060399145 -0.12715937 -0.17361374 -0.15093984 0.01114915 0.056333832 0.17569496 -0.090657711 -0.066459455 -0.075573847 -0.0038233185 0.097966343
202 -0.0020715029 0.080891445 -0.017180806 0.10243666 0.31010097 0.027645569 -0.12129508 -0.049944729 -0.052911803 -0.038662579 0.095500693 -0.05990639 -0.041831605 0.22339343 0.12492473 0.016346307 -0.19941013 0.29686177 -0.044634201 -0.18885624 0.0812824 0.034286488 -0.069270127 -0.0061380919 0.047503345 -0.084689416 0.025315072 0.0009688962 -0.074735321 0.11700476 0.045827486 0.017556947 -0.042507585 0.024903001 0.1179589 0.1748345 0.060090739 -0.0035013421 -0.086429305 -0.05926165 -0.038789663 -0.087805539 0.11506062 0.11536331 -0.069602363 -0.034858819 0.068582848 0.031811256 -0.12145747 -0.056570161 -0.11741591 -0.11833298 -0.10229742 0.025673991 0.056439169 0.15456747 0.0068055145 0.0862526 -0.11205838 0.013603845 0.015992194 0.091341965 0.1190994 0.044685554 -0.11738915 0.0089386143 -0.064414963 -0.048747867 0.1027554 -0.13915406 0.17605169 -0.026033465 -0.15221187 0.061925948 -0.19924565 -0.15199797 0.10625387 0.098774701 -0.035001159 0.00011648441 0.17214853 0.0010011272 -0.078142226 -0.076706544 -0.071593337 -0.098264426 -0.047296531 0.10496363 0.0085821971 -0.15403831 -0.15252799 0.16742525 -0.10025086 -0.012828997 0.011008491 -0.069980979 0.1037266 -0.020438606 0.15025479 -0.17027125 0.15421364 -0.064348057 -0.14258872 0.086868085 -0.021973785 0.0076813307 -0.018896898 -0.0065378654 -0.013433854 0.044507112 -0.02532175 0.048526466 -0.08021348 0.16791247 -0.18244964 0.0687951 0.052565496 -0.17140731 -0.012070028 -0.21880859 0.013393283 0.14308688 0.19829676 -0.077031545 0.028666213 -0.079676472 0.055714183 -0.034721572
393 0.014405325 -0.022924259 -0.050818142 0.055489756 0.36395738 0.11448936 -0.057685774 -0.040858679 -0.066546962 -0.043570478 0.11366031 -0.10714248 0.0088640358 0.092215933 0.12039139 -0.053195242 -0.22845657 0.08162459 -0.01303505 -0.062187094 0.016464636 0.050848581 -0.014839036 -0.0085044205 -0.042333316 -0.26222274 0.1867937 -0.01773561 0.016531711 0.0067870007 0.1013144 0.0558796 -0.10698651 -0.047157571 0.14427987 0.059106782 -0.15051059 -0.01854131 0.011575684 -0.023768818 0.088598236 -0.13251995 0.16596419 0.28848046 0.051095277 0.067652464 0.16019867 0.09846317 0.087400608 -0.13218726 0.018518308 -0.14803113 -0.27450433 0.073296674 0.094302654 -0.11092258 0.15341485 0.069294691 -0.033465471 -0.070211105 -0.0029539256 -0.0022151754 0.082570881 0.067300424 -0.0062597608 0.034007356 0.011667398 0.033156142 0.063587792 -0.14623319 0.019554241 -0.02627063 0.029294783 -0.023916032 -0.29671636 -0.16088839 0.084836625 0.1858522 0.068848431 0.077133119 0.10856999 -0.042652804 -0.11186571 -0.028143141 -0.11808749 0.071261957 0.024425875 0.080405965 -0.064528383 -0.15775742 -0.12413899 0.18475828 -0.060666479 -0.12628451 0.019364532 0.0039850031 0.050741464 0.012521233 -0.037373722 -0.12888938 -0.031587828 -0.034173686 0.10742151 0.09662769 -0.05671978 -0.0064986697 0.064167574 0.097290687 0.19746675 -0.012760803 -0.025555881 0.13815136 -0.19043265 0.051827598 -0.10713099 0.046688296 0.029773174 -0.13925371 0.015225697 -0.11310401 -0.035632815 0.057996213 0.20226154 0.057189185 -0.0405588 -0.013548898 0.047282338 0.13873585
56 -0.034956891 -0.10824164 -0.15772375 0.023159659 0.30600134 0.058131907 -0.15091257 -0.088918999 -0.16113487 -0.036237005 0.16354187 -0.077043325 -0.14526604 0.073298685 0.13490495 -0.044249143 -0.30180806 0.040354382 -0.058463052 -0.10476304 -0.094534509 0.1254435 -0.12247173 -0.073081225 0.043151207 -0.14883016 0.035863243 0.18917739 -0.13832323 0.061180424 0.22291085 0.071303949 -0.22786492 0.012794477 0.23091306 0.0066338209 0.11036227 -0.058035169 0.03533246 -0.021071587 0.076262511 -0.16944771 0.060028393 0.19235313 -0.028567988 0.047809575 0.23188314 0.06531658 0.022167634 -0.08867538 0.054314762 -0.13472849 -0.11631605 0.015754974 0.0056745089 -0.098865449 0.14029223 0.067880444 -0.054747239 -0.11964063 -0.0027710169 -0.047040537 0.20632838 0.13366842 0.055373024 -0.043094605 0.036187217 0.090339392 0.10431905 0.059350885 0.20387976 -0.022690561 -0.084332705 0.041433241 -0.12265143 -0.070469163 0.062972926 0.10882595 -0.053231657 0.095828615 0.19207951 -0.10651468 -0.077407449 -0.054085243 -0.15248665 -0.14836161 -0.13982482 0.052533008 0.047532778 -0.015041772 -0.076231331 0.097085677 -0.013175009 -0.18208663 0.10430981 -0.1089199 0.083476312 0.12423186 -0.026414135 -0.054067049 0.029471684 -0.024641411 -0.037117179 -0.052807141 0.0088295443 0.073562853 -0.057860598 -0.085118338 0.043372016 0.0025044712 0.063483693 0.001687304 -0.057886146 0.12014625 -0.11369743 -0.04383304 0.19275588 -0.0070583052 0.016207157 -0.10718827 -0.10462937 -0.02057766 0.15772508 -0.023134004 -0.22298849 -0.052893568 0.10292942 -0.001461536
69 -0.086593449 -0.048856251 -0.17264906 0.05713857 0.021138828 -0.21811825 -0.17622985 -0.34194353 0.11339737 0.090062432 0.23884642 -0.078380398 0.057186227 -0.040147286 0.080428727 0.02108562 -0.2613242 0.16313821 0.024632478 -0.064734779 -0.08271084 0.078430347 0.090568244 0.18154982 0.0096750436 -0.27674466 0.0039028595 0.24023224 -0.17730294 0.24137756 0.11666792 -0.15295969 -0.15443 -0.20240483 0.040993202 0.081340343 -0.10059539 0.062809654 0.082898468 0.079490788 0.15989773 0.070775829 0.09544158 0.32158536 -0.070436969 -0.082431674 0.11251877 0.03658177 -0.13572508 0.013633826 0.09151575 0.057042543 0.17567357 -0.31882805 0.036926724 0.11888108 0.023170708 -0.22324462 0.0052213408 -0.092661604 0.12104562 0.16804047 0.19460709 0.0062828097 -0.16061032 -0.20300826 -0.098974302 -0.14277628 -0.00090567343 -0.071366295 -0.012020199 -0.093010738 -0.12509346 0.096292786 -0.18484208 -0.30778563 -0.025421638 0.092392199 -0.054674145 -0.069086052 0.13117966 -0.044233739 0.15602222 -0.0043318542 -0.4839308 0.035722472 0.11836935 -0.0016166588 0.13441786 -0.25099373 -0.0082161669 0.15850928 0.093144678 -0.039512631 -0.039924271 0.064335093 0.14233011 -0.13744065 0.10802916 0.08215607 -0.011040112 0.069822259 -0.21334738 0.051625259 -0.050635807 0.12556303 0.0078907702 -0.084977955 0.047170818 -0.2162016 -0.043150984 -0.031198079 -0.16986533 0.026842121 -0.15650949 0.18871377 0.021485025 -0.10384539 -0.07001029 0.010569407 0.042286921 0.14123993 0.22875625 0.037707414 -0.13542101 0.16067508 0.25354013 0.050241094
379 0.0084160715 -0.005366418 -0.064978041 0.025467793 0.30569771 -0.017252145 -0.15262486 -0.1521368 -0.061716899 -0.15233463 0.076588422 -0.1453101 -0.064532898 0.16918921 0.016135922 0.035310298 -0.096048929 0.16379622 0.042092163 -0.10180236 0.044545904 -0.0062322645 0.037896365 -0.0011177523 0.070451707 -0.16887051 0.07032343 0.065664083 -0.027854588 0.10394284 0.11603802 -0.098754726 -0.039706789 0.14367379 0.1538254 0.065625548 -0.037074883 -0.0065523088 -0.046699319 -0.067729071 0.10727785 -0.02913061 0.17159009 0.23386747 0.016885664 -0.05467958 0.059107333 -0.008161502 0.02811878 -0.044869576 0.034414418 -0.080993973 -0.23248629 0.069651514 0.088659309 -0.068631634 -0.039130632 0.059609547 0.028534345 -0.016877908 0.043313306 -0.026968015 0.1457804 0.20233412 0.0042188629 -0.0520018 -0.012727924 -0.061484642 -0.011983794 0.0059053632 0.12294415 -0.023996284 -0.046972826 0.060922585 -0.22593102 -0.086020701 0.089638144 0.16477117 0.037482351 0.02902714 0.15332344 -0.10275254 -0.12309615 -0.012002929 -0.18916848 -0.082471147 -0.083781093 -0.020684486 0.031870764 -0.032859325 -0.056735437 0.036898158 -0.079990238 -0.0587602 -0.044346556 0.10675521 -0.045067482 -0.035881758 -0.050396189 -0.13801181 -0.0017468245 0.076761819 -0.09033341 0.082213558 -0.14536084 -0.036333688 -0.028890256 0.044802055 0.020267509 0.01547032 0.030849088 0.11853304 -0.13941073 0.11032396 -0.10362183 0.13108025 0.044857837 -0.11589385 -0.032096066 -0.24922116 -0.026243819 0.12398929 0.28581372 -0.04349466 -0.068740025 -0.067488357 0.13457011 0.033211898
235 0.096996985 -0.059572682 0.0096510118 0.042159747 0.292413 -0.011574497 -0.1877401 -0.12032434 -0.079729743 -0.089267947 0.051593412 -0.034160335 -0.11165582 0.14386874 0.11031169 0.00559043 -0.21035096 0.17909142 0.029926557 -0.055521429 0.0051338552 0.0018892847 0.1347449 0.084188282 -0.059939671 -0.19249512 -0.015434664 -0.076692343 -0.046566375 0.074651994 0.067458905 -0.0066610444 0.065306827 0.14541854 0.17222917 0.16522168 0.10184929 0.00776636 -0.028511785 0.020949822 0.11117432 0.0027689189 0.16313665 0.2284696 0.029277828 -0.005192677 0.054199371 0.13373978 -0.0070300871 -0.098266885 0.0037778472 -0.016273923 -0.16073352 0.16070884 -0.062675446 -0.0028541519 0.13825551 -0.0046759527 -0.091491282 0.0235325 -0.0046669114 0.0028017722 0.12879634 0.11560693 -0.043404657 0.0070369137 -0.001042441 -0.059009209 0.099772483 -0.03742424 0.054878742 -0.022490423 -0.003195208 0.064708039 -0.19673112 -0.18573453 0.15767089 0.22939886 0.023773689 -0.10669537 0.14979395 0.10777772 -0.085782938 0.0099925632 -0.27688932 -0.10145119 -0.12003921 0.065636516 0.050402842 -0.090919584 -0.078640662 0.062328279 -0.11610451 -0.038543042 -0.04499761 -0.032385815 -0.00075176853 -0.0090257293 -0.06322097 -0.12451799 0.10177863 0.003527907 -0.01113179 -0.030248411 0.023640936 -0.082934871 0.064576864 0.025247278 0.18905993 -0.019184237 -0.008141635 0.14799066 -0.094690785 0.11610358 -0.097261228 -0.059513897 0.064298809 -0.091828585 -0.03581392 -0.17604306 0.052600451 -0.0060255737 0.16048077 -0.087943383 -0.10061642 0.021666972 0.16238548 -0.0013685562
90 0.026590738 0.01254537 0.094830759 0.050024543 0.18858698 -0.1008926 -0.068209305 -0.13455021 -0.067774199 -0.026101684 -0.038079757 -0.20214857 -0.14769833 0.15356621 0.11637922 -0.027859 -0.24731743 0.15407404 0.011858527 -0.15654072 0.022628432 0.017238457 0.0083849374 0.016339632 0.004379224 -0.25357696 0.028723611 0.071749814 -0.0046267998 0.049191453 0.092801988 -0.075400524 -0.0096583609 0.039433185 0.12952125 0.069067977 0.072230563 -0.032514092 -0.030271422 -0.043165818 0.19321121 0.011502084 0.18315606 0.095573671 0.0037812158 0.055077769 0.11068614 0.09292639 -0.042472556 -0.027824236 0.14290611 -0.043419451 -0.12357803 0.072034165 0.16735308 0.0204028 0.13389218 -0.056213509 -0.048278596 -0.077562131 0.0050504138 0.011485972 0.1376991 0.15858354 -0.034442063 0.011788519 0.037583284 -0.06491185 0.02709722 -0.082075752 0.2043985 -0.01672229 0.0028065206 0.071292996 -0.23971868 -0.15073028 -0.00054117182 0.19281794 0.0060912701 0.035476048 0.14047323 -0.041020356 -0.14633507 0.052876458 -0.17872433 -0.042007271 -0.12611966 0.00032890157 0.012108296 -0.14447582 -0.055062905 0.10774633 -0.085558228 0.061784603 0.012460699 0.064686149 0.11735635 0.0022645164 -0.020459624 -0.064113148 0.066141061 -0.018341713 -0.042984154 0.11839653 -0.071153745 0.0081395712 -0.10593263 0.0065834387 0.043244395 0.010028465 0.055887416 0.15230261 -0.16553654 0.010284132 -0.07621713 0.086226307 0.10619536 -0.25370088 -0.095166273 -0.24022567 0.017870728 0.10989322 0.20198245 0.026373597 -0.052791603 -0.066648714 0.029985441 0.056023695
251 0.004650027 -0.032298006 -0.065643989 0.022822103 0.28266659 -0.1127269 -0.11637761 -0.074274413 -0.1058986 -0.0087556215 0.037902884 -0.15529051 -0.15885417 0.11585676 0.14708094 -0.055254441 -0.24304458 0.07806807 -0.032829966 -0.013159635 -0.10795683 -0.011072858 -0.021449177 0.086455636 0.037727341 -0.16809227 0.042128243 0.039849527 -0.14819679 0.0099074431 0.13952656 0.031962235 -0.039769493 -0.0062950756 0.11962666 0.075140215 0.10386954 0.020128306 -0.010123089 -0.068522222 0.032683127 0.0055863219 0.24340877 0.22181921 -0.033677198 0.065802231 0.098656043 0.060156047 -0.086922184 0.0022302824 -0.0061427089 -0.074853078 -0.13412857 0.14956747 0.075710937 0.01697615 0.072907425 -0.060161542 -0.026886223 0.015128308 0.012502261 0.085730135 0.039589539 0.077559441 0.012972442 0.046742484 0.020454288 0.032801729 0.016508188 -0.010499259 0.14049475 -0.075901888 -0.034675185 0.016578959 -0.164444 -0.14908879 0.059677862 0.19229922 -0.079725385 -0.028435068 0.21968389 -0.077801935 -0.11661541 -0.036413163 -0.18808065 -0.10243902 -0.057456959 0.042047184 0.052739538 -0.10857885 -0.025955001 0.11802369 -0.15520017 0.012307156 -0.087631106 0.05987633 0.11360459 -0.051264897 -0.0397457 -0.12785345 0.066671781 -0.054640066 -0.083186284 -0.0093971193 -0.05896296 -0.0062418515 -0.079818405 -0.07961569 0.099709325 0.07293205 -0.038257144 0.12188145 -0.15722314 0.1549903 -0.14425996 0.014686169 0.091245234 -0.095715255 -0.10801757 -0.18672043 0.097699493 0.018841291 0.22699986 0.013613624 -0.0089392327 -0.05353494 0.17045832 0.028382909
140 0.076087445 0.0555165 -0.17254265 0.18794411 0.39108515 -0.017562047 -0.19085759 -0.058164082 -0.13212463 -0.027195293 0.096108362 -0.13162874 -0.018993299 0.19644617 0.066434719 -0.03469982 -0.24401286 0.23354326 0.034080591 -0.0016209551 -0.0085086813 -0.016893722 -0.039772037 0.027596654 0.12622367 -0.14733642 0.042232029 0.062744692 -0.22249161 0.079710446 0.1779512 0.0077508097 -0.032602467 0.036902338 0.11039744 0.14560039 -0.066544861 0.032258149 0.039645687 -0.0061008926 0.0066393581 -0.036610428 0.14077316 0.075318627 0.024449605 0.061961547 0.042559009 0.065214314 -0.088903047 -0.06101349 0.022008298 -0.12120027 -0.22154436 0.070242047 -0.0076100789 0.10097609 0.026998339 -0.029066266 -0.0055982266 0.0036119486 0.026523987 -0.010651711 0.044726502 0.22969961 -0.089976326 -0.051534306 -0.015640115 -0.011914679 0.059642918 -0.013468463 0.20519359 -0.020955432 -0.037860181 0.068206407 -0.19475368 -0.20999955 0.079539485 0.17381606 0.0246689 0.05734152 0.097029582 -0.010115219 -0.091155544 -0.091352478 -0.23748286 -0.03443848 -0.077751815 -0.12013329 -0.079416543 -0.073426709 -0.02861814 0.1788943 -0.10395847 -0.072280869 -0.021295428 -0.0047151712 0.043685604 -0.0057248808 0.053915594 -0.17827444 0.053650863 0.027814908 -0.040314272 0.031401005 -0.013867129 0.029589346 -0.03405137 0.047210209 -0.01102518 -0.054219469 0.07645651 0.091600381 -0.22762103 0.061285775 -0.14241281 0.11790577 0.02681802 -0.06795036 -0.082792759 -0.14667855 0.080148391 0.026391694 0.16942975 -0.043684501 -0.090542443 0.032876078 0.095046856 -0.0026755221
180 -0.063559279 0.034403745 -0.034878504 0.044822615 0.31451309 -0.10460708 -0.32169521 -0.15438153 -0.044601873 -0.10252329 0.028194262 -0.14008453 -0.12528299 0.089659438 0.048103385 -0.02150894 -0.15762381 0.052124131 -0.0294274 -0.028060125 0.0023936436 -0.0010950238 -0.012056581 0.020558454 0.017476855 -0.21676552 0.066597044 0.16458331 -0.12108234 0.049259998 0.20109247 -0.086888015 -0.072937466 0.090821713 0.22703634 0.037174568 0.024624767 -0.00094445859 0.037580255 0.012950783 0.089898482 -0.002552029 0.12753789 0.21554871 0.016712287 0.12964924 0.024270646 0.046944119 -0.07685443 -0.061509605 0.06736283 0.054011554 -0.15495615 0.11544902 0.038800776 -0.025244717 0.098390527 -0.020868232 -0.085619926 -0.09788882 -0.076744743 0.11518067 0.0743258 0.18214913 0.017712997 -0.00090056285 -0.026918082 -0.1574578 0.050816804 -0.029050805 0.16853517 -0.036875989 -0.10191406 0.0014462065 -0.056539562 -0.1400401 0.058347069 0.17655268 0.055368349 -0.008822103 0.10234512 0.0016982229 -0.029655583 0.0019106808 -0.19075455 -0.23461212 -0.031935859 -0.050144527 0.073458821 -0.10840782 -0.046129216 0.073095389 -0.060316917 -0.11369924 -0.074507035 0.07357423 0.15937051 0.079950131 0.0070977313 -0.19422437 0.08782284 0.015183639 -0.052150164 -0.011796032 -0.025235945 -0.099210121 -0.081291899 -0.050090656 -0.0083812578 0.061035819 -0.017639328 0.17600368 -0.15671484 0.11844648 0.053694755 0.058568422 0.0030774174 -0.090843499 -0.11760962 -0.27915105 0.020148192 0.13659625 0.16913921 -0.044850379 -0.1317607 -0.03255143 0.094431087 0.050355814
35 -0.040351316 0.019129978 -0.076498829 0.0047860225 0.19628182 0.039572977 -0.25728354 -0.069503114 -0.13027202 -0.039745986 0.041229654 -0.27740139 -0.15917377 0.2342 0.12713856 0.045981046 -0.15325727 0.17956336 0.076554276 -0.061502781 0.071418121 -0.045828879 -0.12243535 -0.020238727 -0.068290941 -0.23444135 -0.017780298 0.01605103 -0.065001734 0.0044611511 0.096249118 -0.095376037 -0.069395028 0.079988234 0.17597443 0.094154432 0.010137161 0.027460296 0.12434784 -0.057943832 0.014809026 -0.072191246 0.17305569 0.18142228 -0.056329478 0.050220829 0.0091715949 0.010938372 0.015612034 -0.14773813 0.024055788 -0.0098001985 -0.078818664 0.18543892 0.015464065 0.016164616 -0.0021353906 0.0819396 -0.05883741 0.046208132 0.098441578 0.11277407 0.16054408 0.17239416 -0.004453172 0.038725544 -0.066606395 -0.0057627149 0.054706983 0.022981899 0.11381701 -0.0034616457 -0.023761852 0.075106584 -0.21023305 -0.17370892 0.020265134 0.042650685 0.041973144 0.060756259 0.14789371 -0.11350696 0.059277866 -0.097986385 -0.18039203 -0.042016864 0.064924926 -0.061496861 0.0015572003 -0.14811431 -0.059984934 0.12596746 -0.17204811 0.023212457 -0.0023605577 0.11373115 0.023378469 0.069319002 -0.030631112 -0.1056994 0.10456134 -0.028859286 -0.053817578 0.08957468 -0.063775666 0.08452379 -0.013984971 0.04240603 0.12913337 0.088295482 0.0013897255 0.10582524 -0.091125004 0.17244731 -0.11855882 0.052763309 0.053176221 -0.20082752 -0.09395346 -0.16386648 0.079951972 0.14311562 0.23956865 -0.10953135 -0.001963082 -0.058942709 0.046318918 0.069778658
3 -0.06581521 0.05262702 -0.039395262 0.06167471 0.32682899 0.030045174 -0.2218301 -0.099363558 -0.074411355 -0.076705523 0.021127792 -0.086045191 -0.051153548 0.046585485 0.075925231 -0.057628959 -0.15320219 0.14303121 -0.094150707 -0.07121221 -0.03105074 0.021557124 -0.077254258 -0.02984494 0.034018025 -0.16627869 0.033582062 0.08107017 -0.059547611 0.081827596 0.083619475 -0.0046191309 0.014507796 0.041539405 0.14863569 0.06988325 0.09428861 -0.041382834 -0.033177316 -0.10645594 0.066114567 -0.015877452 0.18270917 0.24283727 -0.010049622 0.042092498 0.019910598 0.061770417 -0.049876045 -0.03393247 0.005096565 -0.057455834 -0.15724505 -0.082635514 0.092557758 -0.018404081 0.016792987 -0.016369184 -0.13428408 -0.0050625824 0.040533941 -0.012482447 0.028732065 0.19229165 -0.0028359327 -0.039301541 0.035979241 -0.035510659 0.074258111 -0.0050877193 0.074512914 -0.010556963 0.0015522594 0.068252914 -0.18545522 -0.12958875 0.10551085 0.12349626 -0.068196401 0.0017010913 0.18993263 -0.06935662 -0.11313599 -0.16614829 -0.22071365 -0.072769314 -0.097777247 0.044171922 -0.029241914 -0.13355845 -0.035183478 0.082238026 -0.12058896 -0.037696842 -0.082386419 0.082946166 -0.028609248 -0.029231308 0.0057807001 -0.22527826 0.013515289 -0.10085185 -0.063710988 0.050985228 -0.087083325 -0.079509616 -0.028115215 -0.034962986 0.082249336 0.15748465 -0.051353909 0.16681409 -0.15851429 0.09964788 -0.068743721 0.10899922 -0.012497872 -0.15842892 -0.034618359 -0.19740881 -0.0082142735 0.014828544 0.19415072 -0.037656337 -0.037481908 -0.1027679 0.072629012 -0.039169282
51 0.026125006 0.064882323 -0.13073146 0.024468875 0.21246342 -0.064300016 -0.18889879 0.018494496 -0.043157209 -0.068482541 -0.022051739 -0.18228443 -0.11332054 0.044444222 -0.049023617 -0.027718714 -0.23073833 0.11418011 -0.043891091 -0.042734604 0.0055066519 -0.035795186 0.008816204 0.023819739 0.041450575 -0.24674964 -0.030911071 -0.0091718854 -0.093817234 0.045710161 0.055248424 -0.098641373 -0.049090158 0.071512923 0.045749281 0.062950119 -0.0043690898 -0.048602212 0.0020332653 -0.073741049 0.17113744 -0.053202476 0.1393663 0.25493509 -0.0098248171 -0.024167994 0.1146761 0.10248131 -0.024872005 0.02352526 -0.018494321 -0.013441928 -0.16238336 0.087849431 0.046639696 0.0040676598 0.16010432 -0.062636502 -0.084986024 0.071208999 0.083829738 0.13195723 0.09854307 0.12083703 -0.038334582 0.015229624 0.017847029 -0.027452493 0.024039667 -0.080732912 0.086953036 0.00057147542 -0.042080943 0.034117419 -0.19634588 -0.25356337 0.061476521 0.094378568 -0.026186431 0.077102043 0.094778366 -0.063611701 -0.013378596 -0.034860563 -0.21408904 -0.055934146 -0.052706689 -0.11518084 -0.047592551 -0.15711701 -0.28727999 0.074240513 -0.1556357 -0.0088589322 -0.062944263 0.046634201 0.059455559 -0.022449823 0.017053077 -0.16535981 0.03084423 -0.053393777 -0.012312331 0.022987494 -0.10693312 -0.016626865 0.084753901 0.1022492 0.088572867 -0.010714696 0.0080338707 0.05330332 -0.15428835 0.12703502 -0.17477188 0.042590801 -0.0068318993 -0.10933909 -0.067147389 -0.124817 -0.015728567 0.045658112 0.25647986 -0.015729932 -0.0097470991 -0.042569704 0.22979966 0.034928907
173 -0.003616255 0.041297209 -0.0010405695 0.0032811493 0.21456572 -0.051734891 -0.20865907 -0.049272113 -0.060910542 -0.17250651 -0.025343874 -0.12932494 -0.078610517 0.15041928 0.090912312 -0.0457168 -0.18225001 0.20186785 -0.041816454 -0.1464162 -0.044973571 -0.0362118 -0.072042659 0.095531821 0.010987447 -0.22003065 0.046763811 0.13465144 -0.0005096689 -0.010273911 0.10478178 0.044272482 -0.023033503 0.060396317 0.19222021 0.069858231 -0.042516392 0.086709224 -0.045637455 -0.095568992 0.091493465 -0.026598142 0.10808165 0.2987265 0.0064316802 0.087374099 0.043226179 0.04835888 -0.028791361 0.04406137 0.06491822 -0.018081849 -0.076281913 0.082733929 0.028791385 -0.046128348 0.097773761 -0.07765729 -0.12683111 0.019900206 0.10988901 0.052579697 0.082863539 0.18479212 -0.055874422 0.036213573 0.0016289348 -0.11368685 0.040599737 -0.024692735 0.089322947 -0.0040999819 -0.028693259 0.088984013 -0.18271294 -0.15768582 0.038894869 0.10451111 0.014147743 -0.018430937 0.11760563 -0.058962442 -0.14944375 0.0063739815 -0.25297168 -0.12848638 -0.19134626 0.094296053 0.02615696 -0.14266273 0.010989334 0.096200615 -0.11947378 -0.01805437 0.0019063674 0.041657999 0.039793238 -0.084501676 0.011728947 -0.088840589 0.092872739 0.029626021 -0.067049421 0.02507939 -0.15138635 -0.011695973 -0.056869209 0.026880145 0.090187058 0.039464127 -0.025895193 0.12079808 -0.046460573 0.043589167 -0.014443966 0.010378018 0.088198274 -0.069114983 -0.10701624 -0.2291995 -0.033962142 0.11680286 0.23394138 -0.085750952 -0.041833166 -0.0056926073 0.12905918 -0.064858705
32 -0.32760435 -0.22408664 -0.25952825 0.11856397 0.3496595 -0.054575905 -0.1975148 -0.079144843 0.085053585 -0.05240161 0.1057516 -0.30618131 0.23902442 -0.038851552 0.032434333 -0.083650343 0.010132283 0.062102385 0.31723106 0.0017083137 0.13698834 0.24910389 -0.051245883 -0.32785425 -0.01191937 0.14066032 0.013463963 0.28451547 -0.13293086 0.18614213 0.16038997 -0.14269565 -0.36837268 -0.12519625 0.05818522 0.22906843 0.19050577 0.066308655 0.18552656 -0.089361705 -0.047714792 0.0095517514 0.22472784 0.38903007 -0.022544075 0.036311422 0.14994437 -0.23411369 0.17652012 -0.091785461 -0.15496831 0.039658356 0.080938645 0.32369822 -0.0067558978 0.16498572 0.12831984 -0.11063696 -0.12172102 -0.25471005 0.09069176 0.12586276 0.16141161 -0.22147286 -0.089377634 -0.072192743 -0.052348234 0.48153219 0.13449544 0.12448835 0.20596366 -0.15092547 -0.032580461 0.077978827 0.052747257 -0.14680707 -0.15848368 -0.062959284 0.05175288 0.18969469 0.016026365 -0.26607653 0.03104292 0.054060284 -0.24348199 -0.1454702 0.087603852 0.32413042 0.097949058 0.12606363 -0.26676947 0.2048229 -0.086571008 -0.0024369273 -0.047425866 0.13668127 -0.0039537647 -0.15938769 0.074126683 0.038386475 -0.003837462 -0.11106822 -0.1545053 0.048979305 0.091344431 0.0027533323 -0.097072251 -0.16328172 0.12165689 -0.093578294 -0.071438752 0.11856219 -0.18430395 -0.015914517 -0.17633098 0.074220315 -0.15515843 0.028744617 -0.091648355 -0.23608224 -0.22491121 -0.076786622 -0.063166805 0.097600006 -0.14576013 -0.084125109 0.059250962 0.33692724
83 -0.099251613 0.012870041 -0.094454929 -0.11176096 0.17348936 0.038452495 -0.18671905 0.010309008 -0.0033529445 0.11364201 0.040348046 -0.22112137 -0.10920088 0.054679528 0.10538465 -0.056638557 -0.046250753 0.20575087 0.071798213 -0.17226832 0.083640173 0.027282612 -0.12783721 0.074953116 0.10603498 -0.077782199 -0.024883337 0.091869682 -0.057818182 0.087963343 0.0072470848 -0.058727495 -0.15092875 0.071634822 0.19230056 0.14252311 0.024396885 -0.045524634 0.034787517 -0.014271054 0.11688791 0.0060820184 0.15617429 0.24385096 0.0078871744 -0.070562743 -0.01942898 0.1196238 0.059275463 -0.18299034 0.080112889 -0.062879555 -0.26235074 0.051628575 -0.040801726 -0.11176315 0.27243313 -0.010112905 -0.012189902 -0.007460224 0.0046942183 -0.0036643748 0.029561806 0.12570998 -0.10500316 -0.046302754 -0.032658719 0.19589458 0.12273289 0.098939665 0.068507001 -0.065885171 -0.035666477 -0.0025342316 -0.24486382 -0.16645035 0.11239912 0.25319269 -0.031050125 0.14597918 0.22753288 -0.048553031 -0.081264898 -0.084985748 -0.1900654 0.01332409 -0.038149055 -0.065899484 -0.084256545 -0.037030272 -0.16086952 0.17410368 0.044021223 0.084969275 0.11854167 -0.044692874 0.078820452 -0.13018082 -0.020787632 -0.18741715 0.032933053 -0.054689229 0.014395875 0.18849152 -0.021727329 0.018075636 -0.059316572 0.11234697 0.057924803 0.044885717 0.0063544703 0.11452917 -0.21043573 -0.015105518 -0.080320731 0.054921802 -0.0059999153 0.016304582 -0.020873727 -0.22143789 0.094004385 0.046895266 0.26634517 0.0041575632 -0.029796666 -0.013817813 0.16411503 0.043928348
477 -0.019177889 -0.073492616 -0.25818479 0.37199181 0.11405189 -0.16826989 0.19873427 0.066318884 -0.038898874 -0.2640864 -0.090481929 -0.090283521 0.011567286 0.14651029 0.010674927 -0.32623848 -0.049124382 0.2538096 -0.084659249 0.1045872 0.17021683 -0.047256779 -0.055101085 0.094122998 -0.012224028 -0.22840293 -0.081207916 0.042697471 0.054670934 0.26393557 -0.070058167 -0.040210083 -0.011064442 -0.1624077 -0.091698177 -0.15192129 -0.065284789 -0.096436024 0.045332249 -0.07485263 -0.077866778 0.17844833 -0.098117389 0.61719632 0.01671911 0.10327464 -0.17128727 -0.074726179 -0.20256171 0.19966935 -0.041199878 -0.20473121 -0.18283136 -0.13971508 -0.20798562 -0.046319094 -0.065618336 0.18395014 0.15502356 -0.39505109 0.47591218 -0.1486595 0.0018933949 0.050389942 -0.13128589 -0.044960354 -0.045352373 -0.061615277 0.18252632 -0.17368899 0.073060609 -0.1128312 -0.12720236 0.26324594 -0.046506524 -0.33093694 -0.10666184 0.080799043 -0.039168429 0.30510691 -0.16623272 -0.1249418 0.072780617 0.073517606 -0.041798905 -0.36834845 -0.24523546 0.034951523 -0.0069665238 -0.44534719 -0.10214654 -0.032436159 -0.32628456 -0.058106106 0.15708718 -0.014408926 0.13848326 0.078172967 -0.018882781 -0.25768182 -0.12972024 -0.039382759 -0.053251076 0.039965298 -0.12788637 0.30087644 0.13405302 -0.046537306 0.14558984 0.22223485 0.081543021 0.044257954 -0.077835754 -0.23189496 -0.23227037 -0.069733873 0.10468861 0.034275733 -0.15287629 -0.27703044 0.10591594 0.11109726 -0.040036146 -0.13590439 -0.17155838 0.018067138 -0.081773289 0.12235371
231 0.0053264773 -0.05623636 -0.028258651 0.034321964 0.24885386 -0.06427069 -0.21653488 -0.1484334 -0.007838415 -0.0099496869 0.073254406 -0.087520033 -0.12723947 0.092615828 0.10802125 -0.0011990947 -0.15763521 0.24298166 0.078266136 -0.080888286 -0.018931048 -0.083925776 -0.0019243649 -0.0076579875 -0.045199834 -0.22568224 -0.11383174 0.045640681 -0.10122038 0.025258478 0.13663946 -0.04255731 0.044275582 0.02754499 0.16440451 -0.00024402338 0.046363827 0.066117845 -0.014333602 0.063933589 0.13712166 -0.0056838766 0.049685359 0.25162894 -0.0081076631 0.078988001 0.093784921 0.026074568 0.038555734 -0.07732217 -0.02230889 -0.052984737 -0.10058516 0.10218679 0.056083504 0.06829077 0.085122555 -0.060198326 -0.064882718 0.0074655022 0.062533788 0.039047312 0.076890461 0.23944953 -0.034856487 0.03591463 -0.054024916 0.0096374778 0.085481972 -0.023555126 0.084836267 0.076713793 -0.020814488 -0.002832352 -0.20693851 -0.13429521 0.12673505 0.15448967 -0.049868003 -0.088502303 0.10906716 -0.070179231 -0.16135132 0.047572482 -0.29295501 0.10918491 0.013532002 0.071762934 -0.060343444 -0.13156857 -0.050791901 0.10870311 -0.14898145 -0.11053153 0.0070765773 0.066810183 0.11059364 -0.07934396 -0.11744436 -0.16873673 0.056642756 -0.049110435 -0.11383928 -0.016905071 -0.10577245 0.0024890907 -0.017117616 -0.025980305 0.1178522 -0.023665538 -0.045354277 0.071482375 -0.10412295 0.19216968 -0.023691051 -0.020354444 0.1086458 -0.12724715 -0.042277962 -0.1702788 0.092490293 -0.023628023 0.14958753 0.082666039 -0.092825316 -0.071271703 0.10300536 0.06546393
426 0.01860024 0.066914499 -0.051417142 0.016935075 0.2221328 -0.0015487979 -0.13373056 -0.14300139 0.025700361 -0.051718008 0.14641294 -0.21038869 -0.17426528 0.12100822 0.10771551 -0.064622596 -0.17468107 0.13333628 -0.050053827 -0.15200336 0.064792842 -0.064916492 -0.068279639 0.066181235 0.045308996 -0.24262546 0.066185854 0.10320558 -0.087545581 -0.015591851 0.03610345 -0.033764191 -0.053917885 -0.089432575 0.14580506 0.10206249 -0.036198646 0.050750434 0.10323636 -0.10009458 0.10706992 -0.068115138 0.17823768 0.24421801 -0.043157067 -0.0055587576 0.089946538 0.056229368 -0.057098888 0.085176609 0.073846132 -0.042919531 -0.046356525 0.14553048 0.057916608 0.023246679 0.076949328 -0.015705222 -0.039520085 0.022119122 0.11383399 -0.063332483 0.055038493 0.12949546 -0.070337757 -0.036109626 -0.056430623 0.050844803 0.040699303 0.012980578 0.1000156 -0.024593538 0.066860929 0.012082094 -0.31827655 -0.22598557 0.088301077 0.22405864 0.014542227 0.041119877 0.13823952 -0.03187928 0.0087765995 -0.02901971 -0.21711789 -0.063583337 -0.12315623 0.0832332 -0.022807207 -0.18565652 -0.081296891 0.084964857 -0.056353081 -0.02453924 -0.0066610412 0.035855271 0.040376041 0.026998993 -0.038346361 -0.12749512 -0.022241555 0.039556593 -0.15174021 0.13389844 -0.10545848 -0.036588676 -0.12232417 -0.07009019 -0.00026983538 -0.037179474 -0.022640243 0.052437011 -0.14358264 0.11108945 -0.029653769 0.049697138 0.047929905 -0.14424269 -0.11831516 -0.1529548 0.090609148 -0.043220352 0.14314869 -0.073101088 -0.086951829 -0.042747941 0.10147689 0.028449966
77 -0.10734845 -0.018964803 -0.022969157 -0.063278355 0.33448637 -0.089118212 -0.24632069 -0.11545716 -0.044955865 0.0048742993 0.095054775 -0.098452426 -0.10459382 0.079806678 0.04888843 -0.15567289 -0.1952938 0.12936383 -0.071193226 -0.010076955 0.02473665 -0.032093566 -0.1856007 -0.003701414 0.010529602 -0.35435542 -0.03171736 0.045274824 0.069085017 0.046284374 0.035818815 0.070959792 0.023722503 0.047029223 0.15821202 0.097129986 0.076666549 -0.0014098329 0.1694687 -0.041998632 -0.081285231 -0.06058687 0.082523458 0.28590959 -0.076731592 0.12049799 0.089479692 -0.011701177 0.026838847 -0.095387466 -0.009749379 -0.11055279 -0.06189467 0.10911041 -0.043788034 -0.039334409 0.10534066 -0.01039289 -0.074909784 -0.0097909709 -0.079855852 0.090398341 0.082496278 0.13353191 -0.055439625 0.07823889 -0.04157006 0.069081753 0.0033009127 0.023780668 -0.023775423 -0.012932863 -0.0031587344 0.12313339 -0.083228394 -0.2164501 -0.024752205 0.19491173 0.076947361 -0.1187025 0.10345465 -0.056852508 -0.096693911 -0.098375991 -0.35176897 -0.27259535 -0.11180622 0.021679724 0.031743374 -0.068421245 -0.11383526 -0.0030825993 -0.18336199 0.0033194425 -0.040593259 0.10115985 -0.0077590938 -0.10656933 0.067101516 -0.13345371 0.066524692 -0.065907098 -0.031337108 0.056297954 -0.13635065 -0.024816751 -0.063701443 -0.091899626 0.10824365 0.066773184 0.031797096 0.15823859 -0.18087129 -0.022697577 -0.07436461 0.067606412 0.1433491 -0.080813184 -0.033155523 -0.044284835 0.052362926 -0.019218141 0.068959117 -0.059362825 -0.097651556 -0.07406646 0.098493263 0.090972796
82 -0.01198346 0.051148333 0.010451779 0.00062856171 0.20214589 -0.15222451 -0.19470274 -0.032440118 -0.10980343 -0.026027646 0.089484632 -0.12578462 -0.18354169 0.074540302 0.086063959 -0.12860601 -0.23536396 0.12753516 0.066594258 0.0031114102 0.0074587124 0.019415852 0.030933918 0.082178332 -0.011199967 -0.26384488 0.035765711 0.037628114 -0.20533778 0.064867124 0.14057006 -0.1180943 -0.081465505 0.081797838 0.10145939 0.033002213 0.00065333245 -0.023360226 -0.071239628 -0.0023262417 0.10542549 -0.089104906 0.15701152 0.24760184 -0.044919763 0.023754923 0.098506659 0.11749408 -0.017128563 -0.018403366 -0.0064615146 -0.069917478 -0.10006542 0.106906 0.0067016846 0.072993755 0.013311369 0.0084129358 -0.15400527 -0.010258428 0.040047403 0.073656037 0.10604202 0.1638605 -0.046919663 -0.060669396 -0.030135628 0.04219738 0.13443787 -0.12941782 0.16103086 -0.055727422 -0.036184434 0.050449021 -0.03447682 -0.11752866 0.038362816 0.16980639 -0.011200334 0.071967639 0.12738495 -0.087520167 -0.2020596 -0.0040066377 -0.17887756 -0.10650133 -0.10134285 0.01580023 -0.026518265 -0.11182629 -0.061154123 0.080410928 -0.078857683 -0.077157043 -0.10666638 -0.053876381 0.099672802 -0.021156937 -0.028229414 -0.053845763 0.14761516 0.018569283 -0.19027843 0.1194876 -0.064343579 -0.074825726 -0.065537862 0.0045791627 0.0041486551 0.14133295 -0.049045436 0.080341749 -0.18834157 0.13776208 -0.16244504 0.077096432 0.022673264 -0.16713656 -0.10766973 -0.20154513 -0.030948278 0.017439591 0.16559561 -0.13175716 -0.062638275 -0.028597718 0.055525042 -0.019188849
