1113 128
1006 0.035343442 -0.0052684043 -0.08241054 0.29600188 0.095592126 0.037189055 0.43248266 0.12819661 0.15889095 -0.31702387 0.044960197 -0.09459038 0.13682488 0.47131765 -0.16616194 -0.1512642 0.38563883 0.082515076 -0.1533916 -0.05446909 -0.23704162 -0.26246753 0.10422599 0.19367424 0.24601524 0.22497052 -0.19925566 0.41925496 -0.04869342 -0.3208004 -0.002406934 0.3789085 0.041206777 0.0054871654 -0.023636028 0.10115876 0.15438096 0.51165974 -0.16438787 -0.03545732 0.2648051 -0.40258905 -0.027209204 0.120503776 0.2921806 0.02973896 0.5768228 -0.4789108 -0.10329145 -0.26666972 -0.3615184 0.27133402 -0.17129663 0.026233004 -0.3445779 0.15987591 0.274386 -0.058603298 -0.36786583 0.3865875 -0.02053124 0.52005947 -0.32990533 -0.49553335 -0.15999295 -0.28239116 -0.16365525 -0.11108728 0.28091273 -0.067231536 0.13882601 0.06415666 0.13176967 0.26046106 0.116811715 -0.09394218 -0.067562416 -0.2048364 -0.1682682 0.06304219 -0.59237134 0.3027899 0.026277855 -0.15055877 0.01531568 0.09745515 -0.11242786 -0.032271057 0.16867122 0.13271728 0.11801412 -0.26725885 0.1758389 0.01706733 -0.18191421 0.03211716 -0.23816502 0.3822825 0.5586774 -0.33514088 0.0598662 0.12600076 0.027857188 0.13604763 0.40155956 -0.20881297 -0.062042225 0.008420714 0.26343718 -0.07461946 -0.3447821 0.12173877 -0.1476844 0.61402035 -0.09264172 -0.024333986 -0.118122585 -0.3537396 -0.0096329665 0.19857088 0.3555237 -0.103231415 -0.39586884 0.15260638 -0.42922962 0.04112166 0.3981164 -0.13116577
506 0.23332496 0.025320502 0.17772815 0.1337385 0.044059433 -0.05357845 0.43951112 0.12939169 0.17967984 0.025743002 0.184496 0.089871995 0.2210126 0.5074877 -0.16331656 -0.075589 0.2692452 0.29602063 -0.031602178 0.052864917 -0.15060124 -0.21968968 -0.064818524 0.22500299 0.06940636 0.37651098 -0.33581623 0.40448517 -0.18037845 -0.34083825 0.120821714 0.317321 -0.051225387 0.018248143 -0.015819617 0.10855134 0.44587055 0.6096831 -0.06863345 0.06256963 0.2430391 -0.39058068 0.15584466 0.17610604 0.09045303 0.05557626 0.68313134 -0.46560383 -0.26130104 0.0075779064 -0.18390168 0.20584221 0.058038343 0.16000353 -0.40558887 0.10003283 0.09825178 -0.039921425 -0.26119685 0.31602544 -0.1697185 0.6837614 -0.24289094 -0.4043562 -0.23479162 -0.011010942 0.020121172 -0.30340543 0.50698715 0.14677335 0.36174136 -0.23140846 0.019516954 0.35554406 0.13782564 -0.16792613 -0.11289944 -0.114037074 -0.33928004 -0.03862176 -0.5639292 0.3978339 -0.1016676 0.03900385 -0.10386922 0.11958612 0.24573325 -0.29882318 0.045314897 0.2880165 0.29129142 -0.19749174 -0.043927267 0.067715965 -0.14296867 -0.000977329 -0.49962273 0.48399326 0.3800426 -0.4271114 0.22661471 0.12523216 0.24729377 0.298705 0.2785232 -0.37116513 0.07888922 0.23118638 0.19586664 -0.01716886 -0.41872075 -0.115885876 -0.04000194 0.4315899 -0.1756937 -0.062324785 -0.26741487 -0.44246092 -0.044769995 0.09230658 0.29950532 -0.19018354 -0.009467563 -0.026041567 -0.44774368 0.1602826 0.2802511 -0.19708791
823 0.14668036 -0.11267038 0.21527782 0.1563826 0.045615304 -0.09463204 0.45081523 0.029416017 0.23261946 0.02423166 0.07524734 0.007968064 0.077531666 0.5232081 -0.124184765 -0.030394329 0.4206541 0.3453496 0.04734316 -0.04140894 -0.053667404 -0.3289614 -0.00051345734 0.2695681 0.21313338 0.2843886 -0.26973855 0.43866247 -0.23471195 -0.30063793 0.06600626 0.31661123 -0.09894843 0.065228134 0.041632492 0.18979125 0.38040486 0.6785614 -0.044851646 0.21381886 0.14828677 -0.2944807 0.04282825 0.08933991 0.12278263 0.041703045 0.8252454 -0.36610997 -0.29553768 -0.15671408 -0.17243032 0.046573892 0.06653142 0.14879721 -0.39556146 0.22001977 0.11683753 0.017168978 -0.15171695 0.32217428 -0.1046355 0.65838027 -0.25547954 -0.39710888 -0.19827193 -0.13543543 -0.031372126 -0.25120836 0.4300308 0.072236285 0.33760455 -0.26177585 0.093268365 0.25202513 0.16443154 -0.2148769 -0.20089126 -0.009972174 -0.31001434 -0.090375796 -0.40422454 0.46587858 -0.08713127 -0.012026195 -0.12775679 0.28350243 0.24344529 -0.23315533 0.008234137 0.29841688 0.1807317 -0.25375843 0.060847938 0.19697621 -0.3205011 0.1656138 -0.60281634 0.4172352 0.26603833 -0.35143358 0.1638394 0.23007534 0.28305244 0.15701641 0.24384293 -0.23345076 0.15068497 0.12948482 0.23502575 -0.058024008 -0.35341865 -0.032686785 -0.036887635 0.2910448 0.12113256 -0.050048146 -0.19453661 -0.38122442 -0.05386008 0.16767664 0.36162946 -0.20681916 -0.08070526 -0.023005532 -0.4752796 0.50312185 0.3293445 -0.12785251
859 0.15361474 -0.09907606 0.032662295 0.071568094 0.07089842 0.12393371 0.41626114 0.074068725 0.2877666 -0.00063813245 -0.097719885 0.008284358 0.04642573 0.59468615 -0.069436446 -0.12405535 0.19565293 0.17584251 -0.047601663 0.10069146 -0.07465408 -0.32422787 -0.02230515 0.25687048 0.24948381 0.3365581 -0.2629656 0.32246086 -0.16468045 -0.3564195 0.1174528 0.35256973 0.0022065265 -0.062359538 -0.06064633 0.023279529 0.5010966 0.6248928 -0.028562848 0.2818543 0.12983748 -0.42558584 0.06455473 0.11526531 0.11575999 -0.026091153 0.56375456 -0.40661156 -0.09881443 0.065602355 -0.06973849 0.00516134 0.12114144 0.07670614 -0.3816819 0.20380518 0.0041210516 0.06882251 -0.17145815 0.19261526 -0.076032855 0.49713326 -0.2892935 -0.38494802 -0.26568097 -0.022520155 0.04310212 -0.36928028 0.49012122 -0.042446993 0.3784697 -0.32905683 -0.1204133 0.33543295 0.092884995 0.0068775415 -0.2639134 -0.2184535 -0.29154864 -0.04136098 -0.5247216 0.33869505 -0.0052603753 0.034801897 -0.25382388 0.11811799 0.11273515 -0.20819727 0.20522398 0.4348547 0.27090538 -0.27162665 0.16247115 -0.01852047 -0.18739085 0.19207434 -0.54860264 0.42947984 0.32245165 -0.34616908 0.32796714 0.15105149 0.37115923 0.2598962 0.3392832 -0.36528593 0.22628249 0.20925438 0.22852105 -0.20849437 -0.30554673 -0.0004664026 -0.036712825 0.41986006 0.008293632 -0.12128445 -0.34919953 -0.46280918 -0.06225688 0.076578125 0.3629217 -0.25432184 -0.080681026 0.17287926 -0.5773232 0.24734817 0.30342424 -0.20231016
512 0.15453458 -0.13483697 0.22127937 -0.007556886 0.009995214 -0.028720103 0.49332 0.20827624 0.22664785 -0.010641722 0.17138572 -0.0035683988 0.13141337 0.4901781 -0.111242495 -0.0024652039 0.39743948 0.44237974 0.020618685 0.12430091 -0.12520424 -0.23978554 -0.12872389 0.26593244 0.20553385 0.34820968 -0.3400946 0.3623324 -0.099714994 -0.29027644 0.11834574 0.24172871 -0.028567383 -0.068868466 0.0042915256 0.14035869 0.28950903 0.72374874 -0.098711774 0.12299754 0.17219642 -0.35760793 0.08430871 0.16816466 0.11264295 0.06659225 0.6731003 -0.43371212 -0.2077339 -0.053042658 -0.11152222 0.075641684 0.10731708 0.046884164 -0.29120407 0.010787923 0.088646084 -0.106861606 -0.19851957 0.30502796 -0.22228928 0.5647716 -0.31495687 -0.50683635 -0.11101687 -0.15975395 -0.11870678 -0.31084767 0.41967624 0.08386954 0.2725961 -0.06063156 0.08260808 0.2950753 0.24443415 -0.24396889 -0.071036205 -0.15650803 -0.36429802 -0.22135124 -0.47695842 0.28602368 0.08792405 0.05573576 -0.09665287 0.21426925 0.08649533 -0.17656267 0.1463323 0.3443021 0.34030828 -0.2083964 0.016205076 0.23494728 -0.14058223 -0.0056405687 -0.4394198 0.4652065 0.35970855 -0.3500747 0.32914683 0.23690327 0.40859863 0.24557036 0.21301122 -0.3764709 0.12987876 0.23576233 0.22619325 -0.14206402 -0.40178007 -0.13000509 0.05120034 0.3997491 0.04640933 -0.1977616 -0.24730398 -0.41206014 -0.06546887 0.14410901 0.351452 -0.122825526 -0.07017917 0.05696599 -0.535285 0.29357457 0.26445583 -0.13453461
839 0.20767984 0.03919758 0.108117156 0.14949267 0.06453657 -0.16320142 0.37762123 0.13797313 0.21790141 -0.06985387 0.22422832 0.009767658 0.23889984 0.5038957 -0.0030755156 -0.10975507 0.2983873 0.35197517 -0.019712064 0.14124256 -0.09558089 -0.30322015 0.012276552 0.43392643 0.14431396 0.32420415 -0.25099897 0.36425877 -0.024685461 -0.27108806 0.18273112 0.31846642 0.13164224 -0.02306017 -0.017324653 0.08471105 0.45511132 0.68913096 -0.03245636 0.09412165 0.17185505 -0.4335802 0.086868055 0.18879998 0.13105553 0.08880311 0.6618024 -0.38692832 -0.12059218 -0.021216288 -0.08306352 0.055770267 0.1921504 0.11422328 -0.18557788 0.12021757 0.16139624 0.08101018 -0.2056524 0.4115053 -0.1876133 0.6112432 -0.2929116 -0.3490826 -0.18168022 -0.075249255 0.083133355 -0.38813135 0.54883015 0.09794913 0.35036123 -0.2603546 -0.040563174 0.20447527 0.08101421 -0.20464592 -0.14449714 -0.062853985 -0.31849405 -0.14916356 -0.53852105 0.24295598 -0.19918633 -0.010464576 -0.07210134 0.15520854 0.13079724 -0.2319016 0.10462825 0.35206738 0.27870727 -0.35459042 -0.016143758 0.061055493 -0.20570506 0.012991072 -0.5693406 0.51779985 0.41290706 -0.48561963 0.32557428 0.122733034 0.1203243 0.16781424 0.32692 -0.3801741 0.22694384 0.25662276 0.19586352 -0.00526994 -0.4423833 -0.24499734 0.005443146 0.46150112 0.023249175 -0.17194042 -0.2890716 -0.42056435 -0.10914529 0.025802115 0.2989266 -0.22858416 -0.050103128 -0.038094506 -0.51003844 0.23904674 0.44087523 -0.058611363
178 -0.15934448 -0.3149518 0.3106612 -0.09217803 0.38352576 -0.09670704 0.43430904 -0.0551043 -0.22111206 -0.058568988 -0.040304642 0.13308287 -0.03225498 0.10040988 -0.035849422 0.16348428 0.3789247 0.23161386 -0.15885645 0.026047062 -0.03498369 0.100540824 0.0848319 0.13903092 0.22050169 0.3458093 -0.33153826 0.66500455 -0.13207471 -0.113864645 0.2894142 0.20535135 -0.0008305808 0.0056125997 -0.099131435 0.11227252 -0.10575162 0.20797053 -0.45187366 -0.21333548 0.5623195 -0.07196399 -0.450467 0.2486033 0.26230493 0.22318499 0.0199195 -0.060467884 0.14591081 0.2658826 0.06867954 -0.025551148 0.0071796486 -0.10623502 -0.017548518 -0.13187781 -0.05742188 -0.2996094 -0.2053609 0.29390186 -0.06368764 0.19102775 0.13353132 -0.03041177 -0.58173007 -0.110502414 0.45719886 -0.6035286 0.10966241 0.08825872 -0.058578406 -0.2486552 0.20189956 0.27082288 -0.26367825 -0.049861718 -0.028388875 -0.1736943 -0.14776224 0.018013494 -0.14789213 0.3701097 0.053203963 -0.22185548 -0.0076911356 0.2274287 -0.07405486 -0.047436725 0.09015804 0.057470135 0.4050653 0.12613684 -0.022380129 0.06880055 -0.27950776 -0.13362154 0.02300386 0.095983975 -0.07336668 -0.25278804 0.06538582 0.18507184 0.066453345 0.21371847 0.0016655533 -0.13236447 -0.08327482 -0.09098099 -0.017411023 -0.018100474 -0.30163532 0.079688415 -0.09217713 -0.14073409 -0.073186964 -0.0022517182 -0.20397738 -0.44078302 -0.5589337 -0.30316827 0.146811 0.0013483515 -0.1517097 -0.32074797 -0.009409202 -0.19141738 0.08214145 0.049472336
1004 0.09158474 -0.3479347 -0.323276 -0.25876135 -0.7127402 0.341515 0.053861633 0.41200817 0.11351295 -0.181485 -0.32501397 -0.11963489 0.12980351 0.32326603 -0.5834599 -0.26551047 0.05849616 0.37316275 0.17040564 -0.5325188 -0.6770562 0.43189907 0.5388786 0.15173896 -0.075993896 0.08554222 -0.13103586 0.86098796 -0.55065686 -0.37732354 -0.100317866 0.32720825 0.34707347 -0.7457548 0.061884765 0.4075249 -0.15766579 0.6713854 0.017333852 -0.48723835 0.254958 -0.06056555 -0.32448673 0.09458039 0.08500985 -0.04854845 0.18612763 -0.5464932 0.3597048 0.2850997 -0.101428196 0.3047947 0.044033784 -0.061610993 0.050469648 0.67891604 0.082854405 -0.19807139 -0.17397898 0.6550807 -0.059218746 0.31427145 -0.42195678 -0.23742907 -0.05227856 -0.33936793 -0.18025663 -0.3730494 -0.030049348 0.16722138 -0.20494793 -0.02531614 0.29581434 0.36900198 0.2637124 0.046226025 0.5868284 -0.31031135 0.34001616 0.4131445 -0.3266842 0.015240944 -0.39083046 0.08637977 0.43800133 0.17301498 0.048755452 0.3314096 -0.12525089 1.0739572 -0.16148537 0.3160967 0.29899797 0.084829286 -0.23832957 -0.5365583 0.018134706 0.47366375 0.28353024 -0.008631506 -0.23995577 0.1460583 -0.13875514 -0.15867114 0.72184587 -0.22155465 0.48987684 -0.20988561 0.06673703 0.12901008 -0.01839295 0.18150365 -0.71317345 0.4403321 -0.23849738 -0.4345789 -0.35138246 -0.1597053 -0.14725241 0.27945447 0.55148566 0.35516086 -0.104203776 0.02234983 -0.43548968 0.14521362 0.7154427 0.3123825
501 -0.3477955 0.07780429 0.12572944 -0.117232025 -0.25947446 0.33466184 -0.10986307 0.1733846 -0.2834719 -0.010855077 -0.37706432 0.25597495 -0.05557051 0.16091977 -0.14393696 -0.055406988 0.19655968 0.28882983 -0.0033515636 0.33976683 0.36183912 0.023729086 0.07827873 0.20460305 -0.27488676 0.2912009 -0.07327191 0.59198743 -0.009896011 -0.07743718 0.015876066 -0.040332578 -0.023162112 0.009333935 -0.10764472 -0.06845111 -0.038452707 0.29170188 -0.020439329 0.14641534 0.1776785 0.14003319 -0.07483162 0.2197094 -0.19681619 -0.09114892 0.23453066 -0.040019594 0.06297206 0.10556984 0.10205821 0.016200911 -0.0797085 -0.12977833 0.18162991 0.2661143 0.08385419 -0.1333914 -0.29711273 0.30446625 0.17840588 0.5741535 -0.03216714 -0.26241767 -0.18701787 -0.22507563 0.28843862 -0.4681861 -0.17094198 0.11224302 0.05970225 0.23771527 0.14843188 0.441588 -0.049273144 0.22812377 0.11081355 -0.02753914 -0.03512256 -0.320976 0.03518482 0.13778841 -0.27995497 -0.16314119 -0.3115499 0.09321181 -0.24833861 0.15919851 0.094056524 0.10966862 0.12022365 0.016949954 -0.025158506 -0.18648218 -0.051578384 0.013223281 0.082002886 0.3890248 0.21787608 -0.040327802 0.276022 0.014035098 0.1823022 0.03703283 -0.36244392 0.0837246 -0.26143235 -0.052508835 0.1592842 -0.117208615 -0.26170403 0.15079942 0.096019946 0.032550063 0.34903312 -0.09982168 -0.0841108 -0.401349 -0.42810458 0.42166334 0.34056485 -0.040460788 -0.16193584 -0.045292646 -0.27312526 -0.25283447 -0.56790555 0.10872222
301 -0.20184717 0.12483959 -0.03714267 0.26742792 -0.083282374 -0.0068840096 -0.16107644 0.024727128 -0.18080796 -0.10068288 -0.008096756 0.013806014 -0.15165459 0.067523174 0.08244371 0.022471238 -0.12043923 0.13335255 0.0068990854 -0.05659638 0.18656875 0.04562294 0.22432013 -0.13808472 0.08178544 0.14368051 -0.052979704 -0.032814216 0.021073962 -0.1279021 0.056070473 -0.39733988 -0.0038542168 0.02013918 0.09861301 0.05531284 -0.10436851 -0.101689525 -0.046909317 0.24858026 0.14573614 -0.17091677 0.19403839 0.21935849 -0.0068551726 -0.058673494 0.011036355 -0.27251452 -0.14991015 -0.0051497947 0.05255574 -0.103803456 -0.005117681 -0.04544771 0.004559167 -0.057563957 -0.014243514 -0.07482354 -0.024100015 -0.064101346 -0.13514225 0.17781925 -0.2974075 0.053268842 -0.029948002 -0.20080689 0.06506906 -0.050829146 0.26546705 -0.046583284 0.070742 -0.13514295 0.12888585 0.074157745 0.030446414 -0.19047306 0.12686382 0.1953951 -0.011875895 0.04596548 0.12304755 -0.014904026 0.048540868 0.049857236 -0.12762594 0.052570466 -0.13491772 -0.11439952 -0.06267885 0.31268817 0.08356928 0.09466238 -0.021705888 0.060310192 -0.025365913 0.16900541 -0.015823895 0.2503753 -0.24880095 -0.13616411 -0.119557135 0.03755062 -0.1309282 -0.099900246 0.055338405 -0.03273701 0.14904925 0.08992955 -0.08518636 -0.2276776 -0.0017001036 -0.05873307 0.27230528 0.08251584 0.07871331 -0.44938883 0.12291754 0.02623409 -0.0029470632 -0.13983658 0.09067785 -0.12764075 0.097240604 -0.22602348 0.22496021 -0.11919363 0.33459452 -0.021508783
133 -0.17523588 0.07936502 0.14533685 0.18256243 -0.11881716 -0.02431527 0.024591768 -0.06094675 0.08630364 -0.10987833 -0.21733971 0.074693106 -0.09228785 -0.07566526 -0.044435125 -0.02813369 0.14408019 -0.08240064 0.07095206 -0.21451487 0.0015567456 -0.1522429 -0.07934589 0.07077847 0.024059968 0.113707125 0.056297448 -0.083129294 -0.34012514 -0.19911426 -0.22283182 -0.08287607 -0.08060693 -0.14982091 -0.077079445 0.051187377 -0.017924666 -0.22880061 -0.2212007 0.20892276 0.023735104 0.0847805 0.062412214 0.12420512 -0.24321592 -0.1269835 -0.20849644 -0.19940808 -0.052978255 -0.00016655923 0.08666652 -0.19839 -0.0044169775 0.034340452 -0.018949077 0.08562091 -0.024521828 -0.061663292 -0.12042138 -0.15900946 -0.03010632 -0.032744482 -0.25696018 -0.10399703 0.09933525 -0.046265274 -0.10292066 -0.18548505 0.3488208 0.02499822 0.108896725 0.08797095 0.08643685 0.09734989 -0.12238724 0.05869444 0.13820896 -0.20627274 0.052993014 -0.25188044 -0.09118519 -0.13098577 -0.060241997 -0.08877858 -0.11782754 0.003039352 0.1604125 0.1528294 -0.16308823 0.16173063 -0.19941135 -0.0131341135 0.13191944 0.011138833 0.0424387 0.11608887 -0.08664909 0.039783616 -0.021634031 -0.23392692 -0.03423946 0.011729976 -0.010053553 0.13762859 -0.059461184 0.18630984 0.07599646 -0.04356946 0.11138453 -0.35239834 -0.12572628 0.008085709 0.018367842 0.12677325 0.1653263 0.041249134 -0.032838687 0.081023805 -0.16935113 0.023822807 -0.03293049 -0.25408548 -0.08310174 -0.23382825 0.13535105 0.14350964 0.04620156 0.18017212
1010 -0.067986935 -0.2177057 0.08573594 0.46243963 0.04373298 -0.007798723 0.23020963 0.06013063 0.093710005 -0.1552366 -0.15134355 0.09068948 0.2073071 0.499551 -0.40942255 0.33730236 -0.108930945 -0.096580304 0.055974837 -0.1727921 -0.014291361 0.09846414 0.40688568 -0.009312434 0.24934903 0.27474642 0.20170568 0.72921264 -0.17668784 -0.2150442 0.059020616 0.396453 0.27905676 -0.2595238 -0.23139401 0.07057742 0.11172239 0.31995428 -0.14342877 -0.088269785 0.08207399 0.007216936 -0.500392 0.13853586 0.27496237 0.26656467 0.3256705 0.14463979 -0.32328644 -0.26755637 -0.03664893 0.047095265 -0.044120397 0.047448274 0.36008584 -0.019332137 0.20602526 -0.4831126 -0.5613511 -0.06347895 0.5218648 0.2451395 -0.4159536 -0.70090514 -0.14092937 0.18708424 0.088065825 -0.16683917 -0.09431611 0.07532916 0.14453702 -0.102738336 0.13532583 -0.0671114 0.12976338 0.30777147 -0.050742805 -0.13280459 -0.35514933 -0.030356387 -0.20181072 0.02479124 -0.22582683 0.10062967 0.2956186 -0.08148014 0.09819385 0.32835487 0.3377178 0.46188614 0.0134349875 -0.13003254 -0.0016264282 0.16382903 -0.22210068 0.036047205 0.15082686 0.29185104 0.21882924 -0.35811782 0.16302522 -0.003921605 -0.40889752 0.052348137 0.29640898 -0.008732522 -0.029112335 0.038079053 -0.10331428 0.2942512 -0.17143856 0.2985788 -0.14582029 0.405734 0.014412634 0.06335368 0.2171504 -0.2856162 0.3962956 0.04830184 -0.1906841 0.16623132 -0.40369067 -0.007248161 -0.19975007 -0.35410967 0.037620407 -0.30230826
432 -0.15408091 -0.10531765 0.14345424 0.09631511 -0.16378698 0.09185222 0.04239727 -0.0359138 -0.06280789 0.14270039 -0.15178937 0.16553311 -0.037357394 -0.0742259 -0.13712193 -0.017121306 -0.06049597 -0.012057295 -0.041721944 -0.05928604 -0.04125365 -0.22142966 0.002421901 0.09428763 0.066687636 0.034632873 -0.092348136 -0.031936347 -0.14603856 -0.23511894 -0.16226457 -0.062186353 -0.06892352 -0.15665609 0.0044350945 -0.053382475 0.027898919 -0.112645745 -0.13141866 0.13837709 -0.07128459 -0.0047654146 0.13867922 0.026108531 -0.1158628 -0.067256466 0.034561135 -0.09097383 0.07208868 0.09404904 0.16954814 -0.18906169 -0.02874974 0.020519057 -0.11009124 0.06716313 0.065369755 -0.093017094 -0.041857053 -0.2512415 -0.09052166 -0.13214676 -0.17351516 0.07347652 0.08668794 -0.11598352 -0.044096243 -0.10467466 0.23836656 0.004050361 0.10248488 0.05387258 0.006133482 0.12233042 0.0412029 0.032971777 0.13698559 0.04351698 -0.24216029 -0.071871355 0.056453068 -0.19523133 -0.08083956 -0.052373204 -0.0842782 -0.0936539 -0.10037783 -0.022699436 0.027167331 0.10438604 -0.1830453 -0.16397849 0.03496432 0.04409292 0.042151965 0.08868452 0.021487888 -0.0070949215 -0.17097287 -0.20812443 -0.24341063 0.049698524 -0.13755246 0.22395769 -0.07531369 0.106309175 0.17807882 -0.071573704 0.13107738 -0.13645394 -0.15759794 -0.120671675 0.079354204 0.049294073 0.13254271 -0.11483429 -0.088797934 -0.10723071 -0.11445775 -0.0033534819 0.076981366 -0.27007517 0.119649574 -0.14695273 0.11343107 -0.0836693 0.15504734 -0.037984323
1005 -0.0027126495 -0.33484504 0.03380709 0.324158 0.33127478 0.09102571 0.088618144 -0.13912271 -0.074309684 -0.06353269 -0.24120307 0.26186144 0.3562351 0.1528384 -0.19839913 -0.0033344235 -0.025993798 0.33549005 0.041054476 0.1186957 -0.046608675 0.15875053 0.011495308 -0.22558069 0.07705298 0.052669864 0.21934167 0.24312995 -0.42285854 0.12303638 -0.23432557 0.34857208 0.3513088 -0.31666717 -0.17754741 0.29088384 0.09200023 0.24981482 -0.1511275 -0.17462912 0.402533 0.15868106 -0.5482216 0.34125212 0.15195782 -0.10079764 0.105252735 -0.08108397 -0.012235584 -0.2185022 0.08221975 0.18468346 0.1643268 0.32313094 0.29659262 0.3694493 -0.22312215 -0.44525096 -0.39563906 -0.1278154 0.40738538 0.35404164 -0.38695818 -0.35756442 -0.054699972 0.055353668 0.04182422 -0.28036487 -0.10280311 0.40252548 0.29414722 -0.19433577 0.3525878 0.17424032 0.121254355 0.4049397 -0.039288744 -0.10059438 -0.37888503 -0.044777893 -0.2195762 0.2830777 0.18629798 0.052186377 0.11227564 -0.32689804 -0.09963569 0.33443835 0.0035443765 0.21806142 -0.10040597 0.014264342 -0.004545022 -0.15619765 -0.07268758 0.07773346 0.18323366 0.47675756 0.2650597 -0.11294442 0.15088189 0.4516554 -0.47778013 0.31461453 0.2746599 -0.2815693 -0.041737586 -0.21036531 -0.33565706 0.37963817 -0.16709502 0.21696366 0.02303829 0.060501836 0.015371473 -0.046979435 -0.010115974 -0.25902677 0.12427444 0.033723444 0.21455719 0.189169 -0.28722456 0.070469834 -0.2637025 0.077129595 0.05833788 0.032002944
234 -0.1964203 0.048692487 0.19171256 0.18953624 0.024421813 0.08476355 0.3146564 -0.06719608 -0.104544334 0.24922188 -0.10478695 -0.12268654 -0.053938374 -0.043253645 0.0030505175 -0.21679057 0.00514584 -0.023395693 -0.02637199 -0.22031078 -0.21502665 -0.14443286 -0.003208628 0.039435618 -0.011057136 0.07942132 0.0652745 -0.09337547 -0.16828924 -0.1418815 -0.13858147 0.001031165 -0.068399034 -0.12402271 0.13353744 -0.11113893 0.04390874 -0.11837581 -0.08104893 0.008547304 0.11578013 -0.074991204 0.082120635 0.058231838 -0.17270473 0.023888178 -0.022597939 -0.110605516 -0.06029158 0.052902218 0.07774542 -0.10729104 -0.1278942 0.23527199 -0.12087314 0.053322103 0.13578856 0.029244766 -0.019998575 -0.09645117 -0.091097504 0.05351528 -0.07787906 0.02804372 -0.066234834 -0.11023569 0.13793848 -0.13409974 0.1989296 -0.0008057031 0.06591242 0.02079842 0.049707737 -0.17347756 0.1469698 0.048900355 0.03822236 0.08291984 -0.09822935 -0.1944518 0.06528739 -0.18569085 -0.24408562 -0.0973808 0.17721874 -0.19166847 0.10648119 -0.034108065 -0.09143135 0.12367308 -0.16818942 0.045102112 -0.06100006 -0.19952133 0.08836177 0.065321945 0.04736055 -0.044252027 -0.052694988 0.17279214 -0.04170796 -0.01883967 -0.0039379434 -0.021834357 -0.026421309 0.058319617 0.06131424 -0.08172599 -0.0022770418 0.06635419 -0.25756863 0.0089941 0.14481775 0.15941489 0.11879193 -0.07528006 0.06913847 -0.10546946 -0.22037983 0.002180585 0.002936602 -0.21942335 0.024836307 -0.06750513 0.019003032 -0.041998163 0.024361355 -0.029493362
467 -0.12304172 0.13033944 0.13621822 0.051983085 -0.017377224 -0.1661671 0.21617141 -0.105233036 -0.2545168 0.110351026 -0.17098747 -0.03643532 0.113703 -0.043666087 -0.044037607 -0.23951147 0.18459417 -0.03893461 0.00050428614 -0.15904021 -0.20390947 -0.07416739 0.20045179 0.03812171 -0.074546404 -0.023451759 0.10257486 -0.1370873 -0.08584062 0.01304277 -0.0791115 -0.13858055 -0.08404592 -0.012790576 0.05389014 -0.07785523 0.054653443 -0.16813946 -0.13353701 0.21249919 0.09460697 -0.06730709 0.18788624 0.049181417 -0.10246672 0.24145281 0.0017338236 -0.26161832 -0.07113235 0.048195805 -0.03575166 -0.07900333 -0.021986578 0.09271128 0.18774328 0.030518265 -0.09622714 0.01686783 -0.067529336 -0.1568059 0.120717354 -0.051237676 -0.27096826 -0.1243993 0.026114404 -0.002641918 -0.040007208 -0.24415556 0.18680279 0.01916947 0.20982146 0.081049964 0.11415469 -0.17973419 -0.112002455 -0.0114510795 0.037717063 -0.12062237 -0.09475792 -0.113870025 0.13293773 -0.24622482 -0.22156256 -0.050046396 0.16603649 -0.116931446 -0.03457332 0.13548186 -0.21695311 0.11598124 0.116611615 -0.12298926 -0.11112365 0.024333943 0.024980942 0.25706235 -0.13198534 -0.02564005 -0.11138838 -0.1049463 -0.12286295 0.058615543 0.012112421 0.14297831 0.0023484197 0.2532026 -0.02943238 -0.11676511 0.02692057 -0.07759744 -0.025479745 0.109789595 -0.035774935 0.064383686 0.15925278 -0.15528128 -0.046454836 0.11505545 -0.15791863 -0.019762136 0.05995115 0.07272057 0.14467695 -0.01991683 -0.020995919 0.026432391 0.07671363 0.16777854
249 -0.10525332 0.104843795 0.07023125 0.13547425 -0.0006348859 -0.12577495 0.13113727 0.029019184 -0.21846339 0.23981336 -0.15197152 -0.04747655 -0.326263 -0.066030644 0.1320785 -0.096638024 0.111408 0.13240589 -0.08711728 -0.32249814 -0.008074961 -0.11138738 -0.080433495 0.030144341 0.050685752 0.024250127 -0.14861777 -0.06460639 -0.2652292 -0.04638982 0.144857 0.038682215 -0.14158279 0.072860196 0.32407013 -0.19626912 -0.003660092 -0.07602905 -0.009646238 0.04523329 -0.01860231 -0.096698694 0.17284685 -0.050685313 -0.054573413 -0.16999449 -0.0070769275 -0.05971936 -0.14024921 -0.010446929 0.13452886 0.03193104 -0.13035388 0.055913273 -0.025307111 0.0044319066 -0.022542147 0.0142745385 0.066845685 -0.20741747 0.03373313 -0.2235541 -0.23263155 -0.041380033 0.14156461 -0.09860897 0.11436929 -0.26873708 0.10225447 0.081064716 0.13110718 0.048131697 0.027469743 -0.008843731 0.1039529 -0.109911226 0.35512885 0.10487196 -0.10582096 0.17698294 0.12695557 -0.20101191 -0.2770769 -0.09579126 -0.14411342 -0.0048529613 -0.036362648 0.17304792 -0.031554066 0.15186274 -0.014772662 0.094718054 -0.22884566 0.15234497 0.34542698 0.25406063 0.113463394 0.08175529 -0.008070901 -0.15070547 -0.08700016 -0.031690814 -0.00178363 0.019111086 0.03145584 0.026955204 -0.026599362 -0.11865388 0.1409634 -0.099653445 -0.13139313 0.03763572 0.21893737 0.085834555 -0.07885739 -0.06489221 -0.15068291 0.024481917 -0.03708023 -0.0006095342 0.24433792 -0.03147328 0.087676115 0.035957195 -0.101506695 0.07153064 0.09282983 0.008838353
476 -0.032359134 0.1434325 -0.19478977 0.1002782 0.13900965 0.100870654 0.07732737 -0.22283839 -0.07384985 0.09879302 -0.06010835 0.047329497 -0.06620247 0.032830123 -0.16958226 -0.15184133 -0.016922526 0.20832261 -0.20682517 -0.08132066 -0.11774203 -0.03044774 0.13992292 -0.1983808 -0.002668738 -0.034568373 -0.1389459 -0.12187941 -0.31034803 -0.107784994 -0.03185367 -0.1807111 -0.15340887 0.007968827 -0.18600328 -0.19365853 -0.025765063 -0.11986017 0.0065537994 -0.03328198 0.2923664 -0.1278665 0.21628854 0.08259526 -0.05889194 0.09534746 0.017132763 0.026674861 -0.1584544 0.0045690374 0.028978152 -0.14858516 0.05882376 0.040455576 -0.124356724 0.02610401 -0.046350118 -0.080087535 -0.3644454 0.024671732 0.10014047 0.03738836 -0.2138312 -0.11260791 0.0056655942 -0.18993656 -0.107694894 -0.064396925 0.24790043 0.17438376 -0.04141693 0.08885905 0.24874276 -0.11666244 0.022383919 -0.06651203 0.14497869 -0.21061844 -0.12741938 -0.15824784 0.037824757 -0.115811765 -0.12009506 0.15744536 0.18696249 -0.0649747 0.2897096 -0.15013622 -0.15449707 0.116989374 0.023368375 0.24909827 -0.182865 -0.083156705 0.031167813 0.06370334 0.002539302 -0.050357454 -0.09203067 -0.15354906 -0.1780312 0.21495555 -0.0056264927 -0.06321228 0.0004113057 0.2732791 0.024320403 0.018590206 0.08253011 -0.10928192 0.00652052 0.09245702 0.048409484 -0.03898471 0.012454737 0.0058361082 0.14129286 0.19045854 -0.047520544 -0.11695626 0.07146395 -0.18750435 0.07931288 -0.08842114 -0.044423442 -0.04564381 -0.011405422 0.030406708
183 -0.09903845 -0.05580476 0.18332165 0.025432214 -0.05278774 0.012254133 0.095727235 -0.17633538 0.062334917 0.20664799 -0.04645776 -0.14511617 0.111689895 -0.10533125 0.07296961 0.022581631 -0.02160583 0.12311681 0.08712937 -0.17015164 -0.22564273 0.091030255 0.113508694 0.20971632 -0.070748426 0.07764051 0.065215945 0.10037643 -0.19033626 -0.036558386 0.04371351 -0.04253363 -0.079050235 -0.026204517 -0.055126626 -0.205465 -0.10262359 0.11799203 -0.09728439 0.21084297 0.25308743 -0.09092819 0.16807331 0.02417894 -0.24356858 0.04384575 0.004106519 -0.22009152 -0.12876302 0.032730013 0.119567685 -0.18087804 -0.017993117 -0.045758992 -0.120193124 -0.028420862 0.038453385 0.15712298 0.047431532 -0.030255292 0.14038363 0.2780722 -0.046349727 0.050491795 0.11727221 -0.0873279 -0.0013594097 0.040008675 0.075811416 0.06770446 -0.019801632 0.07619464 0.03925179 0.06070009 -0.08151992 -0.28990257 -0.056006413 -0.10765638 -0.04283326 -0.040220853 -0.0020503798 -0.07530285 -0.021880044 0.011775763 -0.010964436 -0.16175154 0.070545174 -0.02651502 -0.097204916 0.20998953 -0.38384843 -0.06632158 0.060211834 -0.076147765 -0.14728965 0.23165494 0.12425772 -0.06875823 -0.07616942 -0.27869302 -0.005965152 -0.10158318 -0.09206422 -0.10445438 0.04399602 0.014577968 0.111815505 -0.07204888 -0.0061173593 0.062255304 -0.17529544 0.021528665 0.21052772 0.09291259 0.07903112 -0.1329937 0.028734406 0.10225722 0.017605506 -0.14011616 0.095474035 -0.03539002 0.121187314 -0.023246236 -0.027992321 -0.078612514 0.18359792 0.07684059
211 -0.17451517 0.13718754 -0.21324667 -0.16698393 -0.003406959 -0.072119035 -0.007898056 -0.1333566 0.037240945 -0.038571294 0.20225064 -0.3384638 -0.17078951 -0.25726897 -0.13535732 -0.011069453 -0.06969629 -0.019725487 -0.036677986 -0.18701386 0.10464289 -0.18020646 0.16396494 0.06350378 0.20469882 -0.07219212 -0.008103651 0.15841982 -0.3479633 -0.10174012 0.179816 -0.072442755 -0.0013385715 -0.06518446 -0.121239305 0.052085854 -0.31959552 0.035020642 0.010552188 0.24631463 0.16543801 -0.11859689 -0.029692132 0.06004653 0.00031398167 0.041664727 -0.10812098 -0.13180092 0.022363441 -0.032984823 -0.055989526 -0.08555169 -0.18306495 -0.15986672 0.11582524 0.114814535 -0.09750643 0.023460831 -0.030463627 -0.11167799 -0.030194977 0.06440664 -0.1472198 0.2425534 0.2373767 -0.09790845 0.06056831 -0.21446104 0.36303142 -0.08503186 -0.025034465 -0.0026712036 -0.03508009 -0.032875866 0.050567202 0.061664492 -0.07000264 -0.15648717 -0.24150543 -0.29673404 -0.11453707 -0.06927863 -0.075697534 0.034592614 -0.010334604 -0.094515964 0.009926899 -0.21699618 -0.23239432 0.012180434 -0.1189821 0.19879273 0.054964583 -0.039048154 0.19861421 0.12377547 -0.08609328 0.12089215 -0.065906055 -0.0712993 -0.11874983 0.051592372 -0.081470855 0.21551497 -0.18805136 0.06222762 0.1496645 -0.010933703 0.12156795 0.2168379 -0.4409013 -0.10129385 0.010346533 0.13434449 0.079003766 -0.23268509 0.12567466 0.033692222 -0.04682002 -0.27053222 0.33918643 -0.15195227 0.024264688 -0.22028865 -0.106883384 -0.25133595 0.042218324 0.034910344
232 -0.06963588 -0.04801788 -0.045591783 0.03626077 0.06263642 0.043809794 -0.0049634427 -0.12598361 -0.09634772 -0.017951258 -0.08175296 -0.069231465 -0.123308375 -0.24407963 0.007670538 -0.19267453 0.093698665 0.13332304 -0.08209377 -0.005600117 -0.115762666 -0.17422633 -0.109564036 0.100625314 -0.1750008 -0.008632556 -0.12867878 0.13972613 0.085910305 0.066939905 0.010998767 0.055757605 -0.10223145 -0.13078587 0.08402328 -0.11240871 -0.13750087 0.2269971 -0.15631735 0.21950015 0.19574381 -0.113826886 0.12037768 0.15071881 -0.047914136 -0.077840485 -0.0031103592 -0.021368382 0.116686456 -0.056566004 0.09305558 0.032167174 -0.16655608 0.020239333 0.0027924646 -0.014817447 0.1092417 -0.047098175 -0.12139486 -0.018204823 0.036171995 0.056434385 -0.17076166 0.14366688 0.1885974 -0.07802617 0.14658949 -0.06809523 0.30528632 0.11563913 0.039974052 -0.12942429 0.04823711 -0.123493075 0.1380518 -0.30145788 0.04841935 -0.1531093 -0.045348804 0.08969509 -0.19868055 -0.12146111 -0.22440551 0.10800767 -0.16146618 -0.10398266 0.03577849 -0.11377149 -0.17353067 0.1869058 -0.10781108 0.05237621 0.07203302 -0.08452139 0.070247255 0.051248997 0.22419979 -0.20464562 -0.265876 -0.1512708 -0.13694164 0.11105966 0.20544809 0.11410397 0.008201567 0.39633897 0.0037885678 -0.26444745 -0.010788791 -0.101637416 -0.23925896 -0.057363585 0.17412657 0.17006002 0.11543727 -0.17141105 0.01626293 0.11401029 0.04529945 -0.16639426 0.08388933 -0.08792842 0.06282527 -0.14406651 0.14535509 -0.09291342 -0.00020991631 -0.09573084
373 -0.19694899 -0.06785161 -0.15245916 0.199436 -0.07238849 0.30499205 0.07076026 -0.16652115 -0.25203305 0.111656874 -0.018382331 0.052173775 -0.091722906 -0.11487512 0.009319443 -0.00058796763 0.054378375 0.18456584 0.006703165 -0.07989721 -0.1099053 0.23171414 0.00671855 0.19658326 0.06651834 0.07609193 -0.16619898 0.039354373 -0.06602041 -0.060167 -0.07778715 -0.11091229 -0.017924132 -0.038588103 0.009616133 -0.13883302 0.01686096 -0.17300102 -0.062169503 0.19113079 -0.06886447 -0.0696051 0.1384552 0.17751218 -0.11594106 -0.019441465 -0.07763806 0.04306072 -0.08005035 0.0094225155 -0.0992478 -0.10473088 -0.13717614 0.15109622 -0.056481663 0.041977696 -0.040193826 -0.014378451 -0.113522604 -0.1489563 0.018164622 0.08412813 -0.108865716 0.019590424 0.011671443 -0.096915305 0.07356398 -0.1279069 0.09869863 0.028285712 0.0092308335 0.10469079 0.18916042 0.025628064 0.031616397 0.03581708 0.13525687 -0.032652892 -0.12580808 -0.12025082 0.22569817 -0.19064663 -0.043939836 0.06715757 0.0056803967 -0.1217823 0.0067061665 0.13616717 0.07484596 0.11978608 -0.23011276 -0.09267298 -0.26592654 0.04949841 0.083407216 0.1865403 -0.07670776 -0.07929822 -0.14629714 -0.19411866 -0.121003106 -0.035323188 0.13862438 -0.17984988 0.1304064 0.09654197 -0.07383233 -0.0606805 0.08609128 0.09906702 0.024166372 -0.21196994 0.0961686 0.09653245 -0.034810923 -0.24291287 0.020647686 -0.13008036 -0.119983286 -0.027119467 0.19544342 -0.027687676 0.08835639 0.005511434 -0.04170519 -0.10471196 0.2275641 0.08704982
406 -0.006815281 -0.14469868 0.023086313 -0.020337801 -0.1284192 0.07962474 0.13552359 -0.14567797 0.06125498 0.16099441 0.038676966 -0.19710271 0.019751834 -0.02140143 0.055510137 0.024485957 -0.13435033 0.053177282 -0.046540268 -0.17331456 -0.056436665 0.009576808 0.1148751 0.043784637 0.0096886745 0.08096522 0.017816283 0.00093125645 -0.18559663 -0.0037621653 0.019403214 -0.20997365 0.12549685 -0.1629703 -0.08499578 -0.044551313 -0.03630978 -0.15476875 0.089854226 0.20023288 0.039741468 -0.2363309 0.28662738 -0.005049652 -0.012464395 -0.05194143 0.0035232275 -0.24493083 -0.17626262 0.081292205 -0.062939756 -0.22528058 -0.15110789 -0.008234241 -0.08873852 0.02075431 0.20781852 0.03203727 -0.15418509 -0.036102742 0.014061189 0.09989538 -0.18871093 0.05572528 0.10179754 -0.17840903 0.06769073 0.09340846 0.14552802 -0.006673646 0.012577624 0.10117565 0.24172257 0.05687535 -0.012518204 -0.19896023 -0.071658365 -0.10547852 -0.003737441 0.056410972 -0.01739575 -0.116146095 -0.05903171 0.014280358 0.029502906 0.075031266 0.075156175 -0.011374305 -0.0030095435 0.06532168 -0.27580953 -0.09558877 0.03866706 -0.010829423 -0.0051684524 0.29964566 0.011491789 -0.086796105 -0.019676888 -0.14651997 0.04231256 -0.030523457 -0.19020061 0.04967745 0.060297236 0.084187455 0.015484763 -0.054293778 0.06289 -0.06355528 -0.13741487 -0.030019233 0.28506097 0.060553104 0.08038428 -0.23504671 0.0011823804 0.009318492 -0.09387708 -0.17749934 0.120744646 -0.15451206 -0.047565803 -0.16966942 -0.019395236 -0.06926585 0.08012841 -0.015492181
337 -0.116944745 0.10686205 0.14050767 -0.025357043 -0.14308731 0.12756178 0.06571262 -0.14125872 -0.20811513 0.03327456 -0.097025596 -0.009041771 -0.016939355 -0.10821694 0.00030287303 -0.102299735 0.1155811 -0.17356741 0.017634356 -0.23220564 -0.19486597 -0.09330041 -0.0657444 0.0710013 0.118712105 -0.0047959913 -0.22082682 -0.0066794967 -0.22795805 -0.11560918 -0.022003805 0.19539073 -0.13016653 -0.09239084 7.43768e-05 -0.03292459 0.11383562 0.058887698 -0.13605559 0.17862234 0.031361707 -0.044626176 0.057660516 -0.020871548 -0.116880625 0.008777178 -0.12282757 0.013929626 -0.26571304 0.11840637 0.121300995 -0.11078709 -0.05088773 0.039026298 -0.15026318 0.013486186 -0.026563399 0.056512464 -0.041018542 -0.22826105 -0.053359915 0.07229015 -0.15221573 0.03407077 0.1393414 -0.08167612 -0.029542234 -0.11792602 0.13194515 0.09408279 -0.085851066 0.07970631 0.06513478 -0.12182788 0.07727417 -0.026500845 0.044271424 -0.093991734 -0.108130805 -0.07378197 0.052036867 -0.20863368 -0.09118429 0.014527226 -0.17642665 0.10992413 -0.06868489 0.15925999 -0.12715648 0.22534375 -0.20943682 -0.09024439 0.047952753 -0.00027873518 0.12152349 0.29807675 0.027152613 -0.019520437 -0.10001743 -0.11303085 -0.11037361 -0.032033347 -0.13238601 -0.02353972 -0.06379796 0.027117832 -0.07632697 -0.14724717 0.12664951 0.1027496 -0.016433954 0.061034653 0.23622145 0.10884482 0.15796372 -0.04013067 0.03483261 -0.0038050134 -0.073372506 -0.092936195 0.052179575 -0.23051539 0.071331345 -0.09385018 0.06388159 0.034787133 0.11611164 0.05756026
393 -0.11794662 0.008973446 0.110468976 0.07218375 -0.018981392 0.13993642 0.13903892 -0.23837562 -0.14084515 0.12337685 -0.08447695 0.046597674 -0.03207442 -0.11084148 -0.025181957 -0.06871178 0.07446743 0.0073511116 -0.049388263 -0.0065385113 -0.1493965 -0.06418286 0.11298462 0.009318952 0.12236567 -0.003573403 -0.09669585 -0.09814261 -0.005253672 -0.09532033 -0.049070142 -0.056822166 -0.028261986 -0.11889997 0.041831218 -0.034965526 0.05804135 -0.035151448 -0.055507287 0.22383446 0.09582532 -0.026053373 0.2976796 0.12918337 0.004957346 0.1373888 0.07042776 -0.18146557 -0.085431166 0.24167578 0.20257312 -0.1287539 -0.115223505 0.08394262 -0.0137006 0.020272352 0.022118917 -0.051266972 -0.042724196 -0.045628823 0.04903337 0.15847947 -0.05088706 0.017174374 0.21135704 -0.030613406 0.14599015 -0.055823628 0.098031044 0.12821221 0.100178055 -0.0589665 0.24527603 -0.1259166 -0.0180882 -0.10028169 0.14254321 -0.046674244 -0.15712245 -0.25381857 0.01367569 -0.26067492 -0.02777832 -0.009886996 -0.10581582 0.0067553096 0.13923378 -0.13052101 -0.09226989 0.23542248 -0.15989567 -0.12833607 0.0964622 -0.025815623 -0.11913762 0.07203105 0.010471728 -0.06352442 -0.10832681 -0.09319157 -0.122943796 -0.1149967 0.0018801645 0.10110503 -0.1119971 0.14242962 -0.032854393 -0.07804839 -0.03736219 -0.0937534 -0.14103378 -0.027662447 -0.12845849 0.12592585 0.09521648 -0.14873955 -0.044017702 0.20158134 0.08789901 -0.042345367 0.054623343 -0.071191244 -0.068202764 -0.15595514 0.093607314 -0.16731475 0.00045463193 -0.040077012
69 -0.11801208 -0.03433812 0.021902466 0.015350489 0.01675185 -0.071218304 0.111766785 -0.19571373 0.008056728 0.12409161 -0.0077551473 -0.07570731 0.06989868 -0.06461855 0.0548331 -0.14758222 -0.00132164 0.03162997 0.08732059 -0.081852786 -0.19651613 0.053911712 0.1585506 -0.105601 -0.1752494 -0.26688984 -0.076012164 -0.034188792 -0.13311268 -0.09975011 -0.08076617 -0.08886212 -0.12149507 -0.13242449 -0.0901362 -0.25017574 -0.06736703 0.11419413 -0.005757531 0.18090071 0.2807813 -0.24113905 0.37623206 0.07018483 -0.03772474 0.062241714 0.0677496 -0.489491 0.066179864 0.16578674 -0.07814914 -0.11465277 0.17037971 0.12653264 -0.051318098 0.04535486 0.14302626 -0.115698695 -0.18281016 -0.0830147 0.12242928 0.16819148 -0.25356764 -0.12889394 0.11842693 -0.002043899 0.031795602 0.0069552297 -0.08152962 -0.03626282 -0.084291205 0.068603925 0.030777242 -0.02538406 -0.10980489 -0.28221685 -0.11600434 -0.06371862 -0.12242294 -0.0029463267 -0.14954673 -0.19988258 -0.009610542 -0.010716222 -0.11910157 0.074019276 0.12120985 -0.009159969 0.013870258 0.034646887 -0.12610501 -0.090036735 -0.12074485 0.09385584 0.122542515 0.15797187 0.030658774 -0.009884424 -0.08138576 -0.2931368 -0.118018664 0.0038201942 -0.07363687 0.05645266 -0.1399913 0.1631155 0.24122848 0.20082392 -0.019614886 -0.12529361 0.11675223 0.063333906 0.28386867 0.06923221 0.10445138 -0.09805976 0.06634392 0.049915377 -0.09011253 -0.10789009 0.05642585 -0.034336187 0.08417079 -0.10829061 0.0018531565 -0.2053089 0.010337811 0.11066727
101 -0.086690076 -0.09059191 0.044967692 0.0804218 0.0051168064 0.14006476 0.18597604 -0.26620087 -0.09292427 0.02042944 -0.1051999 0.11127096 -0.12111884 0.1475177 0.05362831 -0.022600092 0.0028657904 0.114147514 -0.107322514 -0.17530857 -0.12404802 -0.10081624 -0.039158914 0.07933061 0.3031588 0.0060781427 -0.1091433 -0.015254674 -0.22639188 -0.1893049 -0.10222686 0.052432574 0.04661424 -0.024896784 0.06892014 0.10989416 -0.12826549 0.11684653 -0.12089044 0.12024962 0.063333735 -0.072621875 0.17835566 -0.030520704 -0.07832929 0.025545072 0.06823564 -0.047670446 0.018712483 0.07773719 0.1012405 -0.07418992 0.057496354 0.09554789 -0.051866177 -0.09001874 0.052069608 0.11127955 -0.2233093 -0.2028758 0.065444015 0.1751336 -0.15144034 0.10273592 0.17999628 -0.04702799 -0.18619467 0.015933113 0.20362902 0.14315136 -0.012071576 0.10444114 0.20938231 -0.16817637 -0.07891035 -0.12541436 0.15675709 0.031583935 -0.047822908 -0.071186006 -0.06262416 -0.08968834 -0.0069098375 -0.014344558 -0.128113 0.04114044 -0.09845537 -0.046148516 -0.1442428 0.061644115 -0.14644673 -0.120503165 -0.1560333 0.044970665 0.021989953 -0.06353456 0.2447576 0.07851308 -0.10051873 0.015265093 -0.12304099 -0.090396665 0.015053753 -0.019823005 -0.088399105 0.30309775 -0.060059402 -0.013241054 0.009922794 0.035171974 -0.019826937 0.134315 0.05832063 0.06481498 0.21745327 -0.1364127 -0.027486648 0.1115038 -0.037348513 0.016844256 0.018539628 -0.13940926 0.1877616 -0.23655686 0.06613074 -0.20076409 0.052930042 0.09853906
446 -0.14579001 0.08056249 0.16106719 0.050604336 -0.03897532 -0.01623947 0.12842911 -0.03133205 -0.14771205 0.17176145 -0.08309377 0.018322324 0.06705285 -0.04732317 0.13661833 -0.11919441 0.045426466 0.15698718 -0.16829179 -0.20304644 -0.11082841 -0.1195745 0.043361597 0.031853996 -0.021312624 0.026836026 -0.040370118 0.015367808 -0.19166315 -0.05588241 0.05234022 0.06783488 -0.043277543 0.0080527095 0.06586498 0.00868351 0.06549014 -0.0033294652 -0.06581399 0.21613072 0.174244 -0.15549251 0.11628855 0.06763687 -0.1178012 0.06783644 -0.037678707 -0.117797226 -0.0716777 0.047684457 0.002192516 -0.13776095 -0.022775821 0.08927786 0.014169028 -0.07199304 0.10241245 0.06624113 0.0064293044 -0.26280373 -0.13916387 0.07822427 -0.19699861 0.020670697 0.08224294 0.091466956 0.06145869 -0.077160396 0.080677375 0.018292613 0.047443733 -0.12443612 0.10190578 -0.14108257 0.035320636 -0.10342862 0.072879754 -0.07587834 -0.036932718 0.041466933 0.092259504 -0.26575187 -0.21973826 -0.08512278 0.012239189 -0.07305849 0.06610972 0.10024929 -0.101640634 0.03790316 -0.15555774 -0.15806568 -0.09471544 -0.022121873 0.057187088 0.24911676 0.04088043 -0.043327197 -0.0025344742 0.03417609 -0.052994892 -0.092930265 0.03262337 0.015766 0.01764031 0.13720444 0.05456702 -0.24047314 0.008198736 -0.051071793 -0.102863565 0.030944597 -0.023744807 0.10283123 -0.0074214074 -0.24797145 -0.034989834 0.17987584 -0.14275756 0.04434183 0.111767456 -0.09233977 0.043832477 -0.06476751 0.042013485 -0.04762085 0.10802801 0.101686
235 -0.072393306 0.054264832 0.0010602026 0.079882614 -0.08072529 0.101683915 0.21280245 -0.15248768 -0.14430057 0.16836865 0.047334295 -0.013208062 -0.0102348775 -0.080252096 0.077963784 -0.08385635 -0.020820409 0.11527991 -0.09237285 -0.135348 -0.13286705 -0.059184764 0.026474293 -0.041556567 0.07178634 -0.08641977 -0.11698108 -2.2080541e-05 -0.19868362 -0.042192243 -0.063974276 0.026568938 -0.0024906832 0.006088554 -0.091698565 -0.0637329 0.06980715 0.026080519 -0.13678086 0.19175327 0.10128052 -0.08496139 0.14266668 -0.013348909 -0.030118732 0.078951515 0.04567554 -0.19671728 -0.12389623 0.056749206 0.014929611 -0.07690153 -0.08894166 0.05108196 0.081467725 0.008491622 -0.01718284 -0.0030116618 -0.088137135 -0.15648897 -0.0054164417 0.050936695 -0.07074373 0.040877678 0.092419386 -0.01916622 -0.08279128 -0.09871108 0.14568837 0.05770277 0.025313135 -0.02632962 0.11081793 -0.056744233 0.044302076 -0.064225204 0.01548102 -0.092804275 0.01666112 -0.068121865 0.025513921 -0.21658672 -0.09331419 -0.0021279966 -0.033653695 -0.029844979 -0.0032487083 0.055047367 -0.056059945 0.16277559 -0.22448246 -0.1406932 -0.12560315 0.052611776 0.06255741 0.21021245 0.065221265 -0.0455469 -0.06817084 -0.09848388 -0.10591307 -0.09391472 0.019153679 -0.05232638 -0.0023070474 0.23229277 -0.09905844 -0.1662925 0.027472839 0.1210395 -0.08297873 0.002021143 0.063258655 0.051355947 0.07327775 -0.16909714 -0.055926405 0.15693165 0.024715891 -0.00097371935 0.15187572 -0.086736225 -0.0054291463 -0.1753252 0.08509947 -0.1560454 0.07960779 0.050239686
399 -0.04542231 0.041591894 -0.095512584 -0.0059800697 0.031332962 0.21857508 0.062344726 -0.14026088 -0.19958036 0.009802174 0.018436678 -0.032398626 0.008905759 -0.17075324 0.07926509 -0.10154697 -0.06119113 0.07917193 -0.055835173 -0.17860927 -0.07408903 -0.05464174 0.0056581437 -0.06564366 0.08025726 -0.017792972 -0.082395926 0.048254877 -0.24052231 0.01319406 0.011690931 -0.0056721377 0.045157284 -0.013251262 -0.0039045205 -0.1485967 0.050277997 0.0737868 -0.13213667 0.23898864 0.15334037 -0.124371275 0.10765207 0.058111895 -0.14059809 0.046025313 0.006314463 -0.11404929 -0.094898336 0.052432444 0.0076644165 -0.020430628 0.004059274 0.0020593917 -0.0103742145 0.11145218 0.034597166 0.046778314 -0.0035044577 -0.12423552 0.03624916 0.06562414 -0.06677572 0.042222943 0.08957597 -0.068095766 0.04022641 -0.051516887 0.21200454 0.11842915 0.044790592 0.025327263 0.09551589 -0.1866387 0.014007832 -0.06354565 0.13225646 -0.13509324 -0.015607605 0.010512783 0.048363056 -0.05777266 -0.17060108 -0.025285318 -0.0228973 -0.005904285 0.023724638 0.05158128 -0.0702297 0.12585606 -0.27921543 -0.12224096 -0.009650204 0.0032997576 0.029211773 0.20014273 0.10180301 -0.053580232 -0.03104375 -0.012995822 -0.050180037 -0.032475438 0.028218485 -0.07118481 0.044324294 0.11894319 -0.06535932 -0.14575797 0.066003 -0.025560193 -0.03998013 0.017072087 0.07876745 0.10097103 0.14456509 -0.23124044 -0.011530066 0.14380443 0.035134703 -0.057761624 0.15918528 -0.09020386 0.08661582 -0.20876746 -0.007355149 -0.12295978 0.06652051 -0.007996948
33 -0.082441814 0.021855364 0.0001042725 0.13901395 -0.06154613 0.23547485 0.1832408 -0.11566269 -0.1647511 0.07803841 0.005166272 -0.084848404 0.06992176 -0.049521044 0.07198547 -0.1506482 -0.0066352454 0.06595177 -0.0074997195 -0.053056926 -0.16100197 -0.0012672675 0.10637693 -0.13517278 0.076872125 0.008428662 -0.1875116 -0.037259974 -0.15911683 -0.048119303 -0.11764234 0.06258816 0.046792515 0.0353885 0.096853554 -0.059788402 0.047858007 0.005804647 -0.17782901 0.17795053 0.08544368 -0.1757459 0.10851359 -0.03549441 -0.081251204 0.0005315349 -0.04986587 -0.077236496 -0.047954995 0.13241482 -0.04300613 -0.0993907 0.04807507 0.00910591 0.04589334 0.021608878 0.0005663945 0.014476832 -0.16742747 -0.19203243 -0.017707594 0.058255687 -0.09216461 0.019994805 -0.021464527 -0.05097234 0.06677127 -0.067907445 0.13677469 0.13308391 0.06975959 0.057289407 0.13033591 -0.12859112 0.024018338 -0.04861477 0.11902901 -0.085592754 -0.024123073 -0.08689737 0.0226065 -0.16896027 -0.051478148 -0.051931296 0.018618474 0.021730715 0.06745219 0.027623186 -0.021478118 0.02494019 -0.23780282 -0.14663494 -0.044742715 0.0034276159 0.090825155 0.14508246 0.07336228 -0.06662635 -0.15441625 -0.10333805 -0.01278167 0.0018893825 0.06042557 -0.12928873 0.084857754 0.1399008 -0.08489857 -0.117463075 0.06897671 0.042441107 -0.06924238 -0.06944933 0.16168357 0.0842943 0.21480116 -0.15606417 -0.109497905 0.063399084 -0.048371468 -0.08451151 0.07007863 -0.1217999 0.10130399 -0.21015385 0.0063666906 -0.1909095 0.08130802 -0.008276669
402 -0.20678021 0.07314323 -0.03408213 0.09327056 -0.032070614 0.062179923 0.23989536 -0.20810536 -0.23877798 0.06917072 0.0058908286 -0.058757924 -0.036804818 -0.12589861 -0.005908454 -0.11656515 -0.06882032 0.09905859 -0.05813277 -0.07162933 -0.18489261 -0.056228776 0.09959069 -0.08759745 0.023356115 -0.03636653 -0.12305423 0.025520949 -0.18712732 -0.0899713 0.007566493 0.05103387 -0.020761294 -0.055142723 0.046947256 -0.17614247 0.12634885 -0.09929989 -0.11327248 0.13590728 0.15497355 -0.10380705 0.17362612 -0.0063516963 -0.08391502 0.0669947 0.0063063507 -0.11298264 -0.050823666 0.064611554 -0.015081065 -0.076660946 -0.05203021 -0.011817037 -0.040413354 -0.06687243 -0.034239247 0.052946813 -0.10038536 -0.11226115 0.04473673 0.096897714 -0.12573627 0.08913393 0.07436681 -0.022539305 -0.031113937 -0.08254688 0.18640774 0.05335154 0.022499835 0.008193388 0.13932273 -0.1698983 -0.047714476 -0.058874283 0.120235 -0.011602694 0.03839503 0.024215266 0.098380364 -0.06762536 -0.15528879 0.06349253 0.018360453 -0.022852698 0.057991374 0.11828275 -0.07346902 0.14521326 -0.030951481 -0.054757863 0.027839165 0.020387761 0.06504941 0.27712294 0.035448473 -0.041604523 0.013368403 -0.10387966 -0.017436301 0.021827305 0.021520415 -0.13237244 0.0050418936 0.13054891 0.068343334 -0.0844836 0.024115276 -0.02377237 -0.10588781 -0.036215506 0.163797 0.084992774 0.074949555 -0.13284364 -0.05127329 0.19444528 0.003756424 -0.059148133 0.13169508 -0.09051495 0.044196233 -0.12836888 0.031837076 -0.16292758 0.06764245 0.09347225
279 -0.03379621 0.02673578 -0.023494646 -0.041915778 -0.0007871768 0.23081645 0.22789393 -0.098812565 -0.15655212 -0.07501653 0.027260536 0.020181665 0.05687185 -0.010323615 0.1607367 -0.07226331 -0.103901565 0.12963948 -0.010899716 -0.20424378 -0.08961479 -0.047955982 0.10401883 0.03648208 0.124092564 -0.05494563 -0.087815545 -0.055671286 -0.24948764 0.011722126 -0.013635415 0.049344085 -0.081834964 -0.04171618 0.056943584 -0.08516033 0.022824695 0.021986341 -0.12047311 0.23168066 0.0898497 -0.16324092 0.13382916 -0.06941554 0.02619152 -0.0046487767 -0.12288236 -0.028077174 -0.14205688 0.11653731 0.016748983 -0.09977706 0.0019218698 0.054610614 0.025118861 -0.009293848 0.10796524 0.003697822 -0.08825112 -0.17686348 -0.030375127 0.070553735 -0.043115515 0.12238879 0.039653514 -0.01337583 0.025590193 -0.016063409 0.19654907 0.12288328 -0.10714678 0.07278555 0.20677933 -0.07978189 0.16366409 -0.07499836 0.12640919 -0.05691542 -0.057940133 -0.046271197 0.029724699 -0.14358494 -0.23833317 -0.011316869 -0.080964796 0.052729644 0.012910442 0.17822433 -0.042076994 0.14164262 -0.09718103 -0.09811771 0.014273413 -0.03632402 0.119557574 0.16587438 0.07070159 -0.09932001 -0.062431756 -0.06559551 -0.044034846 -0.15224707 0.055643998 -0.10703373 -0.0045467177 -0.0011436777 -0.03852476 -0.086774565 0.09094307 0.14787959 -0.03560825 -0.055548903 0.22956711 0.10743577 0.14038083 -0.20313025 -0.009117371 0.040070444 -0.06688405 -0.07854481 0.14218055 -0.10914439 0.070680276 -0.15904038 0.108514026 -0.15268324 0.13047546 0.030988242
209 -0.24286453 0.02829549 -0.06516975 0.051820505 -0.0047738985 0.15331352 -0.02650098 -0.079330124 -0.17075202 0.120625824 -0.10948941 -0.030024325 -0.10322735 0.019125594 0.061891478 -0.012041247 -0.036837645 0.23556107 -0.14021727 -0.054333515 -0.021442553 0.09600035 -0.020037433 0.12423933 0.100607134 0.039611116 -0.18513085 -0.06876056 -0.07495021 -0.11152691 -0.0847934 -0.057807505 -0.07772459 -0.15259582 0.0892609 0.080945976 0.04792609 -0.07722463 0.0846938 0.30955607 -0.047657058 -0.15759479 0.14442009 -0.028410593 0.017825091 -0.12161643 -0.103526756 -0.015008445 0.08328096 0.046778645 -0.053585783 -0.060396343 -0.22649592 0.049654264 0.021872118 0.0005667117 0.07886303 0.006790077 -0.24596506 -0.18300046 -0.0705701 0.16709462 -0.11950335 0.07922749 0.15257522 -0.040931817 0.10568782 -0.13183375 0.1621264 0.09083521 -0.11618442 0.038089156 0.010123937 -0.010509654 0.064333096 -0.04522421 0.216151 -0.0048579015 -0.1576758 -0.055255968 0.16094106 -0.10116111 -0.22783676 0.09592976 -0.0823475 -0.09166963 -0.03793982 0.10052116 -0.16036454 0.14566457 -0.16376461 -0.2073311 0.07090674 -0.0007393231 0.08017905 0.14146312 0.036053017 -0.07700282 -0.13576706 -0.13315678 -0.009480182 -0.042266913 0.022915827 0.020736974 -0.013240661 0.16458517 0.041652795 -0.09421691 0.106030256 -0.051142775 -0.18395577 -0.07229216 0.15716553 -0.018298578 0.10032263 -0.2198492 0.04264086 -0.12390872 -0.028622735 -0.11017432 0.19712113 -0.017019736 -0.018333813 -0.03682798 0.01824366 -0.011926274 0.07409287 0.052833628
246 -0.087747656 0.014158313 0.12584652 -0.007298735 -0.048346795 0.027935484 0.054680176 -0.19559997 -0.21219172 0.03223224 0.0019162942 -0.11983368 -0.008155679 -0.31269628 0.0057523646 -0.06024712 0.04572357 0.07259285 -0.011741384 -0.18400306 -0.06077238 -0.08376395 0.18432304 0.05244187 0.13381056 -0.09601849 -0.08196385 0.031536862 -0.26095304 -0.0828745 0.00026042646 -0.041657932 -0.16066615 -0.173828 0.07703167 -0.10865519 -0.07075836 -0.041855134 0.0059480374 0.1462212 0.08913723 -0.0678613 0.15857972 -0.009104691 -0.09784365 0.05920613 0.12443587 -0.078663304 -0.24317351 0.095553085 0.04954568 -0.16941267 -0.0553809 -0.043834403 0.024724023 -0.031549424 0.04158871 -0.0045147734 -0.18453526 -0.16365142 -0.031689227 0.036325675 -0.21912071 0.090786316 -0.059332132 -0.13288832 -0.1511675 -0.09128 0.14185919 0.06358894 0.0068146084 0.041554548 0.042459052 -0.030009963 -0.14324047 -0.13111761 0.074373 -0.0588972 -0.058746584 -0.08359602 0.0441132 -0.16884875 -0.07644164 -0.04267226 -0.0074474444 0.05725753 -0.017550534 0.03826326 -0.12296259 0.03092115 -0.12488772 -0.07176307 0.067504905 0.06569224 0.16227679 0.11164903 -0.0074901883 0.0513859 -0.016788527 -0.11288694 -0.11876174 0.039813653 -0.03153781 0.04597387 0.0017747901 0.15390918 -0.094498985 -0.1404546 0.0121982 0.072913185 -0.06506283 -0.1500479 0.14725193 0.10288288 0.11051846 -0.2578223 -0.03733403 0.040734954 0.09309723 0.009256887 0.12893121 -0.042738996 -0.012158085 -0.0068805157 0.058036637 -0.08984042 0.0720816 0.02441112
62 -0.00050886895 0.0356326 0.24072215 -0.10327658 -0.053574216 0.18137781 0.11433082 -0.18018824 -0.08915614 0.18283337 -0.09824575 -0.1921321 -0.03777103 -0.09977917 0.06764507 -0.037738852 -0.0057106595 0.012741366 0.044394314 -0.18407689 -0.16200364 -0.060356446 0.04219998 0.005488946 -0.18544862 0.028834911 0.07747934 -0.07161987 -0.1737987 -0.09532421 0.022767046 0.026142318 -0.049401466 -0.041357122 -0.09682679 -0.13376762 -0.13780245 0.024266062 -0.1389482 0.16167198 0.19020541 -0.18517435 0.26556146 -0.019060832 -0.11403013 0.0053436724 -0.09549382 -0.37915528 -0.12779693 -0.14052969 -0.0038738404 -0.20598607 -0.033019394 -0.05558315 -0.10381782 0.034810323 -0.10298545 0.07006385 0.011343621 -0.15954952 0.18550126 0.2022211 -0.18856935 0.009546083 0.08732441 -0.00095607614 -0.0054193903 -0.03191635 0.11977885 0.039708238 -0.011719915 0.047233954 0.08016346 -0.01671095 -0.16738032 -0.17764857 0.03719068 -0.1508963 -0.15040661 -0.12319532 -0.10645004 -0.05540109 -0.041263837 0.003458672 0.00585174 0.09563684 0.018669922 -0.059169203 -0.07068726 0.113824375 -0.27200148 0.017424494 -0.10756965 -0.103034616 0.048714723 0.2484614 -0.035021335 -0.15339221 -0.092506506 -0.14287412 0.039362777 -0.09363692 0.1218489 -0.12950714 0.14563969 -0.0985513 0.18699506 0.06905439 0.014020989 0.086544424 -0.09040249 0.065430366 0.22015487 0.0039341357 0.16719858 -0.2880172 0.13667378 0.14482617 0.047092 -0.14930117 0.025486644 -0.036025543 0.11546466 -0.08653572 -0.09932185 -0.0754391 0.3545744 0.059521146
259 -0.04988562 0.01587876 -0.010573561 -0.015043332 0.06883661 0.17420715 0.14463653 -0.21028598 -0.23702358 0.0006483939 0.05714354 -0.031446114 -0.020199275 -0.09122199 0.03267471 -0.12858649 0.03179122 -0.023938617 0.015383239 -0.16233557 -0.18949154 -0.031917367 0.058390867 -0.07064064 0.022476377 -0.025170531 -0.1371413 -0.051351696 -0.1780791 -0.062772855 -0.044393633 0.05462203 -0.04148382 -0.16087298 -0.0009878242 -0.15912965 0.05596294 -0.0020584888 -0.15285079 0.27490044 0.17939322 -0.13170204 0.13652892 -0.037067756 -0.09613926 0.005079878 -0.06853234 -0.17147927 -0.022206632 0.101724565 0.11449732 -0.08534471 -0.10272954 0.064011164 0.00534504 -0.0036917313 -0.024599764 -0.032820735 -0.12735033 -0.097039595 -0.01118793 -0.028175047 -0.06875545 0.045165107 0.10223705 -0.06761004 0.031783305 -0.04748274 0.15803778 0.040705197 0.044500798 -0.021679988 0.005342116 -0.014596665 -0.019095162 -0.037744455 0.041330345 -0.055453405 -0.015018723 -0.086406864 0.097353764 -0.08909549 -0.12992981 0.11233341 -0.057044648 -0.035814993 -0.025551114 0.11270304 -0.002205903 0.17186953 -0.1957794 -0.078217335 0.09226021 0.002355828 0.06802932 0.0908104 0.05891882 -0.066997096 -0.03749005 -0.01452351 -0.024278874 -0.109095365 0.019104976 -0.06477171 -0.009676599 0.0077868393 -0.06296805 -0.1457147 0.067443825 0.059140053 -0.043139458 -0.023096606 0.16758399 0.070262924 0.13099155 -0.32021448 -0.010759828 -0.048852317 0.04386372 -0.062626556 0.09397166 -0.0810656 0.001874164 -0.09186478 0.09670678 -0.17174225 0.095304444 0.09546005
394 -0.05143805 0.07646505 0.017063368 0.09434713 0.04895778 0.13308655 0.16409802 -0.17122942 -0.16168675 0.028282842 0.042128924 -0.07413246 -0.012342073 -0.12105547 0.10585191 -0.1308146 -0.014796849 0.15227869 -0.03463334 -0.16225499 -0.103344865 -0.09287313 0.069999106 -0.12518778 0.09698925 -0.099376656 -0.14570579 -0.036758587 -0.16311069 -0.01772804 -0.065937966 0.06488845 -0.03208056 -0.118189715 0.057821307 -0.10855289 0.016579421 -0.08392739 -0.16217427 0.23123199 0.08129561 -0.09292302 0.12754494 -0.0044549527 0.0014057099 0.05863114 -0.021801187 -0.13328439 -0.049157117 0.10172487 0.06525431 -0.057486374 -0.047418397 0.021301234 0.021730114 -0.020493157 0.058890652 0.045772295 -0.1524319 -0.11656673 0.0048363353 0.04453458 -0.06786628 0.15037833 0.027512375 -0.08181832 0.0056147235 -0.05151645 0.20015912 -0.026886072 -0.043949142 0.032842595 0.1956668 -0.060657755 -0.028524606 -0.09212286 0.11402311 0.015242454 -0.07127968 -0.06879844 0.13593876 -0.21040644 -0.10455162 0.107352495 0.00947634 0.028090984 -0.079875186 0.055855177 -0.019223085 0.11877204 -0.12902088 -0.040855456 -0.041583166 0.055853806 0.04220047 0.18991446 0.106213644 -0.056533143 -0.015049423 -0.07662668 -0.0072023887 -0.0054020444 0.028596943 -0.077072345 0.044747327 0.13895842 -0.006065341 -0.08565886 -0.009793242 0.015540058 -0.1702968 -0.020166185 0.098451376 0.15056163 0.051863562 -0.29036504 -0.033749737 0.0035792831 0.025115857 -0.08968518 -0.019003775 -0.12789035 -0.027094567 -0.15927568 0.011180081 -0.1561021 0.10118826 0.015281863
416 -0.14404534 -0.043844488 0.07695702 -0.028895508 -0.0022215722 0.05241581 0.17427157 -0.2456975 -0.13061479 0.05563522 0.13921 -0.03220331 0.0028875605 -0.24494518 0.055878866 -0.004166781 -0.16030174 0.09556597 -0.09328237 -0.19018239 -0.09011545 0.034507137 0.09835025 -0.016600166 0.074547 -0.12181399 -0.1067921 0.06256512 -0.11848548 -0.12857851 0.0562266 0.0056619043 -0.07702666 -0.09601078 0.07739049 -0.046438918 0.082745135 -0.008752638 -0.16051266 0.26129153 0.059686232 -0.061991867 0.06847547 -0.052486423 0.010749528 0.05989256 0.014034671 -0.055561963 -0.16808076 0.24009992 0.12900537 -0.07301202 -0.010777969 0.12117198 -0.036666594 -0.0060597486 0.06298238 -0.08662387 -0.023290673 -0.24711804 -0.051286854 0.038325526 -0.049466547 0.06865274 0.13892163 0.010594817 0.013157495 -0.051255535 0.08924759 0.05074799 0.060902372 0.033590015 0.2455643 -0.14978972 0.0095505975 -0.020168794 0.17513587 -0.031101793 -0.04355007 -0.03804296 -0.06347031 -0.20859875 -0.16026197 -0.010322703 -0.084179096 -0.095588155 0.078560464 0.08085093 0.03740808 0.14165837 -0.13616921 -0.10830518 -0.007410722 0.019958263 0.0067523043 0.12348738 0.02829109 0.08927314 -0.14445208 -0.110626034 -0.08686832 -0.054268386 0.09683599 -0.093221836 0.04177014 0.066103116 -0.024336012 -0.14584824 -0.035205808 -0.06786652 -0.14489624 -0.1075993 0.06260479 0.09496999 0.08895319 -0.25355396 -0.07077465 0.050037656 -0.09419912 -0.0066224104 0.11084392 -0.12744506 0.06327876 -0.10615346 0.14736392 -0.116038844 0.064433254 -0.09509581
293 -0.101100855 -0.03469353 0.14605124 -0.017324911 -0.0004420818 0.08406171 0.2551074 -0.16774105 -0.17450273 0.16063547 0.03201023 -0.11623432 0.013494665 -0.041416064 0.06485276 -0.02448293 -0.06246306 0.18116769 -0.05015246 -0.1251538 -0.06614765 0.041371427 0.043115895 -0.018327527 -0.026403548 -0.09630413 -0.1136727 0.041612394 -0.1748783 -0.051467896 -0.0027989883 0.01819854 -0.12567283 -0.023312438 0.05100911 -0.053469133 0.021716101 0.041789126 -0.09383559 0.24171272 0.0012949518 -0.15979594 0.2077786 -0.0091187395 0.022985345 0.051782858 0.01710766 -0.10825443 -0.11676772 0.041429434 -0.020228848 -0.048072618 -0.047530487 0.09714289 -0.017429253 0.01690876 0.071779445 -0.018395908 -0.14582035 -0.035257287 -0.031130398 0.019692821 -0.18617305 0.15155318 0.12171581 -0.0829568 -0.030285623 -0.08625276 0.07779853 0.06780146 0.024003487 0.007834007 0.04822412 -0.09150962 -0.027148964 -0.13207217 0.08398019 -0.169163 -0.021218996 -0.027217492 0.092999004 -0.18898441 -0.16837983 0.042837888 -0.04141508 0.07213489 0.0749719 -0.0052574356 -0.1333722 0.09844606 -0.20261993 -0.028113095 0.032605797 -0.048344478 -0.032180056 0.24129131 -0.020354604 -0.062993035 0.015621871 -0.115975745 -0.058802295 -0.013086948 0.07529168 -0.1225001 0.045617867 0.21273433 0.015847264 -0.092192076 0.06362626 0.03061352 -0.20108464 0.056836486 0.17119364 0.010018483 0.08979455 -0.2506738 0.030406384 0.11436745 -0.0011259761 -0.09729074 0.100293145 -0.13711819 -0.010730535 -0.13216048 0.09763316 -0.124796934 0.0021746275 0.020195767
187 -0.0577955 -0.066153936 0.37423533 0.032752827 -0.015689421 -0.07244318 0.2877147 -0.0327696 -0.15750387 0.15346758 -0.003911945 -0.10303633 -0.000888524 -0.14716318 -0.10421101 -0.31904027 -0.10726233 -0.019568281 0.008621616 -0.11708963 -0.115620755 -0.10092933 0.20041989 0.1630243 0.06543447 -0.0045979097 -0.023628034 0.03943798 -0.2296957 -0.11286225 -0.15953216 -0.19338791 -0.10606806 -0.15790822 0.072855346 -0.19727756 -0.058099672 -0.10907264 -0.15129706 0.051976442 0.11051559 -0.03135317 0.18903366 -0.053890817 -0.07301701 0.16315123 0.098557904 -0.070623845 -0.16950479 0.0955733 0.08225353 -0.07177897 -0.064620815 0.07421208 -0.088983774 -0.082629286 0.052835867 -0.015440216 -0.094225496 -0.15703604 0.015105387 -0.052540075 -0.15137804 -0.11455883 0.06697649 -0.049808774 -0.08168611 -0.15369055 0.21821976 -0.028498605 0.013132704 0.05484495 -0.060950078 0.028138036 -0.04470807 -0.15348108 0.10580144 -0.22636698 -0.11142846 -0.09590765 0.06813927 -0.21897389 -0.12822951 -0.118312106 -0.050434723 0.031443592 -0.05994368 0.08483079 -0.16716504 -0.07677092 -0.12182768 -0.07324437 0.015408728 -0.020597646 0.20420167 -0.013687454 -0.1089748 0.20887783 -0.1431284 -0.04268849 -0.16463487 0.080400884 -0.049038816 0.0456281 -0.037575316 0.19946972 -0.040132515 -0.08896891 -0.03934825 -0.019359566 -0.07561353 -0.16185445 0.041341677 0.07875689 0.17521417 -0.1367308 0.0020831504 0.008765332 -0.017470147 -0.09976266 0.11481684 -0.018121634 0.018695721 -0.18595427 -0.07177486 -0.09278698 -0.042351075 0.03980333
198 -0.091479205 0.073445104 -0.015091959 -0.022660926 0.101072155 0.092786916 0.15977363 -0.18616503 -0.09151345 -0.02659257 -0.0365996 -0.104824446 0.08003294 -0.038069684 0.064489014 -0.11407063 -0.04749906 0.10788591 -0.10625124 -0.10162986 -0.17283899 -0.025268627 0.12695539 -0.11539817 0.1031234 -0.015225601 -0.1753762 0.0015336302 -0.0688232 -0.052647155 -0.07231262 0.014604887 -0.08210009 -0.13257481 -0.04667811 -0.13449919 0.054172814 -0.07227988 -0.092636146 0.17598915 0.074919894 -0.13849218 0.20841908 -0.0974964 -0.054455586 0.044989787 -0.06652584 -0.11643837 -0.018310227 0.016441418 0.0741316 -0.10006019 -0.08497056 0.016672013 0.0110631315 0.060354464 0.028466955 0.008198723 0.023862503 -0.02948927 -0.053099997 0.07574333 -0.16022143 0.077746846 0.05101639 -0.004019765 0.008122337 -0.048962925 0.119496435 0.04142646 -0.004139764 0.041101467 0.11698804 -0.06790819 -0.021687595 -0.08752155 0.10706495 -0.07439488 -0.021035273 0.014085063 0.004979319 -0.16577208 -0.16729343 0.028307837 -0.07475759 -0.02946027 0.029585017 0.0015495155 -0.02628434 0.122552596 -0.21133642 -0.12360406 -0.0023074667 -0.03801922 0.045545008 0.15386994 0.028522886 -0.072002605 -0.032918278 -0.08001692 -0.03879045 0.01685102 0.06090756 -0.047696035 -0.031741966 0.12837031 -0.107412964 -0.14990415 -0.029295456 0.015653085 -0.13747418 0.00023476112 0.15695938 0.10021023 0.10063586 -0.22662039 -0.03004908 0.05971071 -0.07163759 -0.022702351 0.10442568 -0.07495844 -0.03392696 -0.16372721 -0.04551127 -0.26592764 0.034082316 -0.015854573
206 -0.14785491 0.10625073 0.015393918 0.23498696 0.03786383 0.26734427 0.04533083 -0.14446639 -0.31395295 -0.1047196 0.0050005536 -0.07866844 0.057532743 -0.08699236 0.0532696 -0.016485026 0.064950824 0.09241183 -0.058115512 -0.065730475 -0.12272645 0.20929453 0.15225028 0.20151201 0.041464433 0.15125816 -0.1365235 0.070550404 -0.03775159 -0.011852336 -0.15065603 -0.04956929 -0.1527898 0.04492501 0.009666922 -0.10414881 0.034743126 -0.12818916 -0.07047098 0.19941126 0.018161573 -0.09975611 0.20705883 0.09154356 -0.09345651 0.019028557 -0.13267064 -0.029304322 -0.03676316 0.11269648 0.05771432 -0.14379723 -0.019318005 0.104853906 -0.03545347 0.03936256 -0.052483127 -0.0066265026 -0.09130632 -0.06420966 0.049140252 -0.007587929 -0.07053178 -0.04538732 0.103544585 0.015776657 0.06356977 -0.081682816 0.08508187 0.15058059 0.04903341 0.109107845 0.33340082 -0.03517952 0.12193061 -0.025090639 0.0749499 -0.07087878 -0.122764714 0.017636852 0.055016614 -0.12279292 -0.0013175778 -0.036701046 -0.00093529554 -0.061503403 -0.18818516 0.03309511 0.051254332 0.14026241 -0.20976481 -0.16069412 -0.09903052 -0.13554625 0.15792982 0.107649736 0.013640293 -0.15242279 -0.0727481 -0.18261075 0.01157356 -0.03296017 0.12760775 -0.21522003 0.15214382 0.11287435 -0.036612645 -0.06847028 0.033670243 -0.080305584 -0.1657143 -0.06841051 0.093398266 0.017514976 -0.0019134588 -0.25129262 -0.06146171 0.01452015 -0.089097686 -0.013473689 0.15207879 -0.005125788 0.07658447 -0.1233111 -0.06475943 -0.23544176 0.22866608 0.050709967
215 -0.17637216 0.020510465 -0.2509828 0.10030977 -0.13631408 -0.3509356 -0.061772328 -0.08642904 0.020418761 0.022093914 -0.059454527 0.09284728 -0.31515956 -0.3242396 -0.11376117 -0.041649472 0.18980718 0.07182038 -0.043304842 -0.10750797 -0.17709693 0.04662616 -0.08558443 0.05784112 0.12197271 0.15873767 0.03283907 -0.33499315 -0.270899 -0.30569834 -0.12834547 -0.03569535 0.049109988 -0.01825741 -0.15752968 -0.09069683 0.05801881 0.037282832 -0.14871222 0.23831385 0.106517985 -0.059465606 0.06250142 0.07667233 -0.13232194 0.16672994 0.056002576 -0.10019473 0.12091275 0.10530549 0.20743477 0.012772213 0.011553406 0.12977624 -0.09095567 0.21787375 0.14776295 0.120851316 -0.11526153 -0.18633607 0.0059390957 0.10047618 -0.2633433 -0.19334373 0.32293254 -0.04617503 0.028020281 -0.15424909 0.029337056 0.19312035 0.20113379 0.0069747423 -0.0068343994 0.057253838 -0.0055817156 0.08770227 0.14706597 -0.12523468 -0.2738774 -0.03311829 -0.03402087 -0.16803817 -0.18207182 0.13965255 0.010298192 0.12115941 -0.099685386 0.091720015 -0.0023150656 0.11378573 0.00087894447 0.06417439 -0.174107 -0.124241754 0.09736394 -0.026056018 -0.14284572 -0.012318733 -0.12830639 -0.12980145 0.009045995 -0.104724936 -0.20720533 0.2557784 -0.21738446 0.20401376 0.10593942 -0.13032602 0.012655246 0.06501092 -0.14520094 0.11681273 0.10056958 -0.026337447 0.2430738 0.029126622 0.07038758 0.021829013 -0.14028773 -0.07887633 0.20725772 0.053360563 0.16361979 -0.27501303 0.15538678 -0.056174118 -0.054882366 0.16807564
114 -0.16464286 0.06156221 0.03346409 0.086625256 -0.0075049647 0.07425181 0.1694137 -0.17419791 -0.18849635 0.08519845 0.03421911 -0.04227016 -0.028289778 -0.24291676 0.07508336 -0.09424084 0.006626687 0.16776508 -0.10219215 -0.060803015 -0.1450071 -0.03736493 0.053646136 -0.07547172 0.030496093 0.0642291 -0.11982606 0.041850876 -0.15579632 -0.01718372 -0.0062994156 -0.004808899 0.015087207 0.012701604 0.016140684 -0.13233237 0.023694975 -0.058452554 -0.080204226 0.25749445 0.18108034 -0.10903098 0.23355573 0.035450425 0.021415431 0.08670711 -0.035000045 -0.09103214 -0.020336404 -0.023650143 -0.029993515 -0.11375886 -0.06807033 0.03382939 -0.062985696 -0.04586775 -0.061751314 -0.00058222696 -0.049695745 -0.02666583 -0.036416017 0.08827919 -0.030901933 -0.019045983 0.18724966 -0.02177074 0.022418508 0.041716013 0.10778228 0.107295655 -0.01866984 -0.025809726 0.14612576 -0.031234454 0.027477305 -0.047374066 0.04401519 -0.076693065 -0.06840023 0.008234612 0.08594858 -0.21461101 -0.14913377 0.037406914 -0.073242724 0.016442211 0.027542336 0.053180672 -0.034926493 0.2337851 -0.16025972 -0.1464941 -0.014717396 -0.029933525 -0.0006045454 0.15279204 0.10434026 0.04186118 -0.0157224 -0.10628873 -0.09991753 -0.05375068 0.03604298 -0.086913265 -0.03621894 0.18988883 -0.06994366 -0.1193513 0.012587155 0.0165435 -0.14191799 -0.0073300707 0.10099688 0.037058882 -0.033510543 -0.18139598 -0.05770295 0.24672225 -0.081696406 0.053042177 0.105834775 -0.11418858 0.013812466 -0.19762564 0.0045279725 -0.23985824 0.12763491 -0.019055787
282 -0.22985849 -0.095143676 -0.19528629 -0.06295653 -0.028009284 0.048962407 0.18023084 -0.10552241 -0.2801058 0.13072705 0.011132297 0.029873015 0.009602563 -0.19063713 -0.12143691 -0.076701924 -0.03340063 0.163078 -0.07119595 -0.07392535 0.03828229 0.12384109 0.14313555 -0.06539544 0.14472544 -0.14247425 -0.10215019 -0.050428536 -0.17222583 -0.11050424 -0.05834293 -0.0062820897 -0.1468492 -0.13227873 -0.05669113 -0.18565735 0.0033282822 -0.048238546 -0.14660141 0.21274112 0.27918786 -0.055521943 0.17492044 -0.17816874 -0.03522977 0.12025081 0.11923362 -0.053700533 -0.081915416 0.12323403 0.14066154 -0.07660341 -0.06688976 -0.04349639 -0.026479216 -0.13749795 0.13542713 0.026864039 -0.16941601 -0.10228753 -0.029317543 0.06011518 -0.20686312 -0.14280741 0.017255114 -0.054748617 -0.048900425 0.008630735 0.03957837 0.13274013 0.08559258 0.001174189 0.14613672 -0.14013173 -0.02186032 -0.14395463 0.10317733 -0.023993632 -0.10690402 -0.1269433 0.1719336 -0.18219896 -0.13655947 -0.0846383 0.05591738 0.035069134 0.09081584 0.02526223 0.013545383 0.13982044 -0.13949294 -0.15790422 -0.08036545 0.011884295 0.0010262292 0.17101938 0.06142071 -0.007934548 -0.06206793 0.05256392 -0.17015265 0.03813938 0.21782416 0.0031005787 -0.13551489 -0.046689246 0.11661478 -0.12233223 0.009730507 0.07122207 0.020496009 0.075933754 0.06831951 0.12543216 0.077590644 -0.24446766 -0.14638716 0.15792243 -0.022105856 -0.30940256 0.020881914 -0.10284215 0.04650815 -0.08865584 0.0547966 -0.12425585 0.0448739 0.022839788
404 -0.108710475 0.06226924 -0.18278047 -0.11546942 -0.088633835 -0.14120027 0.0750458 -0.22054958 -0.034666132 -0.004783061 0.05120779 -0.2898597 -0.035655815 -0.13580684 0.09936685 -0.0026056156 0.0052484456 -0.038090702 0.049405046 -0.36502537 -0.06569271 -0.031001994 -0.0073718843 0.04786771 0.23847352 0.09725276 0.02728329 0.08874048 -0.22659114 -0.15503292 -0.035534706 -0.4416111 -0.19669816 -0.09007778 -0.2553446 -0.052801404 0.06786376 -0.0011183748 0.07247361 0.069030374 0.217453 -0.07962379 0.084227614 -0.037142504 -0.1037383 -0.28358686 -0.17952111 -0.065268524 -0.050085194 0.06687812 -0.26308408 0.019105405 -0.03641935 0.03506257 0.11778475 0.27220568 0.25945622 -0.0846317 0.098261036 -0.11618166 -0.01924417 0.22694996 -0.12712063 0.017414484 0.09708443 0.003835594 0.10740131 0.026398003 0.52386594 -0.011396449 0.1415802 -0.032609615 -0.20282534 0.008467805 0.2298192 0.11981378 0.44780973 0.16001892 -0.2780736 0.026361989 0.29129195 0.10584566 -0.21610801 -0.15219922 -0.17369314 0.14409843 0.032758385 0.28032303 -0.09699246 0.19747467 0.007996847 -0.043865584 -0.29006088 0.056220867 0.2872294 -0.030565131 -0.005899489 0.030283771 -0.2506086 0.08004206 -0.11881345 0.04087014 -0.07709229 0.12482184 -0.09607592 -0.02705468 -0.0736648 -0.1446569 -0.24068217 -0.39136583 -0.28147206 0.34029046 0.10224414 0.0923007 -0.050120585 -0.051741917 -0.030859025 -0.21697664 -0.12908722 -0.005044615 0.13103938 -0.027385496 0.035994276 0.23986545 -0.020494124 -0.18916422 -0.021011703 -0.06926256
454 -0.13596162 -0.0041743577 0.14028285 -0.075002745 0.034627654 0.24535252 0.29642788 -0.16843016 -0.12300939 0.035536677 0.0941845 -0.09726135 0.007009325 -0.004423048 0.047133498 -0.13395149 -0.0645641 0.11357106 -0.10070255 -0.11881078 -0.08675347 -0.009775731 -0.0117016155 -0.0068079988 0.00599335 -0.024628926 -0.15753324 0.1395014 -0.18592508 -0.06286292 -0.08656764 0.0041977656 -0.057540234 0.02746378 0.0035588033 -0.09341973 0.09540318 0.026884947 -0.15963219 0.15498824 0.09894857 -0.1198459 0.1173975 -0.08309679 -0.06358582 0.14797015 -0.041662216 -0.09429801 -0.06397392 0.19277738 0.045472063 -0.029650955 0.0035849519 0.036751457 -0.023766195 0.024943203 0.04365731 0.0030767778 -0.048334703 -0.13301213 0.099568255 0.037555043 -0.13575596 0.03304512 0.13645926 -0.016000021 -0.09183113 0.012169286 0.19757433 0.2096812 0.026858667 0.0014147274 0.0804459 -0.062209558 0.047666617 -0.05889072 0.097499125 -0.17359294 -0.016644089 0.008034752 0.10758111 -0.20138809 0.034696605 -0.027995884 -0.07230979 0.019926451 -0.03250737 0.14142008 -0.09785238 0.1077105 -0.20084217 0.07912597 -0.028110575 0.004111215 0.030513445 0.12203598 0.039785925 -0.030457398 -0.012693931 -0.17207251 -0.15492141 -0.0692093 0.054087095 -0.0782094 -0.024483172 0.16963013 -0.080909126 -0.09431582 0.049779985 -0.025889158 -0.02480924 -0.021733822 0.18076959 0.034620438 0.17868602 -0.19198245 -0.061929654 0.053187896 0.075176395 -0.11710816 0.10616866 -0.07462526 -0.043348756 -0.18858784 0.088087454 -0.15016706 0.021306543 -0.002453655
375 -0.12071871 0.10534219 -0.015909988 0.015047043 0.026490895 0.05632843 0.24158461 -0.242131 -0.13265878 0.02027311 -0.053130396 -0.033608258 0.00032987053 -0.07792287 0.08328173 -0.07744342 0.04133294 0.014678952 0.022155486 -0.095270425 -0.13467808 -0.023372523 -0.0021657906 -0.029984243 -0.07433793 0.011631874 -0.15106419 -0.07423035 -0.23753971 -0.108668126 -0.0030923223 0.15344627 -0.05052152 -0.12906742 0.07289452 -0.059928942 0.08488606 -0.107067 -0.028844444 0.24862985 0.048541125 -0.11882307 0.18016236 0.040550962 -0.1666189 0.08689673 0.0017641002 -0.09200515 -0.01589006 0.20657237 0.013042414 -0.1100759 -0.03245799 0.019048143 -0.041340534 0.09662905 0.087253064 -0.015609975 -0.12465463 -0.091357514 0.030858334 0.032663733 -0.13593067 0.103753194 0.05429638 -0.024077814 -0.004519943 0.043597713 0.10721551 0.0648199 -0.022743875 -0.006077898 0.07259507 -0.034754086 0.04408858 -0.107232355 0.11513811 -0.18433078 -0.07744505 -0.0523254 0.04660228 -0.223797 -0.17182373 -0.01779489 -0.07706318 0.037451826 0.07978603 0.08637435 -0.13672028 0.07512542 -0.08290732 -0.12659886 -0.028660735 0.0033225114 0.12234946 0.1451122 0.21308823 -0.049073927 -0.020746563 -0.15073629 -0.0098017035 -0.07292528 0.05012583 -0.048562422 0.009716369 0.05460109 0.022500742 -0.13955173 0.025774943 0.014748663 -0.10101905 0.010379723 0.13786061 0.033244893 0.1389575 -0.18563654 -0.029645888 0.06564127 -0.008395872 -0.09778139 0.1397781 -0.07803077 -0.035425853 -0.19045055 0.12437156 -0.17302074 0.054089673 -0.033248
56 -0.12750643 0.13471694 0.1725686 0.22530203 0.07857557 0.006800352 0.16994914 -0.23868233 -0.121574014 0.08508771 0.015517137 0.018886324 -0.063601546 -0.006543956 -0.060651258 -0.2862883 0.11307497 0.076976106 -0.08123735 -0.24173559 -0.23281425 -0.13309784 -0.1324415 0.049509216 0.0057202755 0.15568092 -0.059937283 0.034639053 -0.11107503 -0.2642586 -0.0912622 -0.020022307 0.1352392 -0.05203051 0.12299886 -0.049289104 0.06006205 -0.059216972 -0.04865006 0.09832869 0.20568417 -0.034392662 0.05795836 0.041506067 -0.09800473 0.022130137 -0.069029175 -0.048748724 0.021927902 0.119583376 0.03757851 -0.10923479 -0.12634301 0.15898792 -0.08969732 0.007950522 -0.06726719 0.00910627 -0.05656516 -0.09086077 0.07547957 0.018378349 -0.055319514 -0.07697588 0.054076582 0.046976864 0.15566075 -0.10775301 0.1360863 0.081694126 0.096103705 -0.008319924 0.12780592 -0.102801494 0.030677909 0.010794145 0.11361383 -0.035603467 -0.1056524 -0.10498336 0.22327556 -0.17418288 -0.20336495 0.110276714 -0.0688445 -0.044629224 -0.079255044 -0.16379486 -0.14082375 0.26068717 -0.24329735 -0.15242866 -0.035313968 0.06387895 0.020278156 -0.022779942 0.014585661 -0.18972416 -0.04478202 0.18145254 -0.01594343 0.027580092 0.022387002 -0.09656856 -0.057114832 0.098777436 -0.042163365 -0.1478276 -0.120763965 0.08068194 -0.18154263 -0.07719354 0.1378401 0.054435816 0.06541206 -0.15000695 0.040526606 0.17915072 -0.09433748 -0.009513016 0.0592099 0.0153258685 -0.08889385 -0.15091743 0.12237526 -0.11273264 0.08428763 -0.0060332115
254 -0.10618042 0.0952685 -0.06524893 0.035106458 0.049602114 0.15359867 0.20989932 -0.15445577 -0.18170568 0.06249598 0.0032586043 -0.06942452 0.024572972 -0.10002799 0.028526697 -0.1175084 -0.08337392 0.104450524 -0.08229545 -0.087029584 -0.047239225 -0.11861228 -0.016789177 -0.12300009 0.13155746 0.033417962 -0.16178872 -0.023803283 -0.16605745 0.043243464 -0.09164117 0.010632264 -0.121234655 -0.11002627 0.09667823 -0.15817328 0.012413279 -0.0007407658 -0.09218319 0.18396929 0.120561935 -0.21817243 0.10082672 0.04254181 0.012897368 0.068033144 -0.001140894 -0.07259532 -0.12550068 0.04018125 0.13581036 -0.13943121 -0.0778812 -0.03621397 -0.015888365 0.063136615 0.14774273 0.102534816 -0.08918866 -0.09881089 -0.08896576 0.042586498 -0.07488242 0.043259364 0.103337094 -0.027273037 0.026578063 -0.072514296 0.020291708 0.052654974 -0.0053540375 0.0060639665 0.11709103 -0.05683405 -0.004852279 0.056735076 0.11167427 -0.1261455 -0.049447928 -0.007590114 0.055035397 -0.186733 -0.12473548 -0.061437473 -0.07186822 -0.012971171 -0.035229445 0.026287073 -0.0596064 0.24386097 -0.24386851 -0.0042761886 -0.0018589138 -0.03594778 0.015080565 0.12154535 0.044034116 -0.08176272 -0.062585704 -0.07779237 -0.10781628 -0.113412015 0.014052255 -0.0864848 0.003730658 0.19715199 -0.042735234 -0.23236407 0.020845175 0.07343638 -0.17364103 -0.029997898 0.08907835 0.09521322 -0.00883231 -0.16919863 0.03896462 0.044346195 -0.066511944 0.019148096 0.1465715 -0.058699228 -0.030968834 -0.11165978 0.08608924 -0.15012053 0.13795242 0.0752573
23 0.021850366 0.030001163 -0.0030337516 0.029319335 0.06516371 0.09406984 0.13037108 -0.17171651 -0.14247845 0.08190386 -0.06644074 -0.03442299 0.01333879 -0.1604979 0.1436251 -0.036437124 -0.047214247 0.06289941 0.012531464 -0.13493031 -0.06922338 0.07397292 0.077130556 -0.068503805 -0.00045399068 -0.028704645 -0.08720164 -0.026397107 -0.19156827 -0.11021961 0.039088726 -0.027756853 -0.1112065 -0.21841441 -0.026556693 -0.077356905 0.167782 0.05899425 -0.11084525 0.2598957 0.052334454 -0.091106735 0.117521316 -0.052852955 -0.08217387 0.002442229 -0.0091275005 -0.109103344 -0.11037697 0.16820769 0.055807732 -0.099300005 -0.011284049 0.03219931 -0.046867 0.09001991 -0.038317453 -0.1176738 -0.13937466 -0.096898064 0.003935243 -0.040245425 -0.095386125 0.059300896 0.07418872 -0.07044298 0.008822039 -0.019065082 0.13466881 0.07942864 0.1120631 0.03723655 0.09828893 -0.032239582 0.029677471 -0.15524024 0.14696634 -0.071611315 -0.10709379 -0.0124179525 0.10096338 -0.20053266 -0.13768093 0.020936321 -0.0077080065 -0.0706361 0.050727207 0.024488071 -0.10239111 0.08965987 -0.10916205 -0.1434379 0.07285747 -0.030265797 0.0639664 0.1515491 0.12070702 -0.10918968 -0.034686897 -0.16861579 -0.11437718 -0.020726176 0.047095202 -0.039065637 0.028556896 0.10673012 0.014833436 -0.14100641 0.093370676 0.021441393 -0.10399368 -0.059295714 0.18039085 0.032152243 0.100356355 -0.23219058 -0.118221685 0.01329334 -0.07489535 -0.04888502 0.10400076 -0.0405799 0.022189617 -0.2182094 0.1703582 -0.11231865 0.06579428 -0.045148768
459 -0.073870026 0.06492278 0.012735233 0.036430493 -0.17215994 0.051344488 0.06674025 -0.16201803 -0.3125216 0.21305205 -0.11315851 -0.0045611816 -0.24890363 0.014715425 0.091044 -0.10200754 -0.09613825 0.1559805 0.06036457 -0.36057425 -0.15074876 -0.0421054 -0.18305084 0.25737497 0.21940249 0.035321232 0.05661954 0.10895652 -0.29588008 -0.058410525 -0.12162751 0.048216633 0.12461543 -0.08707817 0.036956005 0.077584565 -0.06325429 -0.118090004 -0.086072065 0.22545195 0.13413133 -0.09095387 0.2696945 0.069660574 -0.13689636 0.098874755 0.13551962 -0.2623532 -0.20024717 0.0042642504 -0.06998764 -0.18934165 -0.0041214423 0.113752834 0.04077916 -0.067011654 0.018223975 0.17964888 -0.046438754 -0.23280647 0.115102425 0.1503001 -0.17000937 0.10851784 0.108782955 -0.005438325 -0.034898713 0.07909658 0.239564 -0.017612644 0.052304067 0.09695791 0.012079191 -0.021620683 -0.17474744 -0.10443064 -0.0048770085 0.04054826 -0.01750568 -0.012974867 -0.06973452 0.020725364 0.021499006 0.18047892 -0.10437719 0.07512981 -0.18458411 -0.18807828 -0.15535243 0.03602403 -0.20100024 -0.055349916 -0.19924645 -0.016416956 -0.0921657 0.22627866 0.1501628 0.14154837 -0.09811484 -0.09981867 -0.08471905 -0.12367826 0.008120921 0.0009132187 -0.03253565 0.052137192 0.0092321085 0.09514292 -0.071865775 -0.033951472 0.038218014 -0.016587362 -0.0379464 0.068132184 -0.0041937544 -0.20473279 0.03949007 0.072961785 -0.035936832 -0.018421734 0.21318953 -0.07206289 0.10769596 -0.15564992 0.040390845 -0.23872855 0.19159733 0.066830516
45 -0.14550659 -0.07123867 -0.049174927 -0.015346927 0.021292785 0.05780807 0.05759308 -0.072529234 -0.18977398 0.11560543 -0.0029516828 -0.023029905 0.039710928 -0.15526104 0.14027758 -0.100861035 -0.034544323 0.11374934 -0.13299784 -0.105244435 -0.1459312 -0.014709305 0.018935224 -0.038679164 0.030003466 -0.09843145 -0.17304485 0.03664583 -0.15921707 -0.027735632 -0.008577662 0.10905264 -0.04870727 -0.167849 -0.011104731 -0.18881065 0.047264006 0.029863587 -0.06563327 0.17626832 0.13077891 -0.17431667 0.16719472 -0.02978948 -0.035755392 0.05439033 0.022917917 -0.15126781 -0.08940037 0.12562719 0.03458317 -0.0217214 -0.05507883 0.08428407 9.579897e-05 0.07157067 0.1334538 0.008323103 -0.1106075 -0.16579229 0.031365857 0.031413548 -0.106207855 0.14447464 0.08253173 -0.05315246 0.039641388 -0.07624889 0.24051172 0.05195305 -0.06680334 0.018379916 0.05493243 -0.03309101 0.0032557556 -0.12144244 0.10335963 -0.13944001 0.03836628 -0.04515433 0.12070172 -0.18947977 -0.12913498 0.120798066 0.11738359 -0.15536076 -0.014079311 0.047198668 -0.02477862 0.03340333 -0.21510847 -0.088997394 -0.05176982 0.09916298 0.018076887 0.15878415 0.083921805 -0.102390565 -0.038051695 -0.11012862 0.009329444 -0.08570023 0.05608042 -0.022657435 -0.04757612 0.16068982 -0.074795045 -0.19167632 0.08119355 -0.022095365 -0.15586871 0.12650582 0.12067037 0.16730402 0.07457669 -0.1794119 -0.08738376 0.076826975 0.0028628188 -0.09265538 0.18509738 -0.14471444 0.06335638 -0.033301722 0.08353439 -0.121896595 0.063570574 -0.018922312
477 -0.09655638 0.11806055 -0.3436346 0.10702401 -0.05173623 0.10178626 -0.3419409 -0.14787632 0.0474371 -0.08663162 0.026432017 0.0055898554 0.08456333 0.03477199 -0.064485416 -0.17953579 0.17082927 -0.0050549908 -0.13816643 -0.11686679 -0.16584824 0.25669488 -0.22642025 0.13873635 -0.024793116 0.03960132 0.09964658 -0.01323488 -0.12511785 -0.055713966 -0.057190627 -0.13046548 -0.24280119 -0.18408214 0.03618782 -0.08528157 -0.27853063 0.38011578 -0.17788887 0.33446905 -0.08153451 -0.2675364 -0.027364938 0.09179542 -0.12147821 0.25580066 -0.17461184 0.13308029 -0.04066262 -0.1787999 -0.1690606 0.1800334 -0.22922562 0.13105197 0.1812341 -0.12714504 0.22633743 0.016721249 -0.5448399 -0.026674781 -0.1489589 0.07113631 -0.29201227 0.087082796 0.018643685 -0.31877154 0.19671616 -0.1588074 0.102416575 0.20488122 0.15641691 0.044057917 0.038386274 0.02954966 0.23453313 -0.15803805 0.015394003 0.11589108 -0.25539163 0.22732362 0.3461028 0.14607358 -0.08811465 -0.02189945 -0.12081698 -0.18262869 0.14610091 -0.010907232 0.12299798 0.25511193 -0.12793441 -0.014018445 -0.01518213 -0.11546843 0.21377169 0.051896498 -0.09805263 -0.076767005 -0.32453063 0.013886099 -0.16154122 0.09855579 -0.0012475757 0.054931745 0.0024773427 0.113697685 -0.0300677 -0.10416334 0.031151243 -0.22646457 -0.09220015 -0.0475834 -0.1827617 -0.23726282 0.31826723 -0.06513412 -0.05142724 -0.10984939 0.084537484 -0.21269967 0.21239708 -0.009889745 0.1430872 -0.31826326 -0.08592098 -0.02565666 -0.0071474174 -0.117066704
365 -0.14563602 0.04187159 0.049340222 0.19117703 -0.007417368 0.028281622 0.27821997 -0.1217195 -0.06301919 0.017082209 -0.06550554 0.0620372 -0.0010628131 -0.034880165 0.06763376 0.086596355 -0.03232964 0.07444298 -0.098401286 -0.034164708 0.057637196 -0.030286483 0.11290494 -0.1977581 -0.034555256 -0.08471183 -0.16194452 -0.031510353 -0.15294197 -0.12274633 0.061594307 -0.07655963 0.05362452 -0.09536438 0.08444831 -0.169535 0.021752862 -0.016339766 -0.2293709 0.24463007 0.10375695 -0.18347672 0.16639009 -0.056171365 -0.03869749 0.05730264 0.060185056 -0.16639654 -0.12419585 0.11037341 0.10980706 -0.17730685 -0.015649214 0.049192492 0.0013109825 0.042074017 0.027777083 -0.12371084 -0.1409105 -0.10183558 -0.12185208 -0.040435344 -0.038481783 0.11050787 0.080921024 -0.15586263 -0.007519028 -0.02983726 0.13734156 0.11758746 -0.016220758 0.037231244 0.15014002 0.051273696 -0.00023305803 -0.1399601 0.26399314 -0.031190958 -0.03776923 -0.022352638 -0.00627659 -0.16252615 -0.12837906 -0.057271574 -0.0817542 -0.03655742 0.079561345 -0.010386263 -0.03984432 0.20442915 -0.27377075 -0.03718402 0.05220575 0.09616584 0.14416379 0.1695666 0.09442669 -0.079001516 0.037241675 -0.19131972 -0.08676987 0.07264381 0.075191766 -0.1161471 0.02743581 0.09847184 0.07549727 -0.092912294 -0.03998568 -0.038360734 -0.012919614 -0.049206775 0.19776474 0.023366539 0.089920424 -0.18346843 -0.007960564 -0.010335847 -0.007851286 -0.090076834 0.029540943 -0.00493708 0.08363968 -0.09299753 0.17037973 -0.12601359 0.19099069 0.0077580586
48 -0.107276656 0.037983596 -0.018249536 -0.020535184 0.0129711805 0.07086405 0.20956364 -0.16757073 -0.10418934 0.08559384 0.0628476 0.031949487 -0.046998065 -0.03958316 0.08794252 -0.07304595 -0.0689818 0.12957017 -0.008929677 -0.08810551 -0.15164776 0.02135203 -0.019335896 -0.046825767 0.09747434 -0.07356557 -0.108429246 0.018982336 -0.10761001 -0.0016635548 0.084342524 -0.029308572 -0.038430233 -0.050929956 0.04146964 -0.16478355 0.056710828 -0.0055479086 -0.083183326 0.15337214 0.06734301 -0.16253124 0.17356975 0.0042552543 -0.022023056 0.025729757 0.0114564095 -0.11973675 -0.051648535 0.12655655 -0.020863088 -0.15255406 -0.074975155 0.050523937 -0.05503373 -0.031776372 -0.0031243172 0.014838143 -0.07403283 -0.25434336 0.028355772 0.09346929 -0.1886561 0.025388781 0.09436889 -0.07479468 0.06966836 -0.087934054 0.13411014 0.118082024 -0.07109426 -0.06215098 0.15571734 0.0006237097 0.006677838 -0.13491435 0.09266203 -0.029879114 -0.04969192 0.021596096 0.08488172 -0.16324028 -0.177376 -0.010403652 -0.032249972 -0.06673737 0.0020536897 -0.005727171 0.022088405 0.19289015 -0.19309668 -0.14586656 0.050854873 -0.009866473 0.040177803 0.21507023 0.05326879 -0.024806695 -0.08149146 -0.04526715 -0.11164441 -0.036654748 0.02632327 -0.21254909 0.036226753 0.08794646 -0.01428165 -0.13487636 0.06368635 -0.025585989 -0.07449333 0.06091456 0.10857376 0.08255497 0.07941462 -0.24555959 -0.034357924 0.05514236 0.015131249 -0.10519123 0.03701122 -0.059042588 0.06879278 -0.13137855 0.081872836 -0.23852593 0.06497503 0.040887907
152 -0.16041717 0.060995217 -0.03270958 0.08974398 -0.07191871 0.026452238 0.22909328 -0.13446938 -0.17642938 0.10742381 -0.15424189 0.052307736 0.09818557 0.008627935 0.028526397 0.0017943314 -0.08154568 0.19888657 -0.02321589 -0.20370983 -0.0540374 -0.13780305 0.03875507 -0.2458342 0.01066928 0.029259648 -0.033518855 -0.04707031 -0.20808658 -0.14966734 0.0114957085 0.015954116 -0.042865667 -0.025475772 0.031981334 -0.043555923 0.046354152 -0.041177645 -0.12144845 0.26525408 0.13906655 -0.048257962 0.10383798 0.020914158 -0.123678915 0.07472444 0.023710767 -0.26810077 -0.017577277 0.003798088 0.12125739 -0.07395422 0.018210385 -0.028058518 -0.03631477 -0.025642313 -0.0126326755 -0.0515771 -0.075071536 -0.06394735 -0.04971834 -0.02658679 -0.15401152 0.04270071 0.10832932 0.11702823 0.09580732 -0.041854974 0.20409 0.13566972 0.064507656 0.06121802 0.051701915 -0.1096859 0.097336195 -0.14060687 0.16818464 -0.08062327 -0.08183326 -0.080533996 0.05350192 -0.29284286 -0.04776902 -0.06588195 -0.00403207 -0.017391494 -0.12623484 -0.16828409 0.002397329 0.07775426 -0.1669138 -0.10750641 -0.05142759 -0.054449983 -0.003910391 0.10051692 0.072868384 0.014251545 -0.08614602 -0.21812347 -0.19398169 -0.035294343 0.030184 -0.05144074 0.020012077 0.1040538 -0.0741723 -0.11513076 0.026857818 -0.16673577 -0.02589608 0.09777716 0.15824439 0.08366482 -0.027939674 -0.16923115 -0.06984745 0.104305156 -0.04506291 -0.021897469 -0.044942275 0.02781567 0.119810544 -0.31347743 0.13017374 -0.14488429 0.14266218 0.004318692
298 -0.10642565 0.062078957 0.0483861 0.06529946 -0.016402747 0.15463534 0.24537551 -0.12078334 -0.21414012 0.07181594 -0.01701772 0.08823346 0.097285934 -0.022088993 0.018514484 -0.16132459 -0.06656788 0.12770483 -0.13047487 -0.17801088 -0.1458324 -0.024374146 0.050674967 -0.005308053 0.0953896 -0.036352478 -0.09221052 -0.042903457 -0.07520153 -0.044139147 -0.08329592 -0.06551923 -0.11951455 -0.03328554 0.06619633 -0.1322228 0.10627564 -0.01965314 -0.11028609 0.18534264 0.15989861 -0.117926754 0.10899369 -0.072229065 -0.017374614 -0.026889585 0.07013242 -0.14473738 -0.0105305705 0.158696 0.03828812 -0.09479014 0.0033821175 0.12392609 0.022265851 0.11038323 0.107684955 0.02303526 -0.09568053 -0.2122928 0.022711609 0.039819095 -0.075824715 0.10851454 0.031146696 0.013056987 -0.060896162 -0.013380898 0.1503776 0.092474714 -0.0020806731 0.04162813 0.15823378 -0.0760601 -0.008623199 -0.11448031 0.09391137 -0.069005884 -0.09213251 -0.04360629 0.013764965 -0.15710099 -0.11461608 0.074219555 -0.065008275 0.01263939 0.0055186376 0.083325826 0.070792474 0.11843703 -0.17235398 -0.030032828 0.08720757 -0.047842182 0.07180001 0.22502182 0.1769808 -0.13327573 -0.022884488 -0.19606785 -0.11084127 -0.08402969 0.10407447 -0.019115873 0.08171526 0.13087739 -0.06024801 -0.10149034 0.07633431 0.06499249 -0.12117557 0.18654141 0.0490147 0.09318717 0.11273251 -0.124498524 0.020519942 0.1337565 0.08439504 -0.0703029 0.1228738 -0.1313692 0.02159491 -0.1480195 0.054032005 -0.18881986 0.10340187 0.06831954
461 0.010408274 0.008678308 -0.034589723 0.05412682 0.018926868 0.059633162 0.20342775 -0.037989996 -0.26879114 -0.02604876 -0.0045809587 0.010693542 0.050581772 -0.04029202 0.054814126 -0.14446793 0.046994224 0.07417521 -0.029587295 -0.17927402 -0.033897024 -0.04178548 0.1159572 -0.108051285 0.055425122 -0.039739583 -0.061574284 -0.01171245 -0.17255138 -0.04356422 -0.017800212 -0.018040746 0.011246031 -0.0403517 0.14855644 -0.13352488 0.098898284 -0.053744815 -0.1943277 0.14853625 0.1669832 -0.099790834 0.18602733 0.017592918 -0.06773094 0.018459545 -0.0724283 -0.06177412 -0.06709191 0.087070756 0.090898015 -0.10665651 -0.02291829 0.0699954 -0.016831778 -0.017998684 0.025163885 0.020857736 -0.04929697 -0.13989289 -0.007889077 0.10781396 -0.108124636 0.058427364 0.116836734 -0.07086644 0.065202534 -0.0612396 0.09869526 0.1194854 -0.0018791814 -0.018455124 0.07817494 -0.10026299 -0.062082652 -0.035125703 0.19915617 -0.08816572 -0.039274767 -0.054971665 0.0121137975 -0.15249845 -0.18795846 -0.048573714 -0.11807738 -0.030507553 -0.002197109 0.09584163 -0.12977648 0.14320786 -0.22763245 -0.09299266 -0.05558094 0.010262579 0.09040098 0.17131142 0.08397824 -0.15317495 -0.066775315 -0.09007193 -0.06338753 -0.09995081 0.082510635 -0.10036447 0.009815099 0.0655741 0.011170308 -0.04583186 0.05531421 0.034970056 -0.13692805 -0.046320483 0.09898605 0.26782572 0.14955072 -0.20096716 -0.012458639 0.09759815 0.0022836465 -0.020290883 0.17799015 -0.030144243 0.16646595 -0.088647455 0.08069332 -0.131422 0.0060621616 0.0043317275
325 -0.09000418 0.121595606 -0.06543615 0.061028223 -0.01710429 0.13732477 0.09805808 -0.17144467 -0.12634031 0.087527715 0.03319345 -0.068524115 0.12452005 -0.13354161 0.10463496 -0.018808136 -0.05364372 0.09991955 -0.035623316 -0.1420282 -0.16699436 -0.06803822 0.0077791503 -0.035460785 0.06357661 -0.06375079 -0.17912853 0.018887581 -0.12151621 -0.07856605 -0.024161868 0.07348635 -0.07588792 0.013154821 0.042482212 -0.055306982 0.09433992 -0.04509728 -0.10556255 0.31708306 0.088103876 -0.082057826 0.1400946 -0.038587093 -0.016561437 -0.010197917 0.011332023 -0.11163352 -0.090247005 0.013093451 -0.04218001 -0.02497188 0.013295473 0.16897607 0.070762254 0.0256881 0.06854693 -0.01846105 -0.022632336 -0.08635693 -0.009588389 0.050877735 -0.20729905 0.096640624 0.08009901 -0.016721336 0.014686507 -0.059370246 0.16061862 0.04738838 0.03496314 -0.024933703 0.1987603 0.039232004 -0.094133355 -0.107977144 0.07075375 -0.1271515 0.00404688 -0.025298636 0.022677118 -0.108131476 -0.17998531 0.04727336 -0.035727415 -0.013841924 -0.060828753 0.079404764 -0.08349996 0.12784627 -0.21493697 -0.043784734 -0.03140709 0.008224111 -0.0019789678 0.14839698 0.061170515 -0.058989376 -0.12493225 -0.10536093 -0.14859165 -0.08538597 -0.0131511735 -0.037110742 0.061757613 0.16688289 -0.03434713 -0.16122352 0.15332694 0.0837642 -0.12713084 -0.0118670575 0.14707372 0.034580987 0.04803609 -0.16098715 -0.018099615 -0.0017872005 -0.15609537 -0.018605703 0.153291 -0.11149422 0.086968966 -0.15393943 0.05736445 -0.18645044 0.054196566 0.04861354
323 -0.08624505 -0.13688241 -0.17602439 0.10164364 -0.07863488 0.07394521 0.3056435 -0.16095261 0.0727493 0.17259574 0.03536285 -0.23483568 -0.29092792 -0.0046760943 -0.1402999 -0.13103154 0.17184873 0.09270535 -0.11955121 -0.1574917 -0.07123147 -0.20173188 0.20877405 -0.06886998 0.019476177 0.021101983 -0.12470512 0.09671019 -0.32272077 0.0047815978 -0.017464342 -0.040364288 -0.19305359 -0.06625674 -0.12598714 -0.010127628 -0.07167321 0.03393775 -0.059052154 0.2550324 0.025014678 -0.10518349 0.16704488 0.13929263 -0.10310898 -0.04889557 0.04443958 -0.026890602 -0.075144686 0.06942474 0.02193642 -0.16130309 0.042465456 0.1299191 -0.033490546 -0.0072923084 -0.095482245 0.12688471 -0.21889643 -0.24868003 0.18759722 -0.09622227 -0.22875872 -0.05583113 -0.031257443 -0.042090565 0.10590413 -0.2429585 0.0034297921 0.15565759 0.037990093 0.101208046 0.06350823 -0.09122151 0.020838555 -0.21111406 -0.046689343 2.4336921e-05 -0.024746168 -0.08667549 0.061129007 -0.25073174 -0.13162406 0.044236552 0.09881141 0.019951345 -0.087314226 -0.12436404 -0.18630758 -0.0140573215 -0.029391564 -0.07001026 -0.32275695 0.07401389 0.23339988 -0.0514791 0.040836778 -0.12322905 -0.049233705 -0.0044997926 -0.039010648 0.13470222 -0.10705847 0.029099442 -0.048026014 0.16127074 0.050731093 -0.016956516 -0.023756199 0.061490577 0.07910855 -0.062403876 0.14451309 -0.012581449 0.16417477 -0.33697844 -0.09381338 0.18745929 -0.062203377 -0.01350752 0.14479469 -0.11331026 -0.121198304 -0.07645776 0.024240557 -0.0745541 0.22203085 0.08661825
82 -0.048477024 0.06350111 -0.0045952364 0.041926056 -0.035689507 0.15878327 0.19187929 -0.1545441 -0.29892108 0.15062127 -0.083893046 -0.14134192 -0.039194494 -0.07233946 0.070481926 -0.11291259 -0.09313862 0.07263598 -0.10791125 -0.18550687 -0.15599333 -0.048944242 0.04745675 -0.035278365 0.033157766 0.0074808756 -0.19994494 0.0515298 -0.1323662 -0.0666585 -0.010750065 0.046873685 -0.096950956 -0.037746757 0.025546456 -0.05798628 0.057991892 -0.13324134 -0.09328857 0.16000442 0.087507434 -0.11899817 0.10089777 0.009496802 -0.07367475 0.08251274 0.05333675 -0.10798903 -0.09219421 0.17361782 0.0058892346 -0.086742036 -0.12763979 0.054562647 -0.11173674 0.037205987 0.055549245 0.047999863 -0.17465246 -0.12878402 0.03575848 0.06225467 -0.16467176 0.036691613 0.051407892 0.015017265 -0.0071583586 -0.0063888654 0.15006572 0.15769371 -0.06661896 0.02683176 0.088943034 -0.06336909 0.09860681 -0.099603616 0.12277901 -0.07315655 -0.09844273 -0.1433846 0.06558813 -0.16669431 -0.12869704 0.026434196 -0.07272979 -0.033790603 0.052712977 0.04266184 0.03515483 0.10609962 -0.23225021 -0.040493794 0.026842477 0.08451007 0.044655945 0.16388896 0.025715498 -0.050395753 -0.09729841 -0.053509887 0.08854916 -0.011247202 0.051625554 -0.08174393 -0.06861584 0.07952234 -0.041686997 -0.19623546 0.080320485 0.028960496 -0.07109759 0.033135187 0.12706803 0.0055079134 0.17403635 -0.18278845 -0.13596177 0.08799853 0.055127442 -0.05951431 0.11687031 -0.055715654 0.00077767804 -0.17122401 0.06798843 -0.11542849 0.10075283 0.008922294
94 -0.19634144 0.013149671 -0.006900699 0.022830347 0.0004817289 0.14231174 0.26101494 -0.1097403 -0.1544506 0.14418322 0.0022740595 0.009883367 0.012749613 -0.111371316 0.11595458 -0.050642204 0.023573272 0.123960964 -0.082015105 -0.21384849 -0.06561774 -0.052306697 0.12188754 0.06748172 0.047153473 0.0391569 -0.07769925 -0.035023194 -0.2337849 -0.10413799 -0.037796985 0.010160284 -0.054854807 -0.087365225 -0.030477013 -0.090511724 0.049700268 -0.024044234 -0.12404183 0.11260879 0.06318522 -0.082056716 0.103420265 -0.051723365 -0.0875333 -0.040827747 -0.09574173 -0.101522684 -0.07742816 -0.04569378 -0.046443827 -0.14475323 -0.028421734 -0.070857875 -0.12112188 -0.12549822 0.11141254 -0.02877326 -0.046113253 -0.030213749 -0.049716435 0.05484655 -0.1484038 0.038044646 0.09446318 -0.051101457 0.047506545 0.004758245 0.107135765 0.06426851 -0.050211824 0.09222551 0.135343 -0.07391062 -0.02750535 -0.07286489 0.14447927 0.0028051278 -0.10885445 -0.06381266 0.07010898 -0.12366385 -0.24838372 0.07312912 0.021050036 0.005310483 0.005478269 0.009167395 -0.12140969 0.13832374 -0.25668448 -0.11260634 -0.030912478 -0.14287739 0.0744266 0.16689321 0.02323547 -0.07238839 0.014761032 -0.09937741 -0.05092996 -0.117006786 0.04029676 -0.05122638 0.00020016849 0.15886076 -0.021146841 -0.108459786 0.018925931 0.075721435 -0.12229413 0.017335666 0.13573198 0.15391362 0.03828311 -0.1850508 -0.08873359 0.15410207 0.0040143463 0.055045083 0.08295329 -0.11134182 -0.0062461393 -0.13476838 0.04170918 -0.17195211 0.022003947 0.078909434
16 -0.17298919 -0.02760599 -0.066117145 0.06143259 -0.061194554 0.039412398 0.20503138 -0.14638995 -0.14122345 0.15141806 0.049616102 -0.016864413 0.06357436 0.024363173 0.0482697 -0.014031911 -0.035484057 0.089279726 0.018055715 -0.16669719 -0.13935982 0.048522018 0.10519599 -0.01455558 0.0187189 -0.030936081 -0.15752117 -0.046715777 -0.1246974 -0.04341484 -0.0010404952 -0.0047952295 -0.03339923 0.014735442 0.030299624 -0.1290286 0.04718665 -0.0095995525 -0.16235009 0.12084144 0.16482405 -0.22883552 0.18121564 0.13545033 -0.10863762 0.05206285 -0.04167016 -0.1025524 0.013404638 0.064191215 -0.07346485 -0.16116425 -0.034048226 0.07524759 -0.041409533 -0.016734617 0.07810021 0.022298595 -0.11358707 -0.0851275 -0.13682349 0.035728924 -0.021136519 0.051267993 0.05345776 -0.065184645 0.046059158 -0.02125804 0.09734056 0.19143559 0.01262442 -0.005841543 0.13512571 -0.10031878 -0.070721775 -0.15945327 -0.0163201 -0.037603375 0.02317911 -0.041472346 0.0471597 -0.20198917 -0.0862405 0.06420932 -0.064951316 0.041789476 0.005029 0.115060136 0.006181853 0.19275258 -0.126271 -0.060844723 0.08129073 0.0032899592 0.0710643 0.2518362 0.07172543 -0.047840532 -0.039643016 -0.04413265 -0.06997062 -0.029096805 -0.06208207 -0.10776308 -0.0347224 0.045947034 -0.07159205 -0.10916542 0.005756349 0.071097255 -0.12531766 -0.011919952 0.1878679 0.07570889 0.0667527 -0.32004073 -0.067850955 0.066563584 0.037190825 0.010667396 0.16057484 -0.16467957 0.104618244 -0.11414646 0.116862774 -0.16751567 0.054075573 0.018924054
