1113 128
1006 0.031074142 0.12136541 -0.36348656 0.27866462 0.1692094 0.11615228 -0.026454408 -0.10082634 -0.11538359 -0.01490891 -0.16820079 -0.040321298 0.41869402 -0.30100346 -0.10275708 0.08927508 -0.18484731 -0.055742174 0.06829434 -0.045638148 0.09229243 -0.06886044 0.20629507 0.2675292 0.06498666 -0.13922828 0.34156907 0.19663109 0.14331532 -0.47495848 -0.19835104 0.23294385 -0.057543676 0.18541932 -0.041249946 -0.022260655 -0.24146561 0.041137204 -0.14264369 -0.27231804 0.45214078 -0.52850556 0.04680254 0.3283694 0.105769984 0.023981156 0.17538992 -0.24225609 -0.6488823 -0.2541319 -0.0067711202 -0.19127844 0.27061695 0.56095374 -0.09502308 -0.049832128 0.32223856 0.097773716 -0.16198148 0.035308834 0.033924434 0.096007384 -0.14074083 -0.1895113 0.034461923 -0.1835706 0.38976082 -0.23166558 0.10722155 0.14816451 -0.053365257 -0.17756698 -0.106847934 -0.23347592 0.03450013 0.09147151 -0.34992272 -0.4006001 0.110057995 -0.206907 0.03902773 0.56392837 0.23526928 -0.4197504 -0.46312755 -0.59571314 -0.10478192 0.013258565 -0.028499877 -0.069085084 -0.28758827 0.44323218 0.3102279 -0.029458988 -0.43010136 -0.3065222 0.09775358 0.27696532 0.057228904 -0.60403097 -0.115189545 -0.25463194 -0.16930997 0.24399641 0.31290865 0.24323034 0.18044847 0.014517522 0.55614704 0.3554609 0.011458919 0.057539705 -0.18428394 -0.25299266 0.2202262 -0.43658364 -0.14118184 0.31058058 -0.38908756 0.13296174 -0.21065336 0.18549086 -0.039587207 -0.20157035 -0.1732265 -0.14672051 0.09227327 0.0071512605
506 -0.2641944 0.26708466 -0.1650851 0.29078403 0.1193124 0.23148063 -0.17226465 -0.20170231 0.43266612 -0.21003821 -0.07049265 -0.1395316 0.4065501 -0.36055568 -0.16492984 0.07138493 -0.39227 -0.056697436 0.1336922 0.058993813 0.14494754 0.38464496 0.19998308 0.31990436 -0.13714252 -0.43710393 0.03389564 0.21662594 0.23847881 -0.4501384 0.058690973 0.14944683 0.04183816 0.11768302 0.06687515 0.05585801 -0.24038915 -0.05123619 -0.22007084 -0.36279592 0.27565363 -0.44130957 0.15665624 0.35268095 0.041962374 -0.15199462 0.17522617 -0.20575498 -0.49149156 -0.06962996 -0.14563361 -0.21886016 0.387948 0.38468555 -0.11716572 -0.14715444 0.37543884 -0.015718652 -0.09218112 -0.07860961 -0.07717525 0.0156087475 -0.05221911 -0.11843838 0.16461402 -0.14562255 0.3396663 -0.12838714 -0.07740485 0.045899488 0.070316225 -0.19028275 0.05374821 -0.30113515 -0.095212616 -0.13220072 -0.47340116 0.08652935 -0.031110756 -0.059157398 0.09681038 0.47452772 -0.0819644 -0.21477674 -0.39813408 -0.87462765 0.002176898 -0.054786704 -0.27602416 -0.06565813 -0.064993724 0.49704534 0.18083945 -0.06134516 -0.28045812 -0.035016924 -0.16147241 0.19533755 -0.2039034 -0.6250355 -0.0368525 -0.09672062 -0.28111073 0.3303612 0.11325078 0.077885106 0.39895055 -0.24856977 0.5136029 0.50808114 0.023897182 0.09758906 -0.38831645 -0.20531663 0.52919817 -0.41952327 0.044054914 0.15676157 -0.48786795 -0.02234606 -0.08882176 0.37807813 -0.02416634 -0.3229924 -0.33887964 -0.22695827 0.1301907 -0.013686992
839 -0.18278424 0.17732261 -0.2152443 0.22481923 0.14269507 0.21049583 -0.23267522 -0.14425421 0.5007529 -0.35903934 -0.13189471 -0.16490266 0.4973981 -0.49529013 -0.13632189 0.09509201 -0.3766594 0.011482314 0.09556604 0.077583715 0.08476439 0.2449296 0.21141863 0.42917806 -0.12361325 -0.35970083 -0.0047007888 0.18938617 0.24630456 -0.4329797 0.03819633 0.16461828 -0.17522086 0.1427524 0.0077992743 -0.0151964035 -0.28249496 -0.0033224137 -0.2513969 -0.33892712 0.3717578 -0.42130694 0.07353492 0.426581 0.112958886 -0.15474756 0.19375771 -0.2708218 -0.44166535 -0.008764921 -0.18120003 -0.2766462 0.19706951 0.37110394 -0.1337931 -0.08392307 0.41445142 0.058240227 -0.14747675 0.019918343 0.017478986 -0.10036893 -0.067155525 -0.056269705 0.19575462 -0.18525451 0.16993745 -0.26002705 -0.119790316 0.08086883 0.0026184195 -0.18832473 -0.051191773 -0.2891845 -0.120676845 -0.09949393 -0.4323251 0.119511746 -0.11037641 -0.1357755 0.17758708 0.54568046 -0.0121765565 -0.26185498 -0.46725464 -0.8336906 -0.07513888 0.058523092 -0.20433098 -0.0019663775 -0.050593175 0.539647 0.22997667 -0.16989054 -0.13024251 0.017916417 -0.13443719 0.328516 -0.14767034 -0.7311396 -0.04658836 -0.16180314 -0.27016562 0.2898311 0.14665727 -0.00013497293 0.30835307 -0.086675204 0.7033356 0.4951659 0.08173239 0.027975064 -0.34295782 -0.22875321 0.4969453 -0.42368215 0.060590405 0.06129743 -0.49655497 -0.00872656 0.03446145 0.4013903 0.061439227 -0.22651155 -0.33308098 -0.2123592 0.011455664 -0.049653206
859 -0.115406215 0.1273144 -0.18952924 0.30384678 0.047896385 0.28321448 -0.13501173 -0.15078007 0.36641663 -0.07159306 -0.17265436 -0.046038873 0.53759336 -0.422139 -0.05877015 0.113837026 -0.27431282 0.025809351 0.12077646 0.1267919 0.08570439 0.2172308 0.23561642 0.3374645 -0.07788072 -0.34236965 0.035813443 0.28489286 0.28213808 -0.64212686 0.11011736 0.09101877 -0.05169923 0.15147407 0.1918696 -0.037890527 -0.15165435 0.10487029 -0.17330949 -0.28393567 0.4699612 -0.5417134 0.081282586 0.24184482 0.09067603 -0.26275173 0.1949669 -0.1033183 -0.48283345 0.08404471 -0.11424365 -0.22742872 0.17242256 0.38495877 -0.08884905 -0.19161847 0.38128424 -0.03510197 -0.06829281 0.069715284 0.13920121 -0.093321435 -0.3002887 -0.017896995 0.07479303 -0.06883777 0.23054107 -0.09980995 -0.0058579203 0.13137715 0.114874594 -0.24776313 0.044541307 -0.3286671 -0.13109258 -0.059201404 -0.48132887 0.026014483 0.018835057 -0.13735358 -0.051325835 0.53809524 0.018341623 -0.075410776 -0.3207026 -0.6718596 -0.060067654 -0.063569464 -0.21755767 -0.12559266 -0.12608065 0.4602945 0.13771124 -0.16839537 -0.13727762 -0.06523729 -0.3000397 0.29693055 -0.28696877 -0.532249 0.16368204 -0.2776306 -0.12564024 0.33875424 0.07532727 0.06777864 0.47481716 -0.22350548 0.79359955 0.3800556 -0.016891783 -0.020656142 -0.29554293 -0.32958242 0.42266724 -0.43381768 0.032571163 -0.014561868 -0.5628429 -0.102182254 -0.03850583 0.40875906 0.037802573 -0.19945884 -0.2247175 -0.113527074 0.057811093 -0.12814946
823 -0.20277005 0.17005832 -0.24740604 0.3798836 0.12008581 0.14552625 -0.08183914 -0.21752144 0.52999634 -0.15603827 -0.13203993 -0.18043347 0.50280917 -0.44972587 -0.17539704 0.10766983 -0.30121997 -0.01060421 0.0577799 0.09493077 0.15004213 0.1920288 0.1493436 0.3781002 -0.05745938 -0.2872085 0.079929695 0.13370451 0.32017314 -0.41014856 0.080137216 0.14073604 -0.011358329 0.0386152 0.04647419 -0.012053572 -0.3532632 0.043990303 -0.105545394 -0.43242654 0.34821162 -0.61944103 0.12215847 0.3102148 0.037486006 -0.20546897 0.2421252 -0.1375415 -0.4674956 -0.18835628 -0.19892222 -0.122536324 0.21271162 0.36358586 -0.10548193 -0.17968993 0.40583098 -0.024874594 0.014854797 -0.00023809254 -0.039139114 -0.08399053 -0.052907 -0.15023118 0.15819792 -0.10705725 0.30750436 -0.22694689 -0.1358097 0.060765073 0.09157883 -0.20033297 0.09717795 -0.2695111 -0.027476346 -0.049606394 -0.47367936 -0.009832356 -0.0051859054 -0.111360416 0.09704454 0.5407147 -0.048487823 -0.08199429 -0.32721925 -0.7174765 -0.1471737 0.10906179 -0.19110048 -0.17098816 -0.0094976695 0.5684782 0.26507324 -0.090954915 -0.15083785 -0.043821614 -0.09948476 0.27361283 -0.19129103 -0.6535566 -0.072502695 -0.06175999 -0.14062077 0.28294313 0.1436413 -0.037888333 0.4066849 -0.22607067 0.65988016 0.34826565 0.23767129 0.035614617 -0.2995778 -0.32071087 0.5546569 -0.24278703 0.089800715 0.099268846 -0.42438826 -0.047001455 0.084068194 0.22906558 0.10178 -0.23379445 -0.37376708 -0.22014177 0.027483441 -0.065995924
512 -0.22490183 0.11649201 -0.19453527 0.35688606 0.12023815 0.050083388 -0.0069279918 -0.23111963 0.31678012 -0.19405024 -0.17006883 -0.10548528 0.49086842 -0.49456224 -0.13106665 0.018140668 -0.3170113 0.039772704 0.013878978 0.09699613 0.18703398 0.22635165 0.3068343 0.40214124 -0.12861624 -0.44526136 -0.11668648 0.19970644 0.13734578 -0.48160136 0.12676519 0.1412903 0.099138446 0.13651304 -0.0030893248 0.085449815 -0.4239 -0.009131612 -0.12590371 -0.32046518 0.4170409 -0.5464078 0.2221223 0.4006014 0.081768 -0.23764035 0.26475355 -0.032008257 -0.43786106 -0.04216791 -0.1953473 -0.24430695 0.20172775 0.4034378 -0.1378201 -0.15803944 0.32701266 0.07861678 -0.06565764 0.05036344 0.09137652 0.012927427 -0.16672105 -0.12688604 0.11404458 -0.1967286 0.1759621 -0.15583678 -0.018433785 0.11504931 -0.02789499 -0.0969496 0.03628619 -0.27642003 -0.052678373 -0.066258475 -0.47084028 0.1658969 0.10856936 0.08076474 0.07776976 0.5429826 -0.1889073 -0.2063572 -0.39785174 -0.78467464 -0.16782115 0.056436144 -0.33543822 -0.11540912 0.05646694 0.5233302 0.21616231 -0.17217115 -0.26119938 -0.046815634 -0.22029543 0.17741618 -0.09130472 -0.67252886 0.01657257 -0.09800485 -0.18790114 0.27548116 0.19381943 -0.09905564 0.40221205 -0.20375584 0.5425947 0.42017645 0.1382361 0.0370842 -0.23120923 -0.33435893 0.5434137 -0.45320737 -0.08154848 -0.08329155 -0.37884733 0.031490363 0.04235134 0.33464387 0.0720252 -0.23708238 -0.38627958 -0.22014122 0.062941596 -0.18028426
1004 -0.32312474 0.075316235 -0.44217142 0.12054182 -0.36491948 -0.3935834 0.3637415 -0.066857934 -0.53448325 -0.20102213 0.023641571 -0.306742 0.261758 -0.28065518 -0.42707747 0.6360907 0.27204457 0.80531925 -0.45470136 0.3102028 -0.076567866 -0.62227434 -0.25469083 0.3152727 0.6995121 0.38755238 0.6288936 0.40398934 -0.057696767 0.12752591 -0.4156318 0.23410566 -0.1306256 -0.36200458 0.14684504 0.014451687 -0.28330365 0.34508708 0.46801022 -0.26252633 0.034419093 -0.45350653 -0.14743371 0.5424832 0.25880057 -0.072114214 0.0184851 -0.08352252 0.2487022 -0.2231803 0.11297111 -0.5595564 0.33769208 0.117684744 0.32815585 -0.0056766183 0.23200479 -0.30332062 0.18922979 0.38509306 0.01370481 0.2361925 -0.41270083 -0.5094151 0.6540815 -0.044058956 -0.034471016 -0.04790949 0.15378399 -0.034921985 0.18888831 -0.7510124 -0.084685996 -0.05630463 -0.05901239 -0.13296737 -0.18227254 -0.06643008 -0.060582615 -0.17901899 -0.35583466 0.6300671 -0.26232058 -0.21327826 -0.33223218 -0.4961602 -0.06461431 0.1811743 0.3567843 0.32335562 -0.042822804 0.3005544 0.0658052 -0.13922672 -0.4498815 -0.654439 0.42094597 0.53479886 -0.091765374 -0.439703 -0.17584991 -0.18009922 -0.5988647 0.10426191 -0.015731147 0.2852323 0.77822804 0.24658972 0.022702523 0.014476916 -0.2036207 -0.23673587 -0.088308565 -0.115504816 0.078856856 -0.80049634 -0.625732 0.26884678 -0.6199127 0.23627704 -0.09365915 0.48121375 -0.5208193 0.46806708 -0.4297049 0.30546662 -0.095017284 0.8101908
178 -0.32759953 0.21232732 0.024998758 -0.11918234 0.25038955 -0.06498155 -0.30026886 0.21508744 -0.058442004 0.17611335 -0.16008848 0.47593716 0.18140322 0.075304836 0.10727797 -0.20355256 -0.12557314 0.061029073 0.019430006 0.042815138 0.14739656 0.18556201 -0.118717626 0.4349588 0.39872828 -0.12916762 -0.12778611 0.113048464 -0.048139922 -0.38188973 -0.0509893 0.43561342 0.093462594 -0.07172562 0.07928808 -0.04316072 -0.224495 0.018096093 0.11090232 0.10510202 0.08434596 -0.27765778 -0.24223933 0.22267848 -0.019659119 -0.22884877 -0.2256894 -0.24014336 0.079627134 0.22168244 0.08821955 -0.42377695 0.38518116 -0.1559132 -0.12491498 -0.021940395 -0.009451572 -0.0024909282 0.09976961 -0.28819045 -0.34882104 -0.1863162 0.16897853 -0.2965238 -0.0841032 -0.3423954 0.07018323 -0.28714854 0.31354776 0.38695064 -0.16007523 -0.3653067 0.43612108 0.050898314 -0.056087233 -0.12968838 -0.2673006 -0.088487916 0.26666248 -0.20013176 -0.017521538 0.046654522 0.028400477 -0.0487905 -0.241707 -0.34447008 0.042775847 0.457155 0.27783448 -0.18973692 0.037801497 0.26472136 0.13002957 -0.38982195 0.0010507172 -0.19156672 0.09067111 -0.31362057 -0.25411218 -0.58150035 0.41204146 -0.23895243 -0.35041675 0.24924964 -0.051427945 0.13602117 0.10278327 -0.23797965 0.22266965 -0.07289195 -0.2306113 -0.07864762 -0.14428683 -0.101983644 -0.10969019 -0.14250565 -0.4871344 -0.082068935 -0.33601198 -0.17792173 -0.005268805 0.050692238 0.07297866 -0.30121568 -0.43742877 0.024488373 -0.29635897 0.06773045
501 -0.38346317 0.23901437 -0.27456436 0.033852763 0.221055 -0.09100252 0.13319454 0.008044848 -0.2047347 0.103247285 -0.15397824 0.27452478 -0.117607914 -0.34438467 0.015871404 0.12736754 0.11790682 0.23987205 -0.046102125 -0.034353033 -0.12221899 -0.015793132 0.042339846 0.444025 0.3299424 0.020735769 -0.12786432 0.004366245 0.041748896 -0.3048043 -0.129892 0.20287393 -0.22657177 0.2986531 0.25690025 0.05620358 -0.3612423 -0.06301866 0.3858831 -0.037303314 -0.030760612 -0.40933844 -0.27204287 0.05091595 0.20553483 -0.26389897 -0.12133102 0.068120405 0.08688387 0.11012674 0.23771885 -0.29161876 -0.11558687 0.16477118 -0.07301661 -0.10398121 0.08329858 -0.14805016 -0.12600726 -0.15791857 -0.09162225 -0.032245036 -0.041311584 -0.2271924 0.39521682 -0.1868111 0.3458032 0.11643911 0.3063466 -0.12247342 0.17578746 -0.15664339 -0.31517524 -0.16007607 -0.1040154 -0.05741737 -0.15175125 0.34196743 0.14572838 -0.46953827 0.15873644 0.16747636 -0.0717564 -0.048442174 -0.08392401 -0.23785514 0.064741924 0.30033642 0.1257998 0.17884673 -0.13736275 -0.13037005 -0.25076666 -0.41797563 -0.41621548 0.12842761 0.17182574 -0.118944414 -0.03264025 -0.2616321 0.44456813 0.027323458 -0.3894267 0.42653975 -0.18689531 0.33714387 -0.0829073 0.039431177 0.025121119 0.3697891 0.23267898 0.19726862 -0.16882502 0.16739646 0.03938094 0.0258421 0.3654855 0.21100079 0.030117298 0.0059977374 -0.016720297 -0.51740855 0.106729984 -0.44942757 0.06304613 0.2905773 -0.23613685 -0.15127093
301 -0.18474609 -0.074345805 -0.023830177 -0.09922874 -0.06461669 -0.1965693 -0.124087535 0.09367497 0.13948111 0.05204898 0.25406218 -0.16299886 0.13891792 -0.05744532 -0.16392253 0.26431403 -0.16176596 0.065005176 -0.19651428 0.14811686 0.054686435 -0.14989536 -0.09526209 0.0844839 -0.15184021 0.10022997 -0.22632523 -0.13036245 -0.09883075 -0.16424617 0.17483352 -0.32319114 -0.0869664 0.1570421 0.0020265745 0.0034211576 -0.1951627 -0.06771292 0.3114612 0.33408192 0.06473266 0.08189027 0.017440872 0.09113885 -0.12736131 0.17033859 -0.074637674 -0.023977185 -0.18537661 0.016384795 -0.07447676 -0.09473622 0.03002908 0.024471518 -0.009370119 0.01098907 -0.027149688 0.03877154 0.103751995 0.10367955 -0.07087687 -0.072570615 -0.08996674 0.006162581 0.0787827 -0.032424327 0.2749397 -0.2249927 0.012742208 -0.116305515 -0.037924014 -0.057497527 0.28302604 0.08382924 0.1064873 -0.1790103 0.13543013 -0.017066408 -0.18651095 -0.047605116 0.16569202 -0.03589305 -0.027419986 -0.008925616 0.00030266013 -0.068137184 -0.09589273 0.114832416 0.17242308 -0.025406057 -0.083276704 0.15330817 0.14597818 -0.10588083 -0.12079641 0.18117322 0.17694144 -0.12462255 0.10721281 0.09652776 0.079685785 0.2313288 0.13625732 0.22388329 0.038333043 -0.14447369 -0.07488743 0.033935696 0.16059595 0.33109042 -0.022661434 0.05292929 0.26106715 0.0135043105 0.12499057 -0.23627923 0.028427614 -0.08655096 0.02283752 -0.19483419 0.18616895 -0.06841282 -0.1109567 0.015992738 -0.002797363 -0.29475304 -0.18284063 0.25472084
1010 -0.086911246 0.14216915 -0.13719343 -0.0007614259 0.21498099 -0.0832102 0.27883184 -0.0127964085 -0.19392262 -0.1286989 -0.2923123 0.16186413 0.45986986 0.18169466 -0.08687815 0.17194338 0.060061283 0.112948954 0.06067042 -0.19442493 -0.20585032 -0.26961318 -0.13146336 -0.24898641 0.32170883 -0.16977187 0.33756757 -0.3483443 -0.21175961 0.13178307 -0.28107542 0.16549297 0.14911708 -0.06674658 0.060764667 -0.45828167 -0.4808982 0.10696634 0.43832147 -0.24556978 0.40521675 -0.5489665 -0.2328094 0.055570338 -0.10160823 0.31102234 -0.14279443 0.105108105 -0.46034068 0.1208857 -0.19037996 -0.3219143 -0.05622745 0.059959006 0.18456517 0.02773827 -0.16266868 -0.046899557 -0.054380804 -0.07636044 -0.08153175 0.15955356 0.052672192 -0.24834229 0.16560121 -0.23976786 0.33249184 0.34380957 0.4534931 -0.15675801 -0.22185475 -0.18761815 0.20385411 -0.22385673 0.15535988 0.16384152 -0.11219581 -0.37169188 -0.20985167 -0.1804864 0.11794138 0.023155151 0.24658951 -0.3180309 -0.2977386 -0.5698927 -0.16907746 0.06762713 0.26580232 0.08608752 -0.26706252 0.2045084 -0.035307348 -0.189402 -0.27564928 -0.13567537 0.12901817 0.15557508 0.35747764 -0.073893145 0.4030544 -0.04644632 0.068816334 0.44994944 0.3039854 -0.2196125 0.42013177 0.01680146 0.18239173 -0.24252185 -0.10118405 -0.004752539 -0.573892 0.03726944 0.15683357 -0.2647362 -0.30341464 0.2570493 -0.61607826 0.12133957 -0.1350893 -0.029218486 -0.11461237 0.11020361 -0.16153225 0.08302608 0.03101375 -0.24520138
1005 -0.35113648 -0.02429468 -0.41226003 -0.15862994 0.13756216 -0.27417666 0.06605745 -0.16066228 -0.40165395 -0.08754092 -0.32478052 0.3054364 0.1914456 0.41220015 0.065103166 -0.037622184 -0.12748495 0.3933671 0.04555888 0.0063091298 -0.14534397 -0.07594149 -0.23869199 0.3196854 0.21245472 0.06060465 0.1953703 -0.18808037 -0.1830145 0.012504904 -0.5536485 0.21176624 -0.21319053 -0.08185166 -0.1354975 -0.63696927 -0.1693873 0.50530833 0.22781907 -0.36365768 0.3071241 -0.13805115 -0.17862794 0.02217706 -0.044599958 0.25249583 -0.086669445 -0.117609605 -0.24923891 0.09861372 -0.20799895 0.054340705 0.17295605 0.038735457 0.17071986 -0.085269034 0.10300506 0.0041558235 0.2987159 -0.22964785 0.24880064 -0.20985201 -0.40806007 -0.2024278 0.22717915 -0.18737301 0.091612585 0.12496483 0.45335892 -0.13266988 0.06677743 -0.06286994 0.037078816 0.20281501 0.20111027 -0.010063898 -0.2714183 -0.06785355 -0.3753858 -0.114249706 0.20404743 0.24441658 0.21852833 0.1222186 -0.32352304 -0.49635902 -0.39125612 0.12737837 0.048390366 0.06739378 -0.28678226 0.17447734 0.10427555 -0.12836125 -0.3755068 -0.14345972 -0.13640475 0.27445272 0.030282894 -0.038691133 0.59600306 -0.18239646 -0.45905197 0.32946855 -0.03237164 -0.04017755 0.025262741 0.0879928 0.11542283 -0.17561585 -0.37647578 0.003810003 -0.47690824 -0.055085763 -0.022305641 -0.010725583 -0.25647724 0.26419985 -0.428873 -0.063666545 -0.055357 0.3637927 -0.05577569 -0.034357842 0.044423036 -5.03679e-05 -0.071301356 -0.37615785
133 -0.20347099 -0.090445094 -0.07502035 0.2875976 0.18879756 -0.027633488 0.05835635 0.032296997 0.09266425 0.11620476 0.12640719 -0.0042105145 -0.34197277 0.06339999 -0.011651491 -0.019347416 0.04043945 0.17741007 -0.11222304 0.18386838 -0.13794473 -0.18499108 0.23239431 -0.10839727 -0.10267241 -0.033750493 0.22991574 -0.18491943 -0.3188365 -0.20838663 0.001927339 0.16459344 0.041118957 -0.022380939 0.16021745 -0.04073008 -0.18138656 -0.1675025 0.014675452 0.22944154 0.13532466 0.035672136 0.0072183916 0.08773216 -0.03324773 0.029704394 -0.050748006 -0.191858 -0.1128466 -0.20169678 0.16463609 -0.19723073 0.07776163 0.09414466 -0.1828286 -0.14102326 -0.051041543 0.0191763 0.038272567 0.06551176 0.010748167 -0.02155733 -0.2951407 0.01915513 0.13647024 -0.017251143 0.027846305 -0.09770739 -0.09477595 -0.043233894 0.033137053 -0.0853939 0.018158447 -0.031565122 0.15351164 -0.09730639 0.09190924 -0.0041411365 0.057507306 -0.14452519 -0.04131609 0.16219023 -0.19200674 0.082270354 0.075537376 -0.07829585 0.06842392 0.13633783 0.09865144 -0.07962071 0.08492711 0.115370296 0.047755342 -0.042233378 -0.27720663 0.28715056 -0.06697315 0.10296893 -0.049722683 0.24816607 -0.091210075 -0.20091332 0.050281566 0.18188742 -0.025176799 0.09475087 0.035238035 -0.18069093 0.048224226 -0.21851672 -0.104956634 -0.033959612 0.250444 -0.113445245 0.1349907 0.08622358 0.19286925 -0.040987253 0.043155406 0.07600362 -0.19701394 0.014115057 0.12423504 -0.07541492 -0.06624165 -0.21142049 -0.0055220393 0.056404922
432 -0.051555406 -0.11620167 0.07173495 0.19416746 0.031169938 -0.1674547 -0.063935794 -0.14265278 0.031041322 0.21794158 0.021755695 -0.08810406 -0.044922654 -0.061964136 0.13515368 0.1749895 -0.023408873 0.1023961 -0.039676744 0.18413979 -0.10874454 -0.12173043 0.11516949 -0.022611042 -0.07630609 0.06456369 0.17289709 -0.09468841 -0.28805748 -0.2633996 -0.00894616 0.00017032385 -0.00984985 0.09173228 0.13860749 -0.023484215 -0.009134551 0.040158667 0.015098202 0.22339551 0.08169394 0.17677976 0.0859001 0.016630137 -0.044716295 -0.09610475 -0.0672552 -0.0811852 -0.09378731 -0.060350556 0.036637682 -0.25828883 0.04474445 -0.18556918 -0.032599825 0.053566 0.08117565 -0.065610655 -0.019925052 -0.038716245 0.17076178 -0.06814364 -0.08548742 -0.019048065 0.24460705 0.01403754 -0.055552866 -0.1791919 -0.023322674 -0.12131412 0.040141746 -0.045953345 -0.032343764 -0.10785772 0.0006386268 -0.2274274 0.15622379 -0.050154176 0.018770145 -0.2122866 0.16839913 -0.01601928 -0.119391926 -0.008473022 0.09079918 -0.08067772 0.07103708 0.027868362 0.13212378 -0.044839807 0.015847873 0.031585228 0.16472393 0.041479606 -0.20009035 0.20663059 0.0020472142 0.081507474 0.07393637 0.071959354 0.14950743 -0.0025394477 0.022520486 0.07533636 -0.030101074 0.21256274 0.07120535 -0.065633655 0.12130544 -0.17379253 0.051351126 -0.090482146 0.1495775 -0.073622435 0.064723454 -0.03835742 0.17256857 -0.030450627 -0.029155152 -0.062314626 0.036870383 -0.05254476 0.32420868 -0.07078907 0.09383548 -0.29417554 -0.06934615 0.118633434
476 -0.009536541 -0.10640977 -0.15726353 0.015640903 0.013407577 0.04861111 -0.010658692 -0.21211214 -0.008594816 -0.038909163 0.18242203 -0.09002751 -0.22650766 -0.04683129 0.23491493 0.021943506 -0.08586022 0.10812323 -0.065371394 0.035468765 -0.13902706 -0.073502585 0.09762389 0.12735394 0.023402467 0.107494034 0.11454763 -0.11540252 -0.012343091 -0.25504237 0.07760144 0.08380622 -0.04034672 0.27370316 -0.019298729 -0.07513067 0.22961369 -0.11731715 0.1835099 0.18550447 0.014979457 0.09238879 0.23916294 0.118758075 0.055014495 0.01196558 0.029623972 -0.08497821 -0.18352097 -0.09153368 -0.10412193 -0.087932386 0.11687707 -0.0033697034 0.07614698 0.1384495 0.03782663 -0.007644333 -0.040137183 -0.109151036 0.059569374 -0.030278385 -0.117586285 -0.053178817 0.1743476 -0.07934463 -0.06200702 0.16602933 0.20419694 0.049554594 -0.0080287885 0.14620838 0.25114655 -0.037492923 0.13896717 -0.07452441 0.22070552 -0.0057050698 0.07288546 -0.07492698 0.11303802 -0.13641986 -0.060037363 0.06835165 0.14203484 -0.28017953 0.051175844 0.377216 0.22190599 0.07237915 -0.01700759 -0.06364505 0.11462251 0.08334917 0.08108965 0.18497658 0.018429648 0.12882578 -0.006895435 0.21319413 -0.13056266 -0.19436592 0.23331428 0.119667254 -0.006744066 0.11366006 0.10950001 -0.18118578 -0.027881738 -0.06871442 0.025066094 0.18596151 0.052160498 0.18278119 0.19736664 -0.11052017 -0.11638744 0.13984431 0.00062254426 -0.1879611 0.042835355 0.043097533 0.013727349 -0.24806608 -0.07129918 -0.1685044 0.011850181 0.14553148
404 0.033808585 -0.2771529 0.15369132 0.099422224 -0.14979284 -0.20845933 -0.2935046 -0.066501364 0.10011218 -0.048701674 0.21092542 -0.042471997 0.12116486 -0.24261653 0.014089519 0.26980287 -0.103454314 0.2504843 -0.012049305 0.25446242 -0.06241501 -0.14790766 0.008599178 -0.20218863 -0.08228562 0.037042223 -0.030741932 0.04308393 0.18760523 -0.36540475 0.03683321 -0.009109853 -0.019975219 -0.012785036 0.08386281 -0.14826575 -0.060415637 -0.32996738 0.21176569 -0.12386061 0.45416978 -0.05858661 0.17747092 -0.14315273 -0.068882205 -0.09341386 -0.12307882 0.19522746 0.06650671 -0.29335883 0.05225822 -0.23576362 0.30260783 0.3009592 -0.0641961 0.06418111 -0.026587678 -0.24943128 0.4285432 0.012729107 0.06735626 0.080922164 -0.15303181 -0.3701065 -0.064614765 0.10710297 0.06542697 0.12790976 0.11188297 0.0077417595 0.18779321 -0.06327257 0.07828263 0.06686582 0.19650024 -0.069433644 0.18219787 0.21559903 -0.21587078 0.0052747866 -0.2534315 -0.0852061 -0.111533776 0.15302806 -0.0138394125 0.15750524 0.00962531 0.021280563 0.122446045 -0.12204614 -0.019379111 -0.00021010253 0.10785247 0.06589652 -0.047102593 0.10582328 0.076762795 -0.05031724 0.02220267 0.32852542 0.089860305 0.15070884 -0.12166608 0.05692494 -0.09130368 0.2951076 -0.08480657 -0.54673654 0.0121559305 -0.016073747 0.27682558 0.106226146 -0.16359858 0.152636 -0.19971134 -0.007379249 0.028049508 -0.0024450275 0.005063521 0.10554539 0.1269456 0.034335658 -0.091311134 -0.1763695 -0.106752016 -0.042972356 -0.28553593 -0.019852981
467 0.0048237387 -0.07898244 -0.099496275 0.11177703 0.15375495 -0.015759615 0.021736808 0.021738205 0.020322533 0.011327171 0.22049184 0.07034137 -0.15945247 -0.09411678 0.0044895117 0.054123122 -0.21869168 0.18335897 0.010414897 0.056099094 -0.24456367 -0.06251197 -0.077718765 -0.09343865 -0.1500955 0.17686097 0.2205925 -0.021048818 -0.1756698 0.013308604 0.01159619 0.1602127 0.10166855 0.04220795 0.1465657 -0.047974735 0.16659665 -0.16880769 -0.021913998 0.1295334 0.123882964 -0.009351205 0.2223838 -0.005461702 -0.058206186 0.13933583 -0.010900087 -0.11675016 -0.05287203 -0.18270555 -0.07634126 -0.1335606 0.10996501 0.035808813 0.09172088 -0.10267112 -0.09194441 0.019933753 -0.14892645 -0.06617546 0.07041367 -0.13048594 -0.32484004 -0.11565085 0.093570486 -0.010826769 -0.10316018 -0.1579003 0.11605317 0.048992645 0.1384905 0.25209892 0.13210748 -0.13537468 0.16892657 -0.047834143 -0.055696417 -0.053969875 0.009122017 -0.07521356 -0.004376819 0.0035524708 -0.34375316 0.18855451 0.0736971 -0.13744345 0.060481474 0.24742937 0.17266764 0.029620418 0.054177072 0.0020120908 -0.0002714345 -0.08219728 0.056026172 0.2947547 -0.15544534 0.012684621 0.11115693 0.12161514 -0.036527097 0.041368213 -0.22370507 -0.009134066 0.064988896 0.0782045 -0.03042344 0.004436242 0.12099971 -0.053009048 -0.04952687 -0.0074213464 -0.015568247 0.112339325 0.06151911 0.09555498 0.08375588 0.05469163 -0.04472612 -0.006977298 0.12214477 0.2771915 -0.033786736 -0.1244275 -0.06354072 -0.12581515 -0.12556612 0.21406278
416 -0.05642622 -0.098465756 -0.03351718 -0.020005383 0.038084816 0.024752963 0.09105243 -0.018538449 0.017650101 0.032459408 0.2468051 -0.096421555 -0.102982014 -0.04075363 -0.03413821 -0.003944783 -0.09567957 -0.03251828 0.04113517 0.07634639 -0.20149459 -0.11638847 0.07606099 -0.02068652 -0.017872203 0.13150759 0.11757269 -0.20676856 -0.06470171 -0.24192864 -0.11909144 0.08061333 -0.114924826 0.048173275 0.008358142 -0.12437204 0.008681395 0.07384222 0.06571022 0.19517468 0.06872533 0.07001131 0.18902446 0.056791693 -0.03811859 0.014789741 -0.061330352 -0.0165884 -0.16393493 -0.06890123 -0.08459684 -0.027160628 0.008397919 -0.104048654 0.032258622 0.017453698 0.03541106 0.10882465 -0.02529783 0.011036594 0.011340452 0.028812567 -0.10092035 -0.048553932 0.037858292 0.1184915 0.040670976 -0.056895647 0.0552642 0.0722102 -0.09053358 0.026113134 0.081057526 -0.0867546 0.07029493 -0.040174104 0.077342585 0.038100082 -0.015708689 -0.11772826 0.1266769 -0.10613711 -0.25271592 -0.06327912 0.110709295 -0.105006024 -0.10123654 0.060745604 -0.027318476 0.03119139 0.05225124 -0.017137231 0.07261216 -0.041972306 -0.019833662 0.07829977 0.0048549515 0.051140614 0.087544054 0.06774679 0.1333684 0.02839934 -0.10869281 -0.19685069 0.06918365 0.040224403 -0.10982391 -0.13401566 0.03984689 0.05927839 0.0037428008 -0.11107866 0.13699305 -0.11988133 0.050968915 -0.23285326 -0.010546956 0.0120015 -0.009765573 -0.00417668 0.002655393 -0.005441131 -0.064793706 -0.009784603 -0.0056253187 -0.21585841 -0.053620204 0.12322599
373 -0.07911684 -0.35183108 0.16841319 -0.067325294 -0.22106922 0.08941957 0.00021221477 -0.0851598 0.019304637 0.088432714 0.17541459 0.03980611 0.0077391737 -0.19353591 -0.0062276134 0.050596368 -0.10950738 0.1234151 -0.06033483 0.18178712 -0.17654313 0.030803004 -0.09534118 -0.06400067 0.0033056582 0.18661411 0.046611186 -0.15610558 -0.070836864 -0.10271236 -0.041261252 0.099040136 -0.10662669 0.07816575 0.06800154 -0.023543665 -0.0016659546 0.06774479 0.19139801 0.1777749 0.018082883 -0.00045492352 0.17190625 -0.0051830714 -0.06937214 -0.10849263 -0.06910415 0.12314118 -0.23051725 -0.1486117 -0.04411933 -0.12428208 -0.011457521 -0.019624561 0.048846263 -0.015134716 0.07739232 0.1081244 -0.08613584 0.1257699 -0.08055745 0.010408669 -0.09814498 -0.18797335 0.019401781 0.06143217 0.05188047 -0.055148873 0.09194274 -0.042877883 0.06772926 0.025618205 0.11495783 -0.066430785 0.09684939 -0.12801948 0.19693135 0.15516283 -0.02592103 0.058757015 0.28366038 -0.12173108 -0.22803144 -0.12056478 -0.0746579 -0.067637414 0.04150151 0.13616559 -0.07682442 -0.1978991 -0.011789043 -0.07239298 -0.029258834 -0.03850651 -0.15773274 0.16714361 -0.084457755 0.031195827 0.05879712 0.15720478 0.022994291 0.06133875 -0.10584349 -0.21707058 0.12869368 0.034244206 -0.04149023 -0.16550809 0.048846465 0.041961573 -0.121541336 0.04924204 0.13233928 -0.13057101 -0.038805086 -0.17435564 0.112565815 0.108362705 0.035691317 0.033234593 -0.053557154 -0.04687062 0.028876193 0.014310541 -0.1888095 2.6614909e-05 -0.0190555 0.07852567
459 -0.11509029 -0.198954 0.17401771 -0.25983462 -0.1428102 0.04260111 -0.03751324 0.08259565 0.10989822 0.011402476 0.35274583 -0.089401975 0.09747589 -0.095981374 0.028364033 -0.05087733 -0.11178345 0.09106963 -0.028148271 0.035583306 -0.038989358 -0.1429102 0.2623161 -0.14786725 -0.043284558 0.07291596 -0.002886123 -0.08355178 -0.03154368 -0.19750305 0.09688133 0.029783497 -0.21347606 0.07614843 0.13371643 0.09559158 -0.09184798 -0.06839015 0.28022596 0.32172573 0.1193629 -0.104695156 -0.014990535 -0.11690558 -0.22169559 0.02705101 0.19579704 -0.13436252 -0.22241141 -0.27123463 -0.09205423 -0.0728748 0.0778354 -0.10890238 -0.15991801 -0.030282162 0.027927028 0.2241632 -0.13988188 0.17482351 0.031302813 0.061588373 -0.16974564 -0.12882785 0.16430877 0.01364513 0.16482577 -0.041180067 0.090964384 -0.06326135 0.058888987 -0.120757386 0.22955626 -0.08231079 0.14622332 0.07063231 0.016600575 0.03956139 0.020135885 -0.0024373373 0.21606225 -0.117820606 -0.3354474 0.21742502 -0.10339427 0.040061712 0.1244223 0.055735387 -0.20877708 -0.15599467 0.12421827 0.08106942 0.11250921 0.0034746232 -0.17967387 0.24643417 0.17160952 0.07870532 0.09899972 0.010981991 0.19888315 -0.11753347 0.009110199 -0.03713185 0.060733825 0.01724077 0.119195305 -0.08332222 -0.06724426 0.2248396 0.014649609 -0.04491149 0.26022142 -0.052582607 0.09469485 0.117601074 -0.067810096 0.18864556 -0.07066397 0.011110839 0.042125586 0.10187588 -0.03663669 0.10539113 0.0054468163 -0.18421294 -0.09136698 0.06681384
323 -0.2023356 -0.105427824 0.050351065 0.19175738 -0.07083042 -0.07176421 0.056283 0.12065934 -0.07910861 -0.05392993 0.11111933 -0.17727356 -0.027601615 -0.15420595 -0.05926583 0.032665566 -0.2508805 -0.08738769 0.0033167717 0.17187427 -0.030580273 -0.10195625 -0.12435972 -0.08090265 0.094565794 0.09481605 0.045604773 -0.17537487 -0.05011332 -0.15331137 -0.13626629 -0.024177246 -0.05591873 0.038686927 0.03658599 -0.09022078 0.24554177 -0.114720196 0.21080631 0.2907547 -0.013760996 0.0701169 0.23309816 0.16311765 0.13903515 0.03221546 0.038336363 -0.11600297 -0.013265589 -0.055691708 -0.14942323 -0.002576951 0.009582361 -0.034450836 -0.09993224 -0.050822675 -0.055223312 0.15628308 0.052741837 -0.11728462 0.005521012 -0.20619664 -0.20307414 -0.0506386 0.1773103 0.058833823 -0.30861777 -0.11813774 0.0100597935 0.08483692 -0.072199464 0.061314266 0.10651347 -0.20047541 0.12092346 0.097004555 0.104943395 -0.14240338 -0.03356276 0.12120671 -0.10947194 -0.08793253 -0.11142257 0.14498529 0.16003105 -0.21625483 -0.13107842 0.085037835 0.0519086 -0.088016 -0.07234706 0.08803694 -0.21860029 -0.054048114 -0.08986676 0.2273797 0.030995207 0.068870805 -0.15396677 0.19602191 0.102910616 0.028280966 0.026148226 0.04222201 0.13494655 0.20023094 0.052405182 -0.19478765 0.21140067 0.036690533 0.06217528 0.024879655 0.15122125 0.1540198 0.12942353 0.012512557 0.049587 0.052368086 0.03603225 -0.022344258 0.15116683 -0.0288272 -0.08453223 -0.10763134 -0.30368033 -0.17860559 -0.11850651 0.17660695
234 -0.08988456 -0.102134965 -0.08606634 0.06237967 -0.0533537 -0.18635994 -0.12715073 -0.07258607 0.047655422 0.14521292 0.10731223 -0.07482468 -0.23230675 -0.18641706 0.14139853 0.09328791 -0.11078698 0.035903566 -0.048229404 -0.061678965 -0.09208356 -0.09074366 -0.13798773 -0.12099228 -0.01844323 0.033582497 0.18759976 0.017073585 -0.059932724 -0.13236791 0.04189065 0.07369225 0.057031974 0.018818613 -0.04626978 -0.094509594 0.16434593 -0.09434869 0.059550118 0.32149038 0.15039445 -0.004059999 -0.020403778 0.061289396 0.04585246 -0.009472179 -0.19127277 -0.049275294 0.073233694 -0.1833124 0.07349234 -0.2389903 0.18099639 -0.041531257 0.09813379 0.014258615 0.08492855 -0.021721223 -0.13470823 -0.037786625 0.12935519 -0.13458551 -0.115689434 -0.19297244 0.22867095 0.018352816 -0.13351227 -0.00861351 0.09013794 0.0506431 -0.04912933 0.01515336 0.07177114 -0.07902719 -0.10244875 0.038016807 0.07920565 0.094977275 0.0015082139 0.012858177 0.062584125 -0.25588867 -0.06885947 0.13026352 0.08859027 -0.16208103 -0.002652164 0.063640945 -0.24292895 -0.11790013 -0.017067052 0.08642432 0.10205209 0.1834696 0.026465744 0.37604803 0.06514371 0.13152085 0.08502315 0.14548568 0.039667603 -0.040868834 -0.24878326 0.015903484 0.0028096836 0.09495557 -0.118946075 -0.20068042 0.14953254 -0.02389158 0.23943812 -0.08433401 0.06296412 -0.20647812 0.13523571 -0.1258825 -0.01761187 0.27203393 0.14880186 -0.058786035 0.045279406 -0.17948452 -0.03706122 -0.086028 -0.07155008 -0.19582419 0.03139886 0.05409065
69 0.021071166 -0.15140277 0.020592527 0.016217504 -0.01871455 0.036606375 0.02266192 -0.13450365 0.03271906 -0.06820397 0.15287538 -0.13916476 -0.10478067 0.045646664 -0.23103954 -0.012026045 -0.043025956 -0.071089365 -0.036961842 0.11416703 -0.07722409 -0.147615 -0.12997246 -0.011437499 -0.047991373 -0.13054805 0.048006512 -0.13950971 0.0063937027 -0.13105601 -0.010314548 -0.0885018 -0.055564597 0.07409413 0.11746299 -0.08001289 0.24866883 -0.14179093 0.1788973 0.22783509 0.09534683 0.11034025 0.23994508 0.17571372 -0.035409253 -0.12822442 0.098109335 -0.092117816 -0.24154116 -0.08039931 0.11743783 0.050792105 -0.17170541 -0.13767408 0.06763237 -0.2502638 0.09617724 0.11045605 -0.13585034 0.13018224 0.036982566 0.034111824 -0.34179908 -0.002157473 0.09325673 0.0115319975 0.02245643 -0.08356677 -0.010468056 0.013528747 -0.20896433 0.035852592 0.15535752 -0.2243794 -0.05065961 -0.065244466 -0.11629083 0.025973437 0.20600966 -0.06473435 -0.19177788 -0.058872882 -0.36167523 0.08126827 0.021375218 -0.25510687 -0.02416102 0.036184896 0.18326984 -0.060771223 0.06581207 0.05591223 -0.020723723 -0.11572937 -0.039870508 0.31552547 0.07581804 0.022192633 0.147574 0.169273 0.04179206 -0.23763941 -0.017510742 0.22923619 -0.14984037 -0.09904703 0.03135838 -0.15677069 -0.0138453385 -0.034835715 0.04096696 -0.046631657 0.04752515 -0.037827246 0.15009013 0.05369587 -0.32745105 0.22982967 -0.0023332695 -0.0073773847 0.10058225 0.17651361 0.029293764 -0.010649108 -0.017006982 -0.26927918 0.10729359 0.08383246
101 -0.09358287 -0.11892168 0.10720801 0.038989376 -0.008012762 0.088949114 0.0628708 -0.026433699 0.08879339 -0.030388795 0.20707355 -0.051472735 -0.0006415367 -0.17841452 0.02925857 -0.0074098166 -0.11783032 0.17866316 -0.019945819 0.040362567 0.09207278 -0.3029714 0.021930864 -0.1102545 -0.115177155 0.13319588 0.016240073 -0.027765451 -0.15233733 -0.12144693 -0.09806602 -0.012234294 -0.14001177 0.057103656 0.13355403 -0.10659587 -0.0009448356 -0.09164624 0.16989821 0.27097392 0.053519808 -0.058283478 0.14275865 -0.12688191 0.021635752 -0.08644783 -0.08212156 0.026659232 -0.18887572 -0.06371181 -0.047659922 -0.059446458 0.2347325 -0.12630837 0.09378543 0.06763401 0.15794387 0.16025807 -0.10953941 -0.12964778 0.016168969 -0.06582433 -0.21389164 -0.2037222 0.08528326 -0.081344835 0.08741584 -0.13229723 0.19217762 0.039722312 0.036457296 0.097102374 0.10153058 -0.098053634 0.09039705 -0.110076755 0.023698729 0.009642209 0.031374343 -0.12549219 0.1059788 -0.05029245 -0.122300096 -0.035493836 0.058906514 -0.09203308 0.09658541 0.1410125 -0.057394315 -0.06782412 0.13415328 -0.044592712 0.1543736 0.078344196 0.0673413 0.13364984 0.1362992 0.13397147 0.036916874 0.1382611 0.09429802 -0.15112731 0.12705058 -0.075200565 0.01813835 -0.023012828 -0.04158397 -0.15729064 -0.12987463 0.062481314 0.07432857 -0.11980799 0.29099882 -0.08839394 0.060880255 -0.08577165 -0.03831341 0.25694814 -0.12110254 -0.09891339 -0.054370254 -0.035461683 0.22182553 0.058264583 -0.05531616 -0.19172435 -0.024354348 0.08985767
249 -0.032680675 -0.18975613 -0.002206192 0.113010176 0.023455152 -0.176747 0.09186583 -0.05008047 -0.012253451 0.20176437 0.07840691 -0.03262149 0.20518422 -0.10140465 0.08374173 0.122953385 -0.11703205 -0.10546632 0.098386236 0.11233376 -0.24324395 -0.039280895 0.1429645 -0.34029865 -0.041854464 0.20369661 0.17595476 -0.03535305 -0.23279819 -0.43352735 0.0094920695 -0.014444835 0.022723544 0.057470147 -0.018984491 0.17930739 -0.039444555 -0.17384228 0.15258497 0.23757422 0.24114227 -0.020054327 0.08947265 -0.006782213 0.15870798 -0.012298024 -0.13953279 -0.106184885 -0.08423813 -0.06927343 0.106119506 -0.009771033 -0.03581108 0.04182778 0.029356604 -0.15979908 -0.05544742 -0.01489835 0.11974565 -0.033146244 -0.11716312 -0.1744579 -0.18909127 -0.26192856 0.031114187 0.106079794 0.013728365 -0.12530528 -0.021478483 0.05796503 0.23334311 -0.011862173 -0.026207268 0.0057906997 0.041705873 -0.18464933 0.15856498 0.26035428 -0.04273532 -0.023729542 0.12136854 0.00076944946 -0.28739545 0.35928997 0.1434101 -0.045567863 -0.14747556 -0.00025828957 0.09142217 -0.14977454 0.04276174 0.07131165 -0.14251345 0.032213517 -0.12261798 -0.027957274 -0.050763164 0.040611967 0.0074009257 0.3045335 -0.012340877 0.02861977 -0.085967995 -0.05905135 0.12871128 0.06894304 -0.2622314 -0.12483736 0.0846574 -0.037889827 0.009583183 -0.12406798 0.054169215 -0.04916492 0.08817829 -0.083879 0.070352525 -0.02221173 -0.053968374 -0.044751022 0.21381505 0.13475536 -0.1893652 -0.08972428 -0.03686988 -0.35149217 -0.2672411 0.016613042
232 0.027940843 0.008789189 -0.00097228424 -0.07734695 -0.026087446 0.009692327 -0.0028878022 -0.19157182 -0.012821461 -0.03551102 0.07369757 0.1562673 0.02788453 -0.026091905 -0.18417552 0.10972376 -0.2905887 0.09929576 -0.08081321 0.15308084 -0.07661794 -0.06595416 -0.07513684 -0.13206412 -0.092598446 -0.0075116684 -0.09092687 -0.123971514 -0.01039124 -0.12485661 -0.29969233 -0.015208963 -0.10429916 0.00867586 -0.017997855 -0.01182712 0.11866855 -0.050719257 0.10981157 0.27903324 0.05867404 0.08719752 0.32828847 0.12660676 -0.047417972 0.19495243 -0.11066729 -0.023167284 0.005830966 -0.015770359 -0.052726638 -0.122425415 0.05195601 0.03830654 -0.019537171 0.024566235 -0.10077108 -0.0012917799 -0.063657686 0.059310243 -0.019661505 0.22141673 -0.044143558 -0.07140853 0.22173682 0.00644318 0.059201546 -0.105416484 0.22723126 0.045514442 -0.012830189 0.09739222 0.067704186 -0.18340084 -0.0025367977 -0.14560077 0.041097652 -0.21564588 0.106685564 -0.07246242 0.14323808 0.03137602 -0.10938769 0.023694979 0.118778735 -0.15359846 -0.056080636 0.12387884 -0.09683888 -0.22500865 0.33109426 -0.1559763 0.05812016 -0.081473045 -0.14464891 0.19764884 -0.00827253 0.03375238 -0.03971124 0.23850398 -0.1414232 -0.08663684 -0.006884922 -0.013620751 -0.13652234 0.09397937 -0.19931254 -0.16904536 0.16643758 0.10819306 -0.0025189375 -0.18117371 0.19899483 0.009454936 0.12856035 -0.37778628 0.0885864 0.24230696 0.01736844 -0.05805027 0.07911446 -0.16180012 0.012184183 -0.009392423 -0.05330819 -0.20151764 -0.023243414 0.15574417
454 -0.09567315 -0.04480218 -0.03811221 -0.06740821 0.00042599885 0.009919469 0.099404864 0.034809653 0.07112862 -0.05387732 0.2108948 -0.024147326 -0.14518657 -0.12963815 -0.030393396 0.04275228 -0.104357004 0.0020501325 0.07156432 0.1107264 -0.24260874 -0.15419121 -0.04762111 -1.5041734e-05 -0.079493195 0.0650912 0.022757664 -0.12473911 -0.030568644 -0.12872827 -0.11760406 -0.004146338 -0.108278364 0.07030203 -0.03984182 -0.16896378 0.17729148 0.11583087 0.15323721 0.20397843 0.047731206 0.055984348 0.15840785 0.03195741 0.020295354 -0.044915482 -0.039986912 -0.0714459 -0.041407235 -0.03271636 -0.05828231 -0.14794 -0.082843326 -0.0974085 0.15793243 -0.018670807 -0.037349027 0.02025966 -0.107155226 0.015593201 -0.13336076 0.11216871 -0.22730581 -0.0125741195 0.14825872 0.022279268 0.012329551 -0.081247926 0.080982424 0.10798901 -0.028883506 -0.040472765 0.15033789 -0.07971622 0.105957344 0.006139414 0.04450743 0.01424519 0.027709452 -0.0790181 0.23514579 -0.12983191 -0.097650625 -0.019554038 0.06428147 -0.13399555 0.023243997 0.10556764 0.032796346 -0.07066206 0.07079536 -0.011154636 0.08670419 0.01691735 -0.03739934 0.30692914 0.033267807 0.08919462 -0.019733818 0.09571885 0.01352695 0.059867818 -0.07477188 -0.11282105 0.02671173 0.074817985 -0.12942773 -0.19942948 0.057806578 0.05871228 0.09223972 -0.096004345 0.14306891 -0.04528517 0.023814647 -0.22778393 -0.06516247 -0.0237979 0.0016046019 0.0020683454 -0.030551096 0.099300385 -0.026352728 -0.035692744 0.028935313 -0.15532915 -0.06389547 0.16309236
299 0.0014176957 -0.11807247 0.06265449 -0.011830239 0.021923918 0.0334764 0.08435805 0.016506417 -0.015010128 0.08623037 0.27241275 -0.032013535 -0.12926799 -0.13403708 -0.0893165 0.03503671 -0.13190752 0.006724423 0.06430832 0.12700813 -0.17027457 -0.09649818 0.06874992 -0.049816053 -0.07343325 0.042773787 0.016170299 -0.1360178 -0.017647972 -0.13393168 -0.14997596 0.12424796 -0.044074677 0.03456758 0.042955898 -0.12059116 0.08770185 0.02880451 0.025265936 0.16515362 0.13728863 0.055910062 0.23042625 0.0658739 0.06460791 0.04924956 -0.12080047 -0.017466478 -0.11870105 -0.07450024 -0.12878062 -0.16010167 -0.12557171 -0.22591369 0.021538574 -0.008740974 -0.03186994 0.083347775 0.022085298 0.02032621 -0.048167713 0.0330894 -0.18461466 -0.10114837 0.069966204 0.14548285 -0.0026841515 -0.11349309 -0.008416432 0.09791545 -0.0238828 -0.0093859285 0.10543867 -0.17792521 0.062221885 0.01356341 0.02220463 0.057727557 -0.033235803 -0.1700918 0.1323348 -0.117227145 -0.2140434 0.040319137 0.05064528 -0.20600009 -0.03988921 0.025728531 -0.021027975 0.03593522 0.03777625 -0.07145292 0.07508448 -0.05942738 -0.016934117 0.21304645 -0.013734404 0.011079748 -0.024334885 0.07440347 0.022643894 0.02632294 -0.06452256 -0.04984293 -0.015018351 0.101318076 -0.1386212 -0.08134303 0.07890294 0.05789684 0.1105116 -0.107333645 0.16501386 -0.058949333 0.01075631 -0.117847756 -0.034856826 0.14571585 -0.056149345 0.024054112 0.010049452 -0.043192845 0.039417677 -0.091113925 0.01150712 -0.17262062 -0.08831892 0.18038201
215 -0.21116653 0.006491218 -0.17496145 -0.0130376825 0.03128298 -0.1366549 0.029586468 0.0627111 -0.035712216 -0.13316427 0.0217474 -0.019085312 -0.04847601 -0.028413087 -0.045703746 0.15567082 0.08112427 0.15213297 0.065191835 0.11923048 -0.043789264 0.0678617 -0.05597164 0.07894056 -0.06635057 0.23509097 0.18683632 -0.3088625 -0.11303207 -0.042067148 0.061054595 -0.0032121444 0.13704638 0.20378676 0.14476082 -0.09337476 0.022420306 -0.077973805 0.0525268 -0.025017811 0.3773203 0.039477065 0.1504021 0.04011251 -0.2201584 -0.08519951 -0.11823534 -0.070468 -0.060707062 -0.15393184 0.053931557 -0.079374656 0.055433195 0.05672958 -0.046590928 0.12495784 0.07966594 0.09096421 0.0065973825 -0.18824027 -0.001662822 -0.13890617 -0.22287545 0.12647466 0.283582 -0.05415087 -0.23126271 -0.15719996 0.017313918 -0.19331804 0.25076053 0.09214243 0.16067599 -0.1684292 -0.05207791 0.0993386 0.3816691 0.14222813 0.11586096 -0.0028670232 0.050835896 -0.16006926 -0.06400488 -0.041980445 -0.21996504 -0.09609695 0.28652048 0.07061365 0.2951958 0.0042498545 0.095228374 0.1677043 0.025550663 0.13095045 -0.12724377 0.22692376 0.07779622 0.013641302 -0.025097765 0.2612566 0.1904323 -0.15333994 -0.0096826125 0.013846105 -0.08693909 0.15809268 0.051372744 -0.21434852 -0.13661955 0.0722892 0.037319664 -0.14806713 0.2787128 -0.16605078 0.28238377 -0.08443762 0.124485575 -0.038877327 0.18382406 -0.05378177 0.11787942 0.012464904 0.19636397 -0.10051478 -0.018098528 -0.20354696 -0.22905463 0.17443183
152 -0.27221233 -0.23092881 0.082806155 0.082066 0.0135594 -0.092957534 0.1373728 -0.07576234 -0.01898322 0.042203505 0.15160814 -0.069934264 0.033736825 -0.07932017 -0.14714342 0.10405647 -0.074566916 -0.070157856 0.0042691426 0.08667967 -0.0039475225 -0.27864933 0.07126955 -0.0680859 -0.19713438 0.11694022 0.043502584 -0.14531565 -0.08189219 -0.13700736 -0.053932488 -0.06412372 -0.0452315 -0.042625986 -0.015042807 -0.09760027 0.031222625 0.023520043 -0.036386143 0.28919205 0.048331685 0.003786317 0.1541958 0.086947486 0.0014281926 -0.011022778 -0.028284747 -0.09457417 -0.16603327 0.040032234 -0.08832078 -0.20021547 -0.014085711 -0.15968753 0.07483345 -0.123491295 -0.011576627 0.16791156 0.11520117 -0.008520777 -0.04004139 -0.013277031 -0.13584675 0.07191868 0.09312711 0.026252631 -0.02753296 -0.14204092 -0.028404897 0.031555243 -0.026793474 -0.01038657 0.23133072 -0.11324568 0.15808046 -0.21824738 0.09610103 -0.041538183 -0.01799793 -0.0065478017 0.08286674 -0.023318566 -0.17406099 -0.015493381 0.07317106 -0.10221072 0.10290074 0.073140375 0.062643655 -0.045608982 0.013169029 -0.08969998 0.09769621 0.0364144 0.013096782 0.2286106 0.07385585 -0.05294149 0.060724486 0.20066212 0.09445708 -0.024818974 -0.17129959 0.07746909 0.09086719 0.14902048 0.010469144 -0.14151561 0.1505801 0.051369585 0.07439919 -0.07668988 0.12246493 -0.105205365 0.05640903 -0.23714195 0.004808738 -0.044697396 -0.011849238 -0.13926229 0.0013425468 -0.034146875 0.046557587 0.022438921 0.062056676 -0.19238631 -0.1413071 0.034616217
406 0.032666575 -0.18945986 0.09368422 -0.1679925 -0.15280093 -0.01597426 0.08590802 -0.031162445 0.26301473 -0.068620816 0.30769494 -0.14951128 -0.13289958 -0.13657415 0.06321488 0.077005506 0.07841623 -0.06456045 -0.118269764 0.0048642918 -0.0988684 -0.06888876 -0.05199934 -0.13862011 -0.0337984 -0.12719601 0.00063531223 -0.17275047 -0.15037547 -0.17694674 -0.06176347 -0.12470195 -0.073287345 0.04787519 -0.040451493 -0.1434539 -0.081313714 -0.006740111 0.11626837 0.23817885 0.24183442 0.11775048 0.15285572 -0.014554671 -0.034933493 0.008685703 0.123869084 -0.19305836 -0.13776799 -0.07540123 0.027100341 -0.058012806 -0.06803104 -0.033234883 0.07392602 -0.09783034 0.06550246 0.2538546 -0.099185534 0.2437604 0.10954837 0.06381207 -0.23008883 -0.15242003 0.09814303 0.05236658 0.23781878 -0.033597328 -0.037641164 0.1777302 -0.16092207 -0.100605905 0.053001616 -0.10842471 -0.025177898 0.05563014 -0.056920335 -0.07336071 0.13438764 -0.14538893 0.003324109 -0.050095387 -0.2628134 0.021832146 0.06480426 -0.18531433 -0.10422903 -0.035089392 0.07436322 0.10815149 0.08554536 0.034296677 0.08262589 -0.06286457 -0.1416002 0.26306695 -0.05109042 -0.111129746 -0.065090165 0.013221497 0.16499053 0.0067701507 -0.028000487 0.0026955362 -0.015188839 0.07361611 -0.07318371 -0.28212142 0.01407097 0.04315255 -0.11178014 -0.0910122 0.1345326 -0.014785787 0.058222845 -0.026647206 -0.09465325 0.027245851 0.011059604 -0.09935136 0.014962176 0.19427696 -0.12450213 0.03463654 -0.022043547 -0.07788304 -0.09154159 0.0743492
136 -0.081299655 -0.028685736 -0.015577418 -0.07339931 -0.012703937 -0.006271151 0.097558565 -0.15608734 0.05313902 0.101808935 0.21715534 -0.045628916 -0.030753447 -0.119423755 0.0067439512 -0.059890766 -0.10205687 -0.019825302 0.07700952 0.10044012 -0.1387519 -0.24254772 0.0011103567 -0.1046678 0.01398023 0.029419009 0.05562395 -0.08837603 -0.05263875 -0.24449444 -0.11103356 -0.010605265 -0.03470183 -0.06401437 0.13023956 -0.12582399 0.09437195 -0.0779232 0.06875932 0.14694075 0.0329693 -0.053863104 0.11388664 -0.06159459 0.011940097 0.004309577 -0.1433754 -0.0003973044 -0.13522351 -0.053899918 0.07784366 -0.14732994 -0.09347712 -0.0766474 0.0011029786 -0.0672514 -0.023978017 0.15794447 -0.09134504 0.103328384 -0.04361235 0.084867984 -0.10011672 -0.09251407 0.08097724 0.1522791 0.1136318 -0.0003587663 0.10684652 0.16147996 -0.0055302135 0.003587547 0.114032224 -0.14922492 0.018678144 -0.10668742 0.1315024 -0.015277037 0.014388461 0.010982634 0.1224037 -0.0664025 -0.16237795 0.044311248 0.07864441 -0.1306907 -0.072186336 0.04730005 0.04250071 0.0013500241 0.068040356 -0.006759882 0.12812287 -0.06897463 -0.07913275 0.29272628 0.08536094 -0.0048583397 0.07088914 0.13508992 -0.003152959 0.05950443 -0.15442161 -0.042730276 0.022206489 0.032363307 -0.041807503 -0.17448103 -0.03519532 0.109800324 0.0325581 -0.13456482 0.16605605 -0.10779234 0.04959189 -0.16316964 -0.02704784 -0.028842092 -0.033347603 -0.0135672 -0.039649997 0.031140236 0.016726287 -0.03285355 0.047754657 -0.23823193 -0.04346307 0.0823266
127 -0.059517194 -0.09335709 -0.01896672 0.036735225 0.03511529 0.17198491 0.054350402 -0.048351835 0.013650955 -0.04015929 0.25781065 -0.0120444745 -0.051556155 -0.15853569 -0.071833275 0.101761356 -0.14773434 0.0132651245 -0.017155424 0.07089115 -0.15939371 -0.05927653 -0.004282868 -0.18965273 0.0027525953 0.018383719 -0.052161627 -0.09345916 -0.008756649 -0.20088062 -0.07877228 0.059824735 0.00980647 -0.057772886 -0.035601296 -0.11660907 0.14837256 0.0010203136 0.11330372 0.10641634 0.03940359 0.050572928 0.24417603 0.052135564 0.018380387 -0.04201778 -0.0102997115 -0.040012535 -0.045916792 -0.017037217 -0.02488496 -0.07255157 -0.036032677 -0.05815809 0.06578666 -0.035323393 -0.048926454 0.23166811 -0.10264363 0.040851787 -0.09397579 0.04666698 -0.11484875 -0.05498443 0.18825974 0.07829746 -0.0016642471 -0.077800885 0.034639906 0.07504914 0.052629393 0.012020391 0.076569974 -0.28791502 0.091914974 -0.049073443 0.06361807 -0.018262334 0.0433368 -0.052409314 0.17409126 -0.17743877 -0.16486152 0.009135433 0.06684854 -0.10051539 0.027384833 0.12333276 0.038428802 -0.08155867 0.09481954 -0.018085092 0.10607696 -0.013783847 -0.06763518 0.096989214 0.07124711 -0.08617051 -0.017085837 0.09997363 0.055755775 0.06375269 -0.18486091 -0.10142915 -0.04631673 0.109818995 -0.09473202 -0.29615954 0.06965944 0.024230927 0.032354884 -0.0061104004 0.064175226 -0.11782376 0.15030001 -0.13523264 -0.04202544 0.12044535 -0.016336076 0.03617785 0.018103108 0.057833783 0.012870784 0.04808501 0.03871804 -0.10589777 -0.12061996 0.10141145
86 -0.10467194 -0.09244177 -0.008885201 -0.048004817 0.0076760035 0.046166696 0.14388305 -0.003669068 0.10938014 0.04745955 0.15719908 -0.119868234 -0.082433335 -0.08998367 0.05183365 0.070095375 -0.015776223 -0.043170173 -0.10162075 0.14170453 -0.04424406 -0.1239002 0.0015430346 -0.07675296 0.041266516 0.12435753 -0.019155871 -0.079370946 -0.051126573 -0.14133136 -0.1054157 0.015981209 -0.11949384 0.0008820384 0.05105232 -0.1498816 0.1298243 -0.010664559 0.0822237 0.1629805 0.11240713 -0.0026087516 0.20364954 -0.034847014 0.03892648 0.036199894 -0.07329443 -0.07511037 -0.15881604 -0.020163791 -0.010855763 -0.061403465 -0.08470734 -0.0485486 -0.00634246 -0.101608396 -0.023445662 0.11955811 -0.11194235 0.0022409563 -0.015307923 0.0017951622 -0.15860972 -0.15140204 0.09890659 0.12747954 0.031025413 -0.09399106 -0.04499579 0.15230133 -0.0032261466 0.08245331 0.104423776 -0.13805385 0.028981416 -0.122962125 0.16322932 0.046828113 -0.09968002 -0.08782041 0.18242174 -0.06876522 -0.17244843 0.046560153 0.07407616 -0.1747915 0.09724252 0.06978955 0.046651296 0.004006584 0.028719243 0.0028632216 0.09981772 -0.051973358 -0.09052141 0.19541484 0.013305574 0.025374437 0.07315906 0.14782906 0.07476124 0.01681355 -0.12972938 -0.13209184 -0.043161977 -0.038863514 0.005820313 -0.2491473 0.010689133 0.06733269 0.036651403 -0.004215896 0.07201728 -0.11249765 0.11772291 -0.16285229 -0.07842311 0.074320994 -0.0019969346 -0.011016955 -0.067027874 0.088053435 0.08900566 0.03990354 0.036232196 -0.19396055 -0.14641532 0.18072644
33 -0.058761206 -0.03731176 0.009412663 -0.08199176 -0.07501483 -0.041153904 0.14367814 -0.049799822 0.16240706 0.07235814 0.1753726 -0.15267195 -0.14481698 -0.15512279 -0.115433164 -0.012559592 -0.052152295 -0.07687438 0.027695833 0.096115515 -0.1067838 -0.2554652 0.09133364 -0.1297116 -0.0013493916 0.091486186 -0.07680647 -0.16375875 -0.0731911 -0.26864645 -0.17643824 -0.0060271155 -0.024419907 0.036665224 0.013326051 -0.13567321 0.07293642 -0.09372468 0.08921581 0.19713491 0.12899815 0.08282204 0.14791532 -0.12037779 0.006591986 0.0453928 -0.11801638 0.039398916 -0.1423098 -0.086492635 -0.10740148 -0.028887138 -0.011570528 -0.14404547 -0.03229666 0.00028362748 -0.01286497 0.04563847 -0.02702228 0.14523393 -0.027049145 -0.014607372 -0.11144736 -0.091095 0.15041421 0.12383149 -0.018602353 -0.08024544 -0.02238988 0.14748262 0.0223369 -0.0059948564 0.1667955 -0.111868665 0.06944609 -0.11326588 0.07149824 -0.04192773 -0.009028424 -0.04880917 0.19647864 -0.022597983 -0.16563253 0.05808762 0.0072343606 -0.12135033 -0.07949239 -0.012601888 0.08815369 -0.030812612 -0.005302282 0.052523576 0.11666365 -0.028300915 -0.045061707 0.13934074 0.05692754 0.020632593 -0.0059559476 0.037692703 0.09401125 0.07179525 -0.12482177 -0.074902266 0.020966904 0.13067538 -0.083862774 -0.17775303 0.074769266 0.006314214 -0.0567235 -0.044973817 0.1581484 -0.06398652 0.07588959 -0.1678061 -0.07835184 0.001838452 -0.013690934 -0.047254138 0.02078284 0.0097529385 -0.003641945 -0.08618576 0.037961874 -0.14379285 -0.104942665 0.19310148
187 -0.017537294 -0.1420504 -0.049580656 0.15198207 0.11666019 0.04116992 -0.06760858 0.10477854 -0.05709818 0.09337379 0.12990482 -0.20403083 -0.09545052 -0.05681149 0.10652235 0.115517765 -0.13956639 0.02016962 -0.056412604 0.020762086 -0.15274987 -0.124432564 -0.09417596 -0.036103353 0.10014296 0.028371474 0.14703046 -0.22361939 -0.3049583 -0.13406248 -0.045642655 0.011936229 0.070192926 -0.0885342 0.07459282 0.042978622 0.19452854 -0.20315681 -0.061841607 0.1753467 0.10726131 0.03618542 0.06218093 0.005319468 -0.07616913 0.022691725 0.03349059 -0.1489214 0.016985264 -0.042299345 -0.027834816 -0.14992136 0.06390931 -0.11051294 -0.082832515 -0.042016625 -0.077181734 0.1277981 -0.08688898 0.055608384 0.14585748 0.030541755 -0.20245013 -0.21944088 0.24771123 0.11060989 0.009463752 0.07811972 -0.012161507 0.21039094 -0.03921733 -0.062188834 -0.016436582 -0.27302018 3.0914205e-05 -0.093158565 0.031952094 0.017969556 0.013301427 -0.04423698 -0.023428664 -0.024111625 -0.19403797 -0.14379592 0.01905833 0.04525921 -0.0017014298 0.20178534 0.052943043 -0.072595604 -0.042084888 0.014606473 -0.066567786 0.11900753 -0.18115845 0.38436797 -0.12754293 0.0748908 0.015221556 -0.015368204 0.04254342 0.060915317 -0.0897034 0.013641361 -0.09117155 0.04041977 0.0051172664 -0.26428854 0.021785807 -0.027008694 0.021416757 0.059131186 0.05795393 -0.19396856 0.046414003 -0.056510624 0.05557113 0.15651476 0.041375414 -0.14290908 0.30852237 0.008700607 0.016854817 -0.0924003 0.0001651139 -0.1670557 -0.049618445 0.19020896
40 -0.069736004 -0.12914032 0.023456793 0.012799653 0.02732845 0.054535404 0.07951251 -0.028931089 -0.0062426776 -0.011552722 0.21165502 -0.039043047 -0.10112963 -0.16852336 -0.022440724 0.12358326 -0.107068904 0.028064981 0.0019611449 0.1433689 -0.16740014 -0.08518514 0.067036636 -0.08323144 -0.14566256 0.0007958106 0.0629411 -0.16576561 -0.03126701 -0.076872535 -0.044073395 0.0066996776 -0.081987865 0.04656054 0.042718787 -0.09385835 0.11822848 0.010026471 0.028488083 0.13757676 0.09014602 0.03503968 0.09376212 0.082525365 0.032775678 -0.005793537 -0.028998436 0.05478201 -0.07320673 -0.12568356 -0.10084115 -0.1107932 -0.0461489 -0.09636398 0.05429375 -0.12645082 0.015063622 0.13832416 -0.032625485 0.008849279 -0.0077045104 0.05569635 -0.1788542 -0.11990048 0.20617297 0.16108137 0.02034379 -0.06646671 0.053194594 0.20579666 0.06251319 0.032927617 0.19135597 -0.11192515 0.17335597 -0.11562995 0.078626454 -0.034853693 -0.083960265 0.035246182 0.18253058 -0.14292173 -0.26463717 0.053875577 0.1267066 -0.13896278 0.03378797 0.09920609 0.09823941 -0.051609166 0.038101707 0.0025943718 0.046886936 0.031838186 -0.022269702 0.23228881 0.081068575 -0.0070047057 -0.032096684 0.07334464 0.035954807 0.07154472 -0.14477786 -0.08338733 0.012279509 0.036687527 -0.10395267 -0.14799954 0.09397853 0.00037583447 0.062334612 -0.052922837 0.10097751 -0.059604637 0.038252354 -0.12957923 -0.1198071 0.011140077 -0.06048872 0.0050376193 0.047875423 -0.087717034 -0.0018434218 -0.082617894 0.066633694 -0.13949142 -0.028587533 0.15825886
106 -0.03337475 -0.07411086 0.03781367 -0.114520594 0.028168049 0.08264285 0.1585066 -0.16992395 0.008660062 0.056062732 0.20361233 -0.06848642 -0.08529936 -0.18082985 -0.009841726 0.029968232 -0.07125426 0.015247817 -0.004196163 0.011463525 -0.100774966 -0.091334395 0.09048367 -0.1425985 0.02278078 0.01695833 0.12990369 -0.22443014 -0.09526396 -0.17509924 -0.111375555 0.009535695 -0.04512062 0.05589653 0.028287731 -0.12377471 0.00640232 -0.01278861 0.11033391 0.11053143 0.084293164 -0.00052751333 0.2354888 0.017018056 0.01228582 0.10568222 -0.024656665 0.01933978 -0.1509911 0.04778296 0.018873498 -0.047224693 -0.030022174 -0.08078614 0.04912541 -0.005984229 0.009107925 0.14474536 0.011725925 0.14139359 -0.021053597 0.05743484 -0.21844594 -0.089014664 0.027640361 -0.014821788 0.034755144 -0.005197542 0.03393836 0.13746777 0.055691667 -0.020078631 0.12718591 -0.14052586 0.20567946 -0.115143925 0.16829838 0.028149206 0.06473493 -0.120461136 0.14687213 -0.103574544 -0.2710005 0.0513296 0.026051562 -0.14376776 -0.017712213 0.020935094 -0.023155447 0.025165884 0.045126937 -0.031502016 0.11193401 -0.006984345 -0.05793078 0.25004035 -0.04762478 0.057460528 -0.061870836 0.118474565 0.060864933 0.067111224 -0.116775066 -0.108544484 -0.059114106 0.06830803 -0.120973416 -0.089277886 0.031440094 0.031148894 -0.035511967 -0.11973097 0.18974908 -0.07398112 0.008020237 -0.1821313 0.019610742 0.04342972 -0.055240568 -0.021205505 0.05240964 -0.022483952 -0.000606618 -0.06611473 0.04034727 -0.26073796 0.0219223 0.23953754
282 -0.04220665 -0.120973006 -0.031988416 -0.09050015 0.17758645 -0.05563673 0.09144525 -0.03756934 -0.019969791 0.0075369906 0.18754254 -0.17059419 -0.037836954 -0.230826 -0.09955891 0.027480735 -0.0025218378 -0.0194538 0.09467897 0.30010298 -0.07565657 -0.19709815 -0.13628101 -0.10511791 0.028733796 0.13603607 0.023858167 -0.14374985 0.038120262 -0.13672684 0.055608403 0.1607638 -0.016214225 0.04161931 0.06670803 -0.13991573 0.01363929 -0.004372132 -0.022206087 0.15405014 0.11759406 0.14826384 0.1651728 -0.023018926 -0.12523389 0.16581748 -0.047219582 0.07433641 -0.2989399 -0.08194774 0.028643275 0.090785496 0.0633315 -0.08223551 0.20577161 0.046538685 0.06844877 0.21834973 -0.14164074 0.119609505 -0.015980428 0.08210335 -0.19276306 -0.12251381 -0.04788883 0.007562702 -0.06632257 -0.08194354 -0.031426433 0.0455001 0.027975012 0.093825385 0.1892035 -0.056362163 0.061336648 -0.12632036 0.23875181 -0.022766968 0.034781672 -0.025021542 0.12649648 -0.10991169 -0.2938045 0.13527521 -0.015255587 -0.16500966 0.15895428 0.08887173 0.15146719 -0.026508829 0.12314397 0.039983638 0.0758341 -0.15505351 0.05659965 0.12689531 -0.049816526 0.0073297755 0.12604432 -0.028345404 0.12524559 0.097743005 -0.11222271 -0.01921654 0.024928205 0.17558344 0.009332188 -0.11998805 0.12730342 -0.13264686 0.004026745 0.032420367 0.089402206 -0.052288428 0.123967715 -0.12064776 -0.042308185 -0.00861574 0.06789158 0.07078675 0.20754036 0.10419363 0.12807544 -0.06782217 -0.025295826 -0.054972883 -0.18528146 0.18571936
94 -0.0663822 -0.11192188 -0.03334086 -0.09416398 -0.08404773 0.06556944 0.07511674 -0.23037249 0.04285071 0.0016124102 0.15077247 -0.04386447 -0.07337384 -0.1966044 -0.004512992 0.06673362 -0.062376548 -0.016297357 0.0020005093 0.072965816 -0.070457295 -0.13423492 0.03648808 -0.05760984 -0.01800405 0.10727483 0.023851214 -0.10482987 -0.006361336 -0.08744841 -0.08826057 0.057938322 -0.065596454 -0.01825802 0.010544311 -0.11956693 0.102434404 -0.05706982 0.12965052 0.1893486 0.06220119 0.030426592 0.19044077 0.037147652 -0.0054407385 0.03488187 -0.10133074 -0.02232961 -0.14638652 -0.111242756 -0.02003373 -0.038962934 0.01404555 -0.1665663 0.06134639 -0.056413356 -0.011027937 0.10912074 -0.04757171 0.04319895 -0.040479414 0.070974745 -0.103875525 -0.05788569 0.13064976 0.05298228 0.004196876 0.025946675 0.052438006 0.19847788 -0.043947875 0.012941756 0.13291413 -0.20808841 0.05874767 -0.05303632 0.0910979 0.045009736 0.016758136 -0.07694866 0.10035716 -0.17354843 -0.035218433 -0.014393197 0.13798815 -0.11662561 -0.0032332444 0.15305042 0.008105977 0.07790908 -0.0022631022 -0.0028166333 0.096240096 -0.015307973 -0.08609625 0.22686517 -0.008264332 0.00062381 -0.025565235 0.15692195 0.032251142 -0.010369125 -0.21890302 -0.10204231 -0.009635595 0.15484619 -0.124336384 -0.29893345 0.04874145 0.016753478 0.040485747 -0.07337281 0.1415504 -0.018426321 0.09537511 -0.17165326 0.007167648 0.08020068 0.043155372 0.009241937 -0.15762609 0.0023644683 -0.028024962 -0.117239185 -0.013649079 -0.19209918 -0.06413517 0.07736135
92 -0.13156232 -0.18309143 0.03618092 -0.07365726 -0.072051965 0.018533945 0.10041147 -0.12617423 0.12831947 0.050956648 0.17129269 -0.09354538 -0.066454574 -0.19048874 0.061882038 0.043200895 -0.040272303 0.12067566 -0.015562229 0.12851338 -0.17151283 -0.11116524 0.033292785 -0.13129118 -0.009265277 0.084219776 0.0907765 -0.26919362 -0.005697102 -0.20039338 -0.16110694 0.03370351 -0.09540894 0.03396905 0.07430057 -0.2196178 0.07381187 -0.045394056 -0.03091095 0.16273086 0.08204976 0.041354347 0.18280263 -0.041352104 0.0054956786 0.036078457 -0.038573105 0.047387145 -0.084894285 -0.06250755 -0.061920665 -0.09096081 -0.00019172177 -0.14411625 -0.02291475 -0.055016384 -0.017108314 0.078951254 -0.07035406 -0.091545336 0.010521654 0.047081847 -0.102962926 -0.117091194 0.11438508 0.08744295 -0.0888377 -0.005918925 0.023812613 0.17590669 0.026144333 -0.027605975 0.069499895 -0.14967312 0.0010442894 -0.092251495 0.0604912 -0.019633364 -0.0681392 -0.05057752 0.17208485 -0.12115601 -0.17580487 0.0033024454 0.117992274 -0.1414911 0.119483255 0.09961316 -0.00428767 0.01922785 0.031135961 0.0072161593 0.0764729 -0.004734189 -0.0484456 0.2157245 -0.06843873 0.01056769 -0.026466006 0.07781912 0.06374465 0.008682132 -0.12187033 -0.09341837 -0.0314544 0.06800512 -0.09260367 -0.11360632 0.086880244 0.001546626 0.007956686 -0.079418704 0.18038101 -0.001255178 0.021022318 -0.1951974 -0.012974889 0.07062636 0.011653621 0.01528638 -0.048746094 0.0059928102 -0.060320493 -0.08356632 0.02667666 -0.2089789 -0.09443273 0.09270879
167 -0.25982004 -0.13187309 0.18500398 -0.004947042 0.050854046 -0.0829971 0.07161638 -0.075902164 0.0810583 0.15578863 0.30211282 -0.1684944 0.029363394 -0.0566941 0.19081724 -0.0062489063 -0.17279601 0.13278022 -0.0880529 0.049690686 -0.024861166 -0.18188415 0.13781357 -0.0941034 -0.011725558 0.017574891 0.07482749 0.08416958 -0.12087398 -0.03563137 -0.101916105 0.06053539 -0.10093492 0.15228613 0.09617579 0.010929009 0.02434418 -0.09464759 0.11667986 0.080473796 0.01461136 0.038088858 0.23991197 -0.13821091 -0.21494631 0.04090586 -0.023688007 -0.09098974 -0.2350442 -0.055004843 0.023238007 -0.12424817 -0.10503664 -0.13575695 0.09752364 -0.011288434 0.065068305 0.10627858 -0.018598808 0.21329811 0.101870716 0.012711688 -0.1555341 -0.036474686 0.1321755 -0.014117962 0.18510762 -0.2538452 0.15352072 -0.045792565 -0.0005630247 -0.0129062 0.09756934 -0.10408741 0.015797688 -0.09236485 0.012375095 -0.027545119 0.07575542 -0.040642727 0.13880791 -0.041315675 -0.21672884 0.08024355 0.17742957 -0.21335107 0.03499315 0.07825353 -0.003731675 -0.03200439 0.020224756 -0.047244538 0.19303484 -0.03164376 -0.009874973 0.24048126 -0.07175362 0.05529884 0.052185453 0.17018205 0.1342888 0.039984014 -0.044070136 0.009108211 0.01799604 0.0050012553 0.05427124 -0.24440125 0.11903971 0.19120382 0.15430942 -0.12648816 0.16042396 -0.15947472 0.0105082765 0.15202908 -0.036691736 0.12322 -0.110571735 0.08372042 -0.0061945436 0.05191104 -0.011385926 -0.00076027424 -0.011920514 -0.20674644 0.012204775 0.08455889
38 -0.033329412 -0.044789575 0.04303277 -0.06372064 -0.037597965 -0.03466001 0.09349569 -0.085733145 0.04021377 0.015899383 0.21556213 -0.12998484 -0.07425257 -0.14001848 -0.005308736 0.06433349 -0.025032585 -0.06088892 0.051825818 0.06863 -0.1908878 -0.152554 0.09531583 -0.11563484 -0.018474601 0.053287067 0.06924883 -0.10193812 -0.010910689 -0.1819195 -0.08700242 0.0027678811 -0.017639708 0.019492667 -0.005446999 -0.14669362 0.1963714 -0.11030854 0.045555513 0.17721939 0.07443851 0.08001535 0.18408826 0.025652848 -0.03381106 0.02119399 -0.041995525 -0.04408 -0.15343231 -0.08236049 0.056775954 -0.072449476 -0.10901562 -0.13066943 0.047536835 -0.024529688 -0.030689053 0.089750744 0.030200675 -0.05126822 -0.055917952 0.018982016 -0.22771762 -0.13105962 0.14840604 0.16289027 0.0727559 -0.024520112 0.029457489 0.09290862 -0.012669752 0.066095516 0.20527087 -0.18241799 0.06337513 -0.096842386 0.0644844 -0.039424673 -0.0043509854 -0.06934081 0.123297 0.0054337624 -0.18648507 0.06371033 0.067796975 -0.08746295 0.04111277 0.12058351 0.058767263 -0.085767455 -0.047030434 -0.0091972295 0.117057584 0.018940484 -0.051688988 0.13923635 0.0025041183 0.05987999 0.062039442 0.06790474 0.115413606 0.023477396 -0.16220295 -0.057701666 0.020089088 0.013624387 -0.062420484 -0.20862964 0.0606341 0.036821738 0.042007152 -0.12888634 0.0774035 -0.049779676 0.036611784 -0.13943277 -0.13735318 0.07557204 0.005897941 0.060103934 0.0024051284 0.03247336 -0.01584783 -0.14673333 0.000654045 -0.086728126 -0.08694219 0.121446975
493 -0.05271011 -0.13836862 0.03877523 -0.056345735 0.04917004 -0.0013585327 0.07370721 -0.02949895 0.06877337 0.015973736 0.18569565 -0.06669085 -0.13009915 -0.21299729 -0.10829217 0.08804951 -0.027779315 0.04933152 0.059371974 0.14078036 -0.07201176 -0.089304596 0.007345284 -0.17994674 -0.047694314 -0.017984014 0.1089999 -0.14355879 -0.10110166 -0.11070606 -0.24461773 0.055968907 -0.030095097 0.066350535 0.036686033 -0.062128294 0.07664688 -0.009014063 0.111682504 0.1623499 0.105665565 0.040899348 0.23973146 -0.06043694 -0.004369126 0.091530204 -0.0952527 -0.027673734 -0.12112653 -0.026179459 0.043686375 -0.021338131 -0.05800681 -0.021447564 0.08426738 0.034145378 -0.065739386 0.1134587 -0.07803226 -0.04220991 -0.00047727692 -0.0014874053 -0.17986535 -0.11254725 0.07671537 0.15175128 0.053946998 -0.07514821 -0.036019288 0.2038019 0.019862453 -0.052051872 0.20549496 -0.14149201 0.16504745 -0.03538465 0.09160892 -0.023854852 -0.0030613681 -0.09802707 0.18586728 -0.05727856 -0.22475077 -0.031235931 0.0063054343 -0.109147064 0.084439866 0.10107588 -0.002123616 -0.004512931 0.011752362 -0.10119181 0.02359708 0.037303787 -0.0753266 0.13647075 0.03942478 0.02659773 -0.045322 0.08716854 0.110729955 0.078544185 -0.16603005 -0.13746792 -0.004034416 -0.0092002135 -0.08500597 -0.22911768 0.049744993 0.07074249 0.060361587 -0.05281224 0.10379481 -0.08592439 0.06774885 -0.19360854 0.013481083 0.05285559 -0.08526492 -0.0012453557 -0.046646673 0.07484188 0.03381083 -0.011942525 0.006218179 -0.112313926 -0.09158987 0.13199946
477 -0.13128608 -0.3001317 0.03511821 -0.007868528 -0.07577825 -0.23749499 0.06309775 -0.036685985 0.24117902 -0.14330518 0.24553955 0.12541503 -0.020905994 -0.0028902984 -0.117796816 0.011623417 -0.1782228 0.16341281 -0.1965301 0.012866485 -0.13176596 -0.02895101 -0.08505253 0.14664805 -0.11933797 0.04269242 -0.1402366 -0.30999818 0.036059804 -0.14019261 0.043434594 0.0134458 0.099088006 -0.3479629 -0.15056646 -0.0382041 0.09620942 -0.07319302 0.15693302 0.13667305 0.3282329 -0.026145965 0.30412245 0.031445343 0.04314215 -0.08789125 -0.38756672 -0.121226914 -0.031607058 -0.29969472 0.16472657 -0.024195887 -0.22751975 0.0085258335 -0.16331288 0.15124552 0.13749066 -0.09932293 0.013131061 0.00866102 -0.09425294 0.39946884 -0.2911159 -0.013739759 -0.07918996 -0.19078897 -0.07489288 -0.035319746 0.5121043 -0.17956813 -0.12845746 0.16612934 0.18580832 0.10086792 -0.20502768 -0.07761586 0.113623984 -0.15274581 -0.062157877 0.0047573117 -0.1091157 0.07729243 0.040845186 -0.2499092 -0.17078556 -0.22180632 0.13654159 0.12691566 0.33936378 0.09110111 0.05738561 -0.2519151 -0.009846419 -0.28957537 -0.33344528 0.011146027 -0.078729935 0.27323225 -0.02658023 0.11527082 0.12567507 0.08113716 0.13478008 -0.3760507 0.07909946 0.08534949 -0.30807102 -0.14453128 0.23629396 0.06486925 -0.083672956 0.046555433 0.14599155 -0.08124258 0.06494872 -0.17495283 0.21243992 0.15445471 -0.04044624 -0.03581311 0.11686777 -0.28727913 0.149034 -0.028445298 -0.19808044 -0.014009728 -0.047260724 0.27927983
393 0.040715877 0.028580807 -0.023814742 0.0432805 -0.09058956 0.021165188 0.14916241 -0.014994975 -0.078378394 0.074845284 0.29834145 0.03313094 -0.12646069 -0.11158805 -0.053082213 0.094787285 -0.10197332 0.06354838 -0.02503272 -0.028855989 -0.23232585 -0.13989845 -0.017326977 0.08400185 0.121891424 0.06137109 -0.15503722 -0.09648986 -0.16437857 -0.20715427 -0.15714517 -0.0280022 0.0692523 -0.031003138 0.07808378 -0.13033545 0.052509695 -0.18578143 -0.033702776 0.08127524 0.1253265 0.091125384 0.16065851 -0.04611721 -0.25726554 0.020948837 -0.053016923 0.06969659 -0.07944935 -0.12930468 -0.117183805 -0.18706475 -0.010053264 -0.2083906 -0.05417487 -0.05130596 0.01124815 0.13733158 -0.020172883 -0.024153562 -0.01428642 -0.035067543 -0.27120948 0.02407585 0.10342311 0.03569183 0.1304519 -0.09951056 0.12087175 0.12615924 0.016101915 0.0016055991 0.12809704 -0.11831957 0.04590099 -0.17838427 0.110079505 0.061676107 0.18030368 -0.008799064 0.15833487 -0.113596186 -0.30699015 0.014317513 0.07167573 -0.11097466 -0.04299287 0.14400038 0.043991823 -0.07310478 0.082944416 -0.10099996 -0.035186864 0.03700534 -0.052248113 0.2597267 -0.00686926 0.059622183 -0.0356797 0.060046602 0.07235975 -0.031270422 0.009642298 -0.20107728 0.013143275 0.117671095 -0.025080577 -0.1534029 0.1318851 -0.016324768 -0.0076068128 -0.091870144 0.21455914 -0.12185319 0.08831318 -0.24753688 0.01167026 0.06362317 0.01225157 -0.054494333 -0.012875871 0.0047483123 -0.04701087 0.09513871 0.00024672414 -0.110150054 0.042860575 0.16313948
262 -0.02178483 -0.114782296 0.07804396 -0.033663042 0.0123306345 0.07755727 0.118243136 -0.13377014 -0.027307384 0.10995925 0.19841488 -0.12739325 -0.0499051 -0.19676584 0.0163888 0.047374204 -0.11962031 0.03910255 -0.031837747 0.1424748 -0.12285531 -0.16296038 -0.01634701 -0.02341802 -0.10429186 -0.0025204313 0.072560094 -0.089471094 0.059919443 -0.09583684 -0.121212654 0.03189205 -0.018875128 0.019161394 0.09312093 -0.07798734 0.094888836 -0.0035229856 0.047518447 0.10083456 0.15394922 0.08417654 0.18914331 0.09538265 -0.040577095 0.016273951 -0.053302243 -0.028569737 -0.15403534 0.03464891 -0.048060764 -0.11478933 0.002486548 -0.14994836 0.043017004 -0.08363446 -0.03753593 0.15042195 -0.065729395 0.06703643 -0.066198625 -0.04472757 -0.11494597 -0.12542693 0.11208906 0.174378 0.09687144 -0.0952854 0.077319086 0.18803985 -0.01919837 0.10272607 0.031292666 -0.15705791 0.045362294 -0.11836805 0.07170548 -0.06272327 -0.057429317 0.034265716 0.17694895 -0.15070528 -0.11307536 0.06546385 0.1408082 -0.09101984 -0.1084875 0.06804585 0.08420298 -0.03669194 0.039825086 -0.097156025 0.0773668 0.058420658 0.009430423 0.2921587 -0.07998491 0.056981556 -0.012355159 0.12126248 0.01452074 0.13081641 -0.24006103 -0.01003494 0.025945652 0.0637678 -0.04948053 -0.23985696 0.03650578 -0.0020552236 0.07011882 -0.026296856 0.14117956 -0.082016475 0.13540703 -0.204649 -0.08856466 0.07866028 -0.010029355 0.104652315 -0.052451998 0.020341774 -0.10689678 -0.08770613 -0.022589488 -0.086024724 -0.13297734 0.13668035
169 -0.1572898 -0.14593631 0.007956076 -0.07339133 0.03893791 -0.01657112 0.17465907 -0.07073975 -0.024548482 0.05123033 0.2642666 -0.119471826 -0.034613535 -0.20176429 0.0017191011 0.11319473 -0.08122555 -0.06377544 0.0121526625 0.07355481 -0.17553025 -0.10271838 -0.039206583 -0.11326431 -0.024109755 0.0276054 -0.014370468 -0.11445139 0.03372099 -0.13833381 -0.024665479 0.00023512029 -0.03994554 0.04652995 -0.08238066 -0.10832785 0.0831 0.10223555 0.059877466 0.20626359 0.0138541795 0.0748689 0.15433726 -0.07473739 -0.027667351 0.049290124 -0.017421966 -0.056308374 -0.114557445 -0.07501692 -0.012366615 -0.12695368 0.017800007 -0.16400033 0.033547375 -0.050508168 0.06879134 0.15634936 -0.022314116 -0.022449449 -0.0542047 0.026270142 -0.17024961 0.012707344 0.18687648 0.059743434 -0.06252625 -0.0964677 0.07273329 0.029778857 -0.035422824 -0.024807222 0.15007702 -0.15251166 0.03882148 -0.0838443 0.0830734 0.017400939 -0.07432921 -0.086379915 0.052685495 -0.08041494 -0.114156164 -0.051489882 0.085799284 -0.18778753 0.018963307 0.02462662 -0.035303526 0.015341375 0.044702347 0.0076376824 0.15282246 0.0021023094 -0.023193708 0.2338208 -0.070879735 -0.06721226 0.018529156 0.07605394 0.13428244 -0.008548211 -0.17389353 -0.10085631 0.015541346 0.04500528 -0.17409365 -0.26407754 -0.03399283 0.06229465 0.046150956 -0.025938997 0.14799172 0.019285616 0.04185936 -0.21901721 0.007690441 0.11567245 -0.017095027 0.015489665 0.0054871356 -0.024805846 0.05936406 0.030658707 -0.06807051 -0.16297846 -0.044128 0.117197484
427 -0.114616595 -0.11454899 0.010368344 -0.09049357 0.04470712 0.04991664 0.08199172 -0.08472016 0.06715179 -0.0467639 0.2589274 0.038430817 -0.036394123 -0.21950796 -0.02964788 -0.008879958 -0.0069670184 0.06474108 0.08359766 0.09152208 -0.09477692 -0.12550184 -0.00692816 -0.13426965 0.033237394 0.08550187 0.08169489 -0.15792467 -0.14041877 -0.2545276 -0.09257856 -0.023526382 -0.1559502 -0.009377655 -0.022335554 -0.15798025 0.122471526 -0.05108931 0.009893725 0.19023922 0.093962155 0.056322034 0.14078453 -0.017459488 0.04987682 -0.018638676 -0.14305468 -0.049106877 -0.12511443 -0.033449788 -0.024058582 -0.11070749 -0.081159264 -0.09560857 0.03449024 -0.021112854 0.038947716 0.01483915 -0.10966078 0.032997563 -0.0435743 0.078507714 -0.07863481 -0.15896721 0.108709455 0.11306114 0.044648558 -0.057767477 0.031632457 0.15397105 -0.08817447 0.08914005 0.10160224 -0.15887856 0.034255236 -0.081925705 0.1911084 -0.04643544 -0.0015494514 0.008935131 0.15561214 -0.028749185 -0.26799586 0.0036074265 0.07472907 -0.078366704 0.07933248 0.1002372 0.057297766 0.13001722 0.0557861 -0.108196616 0.14599422 0.06343612 -0.06640583 0.17767839 -0.013312391 -0.106497124 0.013335169 0.091716565 0.068642996 0.09864663 -0.11415291 0.022959836 -0.021989642 0.021654712 -0.061878785 -0.10228353 0.07744721 0.11927756 -0.0013320649 0.040737327 0.047370695 -0.011991724 0.035568405 -0.20947236 0.044446275 0.10253686 0.028759966 -0.06961817 0.063867904 0.017630076 0.0011494008 -0.047895975 -0.08146335 -0.15855905 -0.07056874 0.1754631
83 0.046470664 -0.04711493 -0.03626788 -0.14443754 0.026724715 -0.009771597 0.025071437 -0.16554208 0.04791196 0.049259476 -0.0010327075 -0.00181174 -0.18275158 -0.037276547 -0.010030324 0.23455906 -0.12007119 0.022675117 -0.11255389 0.12034577 -0.12543389 0.026403515 0.04764208 -0.111263126 -0.07016422 -0.06149142 0.08880193 -0.16949604 0.06582 -0.25784677 -0.09149825 -0.0026683775 -0.073915094 0.07785314 -0.091854446 -0.13751125 0.083999634 -0.046683945 0.17015852 0.27829975 0.16368103 0.20839566 0.07924465 0.11613716 -0.0058366684 0.009504481 -0.07666972 0.010770154 -0.0011767906 -0.035197154 -0.0312871 -0.065971605 0.11791404 -0.08119639 -0.029698862 0.07486031 -0.22428076 0.1486664 -0.04146151 0.093356945 -0.05565818 0.09879225 -0.0023775971 -0.12271075 0.16905257 0.16718355 -0.04515906 -0.08445148 0.065731466 0.14179255 0.090664 -0.030304912 0.10095806 -0.24387068 0.007263898 -0.0948457 -0.0067558447 -0.065278836 0.12111321 -0.2769112 0.19405447 -0.011453071 -0.17417671 0.0950167 0.053454284 -0.16529787 -0.07651047 0.14263698 -0.0030110069 -0.10883389 -0.024678309 -0.12808932 0.056625 -0.0652121 -0.03538195 0.38296843 -0.06434577 0.018259957 0.013320086 0.09008116 0.022638174 -0.02665833 -0.05727546 -0.17515917 -0.0728793 0.105351694 0.06555303 -0.34400025 0.10381813 0.028299743 -0.049806327 -0.0077251135 0.10396856 -0.0580386 0.11332058 -0.17906804 -0.020270346 0.25230807 0.08845334 -0.048636418 -0.016561897 0.10018698 0.06024611 0.043178838 -0.0055080275 -0.12653227 0.061964717 0.10446377
209 0.027288947 -0.17329906 0.10556866 0.09288398 -0.09433943 -0.11074182 -0.05010149 0.06103411 0.028267436 0.04364888 0.16171935 -0.031458054 0.06958787 -0.10167955 -0.06314554 0.041018914 -0.11408021 0.17031728 -0.00481294 -0.0150445085 -0.017007079 -0.15949884 0.04547493 0.0975365 -0.15536527 0.2062362 -0.028411152 -0.123003066 -0.012432284 -0.16482034 -0.1008567 -0.021628344 -0.1564223 0.0044334154 0.06487003 0.03460332 -0.020151915 -0.14694639 0.10651092 0.17132331 0.14315483 0.08770166 0.21222809 -0.10379252 -0.10236901 -0.19591276 -0.2028312 0.13499367 -0.08739642 -0.11975113 0.010287996 -0.1626821 -0.010382444 -0.21433263 0.064120814 0.08760672 0.056524232 0.15508628 0.040116906 0.016755115 -0.19730176 0.054387357 -0.11217318 -0.06969193 0.0763659 0.08636823 0.16892491 -0.20136726 -0.0434026 -0.13900848 -0.01741784 -0.020984894 0.17286439 -0.09971038 0.058637213 -0.09073708 -0.09239006 -0.004039843 0.16647701 -0.009751519 0.08139515 -0.19164836 -0.2467256 -0.0883923 0.009695278 -0.12020589 0.011854108 0.06333362 -0.04787831 -0.059149984 -0.005441795 0.029938292 -0.08472034 0.042408198 -0.2593341 0.278005 0.0071831257 0.04874704 0.07007345 0.06659547 0.113644734 0.13177441 -0.14133652 -0.21215583 0.02611923 0.11952355 -0.06678903 -0.053534523 0.083061114 0.0124555295 0.061664104 -0.1237996 0.08893854 -0.061576422 0.15237191 -0.15568385 0.02749178 0.04981346 0.04795291 -0.06620044 0.0091220215 0.010502765 0.015643703 -0.17367344 0.067817174 -0.2164698 -0.30188754 0.09395136
114 0.015197554 -0.045687936 0.11869325 0.013931472 -0.02271957 0.03310228 0.16403902 -0.05896103 0.02012431 0.107343264 0.2526796 -0.0934195 -0.09521474 -0.19840547 -0.001221069 0.022736086 -0.15995023 -0.015717732 0.05502022 0.055805262 -0.026568757 -0.054935414 -0.039251804 -0.069680445 0.019923596 0.06909846 0.063062035 -0.2299255 0.057648383 -0.24106275 -0.062566735 0.07908851 -0.02497603 0.06735317 0.09205278 -0.15376258 0.00940253 0.022046916 0.15671524 0.17773168 0.009358602 0.054432448 0.12611417 0.025761519 0.019130256 0.033295505 -0.09363934 -0.00088962127 -0.10641719 -0.038142547 -0.08212753 -0.09738954 -0.033529527 -0.07490266 -0.060442887 -0.14794974 0.061011516 0.10062036 -0.05108192 -0.003796403 -0.07525898 0.07411563 -0.19797413 -0.04174502 0.19858149 0.1688559 -0.008523573 -0.020313129 0.11040847 0.1688668 -0.00998755 0.10294988 0.06470496 -0.1352315 -0.006713276 -0.064515054 0.13032816 -0.07281027 0.052400623 -0.0038406968 0.09204663 -0.08350336 -0.20396955 0.062177572 0.10527437 -0.19144987 0.05194285 0.09848628 0.051939454 0.051221706 0.06835498 -0.005690539 0.07302081 -0.02399112 -0.019353062 0.33058053 0.02291614 -0.11552207 -0.026642201 0.13476098 0.034702085 -0.000113326976 -0.10886737 -0.14474325 -0.0018069687 0.10112759 -0.028350502 -0.19380385 -0.006561548 0.0038640809 0.011830921 -0.07382601 0.09292104 -0.117112145 -0.016299082 -0.16971971 -0.005595474 0.08454559 -0.10200356 0.088108234 -0.035970103 0.0427172 -0.050458923 -0.04046502 -0.020517563 -0.14586538 0.055347897 0.1052857
251 -0.051517855 -0.19649811 0.008071837 0.038169816 0.055991493 0.0056999284 0.12081852 -0.06231624 -0.03470264 0.100045405 0.19845212 -0.057612803 -0.028719796 -0.10821652 -0.0020425483 0.0065566734 -0.06572032 -0.003485282 -0.021719413 0.12741165 -0.2122313 -0.18285348 -0.030147023 -0.10951159 0.03136524 0.075531736 0.020876555 -0.124991864 -0.04782347 -0.16088124 -0.15280446 -0.016067972 -0.12278407 0.041374482 0.047822643 -0.09465209 0.100035235 0.029377457 0.10146578 0.2439592 0.04481072 0.06575628 0.21724848 -0.04162964 -0.019159842 0.04087607 -0.081464484 -0.10211338 -0.14622578 -0.08434824 -0.028818376 -0.08479506 -0.046122387 -0.024133746 0.036929976 -0.03203037 -0.0035099876 0.06693915 0.014571407 0.039596118 -0.07968454 0.08269644 -0.118631884 -0.10283231 0.107902244 0.15002644 -0.032131087 -0.077961616 0.004059282 0.15921976 0.0749633 0.057007212 0.09056433 -0.106421456 0.124799766 -0.008192965 0.13330291 0.042214885 -0.063519895 -0.026813226 0.18797123 -0.12582414 -0.16281451 0.06432992 0.11323035 -0.24262396 0.0058747707 0.075844206 -0.0011454873 -0.057544954 -0.0403448 -0.003357958 0.13320842 -0.06899698 -0.03369234 0.1606228 0.011170381 -0.0022695365 -0.037367355 0.060926028 -0.0030864184 0.092408836 -0.17473125 -0.17501877 0.006452437 0.053775266 -0.08315176 -0.24653833 0.027062088 0.06754293 0.03370206 -0.0766253 0.16260688 0.019926779 0.09748128 -0.15006998 0.035727076 0.066095136 -0.026231304 -0.09857344 0.06797911 0.039213084 0.001361133 -0.062339284 0.051010165 -0.18736461 0.013460069 0.12021872
183 0.09448958 -0.017574495 0.05117849 -0.25123313 -0.1500884 0.08060106 -0.082548454 -0.020897133 0.22695954 -0.043263093 0.33010623 -0.18540935 -0.19852217 -0.20328408 -0.15792835 0.11015785 0.027133886 -0.060987543 -0.0001611136 0.050723534 -0.06106218 0.004912695 -0.0995019 -0.12422357 0.013444259 -0.05990006 -0.015093685 -0.21785726 -0.20034264 -0.1833492 -0.104144536 0.028616564 -0.1695224 0.12165072 0.1767757 -0.042301845 -0.0042474438 0.03269023 0.17899771 0.1978676 0.13071252 -0.0020937033 0.29355013 0.25479302 -0.08981103 0.10949559 0.13484176 -0.16138408 -0.086218834 -0.19452989 0.089434795 0.00031245136 0.05849306 0.04512279 0.092294514 -0.044338666 0.08084535 0.25819367 -0.045370933 0.059208017 0.092891514 0.052249275 -0.013215335 -0.002753251 0.20521739 0.029435955 0.25475824 0.018309418 -0.19226551 0.08834958 -0.21266872 -0.05230543 0.084414564 -0.09014995 0.13836499 -0.15283982 -0.031822965 -0.105056286 0.037451655 0.08754646 0.100366876 -0.061989542 -0.28567463 0.07973631 -0.07920065 0.0023485248 0.024509871 -0.07944892 -0.037607346 -0.028757477 0.073973946 0.11054406 0.22119793 -0.03169184 -0.09966098 0.23638706 0.038483147 -0.04044377 -0.027758045 0.04407943 0.22508909 0.055831067 -0.11951747 -0.061333776 -0.044294428 -0.021443136 -0.0675059 -0.21220627 0.11607743 0.04670014 0.06112889 -0.15230356 0.17307097 0.06580279 0.02887361 -0.04320667 -0.16277318 0.29217246 -0.13442545 -0.077680886 0.078509845 0.049564537 -0.014648153 0.042217102 -0.082661994 -0.07294768 -0.033908047 0.13284066
16 -0.11645349 -0.22191465 -0.029020607 -0.06460827 0.074776225 0.014026968 0.10194114 -0.08684525 0.13653602 0.0029043853 0.2126808 -0.07144426 -0.025427664 -0.084702775 0.004647733 0.0040936405 -0.013584062 0.028737947 -0.022414174 0.13453147 -0.093102336 -0.08523635 -0.031252455 -0.033785827 0.043186013 0.10370396 0.13799025 -0.14684963 -0.121952295 -0.2292827 -0.13903806 0.0020708644 -0.13676217 -0.0038425985 0.050709005 -0.1300093 0.14581375 0.03636878 0.09749735 0.18367064 0.05391575 0.070676535 0.18703409 0.0101639945 -0.17810237 -0.11615037 -0.0914628 0.0026514684 -0.1283679 -0.028210822 -0.0019816197 -0.033229735 0.016103754 -0.05091448 0.08846174 -0.040572546 0.05975488 0.12509449 -0.08449187 0.085124485 0.0021455623 0.08308716 -0.20786227 -0.13015221 0.025761621 0.12828536 -0.025110768 -0.12691788 0.015410537 0.13935961 0.012347702 0.042342454 0.15710264 -0.10739235 0.09487973 -0.013105723 0.12520154 0.02123083 0.01847146 -0.08632685 0.102616794 -0.1001164 -0.14087428 -0.014669369 0.091959246 -0.13753225 -0.0052733608 0.13835862 0.03437685 -0.018773654 0.044586387 -0.053283256 0.010975554 -0.06443515 -0.0033793559 0.21651466 -0.022104807 0.053408764 -0.057977702 0.1101608 0.040865015 -0.07436244 -0.11678263 -0.046759374 -0.018577466 0.14591613 -0.12462307 -0.20770282 0.08518965 0.03158402 0.08377543 -0.028061325 0.13004553 -0.103458315 0.15976867 -0.16393577 -0.06883621 0.11728886 0.05926458 -0.074816234 0.021992732 0.061295606 -0.14612073 -0.03499301 0.050991643 -0.16238183 -0.06739115 0.14146169
294 0.015285348 -0.14438835 -0.09664446 -0.0033434443 -0.009256426 -0.0026944673 0.055526618 -0.065504424 0.023151193 0.0061257556 0.13632776 -0.2207795 -0.025369918 -0.1865985 -0.014627895 0.0825879 -0.026224602 0.027955389 0.09923991 0.11406385 -0.18597665 -0.060578436 0.013578405 -0.034652587 -0.015820423 0.14722116 0.07409733 -0.26863587 -0.103676155 -0.12992477 -0.08668709 0.08480017 0.037127126 0.076105155 0.004708924 -0.2738017 0.30297983 -0.06941573 0.079346366 0.14091279 0.17775069 0.030044276 0.12221578 -0.052564863 -0.120923914 -0.064985074 -0.07005125 -0.015237964 -0.0017014601 -0.0379663 -0.011165771 0.09237269 -0.024424516 -0.069357574 0.036167562 0.056505807 -0.007481483 0.13157593 -0.10053313 0.024395218 -0.0064563286 -0.021360511 -0.21463792 -0.15743771 0.16007146 -0.051922966 -0.15815909 -0.06983493 -0.08106665 0.16113861 0.11134958 0.109529324 0.166955 -0.19664097 0.088718005 0.009807516 0.16804358 -0.0076206666 0.032822225 -0.055287257 0.2553201 -0.12387124 -0.13464123 0.0066113803 -0.07267112 -0.11497458 0.076504745 0.15326905 0.086537994 0.1165171 -0.00057014043 -0.01500759 0.053692613 0.036485028 -0.08745314 0.108863726 0.059543923 0.07637073 0.10670833 0.16073169 -0.041706968 0.024111763 -0.044090692 -0.1183644 0.040550783 0.059620164 -0.07467715 -0.23325303 -0.021884292 0.11945398 0.0022577296 0.054728504 0.001672708 -0.042549945 0.08717636 -0.14041035 -0.0037050536 0.15505216 -0.09309213 -0.05328821 0.067490615 -0.02217432 -0.03287732 -0.13150829 -0.12605263 -0.18113579 -0.06786192 0.13344534
231 -0.07447358 -0.09537717 0.010454921 -0.059895672 -0.026251094 -0.0119251935 0.12738465 -0.14853448 0.06295817 0.06071599 0.14903541 -0.03311173 0.06656714 -0.1294735 0.0055369157 0.056654107 -0.099970005 -0.06607462 0.04687693 0.14877957 -0.12038874 -0.13057841 -0.025764365 -0.136841 0.0029018142 0.13947698 0.057555445 -0.14763013 -0.04641811 -0.24703594 -0.09512123 -0.06450243 -0.062362507 0.04547928 0.080392756 -0.19277628 0.016267663 -0.0020864957 0.064642556 0.19983548 0.02983812 0.05885412 0.16847493 -0.036044013 -0.06133418 0.03645483 -0.03942457 0.019564414 -0.15042412 0.00027275132 0.03922096 -0.058274023 0.036946066 -0.12164446 0.065923065 -0.023746544 0.044455115 0.12743168 -0.08841768 0.07146578 -0.092634395 0.050077673 -0.14591831 -0.03100258 0.034290276 0.04534134 0.12329303 -0.06589921 0.0392322 0.1479107 -0.01966558 0.12136488 0.11329275 -0.11533308 0.120209426 -0.054917768 0.053655397 -0.06899888 0.06768922 -0.02379408 0.23695503 -0.10258713 -0.24727343 0.008809846 0.05396064 -0.11379373 -0.017841749 0.12290293 0.030346256 -0.048016958 0.018659305 -0.0743085 0.15571624 0.087344356 -0.013924659 0.15177147 -0.02758511 0.04651738 0.04792892 0.17840376 0.108041495 0.1263718 -0.14978532 -0.13303337 -0.046710283 0.10167854 -0.07560659 -0.19531766 0.09145111 0.11022264 0.037558418 -0.027357077 0.108852774 -0.042236257 0.14139074 -0.13898553 -0.069921955 0.06524845 -0.030909603 -0.040151473 0.003613917 -0.025793007 -0.08534885 -0.011891961 0.05087395 -0.18118294 -0.12907805 0.22088407
53 -0.073919974 -0.10876597 -0.022038361 -0.047607865 -0.066154234 -0.04061019 0.10930649 -0.076343425 0.0783233 0.11826342 0.2760484 -0.04388477 -0.06419333 -0.1438327 -0.07573295 0.11233774 -0.031145977 -0.014218249 0.050039064 0.113505945 -0.19167309 -0.15320337 -0.0033250432 0.018267155 -0.07126953 0.04644786 0.035663467 -0.22464482 0.058354653 -0.20457129 -0.175446 0.0802328 -0.06706388 0.005057777 -0.012288371 -0.09824575 0.03441255 -0.044029772 0.06520011 0.12761578 -0.060806107 0.08337653 0.121206306 0.074769616 -0.0041958345 0.0883886 -0.06788366 -0.0019200039 -0.20940405 -0.008767975 0.06608759 -0.10906001 0.0031211488 -0.17948364 0.07683444 0.02463041 -0.014090017 0.10646729 0.01407611 -0.025797054 -0.06532491 0.015475074 -0.16647807 -0.11241988 -0.017916024 0.11254582 0.15018448 0.006492323 -0.012439685 0.17478776 0.033353973 0.049855098 0.14702964 -0.26247323 0.09051022 -0.07428273 0.0761716 -0.011788234 0.04184055 -0.07883945 0.12897108 -0.13475007 -0.12489368 -0.08034815 0.13586989 -0.07468725 -0.031044435 0.054696668 0.00039389488 -0.020471532 0.0151012195 -0.08741153 0.0825271 -0.13759577 -0.05590946 0.30094364 0.049250565 -0.01953482 0.030965187 0.13788001 0.059858434 0.09691056 -0.06460052 -0.13749911 0.0056512635 0.105047196 -0.07965677 -0.1443683 0.100734085 0.093191124 0.043925043 -0.03717103 0.15552476 -0.17967579 0.05249269 -0.21627696 -0.06348997 0.13515276 -0.03481835 -0.042719234 -0.1081142 0.025736846 -0.057392336 -0.033960205 0.0423939 -0.15315187 -0.05974406 0.14724094
469 -0.00016259504 -0.071635164 0.05267618 -0.091585554 -0.080189325 0.020476185 0.07155633 -0.16848493 0.06451958 0.03607252 0.23094591 -0.04075507 -0.12801729 -0.15131499 -0.0146853505 0.042699512 -0.17703652 -0.04854794 -0.018814664 0.08895969 -0.15291002 -0.104416825 -0.0015775332 -0.05018193 0.035330143 0.12711337 0.003920296 -0.17359377 -0.048122652 -0.13729382 -0.051358256 0.025027046 -0.099689946 0.044111554 0.13274637 -0.1929581 0.19053285 0.095227 0.06845256 0.11763756 0.017227363 0.020622177 0.15897445 0.026790868 -0.007684654 -0.027455105 -0.00865501 -0.0743048 -0.108797155 -0.0027061917 0.02731197 -0.12315235 -0.15173303 -0.058971275 0.07754541 -0.05727053 0.054594416 0.027908212 -0.024370989 0.04843604 -0.079368345 0.11531662 -0.28089306 -0.17972064 0.04885272 0.16792105 -0.002203722 -0.08568168 -0.00017578561 0.1524409 -0.02558344 0.10270758 0.21395233 -0.034657944 -0.0019186082 -0.084241524 0.08772453 0.015790792 0.034478534 0.023973238 0.19359496 -0.1359763 -0.16570204 0.04043723 0.036903195 -0.18819807 0.11885503 0.012228143 0.065661356 -0.0171049 0.06749539 0.045553785 0.074686304 -0.079313144 -0.03696179 0.24826963 0.017409338 -0.015823554 -0.009096968 0.12056763 0.12414509 0.066093996 -0.024400271 -0.01570324 0.01784233 0.06513855 -0.09535539 -0.12748905 0.07573309 0.038758826 0.0960764 -0.14512102 0.11187967 -0.07739189 0.022179939 -0.19163516 -0.11971777 0.084730804 -0.05097694 -0.035078768 -0.0035304828 0.04152013 0.04714033 -0.07891656 0.062280606 -0.14715376 -0.049461618 0.1568832
56 -0.04012959 -0.0637836 -0.0051316135 -0.042193092 -0.05386248 -0.13497147 0.100928865 -0.08035122 -0.05226767 0.1529505 0.28422686 -0.06418649 -0.026548231 -0.14001094 -0.022280665 0.1534843 -0.029901318 0.014958958 0.03391081 0.030840838 -0.09503197 -0.11595637 -0.06939311 -0.14068171 0.035698008 0.09662459 0.07688373 0.011999006 -0.05987384 -0.23394601 -0.073833175 -0.054796763 0.1264255 0.12846646 0.051704716 -0.15959221 0.05561564 -0.03836653 0.09421157 0.1856345 0.07811523 0.125902 0.1066338 -0.018380089 0.020340951 -0.007920238 -0.09479146 0.09148389 -0.02862693 -0.07755508 -0.08192486 -0.21770136 0.09835008 -0.07086957 -0.02620059 0.07038621 0.07749452 0.029481502 -0.054552574 -0.13438432 0.05550329 -0.09354185 -0.072356924 -0.060835864 0.06705363 0.027226033 0.008973438 0.026107589 -0.038340874 0.2157762 -0.07988191 -0.015448459 0.14408597 -0.12193719 -0.056159936 -0.087133124 0.19225416 0.07904423 -0.013612371 -0.063642845 0.24842165 -0.11505834 -0.14974682 0.015993344 0.016932424 -0.04727211 0.10872717 0.035461806 -0.050150767 -0.04699932 0.02361626 -0.00080013403 -0.15276034 0.13570659 -0.03149438 0.20514795 0.07878657 -0.05145294 0.11474985 0.08723199 0.1614465 0.0023761815 -0.12619457 0.026743088 -0.01927837 0.11145384 -0.06464049 -0.28837612 0.08093922 0.00686566 0.19210634 -0.019318363 0.20238316 -0.19546205 0.24967873 -0.20627946 0.004229454 0.1096489 -0.025825374 -0.054275777 0.08593165 0.041577544 -0.039894532 0.040149152 -0.011490844 -0.14018033 -0.03873127 0.07295019
91 -0.1514654 -0.093938276 0.07696201 -0.09290838 -0.045339525 -0.1384594 0.1390057 -0.18446548 0.038292844 0.0539966 0.35351956 -0.057288136 -0.12089052 -0.1552675 -0.083124585 -0.033727176 -0.12725161 0.03656092 0.067293994 0.049865372 -0.100767456 -0.18441689 -0.058568045 -0.095225625 -0.09585662 0.11141567 0.028127456 -0.084614985 -0.1945344 -0.2026364 -0.04528615 0.037699293 0.029764138 -0.027751882 0.11472072 -0.097504385 0.019043362 0.000108805776 0.13080458 0.21571156 -0.037920114 -0.09292969 0.1535147 -0.029445315 -0.031446572 0.044808287 -0.063191615 -0.12855244 -0.12934363 -0.076337926 -0.014723483 -0.09908638 -0.063412614 -0.027668148 0.0008624202 -0.15327156 0.039772764 0.11358054 -0.13763943 0.04333637 0.0014340208 0.10147326 -0.20349903 -0.036058363 0.07534921 0.12327939 0.020146966 -0.10160799 0.057442605 0.18953767 -0.012426817 0.1783801 0.0977634 -0.1063503 0.117166385 -0.057685725 0.09184675 -0.08383215 0.042270534 0.004052465 0.18096216 -0.07899427 -0.20406426 0.056358807 0.06360524 -0.14063993 -0.012527375 0.09165903 -0.059193753 0.003278524 0.04697352 -0.08561463 0.07128866 -0.04412419 0.030785345 0.22991523 0.054444768 0.06367205 -0.048834335 0.03777985 0.0635134 -0.022860667 -0.11398743 -0.19137849 0.059086684 0.068514444 -0.081818484 -0.14321622 0.2257899 -0.008275017 -0.0073032076 -0.10130455 0.09968728 0.016381484 0.029205963 -0.17496198 -0.040380824 -0.0049985354 -0.05831699 -0.0077580865 -0.04930656 -0.025306035 0.06311874 -0.048845697 0.032205727 -0.11507036 -0.08012742 0.1520183
51 -0.025269046 -0.039556608 -0.055284467 -0.062098477 -0.01905579 -0.06254563 0.09865779 -0.026905436 -0.002755296 0.015016578 0.18242854 -0.13044074 0.002687724 -0.2327719 -0.05501351 0.04595309 -0.12391316 -0.010567227 -0.049083624 -0.0027051314 -0.23367532 -0.14773932 0.13172427 -0.06316768 -0.011366203 0.057156175 0.08733195 -0.13448331 -0.06875845 -0.22529669 -0.049048375 0.040556796 -0.046974894 0.04446043 0.038907737 -0.21123439 0.10572026 0.022795044 0.13017789 0.14071123 0.12459449 0.10182005 0.18844022 -0.040152002 -0.06851714 -0.019828755 -0.10748221 0.028514808 -0.12466319 -0.040690515 -0.08962652 -0.036983624 0.023599027 -0.13325427 -0.050893214 -0.057556726 -0.043570977 0.1379072 -0.08534382 0.051042624 0.017180217 0.04571749 -0.18819849 -0.029065425 0.06413672 0.121696256 0.0019106551 -0.00727235 -0.055447914 0.21563853 -0.025390182 -0.0078076418 0.16710117 -0.102739766 0.04646355 -0.03413347 0.08062704 0.028975211 -0.04137947 0.005976648 0.0934726 -0.049668733 -0.25490358 -0.04728088 0.0656785 -0.12214954 0.018270276 0.018422756 0.04070302 -0.035783485 0.04237017 -0.049923223 0.08852562 -0.0064161746 -0.020621711 0.31068215 0.008090326 -0.06250108 -0.08287333 0.06369365 0.09903357 0.06671967 -0.14078055 -0.10005822 -0.01661734 0.11590136 -0.12353528 -0.077365324 0.026441 -0.045218907 0.08807647 -0.03362123 0.19331606 -0.083141565 0.06983074 -0.14259897 -0.060626946 0.13840388 -0.017583335 -0.046246886 -0.08507179 0.04497052 -0.05218735 -0.048290487 0.023281667 -0.19732848 -0.074753165 0.12602374
90 -0.063193165 -0.15906325 -0.007073208 0.0425931 -0.12982199 -0.03379728 0.029304916 -0.0897638 0.028116176 0.038419116 0.26041555 -0.07233606 -0.056210652 -0.24372126 -0.03799003 0.088153675 -0.009820919 -0.05186004 -0.029351577 0.09140802 -0.15602079 -0.06355417 0.019660847 -0.08171563 -0.024579836 0.05745707 0.044564866 -0.2480602 0.05103791 -0.1998709 -0.16325152 0.068756044 -0.09448771 0.004960757 -0.005762418 -0.052422382 0.08335806 0.084941514 0.037367202 0.23867811 0.035281684 0.059033394 0.08715145 0.035101783 -0.0019966539 0.074667275 -0.115066886 -0.076468565 -0.17970215 -0.1084506 0.061744217 -0.060247898 0.04400718 -0.018567067 0.0683532 -0.019444095 -0.052355252 0.16440928 -0.018546805 0.03496351 -0.03350125 0.07734346 -0.100122534 -0.066268615 0.20012334 0.14489855 0.004264303 -0.015207302 -0.0011129396 0.07890568 -0.068336785 -0.06969859 0.2515324 -0.10216438 0.1399059 -0.0311117 0.043993488 0.00820658 0.13018529 -0.012169959 0.22063702 -0.09350401 -0.18037777 0.059501 0.029179234 -0.08488757 0.0050502373 0.09049002 0.02076904 0.032742135 0.02489143 -0.0018889188 0.07513295 0.019360492 -0.014887544 0.22117466 -0.07832965 -0.06497978 0.008451656 0.14756586 0.07395055 0.019897789 -0.08184479 -0.13852853 0.09619637 0.09381718 -0.05865494 -0.16445687 0.106982954 0.057354223 0.0034328562 -0.06286631 0.115383334 0.05887452 0.07701988 -0.19418843 -0.07772633 -0.008302049 0.014039962 0.05991011 0.13849865 0.003081829 0.027374918 -0.12362146 0.057317197 -0.24570309 -0.1152911 0.08652045
225 -0.14166503 0.09656712 0.04884552 0.05409383 0.025796847 0.023405239 0.05780406 -0.009958444 0.14136145 0.0033855771 0.20099282 -0.23927058 0.10843135 -0.059112985 0.05554394 0.09538125 0.0074264277 -0.081242375 -0.11440099 0.068331674 -0.014538319 -0.16512595 -0.019650098 -0.028845657 -0.041167095 -0.015758576 0.044956032 -0.27108717 -0.14214925 -0.19127828 -0.10823438 0.019037835 0.043104984 0.02710024 -0.014221325 -0.1330904 0.058429748 -0.022372633 0.05012246 0.24479625 -0.1080307 0.084423244 0.14246275 -0.05264315 -0.03913428 0.045160994 -0.08817247 -0.066826776 -0.09379586 -0.21895498 -0.077336855 -0.10919684 -0.1335621 -0.08327223 -0.09351035 -0.16851757 0.092111446 0.09727154 -0.116617866 0.0692017 -0.1507294 -0.0037854684 -0.1485271 -0.15012242 0.08767091 0.14333986 0.03136029 -0.042589277 -0.068283364 0.053120293 -0.09651588 -0.04782511 -0.042900655 -0.14096963 0.13373399 -0.063236505 0.07274376 0.07955121 0.041980017 -0.0653807 0.07970585 -0.13158712 -0.16175504 0.17850845 0.06419191 -0.042223196 -0.08147969 0.13881327 0.037184175 -0.022444062 -0.06648355 -0.060474083 0.08912524 -0.11994582 -0.16899298 0.05227619 0.04637152 -0.0052963616 -0.0047550797 0.08591686 0.16851756 0.080288835 -0.08525088 -0.031301394 -0.19789861 0.101023465 -0.085700914 -0.30912542 0.08604497 0.12158166 -0.009106181 -0.050757498 0.21967496 -0.09580215 0.040620934 -0.18308577 -0.12092144 0.20749773 0.02992119 0.073694274 0.024739135 0.07199306 -0.056112554 -0.0029799426 -0.032851227 -0.12192829 -0.07849568 0.0030773878
298 -0.20910625 -0.14196834 -0.042853992 -0.012652937 -0.003270229 0.00074272696 0.10712731 -0.19378312 -0.010040231 0.05854863 0.2334732 -0.043792136 -0.09606424 -0.14215465 0.005668717 0.09932748 -0.07403798 0.016844682 0.044327922 0.082844526 -0.13533588 -0.15679759 0.07675414 -0.08738726 0.008386333 0.13108228 0.028064905 -0.15297209 -0.092566006 -0.12413647 -0.0480814 0.05563737 -0.17124808 0.019906333 0.07880436 -0.14091879 0.08243544 -0.01184462 0.012898478 0.2105591 0.078867845 0.009364061 0.17974728 -0.021078605 -0.0126531795 0.061841756 -0.052833665 -0.07696026 -0.17065409 -0.004822121 -0.049472965 -0.17995788 0.0029310053 -0.103798196 -0.037053075 0.028108656 0.06625582 0.16717082 -0.15366201 0.04253975 -0.09809592 0.07297422 -0.1455532 -0.08300713 0.121832065 0.117436744 -0.012507466 -0.07236304 0.066112384 0.0952977 0.013763691 0.035327595 0.106473535 -0.22825572 0.024248784 -0.12445083 0.066351734 0.002172782 0.030028822 -0.09834532 0.21796018 -0.02825901 -0.13766144 0.032568514 0.09752417 -0.008289296 -0.04937709 0.06022035 0.08903861 0.040121626 -0.10540974 0.0028438326 0.14360495 -0.013955779 0.009473853 0.16629787 0.011621535 -0.081284024 -0.097612016 0.14630376 0.096492335 0.14179552 -0.20740788 -0.14818448 -0.0018468379 -0.010440404 -0.020821607 -0.10983287 0.0072744004 0.070922986 -0.015830038 -0.034421623 0.09816559 -0.11045305 0.0063856905 -0.16440529 0.045679472 0.0015927233 0.033637803 0.00049217517 0.026362801 0.08032541 0.017707927 -0.06704298 -0.0062139076 -0.17235847 0.0031717243 0.102596365
