1113 128
1006 0.26154098 0.051127635 -0.1326094 0.39670366 0.087158106 -0.26567098 0.4046973 0.33546942 0.14776267 -0.4475033 -0.19258037 0.21526745 0.19294946 0.11363912 -0.12162194 0.0563838 -0.22245996 -0.027297409 0.079490393 0.3143425 0.1551722 0.20427705 0.16739252 -0.48132709 0.28282708 -0.069229856 -0.31477669 -0.23118827 -0.22690155 -0.3309218 0.12644111 0.46836251 -0.045487836 0.20973042 0.50801706 0.027881471 0.072858356 0.24058264 -0.34667253 0.002509482 -0.1533889 -0.074912593 -0.12280121 0.017330039 -0.22707021 -0.07684695 -0.030229587 0.3333168 0.31848752 -0.29670098 0.127863 -0.04186378 0.058713544 -0.14627481 0.029079795 0.27007619 0.35234806 -0.033052206 -0.22577658 0.12876722 0.5147931 -0.48460662 0.23819371 0.22322653 -0.061754547 0.14238873 -0.15376304 0.26687676 0.23386669 -0.40265298 0.10167608 0.042141795 -0.13967229 -0.23060602 -0.32495317 -0.063611612 -0.35306168 0.099302962 0.23362969 0.38213438 0.31881654 -0.14809583 0.033873528 0.12076009 -0.064434215 0.1657158 -0.39547908 0.23289047 -0.15467167 -0.30824515 -0.028008223 -0.0148479 -0.23230425 -0.19245133 0.01509208 -0.030582564 -0.40440893 -0.057612486 -0.28745726 -0.59553409 -0.42891753 0.0040316675 0.19108251 0.16200235 -0.18833122 0.0043309382 -0.15615959 0.10465571 0.26888376 0.18744835 0.0084540332 -0.22640671 0.21254955 0.055701293 0.39390472 0.26639017 0.060369514 0.24093439 0.2135755 0.072915949 -0.055336151 0.19343343 -0.10446759 -0.082186617 0.10578487 0.28898904 0.0020201071 0.22066669
506 0.41951475 0.21016619 -0.18629737 0.51637727 0.18204701 -0.26630756 0.17512538 0.3687166 0.13877238 -0.51071543 -0.11603819 0.17999338 0.042101115 0.21988925 0.20738974 0.17754734 0.14281431 -0.055255547 -0.04074857 0.3220531 0.39386484 0.22130007 0.26791444 -0.4073332 0.43161419 -0.047913332 -0.52915126 -0.26157406 -0.36299875 -0.30322951 0.26541162 0.41711983 -0.027406458 -0.075156577 0.4775123 0.084442869 0.11868117 0.43213665 -0.21651056 0.043606523 -0.016289001 -0.069505222 -0.0011614921 0.18614745 -0.014080393 -0.32635364 -0.15097611 0.18091524 -0.046208117 -0.13764939 -0.12399275 -0.089899749 -0.014444321 -0.01001366 -0.15058652 0.35164049 -0.029849881 -0.0028073844 -0.40921038 0.17337786 0.65221918 -0.24533249 0.067405544 0.39791325 -0.2025827 0.00795695 0.12689611 0.44729087 0.026997946 -0.43461153 -0.14499564 0.073874258 -0.20029946 -0.29017192 -0.38310707 0.075788997 -0.25121292 0.043477371 0.37709737 0.22249234 0.56115603 -0.031526666 -0.04902951 0.31841075 -0.16468652 0.17591311 -0.064757384 0.25173581 0.028259557 -0.2935057 -0.097793981 0.16225226 0.032440033 -0.24358122 0.1856561 -0.033960406 -0.40637717 -0.29111576 -0.0063725864 -0.46316105 -0.37393829 0.21987578 0.3344796 0.21166405 -0.2182702 0.22084321 -0.21270594 0.024856668 0.23256958 0.39968303 0.046226103 -0.27754399 0.19664015 0.056525905 0.11206314 0.071916617 0.058577497 0.28507134 0.48785114 0.18052024 0.16358963 0.077749297 -0.23971729 -0.37839976 0.18595433 0.33202273 -0.4199219 0.2055634
823 0.40052384 0.31018773 -0.073244616 0.36730468 0.17641164 -0.22357704 0.16712372 0.48412213 0.027157871 -0.54421318 -0.19131696 0.20546801 -0.012707655 0.087277077 0.056484763 0.19217592 -0.023148451 -0.11241322 -0.13793837 0.24629861 0.31502947 0.2064193 0.22287348 -0.39228016 0.51811498 -0.13250421 -0.4633787 -0.26036358 -0.41815796 -0.30299109 0.26364443 0.40952206 -0.12829141 -0.027081544 0.4814392 0.058248088 0.04188947 0.30218056 -0.27217114 -0.017222034 -0.055831209 0.0041644569 -0.039984029 0.12631786 -0.15412487 -0.47058862 -0.11016712 0.31006172 -0.11090968 -0.10220327 -0.072178513 -0.14765963 -0.086718135 -0.063508518 -0.29252812 0.30809578 0.018109469 -0.0058619208 -0.44403818 0.15350109 0.47352931 -0.43523297 -0.023000589 0.39304015 -0.072651759 0.027537292 -0.034619231 0.47329372 -0.0046158982 -0.37459525 -0.10480133 -0.0017338869 0.0091745732 -0.27836692 -0.44693395 0.08489313 -0.30857822 -0.036084633 0.30732125 0.22680418 0.52989364 0.032257091 -0.12779051 0.26285002 -0.060492489 0.22291748 -0.058526173 0.4269855 -0.14166346 -0.23004134 0.072650112 0.22110079 0.004672105 -0.32731614 0.09750931 0.012302353 -0.5104925 -0.19023862 -0.042915668 -0.51679289 -0.39295208 0.13132538 0.41252497 0.20970838 -0.43147507 0.21206138 -0.21446632 0.057894602 0.27706343 0.33200672 0.11783974 -0.22984292 0.23679608 0.20530282 0.01081808 -0.045514397 0.14385018 0.47842088 0.33453926 0.10792164 0.23227096 0.13798125 -0.27310306 -0.28552577 0.11521392 0.20392688 -0.38591912 0.37329772
839 0.23349206 0.17826939 -0.2291877 0.31189722 0.037094891 -0.24349549 0.0176621 0.27792609 0.15005322 -0.46625629 -0.16381246 0.26373267 0.048223332 0.17430742 0.16381435 0.11371592 0.14476854 -0.17277893 -0.031304169 0.41971511 0.39830652 0.26289931 0.23911779 -0.43682826 0.41157323 -0.039116353 -0.57745743 -0.076694503 -0.50793654 -0.18046975 0.18646811 0.36577216 -0.12257949 -0.013228086 0.50443989 0.035051003 0.077172957 0.35532221 -0.22665247 -0.11524732 -0.083273776 -0.28409192 -0.053163495 0.046125427 -0.18297495 -0.38053143 -0.20675077 0.25963345 0.10752677 -0.14301547 -0.017488353 -0.092768818 -0.012109889 -0.03419834 -0.12386648 0.36569163 0.030378643 0.07849329 -0.37490949 0.18399844 0.5518505 -0.5234521 -0.042989641 0.38612303 -0.15748872 -0.02100414 -0.030274415 0.32118753 0.1910477 -0.47535416 -0.096669741 0.1654148 -0.12007385 -0.2420609 -0.37209493 0.14614446 -0.34491718 0.077220187 0.38664544 0.30282873 0.64553565 0.13662544 0.05659635 0.2664746 -0.16451222 0.19560556 -0.038139421 0.38233566 -0.077480629 -0.25507247 -0.10689897 0.32093823 -0.070962593 -0.41597965 0.098518126 -0.16391462 -0.56385595 -0.27595076 -0.046149485 -0.40613085 -0.47895467 0.15032628 0.29337853 0.18052725 -0.2650381 0.23392628 -0.26559085 0.19639675 0.46945992 0.28006411 0.048445385 -0.19952966 0.15295428 0.13428432 0.18764137 -0.078209847 0.19473505 0.40954268 0.47719878 0.16241893 -0.019640028 0.22379912 -0.11443976 -0.26204687 0.1394027 0.22156066 -0.29575551 0.20521954
512 0.40592223 0.30941641 -0.14409661 0.47863966 0.1538223 -0.24691263 0.086959027 0.30243117 -0.0021378431 -0.5481562 -0.084325708 0.14125212 -0.12186404 0.09506157 -0.032057136 0.12872654 0.17911212 -0.16104577 -0.079223335 0.38154581 0.31445771 0.1480168 0.28275257 -0.39318314 0.42329848 -0.074171968 -0.44634765 -0.22829513 -0.38460937 -0.22320852 0.25071964 0.66422176 -0.034723494 -0.037413795 0.55862695 -0.012288069 0.19152185 0.33932319 -0.33785549 0.092016794 -0.043218262 -0.23782764 -0.016112017 -0.029712018 -0.10339373 -0.19719031 -0.14752083 0.30944264 0.048838388 -0.20277688 -0.03709605 -0.16396317 0.02709203 -0.017448589 -0.10585074 0.39301234 -0.012107364 -0.011120842 -0.46206269 0.13889043 0.45990807 -0.43039 -0.087695263 0.35621259 -0.08760114 -0.02437559 -0.037472289 0.28442201 0.10314099 -0.39517736 -0.010202832 0.12546575 -0.16632041 -0.2456637 -0.38682646 0.18612964 -0.2012939 0.072667219 0.34179971 0.090379953 0.47282764 0.0077455686 -0.047636274 0.16614147 -0.071229033 0.10272244 -0.039292537 0.21556468 -0.33553535 -0.29937056 0.023440506 0.11931302 0.031704564 -0.32823655 0.077129968 -0.15465526 -0.62893176 -0.28200045 -0.11556163 -0.40851882 -0.45572996 0.15973908 0.43429863 0.051380981 -0.30344605 0.31324002 -0.21276192 0.16921745 0.37911218 0.14115271 -0.10964607 -0.065009423 0.27870578 0.27363899 0.049502533 0.059864521 0.11723202 0.47820541 0.48221153 0.012328012 0.1789092 0.24313785 -0.18212903 -0.18064226 0.21496636 0.19484225 -0.25134462 0.4066816
859 0.35412452 0.28849754 -0.14296533 0.3165001 0.1464169 -0.1574859 0.045342721 0.35627148 0.094918244 -0.45084336 -0.15158075 0.18270834 0.14658095 0.11420607 0.08086779 0.13693041 0.2049063 0.0088411132 -0.018262114 0.43812299 0.22619776 0.18464027 0.11505373 -0.41393566 0.5416075 -0.033533562 -0.3953484 -0.20000213 -0.47649503 -0.1865115 0.24164784 0.54244041 -0.13390744 -0.10987746 0.48297852 -0.011932984 0.02748858 0.41224378 -0.096172646 0.037135236 -0.11123398 -0.23683459 -0.056694705 -0.079832844 -0.053001776 -0.37613773 -0.0097681908 0.25541165 -0.18348914 -0.16854559 -0.026678279 0.15149722 0.044545978 0.15884995 -0.12713745 0.4020932 0.10779321 -0.10140858 -0.47105128 0.16608468 0.47041792 -0.37905541 0.013168668 0.17328078 0.031725746 -0.088622995 -0.1353696 0.33483934 0.18090743 -0.34239334 0.068477988 0.18760346 0.15754128 -0.30734706 -0.26400331 0.14953458 -0.24257535 0.12777874 0.26351359 0.35706076 0.50607479 0.073548093 0.024926286 0.15911749 -0.067419603 0.20186053 -0.069859616 0.45792246 0.0011210046 -0.22003581 -0.0050681042 0.16797578 -5.9106202e-05 -0.25624645 0.28454769 0.12550955 -0.58027995 -0.23576355 -0.035971235 -0.52407724 -0.49461272 0.059064392 0.4311181 0.29261243 -0.45835635 0.3387391 -0.17431909 0.15102291 0.35692617 0.50678653 0.077705905 -0.10162781 0.23828827 0.1176654 -0.077644944 -0.062917985 0.15061173 0.27643394 0.38915303 0.18470056 0.043830074 0.10522106 -0.20142078 -0.25681823 0.075301275 0.13592164 -0.45475245 0.27253735
178 -0.091532826 0.015981069 -0.15907496 0.044175595 0.38037622 -0.45167944 0.034170251 0.43661711 -0.13284674 -0.571446 0.0096282614 -0.031832714 0.18710259 0.07369642 0.1559992 -0.088540912 0.23218614 -0.17261098 -0.01570924 0.24854043 0.036789201 0.37096709 -0.038357485 0.1122847 -0.12289142 0.32240686 -0.3046912 -0.4940502 -0.27649859 -0.15404598 0.33503181 0.078516386 0.1742437 0.098070063 -0.17255539 0.12137325 0.40592048 0.15917782 -0.48316181 -0.12427761 0.12184136 0.10379934 0.058939874 -0.19902375 -0.18932071 0.16528617 0.42030129 0.17315891 -0.38892114 0.128611 -0.15047708 0.082706347 0.054900009 -0.34717828 0.054213796 0.36545935 0.028666144 0.35819495 0.03532625 0.11922614 0.55869681 -0.14760743 0.047720116 0.040427037 0.064284019 0.0084231719 -0.054060958 -0.071404248 -0.052625049 -0.20237868 -0.14966629 -0.12401474 -0.18520486 -0.1988471 -0.09732946 0.25375995 -0.29099986 0.2076682 0.081917077 0.24654876 0.012764736 -0.2709859 -0.15188126 -0.12640217 -0.095939338 0.1235166 -0.18643193 -0.065676354 -0.043319058 -0.19568528 -0.20647077 0.70571476 0.19327503 -0.13106224 -0.086758934 0.16234076 -0.20052195 -0.11631715 0.19166414 -0.071913183 0.10728444 0.19416259 0.1122577 0.016446227 -0.042270146 -0.025828116 0.084338404 0.23452215 0.39576858 0.23053645 -0.2724629 -0.20388435 -0.20241612 -0.061936397 -0.017032148 0.47300026 0.081184834 0.095802851 -0.050029892 0.18212985 0.31222501 -0.01526716 -0.19478245 0.049878471 -0.086514853 0.20244507 -0.023545083 0.378389
1004 -0.23315889 -0.067176066 -0.40267059 -0.054099306 0.87259138 -0.75563031 0.59924567 0.33821195 -0.023922168 -0.38171026 -0.32878262 0.30502754 -0.15780795 -0.12642281 -0.16973396 0.052659422 0.051334791 0.30501604 -0.10573736 0.096544623 -0.10061168 0.55983269 0.37692264 -0.36888489 0.063170217 -0.42389959 -0.20724496 -0.40022326 0.13404189 -0.28129014 -0.40409803 0.046812188 -0.00082956767 -0.15618916 0.063065037 -0.059226677 0.068948679 0.34805009 -0.48878005 -0.041275453 -0.30478346 0.27992165 -0.29940969 -0.12171668 -0.29588476 0.40774539 0.037078496 0.69116634 0.54659694 -0.8670637 1.0083724 0.11999989 0.78368616 -0.20917189 0.27285573 0.38057739 0.43234962 -0.27292502 -0.21532276 0.20730142 0.28539234 0.045715276 -0.12575263 0.86894917 0.057795648 0.11863587 -0.54749846 -0.047383461 0.50259584 -0.67597991 0.1387824 0.0085050538 0.37063819 0.03068562 -0.24965301 -0.059615213 -0.81707835 -0.27902213 0.080088153 0.45222381 0.52823704 0.053525534 -0.20886025 -0.40384614 -0.1302824 0.49457699 -0.067929544 -0.20403884 -0.28249487 0.064821109 0.30938789 0.016668906 -0.2350257 0.1732872 0.05982985 0.24778722 0.19771278 -0.26465222 -0.61391854 -0.59892285 0.16307372 0.11812112 -0.54639751 0.23191598 -0.030779 -0.03781851 0.073543474 0.085672826 0.20404327 -0.27900898 0.19269249 -0.51729226 -0.18254001 -0.21834405 -0.23971525 0.17592816 -0.37903863 -0.023605863 0.1437172 -0.069071949 0.32813951 0.30274472 -0.68877459 -0.057803024 0.41699442 0.07482183 -0.19078173 0.12491949
501 0.070325181 0.33151719 -0.1761497 0.054062955 0.024361406 -0.22060847 0.12646845 0.29835311 -0.10599308 -0.36565772 -0.019128544 0.10778683 -0.14410707 -0.24961245 0.2025315 -0.033718828 0.034402933 0.040306568 0.03324651 0.052229173 -0.043730382 -0.017160397 0.18260945 -0.16759129 0.027664272 -0.040045716 -0.38877583 0.34073123 0.063849144 -0.23062174 -0.12847254 -0.015492585 0.33470631 -0.044982966 0.17791529 0.059419528 -0.030307487 0.11572187 -0.126928 -0.2136966 0.16090494 -0.12247188 0.19207224 -0.079845876 -0.36518502 0.38058251 0.183211 0.096346915 -0.26285428 -0.15673423 0.036970034 0.07082317 0.1849623 -0.43894446 -0.026406989 0.51099783 0.31774673 -0.098303601 -0.081013508 0.072454557 0.41842806 -0.23913863 0.28908819 -0.23316501 -0.044543836 0.096577324 -0.18809769 -0.098940887 0.045074433 -0.12255459 -0.34436744 0.093372397 -0.05676822 -0.0055960859 -0.17995664 0.19535542 -0.1717103 0.041062821 0.035987172 -0.086105265 0.029810593 0.22857538 0.095351167 -0.40370566 0.29740092 -0.062765546 0.015105127 0.077367194 0.2578848 -0.19382395 -0.30656764 -0.094936647 0.16393702 -0.64348406 0.11347209 0.3131136 0.11195497 -0.076768905 0.12287482 -0.18480355 0.1375538 0.089269347 -0.33878359 -0.086562343 -0.31542328 -0.30437556 0.097343408 0.29267839 0.45269671 0.35812402 -0.12687078 -0.10975318 0.2845189 -0.19271423 -0.080781147 0.046217106 0.33383515 -0.18633161 -0.13259979 -0.31604832 0.59554023 -0.21569303 -0.038599502 -0.1638653 0.049694885 0.29670215 -0.5065046 0.28162593
301 -0.33959824 0.21434335 0.018078728 0.19902985 -0.13381507 -0.083106771 -0.024133477 -0.17747445 0.027343852 -0.10322565 0.074877419 0.064002007 -0.086446881 0.053285144 -0.12936997 0.21289319 -0.018454928 0.12931377 -0.17024001 -0.042909786 0.1418695 0.086876713 0.028025003 0.18955782 -0.045728322 0.019904735 0.10844024 0.1135089 -0.019354276 0.21561122 -0.19062842 0.19021378 0.095983438 0.014021425 -0.063004807 -0.12828466 0.031778697 -0.012409654 -0.12512399 -0.00052123616 0.097120553 -0.089882441 0.064404994 -0.073387526 -0.13793536 -0.31697908 -0.086157925 -0.063573018 -0.029933464 -0.14150225 -0.12677708 -0.2298131 -0.033367809 -0.39940763 -0.021088826 0.10263149 -0.026970405 0.18368256 -0.16399041 -0.15683429 0.18909402 0.09484262 -0.044703465 0.054362699 -0.033616662 0.046827096 -0.034465738 0.16564479 0.15775003 -0.14015687 -0.25189009 0.088800207 -0.039110791 0.0015632558 -0.18579027 -0.12123849 -0.057493206 -0.12611279 0.18600248 0.079624727 -0.12030131 -0.087798946 -0.04820862 0.10101178 -0.18559682 0.20106216 -0.010766846 -0.084614784 -0.0326421 0.11102071 0.05584776 0.17591964 0.17718175 -0.1162411 0.16427423 0.0031679224 0.19270895 0.0056993729 -0.24518666 -0.25199771 -0.24732971 0.15984505 -0.1800472 0.12556158 0.15854937 -0.067246191 -0.18441874 -0.11877883 -0.0090118246 -0.31858823 -0.0052050636 0.2995165 0.05729831 0.14119671 0.0096006375 0.11348589 -0.015523984 -0.014640344 -0.027690753 0.089020684 -0.11972046 0.057266779 0.0073578628 -0.0049955561 -0.040598426 0.18947645 -0.36463207 0.22633925
1005 -0.0072406945 0.07958775 -0.43538606 0.068769157 0.65146261 -0.24201269 0.48419005 0.15496564 0.30421093 -0.075794496 -0.019366914 0.50095594 -0.20323448 0.20212498 -0.037290011 -0.17536043 -0.036114585 0.17431431 0.025147529 0.30551183 -0.079849549 0.32700676 0.1145303 -0.32911044 0.16899666 0.45486772 -0.58590692 -0.36025277 0.018941561 -0.10572281 -0.099328659 0.084273972 -0.6337207 -0.15082687 0.16554248 -0.032796204 0.40279481 0.21338491 -0.10786932 0.40186673 0.013402346 0.27675307 -0.049179725 0.22051354 -0.13395225 0.3514148 0.12797566 0.090645239 -0.058840405 -0.31386372 0.24236803 -0.32469204 0.38098526 -0.40086854 0.20730777 -0.0016095784 -0.15533037 -0.015305714 -0.085226864 0.049689151 0.081928559 -0.27168536 0.35032791 0.12532301 0.13262555 0.016812615 -0.20017266 0.016171012 0.42418131 0.013054525 -0.11911638 0.11471457 0.10141081 -0.20004365 -0.051326398 -0.069077514 -0.22672878 0.085060783 -0.29143363 0.0031489646 0.043560199 0.0085549019 -0.018491825 -0.39784694 0.033440609 0.26677331 -0.03256001 0.27720672 -0.080220729 0.19555125 -0.0066768471 0.033344869 -0.062152635 -0.08024998 -0.12115603 -0.16592373 -0.1327766 0.22225715 0.12860844 -0.089109458 -0.13427408 0.031203479 -0.28858596 -0.19495288 -0.18086493 0.34896043 -0.033497918 0.28063649 0.29237312 0.09151943 -0.024715792 -0.23274896 0.1730133 -0.24385276 0.27407429 -0.12277259 0.0090073543 0.23899262 -0.066352449 -0.16928113 -0.0030538279 -0.30636662 -0.0051647662 0.062801465 -0.00088628812 0.28618655 -0.21924841 0.49061346
133 -0.3291544 0.14586124 0.033579953 0.11576541 0.06903623 -0.082178093 0.029789628 -0.27681401 -0.167117 -0.13427123 -0.19359592 0.026460435 -0.11153295 -0.22020717 -0.07411404 -0.012248634 0.25655937 0.19099459 -0.11515304 0.16289192 -0.013921217 -0.015584894 0.081318751 0.22577775 0.20290488 0.13353114 0.11802237 -0.26776102 -0.21553333 0.017888274 0.034845039 0.001770827 0.26043782 -0.080099009 -0.23870452 0.21912086 -0.049465723 0.08472763 0.17087565 -0.061455689 0.10858471 0.050500162 -0.11858568 -0.073649116 0.11590327 -0.14236048 -0.0039447802 -0.15160519 -0.013964868 -0.044522345 -0.069028817 -0.036776949 0.10988437 0.13535289 -0.09991806 0.048808616 -0.078237519 0.24189217 -0.062000949 0.0638275 0.028355528 0.05601662 0.1882166 -0.044914268 -0.036983021 0.19505839 -0.17526659 0.0034485993 -0.18302645 -0.042745069 -0.090810105 -0.0079431785 0.050832797 0.055890121 -0.33866942 -0.097254753 0.031308968 -0.24915801 0.054500554 0.029982837 -0.15029702 0.055868294 0.076077573 0.025068713 0.12809269 0.044915378 -0.070468292 -0.14764848 0.17902765 0.25049073 0.017302157 -0.03744163 0.024371585 -0.09494362 0.10577412 -0.11957373 0.096880175 0.26506341 -0.10873046 -0.21048483 -0.070766747 -0.10152254 -0.23427321 0.031714085 -0.27203429 -0.088225387 0.014149046 0.13955289 0.15879364 0.10199404 0.14311469 0.075437509 0.089483313 0.18516034 -0.20921677 -0.13457946 -0.11398283 0.12264466 0.11404825 0.012587488 -0.069274679 0.087727711 -0.12568037 -0.16474967 0.05054846 0.15178762 -0.20262581 0.30657318
1010 -0.036309998 0.29430878 -0.2042996 0.022397872 0.78633457 -0.37173063 0.022565233 -0.095201224 0.45420566 -0.28565237 -0.15048859 0.434315 -0.074635237 0.062995255 0.041809559 -0.23871112 -0.15578787 0.22305743 0.30216372 0.30702361 0.17641424 0.21637836 -0.17683436 -0.15184884 0.31007943 0.075215928 -0.27595696 -0.51280034 -0.11718673 -0.21744841 -0.20050538 0.074394733 -0.45900464 0.13339478 -0.032879926 -0.062391199 0.24114716 0.21515277 -0.19297424 0.29575083 0.0040410785 0.34270886 -0.0084989127 -0.030960063 -0.023034126 0.33470425 0.036964718 0.16938664 0.078566596 -0.34628388 0.18925335 -0.059438821 0.25213251 -0.3235932 0.27424213 0.076914206 -0.04654815 -0.1656166 -0.13340372 -0.011812116 0.064606674 -0.47130957 0.28451195 0.0027283924 0.24260983 0.32543409 -0.38229668 0.12792981 0.2077799 0.29009464 -0.20617266 0.050090741 -0.032579102 0.084105104 -0.17467172 0.16837603 -0.50368857 0.11656678 0.36478612 0.05667327 0.19572414 -0.39183989 0.21197154 -0.24612929 -0.098938122 0.12619084 -0.32071301 0.18652804 -0.30122873 -0.27071792 -0.087976582 -0.20803502 0.011605238 -0.1679534 -0.23399089 -0.135208 -0.34082669 0.14513336 0.2999011 -0.29603174 -0.094250217 -0.041456595 -0.22593896 0.16555355 0.0064675687 -0.048543844 0.021013869 -0.32180911 0.29205087 0.15748307 0.19029166 -0.3028459 0.20219447 -0.11467505 0.42509949 0.14897197 -0.18345653 0.042928163 -0.28683341 0.21155481 0.1538455 0.088501997 -0.20381653 0.00074986246 0.26822153 0.34036428 -0.38109168 0.46985775
476 -0.30171144 -0.0244547 0.059850905 0.043512449 0.1979477 -0.0270094 0.10086512 -0.18984191 -0.045103367 -0.090562977 -0.12655503 0.079673797 -0.078178622 -0.099983037 0.1848055 0.072605498 0.19126861 0.010915842 -0.31615171 0.01912855 0.17498277 0.0022951777 0.041587554 0.056985918 0.14645778 0.16810909 -0.046014834 -0.12732358 -0.093598768 0.053899046 -0.10510696 0.12852579 0.077217162 -0.090420403 -0.11235447 0.12295768 -0.028622149 0.19254783 0.055924218 -0.16315202 -0.102497 -0.14849986 0.082117438 0.10962772 -0.0059744883 -0.2170295 -0.10577222 -0.096739516 -0.012101632 -0.21709873 0.089035571 -0.079299249 0.052458491 0.14285453 0.033550438 0.21001135 -0.092405178 0.10392715 -0.14135478 -0.14110759 -0.075649902 0.057238106 0.10216346 -0.15772723 -0.14278992 0.077108003 0.13769467 0.048928801 0.016352054 0.044065814 -0.01849567 -0.035259485 0.082146563 0.063951954 0.2238927 -0.12724669 -0.057258308 -0.27187902 0.19269173 -0.12082795 -0.03045324 -0.22849655 -0.11435135 -0.041327059 -0.026060987 0.038031295 -0.0594116 0.14299498 0.31455654 0.11405283 -0.091694735 0.084031984 -0.17872036 0.039976768 -0.011749709 0.11295753 0.19463511 0.14624313 0.021173662 -0.055735901 -0.12750876 0.009904895 -0.19597913 0.20807472 0.13189881 0.17127772 0.11335229 0.008147493 0.44207108 -0.11126361 0.035630524 0.15063094 0.082784109 0.13900223 0.058025781 0.0051297168 -0.065153256 -0.22553608 0.0032597203 -0.015698629 0.11691394 0.37173533 0.11891361 0.10403848 -0.06298779 0.069758393 0.099023178 0.16489978
432 -0.29440802 0.091631427 -0.039122675 0.06021145 0.17820817 -0.11030782 0.033902023 -0.26760739 0.01230268 -0.11503506 -0.15468471 0.027957695 -0.097933888 -0.14176004 -0.016761269 0.05111599 0.11519732 -0.092414469 -0.12999056 0.078146599 -0.052341159 0.14234002 -0.015307832 0.15614556 0.15040588 -0.0052748322 0.015474781 0.002160538 -0.048569299 -0.02928311 0.13626647 0.081367359 0.095695868 0.062666833 -0.081159487 -0.075097591 -0.028839312 0.051400136 0.097467348 -0.088447802 0.031370513 -0.086946428 0.19552565 -0.087360188 0.020146055 -0.20086777 0.17496368 -0.37384287 0.046208028 0.027533611 0.075641319 -0.087322921 -0.031619091 -0.1398948 -0.097430944 0.098605663 0.028786266 0.18903744 0.021532223 -0.10240286 -0.077960268 0.25167781 0.17170328 -0.070347771 0.022803953 0.040471636 -0.23043117 0.032108333 -0.06191377 -0.15477842 -0.16165009 0.11886963 0.051034305 0.067213729 -0.19799238 -0.082236037 -0.039013214 -0.1693145 0.032724071 -0.1116999 -0.085578449 -0.0020841216 -0.11596856 -0.10358833 0.024212906 0.15969601 -0.071693137 -0.028355384 0.13197732 0.2160511 0.16606581 0.21350375 0.02036321 -0.15300529 0.14337787 -0.04696463 0.0007071743 0.11107677 -0.095484883 -0.23177011 -0.28517115 0.014746715 -0.10116033 -0.065354697 -0.1511597 0.080126397 0.11636544 0.11652321 0.03493901 0.11508653 0.096501067 0.018344643 0.00054601528 0.16294724 -0.097911559 -0.13572542 -0.03542183 -0.0974271 -0.085793719 0.0015183024 -0.14709799 0.15294695 0.025245965 -0.11437356 -0.18073182 0.17835338 -0.082188949 0.2236194
215 -0.32683215 0.1435685 -0.087028943 0.11161039 0.27810955 -0.022689058 0.22033337 -0.059386477 -0.006115187 -0.1690633 -0.11022735 -0.049426559 0.18429615 -0.24995677 -0.016287684 -0.029623047 0.099854268 -0.053254459 0.15850224 0.0057199802 0.33281234 0.11682525 0.10838477 0.16885675 -0.034803849 -0.025368458 -0.42414668 -0.042394601 -0.092089333 -0.051858407 0.079487912 0.072247304 0.22990693 -0.12989543 -0.13636179 0.012792569 -0.19646774 0.20017987 0.20093066 -0.1447477 -0.045473289 -0.039891459 -0.017107999 -0.090735406 -0.031675797 -0.13964052 0.1916568 -0.099932082 0.048226181 -0.0031441681 -0.063596711 -0.22637005 0.1087184 0.035883859 0.07050512 0.11564153 -0.0028202913 0.20095398 0.072554216 -0.023048535 -0.27575445 0.13440318 0.0056481292 -0.062418725 -0.020227268 -0.02948327 -0.10381864 0.097361036 0.13605794 -0.16724774 -0.24590278 0.043050107 -0.10389621 0.085388474 -0.19374049 -0.32918805 0.14566556 -0.31314707 -0.15415408 -0.31339499 -0.028812956 -0.050829206 0.02086952 -0.086319089 0.19014266 -0.18564045 -0.056442477 -0.030540498 0.064575359 0.24265642 0.040138256 0.1158086 0.12568344 0.084895052 0.06809742 -0.0032895377 -0.0090401992 0.0137457 -0.2448111 -0.15970361 -0.021352405 -0.041197442 -0.32004535 0.17145884 0.014966919 0.051241491 -0.057075173 0.007210494 0.13236682 -0.036769483 0.032722969 -0.044140156 0.060038999 0.1609873 -0.050643794 0.0011561104 0.039114416 -0.072980858 -0.27449703 0.022618666 -0.21710339 0.15814936 -0.065095499 -0.2021731 0.07816492 0.042600732 0.11817048 0.28873163
323 -0.22028486 0.11844736 -0.29378247 -0.059116907 0.16160616 -0.078052908 0.15908617 -0.0796763 0.14060427 -0.092436783 0.11662131 0.028749343 0.028669722 -0.36357296 -0.1240226 -0.10119546 0.18524107 -0.11536084 0.022698205 -0.031339787 -0.085309908 -0.21867687 0.20905799 0.089336798 -0.046392731 0.17971773 -0.1215251 -0.079775073 0.028390177 -0.027177664 0.22597031 0.044475507 0.030471729 -0.050830696 -0.027156644 0.025519948 -0.020207722 0.19072184 0.096409306 -0.0059887376 0.070936538 -0.040424109 -0.09505149 0.010319575 0.1026406 -0.034546699 -0.014537069 -0.26520783 0.058409192 -0.16885641 -0.14196515 0.035232496 -0.11652243 -0.067559212 0.095508218 0.12304927 -0.098416165 0.044024259 -0.034273483 -0.2006813 -0.055517338 0.36039558 -0.07264632 0.058017232 -0.12832347 -0.023033328 0.11053912 0.065960646 -0.010525919 0.061521064 0.098069608 -0.17721908 0.0010903053 -0.068773322 0.087205723 -0.1657085 0.034224439 -0.16603939 0.14349896 0.055941794 -0.036598321 -0.077088729 0.0092468634 -0.024451565 0.0064772265 0.020821156 -0.14256778 0.20113225 0.15816265 0.14816298 0.11955357 0.20981719 -0.066452615 0.030861767 -0.2112053 0.0055341311 0.13839936 -0.038542237 -0.24355163 -0.28489029 -0.19957092 -0.027857807 -0.1437664 0.28090402 -0.047078487 0.063724034 0.0760554 0.011424051 0.10828455 -0.077696621 0.035851918 0.041341603 0.2029085 0.18471587 0.066301763 0.041195463 0.050706059 -0.040814001 -0.030942967 -0.1253415 0.045088537 0.06447085 -0.0066957274 -0.058090348 -0.12193385 0.013519247 -0.023010697 0.18036513
404 -0.37891692 0.051004589 -0.020720888 -0.052486256 0.3684822 -0.20155898 0.28158092 -0.09040536 0.28682175 0.019538583 -0.0091985287 -0.30610695 -0.050002076 -0.15029947 -0.23128031 0.095958076 0.14655866 0.03409294 0.067596741 -0.14464261 0.29564703 -0.11061263 0.30168274 -0.026336823 0.11054916 -0.12657095 0.14647953 0.21718378 0.094923705 0.091805249 0.17913139 -0.031039767 0.017134152 0.065556861 0.22558375 -0.013467349 -0.23683706 -0.092087768 0.042926226 0.082493603 0.2763707 0.12468305 -0.17233387 -0.1454524 -0.1099914 -0.13257127 0.18578172 -0.041351784 0.019690951 -0.24215554 0.052282605 -0.049978938 -0.019328808 0.010228543 -0.098273717 -0.025179101 -0.072595455 0.044818167 0.11636778 -0.066500135 0.090083301 -0.029961087 0.0071476796 -0.10359042 0.18555112 0.066598788 -0.17286237 -0.055322479 -0.17320842 -0.12928647 0.099894784 0.050749008 0.010057586 -0.15277976 -0.021487227 -0.18168545 0.36724064 -0.24965911 -0.034580648 0.067059495 -0.16708322 0.10913939 0.079060085 -0.070897341 0.15244813 0.0041937293 -0.091908455 -0.084342368 0.10896409 0.27364078 -0.072709516 0.36274651 -0.073805191 0.087982714 -0.0071912776 -0.26274806 -0.2009816 0.1228472 -0.25059763 -0.13256598 -0.42767677 0.039304264 -0.12275579 0.07659962 -0.029538292 0.057210043 -0.20365942 0.13936862 0.21554057 0.18052307 0.047248468 0.022003191 -0.045405194 -0.021589819 -0.19382426 0.17128594 0.0017038238 -0.15405805 -0.084999077 0.095537305 0.38964269 -0.20622614 -0.04938418 0.056835376 0.13774005 -0.018988708 -0.058956891 0.1937249
234 -0.22707377 0.060098518 -0.19319434 -0.054893952 0.21577457 -0.10756367 -0.026490498 0.11255919 0.022178365 -0.082950853 0.17176835 0.12633054 -0.085148014 -0.12777746 0.19052926 0.019701103 0.25197193 -0.060933374 -0.13120097 0.022034323 0.29434589 -0.039450787 0.019723693 -0.10081619 0.014049892 -0.18481892 0.20838204 0.0090225162 0.054804742 0.079749659 0.084838264 0.21713422 0.081693277 0.089584976 -0.058781743 0.035817705 0.022745118 0.17657262 0.17556128 -0.068883717 -0.03426696 -0.072882257 0.058506072 -0.1264309 0.080417074 -0.20455471 -0.035627294 -0.12131367 0.080664665 -0.021507192 -0.01643032 0.10754477 -0.12490265 -0.043506529 -0.1829478 0.20931347 -0.023985887 0.044694569 -0.023780778 -0.1633644 -0.016043764 0.12018964 0.33158496 0.044351783 -0.080544427 -0.065808266 -0.097731702 -0.11306911 0.051023647 0.03430219 -0.061008438 -0.088957056 0.019391073 0.039478533 0.0357005 -0.10460943 -0.024246717 -0.14812954 -0.0086967126 -0.29604137 -0.019482238 -0.074583337 0.094406188 -0.16394234 0.13693497 -0.036335085 -0.14689456 0.0025993427 0.10031254 0.31370163 0.07883995 0.26906118 -0.11665947 -0.20742761 0.030359879 -0.0042487173 -0.02251133 0.1345493 -0.12514366 -0.22754261 -0.16191804 0.00035833599 -0.24838504 -0.03372556 0.18397585 0.083662659 0.023868298 0.26832411 -0.021299031 0.13829325 0.02275257 -0.078166425 0.07377068 0.078828171 -0.12070706 -0.040280178 -0.13382332 -0.10429319 0.015102799 -0.013905611 -0.17228319 0.20796552 0.23155595 -0.077417724 -0.027755935 -0.080247864 -0.052104264 0.13857704
477 -0.32702807 0.1694793 -0.12894538 0.0651123 0.27089232 0.058856949 0.1941516 0.016176112 0.062418222 -0.15247348 -0.31269002 0.026634019 0.046243064 -0.098154165 -0.200664 -0.14684235 0.088758118 0.020956172 -0.10517574 0.35171136 0.30734107 -0.039119862 -0.12976983 0.1383151 -0.19028996 0.12828831 -0.2456598 0.15356348 0.22847834 -0.051701143 0.18798518 -0.011865037 0.57768416 -0.24376497 0.19264793 -0.032959275 -0.11404058 0.1746469 -0.28072995 -0.27517298 0.21641088 0.14344859 0.17182259 0.10274432 -0.094793908 0.04178131 -0.24500158 0.20959023 -0.11344825 -0.20193841 0.13042694 -0.36946762 -0.32367143 -0.033703078 0.042740725 -0.094329514 -0.066363335 0.08932329 0.18050346 0.16512437 -0.026142143 0.085658975 0.10264599 -0.029829049 0.27035022 0.0094122803 -0.0018102871 0.096287727 0.24579126 -0.13473237 0.07706549 -0.091006696 0.14143316 -0.07780154 -0.094558634 -0.19157633 0.013213785 -0.18800892 0.068221338 -0.092781246 -0.26668021 0.17596756 -0.080962785 0.013377193 0.043745633 -0.039196666 -0.11620007 0.13064323 0.031430129 0.19264325 0.17538367 0.030282995 -0.14205392 0.1185372 -0.012685904 0.075896651 0.062901974 0.16012521 0.095324345 0.059915487 -0.22873771 0.074937135 -0.17883196 0.039901197 -0.088413738 0.20164026 -0.097407587 0.04328756 -0.28984532 -0.13467798 0.097514078 0.067758933 0.04714638 0.2846598 0.089169942 0.20765944 0.06749396 -0.23830399 -0.23136285 -0.14142667 0.12789616 0.48043326 0.015848821 0.015367658 -0.042658847 0.010917848 -0.31687745 0.35140026
167 -0.18450235 0.27970833 -0.0029997616 -0.0054481979 0.20577811 -0.15294519 0.01200454 0.10546969 -0.11381815 -0.052405238 0.15943606 -0.11262491 0.038753688 -0.074324928 0.062890701 -0.081777953 0.056091744 -0.13396454 -0.18651545 -0.054670647 -0.00093824597 -0.10940486 -0.044741988 0.039044108 -0.14210488 -0.088256747 0.13429774 0.027953632 -0.012085005 0.062731028 0.18923037 0.2052839 0.12721996 -0.099696189 0.042934943 -0.035354588 -0.019892028 0.050539427 0.042121444 -0.027301218 0.053731374 -0.12541839 0.078096144 0.0096173026 -0.15653934 -0.28726736 -0.020003971 -0.23184374 0.026829461 -0.056877036 0.026835984 -0.10744057 0.001273826 -0.12854628 -0.0047456976 0.11130577 -0.19251649 0.23098476 -0.006163009 -0.00062097603 -0.14193591 0.019258806 -0.21856943 -0.020196857 -0.17219913 -0.012149484 -0.039783146 0.082787253 0.064573467 0.031573135 -0.023994204 -0.044975568 0.10386278 0.05305687 -0.18253577 -0.057415161 -0.11553424 -0.086515807 0.20383674 0.044900939 -0.098061778 -0.19438997 -0.21746917 -0.21345752 0.18106681 0.18930365 -0.029331125 -0.077075586 -0.093126267 0.21893641 0.07527642 0.094915383 -0.043331902 0.024363058 -0.11524146 -0.058748618 0.0069524376 0.31991169 -0.24736977 -0.2281718 -0.14959769 -0.059111692 -0.0064627081 -0.018570893 -0.1191324 -0.11239358 0.025956867 0.025369352 -0.033341236 0.026981233 0.057636611 -0.030010745 0.17516327 0.010031659 -0.021789232 -0.073794693 0.050895832 -0.034311462 -0.03165948 -0.055490702 0.065916695 -0.057357855 -0.10382034 -0.06009151 0.054926842 -0.014142301 -0.084349141 0.2280183
459 -0.34105366 0.31844857 -0.19730128 -0.022925567 0.046803538 -0.10101239 -0.11211047 -0.041543581 -0.14455162 -0.075442538 0.080938257 0.053366702 0.047797374 0.0066428389 0.16754261 0.010120663 -0.10823552 -0.11076495 -0.24997179 -0.010018777 0.20577924 0.041278761 0.0037252863 0.0071078693 -0.1614065 -0.086747333 0.061286755 0.073309392 -0.084793568 0.14149006 0.11244022 -0.010800941 0.059199616 -0.24464326 0.13181414 0.22971813 -0.11954838 0.14812198 -0.035611555 -0.075560346 -0.066796973 -0.011256156 0.060888931 -0.22245306 -0.12828574 -0.15740615 0.018696595 -0.15154031 0.065945789 -0.045500487 -0.054270681 -0.055190004 -0.038456563 -0.21818247 -0.089017391 -0.033438858 -0.11732647 0.11739901 0.19922467 -0.049600791 -0.34581789 0.094783001 -0.011292465 0.010374658 -0.1563444 -0.13263436 0.13943893 -0.083066054 -0.09530589 -0.12154275 -0.039270591 0.04913586 0.050712753 0.14651918 -0.2079038 -0.18541072 -0.15591465 -0.11278113 0.18107086 0.1016142 -0.0708903 -0.015177157 -0.22537921 -0.091264397 0.066914819 0.22803801 -0.083149374 0.0078666704 -0.13636033 0.059236769 -0.0070007243 0.015037336 0.19888505 -0.17993528 0.00023393772 -0.13098152 -0.11036374 0.1980492 -0.362497 -0.43264854 -0.32265079 0.011737715 -0.035799108 -0.10646177 -0.057822507 -0.16770576 0.098844305 -0.059677564 0.079479925 0.1077564 0.056040209 0.076096147 0.22413796 0.080454811 0.043692533 0.012989762 0.02443815 -0.11758681 -0.056861628 0.060870633 -0.042857334 -0.16825204 -0.017535241 -0.22585703 -0.048577532 -0.0054712873 -0.18108651 0.0078423154
152 -0.1975414 0.10712997 -0.14663555 -0.054668166 0.089507163 -0.091366 0.036508638 -0.092970356 -0.031330485 0.017577693 0.009774032 0.044821687 0.034820635 -0.15651827 0.14604467 -0.0092892917 0.091839314 0.078048795 -0.072932512 -0.12538289 0.006686368 -0.10940691 0.15491819 0.07413628 0.0073859692 0.014389485 0.01508281 0.017541653 -0.033452317 0.018307213 0.059863016 0.11628958 -0.027921984 -0.078345887 -0.17229736 -0.15320325 -0.0063682999 0.1209698 -0.043508645 0.035231467 0.016495643 -0.057945933 0.026601542 -0.16277967 -0.018438157 -0.20043118 0.025894739 -0.27447063 -0.038025942 0.011493798 -0.064026505 -0.082077406 -0.11919844 -0.054016113 -0.11234183 0.21169662 -0.049384937 0.07729663 -0.05925224 -0.071789309 -0.034133501 0.25821698 -0.032197278 0.14847572 -0.0775114 0.031530641 0.024470266 -0.034053564 0.023320662 -0.2037252 -0.015279505 -0.036569763 -0.030489082 0.15496592 -0.025630424 0.032682728 -0.074747592 -0.049796235 0.27120602 0.031688496 0.067826182 -0.20622206 -0.049751125 0.084694773 0.081417024 0.11494248 -0.087359175 -0.0010252121 0.16332605 0.063023835 0.0058411029 0.023419177 -0.022986908 -0.061241481 0.16997981 -0.083598062 0.074701905 0.2711221 -0.18546633 -0.077682763 -0.32393703 -0.13887151 -0.18705446 -0.12821968 0.072816879 -0.013519648 -0.072829239 -0.0071812803 0.082287185 -0.055425219 -0.10141721 0.056880496 0.1331175 0.078888744 -0.031156443 -0.028765623 -0.026444068 -0.16848142 -0.11184479 -0.030492513 -0.058380526 0.082822874 0.1161752 0.085506596 0.10129417 0.13477148 -0.11560234 0.31302956
232 -0.14475209 0.29429156 -0.094481647 -0.045701094 0.25555176 -0.045939561 0.057614066 -0.036304772 -0.037967894 -0.18866453 -0.02916817 -0.075802118 0.0064154747 -0.016301224 -0.080569468 -0.043213986 0.16192831 -0.016475869 -0.17363878 7.4144104e-05 -0.2125687 -0.044855282 0.0056786952 0.17013584 0.021783737 -0.031082116 0.0082727177 0.044499487 -0.029570123 -0.046437409 0.14565341 0.11061485 0.14098233 -0.2140692 0.020603966 0.071826339 -0.12596598 -0.10985673 -0.0016417317 -0.065151297 -0.046141721 -0.11733594 0.14845663 -0.13700901 -0.2020963 -0.093949974 -0.24709453 -0.12540938 0.03169417 -0.0014778428 0.19382466 0.028569585 -0.18075298 0.016772011 0.077172361 0.21372157 -0.027139515 0.024625748 -0.049633328 0.02736021 0.037339229 0.21118149 -0.19154498 0.12910652 0.0081568304 -0.14931607 0.14875641 -0.029349579 0.16766472 -0.25046074 -0.013388225 -0.15285879 0.11114702 -0.099686921 -0.070310608 0.02646227 0.15749806 -0.17212573 0.0056501185 -0.16346848 0.098059095 -0.054796986 -0.15734425 -0.047376629 0.063033096 -0.034372877 -0.20171738 -0.019425537 -0.019354321 0.0949874 -0.075294636 0.01976257 0.048181593 0.032470554 -0.079300225 -0.20525204 -0.069151111 0.45101824 -0.023005679 -0.20942761 -0.24515276 0.0087744929 -0.12874682 -0.143774 -0.02994075 0.09733662 -0.061455559 -0.10824291 -0.10387688 0.14503628 -0.042933717 0.053358883 0.10971481 -0.079794072 0.24472238 0.17729372 -0.07895267 -0.29622132 0.027531 0.031737909 -0.14249504 0.18097238 0.055192143 0.016599463 0.065038294 0.12980987 -0.092289314 0.2315122
101 -0.073805943 0.18177368 -0.056579821 0.046740543 0.23216638 0.091743343 -0.10828852 -0.12060051 -0.17901824 -0.099575266 0.008394964 -0.049538624 0.098940767 -0.14443725 0.17732754 0.095566563 -0.046130281 -0.053678561 -0.26737139 0.008808434 0.027694734 0.034809187 0.17712736 0.014186283 -0.073311649 0.0050429092 0.13083161 0.0021937757 -0.036918711 0.15272155 0.04132605 0.16917464 0.14988251 -0.075425684 -0.0044636275 0.057065789 -0.050787527 0.14682469 -0.12568064 0.072492793 -0.06889192 -0.047598004 -0.031266682 -0.13533396 -0.10294514 -0.20477435 -0.093064971 -0.32047066 0.04312852 -0.04165728 -0.058127496 -0.099214658 0.04531958 -0.091889612 0.081183188 0.019111168 -0.21769954 0.13682164 0.030006599 0.029603144 -0.14023416 0.093439572 0.070360191 0.052355025 -0.058214903 0.068546295 -0.046324652 -0.063378952 0.011929756 -0.15106997 -0.012885873 0.031136131 -0.15443745 0.13743782 -0.11334424 0.028951621 -0.069532044 -0.20563793 0.18136552 -0.047186181 -0.16019459 -0.19204879 -0.16365577 -0.035534017 -0.099147275 0.19266064 -0.11820175 -0.070438221 0.073265322 0.17507827 0.00030152273 0.010644428 -0.023872748 -0.041008011 0.061532155 0.012017534 -0.081399553 0.31281143 -0.29386085 -0.19882657 -0.23002617 -0.026572656 -0.15196022 -0.26520059 0.024449345 -0.073003165 0.11332486 0.04328825 0.17800325 -0.021171523 0.11207885 -0.07921613 0.20405424 0.018318364 0.013879204 -0.01858557 0.026503451 -0.056911837 -0.037247904 -0.045777611 -0.038132016 0.089742415 0.10361083 -0.029027613 -0.081259981 0.051575657 -0.17897567 0.049841266
209 -0.3102445 0.14337723 -0.18868895 0.091980338 0.069464691 -0.12406021 0.065508038 -0.11709063 0.026162531 -0.049626153 0.084815465 0.034876026 -0.0021097225 -0.12721071 0.077520698 -0.018017367 0.24994645 -0.046576142 -0.24477834 -0.0083810855 0.15502076 -0.073735408 -0.13668826 0.275585 -0.1368577 0.0018165676 -0.10992465 0.042430852 0.032479119 -0.0052999598 0.18912379 0.053849563 0.067251809 0.068606079 -0.085769929 0.091306642 -0.18837346 0.051066808 -0.0047041341 -0.0073562614 -0.019799724 -0.15866594 0.1648975 0.0027499828 -0.13137732 -0.24688224 -0.037342288 -0.052794181 0.0050674519 -0.11872331 -0.071973734 -0.11423586 0.005640788 -0.12924033 0.043306872 0.1842389 -0.068445027 0.097813219 -0.11713455 -0.032057382 0.043261059 0.175814 -0.064125836 0.039780166 -0.17978778 0.13890815 0.055153791 0.087731056 0.010370712 -0.061631482 0.059204318 0.067269988 0.17066509 0.13500312 -0.10256094 -0.14448346 0.058378533 -0.24986319 0.11974363 -0.039130364 -0.10756518 -0.032065548 -0.11165565 -0.12793295 0.02608216 0.12776001 -0.017854409 -0.0019983866 -0.057186935 -0.043220486 -0.015762096 0.044098716 -0.058044363 0.0071964907 -0.054323178 -0.076702058 0.076543614 0.2494754 -0.14868093 0.060411304 -0.16275069 -0.054632016 -0.086360492 0.041153681 0.057609562 0.018619472 -0.13009624 0.15900958 0.040273845 0.12509553 0.0081938002 -0.053892251 0.2301259 0.1461696 -0.036672667 -0.1294809 0.046763219 -0.17701206 -0.078620233 -0.22438103 -0.026091713 0.11842664 -0.049344487 -0.19380331 -0.015252566 -0.056911584 -0.17261203 0.17054126
83 -0.21891572 0.094394006 -0.11542383 -0.072589263 0.23410617 -0.10434694 0.07630419 -0.049256764 -0.10093746 -0.13553111 0.027960714 0.10973692 0.15423667 -0.01792163 0.13706221 -0.051917501 0.081908718 -0.039375726 -0.22445513 0.035366014 -0.10229099 -0.11792432 0.048002914 -0.0074466784 -0.049295094 -0.11348999 -0.036543865 -0.11138792 -0.013061125 0.11671717 0.060991652 -0.13343984 0.11473206 -0.097678863 -0.11099761 -0.024137136 -0.028841684 0.055632871 0.086651325 -0.028554458 0.0023992595 -0.16752543 0.12086446 -0.2431536 -0.18314932 -0.2801159 -0.13026489 -0.14373101 -0.018821949 0.010032121 0.1485019 -0.012820936 0.014543401 -0.051589567 -0.10558687 0.12935765 -0.094059221 0.051099978 -0.092598878 -0.07986778 0.059449658 0.19844949 0.010977211 0.046058878 0.043887712 -0.116974 0.046677854 -0.002526396 0.037890375 -0.047935851 0.11046905 -0.086583845 -0.044889968 -0.038959261 0.035121419 0.16772789 -0.061739314 -0.11506853 0.14611094 -0.17949259 0.063330136 -0.08622697 -0.14354065 -0.012311225 0.10061613 0.026289847 0.010905835 -0.035545595 -0.049375851 0.24956189 -0.046135731 -0.047979854 0.10662186 0.093759194 -0.19247736 -0.22712591 -0.021056535 0.23132065 -0.19051537 -0.20772034 -0.14837882 -0.072571814 -0.016627504 -0.0087144496 0.019972829 0.0036080971 -0.16406733 0.010102944 0.074531928 0.049951524 0.075292356 0.039133467 0.1286163 0.1062388 0.0072238352 0.077746518 -0.081496798 -0.22258268 0.06275478 -0.10063404 -0.072097264 0.13646619 0.19995268 0.096355133 0.014755703 0.082349539 -0.11015863 0.23091649
467 -0.11850473 0.27225062 0.063574523 -0.11574867 0.13993639 -0.1015244 0.089311056 0.011335619 -0.01324161 -0.092020236 0.028824326 0.16195029 0.055885773 -0.098209716 -0.1091017 -0.056549747 0.14131418 -0.073262542 -0.023930078 -0.10164441 0.12798375 -0.1115062 0.19313283 0.021515526 -0.0023249192 0.047068473 -0.15910555 -0.18786843 -0.16115844 -0.015503119 0.13045675 -0.10349545 0.076141484 -0.15940925 -0.06234346 0.057659365 0.23774873 0.15961616 0.20491126 -0.19539315 -0.0315919 -0.079145513 0.06990537 0.03969593 0.050147686 -0.23861574 -0.017619781 -0.056077536 0.019016841 -0.14895561 0.14207046 -0.021801513 0.035297725 -0.033421766 -0.10121933 0.0093823355 -0.17331789 0.095704794 0.05276541 -0.15469152 -0.076101951 0.10811921 -0.018801754 -0.09564586 -0.2438772 0.12735663 0.004928722 0.040508419 0.099437803 -0.048238184 0.035792418 -0.078918457 0.033292722 0.081359304 -0.013873148 -0.049684308 -0.050627965 -0.12507996 -0.084147222 -0.21092039 -0.16653292 -0.14994557 -0.00020906162 -0.092920795 0.0073883631 -0.047438942 -0.22513612 0.073282935 -0.065088376 0.15723595 0.054703232 0.054445088 0.049429856 -0.080850281 0.091813415 -0.031330992 -0.0053804028 0.31867567 -0.091579854 -0.05966315 -0.18236645 -0.053184047 -0.25091836 -0.022700725 -0.076831691 -0.014882202 0.028619921 0.099110998 0.046313055 -0.12564634 0.046259239 -0.095912278 0.10241517 0.17883539 -0.14382297 -0.23934829 -0.059391685 -0.17164615 0.061071455 0.28836152 0.017370287 0.22955522 0.049045563 -0.12741901 -0.09501867 0.21624926 0.099722393 0.23573102
187 -0.18834309 0.17000724 -0.2360217 0.016989985 0.03186534 -0.12728113 0.1210482 -0.11943635 -0.082210861 -0.052155543 -0.086852618 0.11615937 0.1213621 -0.1112485 0.095379479 0.04737661 0.22039975 0.022481835 0.080681145 -0.17806804 0.055335242 -0.029054271 0.073625788 0.15160364 0.093360722 0.072704539 -0.0022938999 -0.20849526 0.067440428 -0.12138589 0.13208848 0.070800997 0.080242708 -0.043413457 -0.032471489 -0.037099652 0.15511408 0.091142699 0.094318554 -0.29925531 0.025813721 -0.057439439 0.17156777 0.010220943 0.15185151 -0.11196375 -0.11489815 -0.099878959 0.062497541 -0.097902976 0.12753877 0.032998744 -0.11977243 -0.042778198 -0.11564999 0.058486775 -0.07661958 0.10564566 -0.1286823 0.005698489 -0.13439721 0.26416865 0.07745149 0.004717032 -0.28666002 -0.05203867 0.064511545 -0.073084369 0.066048317 0.052815508 0.11764674 -0.036371294 0.026804576 -0.057415135 -0.060270194 -0.098880008 -0.12366632 -0.081108138 0.20368674 -0.14652313 -0.19375801 -0.06854739 0.06944865 -0.13871786 0.11011587 -0.071485221 -0.11252058 0.049351752 0.05224631 0.091550589 -0.042479154 0.26630327 0.0015259418 -0.14320017 0.0070721745 -0.048017051 0.081130676 0.1744543 -0.17302686 -0.22304584 -0.31352654 0.054907855 -0.098387241 -0.11167733 -0.049635053 -0.089604989 0.023298852 0.08631593 -0.01877239 0.15152045 0.19014263 0.062734753 0.14200771 0.079363666 -0.079669937 -0.12369882 -0.058028378 -0.21758506 0.13340624 -0.065329306 0.0063296352 0.2284214 0.0031690719 -0.093999974 -0.036421943 0.039472982 0.014744745 0.18153693
174 -0.21089835 0.2092746 -0.22517404 -0.0037984739 0.09877003 -0.15166983 0.082550608 -0.16145745 0.035395253 0.01563035 0.10807125 0.072606608 0.09429314 0.0029123898 0.0098540662 -0.044424858 0.27428705 -0.20660615 -0.31787875 -0.024583854 0.12236311 -0.025700683 -0.023808314 0.26786694 0.056995235 -0.16459636 0.042869259 -0.06226597 -0.12156294 0.0052696816 -0.14529617 0.024385581 0.1551187 -0.09160731 0.008426372 -0.070310429 0.13435017 0.056538086 0.047118615 -0.10473629 0.025986236 -0.26568872 -0.019826079 -0.26196 -0.014670856 -0.3574121 -0.13138267 -0.074964494 0.1773084 0.025984801 -0.023158867 0.00044381266 -0.038944568 -0.2433442 0.07011912 0.10420423 -0.074091077 0.0091462433 -0.10116313 0.056922708 -0.099197358 0.062318929 -0.11861815 0.0157289 -0.047090851 -0.27877972 0.05434297 0.1050907 -0.0097399754 -0.1092745 0.14916705 0.033062089 0.072790779 -0.052897085 0.080229267 -0.096142203 0.044305485 -0.077612616 0.081873104 -0.012543943 -0.16535172 -0.15247262 0.055251114 -0.051645733 -0.062373307 0.11198664 0.11001822 0.069559023 0.0062150224 0.16190708 -0.13849056 -0.033112023 -0.014148563 0.022740193 -0.062047325 -0.2036051 0.094592869 0.10153823 -0.19969109 -0.29164454 -0.22089025 -0.038544308 -0.00020805671 0.12043288 0.089278989 -0.16104613 -0.056869257 -0.020458018 0.2002454 0.02673341 0.047500506 0.081550814 0.01458126 -0.10183427 0.084207021 0.058662396 0.05054244 -0.074789621 0.018552219 -0.06202532 0.001706666 0.079693377 0.059719954 -0.063770935 0.052459057 0.11185262 -0.1232337 0.15870956
373 -0.25311098 0.12341563 -0.096963435 0.0028418123 0.15373455 -0.25390753 0.0543129 0.036116481 -0.007318662 0.019651689 -0.05754951 0.0559844 -0.057968363 -0.25052699 0.13297558 -0.11169681 0.038876668 -0.073786937 -0.1092085 0.21916129 0.22429767 -0.12599625 -0.082650311 0.12341512 -0.096771263 -0.1189094 0.051335886 0.15959032 0.065175138 -0.031494822 0.11768849 0.12193516 0.043553084 0.0055418862 -0.012310637 -0.049673215 0.015619761 -0.031940904 -0.053424526 -0.11179388 -0.007998188 -0.079700939 0.061597876 -0.10135996 -0.15311961 -0.15396322 0.13240403 -0.15277548 0.049623419 0.031161644 -0.036753111 2.440945e-05 -0.091266207 -0.12181402 -0.09179911 0.014961661 -0.067096509 0.091709107 -0.12398046 -0.034408487 0.10557661 0.14564516 0.048286386 0.0013952021 -0.032759577 0.019467628 -0.042733949 -0.062113672 -0.052484594 -0.089742303 -0.013352285 0.10679331 0.096109919 -0.065434583 -0.1320824 -0.046685595 -0.11589221 -0.30717835 0.065217078 -0.0062629324 -0.10844633 0.021928862 -0.21235229 -0.12816401 -0.011976373 0.059137639 0.030792506 -0.08986076 0.057892315 0.2270385 -0.1013928 0.081575833 0.041135494 -0.024884207 -0.12593944 -0.17038582 0.060793303 0.19263533 -0.15800202 -0.13971393 -0.2126666 -0.018891407 -0.052469298 -0.10985105 0.23596972 -0.10063357 -0.1657366 -0.035811748 0.047647305 -0.052193128 -0.012739556 0.010013229 0.15536334 0.011120726 -0.14004524 -0.10761638 -0.10587081 -0.24098518 0.085415944 -0.12816414 -0.010036417 0.066812322 -0.18872261 -0.15356289 -0.10021469 0.0061677485 -0.25406793 0.10781181
9 -0.25346836 0.12947963 -0.035931014 -0.15714549 0.20747645 -0.19847073 0.11580892 0.016543565 -0.13094305 0.070200384 0.0051232488 0.10820389 0.065065108 -0.054864213 -0.023756942 -0.068741791 0.14168595 -0.061521214 -0.19211364 -0.12584603 -0.03507854 -0.056555357 0.14550403 0.010803961 0.011239034 -0.14784148 -0.077753156 -0.10384022 0.047517318 0.016655603 0.10275237 0.042956565 0.18426333 0.081060126 -0.076454021 -0.077398881 -0.11847126 0.11077555 0.0078585334 0.056899134 0.031869933 -0.13884868 0.17044389 -0.12513247 -0.06898798 -0.14288276 -0.037303343 -0.13197576 -0.13849267 -0.018548639 0.08027532 0.10367285 -0.039334387 -0.11031619 -0.051924147 0.17463768 -0.036580648 0.12664843 -0.042943325 -0.12267774 0.0020347175 0.029475531 -0.0109352 0.037432782 -0.10597575 -0.063373342 0.094714783 -0.10374642 0.0084933518 -0.115895 0.11488008 0.1177389 0.13200718 -0.0057780249 0.021661775 0.032958023 0.078775443 -0.16612218 0.087263405 -0.18679616 -0.10594954 -0.015082234 -0.067691624 0.095399804 0.039617248 0.016629413 -0.10033934 0.13054699 0.11183376 0.049336638 -0.10137403 -0.003386189 0.058252618 0.018732695 0.04201242 -0.21799363 -0.039507996 0.38725916 -0.086999483 -0.12746347 -0.32929054 -0.11386434 -0.11438742 0.032325909 0.13999684 -0.094620906 -0.080681786 -0.056819838 0.025135683 0.09744253 -0.0072349366 -0.029989319 0.17058651 0.067659728 -0.12286812 -0.0032768208 -0.068715677 -0.12723827 -0.050203156 -0.072026886 -0.030271709 0.019407053 0.068333015 -0.016880421 0.1082842 0.026879596 -0.13974506 0.34101519
256 -0.19625346 0.12888888 -0.14535187 0.0090439077 0.27772245 -0.11905552 0.049721375 -0.13680603 -0.15537739 -0.090904459 0.071416602 0.028251842 0.043766335 -0.054370478 0.094939597 -0.016129637 0.012846878 -0.10274109 -0.25136903 -0.032950789 0.040100757 -0.096850455 0.15265091 0.026341334 0.048235267 0.04970552 -0.029902851 0.057936195 -0.056978609 0.081948787 0.024019454 0.28707653 0.1450506 -0.043488771 -0.12865828 -0.040619712 0.015376225 -0.023191528 0.026890958 -0.030509286 0.074806169 -0.070123836 0.06791193 -0.065751232 0.057818126 -0.20471527 -0.12725997 -0.21513093 0.0046386239 -0.01321493 0.031043865 -0.049111005 -0.05109939 0.077176563 -0.15244263 0.12334163 -0.083896093 0.066223145 -0.031632613 -0.043530129 0.19044867 -0.026900308 -0.064923666 0.03955362 -0.1135995 0.10449225 0.033736181 -0.091929875 0.021419466 -0.13726795 0.14756873 -0.084906839 -0.026456324 0.097633854 0.063716777 -0.068416007 -0.091763593 -0.15687023 -0.0036847028 0.051303472 -0.17237251 -0.14544275 -0.043770015 0.062682606 0.088597745 0.081537217 -0.085982256 0.042433701 0.21089517 0.2141927 -0.027006526 -0.10771611 -0.095258996 0.067716964 -0.11156023 -0.16389528 -0.0032259524 0.35960251 -0.36916316 -0.027030937 -0.044931579 -0.049175266 -0.16214567 -0.0082818139 -0.023439558 -0.013467256 0.056913111 0.027426904 0.13367392 0.11711071 -0.011323714 -0.071050711 0.11516103 0.14553364 0.030429671 0.05183316 -0.17568342 -0.24575129 -0.012077569 -0.080864392 -0.0069221258 0.01069899 0.037611224 -0.10366326 0.032921191 -0.0023702008 -0.12847975 0.17484015
56 -0.13597202 0.10797156 -0.06652651 -0.061985169 0.14400429 -0.12505026 0.002606045 0.13611946 -0.03710888 -0.17631142 0.00083965337 0.030046215 0.16297194 -0.13890505 0.090654582 0.06123092 0.19115092 -0.1916814 -0.19214062 -0.038503047 0.033540934 -0.05948225 0.025766484 0.073304407 0.0035520305 -0.091470845 0.043713294 0.12475865 0.1098331 -0.056470882 0.18076169 0.25320366 0.047029015 -0.15451534 -0.22520579 0.081778809 -0.032463122 0.17965288 0.081349902 -0.081953198 0.054341834 -0.17069577 0.071410321 -0.20419759 -0.090776861 -0.30704534 0.03902176 -0.076579593 0.16596964 0.10269591 -0.10881619 -0.031459142 -0.02781486 -0.057749189 -0.050276928 0.12429805 -0.052248821 -0.038049661 -0.01124528 -0.066280477 0.02018097 0.20107786 0.1667732 -0.012018738 -0.11234637 -0.069795214 -0.060975976 0.029310983 0.15050198 -0.03580318 -0.087377697 -0.064369172 0.0090342062 0.28898162 -0.0063029043 -0.11878427 -0.11775494 -0.26438877 -0.053263243 -0.26915297 -0.058857538 -0.040818892 0.17576261 -0.083499976 0.10085671 0.13282022 -0.010247246 0.079482876 -0.05571311 0.22196645 -0.0086157406 0.12355997 -0.056962442 -0.023783188 -0.062379315 -0.078650467 -0.073600665 0.27635565 -0.25607923 -0.20080762 -0.08242508 0.049557425 -0.10209011 0.11140144 0.05117527 0.048116118 0.029187702 0.022650491 -0.073263243 0.018217169 0.020572359 0.13285314 -0.019574676 -0.065794386 0.095561855 -0.0030679391 -0.08434242 -0.119047 -0.057668976 -0.034865297 -0.055770945 0.0060822554 0.034696657 0.079538986 0.062419135 0.12323704 -0.049279008 0.27929381
16 -0.044624887 0.062760569 -0.010407161 0.051468596 0.17190489 -0.079334393 -0.002168159 0.085639685 0.044155765 -0.084814131 0.12518091 -0.04559385 -0.058267806 -0.11844718 -0.027483258 -0.088365637 0.064041622 -0.0075302641 -0.24013391 -0.094658606 0.067547254 -0.17387575 0.11971185 0.057419844 -0.040458128 0.048535734 -0.028288439 -0.050006151 0.048047964 0.046491075 0.019151779 0.05950103 0.11274349 -0.15131383 -0.10151279 -0.050159346 -0.037060354 -0.0014522725 -0.018174063 -0.10420497 0.16465859 -0.084456369 0.045857843 -0.1475493 -0.010073344 -0.27151102 -0.019800069 -0.1353776 0.12123002 -0.11647306 0.046898603 -0.036393274 -0.093686767 -0.0079930052 0.016535074 0.10632555 -0.048888355 -0.0078810509 -0.09569364 -0.034424167 0.071235493 0.075287282 0.031020435 0.04072566 -0.19008996 0.07243751 0.051328219 0.015706636 0.015651554 -0.13307525 0.083391525 -0.068238541 0.043321844 0.064718455 0.0015321905 -0.12639539 -0.10993111 -0.23987685 0.05457104 -0.031763867 -0.038825832 -0.12018291 -0.16649464 0.00026165476 0.10123871 0.10975482 -0.0354621 0.084270775 0.038234122 0.22594996 -0.12650014 0.0057203495 0.0039620749 0.10371549 -0.11255978 -0.13771144 0.038398299 0.27900499 -0.20645984 -0.055470396 -0.32249579 -0.0051792581 0.010569475 -0.10976768 0.08587946 -0.030597135 -0.01368377 -0.025215007 0.046502125 -0.029083656 -0.0068786726 -0.11551276 0.15170425 0.03687837 0.096317008 0.0024715115 0.00085093448 -0.23338248 0.024569055 -0.068000682 -0.01906159 0.091590762 0.044636376 0.0028882853 0.0046736966 0.035059944 -0.1388883 0.20517771
255 -0.23401558 0.081641227 -0.071505249 -0.051473062 0.2182945 -0.0014998844 0.10834205 -0.034943942 0.022400158 -0.031433847 0.062020071 0.12606783 0.11365606 -0.030562101 0.090107217 -0.073933206 0.10154227 -0.052432057 -0.12128421 -0.051908862 -0.01763653 -0.054021087 0.014022321 0.099266164 0.02817288 -0.016284155 -0.043803114 -0.00030480421 -0.068852752 0.020712126 0.064802572 0.020827802 0.13829739 -0.077682883 -0.0088885976 -0.016958665 -0.025341786 0.033221301 0.040708601 -0.16495749 0.022382166 -0.1264782 -0.054784603 -0.077684946 -0.005138699 -0.29024792 -0.034124669 -0.15771155 0.13793047 -0.11335838 0.046453722 0.043940179 -0.11716241 -0.091323085 -0.048389919 0.079199553 -0.0507714 -0.0019755871 -0.11606507 -0.10156386 0.047858965 0.076703571 -0.033489536 0.022396641 -0.035558581 -0.063054316 -0.011887273 -0.08401072 0.01076665 -0.010790786 0.086192369 -0.047421139 0.054558728 0.06431707 0.052352291 -0.046398226 0.014334661 -0.17247361 0.12146463 -0.036929224 -0.05813225 -0.071712397 -0.10717796 -0.068510011 0.14811975 0.11553273 -0.081557386 0.08406461 0.11139911 0.12198415 -0.14507075 0.070763946 -0.026593689 0.074667908 -0.063698247 -0.086695522 0.07763923 0.28634524 -0.21854046 -0.11267427 -0.19709633 -0.053524677 -0.10767239 0.010653509 -0.0040459614 0.029632406 -0.0080551514 0.030813469 0.066346407 0.0052204994 -0.09110193 -0.039328609 0.13702054 -0.011449093 -0.049731147 -0.011977719 -0.019666333 -0.21696803 0.099084064 0.0088264151 0.021951504 0.084702581 0.071908973 0.0082239117 -0.069004178 0.098287471 -0.19833039 0.22105208
211 -0.28183764 0.11514981 -0.16583124 0.11938272 0.23241371 -0.084693886 0.14114057 -0.14407697 -0.030264828 0.089510649 -0.063832387 0.039080352 0.11689865 -0.07797759 -0.23724681 0.1300022 0.12613235 -0.17840603 -0.011024922 0.13629217 0.047209095 0.12037592 0.095033884 0.23413555 -0.090419009 -0.017815424 0.18636857 -0.21689244 0.19433352 0.1280738 0.14910622 -0.077009723 -0.083684653 -0.44398311 0.087070599 0.14010903 -0.087822847 0.11852781 -0.039191939 -0.12179969 0.036007151 0.0066250167 0.1671661 -0.23553191 -0.069224373 -0.24887474 0.020492669 -0.083383419 0.049151622 -0.054923445 0.23660396 -0.15236172 -0.15860933 0.021164417 -0.015132497 0.27428707 -0.10728168 0.1245497 -0.088997513 0.0098050646 0.21296978 0.17196681 0.19360366 -0.063011728 -0.15014872 -0.072055556 0.059042126 0.16265541 0.015978035 0.084891543 0.084287688 -0.027147917 0.23772448 -0.070064932 -0.20345187 -0.2576403 0.22038694 -0.036152024 0.20676653 0.070293017 -0.11512749 -0.073980488 -0.12852192 0.10496392 -0.12696201 -0.27798772 0.13798305 0.025037376 0.056828149 0.070059136 -0.13289787 0.21022029 0.18686561 -0.04044586 0.087415591 0.086626627 -0.14212373 0.17847131 -0.16626066 -0.34360358 -0.21350731 0.20525323 -0.11253309 -0.025574654 0.043792389 -0.058486577 0.21915597 0.14862779 0.17134364 0.031862769 -0.04401888 0.083605431 0.090187117 0.06805148 -0.027962871 0.088989817 -0.03465407 -0.086843029 -0.15265092 -0.17398795 0.099414498 0.20422737 0.087996535 -0.27829221 0.050850727 -0.23973979 0.070399664 0.2952204
77 -0.11459611 0.22142476 -0.04766475 -0.025071515 0.24477482 -0.12222347 0.035542391 -0.026104603 -0.036815654 -0.059837967 -0.023488278 0.063059561 0.031223258 -0.30705747 0.097390495 -0.28763071 0.20253922 -0.0067489338 -0.25363657 0.10034182 0.001473231 -0.15279542 0.0467996 0.075685248 0.0048385761 -0.012840994 -0.036012601 0.14501554 0.092538774 -0.10632151 0.042322278 0.17923294 0.080889449 -0.038196858 -0.027202761 -0.064137362 -0.15080492 0.048221976 0.021776864 -0.039298393 0.04450047 -0.17329596 -0.034717683 -0.24241176 -0.026129428 -0.15867771 0.012266389 -0.19340278 0.067361087 -0.04116286 -0.0015771312 0.077281184 -0.15410234 0.02945303 -0.050517689 0.088081136 -0.070273466 0.13186732 -0.0076430338 0.040985383 -0.043858014 0.02829019 -0.055150822 -0.040345419 0.03243836 0.083610013 0.033850875 -0.070782594 0.086127169 -0.08507102 0.1551525 0.11363194 -0.1074757 -0.01402397 0.093063153 -0.045311909 -0.072662346 -0.11786456 -0.024742378 0.10189018 -0.13425653 -0.10379513 -0.14284402 0.042467482 0.07693097 0.017090378 -0.0079814512 0.047483098 0.047908701 0.16160773 -0.063133173 0.046605155 0.076984905 0.095354676 -0.12688184 -0.11771326 0.072134562 0.16888183 -0.27342889 -0.23437585 -0.23983161 -0.051329684 -0.20660231 0.04944592 0.06712506 0.038336895 -0.098368749 -0.081142217 -0.029962119 -0.078742929 0.054276947 -0.12542526 0.05475302 -0.07209371 -0.030118771 -0.044211578 -0.04186644 -0.17877182 0.014523995 -0.052617162 -0.15280643 0.092354544 -0.0066661448 -0.044262547 -0.061537679 0.091733046 -0.32040036 0.19451769
249 -0.21496288 0.13962036 0.089347497 -0.13692866 0.062140483 -0.29613417 -0.0075148931 -0.038545296 0.063434795 -0.12924574 -0.17612651 -0.15011549 0.17091985 -0.20322132 0.019633254 0.064915247 0.055314563 0.096806273 -0.062666535 -0.0024663408 0.0043255626 0.0023552354 0.13353784 0.0093099875 0.11836353 -0.19613402 -0.11605322 0.30232492 -0.066010602 -0.0041713617 0.084531464 0.11329645 -0.022137145 -0.16382274 -0.301696 -0.04357959 -0.021486409 -0.080790244 -0.018988179 -0.16458896 0.16445746 -0.096031055 -0.064272322 0.061883762 0.14477539 -0.051494837 -0.05025804 -0.14368345 -0.14696412 -0.081576362 0.055843256 -0.014333657 -0.20606053 -0.21836106 0.083668441 0.12074949 -0.035411038 0.13126594 -0.12142314 -0.14956412 0.044635788 0.0840391 -0.058222488 -0.11253744 -0.18088779 -0.091871455 -0.0092769964 0.17754443 0.086832449 -0.14439647 0.14423296 0.099567562 -0.081487037 0.21919794 -0.055050641 0.067273632 0.14241971 -0.35019913 0.10649621 0.020277878 -0.2951332 0.088196412 0.020108104 -0.035981886 0.019673694 0.19415927 0.084705763 -0.05176032 0.023472143 0.1296383 0.0070386329 0.025549388 -0.27651319 -0.015733678 0.15699923 -0.1279837 -0.12822048 0.33127698 -0.23961398 -0.087320045 -0.098104931 -0.13758174 -0.22169915 -0.033507023 0.13167644 0.0042631361 -0.22551601 -0.015598845 0.06678763 0.1164617 0.09793444 -0.043053918 0.18199176 0.14335221 -0.036035519 -0.14708425 -0.18384683 -0.20907751 0.10227185 0.16832612 0.17857291 -0.010308276 0.058901154 -0.022712391 -0.011856281 0.11008739 0.044489317 0.27793524
35 -0.16443188 0.15096536 -0.047147036 -0.018297315 0.188329 -0.13905933 0.059518516 -0.132153 0.069194496 -0.034969125 0.10968918 0.072788276 0.020071054 -0.16267461 0.092239067 -0.12535504 0.093973748 -0.057785299 -0.24911644 -0.037470393 0.13460161 -0.062768802 0.18617783 0.00032705688 -0.055835743 -0.015681002 -0.037074141 0.03937627 0.028903389 -0.073489107 0.13732633 0.045806527 0.073043764 -0.06490349 -0.17253874 -0.024969038 -0.079093963 0.039194725 -0.056537971 -0.10081872 0.057406791 -0.076332137 0.061489191 -0.054917157 -0.078786835 -0.2805295 0.053067196 -0.15115821 0.11622263 -0.0041391165 0.018181082 0.00090818095 -0.065207824 -0.087430023 -0.10383255 0.090743534 -0.095481589 0.094572306 0.022906197 -0.016647059 -0.027240256 0.075577654 0.023689346 0.059848353 -0.023199964 0.067006946 0.024674989 -0.045008704 -0.032074779 -0.13187501 0.09585204 -0.016080057 0.053191889 0.03146974 0.023311904 -0.00571001 -0.017005036 -0.072281472 0.03360267 0.023885267 -0.10841801 -0.13149141 -0.065675005 0.0056110863 -0.0098251747 0.097943582 -0.029358322 0.15600248 0.020145463 0.17024444 -0.13449782 -0.043932121 0.040057216 0.039504565 -0.11663105 -0.1224712 0.12658881 0.27594322 -0.24285048 -0.13698576 -0.30877334 -0.038797341 0.067880549 -0.041041609 0.1866342 -0.04011998 -0.060936067 0.088490866 0.084443033 -0.022347992 -0.042668488 -0.23602127 0.11982962 0.03346356 0.070713103 -0.065648749 -0.14196008 -0.26874119 -0.014369608 -0.047194041 -0.028583622 0.044482082 0.095616899 -0.01773968 -0.11325898 0.047497801 -0.068100892 0.16110715
427 -0.12937687 0.14430632 -0.1098224 0.010402361 0.16107722 -0.071247436 0.027973013 -0.046710115 -0.0148246 -0.073513418 0.059381813 -0.0041334988 0.060172863 -0.073001444 0.084666029 -0.022032518 0.16887456 -0.065465011 -0.25468907 -0.062198121 -0.008788649 -0.10786414 0.11274029 0.01680851 -0.10310777 0.02389475 -0.012483709 -0.058033012 -0.073905602 0.0087207081 0.16875514 0.17185825 0.12319798 -0.10521558 -0.10387844 -0.026772032 -0.070302904 0.02546972 -0.01809795 -0.053457722 0.080203086 -0.16013442 -0.021748014 -0.12523185 -0.049771164 -0.28731531 -0.035029128 -0.13155909 0.0201423 -0.020382239 -0.035739392 -0.075215802 0.052049354 -0.071217611 -0.021687748 0.048451271 -0.066279911 -0.027199686 -0.071436934 -0.020413389 -0.033217996 0.13721502 -0.0027874641 -0.020546921 -0.15755269 -0.029242795 0.015676085 -0.083969437 0.2036268 -0.17053472 0.061658338 -0.082150847 0.11543667 0.075296119 0.0060686753 -0.057813749 -0.047696188 -0.13039775 0.10588863 0.024566682 -0.091122493 -0.15482773 -0.037460916 -0.026993977 0.061835803 0.095290124 -0.02832156 0.057577826 0.027858639 0.15558237 -0.046860125 -0.052476529 -0.096292816 -0.039023336 -0.052000389 -0.14681344 0.05084819 0.24648131 -0.27165553 -0.071529165 -0.21252774 -0.070251249 -0.010028883 0.0037529022 0.075329475 -0.011840831 -0.0053119645 -0.044673167 0.091933586 0.039968289 -0.046159718 -0.073086523 0.16574259 0.028831337 0.0076796482 0.021031713 -0.16085373 -0.12600942 -0.033257838 -0.021806637 0.016248778 0.009854218 0.080436498 0.024932615 -0.068203732 -0.013003659 -0.09729968 0.21933591
486 -0.13295314 0.026647799 -0.062472481 -0.015944256 0.23640987 -0.034493536 0.098706923 -0.079341546 -0.0079681268 -0.041898079 0.10280045 -0.014797394 0.031332459 -0.095595211 0.084107332 -0.066495135 0.06477052 -0.028214468 -0.14321533 -0.074418657 0.097332157 -0.10878351 0.13109949 0.078748785 -0.01813967 -0.059985928 -0.049286153 -0.044957906 0.006960588 0.01524879 0.043915711 0.0463835 0.080049969 -0.13106032 0.022886118 -0.010502881 -0.047583729 -0.045277212 0.11620018 -0.12396529 0.018268812 -0.037890784 0.062049858 -0.12183326 0.026594162 -0.34535781 0.069073915 -0.15818197 0.021543978 -0.10323157 0.070621148 -0.0072018765 -0.042779531 -0.090536788 -0.092842668 0.097246677 -0.13458394 0.13733442 -0.031098073 -0.0062629962 -0.060318019 0.022037253 0.034635 0.024450541 -0.062645838 0.0039280136 0.039296582 -0.21325654 0.15489806 -0.084847547 0.073851101 -0.10128068 0.010567227 0.08335273 -0.010429593 0.037746862 -0.078185931 -0.19388947 0.13777402 0.095511891 -0.019004073 -0.099037267 -0.067202762 -0.0038659228 0.020627376 0.041614406 -0.089141384 -0.0042041233 0.04418838 0.19037929 -0.054128129 0.069493584 -0.024846008 0.11271074 0.026713166 -0.12874466 0.062902719 0.25637162 -0.2699593 -0.015339585 -0.26142868 -0.054415271 -0.081893392 0.030735247 0.053407691 -0.058671732 -0.030894428 0.020256441 0.095310219 -0.041078862 -0.068948545 0.050982427 0.15428825 0.070329629 -0.1106276 0.03468094 -0.07291162 -0.24179944 0.045123123 -0.059921503 -0.064777993 0.03290391 0.10049387 0.032538131 -0.029959993 0.097680911 -0.17895818 0.22274196
393 -0.080029763 0.13252844 -0.16911043 -0.10253665 0.07521075 -0.14046706 -0.026443051 -0.082580611 -0.07706546 -0.033654671 -0.0066699572 0.096691154 0.046119694 -0.13218068 0.020776417 -0.071691208 0.10555942 -0.045971442 -0.15127923 -0.16403526 0.082301721 0.032833625 0.21220599 0.1426045 0.049625691 0.027576268 -0.1538213 -0.22734492 -0.14650193 -0.12633167 0.15878047 0.13769662 0.14676729 -0.028437555 -0.013722031 -0.049281776 -0.096626066 -0.09466745 0.10929655 -0.13402973 0.0082509546 -0.19781855 0.13080268 -0.067781635 0.09604229 -0.24069966 0.044861421 -0.13359384 0.14813037 0.023030292 0.14198229 -0.036262281 -0.026026724 0.036761682 -0.081206605 0.14484558 -0.00067388429 0.099792197 0.0085455226 0.094345793 0.048702676 0.25874352 -0.098259293 0.034199491 -0.0045261853 0.058499169 0.024005096 -0.11816765 -0.0741098 0.034948908 0.070372716 -0.080249898 0.10633123 0.035573095 -0.0054533272 -0.014742512 0.072504088 -0.27771994 0.021654893 -0.10791975 -0.051483639 -0.10319383 0.0042881062 -0.080746368 0.098981634 0.044049267 -0.10785893 0.062358309 0.18247734 0.067635447 -0.18265967 -0.046173882 0.0036008402 0.064786732 0.032822967 -0.16201933 -0.071027815 0.22219816 -0.29877263 -0.10624588 -0.24870002 -0.1165612 -0.12172365 -0.058976661 -0.07342682 0.012933667 -0.10584062 0.060450856 -0.030141987 -0.061530229 0.05269872 -0.10507789 0.11237239 0.01583156 -0.14534011 -0.071211904 -0.13971087 -0.21662775 -0.09363804 0.021685446 -0.05648588 -0.0048782094 0.040693652 -0.077437401 0.15062293 0.175163 -0.12603998 0.32496938
75 -0.18131365 0.12592728 -0.086575657 -0.063743882 0.20082638 -0.042067204 -0.0021023937 -0.088466957 0.039159458 0.025955476 0.12386781 0.048496034 0.0087921834 -0.066671841 0.12855005 -0.0739832 0.11760511 -0.041400816 -0.1477492 -0.061336465 0.14148328 -0.11853008 0.12940831 0.040723402 -0.083939411 0.032933619 -0.030636227 0.0029336119 -0.0077684098 -0.083448008 0.11767086 0.086635329 0.19761717 -0.030788593 0.0078374231 -0.12377354 -0.10187676 0.026779091 -0.002574459 -0.01514354 0.044224635 -0.12173326 0.065269001 -0.020172343 0.028569831 -0.25396457 -0.0021041676 -0.14773554 0.032422625 -0.15745334 0.01827964 0.030821098 -0.048867017 -0.025745124 -0.041778777 0.14117318 -0.024836771 0.042525247 -0.035494257 -0.090076096 0.067415863 0.060898967 -0.052011743 -0.011276041 -0.14001051 -0.013590592 0.067431338 0.0019228546 0.05959123 -0.09396939 0.15382598 0.017922116 0.1245729 0.063293301 0.0099065155 -0.019716168 -0.032276496 -0.24795535 0.065772735 0.032545634 -0.079939745 -0.10199413 -0.11827521 0.0087635666 0.13617414 0.13706401 -0.020468783 0.076931842 0.082950108 0.16405448 -0.068212129 -0.017139615 0.04757674 0.0078234086 -0.13299793 -0.065846086 0.069952331 0.30431068 -0.22253476 -0.075035185 -0.22530405 -0.040914271 -0.10579529 -0.066944733 0.10048442 -0.025190979 0.021765918 0.018130383 0.093198813 -0.022354929 -0.078479744 -0.033343848 0.09542422 0.033725776 0.0048998171 -0.062591054 -0.098834746 -0.17065164 0.051574647 -0.080325261 0.0013043935 0.087567084 0.03914668 0.022821702 0.058978595 0.11701605 -0.19708355 0.25443077
221 -0.18136342 0.052120462 -0.051155671 -0.014072616 0.15308134 -0.088331655 0.098570801 -0.03252925 0.0042550638 -0.02837849 0.061577704 -0.010905037 -0.01054745 -0.081284791 0.046588626 -0.008063484 0.16446236 0.008355665 -0.23829323 -0.086985148 0.069644339 -0.12264096 0.10816272 0.089789532 -0.016589364 -0.029222811 -0.024691386 -0.073453203 -0.027279601 -0.03837657 0.11179473 0.10612895 0.083210401 -0.1756437 -0.030947136 -0.097932063 0.018389871 0.036772948 0.023982493 -0.068803884 0.02124799 -0.16351113 0.055897087 -0.18819071 0.064600743 -0.30032647 0.013049106 -0.11607514 0.072051689 -0.040332161 0.010402438 -0.019714862 -0.078161135 0.0030173741 -0.018501217 0.065766737 -0.066390686 0.082178995 0.0024600774 -0.051107276 0.060271922 0.052387804 -0.035453074 -0.022337636 -0.1487933 0.067435108 -0.032787353 -0.069846973 0.049599428 -0.030278362 0.12757029 -0.048440952 0.094109587 0.068794534 0.0028071487 -0.07984481 -0.048289098 -0.11851791 0.19413629 0.090156503 -0.056117307 -0.13969557 0.060726546 -0.031687506 0.12077103 0.12410279 -0.085755125 -0.0053134649 0.15408935 0.22398081 0.017918259 -0.15533882 0.063854717 0.046560396 -0.10554467 -0.10489712 0.075236537 0.2014835 -0.17006268 -0.091578409 -0.26841414 0.0091249207 -0.086038195 -0.058999814 0.14340925 -0.12148613 0.073685892 0.048816666 0.09685199 0.044695139 -0.050417542 -0.048681445 0.079374671 0.11341174 -0.083251983 -0.036380839 -0.017501302 -0.24696083 0.00089826144 -0.13143843 -0.057696238 -0.030469397 -0.029363366 0.097133368 -0.0028817269 0.11383778 -0.19886075 0.23534882
137 -0.25435659 0.060274944 -0.061005123 -0.052961946 0.16313186 0.0048353025 0.0023415501 -0.14487836 -0.044982158 -0.014444467 0.039253268 0.031908087 -0.011620008 -0.075468428 0.07878942 -0.16640444 0.16250777 -0.1316978 -0.24152906 0.098687544 0.0076935636 -0.097691789 0.075138859 0.043172818 0.031236589 0.031264137 0.023971852 -0.10284895 0.028321652 0.044689089 0.087518647 0.17869431 0.077980116 -0.1150879 -0.002918042 -0.02701398 -0.075779781 0.044580933 0.058023486 -0.058370583 0.098468088 -0.11025829 0.07794255 -0.071235396 0.010216349 -0.30219746 -0.0094098309 -0.05908709 -0.045851439 -0.03752619 0.014315899 0.013638216 -0.071764767 -0.050626155 -0.086832196 0.12198168 -0.15920074 0.15333812 -0.04936026 -0.10330284 0.098949194 0.065669805 0.075841628 -0.046826597 -0.15042427 0.10538175 -0.05256645 -0.050302368 0.081066057 -0.05557625 0.099823438 -0.12991938 -0.019118724 0.10307705 0.04810423 -0.016170738 -0.10614846 -0.24484491 0.14048892 -0.0029284488 -0.016718164 0.038016114 -0.13367814 -0.011117795 0.14490043 0.15447579 -0.0029175992 0.038228866 0.069995895 0.20113932 -0.07224685 -0.084820099 -0.061842412 0.052234065 -0.022238182 -0.086477473 0.071053617 0.17175052 -0.27285951 -0.092280693 -0.20273331 -0.059408419 -0.083208375 -0.09221074 0.13436438 0.0042321971 0.032247748 -0.057123259 0.10465295 0.052667417 -0.019606579 -0.086384095 0.12602811 0.012126921 -0.063971594 -0.010622048 -0.093053788 -0.18661377 -0.032049011 -0.032750774 -0.021254655 0.065785587 0.016865714 0.025273133 -0.013470577 0.042260423 -0.14672665 0.21051407
468 -0.1216795 0.094638303 -0.10502964 -0.083895318 0.12449102 -0.1292813 -0.049676515 0.052855097 -0.077021495 0.007039797 0.13641311 0.025808616 0.022313075 -0.1183825 -0.024321493 -0.0057872473 0.060752537 -0.065906167 -0.15569901 0.038786154 0.038821444 -0.063344069 0.1576286 0.21400517 -0.08642704 -0.052811235 -0.041300468 0.012212694 0.028259359 -0.090099283 0.039018814 0.062577836 0.064431608 -0.032776389 -0.092590749 0.061591923 -0.057256091 0.10657614 0.037369698 -0.077127367 0.086081021 -0.10129796 0.041625425 -0.098332077 0.030775553 -0.2952297 0.053534839 -0.13017665 0.072365239 -0.018169783 0.079510398 -0.069589585 -0.11961509 -0.17741747 -0.12757623 0.07624653 -0.054175865 0.13157997 -0.016057676 -0.011763173 0.014393974 0.070032634 -0.012400966 0.045188908 -0.13924418 0.020612599 0.041543894 -0.01454981 0.059257753 -0.10704497 0.077536829 -0.090257801 -0.073754981 0.11014047 -0.0072868471 -0.011329813 -0.054742169 -0.15845832 0.12016181 -0.0095028812 -0.065800034 -0.10948887 -0.042930543 0.060656913 0.096608259 0.05050892 -0.062861197 0.08587753 -0.071222045 0.1673438 -0.072151482 0.014057118 0.0015293814 0.020032337 -0.13263206 -0.11330758 0.019390715 0.26147419 -0.262328 -0.10078383 -0.17002048 -0.091347255 -0.023660215 -0.080374561 0.0047925869 -0.028684651 0.041468687 0.076560579 0.083258539 -0.011488889 -0.060054805 -0.11592676 0.10581386 0.050787657 0.063357264 -0.040911973 -0.11011492 -0.25684553 0.099760458 -0.14593443 -0.033755224 0.065246999 0.077816792 -0.036656607 -0.078288816 0.056424513 -0.20683122 0.2466605
102 -0.10922941 0.10364198 -0.1637305 -0.049396906 0.19225787 0.015879638 0.032762337 -0.14479131 0.015926497 -0.021945342 0.12606008 0.10750646 0.0082876533 -0.16654879 0.15040779 -0.012384506 0.10652529 -0.0091593741 -0.22576754 0.036718111 0.10808962 -0.11398188 0.024975332 0.10803959 -0.059493665 -0.047561329 0.0075648888 -0.043294597 -0.044178493 -0.013681078 0.048444808 0.02769796 0.14085126 -0.099843092 -0.033741076 -0.017686961 -0.11343939 0.11292293 -0.023585767 -0.15179673 -0.02454148 -0.072110564 0.072609693 -0.080161139 0.032633167 -0.20736487 0.084733143 -0.2007847 0.024483424 -0.047009692 -0.069909021 0.091625787 -0.055223219 -0.062550522 -0.071758129 0.038971387 -0.011852739 0.08085759 -0.052933883 -0.10246392 0.089040942 0.18171279 0.086506434 0.13609076 -0.088926859 0.06223537 0.067933775 0.02011863 0.04605975 0.002293149 0.023130171 0.099113367 0.045128088 0.050437938 -0.011665707 0.056866817 -0.013286554 -0.2322963 0.091089718 -0.047101125 -0.0047080284 -0.11339602 -0.06340991 -0.059643678 0.046900574 0.074998654 0.015964322 0.076419137 0.14776611 0.1929217 -0.12989885 -0.020159261 0.0083124265 0.060533848 -0.070548885 -0.068915077 0.038580768 0.29978547 -0.14817002 -0.12745003 -0.32305011 -0.13240732 0.017187459 0.042988241 0.091166742 -0.11533885 -0.032265257 0.015597771 0.193005 0.017843083 -0.0040547936 -0.17839037 0.091393985 0.067615181 0.0055039162 0.0019769268 -0.074995793 -0.17096564 -0.064814612 -0.17736921 -0.016704844 -0.042011227 -0.018273914 -0.026293639 0.0037135088 -0.00028561364 -0.1555206 0.19216587
196 -0.12644069 0.14923184 0.029035863 -0.096446723 0.12197538 -0.066794634 0.031174256 0.0005434209 0.08146894 0.080930121 0.11855286 0.075717248 0.083200164 -0.12009712 0.030898776 -0.012830609 0.1690782 -0.04921905 -0.17743918 -0.060289472 0.042468932 -0.15821809 0.072256215 0.059042301 -0.037057292 0.011370543 -0.025570873 -0.081283994 0.020566121 -0.03510059 0.12241197 0.024450891 0.10084102 -0.071088806 -0.11135208 -0.05956804 -0.14971836 0.025986936 -0.14058703 -0.016186871 -0.0041552791 -0.12818879 0.037762746 0.0051949369 -0.019175805 -0.34364745 0.049984239 -0.17877571 0.098658383 -0.10688275 0.06668967 -0.057235934 0.018413348 -0.069282733 -0.014812082 -0.0068560252 -0.03954953 0.062340878 -0.10676102 -0.065648116 0.032492246 0.063368268 0.11763552 -0.011357521 -0.22827041 -0.0080970665 0.047722794 -0.038709372 0.14247765 -0.055579677 0.051201515 -0.067223266 0.14061923 0.0031393608 0.039030612 -0.046169087 -0.039235611 -0.09779492 0.18223834 0.01434016 -0.0007055013 -0.13093315 -0.087560505 -0.014906571 0.10641366 0.12561426 0.015470037 0.04062942 0.084967844 0.11340733 -0.076671116 0.021200737 -0.026016345 0.051571462 -0.14737427 -0.14080831 0.096235633 0.25704592 -0.17148675 -0.095574595 -0.27361768 -0.035346385 -0.083089508 0.023334853 0.12855914 -0.018155355 -0.047870331 -0.0061437991 0.084889904 0.061362557 -0.039082371 -0.08232867 0.12220576 0.11624156 -0.057829749 0.028553722 -0.006553458 -0.22127059 -0.036526944 -0.10225657 -0.061205167 0.094033539 -0.0032357408 -0.033286203 0.011379475 0.1528277 -0.10500603 0.23015229
135 -0.1288808 0.11732931 -0.22598036 0.061266627 0.064742997 -0.0088007627 0.081437297 -0.068388253 0.16530354 -0.11152535 0.13980855 0.0014814348 0.0018724503 -0.1330691 -0.031683654 -0.13384731 0.2189074 -0.021774676 -0.13180786 -0.02694881 0.063997328 -0.034822717 0.11560441 0.24799451 -0.057789966 -0.066371545 -0.034538127 0.050901029 -0.13537429 0.038020324 0.11545189 0.14081633 0.049186256 -0.12655765 -0.096134156 -0.071530879 -0.022728261 -0.06650009 0.065840431 -0.04955484 0.013969334 -0.14950712 0.0085847247 -0.13238458 -0.047480959 -0.33358747 -0.037696108 -0.099073589 -0.023651462 -0.047400836 -0.00050224562 -0.09673664 -0.053312015 -0.14451334 0.037780244 0.12690742 0.10103866 0.066496938 -0.1289459 -0.010793296 0.049206398 0.14453934 0.051869333 0.045756646 -0.16401719 -0.0019686739 0.099688202 0.0078227101 0.093746625 -0.079310842 0.11093853 0.027432743 -0.010264209 0.106148 -0.030288476 -0.021205807 -0.074792333 -0.17751428 0.1268643 0.0065097944 -0.15740891 -0.089617081 -0.13275969 -0.11968802 0.071504883 0.13815671 -0.078052476 -0.068447918 -0.02955579 0.11891197 0.030543445 -0.015306527 -0.034655515 0.02306398 -0.02040254 -0.066732213 0.16729182 0.18938427 -0.1711743 -0.081250921 -0.15022087 -0.001458373 -0.10038516 -0.11987582 0.041288197 0.0043462515 0.026155135 -0.010807593 0.11955044 0.078146487 -0.021000084 0.021463705 0.1940916 0.10563727 -0.059419792 -0.037200317 -0.00059555919 -0.057806376 -0.086516656 -0.14611818 -0.020663254 0.19997309 -0.013404389 -0.0071752341 -0.1377764 0.093138911 -0.11277983 0.20949629
264 -0.15811706 0.1241148 -0.088232078 -0.097752333 0.24392891 -0.064639263 -0.033493649 -0.062085073 -0.047684062 0.012455385 0.057458788 0.18543875 0.065494955 -0.10411063 0.045781609 -0.026104337 0.071124427 -0.046112206 -0.090888537 -0.015007615 0.071408674 -0.12774463 0.12727734 0.0072154142 -0.073924333 0.082936227 0.032904819 0.0078726029 0.036541581 -0.028754469 0.046000514 0.067270413 0.1011282 -0.018675743 -0.18413293 -0.0026231052 -0.090868711 0.025940374 0.048618477 -0.072939277 -0.048382238 -0.22001888 0.053361475 -0.12410125 -0.011505051 -0.29217166 0.059323236 -0.08573737 0.064698078 -0.069256298 0.038723033 0.011380358 -0.093934469 -0.059929572 -0.084878288 0.048488811 -0.066239052 0.044422712 -0.01696405 -0.094796784 0.05447368 0.16980751 0.070899613 0.10208452 -0.084483333 0.015757386 0.061308183 -0.0059755119 0.087984264 -0.08586511 0.085793123 0.017873125 0.029220551 0.051811993 0.0060553169 0.01093563 -0.048117861 -0.12805393 0.14580573 -0.010964394 0.051941611 -0.050738651 -0.050515499 -0.0082699684 0.052305363 0.049246725 -0.030497072 0.037298746 0.12756196 0.20115398 -0.046564549 0.036277879 0.017555095 0.16999523 -0.025175853 -0.05327471 -0.0091815125 0.2696481 -0.2053005 -0.03897424 -0.26856032 -0.044559393 -0.035666831 -0.030758966 0.14086688 -0.15094404 -0.064825453 0.021033688 0.083661824 -0.022948574 0.058907177 -0.029653635 0.061708689 0.096816517 -0.010089634 0.064291283 -0.015562335 -0.24068592 0.062352035 -0.0059992396 -0.012367831 0.029763617 -0.037213296 0.048462089 -0.045754615 0.094145022 -0.20332238 0.27359906
131 -0.15090549 0.13685232 -0.06229081 -0.037596643 0.26985365 -0.022798592 0.11968614 -0.09610264 0.10373718 -0.11426661 0.061921421 -0.032063492 0.11013293 -0.11421079 0.09971033 -0.02690451 0.084238037 -0.085250333 -0.12561123 -0.084199257 -0.021663981 -0.078411646 0.12720963 0.086487614 0.042215999 -3.9871091e-05 0.018851448 0.019768737 -0.096234307 0.016929433 0.094185211 0.15335628 0.14622472 -0.06370125 -0.066623509 0.0098286755 -0.13683333 0.075367905 0.070673831 -0.017202398 0.026812686 -0.10894249 0.040843952 -0.14281911 -0.019214129 -0.23605999 -0.0518778 -0.11777471 -0.018997442 -0.064511113 0.0070384354 0.0093164481 -0.046976279 -0.0023385754 -0.0084925974 0.078540564 -0.068464696 0.061736695 -0.051120322 -0.097338036 0.016845502 0.17896272 0.032315977 0.028912907 -0.19281352 -0.051209982 0.17025457 -0.10576446 0.1137147 -0.0052330014 0.1465946 -0.084314734 0.10561141 0.099339262 -0.072503589 -0.030631378 -0.068575233 -0.19400509 0.094896458 0.079240859 -0.12545218 -0.078495584 -0.083625823 -0.043029994 0.084715016 0.11026321 0.0098036472 0.028451037 0.055355355 0.17533258 -0.14254533 -0.0060084271 -0.071807645 0.021863429 -0.11843907 -0.11535102 0.09075366 0.23807447 -0.26056331 -0.14709784 -0.16016829 -0.17355369 -0.1314932 -0.0027819551 0.039136346 -0.10008413 -0.037700336 -0.030571826 0.080026463 0.017450908 0.031177297 -0.11826995 0.1695794 -0.018073758 0.037941355 0.033470232 -0.066502102 -0.15893351 0.11722852 -0.12443642 0.064720504 0.052253235 -0.0024847167 -0.071275599 -0.064447649 0.065221943 -0.081176996 0.22075608
399 -0.22012159 0.13193406 -0.11750393 -0.09451741 0.15600546 0.0011998343 -0.013569691 -0.05296874 0.062993258 -0.057306547 0.071074486 0.0437418 -0.054359123 -0.075520754 0.047485277 -0.024605231 0.16713318 -0.099815205 -0.20442933 -0.16515492 0.11676598 -0.078337915 0.023723984 0.091410778 0.0037787608 0.0085751088 0.0076777278 -0.04547802 0.026891747 -0.060011785 0.14873239 0.090363048 0.083407566 -0.13887939 0.026451407 0.027084917 -0.069857456 0.087256365 -0.028318372 -0.054079395 -0.044699579 -0.19824916 0.1636925 -0.14758499 0.0064835004 -0.17951992 0.043620564 -0.20137018 0.097131677 -0.13115026 -0.011108485 -0.10243761 -0.031866778 0.037810255 -0.10812928 0.049746484 -0.081142448 0.013741427 -0.00083540124 -0.11672816 -0.0017241844 0.12086423 0.071077324 0.083384588 -0.1225256 0.014920254 0.10405055 -0.06068005 0.082835272 -0.099677257 0.0097131552 -0.05901777 0.066449471 0.12559363 0.03419403 -0.0039220173 0.048950765 -0.16493435 0.14019513 0.002480319 0.028814932 -0.14679165 0.00017540882 0.032598853 0.072400026 0.13786207 -0.12858206 0.06299457 0.060024217 0.14360113 -0.10769655 0.039290097 -0.012298816 0.076843657 -0.021601783 -0.081619829 -0.016460424 0.18843226 -0.18072762 -0.038987871 -0.16735786 -0.049541775 -0.046853341 0.023389386 0.099859126 -0.027642867 -0.0011479546 0.10844093 0.25994658 -0.026351677 -0.08311294 -0.10903434 0.16865791 0.016607244 0.017603057 -0.022701649 -0.1168422 -0.24014594 -0.041977737 -0.15178147 0.075539477 0.044975881 0.042226665 0.02312159 -0.10153724 0.066059001 -0.15463409 0.24000096
202 -0.065390274 0.16763468 -0.050189301 -0.019713646 0.13145347 0.14010215 0.0071310406 0.0011789019 0.064155713 -0.028681375 0.07248503 0.009456628 -0.024093917 -0.055723682 0.082481928 -0.067675307 -0.021502534 0.0077461433 -0.15813981 -0.10885709 0.050618857 -0.010968013 0.20014949 0.10062079 -0.01393898 0.0027522836 0.10372461 -0.026066681 -0.014790933 0.069679521 0.12021064 0.073756114 0.1281532 -0.021876263 -0.061723169 -0.10924088 -0.072375998 -0.029704919 0.15725665 -0.073931888 -0.077695198 -0.068188295 0.14096086 -0.19474518 0.074355274 -0.26596156 0.13187587 -0.10069037 0.050787065 -0.06057125 0.13232456 0.02545779 0.023217615 -0.11199797 -0.0073586311 0.10161696 -0.17374876 0.12655714 -0.06527441 -0.13000512 0.24383579 0.13529207 0.062077537 -0.057569612 -0.25228569 0.037085932 -0.02918913 0.08098942 0.079775713 -0.13478824 0.046044998 0.06851089 -0.012266179 0.087657534 -0.14078742 -0.027526945 -0.18556309 -0.28623432 0.16393489 0.077668115 -0.14769191 -0.10914561 -0.025582161 -0.023535805 0.01568714 0.10373656 -0.077844992 -0.015573132 0.043515962 0.27013379 0.031238699 0.11019711 0.037605636 0.0024006031 -0.028229818 -0.033310968 0.12854657 0.26457527 -0.20023806 0.11496091 -0.20845953 0.016542492 -0.1277352 0.0044879382 0.10308908 0.013457024 0.0046073175 -0.15977512 0.10390122 -0.11523848 -0.013180519 -0.07662721 0.11425077 0.11396085 -0.019061653 -0.035334386 -0.071787082 -0.22571455 0.054447271 0.028533034 0.021577585 0.076377213 -0.023014076 0.033617198 -0.16026603 0.053440787 -0.15511765 0.39497501
69 -0.15640637 0.1054211 -0.15739232 -0.02218274 0.14037038 0.062664278 0.21559207 -0.12923926 0.1167684 -0.066794917 0.011606853 0.14818974 0.010823365 0.189963 0.15483773 0.098790571 -0.050482444 0.078107953 -0.065548792 0.17737491 0.1034879 -0.074089289 -0.027205965 0.049581543 0.12757556 0.12437777 0.073030144 -0.036320314 0.10445953 -0.22545916 0.12307071 0.089364313 0.24144073 -0.15212564 0.071520828 0.046441816 0.14507422 -0.01689394 0.20976189 -0.18803678 0.050171662 -0.20391524 0.079963647 -0.053468242 0.085889548 -0.25110281 -0.040931698 -0.077378899 -0.031306192 -0.43684557 -0.024865504 -0.2239057 0.079441331 -0.16969147 0.013247118 0.24192388 -0.19746818 0.20410503 0.038074687 -0.0048934477 -0.026124207 0.17317067 -0.17956431 0.0020990982 -0.11039867 -0.088024549 -0.024015309 -0.042729616 0.058976162 0.043064341 0.1438605 -0.081612021 0.10491116 0.015538363 0.038781017 -0.083622165 0.0097389529 -0.17618917 0.010005977 -0.12853605 -0.16402268 -0.30359733 -0.26713958 -0.075309135 0.20034187 0.16670686 -0.13296773 -0.025118792 0.031514831 0.27301162 -0.21096995 -0.11711922 -0.040484961 0.036818866 0.0056487517 0.11518603 0.079637378 0.079685181 -0.34003475 -0.076791003 -0.059502278 0.13078105 0.029506056 0.15874381 0.020771828 -0.081573233 -0.12817466 0.2142897 0.17108692 -0.069843546 -0.015086441 0.29054922 0.14664982 0.070075817 -0.068268321 0.040858615 -0.10333447 -0.11322545 0.19763298 0.088591181 -0.26114857 0.197235 -0.039178118 -0.090116851 0.1341304 0.075751565 -0.098461673 0.2527993
115 -0.093749814 0.069978885 -0.089210063 -0.083118074 0.19667292 -0.081452906 0.08846835 -0.087722808 -0.0411379 -0.082490124 0.10620143 -0.0086706718 -0.029340047 -0.060600646 0.064327747 -0.038769178 0.14650513 -0.1188281 -0.15787044 -0.1009979 -0.011942874 -0.043920528 0.053066302 0.017925318 -0.032762956 -0.044343088 -0.058004726 -0.00014643114 0.0022041965 0.08079537 0.14014551 0.0054160617 0.071479425 -0.04592295 -0.13842922 -0.012519117 -6.3470041e-05 0.075791918 -0.091536939 -0.10270616 -0.018712772 -0.10587045 0.025193701 -0.14794993 0.042828575 -0.34519961 0.061262537 -0.17267498 0.1192252 -0.061758928 0.021094814 -0.019778177 0.00047577056 -0.088393636 -0.010791501 0.11532584 0.042215925 0.073219225 -0.053574134 0.028792826 -0.027495651 0.11401042 0.044030383 0.056313176 -0.008788242 -0.011232021 0.18831976 -0.11505181 0.16277508 -0.049098693 -0.017157476 -0.092050098 0.10969775 0.065220125 0.01172094 -0.037034452 -0.038279437 -0.15078349 0.17512853 -0.053186096 -0.16022341 -0.15019763 -0.1516318 0.069431886 0.054477267 0.10149619 0.044094421 0.084181279 0.15318923 0.19448404 -0.055672802 0.013073278 -0.016968967 0.038364321 -0.12708437 -0.084319778 -0.059770349 0.18807623 -0.15580492 -0.084940962 -0.24581084 -0.11388874 -0.017104078 0.044582877 0.13023172 -0.12467308 -0.072193936 0.068850309 0.058132112 -0.056839451 -0.045168951 -0.070784867 0.21402048 0.032892048 0.031157976 0.033271123 -0.0058127441 -0.21279149 -0.062349293 -0.19186127 -0.014891464 0.1075196 0.001504355 -0.085932888 -0.027643742 -0.02295804 -0.21456002 0.19668309
91 -0.24304642 0.12109086 -0.016023999 -0.00084340415 0.22037329 -0.024047019 0.075840682 -0.19278507 0.088742696 -0.047198426 0.10379025 0.12289688 0.046229184 -0.080440864 0.043517653 -0.10134406 0.15639864 -0.040200118 -0.02333061 0.032468069 0.095907435 -0.1281635 0.035873793 0.049890663 -0.078330941 -0.086983152 -0.0072127767 -0.04074531 -0.049649324 0.028216518 0.12059923 0.073403008 0.15977794 -0.048404094 -0.024222728 -0.033996366 -0.048714761 0.00079160422 0.023681123 -0.12321249 0.018830433 -0.18923208 0.097047783 -0.081786595 -0.037275013 -0.16012381 -0.0081300493 -0.1588963 0.050942201 -0.10124388 0.050033621 -0.04162512 -0.042005394 -0.093985669 0.0041493997 0.18688758 -0.017627118 0.069483347 -0.039976522 -0.020733774 0.019490933 0.030146526 0.032262281 0.02953472 -0.085026927 -0.016152838 0.096452884 -0.15196441 0.060910664 -0.097824804 0.10217309 -0.020790342 0.019690579 -0.0018790767 0.042630807 -0.072283573 -0.096617818 -0.08641085 0.14870273 0.043243848 -0.10064526 -0.1269072 -0.12663616 0.027647512 0.081690125 0.090038814 -0.030756498 0.1163081 0.072742477 0.27246967 0.0094062071 -0.031024294 -0.067145377 0.044557121 -0.1024249 -0.14734535 0.021000039 0.30413169 -0.2081915 -0.051684435 -0.28043514 -0.019527845 -0.12738518 -0.049160458 0.1283239 -0.032483783 0.073458768 -0.049847234 0.061931163 0.0034941088 -0.033028308 -0.15327999 0.10643929 0.072589964 -0.042331886 0.032051463 -0.083590172 -0.14714906 0.052130237 -0.058794811 -0.042967629 0.055753984 0.086789727 0.020507764 -0.093150392 0.030688891 -0.066127338 0.19406216
51 -0.13347161 0.030320343 -0.12147583 -0.1348692 0.17672157 -0.014430713 0.067375414 -0.058056206 0.11178686 0.043200959 0.10369647 0.091752544 0.11445448 -0.10299946 0.023359306 0.0084118405 0.081431717 -0.035948705 -0.15491898 -0.0115948 0.021207538 -0.11143971 0.1395406 0.01528772 0.017271502 -0.060308311 -0.022373848 -0.028968079 -0.049622726 -0.04999724 0.092590556 0.016262703 0.24190481 -0.054290414 -0.082892686 -0.11583561 -0.014981207 0.085365683 -0.016069181 -0.15901291 0.0078633195 -0.19614498 0.11073912 -0.097391352 0.0037008834 -0.31322154 -0.029775428 -0.16018248 0.068012379 -0.092072837 -0.06280531 0.056341439 0.069046259 -0.083448805 -0.046846956 0.17468615 -0.089352846 0.037749313 -0.01225921 -0.066117659 0.039075043 0.16661723 0.0084186308 -0.033612326 -0.0058872341 0.061264813 0.033413544 -0.048077978 0.11028112 -0.15673584 0.098728821 -0.016718104 0.017600952 0.042310998 -0.0054563517 0.016827231 -0.12339909 -0.10146792 0.14665245 -0.047710903 0.0094266757 0.031385943 -0.12534861 -0.053381816 0.097098075 -0.0036276828 0.012412182 0.10086756 -0.0080400892 0.20418395 -0.027718093 -0.01060333 0.048942145 0.081205361 -0.13236405 -0.10113356 -0.0043599484 0.29053003 -0.22256741 -0.11649237 -0.17402884 -0.03054654 0.058794957 -0.090469725 0.13987158 -0.054687716 -0.02692825 -0.033426207 0.13866942 0.020148577 -0.1037502 -0.052585717 0.14939801 0.17050447 -0.030111426 -0.066682942 -0.12901752 -0.25562763 -0.038602479 -0.047887478 -0.036992189 -0.0023924941 -0.047258835 0.03425283 -0.10378227 -0.039712727 -0.16283371 0.20847443
406 -0.1721022 0.2152296 0.010721385 -0.021565374 0.008310345 -0.18323429 0.12940523 -0.040861242 -0.02907547 -0.1213835 0.10277937 -0.0023759825 0.045479678 0.030054564 0.003513437 -0.10985183 0.20292425 -0.079186752 -0.18841827 -0.021206474 0.12654977 0.0099096475 0.089090563 0.29310986 0.028812934 -0.10627197 -0.0034270969 -0.090824246 -0.059158124 -0.013547947 -0.030155873 -0.0045476612 0.1509138 0.06771002 0.046120975 -0.05164928 0.085829556 0.10686107 0.016827688 -0.06159801 0.0060584736 -0.1516702 0.036879174 -0.2297636 -0.01628988 -0.37267637 -0.12401595 -0.20454288 0.21718924 -0.077057496 0.018380979 0.0019199974 -0.016565248 -0.13234776 -0.040362339 0.075223193 -0.11270247 2.3475455e-05 -0.13542426 0.022466931 -0.29419529 0.0076961257 -0.077545606 0.076093845 -0.046210311 -0.16188799 0.089305997 -0.030646341 -0.040558934 -0.015715722 0.22354756 -0.10099085 0.10285897 -0.09906093 -0.024761193 -0.071792603 -0.0084895622 -0.06123817 0.17590602 -0.065429434 -0.17035775 -0.19712061 -0.020963589 -0.032853223 0.037557017 0.19895057 -0.02070847 0.029825732 -0.096027844 0.17690279 -0.15552923 0.079697393 -0.039194897 0.081798032 -0.081263334 -0.096749708 0.14348686 0.021633986 -0.1517646 -0.23645028 -0.13806964 -0.11545117 -0.033275027 0.070362009 0.049617887 -0.1333376 -0.10369519 0.040001575 0.30338597 0.021317758 0.0035250557 -0.0038225171 0.093298778 0.02195424 0.051629703 -0.029917315 -0.096414357 -0.038279623 0.098710209 -0.090462543 -0.040238194 0.062512971 0.046144802 -0.05850229 6.9313894e-05 0.054198366 -0.2265292 0.2250497
189 -0.094514862 0.064273588 -0.045039643 -0.089158066 0.12868972 -0.064933814 0.14019875 0.009088546 0.05964832 -0.0024890718 0.0087574776 0.068345517 0.047320247 -0.18400984 0.1097343 -0.038964842 0.031837847 -0.061866865 -0.12310081 -0.017154288 -0.017386667 -0.13526413 0.13941227 0.10187078 -0.0059902593 -0.082591213 0.025334485 -0.099744022 -0.064234056 0.012566808 0.047785196 0.057831682 0.073819518 0.069603845 -0.09260536 -0.056025475 0.0066118021 -0.052165136 0.094053634 -0.11999105 -0.068869032 -0.098383866 0.16066639 -0.20532265 0.11514519 -0.19240238 0.024967419 -0.17975971 0.1369191 -0.083246544 0.028380793 -0.016260182 0.0066182748 -0.018695971 -0.10511115 0.1774075 -0.052528746 0.086953156 -0.11840573 -0.069105424 0.053197931 0.12330584 0.020563971 0.024872599 -0.1000493 -0.01481945 -0.0066692643 -0.12160199 0.089291692 -0.11386979 0.11882485 -0.0073322109 0.060994335 0.10370209 0.058120523 0.010155371 -0.060561251 -0.18428424 0.059256434 -0.13172185 -0.050105494 -0.001208513 -0.089937449 0.075833715 0.069889814 0.073908545 -0.016657403 0.13820457 0.018347556 0.17646204 -0.063120358 0.059712499 -0.082657047 -0.023979167 -0.11918408 -0.10632537 0.10385352 0.17441767 -0.14966418 -0.13919568 -0.23960108 -0.03110932 -0.067097984 -0.056874346 0.001656904 -0.00041022466 0.049487773 -0.080778956 0.19893029 -0.043196414 0.014343088 -0.055231933 0.16773102 0.098906197 -0.009793519 0.034375746 -0.058803447 -0.21236356 -0.053884592 -0.16435896 -0.096771851 0.14031611 0.0043075723 -0.050653912 -0.047027912 0.085397497 -0.14033826 0.31283385
141 -0.21418986 0.13861953 -0.12723055 0.0022920731 0.15676478 -0.11477449 0.0012534014 0.018246932 0.11997686 0.028538289 0.11618563 0.0084988242 0.043089401 -0.086344235 0.052135803 -0.075419441 0.12894411 -0.090913586 -0.12055239 -0.028597511 0.11917126 -0.1541082 0.048982888 -0.015962696 0.009071663 -0.023244932 0.063925423 0.062867083 0.056183327 -0.077952467 0.13940646 0.038629387 0.045431752 -0.097351782 -0.10235748 0.018977161 -0.0020024951 0.05102637 0.06026338 -0.10002086 -0.042111602 -0.11238474 0.040838633 -0.18884392 -0.082260869 -0.36865088 0.01651643 -0.1770696 0.050690234 -0.14240445 0.0388299 0.04901173 -0.086046897 -0.13582093 -0.093025848 0.17265995 -0.095412537 0.099551693 -0.055231497 -0.11182418 0.013109752 0.024125723 0.067661352 -0.039972004 -0.086829603 -0.049107917 0.00031909705 -0.10531842 0.076562107 -0.13697101 0.0095555102 -0.066397332 0.01847681 0.03668033 -0.036713388 0.019089377 -0.061314221 -0.079612084 0.1873533 0.014042918 -0.047797974 -0.10643367 0.0046427278 0.034760583 0.048182625 0.05356212 -0.020433353 -0.035702139 -0.068635516 0.17608751 -0.11807878 0.014462176 -0.059922606 0.11448158 0.0029534663 -0.17753334 0.035458438 0.26265305 -0.21878922 -0.057937637 -0.14575912 -0.087389767 0.075795382 -0.069656305 0.0195425 -0.041934825 -0.037610158 -0.017390111 0.091326371 -0.10503565 0.020443318 -0.020086428 0.12769513 0.040109087 0.032648284 -0.0088437712 -0.070684806 -0.23381637 -0.077084385 -0.015222644 -0.063731231 0.1105638 0.022794673 -0.0075379475 0.0037744998 0.11111981 -0.22688742 0.10622492
371 -0.18054937 0.08223252 -0.13408782 0.028654961 0.12474231 -0.0025519535 0.065735243 -0.070641249 0.036508024 -0.13324161 0.068607248 0.086264849 -0.010692283 -0.17347221 0.05761436 -0.16849095 0.13271704 -0.054065533 -0.16706409 -0.069088005 0.0068479511 -0.15418406 0.1372038 0.050332662 -0.010283083 0.13308015 -0.02713255 -0.06655135 0.0084929401 -0.015700381 0.025628811 0.086871423 0.18241507 -0.027898051 0.035057906 -0.13963565 -0.080538556 0.025295675 -0.023946976 -0.034180276 -0.042778786 -0.17279002 0.070627846 -0.068053268 -0.048475925 -0.26088199 -0.10155592 -0.12832841 0.083176456 -0.060427547 0.066683024 -0.028217776 0.040431276 -0.11402975 -0.040529396 0.14065297 0.052416526 0.035217132 -0.00061355933 0.0073001748 0.044413954 0.1633741 -0.0049983342 -0.030353863 -0.10921646 0.057947289 0.1085057 -0.021428987 0.026243063 -0.058247954 0.075752839 0.00045413154 -0.033383153 0.17608045 0.085012995 -0.16483314 0.035990216 -0.1597451 0.047381967 -0.019697011 -0.040268481 -0.104133 -0.04944557 -0.014948467 0.056612983 0.19618975 -0.032455444 0.059888661 0.092675395 0.18880168 -0.18456243 0.06515795 -0.003647391 0.063694179 -0.13313246 -0.16370891 -0.045225933 0.23158698 -0.15008569 -0.14966024 -0.22356439 0.0028071085 -0.084161311 -0.096043549 0.12180991 -0.029538173 -0.014243692 0.013258127 0.047548916 -0.033082496 -0.090127043 -0.093886293 0.1152515 0.059032772 0.055225708 -0.023344832 -0.063988611 -0.24125618 0.095215283 -0.036622375 -0.10496014 0.15773821 0.099083632 0.057005014 -0.048357729 0.035900537 -0.21580414 0.18426304
94 -0.17763121 0.026848352 -0.054548532 -0.07479535 0.16274366 0.020628374 0.072005808 0.0042670802 0.054987065 -0.015147237 0.11732087 0.07799165 0.060182836 -0.14490561 0.064282909 -0.12143023 0.17089747 -0.0073564248 -0.24168879 0.075143777 0.099193208 -0.12065449 0.13467948 0.0007960365 -0.0066533145 -0.033138655 0.054181542 -0.068572968 -0.013086988 -0.082989894 0.07076174 0.053450011 0.22405384 -0.15336964 -0.14077352 -0.014686167 -0.029212829 0.13354924 0.080173746 -0.045572553 0.056093324 -0.091604464 -0.0034013102 -0.098948315 0.0022412566 -0.32837266 0.022774449 -0.14324678 0.048815753 -0.052989181 -0.041390426 0.099367745 0.029889278 -0.16388069 0.0071924361 0.025250318 -0.02609059 0.066472031 0.011447788 -0.10636136 -0.022586992 -0.00010500525 0.055279601 0.070301868 -0.12831537 0.038881708 0.091582626 -0.065892674 0.13532314 -0.11320625 0.027921027 -0.039682817 0.013052615 0.092425637 0.046736866 -0.044036895 -0.078532383 -0.1804955 0.10641341 -0.0051911352 -0.13800219 -0.17661677 -0.11519569 0.028679876 0.12739491 0.013764513 -0.069211684 0.15151946 0.055691052 0.13366733 -0.17154893 0.068283223 0.0059784902 0.060759541 -0.059563641 -0.2060978 -0.0095428722 0.19443868 -0.2115446 -0.16309199 -0.18776467 -0.052696016 -0.028211765 0.0011040246 0.1130719 -0.061388109 -0.029577978 0.045085181 0.030365765 -0.026470421 -0.017056772 -0.091816261 -0.023117146 0.062381078 0.033680547 -0.045029625 0.025395738 -0.23405179 0.033728782 -0.032520067 -0.090449028 -0.047277972 0.010231219 -0.039271351 0.049159311 0.037094161 -0.18127358 0.21033195
64 -0.133518 0.19557288 -0.092182346 -0.070999421 0.16028433 0.15205091 -0.063050717 0.066366099 0.079637475 -0.025989791 0.04233266 0.058356438 -0.030208398 -0.12466253 0.1013357 0.058489878 0.063192472 -0.034682874 -0.11492431 -0.0085295718 0.029266125 -0.16150369 0.12626325 0.1278774 -0.039930061 0.015734585 0.0039743762 -0.016585978 -0.0004508986 -0.0548773 0.13606304 0.064673759 0.068730138 -0.074287213 -0.1972032 -0.073147863 0.006504538 0.14068697 0.07656686 -0.061943468 -0.020587362 -0.19996119 0.049881596 -0.21784557 0.038683087 -0.18383063 0.0026890559 -0.1692865 -0.021413187 -0.06098374 0.088954128 0.065531418 -0.049051043 -0.15130258 -0.0052783387 0.13337606 -0.11196805 0.062410917 0.017144075 -0.026095657 0.1003046 0.1237084 0.029723704 0.020793563 -0.13069139 0.032278746 -0.065868378 0.083457112 0.016215865 -0.090463944 0.1419501 0.02586613 -0.051284347 0.13415435 -0.1137931 -0.016556883 -0.10149509 -0.19596188 0.24495728 0.071613036 -0.077790938 -0.07389421 -0.11599454 0.091367014 -0.038440842 0.12527087 -0.041270442 0.047286946 0.029042467 0.26001659 -0.041341636 0.028216606 -0.019456094 -0.10083131 -0.096528113 -0.14836274 0.086351305 0.18416016 -0.24720678 -0.056538925 -0.26728451 -0.02991347 -0.1039961 0.044702429 0.11566351 -0.038565245 0.082462952 -0.10823967 0.058489364 -0.031430233 0.017347604 -0.055292185 0.087919809 0.068223603 0.081041746 0.082848638 -0.06944818 -0.16953026 0.019767685 0.058895852 -0.17801137 0.013753057 0.053908989 0.06616725 -0.10289736 0.040524554 -0.14639792 0.25004143
