1113 128
1006 -0.11659405 -0.083275236 0.048673801 -0.31286475 -0.13003829 0.33175558 0.28371498 0.043180995 0.43773586 -0.055193175 0.17508382 0.48150131 -0.50344783 0.27072847 0.11488879 0.60344851 0.098991878 0.0089475969 0.21691962 0.28549269 -0.10440812 0.028675694 0.42185101 0.14391924 0.21552408 -0.28650603 0.1346225 0.16797301 -0.17734633 -0.035052359 0.42003223 0.54627454 0.37756732 0.32066029 0.44840518 -0.027061924 0.51925319 0.16414642 0.21475166 0.083202675 0.095848098 0.089850917 -0.19607003 -0.24384074 -0.19252415 0.034153838 0.047909908 -0.049458783 0.10676792 0.16787072 -0.039191671 -0.025540181 0.11138657 -0.14974542 -0.047046918 -0.43576106 -0.0058781561 -0.23210715 0.32672012 -0.30227947 -0.30405501 0.49197689 -0.19422725 -0.077744946 -0.38546082 0.18956631 0.40005571 -0.27823344 0.036783658 -0.16301407 0.2936286 -0.041016843 -0.056555107 0.19306061 -0.27250621 -0.30302358 -0.20982046 0.11151518 -0.027863253 0.019414691 0.13715616 -0.057480138 -0.061714001 -0.1109536 -0.4193942 0.10923139 -0.014520595 -0.18115892 -0.30207568 -0.021616902 0.049212378 -0.141697 0.10766564 0.022431929 0.44200158 0.14211246 -0.37574196 -0.45341295 -0.030861409 0.42729625 0.063899219 0.45289192 -0.026316319 0.10219108 -0.058408417 0.3803252 -0.10459179 -0.064977422 -0.083135955 -0.1594151 0.23203592 0.13250737 -0.065803237 0.015117466 0.026962915 0.28076774 0.13675497 -0.12590155 -0.077183746 -0.075282156 0.52911186 0.081315123 0.3950395 -0.31705791 -0.25064677 -0.047116786 -0.027608581 -0.11207861
506 -0.2547586 0.31862587 0.28019097 -0.068589441 -0.1932658 0.20996834 0.22507545 -0.1103028 0.34079778 -0.14748323 0.027710063 0.37037602 -0.34116763 0.41521916 0.29789329 0.80621123 0.22828887 0.026317213 -0.040313162 0.2935434 -0.13543208 0.011657791 0.37887087 0.079726391 0.16141772 -0.28454769 0.24592376 -0.1327351 -0.31697035 -0.2350561 0.40292454 0.45234105 0.41617671 0.53257608 0.27304992 -0.039588757 0.23978521 0.16403611 -0.042178061 0.19351433 -0.012562286 0.026756985 0.073779933 -0.11985184 -0.17334864 -0.051480602 -0.038323559 0.025392136 0.23264135 0.53537214 0.12213878 0.18132713 0.10226911 -0.036469333 -0.19196349 -0.65549922 0.056201827 -0.064125352 0.21225166 -0.54179561 -0.34591153 0.38002303 -0.14783581 0.17881225 -0.35076338 0.11215456 0.39411226 -0.27532148 0.17525935 -0.13791516 0.53167826 0.046386205 0.035949182 -0.038171597 -0.2408068 -0.62201858 -0.16508734 0.15640913 0.26623988 0.19916309 0.33857557 -0.2304588 -0.0052422937 0.016899277 -0.24523148 0.058106571 -0.23672646 -0.26297328 -0.30434138 0.0079373913 -0.14578229 0.055046264 0.51142383 0.16749491 0.46531826 0.13208103 -0.26721862 -0.24544762 0.0026170639 0.35405374 -0.16213471 0.65885931 -0.061618805 0.14777946 -0.0084929038 0.51884311 0.063943647 -0.20856147 0.14604676 -0.29222026 0.22488141 0.098603033 0.090306796 -0.12039366 0.1936477 0.11928555 -0.1884986 -0.35664231 0.057098474 -0.045201186 0.20847976 -0.11716109 0.38930914 -0.31005847 -0.13050313 -0.28179806 -0.30304974 0.093345106
859 -0.18092416 0.18782666 0.14483966 0.15277641 -0.15638906 0.22626905 0.27194631 -0.1040751 0.20900786 0.0030911686 0.086939 0.43328434 -0.35817695 0.28825501 0.25968859 0.77977419 0.067929849 0.095423669 -0.050949693 0.27026722 -0.19500422 0.057537675 0.42227787 0.026277315 0.13893609 -0.28341898 0.33418354 -0.17998941 -0.49431655 -0.19109052 0.49441087 0.36157468 0.40036079 0.45599741 0.28793275 0.050786208 0.24945726 0.16891865 -0.14816019 0.15844944 0.0091722785 0.092561454 0.041531462 -0.032193527 -0.29162458 -0.080727369 0.12527476 0.15077913 0.22108738 0.57620823 0.0066939099 0.29550216 0.059956856 0.011272871 -0.27937385 -0.67679894 0.10609408 -0.13242562 0.28064796 -0.6790036 -0.20125195 0.35944685 -0.068708159 0.21981393 -0.49318442 0.11721244 0.18869814 -0.29947558 0.018814862 -0.33237332 0.43730137 0.023301341 0.039773945 0.077661179 -0.14710702 -0.5004921 -0.086393863 0.1360345 0.16039667 0.022735849 0.17901708 -0.36715838 -0.0094006164 -0.14619215 -0.25923422 -0.12988743 -0.20813742 -0.17067689 -0.38564634 0.13203493 -0.15585276 0.18404031 0.45740655 0.074200161 0.51944482 0.10301382 -0.23349591 -0.30527055 -0.047010619 0.33394378 -0.11921051 0.56957912 0.020962229 0.050248068 0.056152228 0.52294225 -0.064610153 0.027611623 0.18155491 -0.12627324 0.29435357 0.20848271 0.069198132 -0.17712148 0.23463656 0.097316764 -0.10486318 -0.33140203 0.12718831 -0.027830206 0.4150466 0.02538272 0.42969525 -0.2850703 -0.26541531 -0.2636553 -0.13390671 0.0067080483
512 -0.35848278 0.22822362 0.24308664 0.012704937 -0.072689578 0.441333 0.27623776 -0.2435483 0.25308552 -0.072352841 0.066330858 0.48797435 -0.41327104 0.26638195 0.30099723 0.74654496 0.27206692 0.046547174 -0.10259215 0.25470191 -0.13183525 0.083700381 0.40129131 -0.055975374 0.12567469 -0.23996098 0.39288002 -0.11010359 -0.28774777 -0.18959877 0.52361107 0.42240438 0.47482404 0.41661575 0.26300579 -0.067822434 0.31041381 0.11125434 -0.095269538 0.093244992 0.017227272 -0.0083712367 0.015724087 -0.1734843 -0.2673409 -0.02146182 0.14731927 -0.026599845 0.2544722 0.57599044 0.14381953 0.16543312 0.13122676 -0.018014435 -0.25600067 -0.61129248 0.097544633 -0.049815066 0.21509761 -0.52760237 -0.37462237 0.34909886 -0.10413289 0.23171833 -0.37207288 0.076123983 0.18215157 -0.22643648 0.16157794 -0.14470826 0.4703356 -0.037268482 0.10877478 0.0036492217 -0.2594392 -0.47839624 -0.13053268 0.14503214 0.16338746 0.092457645 0.34892431 -0.13526972 0.0023057624 -0.13445596 -0.18348406 0.15592895 -0.088876016 -0.15593007 -0.4177157 0.09348423 -0.21067622 0.09070415 0.42855343 0.091250718 0.5287742 0.0082109394 -0.1861003 -0.14665297 0.019921025 0.26380387 -0.11940586 0.59181499 0.037889734 0.19001441 0.14189288 0.58783102 -0.088923432 -0.11536363 0.16921969 -0.27248356 0.2732034 0.18577915 0.080689818 -0.12006823 0.1401498 0.19875841 -0.13107103 -0.26111963 0.21917462 0.0037190237 0.28557292 -0.014583921 0.26774517 -0.44810715 -0.23306404 -0.31916237 -0.15321477 0.083757542
823 -0.28628504 0.31384569 0.22803654 0.11112357 -0.21244977 0.36037317 0.21322531 -0.15252416 0.39295268 -0.1125983 -0.046524871 0.44580677 -0.20977226 0.32929298 0.32545462 0.59386599 0.13212083 0.17316987 -0.0055661211 0.36653745 -0.05264993 0.11292087 0.3787522 -0.086797513 0.099249154 -0.27046639 0.26937193 -0.0051136273 -0.46815881 -0.12379432 0.46992549 0.36051446 0.51262236 0.52400404 0.34689841 -0.038106363 0.43146133 0.19402817 -0.011740226 0.13116147 0.068416432 -0.046417538 0.056207336 -0.12272285 -0.27939674 0.0059904223 0.11490305 0.056828272 0.12109093 0.60297692 0.066837795 0.069288686 0.060904227 0.021963594 -0.26512924 -0.66711962 0.11164595 -0.13061367 0.12886091 -0.45345744 -0.46959001 0.43110052 -0.10138588 0.18569109 -0.3889913 0.10385484 0.31327635 -0.3066884 0.11792285 -0.085785888 0.39838299 -0.043103114 -0.027200004 0.027480839 -0.22793382 -0.54768586 -0.22617769 -0.0613322 0.11675876 0.079183623 0.13490479 -0.39061311 -0.086384781 -0.05886659 -0.23941505 0.024176698 -0.13143614 -0.14148389 -0.29858845 0.19328979 -0.09351024 0.057827927 0.47804621 0.16936554 0.55879015 0.14934376 -0.36342576 -0.31370175 0.17133294 0.34253696 -0.16778634 0.72122306 -0.047746524 0.05592379 -0.10919401 0.40521136 0.17426068 0.028860159 0.096155956 -0.23291308 0.37028545 0.1696061 0.16706893 -0.13647899 0.17831635 0.097861186 -0.044602185 -0.51965332 0.17662443 -0.027612485 0.024850013 -0.028484406 0.30743721 -0.44139269 -0.17531385 -0.22208661 -0.24617431 -0.041420359
839 -0.39568567 0.31449744 0.27090889 0.094744511 -0.24967271 0.38789329 0.28539959 -0.16885991 0.36552346 -0.17728239 0.11943105 0.40631098 -0.3408356 0.25229543 0.26956111 0.56547701 0.16170269 -0.066460207 -0.010237044 0.26872429 -0.17821148 0.057061758 0.42329636 0.0042024148 0.23946524 -0.24724472 0.4894312 -0.12286221 -0.30698997 -0.31254679 0.35398185 0.64001924 0.37576392 0.36857373 0.36093536 0.092903405 0.2632716 -0.00050482649 -0.024929307 0.070140839 -0.02441947 0.021193409 0.13757202 -0.1718578 -0.27174777 -0.19670095 0.10806832 -0.068276867 0.23931845 0.47897232 0.25074479 0.25706506 0.14371258 -0.025535518 -0.23009904 -0.61546862 0.22507033 0.051042046 0.21520172 -0.47923383 -0.3823365 0.47481483 -0.14207867 0.18453233 -0.44035783 0.13700025 0.31166402 -0.24290544 0.10868632 -0.16947633 0.6044386 -0.078531563 0.0794167 0.083162792 -0.30783036 -0.50029767 -0.17451662 0.17496087 0.082905464 0.18384561 0.28214055 -0.34016404 0.12260357 -0.0568658 -0.16979703 -0.085706599 -0.10401314 -0.23301955 -0.41161171 0.12812351 -0.064207919 -0.028616719 0.51033914 0.15908694 0.42965338 0.1112371 -0.27753571 -0.22492747 0.11141308 0.45433348 -0.0039790426 0.59120965 -0.1237017 0.034919091 0.022235904 0.41513863 -0.097754411 -0.16817372 0.32011965 -0.24874012 0.24602892 0.12721343 -0.025390966 -0.14349292 0.19509435 0.13373923 -0.17140079 -0.32905072 0.21299355 -0.097854078 0.2896423 0.083338052 0.31380996 -0.28444329 -0.1321037 -0.32908988 -0.16785313 0.05891474
178 0.094273672 0.15769921 -0.19100815 -0.081600405 -0.20098899 0.16194423 -0.09473253 0.022886254 0.45048684 0.30211836 -0.12845196 0.23412924 -0.075074509 -0.36857912 -0.26061672 0.30301353 0.10438064 0.02190605 -0.12359083 -0.11444689 0.37833914 -0.14999843 0.28956446 -0.22840862 0.46981388 -0.024888303 0.35497865 0.15011871 -0.31445777 0.02971394 0.12466503 0.25751588 0.128512 -0.15904075 0.09199971 -0.071171246 0.13110386 -0.066594698 -0.19763906 0.36358672 0.21580392 -0.050992843 0.076175213 -0.18698448 -0.25502208 -0.11595148 -0.093079053 0.073513381 0.082510859 -0.16530277 0.086182065 0.047868211 -0.41273859 -0.20681849 -0.019545628 -0.61456364 -0.19365749 0.066465884 -0.26629138 -0.17627874 -0.35001573 0.10206006 -0.24411449 0.12645981 0.063092045 0.30156225 -0.052623317 -0.12783718 0.12011573 -0.187162 0.15056401 -0.11463571 0.12247162 -0.071970113 -0.048728373 0.11506167 -0.17812642 0.10073967 0.12864412 0.10319826 0.1605258 -0.13302858 -0.63572198 -0.055955067 -0.019201657 0.031240026 0.060607791 -0.43579412 -0.53663141 0.39494747 0.19296193 0.20024726 -0.019561715 0.21666791 0.25001746 0.32193229 -0.076046139 -0.23214482 -0.002132355 -0.018466655 0.053665895 0.24126059 -0.28127751 0.0019319856 -0.019876203 0.13084343 -0.043448679 -0.25400835 0.38961789 -0.014838049 -0.014257943 -0.29861447 0.28527206 0.22119048 -0.030444564 -0.37431771 0.07563781 -0.40117958 -0.35886693 -0.027317462 0.24412623 -0.20210716 0.14056307 -0.11006571 -0.42689344 0.12438293 -0.40074196 -0.067192316
1004 -0.12701395 -0.71826309 0.66377926 -0.66522253 -0.49384785 -0.045987353 0.27668396 0.45124418 -0.064421378 -0.14860103 -0.0018650639 0.44294557 -0.28015828 0.49533746 -0.25341111 -0.43140945 -0.15460633 -0.59652436 -0.00031084448 -0.068226576 -0.24382101 0.069794312 0.29354015 0.11169895 0.54687655 -0.48226175 0.33950403 0.38414732 -0.51596367 0.23600313 0.47028247 0.72608775 0.065521471 0.15392888 -0.093179204 0.27038902 0.459674 0.09929394 -0.11005348 0.27469832 -0.27565843 -0.23133063 0.23478484 -0.051032409 -0.16789669 -0.29674417 -0.28144506 -0.017121734 0.48464957 0.44588795 0.2768389 -0.64867991 -0.31772754 -0.34109932 -0.19266196 -0.30933732 -0.43409172 -0.61718172 0.17322597 -0.45508683 -0.11022966 -0.058857251 -0.024151668 -0.048238486 -0.15732479 0.67410493 0.10327501 0.021337215 0.045625731 -0.2284105 0.097012192 0.5147087 -0.11956978 -0.10056704 -0.39231238 0.24723688 -0.87770426 0.061465394 -0.039051946 -0.31006262 0.3362751 0.2680029 -0.30778816 -0.27460203 -0.15955935 0.67508292 -0.10902354 0.54137921 0.40787742 0.070849456 -0.12439446 -0.51666498 -0.20715778 0.44369131 0.4129419 0.49575925 -0.080457047 0.0023500198 -0.29064912 0.37738895 0.0046183034 -0.039076779 -0.20869356 -0.44637802 0.16588354 0.017495196 -0.54986548 -0.39608809 0.023643391 0.11421327 -0.1675707 0.34118274 -0.13647546 -0.83700675 0.14660931 0.19423665 -0.084564723 -0.51020253 -0.016619882 0.63052267 0.40488154 -0.17791882 0.3303614 -0.16673553 -0.90692955 0.057921719 -0.1571015 -0.20131721
301 -0.12781663 -0.23775554 0.35146624 0.070061959 0.025411783 -0.14993237 0.041931462 0.00074941473 0.13267913 -0.029037667 -0.40370539 -0.11029473 -0.058045302 -0.20022333 -0.057256483 -0.041968711 0.15043011 -0.16598094 -0.27667284 0.016891757 0.0031214589 0.15114747 -0.050981101 0.18788719 0.036529578 0.060486309 -0.021592729 0.10103276 0.0092029925 0.074040443 0.076719888 -0.037532937 -0.086103939 0.00086811552 -0.0043570017 0.22515142 0.025732877 0.35982704 0.18951844 -0.23744693 -0.13795534 -0.13421679 0.10588342 -0.53901792 -0.11097419 0.058567405 -0.077094316 0.2209692 0.21602124 0.058803424 0.10572843 -0.058293883 0.03736788 0.13831224 -0.013790313 -0.17900825 -0.034424994 0.16237809 -0.02577197 0.18306646 -0.14828977 -0.023734864 0.055775899 0.18818697 -0.12666821 -0.20170625 0.1417079 0.1565177 0.23014028 0.026738754 -0.072692975 -0.059678435 0.023906339 -0.11919843 0.02788623 0.12143927 -0.075585254 -0.12397832 0.096416391 -0.07542102 0.21554527 0.11802475 -0.027332002 0.054838162 -0.075379856 -0.0028125059 0.14134908 -0.021780016 -0.018322609 -0.26973432 -0.0080407569 0.11369863 0.090820424 0.16586842 0.13868208 -0.024666706 -0.20943139 -0.012255184 0.048507065 -0.074617676 -0.0685445 0.13049988 -0.16334854 -0.017726189 -0.014933337 0.36378345 -0.096783683 -0.057817459 0.084267296 -0.077380903 -0.036216483 0.058738191 0.066538632 -0.018640917 -0.13605978 0.069383122 0.11584951 -0.012379927 0.11712868 -0.10365672 0.10016432 0.26901209 0.11737198 0.047110811 0.051927462 -0.023628339 0.2091662 -0.22812758
501 0.10071413 0.13599741 0.028163873 -0.2488801 -0.23271263 -0.17541276 -0.029167973 -0.19767018 0.18659575 0.042489983 -0.19598079 0.20535068 0.071636237 -0.31860614 -0.1767384 -0.077347971 0.026033927 -0.29139972 -0.082997352 -0.010933993 0.090395369 0.19477944 0.15772113 -0.26124138 0.44470349 -0.052931007 0.25819489 0.18004128 -0.1025724 0.038000613 -0.12799886 -0.27157947 0.43073505 0.13281715 0.29376513 0.24627182 0.38448429 -0.2978169 -0.30655825 -0.18094642 -0.24343693 -0.142993 -0.014184695 -0.34567803 -0.11679057 -0.31983039 -0.21929376 -0.08445292 0.17258017 -0.010825795 0.19947886 0.019231236 0.42819771 -0.13369933 0.30219093 -0.32890818 -0.097935319 0.0067108748 -0.043488968 -0.24497931 -0.20465952 0.094741568 -0.43491825 -0.263937 -0.26579916 0.12413175 -0.29558805 -0.1869753 0.43143964 0.02008811 0.089001805 -0.14454344 -0.36962974 0.045776892 -0.031673964 0.25584486 -0.027228156 0.45540017 -0.24238476 0.048520543 -0.37380707 0.014128204 -0.1300893 -0.13915968 -0.21519493 0.17695639 -0.086195022 0.028447608 -0.20474628 0.27554527 0.0014270622 0.13589892 0.087577231 0.42309496 0.505328 -0.011685043 -0.1974369 -0.40457636 -0.23089573 -0.085677385 -0.18409261 0.24293575 0.20075062 -0.058148421 0.31029487 0.028361814 -0.18734945 0.16859697 -0.098736003 0.25343421 -0.16219732 -0.29246289 0.012276182 -0.0099198036 0.074345343 0.12568897 -0.22022213 -0.061210033 -0.16208358 -0.33598596 0.10469544 0.10896874 0.3697373 -0.096112102 0.028013505 0.074134484 -0.18664436 0.17865288
133 0.20068353 0.22806855 0.072476193 -0.018541228 -0.12134143 -0.0244858 -0.0036528569 0.034864545 0.090089768 -0.086164638 -0.3277356 -0.035827167 0.019761449 0.091227397 -0.20846966 -0.1244863 0.069869503 -0.13050206 -0.053129997 -0.12079141 0.059958585 0.16120358 0.090088509 0.041240215 0.05638855 -0.13768975 -0.040218804 -0.0056419629 -0.060597148 0.095554985 -0.22519742 0.011488224 0.2668418 0.048712481 0.27067739 0.062479936 -0.26107946 0.02892329 0.059567094 0.077626817 -0.065523617 0.0017801453 0.08463186 -0.11078693 -0.084811084 -0.12648576 -0.12559748 0.095698789 -0.022929752 0.3654888 0.27605262 -0.29464209 -0.10524651 0.083401367 -0.21078648 0.04577006 0.038597558 0.33782536 -0.011710011 0.22067124 -0.018831829 -0.051189542 0.13489711 -0.048417076 -0.12118829 0.16299698 -0.071649872 -0.014990023 0.2309508 0.017269058 -0.13661054 -0.13655604 0.060485471 -0.060362127 0.19589089 0.040394045 0.081006303 0.17663908 -0.014150199 -0.11485932 0.056947775 -0.25020978 0.062660143 0.0032520883 -0.051324267 0.21348745 -0.011778024 -0.18663381 0.024298694 -0.13653459 0.043871406 -0.0037460038 -0.054994524 -0.075099826 0.095168628 0.016822409 -0.069159351 0.060959749 -0.10988069 -0.042423885 -0.015658671 0.1033918 0.14367628 0.090632699 -0.24106577 0.054656278 -0.036352161 0.056436505 0.0141606 0.15296975 0.067892775 0.00048113885 0.18145378 -0.077524215 -0.11831567 0.13613966 0.040516447 0.20033853 0.15362068 0.11253312 0.018464118 0.1484707 0.24040531 -0.19185548 -0.10122211 0.0047408952 0.14536512 -0.17864263
211 0.18728851 0.023283919 -0.020085096 0.22604094 -0.12707499 -0.12573303 -0.1025565 -0.0076891617 0.17547432 0.0070380224 -0.17650974 0.15033641 -0.087630622 -0.2069013 0.24406785 -0.26507047 -0.015855104 -0.1155456 -0.13624717 0.15130521 0.17904215 0.078518927 -0.09541101 -0.18863359 0.079736546 -0.187382 -0.11287878 -0.19539034 -0.20630337 -0.099304371 -0.020168651 0.066420011 -0.010038301 -0.064168498 0.10480363 0.05091932 -0.031677518 0.33451626 -0.0015363515 -0.12196803 -0.18669663 -0.067778565 0.0054458305 -0.28011793 0.090641409 -0.035816934 0.11888551 0.023822114 0.1452 0.10509343 0.30382773 -0.36642841 -0.0048306296 -0.13849807 -0.29955018 -0.11577559 0.01908938 -0.10235951 -0.12246279 0.10837868 0.19718473 -0.049691524 0.055726103 0.10821088 -0.13505261 -0.058668293 -0.14465529 0.2156546 0.13553947 0.07506495 -0.0080522895 0.090188019 0.085530877 -0.048682731 0.026450999 -0.091786101 0.044436399 0.12390413 0.24426433 -0.003950716 0.19871426 -0.15759169 -0.013955789 -0.19837674 -0.061994817 -0.16194038 0.0020636555 -0.10483418 -0.062097743 -0.068050958 -0.15207906 0.042123716 -0.23749894 -0.0039062074 0.20687538 0.12647904 0.086291261 0.1197114 -0.068925761 0.095701739 0.058468875 0.10953832 -0.036486115 0.063397989 -0.12376032 0.16142383 -0.0098622497 -0.092900209 -0.063535593 -0.091350853 0.16378339 0.21523777 -0.17345034 0.34801662 0.10450216 0.029196337 -0.077849254 0.033221997 0.08957345 -0.094969258 0.12673655 -0.024974314 0.19642025 -0.17741489 -0.0062676952 0.10914168 -0.037173253 -0.06388326
432 0.13362589 -0.022494752 0.033249065 0.017286772 -0.11574602 -0.048543975 -0.085552782 0.16495036 0.03388311 -0.076165073 -0.27522838 -0.06912753 0.17421962 0.062513173 -0.031777926 -0.19436724 0.13317643 0.057795253 -0.095216781 -0.051592272 -0.0022938894 0.1943692 -0.0059923911 0.0019376803 0.081296541 -0.07386218 -0.04166938 0.064943083 0.013262697 -0.050060522 -0.050455853 -0.10143605 0.18082568 0.116415 0.18098275 0.11988759 -0.019579265 0.053071648 0.066764094 0.056563299 -0.088901289 -0.050087757 0.043836966 -0.21201441 0.050122056 0.066061951 0.011456573 -0.027384154 0.053599846 0.2466916 0.12768494 -0.014434634 -0.17180087 0.22199911 -0.13055855 -0.026458686 -0.060712375 0.11409607 -0.019333282 0.078000031 0.074714482 0.13410492 -0.04695268 0.097674206 -0.12404828 0.022397315 0.070603989 0.20108831 0.25936332 -0.089811891 0.057071216 -0.18318456 0.11568624 -0.10157109 0.15496722 -0.037472945 0.08669804 0.050447147 0.12892246 -0.088185415 0.096216351 0.086231478 -0.15512647 0.0085629271 -0.045918118 0.1393588 -0.038792092 -0.073515095 -0.013360893 -0.059625402 -0.10608342 0.0019939132 -0.058651604 -0.050717138 0.091295287 0.078325577 -0.021163775 0.087897331 -0.061981581 -0.11942808 0.049545981 -0.044801809 0.077685714 0.077275656 -0.2511853 0.15198663 0.039130144 0.14164346 -0.053378686 0.15386193 -0.036288168 0.024412986 0.10129164 -0.11306918 -0.0077112084 0.030987775 -0.065765046 -0.055765219 0.11791455 0.091736756 0.16722028 0.16469859 0.21797594 -0.15587357 0.042892069 -0.11359059 0.24718171 -0.21750203
476 0.099701725 0.24134429 0.093074456 -0.04412061 -0.062707789 -0.09213151 -0.15428534 0.020644097 0.13956638 0.0086194882 -0.19686134 0.084964387 0.27369398 0.15360634 -0.26703668 -0.023400012 -0.094202869 -0.057065822 -0.23558275 -0.066491224 0.1310997 0.030211415 0.20866138 -0.14968121 -0.11664777 0.031874873 -0.085357636 0.052369241 -0.12443922 0.016825181 0.10264935 0.0048409738 -0.027453979 0.16496362 0.29823995 0.091026798 0.096346408 0.12733652 0.023219923 -0.01460298 -0.13934191 0.052128866 0.14463378 -0.11925659 0.058262046 0.20407417 0.0065156366 0.097379588 0.11456183 0.19179331 0.28042585 0.029489949 -0.05225895 0.020155217 -0.19946863 0.017324556 -0.03004769 0.10150738 0.042064287 0.29952911 0.11911539 0.013931477 0.074575908 0.13980117 0.045647863 -0.18179859 0.02809801 0.19628048 0.11776058 -0.049249809 -0.090644553 0.082514301 -0.14206855 0.12821203 0.044006623 -0.0016270814 0.20677617 -0.080840237 0.072081827 0.086398095 0.33817863 -0.10424518 -0.092395954 -0.13321112 0.11321384 -0.025316382 -0.057299301 -0.20497561 0.087748416 -0.1812152 -0.1962543 0.16656552 -0.28896675 0.18333007 0.12532432 0.06126843 -0.15513361 -0.053956576 -0.16132407 -0.040427078 0.044759989 0.19219905 -0.00098807155 0.13896966 -0.13506362 -0.0094174063 -0.12270723 -0.023437103 0.055046175 0.014572632 -0.02483066 0.074233301 -0.12795779 -0.29262114 0.10882498 0.081256904 -0.046447244 0.052750781 0.030351873 0.20178689 0.11386093 0.04020125 0.18200018 0.084326096 0.064625546 0.17712814 -0.0072312742 -0.22283624
1005 0.026871771 0.14156331 -0.080879532 -0.47753963 -0.39389297 0.1523495 -0.28073475 0.17263739 0.15825626 0.23340252 -0.11332203 0.62609816 0.20046617 0.06866125 -0.036024146 -0.032149464 0.40921316 -0.19803253 0.27962801 0.075659603 -0.21797842 0.027180098 0.27977881 -0.16699235 -0.15024702 -0.29333019 -0.092224061 0.1266558 -0.37227592 -0.090230584 0.38196358 0.70327616 -0.049939428 0.075418904 -0.22204964 0.10031056 -0.15216309 -0.30493706 0.0025373579 0.053178158 -0.035853114 0.056242231 -0.091161504 -0.1429705 -0.22982165 -0.13762765 -0.15714546 -0.10046794 0.1373598 0.13655479 -0.13059199 0.049405701 -0.1199969 0.053378135 0.18107562 0.10364375 -0.11086553 -0.57940763 -0.38729426 -0.37973836 -0.35486186 0.10645757 0.30771017 0.02072452 -0.19151171 0.23144133 -0.037914068 -0.23583883 0.0090938853 0.088008977 -0.22873327 -0.077334024 -0.023439299 0.038122598 -0.15580988 -0.080219708 -0.14915104 0.56732959 -0.32264912 -0.13221316 0.22973475 0.37539092 0.0020822601 0.15257443 -0.1580064 0.027729664 0.084868766 -0.42406234 -0.0019699533 0.31315869 0.17591396 -0.27201897 0.073456176 0.079155929 0.37674534 0.32688472 0.11127314 -0.32296905 0.079389289 -0.068800569 -0.33113644 0.31448245 -0.1140954 -0.19154564 0.17170693 0.066401325 -0.081942573 -0.26219836 -0.1169164 -0.051839422 0.15012181 -0.13309084 0.021297624 -0.20584477 0.26299274 -0.086478956 -0.04196389 -0.13148694 -0.14104816 0.4951252 -0.069241494 0.49472475 0.35703519 0.025146382 -0.31085703 -0.15987605 -0.061849292 -0.47439852
404 0.29090962 -0.13392347 -0.12279239 0.076702639 0.039166573 -0.30154511 0.094051406 -0.17001405 0.0029970056 0.10322794 -0.054944642 0.17154472 -0.0076098596 -0.1883121 0.062953196 -0.21458505 -0.042917367 0.062809773 -0.28182781 0.11402699 0.046426456 0.11219503 -0.154294 0.15726049 0.08081536 -0.17631578 0.059201311 0.0025109237 0.08071129 -0.07571388 0.078355014 0.19694139 -0.018302787 0.11555318 0.20850025 0.24451546 0.064178832 0.13569894 0.08269421 -0.15184154 -0.11831336 -0.032928426 0.12292263 -0.30459327 0.11564272 0.10658057 -0.19572775 0.1205349 -0.061813924 -0.084025517 0.36232644 -0.072229713 -0.163709 0.085563146 0.047898971 -0.20296453 -0.07752949 0.040597685 -0.11172658 0.077754445 -0.10285043 -0.35283971 0.16617993 0.13423243 0.13013837 -0.20351279 -0.046152361 -0.072341889 0.11670505 0.086013049 -0.18038134 -0.14767849 0.19079621 -0.090368584 0.10983898 -0.066699728 0.20859906 0.062958136 0.16607 0.080738336 0.020894401 -0.19629447 -0.17437509 0.021438964 -0.016808111 0.011762045 -0.22385821 0.30508661 -0.028660679 0.067133509 0.065259263 -0.19338441 0.012321473 -0.14886676 0.24833761 0.086670503 -0.30098236 -0.031668857 -0.17296405 0.27818412 -0.22063421 0.24124852 0.056726836 -0.085674442 -0.29845789 0.44699201 -0.051519547 -0.011864961 -0.22069953 0.1875338 -0.10544346 0.079568148 -0.13848363 -0.31323862 0.11436189 0.10031018 0.055063367 0.062270902 0.15364976 0.16869761 0.095216736 0.023501361 0.12632333 0.26089516 0.014578051 -0.20694518 0.18838231 -0.04952316
467 -0.0010032002 0.25248495 -0.036438301 -0.056312598 -0.054405473 -0.003617344 0.16033331 0.022222143 0.15093039 0.045744836 -0.13674958 0.088158578 0.13006242 -0.062569447 -0.21692096 -0.063810125 0.16393289 -0.14823267 -0.070024386 -0.15548018 0.13815057 0.074131936 0.0072645573 -0.010880451 0.10925154 -0.04608532 -0.11186016 0.015978878 -0.19553477 -0.010582534 -0.094504252 -0.043822505 0.059944533 -0.148128 0.11451354 0.063850448 0.074113443 0.20738038 0.25660613 0.055879548 -0.086610854 0.021055376 0.18003364 -0.10572224 0.086064458 -0.13636847 -0.10353491 -0.078264676 0.12485915 0.12050461 0.10656787 -0.025833925 -0.10625272 0.10487981 -0.21051602 -0.15716457 0.14778912 0.048869334 -0.041750111 0.019553605 0.046786394 -0.0029165826 0.086576588 -0.05349534 -0.10053337 -0.094027437 -0.092967041 0.31593591 -0.039401736 0.054589882 0.053585038 -0.068776906 -0.018532015 -0.090612307 0.098950073 -0.17696396 0.11777391 0.15666462 -0.088574342 -0.011973261 0.15461904 -0.11169924 -0.069372617 -0.042254638 0.1418633 0.075948671 -0.13485275 -0.17048763 -0.050396107 0.0014751384 0.053181604 -0.048080008 -0.24464554 -0.13189521 -0.097509705 0.10601976 -0.19482701 -0.022259474 -0.017889323 -0.019055149 0.1598181 0.053429794 0.0056617241 0.188848 -0.21599691 0.086599581 0.051046472 0.023282381 0.073448606 -0.01105366 0.038627733 0.068737522 -0.23658933 -0.36336151 -0.13945203 0.15302296 -0.17826408 0.11120537 -0.091662347 0.17083016 -0.11577664 0.098315105 0.09950874 -0.07115259 0.04790841 -0.17561893 0.19223686 -0.16467792
187 0.15012525 0.13354716 0.20859213 0.066272177 0.13032225 -0.04077816 -0.020145131 0.00060615223 0.053008679 0.041504931 -0.17599548 0.019759366 0.096994683 -0.096414968 -0.10941834 -0.05704895 0.054540679 -0.16428064 0.043626759 -0.085402451 0.076907352 0.116689 -0.11134394 0.082343765 0.10085233 0.015024507 0.032552823 -0.015848232 -0.1771936 -0.061626215 -0.091207214 -0.010367116 0.050293226 -0.028311318 0.15006043 0.077856705 0.076162986 0.11915492 -0.01474112 0.055670235 -0.11119927 0.063688084 0.099214368 -0.079056762 0.068128593 -0.14197823 0.1013716 -0.082431868 0.21006753 0.11903281 0.1638775 -0.18325804 -0.18385273 -0.0076564867 -0.23063773 0.018933155 -0.010186014 0.083004512 0.020066598 0.13696638 -0.080363773 0.022830911 0.10119431 0.023789188 -0.17930026 0.029510694 -0.095643684 0.16968331 0.10630431 0.095714308 -0.025575612 -0.13791613 0.080738232 -0.0069042887 0.045308508 -0.084951796 0.18991242 0.3009994 0.081687726 0.035463642 0.15077743 -0.18576086 -0.20065048 0.052978177 0.096590154 0.065907896 -0.03082099 -0.011031248 -0.030270966 0.077423468 -0.10606252 0.037691113 -0.14170544 -0.19490512 -0.032819252 -0.00070805865 0.011789938 0.03085204 -0.040369071 -0.064437062 0.15867257 0.094048686 0.054973565 0.049280077 -0.27429065 0.081506073 0.0062163388 0.03691195 0.065413363 0.052526876 0.038318153 0.070674293 -0.041597862 -0.24514143 0.013138093 -0.019960482 -0.089335442 0.063453801 0.011371704 0.00062584918 0.045921106 0.19593881 0.12050945 -0.27772701 0.11304194 0.042919219 0.22354673 -0.17883268
1010 -0.18397981 -0.098150156 0.048530724 -0.76717538 -0.30969748 0.055787981 -0.12147646 -0.056408629 0.34848022 -0.0013226186 -0.13214783 0.53342503 -0.090419017 -0.07428465 -0.070771046 0.27686897 0.30676541 -0.12316711 0.47506723 0.12203096 -0.26524663 0.030476144 0.81504875 -0.13788703 -0.029963063 0.1100622 0.2533617 -0.25022539 -0.16838109 -0.061899841 0.08764708 0.36931249 0.084353402 0.073902607 -0.22708701 0.046628758 0.22602405 0.00069912418 -0.039544977 -0.19923332 -0.022468524 0.30691713 -0.46467012 -0.15858759 -0.11154316 -0.032178506 -0.40362361 -0.1409618 -0.0057826322 0.47020113 0.006267759 -0.089238055 0.016163761 -0.46101853 -0.018192457 -0.069196723 -0.012754223 -0.25051361 -0.10120212 -0.28973672 -0.022610595 0.24738367 -0.11542814 0.2113422 -0.0029251697 0.29048386 0.25086015 -0.047769558 0.049607459 -0.066453569 -0.40085539 -0.038148742 0.083086967 -0.12171438 -0.077680476 -0.2178058 -0.38370252 0.22157286 -0.44618282 0.0296482 0.1354548 0.27102399 -0.013664795 0.023762435 -0.22346625 0.14210345 0.17871566 -0.061659943 -0.067846589 0.27632219 0.0097718546 -0.3424229 -0.13645111 0.15867996 0.29338309 0.34865415 0.048981998 -0.12611459 -0.063267902 0.13979249 -0.050074019 0.2017944 -0.026553078 0.041158073 0.22557893 0.077958286 -0.21397966 -0.35048673 -0.16910024 0.11480621 0.22624321 -0.34309512 0.054039516 -0.18635453 -0.063747413 0.081429712 -0.045953851 -0.10278882 -0.48541555 0.34293276 0.33469126 0.12683667 0.5185619 0.089005142 0.1222963 -0.20593117 0.19809954 -0.34804791
215 0.23365499 0.099658847 0.093824826 0.060633525 -0.092741914 0.018221399 -0.085692167 0.17266341 0.27472904 -0.16947746 -0.37440825 0.050681815 -0.068667814 0.077642523 -0.050534226 -0.14786938 0.088824078 -0.1977122 -0.16092679 -0.1664921 0.016891114 0.15033224 0.19056831 -0.12880868 -0.026693607 -0.0709235 0.029004982 -0.16150638 0.027789257 -0.0014016466 -0.069531769 -0.10671296 0.026451832 -0.17323256 0.19306652 0.23706333 -0.18141976 0.13278437 0.1281884 -0.16953556 -0.12348402 0.030557208 0.20562991 -0.12924144 0.2227194 0.099911198 -0.041068319 0.091728725 0.16640063 0.10117088 0.11069822 -0.21886779 -0.44552532 0.21765378 -0.10817339 -0.14937355 0.2875587 -0.089595571 -0.092689127 0.14066014 0.17645757 0.064254202 0.050635904 0.044556454 -0.047682397 -0.019846203 0.012947389 0.0046470002 0.22102831 0.18836665 0.059753489 -0.27725592 0.046148997 -0.0058026337 0.073168047 -0.10638465 0.13901298 0.15209837 0.052961953 -0.1216089 0.013277476 0.063206404 -0.013043771 -0.2026132 0.096306264 -0.11813059 -0.12224083 -0.15028356 0.050305124 -0.025440581 0.017089475 -0.078566462 -0.075277083 0.12648378 -0.0075931521 0.27413243 0.036922004 -0.174284 0.12423455 -0.1268415 0.10005025 0.080073349 0.010096216 0.2001103 0.0077808239 0.23605351 0.16159989 0.00036070973 0.020824939 0.22420481 -0.018973276 -0.019786747 0.040812477 -0.16541637 -0.11581971 0.15720502 -0.19965602 0.20584592 0.24215172 0.13653517 0.25141022 -0.057897113 0.023265341 -0.013972252 -0.14626108 0.016021464 0.063566118 -0.028112337
101 -0.13492361 0.018983319 0.156517 -0.0800642 -0.067456268 -0.10057529 -0.064710185 0.055423018 0.12675349 0.083300605 -0.16845447 0.010851 0.011794969 0.070480734 0.038231093 -0.13103342 0.13851593 -0.04360199 -0.20351043 0.15083873 0.1801582 0.077769965 -0.091863692 -0.076629542 -0.093264192 -0.065186486 0.14111932 0.022197571 -0.031150892 0.007981658 -0.13680993 0.14924084 0.0075504538 0.079512335 0.16626334 0.089504443 0.043179646 0.013113494 0.0057016155 -0.080209188 -0.10585956 0.020124167 -0.025770236 -0.048851509 -0.055052701 -0.027205776 0.25664544 0.2406885 0.015506671 -0.0015874206 0.20489572 0.067266792 -0.090382397 0.027919684 -0.36517426 -0.073768161 0.047790643 -0.082155503 0.1935264 0.37544394 0.224389 -0.14434499 0.17340025 -0.032979999 -0.10981623 0.074891351 0.0061281803 0.15029223 0.20273723 0.063095242 -0.02130485 -0.074246995 -0.092981145 -0.085533403 0.11735938 -0.028867921 0.0093184719 -0.038992509 0.15023592 0.11070542 0.14319126 -0.0059843538 -0.19132133 -0.14646348 -0.11060072 0.09727516 0.0026455319 0.044120111 -0.052649356 -0.068830632 -0.13602841 0.085651532 -0.10384347 0.010657887 0.057124112 0.093958981 0.041931607 -0.22850183 -0.12984537 -0.17000301 -0.0065366658 0.05708646 0.069817469 0.13169925 -0.19421482 0.17326926 -0.099230506 -0.039661024 -0.071177751 0.21296346 0.022878766 -0.028899439 -0.027028916 -0.043041565 -0.1461935 0.10835178 -0.08719521 -0.010851394 -0.082666069 0.049682185 0.020695124 0.070943721 -0.0084855407 -0.15896259 -0.023132188 -0.036768522 0.12313017 -0.16665918
446 0.15800734 0.19572376 0.01207153 0.040649831 0.0010407374 -0.014891157 0.0045397608 -0.027155757 -0.048468914 0.0203539 -0.10545851 -0.00052730157 0.060044903 -0.048594095 -0.0085177394 -0.1622909 0.15642376 -0.00054149044 -0.1091897 -0.06770286 0.098101616 0.039818116 -0.21145794 -0.030827781 0.12202711 -0.020232644 0.040451221 -0.030307118 -0.15364265 0.11401315 -0.038681835 -0.046232574 0.060151465 -0.056282647 0.037618682 0.28172347 0.041881353 -0.0066752313 0.009774846 0.11766266 -0.049521714 0.15859246 0.019443847 -0.17523246 -0.098179407 -0.12780318 -0.060590193 -0.04145724 0.028873708 0.0060306764 0.22966537 -0.080470882 -0.081796125 -0.025426866 -0.26084629 -0.087393478 0.11881994 0.018672487 0.077959135 0.13055573 0.055703659 -0.095022023 0.050730836 -0.069281571 -0.00021569719 -0.041891366 0.043512907 0.24849811 0.18859154 0.079844311 0.046975195 0.015265569 0.13710427 -0.071025379 0.030050417 -0.034866471 0.043848798 0.013557547 0.093505211 -0.02500535 0.35673302 -0.058983982 -0.13453364 0.01328848 0.046765208 0.02086205 -0.054237038 -0.068343535 0.05056712 -0.084736273 -0.051591996 -0.018206349 -0.087951243 -0.061909672 -0.005737402 0.11399502 -0.10387906 -0.12151466 0.0029096096 -0.051609255 0.097525544 0.073582672 0.058393378 0.25207704 -0.22835657 0.078769147 0.0090806447 0.063031048 -0.080854267 0.027538124 0.13711579 0.031214116 -0.095163651 -0.26919487 -0.0086198905 0.15124191 -0.086592048 -0.11620175 -0.034081019 -0.013181363 0.045117911 0.043495532 0.057281099 -0.070384614 0.025609881 -0.12506014 0.17705283 -0.1617789
54 0.052072436 -0.0001733447 0.072846942 0.012948099 -0.045885868 -0.033890475 0.006545282 -4.5414272e-05 0.11060116 0.0076230662 -0.17632143 -0.14749296 0.077718355 -0.048323244 -0.17514725 -0.21874116 0.17906748 -0.018061584 -0.2456442 -0.0239977 -0.089992918 0.039464694 -0.070481606 -0.069802471 0.019638862 -0.0045223664 -0.10632966 0.056518339 -0.13694042 0.015994892 0.13838229 -0.027139058 0.042892151 0.096087448 0.080965579 0.18832612 0.042055577 0.034386821 -0.034571223 -0.030887384 0.014343419 0.075440802 0.065798432 -0.31746182 -0.16291909 -0.049549755 -0.11148413 0.20176992 0.077818729 -0.024739046 0.0024396775 -0.11061322 -0.097130097 -0.068313055 -0.050629728 -0.046829857 -0.12183885 -0.00089301274 0.062195178 0.21815325 0.10244209 0.027700486 0.13046376 0.0072715231 0.061402809 -0.052727327 -0.011677996 0.13796757 0.17241617 -0.085022099 0.018151572 -0.11171623 0.089260422 0.054450795 0.11286525 -0.10280322 0.045317691 -0.095856249 0.23679887 -0.022753369 0.29929885 -0.09921369 -0.079589844 0.0020766691 -0.10132966 -0.010196243 0.06206708 -0.12150437 0.01159089 -0.038629245 -0.011673016 0.094445147 -0.19171318 -0.041798655 0.065750726 0.054572962 -0.19055864 -0.10620224 -0.033155963 -0.13591981 -0.0050525046 0.11531582 0.024406098 0.035311487 -0.14727928 0.1732465 -0.086158775 0.067074068 -0.13116401 0.069105007 0.18154107 0.0049701119 -0.043056872 -0.32029298 0.049089983 0.059742268 -0.084733553 0.0020768472 -0.055683762 -0.026549676 0.065659992 0.12970349 -0.039111171 -0.1636921 0.10276689 -0.068584718 0.18546207 -0.063908137
477 0.043536481 0.21421216 0.004263116 -0.20412177 -0.32305354 -0.053838611 -0.21004811 -0.16183215 0.24517086 0.19349839 -0.2059447 0.12954187 0.054139383 -0.31084421 -0.050477229 -0.11195628 0.10757257 -0.17314835 -0.16303939 0.057418838 -0.0055131381 -0.06327682 0.12805146 -0.24158284 -0.10679852 -0.0074596452 -0.071790017 -0.11491874 -0.0053862967 -0.12460299 -0.16269505 -0.020563442 0.12769055 0.04077943 0.13992882 0.096648932 -0.082344189 0.19548334 0.028609348 -0.1890208 0.13557476 0.056118324 0.21348014 -0.43975857 0.3265816 0.12706976 0.016690558 0.19918229 -0.093692727 -0.27417296 -0.023540154 -0.015684066 -0.12929431 0.14386894 -0.10809161 0.021681255 0.10991406 -0.31371427 -0.030932149 -0.059229374 0.059233934 0.012203681 0.051723953 -0.052744426 -0.22468692 -0.076940663 0.17938767 0.20282479 0.11028355 0.1581656 0.078567609 -0.049599003 -0.096400857 0.15438934 0.090984829 -0.034202009 -0.11299654 -0.20469545 0.22867741 -0.10093503 -0.064239345 -0.054288421 -0.078851052 -0.22069855 0.089918628 0.01121276 -0.061796859 0.16077061 0.1437695 0.12225759 -0.30601823 -0.19239908 -0.043789774 0.06267406 0.3151947 0.35171202 -0.027534841 -0.0052135051 0.040742643 -0.11103351 0.17020768 0.04809361 -0.15729694 0.034407992 -0.15227628 -0.14200379 -0.11112289 0.0089435 -0.0027364765 0.051841009 -0.29245585 0.20286879 0.24026115 -0.21016695 -0.3287628 0.18317497 -0.1775002 -0.11723864 0.50450951 -0.15767577 -0.028725218 0.06766662 0.4874441 0.10933875 -0.1853096 -0.25100282 0.15814336 -0.10632037
249 0.08644703 0.13277043 0.062397618 0.080404244 -0.081168167 -0.12732504 -0.020967618 0.16978647 0.017715156 -0.026919436 -0.2160667 -0.080799118 0.098470643 -0.010786515 -0.046370547 -0.15846784 0.071966864 -0.071923256 0.010914263 -0.16568723 0.058337305 0.19615386 -0.0027046348 0.067378119 0.11376262 0.036629871 -0.10954959 0.052841268 -0.064516172 0.20192511 0.0066595222 0.042471964 0.0012285397 0.060384333 0.13189995 0.22239062 -0.036946155 0.016367773 0.052493654 -0.039697573 -0.1153185 0.13612244 0.014279623 -0.18924856 0.031574558 -0.13881512 -0.010808889 0.073192678 0.092326857 0.18732762 0.26483476 0.016809748 -0.031388886 0.021869879 -0.29311803 -0.049864482 0.089913867 -0.053777758 0.0030517557 0.020549875 0.019665234 -0.1451526 -0.062357485 -0.0025245966 -0.1829666 -0.080034815 0.086196244 0.24639079 0.20176896 0.098659329 0.053399574 -0.17654087 0.17364733 0.023509335 0.047004443 -0.047219239 0.18978278 0.036884181 -0.10165879 0.10265683 0.093991473 -0.074857526 -0.026783327 0.024045989 -0.122956 0.13776232 -0.030865602 -0.042174615 -0.023367468 -0.12927592 0.091890842 0.048794284 -0.065713681 -0.041272409 -0.08095888 -0.10534161 -0.28820094 -0.30083159 -0.054654993 -0.072595343 0.084076986 0.00070298515 0.079752415 0.20176083 -0.14919189 0.14026321 -0.017694341 0.077192649 0.13019809 -0.0030987326 0.14708708 0.13360995 -0.032016441 -0.17417638 -0.18516229 0.27494195 -0.042749159 -0.086624093 0.0058062905 -0.05108656 -0.0096427519 -0.035109304 0.036984589 -0.072997458 -0.13606377 -0.10299741 0.1785385 -0.23146392
459 0.054160737 0.095807187 0.039123751 0.026521275 0.011459884 -0.15684304 0.01721378 0.1537068 0.034445252 0.062295247 -0.21638712 0.051222645 0.056845393 -0.011311305 0.19951978 0.022852605 0.090165369 -0.12386852 -0.21621445 0.35591012 0.13657406 0.055682898 -0.077362992 0.080138631 0.1768479 -0.050887961 0.18034269 0.010537396 -0.24377203 0.070730105 -0.24893145 0.022246409 -0.13501817 0.13149455 0.067619696 0.14250566 -0.041540477 0.0794686 0.1669098 -0.16746938 -0.20738883 0.097941451 -0.028233873 0.1202462 0.002366893 -0.0022712518 0.037694104 0.1362413 0.0064810687 0.11530307 0.25232959 -0.065419815 -0.083983228 -0.090920128 -0.27780142 -0.17060526 0.013151211 0.0091863191 0.068011925 0.14419159 0.10768022 -0.034826308 0.042823497 0.0020014506 -0.092815682 0.035606965 0.01397338 0.19338547 0.31724229 0.026246801 0.075974099 -0.095286265 0.27568683 -0.091483474 0.050448436 0.062354192 0.050089687 0.014279708 0.24731664 0.1763216 0.062742911 0.14388056 -0.14314581 -0.098036095 -0.030499887 -0.06869787 -0.1662164 -0.034573633 -0.010898847 -0.034618057 -0.18658277 0.073754229 -0.14339511 -0.066800751 0.14912932 0.23572597 0.066627517 -0.31309742 0.0044977022 -0.24543905 -0.093583405 0.060003858 0.048965704 0.0068390914 -0.14820839 0.21718238 -0.14681509 -0.052325685 -0.10870911 0.18375854 0.066340573 0.12457509 -0.008790344 -0.0027916091 -0.097269438 0.22881345 0.08642336 -0.02315581 0.043832771 -0.13890484 0.14803137 0.13001759 -0.13891129 0.028146716 -0.071471162 -0.059593711 0.10889632 -0.1006892
256 0.055898823 0.079887465 0.0036044559 0.030611226 0.067191206 -0.093236499 0.084773891 -0.020279618 0.21348575 -0.0010269916 -0.22087777 -0.12260004 0.027171316 0.060401082 -0.061698645 -0.18118139 0.21352448 -0.09803015 -0.090809904 -0.047924969 -0.019732347 0.015474761 -0.09859366 0.056521695 -0.08904881 -0.083807237 -0.018404745 0.060967263 -0.14135218 0.15822126 0.013804308 -0.011446292 0.022753431 0.15971602 0.06806621 0.16502252 0.062042564 -0.082484029 -0.00249746 -0.15651384 -0.01982028 0.19041221 -0.010871897 -0.19726655 -0.092961341 -0.092367552 -0.038252458 0.044104911 0.0011289625 -0.058640119 0.28720659 -0.011151637 -0.14881872 -0.035958443 -0.20003857 -0.080401808 0.055759594 0.14554521 0.092585452 0.078952245 0.23513718 -0.32276729 -0.10711439 0.065762989 -0.11562453 0.018140255 -0.017164998 0.13117947 0.11731637 -0.036628764 -0.067896508 -0.083488718 -0.18042472 -0.036037501 0.17416313 -0.094160549 0.14209573 -0.0039247172 0.081015877 0.025450351 0.24679017 -0.088060178 -0.13114825 -0.037903309 -0.025186839 -0.055009 -0.021872677 -0.031978741 0.16825135 -0.15740807 0.0054912269 -0.21090083 -0.1038762 -0.015799647 0.11381638 -0.0084930612 -0.12332687 -0.10331605 0.050314441 -0.038574476 0.10506672 0.085528836 0.076481849 0.11470441 -0.10059577 0.30160937 -0.101313 -0.0040082145 -0.055214431 0.11300299 0.10756259 0.045654483 -0.13015953 -0.23648462 -0.14154926 -0.062076665 -0.10155929 -0.043014605 -0.10679536 0.028241996 -0.009275293 0.13056771 0.067016937 -0.097485498 -0.05108 -0.024912393 0.20809592 -0.091488115
92 0.070883453 0.12118989 0.067283414 0.0225053 0.03313677 0.089990228 0.033187363 -0.045873392 0.087962367 0.12366753 -0.14922927 -0.094416142 0.056398612 -0.066599831 -0.084022455 -0.1284135 0.16913013 -0.04929594 -0.065016024 0.016572302 0.0016967456 -0.0044406424 -0.074761428 -0.066502184 0.091374762 0.025743484 0.00054494489 -0.060825448 -0.094864547 0.065909334 -0.055387754 0.0078152111 0.0083778845 0.15534359 -0.024603659 0.13445878 0.11701985 -0.038499169 -0.064874485 -0.094108 -0.1322265 0.07018768 0.023701342 -0.10786403 -0.083067805 -0.1337743 0.12305504 0.027594423 0.087555461 -0.059253328 0.24886714 -0.035575554 -0.13508844 -0.02200906 -0.19052501 -0.04643032 0.00029325308 0.0037594833 0.044524487 0.17799532 0.13501568 -0.061490603 0.015841961 -0.034769952 -0.10755216 0.0042710863 0.06012686 0.15908672 0.17250918 -0.034780238 -0.045520719 -0.1256002 0.067502238 -0.021658368 0.065040588 0.037984796 0.073454022 -0.012957932 0.20690943 -0.025608681 0.19028313 0.042225759 -0.038283341 0.058729462 -0.0042278077 -0.0064546154 -0.0083268844 -0.17446461 0.048529815 -0.081891805 0.019808644 0.0030836777 -0.099137798 -0.025773866 0.00061079906 0.065426491 -0.0030243769 -0.064634643 0.016384887 -0.060819656 -0.0015774206 0.064907372 0.017830724 0.058622893 -0.27323946 0.24001543 0.011147494 -0.00043033561 -0.056205146 0.064309925 0.00035496059 0.21763469 -0.017060166 -0.33179674 -0.08345513 0.052977536 -0.19968706 -0.053755678 -0.023744885 -0.03466088 0.09780252 0.058015462 0.036778416 -0.1234251 -0.003485831 -0.059504066 0.1940079 -0.20220061
232 -0.093558155 0.12931277 0.26089454 -0.037265081 -0.21136072 -0.10077289 -0.089590698 0.09312015 0.01281004 0.10385816 -0.22935684 0.030256482 -0.073316716 -0.12915388 -0.009144634 -0.10779521 0.27739081 0.0658435 -0.28381574 -0.16688831 0.13501714 -0.13726556 -0.034730807 -0.18115889 0.073387727 0.028443521 -0.040899068 -0.19814447 -0.14812045 0.076671042 0.036129531 -0.070568763 0.19304799 -0.12244305 0.22152404 0.090378486 0.056108788 -0.096364923 0.047486849 -0.17626525 -0.063204303 0.064159065 0.011403982 -0.14141929 0.049618643 0.04425557 0.21660991 0.0076781837 0.16564943 0.065144293 0.12910849 -0.11903534 -0.073151633 -0.2526809 0.097319394 0.049382418 0.066274539 -0.044452343 0.10501213 0.24663547 0.16822001 -0.16162266 -0.038751189 0.080620743 0.038062006 -0.05150938 0.0078960806 0.18663187 0.15943117 -0.049702045 -0.031212423 -0.13595082 0.081882633 -0.13494924 0.045833651 0.071516931 0.0366254 0.077107906 0.14119425 0.1734574 0.14738904 -0.12827539 0.13751926 0.040625643 -0.23508568 -0.090684161 -0.20618811 -0.22617814 -0.025776107 -0.21215063 0.0082648089 -0.028868213 -0.17384626 -0.061107125 0.31299067 0.10461888 0.094315633 0.078837141 0.024593405 -0.04401787 0.29391465 0.08506196 0.014390321 -0.012512682 -0.15244402 0.097185254 0.09932965 -0.062157601 -0.025469763 -0.070763439 -0.022845218 0.21883386 0.076760851 -0.19248883 0.13501447 0.10881796 -0.085124575 0.0209937 0.17330018 -0.12443487 0.063993767 -0.034308903 0.21771486 0.053638451 -0.19709904 -0.2509605 0.11174481 -0.050843827
77 0.10501567 0.045097578 0.15110521 -0.015101551 -0.08183945 -0.027108461 0.033452727 -0.017838014 0.13160715 0.040187441 -0.20297123 -0.15062073 0.16220249 0.01087308 -0.073585764 0.010872802 0.13056286 -0.056099702 -0.023183882 0.0022235827 -0.010133771 -0.11495139 -0.029209096 -0.068668991 0.058912214 0.052109059 -0.036402967 0.16050676 -0.13772571 0.052196998 0.081798397 0.0057030693 -0.082529493 0.047189075 -0.022081742 0.21045326 0.025328724 0.064567938 0.054968338 -0.18470207 -0.069945723 0.082905263 0.031090256 -0.27212343 -0.053535797 -0.015288905 0.0063919798 0.12252854 0.040826418 -0.049628202 0.18876776 -0.023516098 -0.13564809 -0.10594344 -0.25119361 -0.072954141 0.14188109 0.14245518 0.083501719 0.19551849 0.17643034 -0.1840544 0.082738809 -0.12559712 -0.10477863 -0.0063403142 0.058947247 0.055490296 0.19061388 -0.048300639 -0.022084123 -0.097328693 0.096870705 0.016983973 -0.03474991 -0.030788308 0.040947828 0.19136147 0.10004134 0.12698975 0.077670172 -0.12259179 0.019566223 -0.068380632 0.087422483 -0.0092349574 -0.065542512 -0.042126492 0.026871424 -0.30236036 0.010149153 0.032553248 -0.084351592 0.009046807 0.20495279 0.096090257 0.021951225 -0.0093772393 0.030673435 -0.16082284 0.18016405 -0.018809889 -0.012650325 -0.043948792 -0.11948713 0.27110007 0.021549834 -0.011650785 0.059092756 0.048807047 0.033470571 -0.0037167252 -0.11184099 -0.461472 -0.096029535 0.17456669 -0.18145271 -0.11176999 -0.097971171 0.027094591 0.046309087 0.075313032 -0.013875835 -0.11385546 -0.040009115 -0.017294124 0.062910222 -0.16113545
226 0.020528769 0.0062131584 0.091898218 -0.025508745 0.057402857 -0.024252124 -0.063048385 0.023385126 0.0054153171 0.031518329 -0.28079972 0.0038938567 0.10297932 -0.060764834 -0.067311957 -0.083431982 0.19261329 -0.06152511 -0.081445321 -0.028182821 0.086432911 0.028315628 -0.027986061 0.0012171908 0.054082524 0.002979737 -0.070450321 -0.027893834 -0.081031024 -0.016768605 -0.045220658 -0.070505574 -0.010139544 0.098500103 0.06169901 0.20498464 0.012966914 0.033078056 -0.07116244 -0.084574647 -0.0074075996 0.1920919 0.0060178684 -0.19580078 -0.010483542 -0.076825291 0.04623862 0.062608384 0.095127732 -0.016491832 0.099535957 -0.085517049 0.024272632 0.013218656 -0.17720222 -0.082604334 0.035619553 0.096897192 0.06188421 0.18584296 0.041911542 -0.10532854 0.0039697704 0.028981578 0.045308355 -0.013124679 -0.054472808 0.20810638 0.1898281 -0.080414236 0.03250248 -0.14117788 0.0015766111 -0.019978495 0.066038184 -0.0073157633 0.072636381 0.053958073 0.12560561 0.09533757 0.24174877 -0.0023148407 -0.15525782 -0.004209674 -0.08104185 0.058453493 -0.088682473 -0.090209678 -0.0019193338 -0.1084883 -0.13193883 -0.039133258 -0.052119702 -0.050064724 0.013936234 0.12586017 -0.072714582 -0.082986869 0.014334235 -0.095569357 0.047691032 0.12044562 0.066624686 -0.050037961 -0.17666046 0.24605247 -0.094764344 -0.019162066 -0.1095347 0.13242011 0.10500222 0.11913171 -0.071496554 -0.36601982 -0.067736492 0.015600783 -0.14977962 -0.055566873 -0.019189414 -0.059129827 0.047281254 -0.021099549 0.073148206 -0.092460498 -0.048726317 0.0030191746 0.24211358 -0.13710307
353 0.029789526 0.083164945 0.069226585 0.0024564574 0.089060344 0.0061855847 -0.073885724 0.064836308 0.091358162 0.092566743 -0.1408221 -0.071859181 0.054004867 -0.034767453 -0.15647654 -0.10582207 0.20945545 -0.0026911458 -0.044976003 0.036737606 0.016013172 0.075084969 0.022122381 -0.040320728 0.094144516 -0.072159261 0.025570983 -0.08412049 -0.071766101 0.016416673 -0.00046172657 0.039011136 0.10000971 0.082567275 0.022397259 0.17769395 0.012917314 0.036495589 -0.051026274 -0.060530618 -0.12039664 0.19264953 0.14856139 -0.14842011 -0.14748123 -0.0041600903 0.043355834 0.13119745 0.03529254 0.00011910453 0.13150071 -0.074237503 -0.024885427 0.1263838 -0.13033631 0.021919621 0.048618272 0.056990162 0.077757567 0.1851487 0.088605896 -0.19874136 0.090378828 -0.0025540767 -0.04351826 -0.11560978 -0.020015351 0.16438735 0.16230455 -0.077824369 -0.030110115 -0.048100431 0.017206872 -0.012308444 0.11743611 0.069277249 0.03765795 0.023652928 0.11657186 0.027834851 0.16476761 -0.057813793 -0.12047886 0.027019724 -0.05958233 -0.023900844 -0.09102194 -0.093362495 -0.014259561 -0.16852447 0.031902429 -0.020190047 -0.085835494 0.025502073 0.024195183 0.10113923 -0.052677978 -0.084215552 -0.049011447 -0.1366055 0.067164406 0.14168245 0.026438968 -0.025196221 -0.17723787 0.24134345 0.010914409 0.012615304 -0.09057194 0.10379312 0.10211891 0.17126149 -0.097522534 -0.32429993 -0.12584648 0.099192388 -0.035223242 -0.087557755 -0.12643057 -0.016631216 -0.025168646 0.056809429 0.062395584 -0.15947683 -0.047468197 -0.014486297 0.16582009 -0.19547242
365 0.071073331 0.061672609 0.11126308 0.12627979 -0.0034458803 0.023683228 0.006456824 0.022487311 0.072660618 0.089265421 -0.22088531 -0.089838743 0.026959442 -0.023753613 -0.11815347 -0.19142497 0.16488945 0.059657726 -0.072405554 -0.0058319657 -0.037938278 0.11572234 -0.11544973 -0.049900662 0.10226925 -0.0604502 -0.099743195 0.041390684 -0.15502796 -0.02822227 0.0068699312 0.031930458 0.07880637 0.028303485 0.1099221 0.21254341 0.031541571 0.097766869 -0.047909789 -0.029166201 -0.084943637 0.095803745 0.089856699 -0.206677 -0.15900469 -0.040431209 0.011934143 0.16054596 -0.0059959795 0.054031096 0.043672055 -0.072733812 -0.081890941 0.078424722 -0.089675292 0.025550092 -0.00055717572 0.084615707 -0.043379392 0.25957331 0.14147772 -0.036584314 0.1206443 0.017825888 -0.013992902 0.098838717 0.039324105 0.21711773 0.19826791 -0.029906239 -0.028401669 -0.2169551 0.010235553 -8.6479042e-05 0.040719405 0.008389337 0.00203865 -0.067843191 0.068523474 -0.016135275 0.22588575 -0.042952318 -0.091837578 -0.048228811 0.014642145 -0.0070453547 0.011507456 -0.18839435 0.0074397172 -0.076029636 -0.05188188 0.024262091 -0.093633562 0.0071584173 0.021696517 0.068470471 -0.16061936 -0.0078488393 0.15998602 -0.036724266 -0.0035375617 0.11284246 -0.036754522 0.0058412543 -0.11771237 0.1926771 0.027366975 0.043765768 -0.051640615 0.10079244 0.051865902 -0.010775785 -0.025110655 -0.33207408 -0.022917526 0.12761682 -0.17241934 0.017903607 -0.021976436 -0.10775958 0.10647882 0.17427236 0.12123265 -0.14801683 0.066116691 0.047936115 0.19130605 -0.20634747
16 0.14576802 0.098994873 0.15934236 0.072204426 0.05822257 -0.055819873 -0.032774661 0.0067337779 0.1221003 0.091632321 -0.2120408 -0.017883632 -0.033925407 -0.10721932 -0.00080461864 -0.089303784 0.21434677 -0.075753197 -0.086972333 -0.081903376 -0.017595146 0.042100318 -0.11415923 -0.0040534437 0.10235369 -0.12695087 -0.036508717 -0.15062311 -0.14225107 -0.034837857 0.0044888505 -0.010127695 0.0970283 0.013703094 0.12358268 0.11500778 -0.0092275338 0.019243259 -0.0027351677 -0.10709473 -0.11184815 0.20348394 0.02602358 -0.26724756 0.0049153562 -0.051051743 0.031769823 0.033403128 0.14986132 0.096636727 0.12888287 -0.087021329 -0.0092416704 -0.10132097 -0.18178375 0.032927342 0.024814086 -0.036560893 0.10091718 0.17172815 0.14282325 -0.17122792 0.071299858 -0.023909517 -0.01498079 0.026455227 0.02275645 0.11051212 0.12763523 -0.048511654 -0.025175432 -0.10806096 -0.01440113 0.033874486 0.024740199 -0.039970104 -0.024675554 -0.0093768965 0.15613255 0.089968733 0.2343758 0.01844432 -0.019628644 0.069725856 0.0017221521 0.037487555 0.0054767453 -0.073053412 -0.03157961 -0.084072269 -0.054748405 0.00092132034 -0.062804431 0.040199265 0.05729685 0.10761919 0.012889242 -0.032587882 0.066923581 -0.058888022 0.11843514 0.14609365 -0.059762523 -0.037259873 -0.18162414 0.17482379 0.024749016 0.028655112 -0.11529789 -0.071620815 0.10071306 0.08387471 -0.032729119 -0.30565068 0.0099513531 0.10054494 -0.099420853 -0.05571603 -0.018848414 -0.066924311 0.0076810583 0.13839868 0.017004795 -0.10986517 0.015004444 0.12190529 0.16160718 -0.13694605
230 0.092445001 0.14329849 0.11978994 0.0034636629 -0.044433136 -0.044595115 -0.0032859747 0.033812001 0.01926291 -0.061467517 -0.080557652 -0.007516304 0.031460393 -0.12907606 -0.078325577 -0.16417879 0.18186961 -0.053464811 -0.14036453 0.10058369 -0.0022549252 -0.016698861 -0.074145406 -0.086100176 0.13106325 -0.067819074 0.13073066 0.13127354 -0.1221476 -0.082592189 0.011708417 -0.0054092254 0.063107602 0.042940769 0.008026097 0.062220659 0.091129266 -0.03854258 -0.098547757 -0.0551164 -0.037952147 0.063476399 -0.014407015 -0.19040352 -0.087316521 0.055585764 0.063547768 -0.070032388 0.015530981 -0.051574666 0.049925186 -0.024406979 -0.15505625 -0.00024605173 -0.21210495 0.029256478 0.033902001 -0.045456361 0.049139541 0.28127739 0.21983773 -0.11445902 0.089258909 -0.012418902 0.02350843 0.076633625 0.081102081 0.17172715 0.17615177 -0.069073372 -0.083562158 -0.002106871 -0.108788 0.015037241 0.10946839 -0.12167984 0.029851863 0.016667657 0.19571158 0.09773089 0.25432938 0.027880484 -0.039979327 0.054898139 -0.052266147 0.079516597 -0.085927248 -0.10380638 0.01681713 -0.13872656 -0.010600762 -0.10886195 -0.14166938 -0.05608682 0.022406587 0.071075201 0.038474061 -0.039237451 0.010355378 -0.23890044 0.075291649 0.10328776 0.074679509 0.036697704 -0.25703493 0.32301736 -0.07377205 0.052362613 0.033265121 0.13559477 0.099014714 0.079309464 -0.041264616 -0.34055027 -0.097734474 0.052243777 -0.14407063 -0.016155709 0.012601919 -0.093060046 -0.013670541 0.13802715 0.023979411 -0.11039288 -0.013234882 0.025617091 0.15903477 -0.17229515
9 -0.0058039497 0.085705571 0.1943506 -0.20127217 -0.027236274 -0.030616943 -0.10940442 -0.08260303 -0.018336384 0.082325049 -0.11941237 0.14414902 -0.069044523 -0.14552379 -0.051225975 -0.093700901 0.2635949 -0.13362207 -0.12206926 -0.10852113 0.081446178 0.034594946 -0.26176596 0.044049602 0.17641176 0.010645547 -0.10552596 -0.065245949 -0.15092994 0.05056113 0.058186747 -0.01703262 0.093779758 0.08533477 0.12182987 0.14848626 0.021407861 -0.027402118 0.16969213 -0.12471756 0.1242329 0.19434494 0.13408962 -0.13651517 -0.051188249 -0.17445786 0.043595776 0.016670989 0.11120375 -0.0060077976 0.16526692 0.072793491 -0.027129211 -0.13861899 -0.13951063 0.060506135 0.018026881 0.029932985 0.048949931 0.074607298 0.11008794 -0.10034798 0.086164974 -0.087761745 0.023877678 0.0078839846 -0.016355686 0.17358682 0.29264957 0.056376368 -0.13855003 -0.098622449 0.051021639 -0.10414414 0.16019055 -0.060295478 -0.0039498787 0.018500771 0.079880022 0.0049557993 0.16035196 0.054544579 -0.1224759 -0.053358804 0.0027131257 -0.060510516 -0.024375185 -0.037922483 -0.007361331 -0.098411836 -0.062374309 0.019615453 -0.2500183 -0.11289032 -0.00038157488 0.1858332 -0.13910708 -0.070647001 0.056791406 -0.11918809 -0.0049820705 -0.057586513 0.017504139 0.10902981 -0.20262477 0.28629035 0.20017818 -0.056524832 0.0056293258 0.25392759 0.19390517 0.16527098 -0.02756048 -0.23714484 0.14559639 0.11653431 -0.083016716 -0.004101797 0.14969628 -0.19330941 0.24498716 -0.10754329 0.054475877 0.0083605722 -0.14608499 -0.0076610688 0.10096302 -0.13004641
323 0.019288644 0.21366416 0.16341299 -0.070758224 -0.051010948 -0.0651889 -0.11096811 -0.092958339 -0.077469394 -0.087162659 -0.23392585 0.019833095 0.047799982 -0.16536757 -0.065855101 -0.10057657 0.035504021 0.13845062 -0.11649685 -0.08950045 -0.16374741 0.076091655 -0.13856003 -0.03428727 0.048209779 0.077856228 0.023868114 -0.12373893 -0.19983044 0.16815311 -0.13321978 0.057334695 0.13430907 -0.034220912 0.022777859 0.12578204 -0.096280918 0.1329284 -0.034815524 -0.16619231 -0.078539953 0.15334405 0.056879237 -0.041999374 -0.16651265 0.11514656 0.039552316 0.04192239 0.1603978 0.085113838 0.20463942 -0.07524132 -0.17373684 0.07519491 -0.26127061 -0.19969656 0.18271276 -0.11499488 -0.0030842158 0.30729917 0.14460818 0.078866228 0.0069582388 0.16149591 0.074224696 -0.09961623 0.045475144 0.33408839 -0.053346612 -0.034585588 0.11620479 0.019720247 -0.029699961 0.11100056 -0.015868697 0.061619941 0.20303366 0.1648684 0.072558023 -0.014142295 0.20250967 -0.088203542 -0.21416573 -0.11513887 -0.08862856 -0.069535404 -0.011001487 -0.060905017 -0.098483957 -0.077139385 -0.11277415 0.072102182 -0.38469094 -0.016371448 0.1472763 0.083390355 -0.038422052 -0.21505779 -0.11915881 -0.048426665 0.070309125 0.32829916 0.086828329 0.16038314 -0.052065216 0.041992337 -0.043525815 0.01182548 -0.055788659 -0.039659657 -0.0030297041 0.12587903 -0.041231174 -0.15264314 0.030572431 0.18127154 -0.093839012 0.028215237 0.071118765 0.1894086 -0.081158362 -0.15979216 -0.10777737 -0.12063695 -0.045842849 -0.018016675 0.046439946 -0.22168241
406 -0.012329025 0.1016503 0.23125318 -0.023587981 0.16300499 -0.028019805 -0.066315062 -0.049039308 0.063003339 -0.023058616 -0.3029691 -0.039786004 -0.046809241 -0.098925427 0.044757646 -0.056082569 0.085588351 -0.018848304 -0.050304569 0.067877486 0.052855346 0.014004857 -0.090629548 -0.057658333 0.09895362 -0.27221698 -0.0081831766 0.037747167 -0.068300299 -0.058784228 0.013977896 -0.16485192 0.056840625 0.10554616 0.074766606 0.19285479 0.072823919 0.10684507 0.091900364 -0.13103917 -0.14330958 0.20400359 0.09507446 -0.15986054 -0.10053552 0.073069587 0.0093718935 -0.0075088823 0.07269422 0.15865447 0.13990125 0.028872957 -0.12812051 -0.019235462 -0.20320968 -0.037842866 -0.042743441 0.13697386 -0.038601279 0.067477517 -0.016026359 -0.23549601 0.11461672 0.058115982 -0.029205328 -0.093801774 0.078116745 0.21993107 0.15780059 -0.091719329 -0.16971198 -0.026566856 0.098115787 0.10389201 -0.10866768 -0.11265961 0.10725858 -0.019991903 0.10513648 -0.0047892141 0.23073263 0.016582891 -0.054308616 0.093986489 0.11567727 -0.21017024 0.071811475 -0.025219679 0.027528897 -0.21221767 -0.089520946 0.1343497 -0.10280857 -0.015608134 -0.043095082 0.0783443 0.010453721 -0.097753651 0.12415637 -0.1487274 -0.015916059 0.059204422 0.016268004 0.049675804 -0.11197241 0.36286956 -0.040965643 0.10347851 -0.14183693 -0.024301063 0.034172881 0.13119084 -0.033040635 -0.20601629 0.059235491 0.078796908 -0.064124115 -0.11820702 -0.069903083 0.057154499 0.07574182 0.25485155 0.093924329 -0.15578425 -0.1931542 0.15891969 0.10914088 -0.040806171
337 0.18956636 0.12057537 0.15117551 0.044532411 -0.074295685 -0.15718272 -0.050252184 0.083661102 -0.13787085 -0.16709669 -0.39801025 -0.072401129 0.078069329 -0.0018889969 -0.21243313 -0.10595009 0.042263005 -0.1008871 -0.0016021517 0.0059935711 0.056773651 0.06767156 -0.031466626 -0.14571212 0.087224014 -0.068368256 -0.027075296 0.12730809 -0.089366183 -0.01925792 -0.015586793 0.0029436371 -0.046701752 -0.074182518 0.20626137 0.071152128 0.1015535 -0.0075983535 -0.19850521 -0.016330209 -0.023020014 0.11270057 0.078898989 -0.15413629 -0.13282116 -0.013557628 0.17925513 -0.11121385 0.031681608 0.051720645 0.16406904 -0.17455684 0.036902834 0.1701919 -0.23081814 0.016546573 -0.1524356 0.14349703 -0.0077487831 0.21386556 -0.0046655647 -0.026928194 0.087349758 -0.024965744 -0.22725824 -0.035019785 0.11274209 0.017782729 0.11029352 -0.057644527 0.0458108 -0.10870643 0.18628234 0.031989858 0.066148467 -0.034928523 0.092285745 0.044592489 0.10965303 0.048698179 0.18310918 -0.019214302 -0.064655378 0.012039195 -0.24901587 0.16684793 -0.030726759 -0.13158548 0.064074159 0.01169444 -0.12084994 0.034195352 -0.11924157 -0.058509886 -0.092913605 0.04258088 -0.064477168 -0.025928175 0.14717281 -0.17510527 0.069020815 0.17982541 -0.045816887 -0.034454279 -0.2873857 0.17173852 -0.024778696 0.063048176 -0.060132843 0.10326975 0.068144456 0.34288916 0.10319138 -0.21805713 0.00051116187 0.0303437 -0.27586859 0.037263863 -0.046961494 -0.15776373 -0.057749223 0.16707169 -0.046694949 -0.1580604 0.07941854 -0.070118092 0.15815572 -0.28662202
135 0.023363626 0.0043874565 0.10923289 -0.029618507 -0.051548321 0.0010766285 -0.0022217419 0.053176496 0.11926641 0.052506752 -0.12686658 0.026159348 0.049345534 -0.15191899 -0.011077264 -0.10299163 0.1005648 0.02846545 -0.067681991 -0.080861084 0.032441501 -0.015228527 -0.066452987 -0.023624234 0.14191821 -0.071079142 0.038284447 -0.06985303 -0.038382284 0.057167519 0.02598202 -0.049220212 -0.0040121484 -0.13610195 0.10086374 0.13737789 -0.029894199 0.095089786 -0.042443275 -0.084615462 -0.092282884 0.072948083 0.086726129 -0.34762618 -0.057406839 0.020847069 -0.050623905 0.11844198 -0.097837195 0.033453308 0.16131799 -0.055030867 -0.061285622 0.02154029 -0.16864572 -0.0027592878 0.093823396 0.028623749 0.062459286 0.19651547 0.12264075 -0.092157252 0.014026663 -0.0049899966 -0.045172859 0.11352447 0.047985662 0.29148182 0.14415528 -0.042741351 0.0080640269 -0.16609474 -0.027748577 -0.013938338 0.008981063 -0.064732127 -0.022850648 0.1140236 0.10784502 0.099460997 0.20386754 -0.022231 -0.0461368 0.11221314 -0.057714906 0.012921545 -0.086839512 -0.070880093 0.087203763 -0.13638425 -0.0066304891 -0.027886853 0.028144279 0.006549058 0.093617253 0.13601282 -0.033041332 -0.0043935613 0.097373903 -0.047939487 0.12050632 0.065701 0.11867292 0.076976463 -0.17166962 0.13884321 -0.1298815 0.18255156 -0.023327366 -0.068836853 0.12112284 0.14809766 -0.037986882 -0.20487204 -0.064988516 0.085535407 -0.18853205 -0.16910934 -0.095629185 -0.096424028 -0.03777336 0.081572734 0.041495822 -0.12763415 0.0094034085 0.038227819 0.23366164 -0.13756494
294 0.087237678 0.051527351 0.12820266 0.0065003196 -0.12206935 0.028252374 0.011195701 -0.0080142431 0.11079929 0.052766249 -0.009549303 0.09590181 0.084761679 -0.0023773036 -0.11940188 -0.089333139 0.20997606 -0.089084193 -0.13374397 -0.0053631132 0.10406714 0.13407919 -0.024076361 -0.12146261 0.044998232 0.03450875 -0.15021375 -0.10092021 -0.14958023 -0.049574457 -0.17584693 -0.024392081 0.0036794574 -0.055667769 0.10694353 0.12814456 -0.036159437 -0.052012689 -0.047777586 -0.14745976 -0.08904624 0.20089991 0.22438122 -0.24817641 -0.075405292 0.045594078 -0.022005575 0.043432694 0.19008687 0.03457306 0.19404265 -0.11539647 -0.14152373 0.089441702 -0.1156 0.011156875 0.15659596 0.029294882 0.1006688 0.12059528 0.11685818 -0.11748963 -0.025463656 -0.0006539016 0.053539209 -0.084887229 0.00060637487 0.21120407 0.017457059 0.047150094 -0.065222688 0.018745132 -0.075620584 0.060755569 0.045418479 -0.088669844 0.13192905 0.082103297 0.085517928 -0.10994753 0.24719116 0.0073584262 0.013056261 -0.1125197 0.062452357 0.0064310827 -0.14162964 -0.088410594 0.018625161 -0.15892872 0.0029024335 -0.11691349 -0.19817735 -0.066458344 0.0079732696 0.25881678 0.073562682 -0.062340889 0.11389933 -0.035011504 0.13321792 0.12388563 -0.12464548 0.12440527 -0.10524964 0.18357667 0.001523213 0.039289638 -0.11357518 0.10441174 0.070074536 0.047798548 -0.088234827 -0.25948212 0.023588663 0.073788047 -0.15184547 -0.059208777 -0.0071255215 -0.030474951 0.089841768 -0.019145809 -0.032170501 -0.094389774 -0.02400401 -0.095655225 0.20648296 -0.12853035
375 -0.041642386 0.049232915 0.13763921 0.084686115 -0.0097723696 0.007415175 0.0063204304 0.04833087 0.15547912 0.056882512 -0.18616897 -0.07880003 0.0079865837 -0.026427699 -0.15799293 -0.19488877 0.19103965 -0.039398029 -0.078464054 0.0054723788 0.044060767 0.088034987 -0.090992421 -0.036802832 0.052193083 -0.085683472 0.0038293861 0.025306229 -0.092422552 -0.0016102906 -0.033580821 -0.076467805 0.017199779 0.067854524 0.0017752204 0.18777905 0.028370883 -0.039090142 -0.042498514 -0.05540821 -0.022803428 0.098311424 0.020616964 -0.15304752 -0.004338738 -0.095192529 0.043737903 0.057185393 0.11893245 0.02955484 0.15644783 -0.0066674533 -0.21254127 -0.026987424 -0.14464864 -0.061404929 0.033424355 -0.0030942711 0.077272303 0.21246374 0.134982 -0.12126102 0.076373808 -0.064916581 -0.057449684 -0.030236952 0.11409882 0.14978781 0.076544464 -0.047817446 0.046638697 -0.19207546 -0.0076460773 0.028109459 0.11806481 0.036994681 0.044444088 0.01830646 0.045897655 0.0014880797 0.25420523 -0.017963765 -0.034120813 -0.00014554281 -0.10193107 0.040783342 -0.093211308 -0.026466018 0.10823666 -0.098952025 -0.029109158 -0.028187964 -0.10821669 -0.0035183267 0.047728028 0.13581787 -0.054623675 -0.08482226 0.025149379 -0.03362482 0.030731667 0.075083904 -0.0067083375 0.1047845 -0.22702685 0.28218788 -0.035638906 -0.026510898 -0.039608452 0.064980455 0.032750942 0.17477624 -0.053569023 -0.24796993 -0.042675305 -0.058309499 -0.16241336 -0.074042976 -0.096424989 -0.075343505 0.072788246 0.12317787 -0.015779369 -0.08054395 0.050656177 0.015043939 0.22879973 -0.12843759
196 0.016302843 0.14074185 0.079566009 0.052040029 -0.039632831 -0.09128879 -0.11824376 0.012349072 0.060523562 0.11443064 -0.12393138 -0.10764441 0.055668987 0.0032167044 -0.043503191 -0.16888839 0.25381404 -0.071883112 -0.09154886 0.015855197 -0.026210699 -0.0062521761 -0.030451057 -0.10501981 0.10887025 0.0017320429 0.028882695 -0.030225575 0.0018434249 -0.008053665 -0.0196719 0.036414802 -0.00095610705 0.04909756 -0.016779507 0.25212637 0.11334712 0.12834339 0.059967384 -0.11522302 -0.015752234 0.1563357 0.097507544 -0.19662823 -0.10919265 -0.086749494 0.098415956 0.013553386 0.030158585 0.042556565 0.102478 -0.022968246 -0.19786967 0.0033250388 -0.16496412 -0.033230517 0.057475589 -0.01023835 0.14849001 0.20651317 0.21254015 -0.095369868 0.040273312 0.013498216 -0.057854973 0.13537753 0.081035502 0.079877704 0.13753128 -0.08780086 -0.036883328 -0.18071869 -0.005624827 -0.048852671 0.14978503 0.004427379 0.015299739 -0.041317534 0.10863342 0.1290758 0.2059989 0.067573041 -0.0021322046 0.028275793 -0.021692473 0.063456565 -0.039722271 -0.11504505 0.0037591029 -0.10136758 0.010630503 0.081372105 -0.070879713 0.03474227 0.11549341 0.028833522 -0.10373368 -0.039775398 0.075162433 -0.10255371 0.029797509 0.10525373 0.016226724 0.098952837 -0.18003313 0.16140093 0.0015902595 0.083711259 -0.038900949 0.065143049 0.005679633 0.11569538 -0.11273778 -0.29099181 -0.02779899 0.10004501 -0.19018097 -0.11449639 -0.048605409 -0.0018857713 0.094191916 0.06704922 0.027693607 -0.13177088 -0.0017434305 0.042005643 0.21941453 -0.025679061
265 0.14767131 0.096312851 0.031971883 0.063267305 0.045146 0.024472255 -0.0041136802 0.04432248 0.019915204 0.075007923 -0.10775762 -0.019537998 0.067995399 -0.004773085 -0.096970916 -0.17184502 0.13470975 -0.12884636 -0.040589895 0.035824295 0.025258664 0.058270838 0.00018162707 -0.044145666 0.12938464 -0.026927672 0.010794361 -0.0048685623 -0.16180404 0.05854743 -0.060177121 -0.10414379 0.02411483 0.091721036 -0.048355307 0.090584844 0.071766749 -0.038568001 -0.014996629 -0.034907099 -0.1308749 0.24150099 -0.003553011 -0.2185265 -0.078819945 -0.018723542 0.096213534 -0.0028717681 0.067417711 0.040836226 0.074717186 -0.10393688 -0.081320956 -0.067511432 -0.2272661 -0.10270783 -0.0023692169 0.040139418 0.11844753 0.26973388 0.13757966 -0.15486978 0.15427351 -0.018209884 0.056320176 0.013968579 -0.0094673056 0.1782136 0.1878859 -0.020545553 -0.017864062 -0.17102431 -0.042141739 -0.011264311 0.13976836 -0.04971423 0.069970652 0.032814424 0.015381157 0.089602038 0.13611245 -0.0089456318 -0.070591748 -0.042799044 -0.0064900178 0.060608499 -0.049964454 -0.05454604 0.032963034 -0.064657658 0.0047403718 -0.025373599 -0.0080292076 -0.079053968 0.057748508 0.15758589 -0.083077811 -0.10618114 0.06970714 -0.045130316 0.0014094481 0.13287991 0.035359163 0.021274175 -0.19248118 0.15785493 -0.11522372 0.045659628 -0.062187761 0.040422186 0.094561845 0.15427168 0.03728953 -0.31477576 -0.01331273 0.1489917 -0.077774592 -0.068358421 -0.062213033 -0.081399381 -0.026402008 0.044736475 -0.024316663 -0.1779605 -0.043537371 0.004410251 0.22180672 -0.16362886
387 0.026312917 0.076489829 0.024650214 -0.05309692 -0.099535696 0.014926803 0.0200652 -0.027760837 0.022129476 0.14701387 -0.24747342 0.0040139034 0.10599614 -0.04070751 -0.020234339 -0.13109988 0.19028974 0.022636537 -0.12583204 -0.076459222 0.032573022 0.058734123 -0.084062546 -0.023758223 0.071175881 -0.039560992 0.024143003 0.015194396 -0.055572748 -0.076126046 -0.14951104 -0.063534215 0.075008348 -0.0060026566 0.079691477 0.21756513 0.032286793 0.12198196 -0.069649428 -0.039112128 -0.053504143 0.26382539 0.032919265 -0.18933791 -0.12169701 -0.031961106 0.061320927 0.027442519 0.14773786 -0.069343075 0.07676027 -0.042208131 -0.11744781 0.024131779 -0.20826858 0.025171777 -0.033818532 0.0097155571 0.085435651 0.17027262 0.16781153 -0.10485393 0.019574475 -0.036532622 -0.044735342 -0.054870658 0.069291323 0.12082946 0.20907362 -0.0015565105 -0.057697754 -0.082134314 -0.093332767 0.052891452 0.0089944229 -0.028302055 0.058684405 -0.0037489689 0.052092265 0.059062321 0.2300375 0.035034608 -0.10671275 0.044100776 -0.012097311 0.025342079 -0.016900461 -0.060668025 0.15067197 -0.050978687 -0.04055028 0.025111981 -0.13816047 -0.0081907464 0.016516212 0.030449491 -0.14687388 -0.051331926 0.046088476 -0.091760911 0.087450266 0.13635263 -0.084672675 0.070187345 -0.16146921 0.20998548 -0.022738123 0.14597207 -0.015797118 0.0079755001 0.11569635 0.18394123 -0.078912877 -0.30368325 -0.062909074 0.034703396 -0.092103392 -0.11256093 -0.025198493 -0.028941238 -0.025378112 0.062804736 -0.0063679717 -0.1595754 -0.016376389 -0.053517673 0.1825448 -0.15187627
485 0.028227314 0.14711142 0.14498103 -0.040123209 -0.033382136 -0.10123947 0.071057588 0.083421163 0.084670752 0.029208964 -0.11069428 0.030895187 0.031211916 -0.061345384 -0.14929606 -0.16372354 0.18297374 0.00076545292 -0.14523573 -0.031893622 -0.093591243 0.012056894 -0.060759112 -0.025243964 0.090636536 0.050013479 -0.031044958 -0.005962532 -0.15340862 0.02062827 0.016779985 0.03879543 0.069376357 0.054306153 0.058988348 0.16594528 -0.035930932 -0.044788871 -0.0665325 -0.11729786 -0.041954756 0.16080666 -0.0078237355 -0.18700707 -0.054640457 -0.014806747 -0.014914771 -0.10000877 0.031792112 -0.032083724 0.043221936 -0.10507806 -0.07970991 -0.027307352 -0.11202753 0.035198044 0.068614244 0.049502682 0.089846186 0.12266376 0.19587141 -0.13079295 -0.050629321 -0.043944657 0.082421772 -0.014181096 0.046934944 0.1538336 0.11991766 -0.01681488 0.011812928 -0.10466944 0.023387512 0.071640149 0.058193862 -0.020989168 0.089279875 -0.019639522 0.18751298 0.041419476 0.21597692 -0.029348336 -0.026705807 -0.11018908 0.1287068 0.054576784 -0.028231803 -0.081367664 -0.02234517 -0.083095811 -0.093077563 0.015618959 -0.14177375 -0.13285641 0.090075865 0.10365932 -0.11414331 -0.12148465 0.044548724 -0.072559126 0.05851905 0.020001821 0.024484869 0.10731962 -0.22032899 0.23054335 0.070871338 0.0130809 -0.1043394 0.055505626 0.13092425 0.21024483 -0.1026378 -0.25418416 -0.00023796875 0.093063965 -0.14121972 -0.09379629 -0.10471408 0.068377435 0.026159247 0.052214548 -0.016312435 -0.08963377 -0.0010033094 0.0011889864 0.28281733 -0.18523204
373 0.03928512 -0.041470211 0.10587829 -0.034281556 -0.012955952 -0.018266894 -0.028842704 0.073890202 0.15854354 0.013119839 -0.09672185 -0.13765481 0.088172652 -0.079246029 -0.22094765 -0.1643866 0.35410827 -0.010760727 -0.06172042 -0.050720543 -0.045194786 -0.021549337 -0.03086732 0.046153612 0.081553414 0.0024424952 0.098193072 0.010819887 -0.17241727 0.20166758 0.011773932 0.05006858 -0.042894334 0.061020553 0.048403122 0.11032956 -0.025184602 0.053918034 0.053939197 -0.21292396 -0.12257934 0.17708881 0.054350924 -0.3161279 0.10729817 0.047804832 0.094394527 0.00097883958 0.011635108 -0.055552542 0.18809317 0.02803074 -0.062944248 0.0043934411 -0.19540858 -0.17260893 0.030343708 0.042847652 0.066691309 0.021172157 0.14945082 -0.16427197 0.032684106 0.037284072 -0.07062611 -0.047917578 -0.018674485 0.11560281 0.10831607 0.039244656 0.0025916223 -0.27695987 -0.13715021 -0.019790413 0.016157825 -0.016854512 0.031680103 -0.074270509 0.15787393 0.038559094 0.1171755 0.13645566 -0.046069011 -0.090377055 -0.057912588 0.27121708 -0.13397904 0.09896189 -0.016777348 -0.18298438 -0.15191217 0.052613735 -0.13000637 -0.17606322 0.07427378 0.15204555 -0.045759823 -0.045311198 -0.047294591 -0.077327408 0.039057013 0.14923574 0.030999873 -0.19592206 -0.29201409 0.1945525 -0.055319726 -0.0050677019 0.072211258 0.21424711 0.036755633 -0.060763761 0.023251239 -0.30580783 -0.095727324 0.0074467994 -0.17764992 -0.066895403 -0.026622102 -0.20438981 0.01604085 0.15956019 0.16809785 0.066762365 -0.019904139 -0.18826358 0.1629243 -0.092796348
234 0.22264495 0.25232834 0.16377965 0.098735176 -0.18473172 -0.13842709 0.047215063 0.21139944 0.05259404 -0.02450647 -0.048201572 -0.14168634 0.18037868 -0.12372548 -0.048439745 -0.25803709 0.26745978 0.031587645 -0.17649676 -0.29287839 0.17807111 0.30082992 -0.12078992 -0.022904826 -0.070033908 -0.14936067 0.049908094 -0.018411687 0.080246054 -0.16514187 -0.042584177 0.074771315 0.10564139 -0.09949182 0.13955894 0.2311395 0.015206905 -0.011059733 -0.051137678 -0.14669882 -0.044123337 0.029375648 0.031151047 -0.012258408 0.04025032 0.054087766 -0.11969256 0.096567675 0.048190065 0.086463802 0.23850566 -0.016038595 -0.15005659 0.099829659 -0.23390871 -0.11874838 -0.024238134 -0.01789107 0.17558923 0.25486243 -0.096681811 -0.044755563 0.037906434 -0.26124492 -0.08252389 0.0031780708 -0.042775515 0.054997589 0.12534511 0.0083006294 0.11305317 -0.20720612 0.043412339 -0.015986158 -0.15635285 -0.15524365 0.13603468 0.22005157 0.093750969 0.10708151 0.1232502 0.038969595 -0.10346589 -0.0053989454 0.01596231 -0.059734248 -0.1532014 0.10211278 0.15040435 0.068672635 -0.14132461 0.01677241 -0.076887734 -0.13459009 0.10110885 0.13449584 -0.060130998 -0.050530639 0.0032017045 -0.047286715 0.0010926891 0.055962 -0.013430162 0.022517528 -0.14406972 0.27444085 -0.073282726 0.081922896 -0.073266618 -0.054182891 0.047177467 0.032199539 -0.074638024 -0.17761216 0.03404044 0.15681133 -0.045145091 -0.04975247 -0.059399597 0.13143066 0.11830764 0.033685748 0.068519585 -0.076934367 0.20238318 0.21882503 0.22216301 -0.1470231
395 0.11895806 0.077139318 0.079902418 0.041380852 -0.019158941 -0.06924779 -0.074346565 0.030700224 0.068628706 0.014907519 -0.16141795 -0.053346809 0.062069375 0.068175502 -0.055443097 -0.21101156 0.18787371 -0.035327245 -0.12614472 0.031034118 -0.034593053 -0.054604441 -0.033007842 -0.076901168 0.0985431 -0.085140757 0.05976278 -0.066552311 -0.11709668 -0.02718682 -0.010148396 -0.085275389 0.072783276 0.075693898 0.04241902 0.072307765 0.067512296 0.028390182 -0.0014379836 -0.081003353 -0.056206822 0.1320322 0.061745476 -0.2494266 -0.070598967 0.065014884 0.022343038 0.1012746 0.080279887 0.028548976 0.062339183 -0.066883601 -0.12178517 -0.030468602 -0.055771995 -0.082996942 0.025795082 0.061979968 0.14458112 0.1767745 0.1085043 -0.1179676 0.0029410624 -0.056379911 -0.12099034 -0.035783567 0.0084412126 0.18522185 0.13611233 0.017515946 -0.031818535 0.0091653112 0.11750676 -0.027315017 0.11689557 -0.052892271 0.0489466 -0.013079649 0.24828365 0.028877631 0.19797446 0.026168128 -0.089419022 0.012420401 -0.010302355 0.041571867 0.057653088 -0.1126691 0.036042791 -0.1028695 -0.051558726 0.028357826 -0.11822636 0.036888886 0.04748708 0.11881614 -0.0086013116 -0.014795565 0.047618218 -0.098509774 0.035936363 0.12593991 -0.012784674 0.060271572 -0.11742336 0.20704162 0.020868929 0.086317971 -0.10244646 0.087190703 0.072214097 0.18642707 -0.10920353 -0.29515165 0.039482735 0.13660793 -0.18524468 -0.030838152 -0.10992942 -0.049235433 -0.0076101162 0.13138998 -0.027289661 -0.11161365 -0.098845907 0.0060410867 0.14625566 -0.10410044
56 0.14418937 0.11998239 0.041645393 -0.04911584 -0.070404455 -0.12306582 -0.096724585 0.1918616 0.037052173 -0.066202119 -0.19855447 -0.10056101 -0.075751282 0.017661033 0.06976784 -0.20040445 0.21854028 -0.0083143227 -0.16977842 -0.074538991 0.0064246077 0.10113359 -0.1759453 0.087114803 0.043256514 0.010729853 0.030540703 -0.097561233 -0.13214163 -0.062111657 0.016756974 -0.11107153 0.16068058 -0.091754884 -0.076075107 0.22909388 0.11613883 -0.16509897 -0.094447464 -0.097488023 -0.033905011 0.13241161 0.025341876 -0.038814146 -0.052479438 -0.048891068 -0.066203631 0.13863347 -0.068498045 0.075079814 0.041409083 0.032227024 -0.12258584 -0.04438442 -0.22897156 -0.25748855 0.061524197 -0.031497367 0.28326136 0.40069401 0.10366024 -0.072944976 0.072739869 -0.13649514 -0.11762914 0.18918626 0.10570699 0.13370246 0.20863113 -0.0080645271 -0.0096268859 -0.1415689 -0.015364609 -0.046516426 -0.10084011 -0.060934406 0.08064758 0.040879898 0.091765098 0.10284796 0.16773301 -0.038323838 -0.024170343 0.012170293 -0.088006459 -0.068215013 -0.19261339 -0.0053883367 0.11202578 0.049120683 -0.15137447 -0.065435238 -0.12502827 0.086667635 0.084454104 0.14176956 -0.0063454551 -0.072849572 0.12286047 -0.12897454 0.096801378 0.13217367 0.14374 0.13425605 -0.15751515 0.30975053 -0.10259231 0.024424152 -0.061681144 0.057859048 -0.0038239982 -0.10730697 -0.035567157 -0.17201838 -0.03076213 0.10440317 0.024178185 0.026056845 -0.033814345 0.034300923 0.14288794 0.13261516 0.065331742 -0.0087921647 0.092866652 0.057788279 0.16806024 -0.11745755
40 0.028501241 0.051528823 0.060361102 0.028551631 0.014568374 -0.10420728 0.00013336878 0.04693903 0.002129104 0.10213093 -0.17687853 -0.01555546 0.05828657 -0.030830564 -0.067555062 -0.076850697 0.14649639 0.014331299 -0.070410006 0.026177181 -0.025292763 0.096952446 -0.078464366 -0.0023178977 0.15311979 0.025313253 0.013122319 -0.096057907 -0.15010098 -0.097032949 0.023753639 0.0059558433 -0.016704977 -0.023884891 -0.023267271 0.049845219 0.02644635 0.0051925271 -0.052859951 -0.068220876 -0.089665331 0.11263118 0.033209465 -0.081171438 0.020077029 0.031426679 0.0073961141 0.052238561 -0.019589337 0.017812684 0.19509256 -0.034631062 -0.15695591 -0.078691505 -0.21840559 -0.044234022 0.045069631 0.026614452 0.13625951 0.20445733 0.131788 -0.1387798 0.035404496 -0.11314084 -0.023535276 0.047355179 0.058662385 0.16549453 0.21178007 -0.055647176 -0.065971188 -0.11357845 -0.00049707055 0.10308621 0.067380525 -0.056398705 -0.079696134 0.13738143 0.093909644 0.013801246 0.25946102 0.0060737762 -0.016556861 -0.040400483 0.019556077 -0.0063991435 -0.10927417 -0.047429908 -0.046950456 -0.11299042 -0.097250663 0.026469426 -0.12710373 0.018922217 0.023596535 0.20686811 -0.10990858 -0.060358156 0.12237624 -0.099530779 0.067083165 0.12749238 0.0022025618 0.068350509 -0.20190877 0.21540603 0.0038622916 0.067189015 -0.032797828 0.018676452 0.036660489 0.032155842 0.0052748239 -0.32978353 -0.053268529 0.14271516 -0.13003811 -0.030131491 -0.019959239 -0.13454483 0.011536949 0.065962337 0.055174563 -0.083978541 -0.015347283 0.019705124 0.22230047 -0.22780308
282 0.10843129 0.12697813 0.142325 0.00066075212 -0.030440815 0.015440102 -0.019052144 -0.0067413691 0.20702763 0.010723355 -0.092661425 0.085983992 0.19351517 -0.079776078 -0.11191354 -0.040485449 0.1955782 -0.078351788 -0.14378259 0.18482397 0.15263462 0.048614442 -0.084781215 -0.040208168 0.011670071 0.082950793 0.065958805 -0.10307904 -0.10519937 -0.017006868 -0.090288177 -0.053273421 0.021579918 0.015503428 -0.0086656036 0.22144091 0.056090839 -0.037884884 -0.0066068461 0.0071933027 -0.076252878 0.072595432 0.10391331 -0.20433699 -0.044650439 0.012307812 -0.097810268 0.011060373 0.17478156 0.052804265 0.0825262 0.035576887 -0.1477174 0.11259596 -0.20167553 -0.13292314 0.0040033064 -0.072606333 0.10068069 0.18824939 0.099561967 -0.06620945 0.2282894 -0.01086861 0.026174152 -0.1240592 -0.014573854 0.1733467 -0.0044552605 -0.015339145 -0.053261418 -0.053804286 -0.11963569 -0.030811662 -0.033616573 -0.046371583 -0.017000925 -0.19813365 -0.0047973129 -0.049019694 0.24019402 0.083781533 -0.12101869 0.0047174687 -0.013714143 -0.16324502 -0.081636339 -0.043487161 0.08795996 -0.1438774 -0.045415036 0.0093943831 -0.19843039 -0.0026744034 -0.012823596 0.17149004 -0.072414301 0.04473475 0.064890534 0.02529525 0.18210806 0.11350229 -0.080443665 0.17632201 -0.28697652 0.086115107 -0.029373428 0.12086283 -0.055195715 0.027249409 0.0045309546 0.024257865 -0.18644586 -0.28548372 -0.038999069 0.058699161 -0.14309944 -0.070245884 -0.07710214 0.030862693 0.099507049 0.072241448 0.10828631 -0.12023374 0.039216567 -0.038174573 0.15229224 -0.13860394
189 -0.10138768 0.15767533 0.12770276 -0.0098082228 -0.035355221 -0.10220639 -0.032108944 -0.044944476 0.063350633 0.092823915 -0.086217597 -0.05607285 0.054020263 -0.064044751 -0.039863549 -0.15192762 0.21792683 0.0017513961 -0.093504056 -0.02662635 0.16893056 0.013194797 -0.061457906 -0.10679395 0.099037521 -0.074300095 -0.01397429 0.094764084 -0.003779314 0.06997209 -0.033270471 0.041236486 0.09027347 0.076550685 0.028617121 0.14522681 0.089807831 0.003656962 -0.02800896 -0.18154772 -0.040767383 0.11987517 0.026632173 -0.21616779 -0.047670741 0.030167405 0.040656667 0.090574093 0.041846976 0.033892866 0.19372998 -0.042038511 -0.11511129 -0.093388692 -0.19008832 0.088724732 -0.0043807258 0.10392042 0.083610602 0.16706863 0.15091346 -0.14528628 -0.061622232 -0.0017948374 -0.088395283 -0.029052138 0.090076089 0.18011455 0.24605577 -0.0097238543 -0.056192406 -0.031576511 0.025927154 0.06189042 0.070074007 -0.0054544429 0.035632446 -0.0031500568 0.052800011 -0.02869373 0.2681832 -0.0064419387 -0.073496073 -0.044139031 0.0047663683 -0.0079092793 -0.097095251 -0.15387437 0.018231897 -0.069546066 0.035260413 0.0023361705 -0.11867704 -0.013650115 0.026283437 0.11837725 -0.054327078 -0.032708663 -0.028007206 -0.065653406 0.096634611 0.14549996 0.012950426 0.095679961 -0.26268023 0.14139004 -0.070957668 0.1506976 -0.060560003 0.02548076 0.099469446 0.22448882 -0.066371471 -0.29493958 -0.02403469 0.0030813778 -0.17810993 -0.063035749 -0.051573217 -0.029151894 0.071806565 0.13874893 -0.042457983 -0.10778771 -0.086488448 -0.056678515 0.11723488 -0.12033334
167 0.077387914 0.095756665 0.19248103 -0.023857947 -0.022002893 -0.021815969 -0.037601955 -0.018977892 -0.089942381 -0.02979132 -0.33171913 0.041083369 0.10265019 0.017266331 -0.080875024 -0.14235076 -0.070718415 -0.14446183 -0.062362697 0.1434987 0.17982548 0.096356854 -0.074949928 0.012812701 0.088137053 0.078125775 -0.040856365 0.070996873 -0.17813882 -0.13146962 -0.034239955 -0.11589953 -0.046769161 0.06965635 0.01212347 0.12489758 0.10083226 0.15626356 0.060044818 -0.041079212 -0.038895987 0.071148746 -0.033610195 -0.10464811 -0.060159557 0.12423011 0.062901504 0.030433981 -0.092382342 0.012920533 0.061548393 -0.14677989 -0.028903976 -0.0054560886 -0.27388826 -0.037502527 -0.095793016 0.010784925 0.0029707234 0.1787018 -0.052115966 -0.053715557 -0.074741103 -0.051417861 -0.18421496 0.17217374 0.17487179 0.14521605 0.26694405 0.073272601 -0.022341937 -0.12134305 0.01534423 0.04860552 -0.0082828887 -0.010371942 0.22870302 -0.03446025 0.096964382 0.1213133 0.1714267 -0.067052208 -0.091645837 -0.076028168 -0.15304707 0.01256708 -0.015047334 -0.14733392 -0.055433664 0.067653313 -0.16256429 -0.04266043 -0.22922586 -0.10612753 0.054271992 0.046369929 -0.081480749 -0.22403711 0.054545823 -0.27266112 0.072544903 0.11923674 0.017087573 0.073705785 -0.24251875 0.0877195 -0.085198939 0.15204911 -0.024665195 0.14578335 0.15463811 0.18104966 0.095699079 -0.21505779 0.01875273 0.075915799 -0.15554719 -0.14043403 0.055838827 -0.048448849 -0.085745744 0.020739106 -0.13336077 -0.23616949 -0.015719367 -0.041408993 0.1246742 -0.18057233
246 0.21665069 0.097486489 0.12393676 0.14740638 0.02119427 0.0621242 -0.011623546 -0.024191871 0.22388251 0.090598814 -0.20845507 0.017317807 0.039791778 0.026312532 0.18289988 -0.13039938 0.14966619 -0.0096630398 -0.0028871922 -0.080307856 -0.059392117 0.026304975 -0.084409781 0.0229952 0.089995153 0.15852566 -0.0028583671 0.017621165 -0.1812811 0.016684111 -0.11929724 -0.035191238 -0.053320631 0.095722079 0.097587973 0.13899755 0.057790324 0.088553756 0.11035705 0.077646352 -0.13187337 0.11221742 0.038439643 -0.15511212 0.0099825514 -0.13864996 0.12594633 0.053956907 0.2484746 0.04078836 0.29021078 -0.088963278 -0.06139344 -0.045530096 -0.087507993 0.056035049 0.067110412 0.078252934 0.0621005 0.10551317 0.066614188 -0.0067400876 -0.038174201 0.078295931 -0.13986132 -0.083883584 0.073266119 0.18820722 0.1467116 0.076230101 -0.00023137385 -0.12250406 0.028244417 -0.18676281 0.077829987 -0.028785242 0.07864175 0.18496941 0.10638924 0.065864399 0.22485542 -0.048030738 -0.2076225 0.074892759 0.012951308 -0.034258321 -0.093930162 -0.13196363 0.0092259627 -0.066727199 -0.12073336 -0.10134364 -0.30523375 -0.0050945464 -0.033361007 -0.012412747 -0.15485643 -0.0061266124 0.058612149 -0.13591611 0.10495623 0.068681404 0.054090805 0.061183516 -0.19812092 0.13788088 -0.0438384 0.066338256 -0.0112818 -0.01154962 0.090550385 0.20339681 -0.097214513 -0.21787941 -0.10140353 -0.075067163 -0.16928761 -0.050562259 0.015739406 -0.114371 0.030892968 0.094736032 0.13516295 -0.051236972 -0.041684575 -0.06291195 0.18055937 -0.24886718
177 0.036097627 0.12462341 0.13483819 0.038230158 0.04123364 -0.1012277 0.043432165 0.050119504 0.12410218 0.076702848 -0.12699842 -0.090798788 0.010013459 0.00936592 0.011535479 -0.23163517 0.1918363 0.034811772 -0.077227555 0.065985121 -0.020702507 -0.032752078 -0.037372496 -0.10502741 0.12810737 0.040920626 0.06069947 0.0080387974 -0.14172105 -0.042488154 0.011606233 -0.019625429 0.084377117 0.13594829 -0.039831311 0.11039027 0.042424284 -0.047514215 -0.005259885 -0.092323229 -0.095472433 0.094814777 0.064171597 -0.19678728 -0.073112659 -0.059254747 -0.021531176 0.027651761 0.16381405 0.016394971 0.11498884 -0.089416169 -0.19409746 -0.022560908 -0.11285872 -0.032027308 0.019414283 0.050461389 0.024088249 0.25435364 0.23045248 -0.19343911 0.0024669503 0.01869561 -0.0085819354 -0.039197456 -0.011280793 0.15425269 0.13275199 -0.028656526 -0.022557402 -0.056090597 -0.13595687 -0.026259458 0.091240376 0.079952411 0.034142822 -0.041635238 0.13451308 0.057839923 0.23963486 -0.01700492 -0.17689447 0.15332139 -0.0055849026 -0.0071858373 -0.11272001 -0.13710518 -0.030812869 -0.11773226 -0.010188111 -0.047371045 -0.044748463 -0.072992325 0.13823862 0.045904603 -0.051998027 -0.031467825 -0.023167711 -0.16014785 0.050219171 0.11675506 0.019724308 0.13762058 -0.17799968 0.26979265 -0.028325235 0.049190499 -0.082344897 0.050590862 0.14127484 0.16332343 -0.022034895 -0.19953439 0.0041889776 0.19112664 -0.079575881 -0.049145088 -0.074319251 0.040935095 0.051082399 0.044984896 0.036994107 -0.15016934 -0.073132649 0.027686002 0.26443818 -0.073055267
90 0.1571378 0.065542601 0.10260057 0.022250619 0.080222465 -0.031330872 0.010886388 -0.041624196 0.10470618 0.1472719 -0.12989026 -0.0090132821 0.0084500611 0.055734482 -0.035620335 -0.11731198 0.14264129 -0.014671159 -0.083421364 -0.11883487 0.09106262 0.0071365442 -0.077404104 -0.080712751 0.059934825 -0.059631206 0.011374925 0.023553681 -0.12316978 0.0080280127 -0.07681492 -0.020796454 -0.0035721767 0.10961399 -0.045748845 0.1489283 0.0053686793 0.097742289 0.014083048 -0.055986807 -0.029232915 0.14097635 0.038082305 -0.12180155 -0.0077208942 -0.053786419 0.032706439 0.041828498 0.043288969 0.08429274 0.15219562 -0.06034993 -0.043604974 -0.12780641 -0.13196367 -0.042404171 0.01102917 0.063165121 0.18201487 0.11255287 0.07985992 -0.20718232 -0.023540445 -0.044384584 -0.039362758 -0.073833287 0.1053286 0.15875532 0.19472295 -0.0053829192 -0.066118263 -0.17069891 0.052215762 -0.0078608273 0.12030216 -0.1467742 0.10881868 0.11153294 0.19557889 0.017488554 0.21903443 -0.069257945 -0.11344352 0.078113079 0.0018713879 0.09584704 -0.0087254057 -0.098303564 0.091665827 -0.07986781 -0.02410141 -0.070233084 -0.086501069 0.0082781306 0.068023361 0.08321026 -0.093238384 -0.11533146 0.02134471 -0.16481799 0.1342878 0.022393482 0.0046434971 0.16253608 -0.07699018 0.24370389 -0.12875433 -0.042623419 -0.14041115 0.083927177 0.052545659 0.19443627 -0.029790245 -0.26436758 -0.026325803 0.0022242942 -0.079442576 -0.061802972 0.036798943 -0.13785768 -0.0093209967 0.044681534 0.028968234 -0.17252021 -0.034604575 0.010130581 0.1897333 -0.20268396
486 0.011839947 0.058571983 0.20714439 0.12537917 -0.049866203 0.0026908594 -0.048035402 0.11136866 0.088764638 0.099540353 -0.15230697 -0.091240861 -0.041712049 0.032701403 -0.11892101 -0.12709884 0.23221 -0.024960632 -0.071801417 0.028311957 0.12815274 -0.023160528 -0.029565537 -0.058040466 0.12446559 -0.11945368 0.0020677459 0.018332057 -0.16985685 -0.064875983 0.0076904232 0.015536627 0.054625563 0.051815528 0.04939555 0.14824788 0.10412718 0.017153671 -0.029113835 -0.084925629 -0.16206254 0.10450242 -0.014257868 -0.061561812 -0.12368468 0.13239388 0.030739384 0.033987772 0.16909295 -0.033835001 0.24229369 -0.12662521 -0.056141183 -0.023803836 -0.17223509 0.021505345 0.063787155 0.10633065 0.014144395 0.21079628 0.15833029 -0.13596927 -0.0011421358 0.024398675 -0.075256646 0.029435765 0.038194008 0.12378758 0.084319815 0.065536089 0.02325242 -0.0697897 0.13966432 0.042646606 0.03263741 -0.0025286265 0.041919708 -0.0018600078 0.15196781 0.087086767 0.22964984 -0.034648802 0.01844687 0.086537413 -0.091460392 0.057306323 -0.048267934 -0.10484591 0.044969123 -0.089455754 0.0074345521 0.07155703 -0.12762968 -0.086807244 0.075232595 0.16255563 -0.017589703 -0.10126964 0.081161551 -0.06732785 0.12385301 0.04777791 0.020259768 0.019600596 -0.16751729 0.13187063 -0.048049908 0.054089442 -0.12433636 -0.00014177394 0.090951614 -0.02146152 -0.021864388 -0.29619429 0.0093654571 0.0472336 -0.10991938 -0.097349189 -0.0088395635 0.013599424 -0.055863246 0.13130842 0.054140095 -0.18249993 -0.10674571 -0.057377882 0.2070114 -0.14548385
115 0.19876599 0.050276544 0.14446172 -0.015585685 0.10814857 -0.031683102 -0.057031851 0.097254083 0.090915702 0.04359708 -0.068286292 0.095282003 0.02939981 -0.13178831 -0.14692023 -0.092245542 0.17129986 -0.024276204 -0.024620559 -0.0045932713 -0.074834935 0.033291779 -0.19286373 -0.077439412 0.054590072 0.025904421 -0.028683117 -0.028951464 -0.037941311 0.019014072 0.057871755 -0.144379 0.18142174 -0.01267755 0.053898547 0.19245283 0.12299737 0.042845342 -0.025883811 -0.093869172 -0.049524486 0.16427714 0.043904666 -0.19687669 -0.13665767 -0.08939746 -0.011974678 0.11799616 0.029991899 -0.0020433373 0.10014248 0.0046919947 -0.1955906 -0.013450602 -0.13918543 0.047253691 0.096279725 0.033312414 0.051367953 0.19536157 0.16124716 -0.19962548 0.065755792 -0.022103785 -0.079090476 0.020829041 0.034113597 0.25650188 0.1716374 -0.0070162136 -0.068587005 -0.065959975 0.011850793 0.042552795 0.073264867 -0.020259023 0.035369582 0.0018227267 0.065510228 -0.0019495905 0.15183462 0.0049855341 -0.12730257 -0.0041786414 -0.025606528 0.013000455 -0.031784128 -0.10120866 -0.076672792 -0.072624758 0.011014108 -0.043332152 -0.076976568 -0.096083574 0.11772139 0.22518802 -0.10803434 -0.031533428 0.048063304 -0.091158606 0.023562599 0.11224065 0.067114174 0.034010414 -0.23726645 0.26176834 -0.037195105 0.021440262 -0.022620982 -0.033701684 0.10123347 0.18675263 -0.0072605242 -0.22629966 0.031009244 0.081599012 -0.097823523 -0.062349338 -0.038255699 -0.044312429 0.037484761 -0.025174784 0.050425522 -0.13110106 -0.018005647 0.00031844145 0.16660298 -0.23897578
141 0.15711658 0.030934844 0.14871438 -0.057863936 -0.10230304 -0.051702436 0.018843882 0.037774619 0.047634739 0.097220138 -0.13605283 -0.093215361 0.010059961 -0.098865889 -0.11019488 -0.09015359 0.19355832 -0.057981584 -0.17246185 0.015524036 -0.047781948 -0.01643873 -0.0428808 0.056323435 0.05499699 -0.043798048 0.093899392 0.028345559 -0.13631539 -0.10281754 0.0090680216 -0.061785363 0.078028426 0.057651639 0.034839086 0.083650693 0.038124502 0.023507068 0.023254119 0.01045248 -0.16001685 0.09009517 -0.067767814 -0.11670659 -0.1322553 -0.023436038 -0.063813217 0.085753031 0.095949672 -0.0071005528 0.073599875 -0.090494812 -0.078171179 0.00077103573 -0.17942058 -0.071409412 0.086390629 0.057546709 0.094863094 0.21676949 0.11834523 -0.1639066 0.12156559 -0.064340807 -0.076932602 -0.070722319 0.11895666 0.14570679 0.050266754 0.016416645 0.019030845 -0.086042531 -0.041701782 0.064984165 -0.0085942708 0.024506537 -0.010414941 -0.012672602 0.031902395 0.14372757 0.26954401 -0.020995095 -0.091490328 -0.0014520052 -0.02811373 -0.050853338 -0.12743345 -0.11271609 -0.0049957749 -0.063762143 -0.033254318 0.056791492 -0.1449396 -0.049548078 0.081047654 0.030011235 -0.041506674 -0.029389618 0.036251295 -0.025900159 0.065466307 0.12002604 0.033983711 0.091151528 -0.26425898 0.21721473 -0.020033993 0.0017987136 -0.060824439 -0.0012335505 0.06138565 0.09629938 -0.11862812 -0.29170525 0.035815138 0.05792531 -0.14590713 -0.063576758 -0.1136515 -0.055901892 -0.01887469 0.036586288 -0.04082863 -0.096094422 0.043381926 0.076494694 0.20538113 -0.23161906
36 0.11431572 0.10664219 0.051386356 -0.022859214 -0.05956725 -0.06805931 -0.068698205 0.05914595 0.016729416 0.006688551 -0.16568795 0.045007195 0.05658422 0.053401437 -0.11192712 -0.11737363 0.15559448 -0.075974554 -0.04802208 -0.033265013 0.055862196 0.025479913 -0.056427486 -0.080807827 0.11374262 -0.073646963 -0.06908422 0.02822518 -0.032993272 0.073369622 0.026451906 -0.064926893 0.049263094 0.056524996 0.077029489 0.20128085 0.033185035 -0.032362189 -0.063815802 -0.05977973 -0.070063643 0.16072647 0.069839686 -0.16197564 -0.086114749 -0.0048567532 0.088812694 -0.014684676 0.083037131 0.073628023 0.064309463 -0.020397536 -0.072269849 -0.041704994 -0.20710714 -0.015129754 0.032171104 0.05914421 0.090249032 0.2359751 0.17356652 -0.12267989 0.091938585 0.0079653002 -0.068655759 -0.013761033 0.015888225 0.14306383 0.078471832 0.0024923582 0.032983378 -0.065860286 -0.034553632 -0.044946734 0.061994612 -0.040181872 0.032773755 0.020522719 0.12032662 0.029398018 0.28824145 -0.047991626 -0.054063365 -0.0060246908 -0.17262946 -0.032006927 -0.1080696 -0.10183858 0.038223211 -0.11519384 -0.025105886 0.036080886 -0.052543029 -0.070190877 0.00032720482 0.059321027 -0.063725419 -0.1313259 0.060466476 -0.20583001 0.080201022 0.1609018 -0.088945359 0.013849483 -0.18784347 0.15720685 -0.022379601 -0.034242481 -0.075163692 -0.0068203686 0.045407336 0.065891638 -0.083625957 -0.40229267 -0.012229572 0.033269338 -0.14304423 -0.029415365 -0.12335131 -0.030375589 0.0063567744 -0.033796191 0.057538453 -0.15627867 -0.0069386661 0.046837579 0.064443298 -0.27002758
293 0.1074483 0.11343078 0.16749813 0.07582172 -0.050539427 -0.044931255 -0.023135722 0.086362958 0.0013099206 0.067458816 -0.15859862 0.0026888745 0.082461998 -0.12190721 -0.085633047 -0.080119044 0.17669584 -0.0080225607 -0.15672342 0.023621585 0.054550253 0.052129678 -0.085866868 -0.11427034 0.031536575 -0.038691577 -0.054796051 0.036148477 -0.039667752 -0.072611049 -0.0014872137 -0.020986008 0.040224805 0.032422367 0.079866648 0.18968086 -0.023166807 0.039496016 0.013237763 -0.075685203 -0.21302846 0.2081584 -0.050246604 -0.23228838 0.015537381 -0.053327508 0.1231176 0.056090798 0.11341128 -0.010572439 0.0657361 -0.13710131 0.02196525 -0.00151682 -0.22441612 -0.024262611 0.05231427 0.035804715 0.13227232 0.20841628 0.066537216 -0.16921087 0.023045599 0.012240192 -0.02878679 -0.065245055 0.02718522 0.19039537 0.12830202 -0.02950622 -0.017468076 -0.11830882 -0.0069879903 0.034848776 -0.034135845 -0.0026465021 -0.00044260398 -0.054336175 0.028887901 0.045420799 0.22753215 -0.055189241 -0.11088756 0.02429853 0.020390352 0.010067292 -0.067057014 -0.17984526 0.02403173 -0.10532545 -0.021893881 -0.046918731 -0.087070003 -0.015254783 0.12823258 0.15424161 -0.10742363 -0.12880875 0.00095113809 -0.0501807 0.11608537 0.02489786 -0.040180717 0.036143392 -0.22727208 0.16526087 0.0034372038 0.04593078 -0.099399924 0.042742811 0.073166929 0.15670781 0.017823149 -0.24815916 -0.096238099 0.1226324 -0.17907554 -0.10830156 -0.0506359 -0.029846583 0.11914744 0.069661155 0.0064376118 -0.16616535 0.054557361 0.050762266 0.18414928 -0.12669544
91 0.009831029 0.1248276 0.071414992 -0.085774034 -0.11720853 -0.032293733 -0.033453185 -0.016623667 0.032077953 0.094889738 -0.11197596 0.0038036692 0.022520706 0.0080386596 -0.15461554 -0.15635383 0.1424219 -0.036779054 -0.13106109 0.066459209 -0.02394221 -0.035496075 -0.059703812 -0.028907724 0.068232469 -0.1069352 0.032284893 0.045529362 -0.17469104 0.030261012 -0.040828962 -0.045729276 -0.022539059 0.026421649 0.060982261 0.13439161 0.089295506 0.017576462 0.084049717 -0.10225362 -0.06691952 0.13050036 0.024859792 -0.21313128 -0.061907627 -0.07461673 0.098634817 0.013541513 0.10628404 -0.036451731 0.050453018 -0.037508123 -0.082983211 0.018541478 -0.201379 -0.01437611 0.14409459 0.14183591 0.055887893 0.2420516 0.1219949 -0.21344377 0.12076521 -0.07708282 -0.14234971 -0.0057269838 0.098924138 0.15907525 0.14596215 0.013272398 -0.07918632 -0.072854377 0.007860966 0.022567404 -0.053238798 -0.072374322 0.10371288 -0.074613191 0.089282908 0.048446972 0.29507583 -0.048083812 -0.10706005 -0.018829437 -0.085765287 0.046992235 -0.073577859 -0.037270185 0.022439241 -0.10886024 -0.030908251 0.029398395 -0.1750084 -0.068050943 0.082829498 0.028619912 -0.052369725 -0.059338 0.024988277 -0.032303095 0.13840461 0.097168759 -0.0097213471 0.062144078 -0.19352651 0.1705838 -0.077582784 0.025554636 -0.11461546 0.066066042 0.065923676 0.1009688 -0.1188098 -0.36651191 0.0031968572 -0.0096721249 -0.088354744 -0.021434264 -0.036356542 -0.12543552 0.061482683 0.036094666 0.024125377 -0.1769456 -0.022767039 0.01012987 0.15045787 -0.13100116
371 0.057201274 0.13935053 0.11003504 -0.010266512 0.086560041 0.023258446 -0.0098689664 0.0014144713 0.0017832947 0.10553209 -0.22957557 -0.01955165 -0.0097474027 -0.029760426 -0.047233358 -0.11849192 0.2260024 -0.032588057 -0.092255577 0.03633872 0.076416381 -0.01281166 0.0071596727 -0.13379048 0.028105987 -0.055694669 -0.030543415 -0.0048094867 -0.1465642 -0.01239559 -0.046335302 0.029774282 0.068781108 0.047064487 0.063978866 0.16206895 0.10712025 0.051687624 -0.051775105 -0.047214158 -0.095768854 0.18629959 0.14003088 -0.11049961 -0.11168019 0.0079222601 0.019647015 0.021756826 0.14713496 -0.0085411165 0.024885222 -0.048233557 -0.046436362 -0.0027646893 -0.19991088 -0.021801725 -0.060287535 0.0040464224 0.073002309 0.1944024 0.19856498 -0.17567497 0.12707719 -0.063999988 -0.057352602 0.0651967 0.0077882386 0.18101411 0.19381285 0.023713289 0.0036665893 -0.066704355 0.077820554 0.11590394 0.053561129 -0.079022214 -0.010025954 0.054045554 0.18757327 0.10994408 0.19517784 0.014615035 -0.13061394 -0.044366792 0.013472042 0.046020146 -0.063546859 -0.10468526 0.015846338 -0.09576828 -0.003931744 0.0084483009 3.2047683e-05 0.052905064 0.056065522 0.05449063 -0.060919013 -0.079975143 -0.0094903251 -0.21275754 0.028325731 0.031474698 -0.097971901 0.10029746 -0.25454155 0.16403538 -0.0046174051 0.10171098 -0.013447156 0.066202611 -0.015395457 0.17285067 -0.027107246 -0.28885332 0.035664767 0.098966293 -0.096590742 -0.031390164 -0.030384654 -0.053271517 -0.089232966 0.10327541 0.078486614 -0.1125354 0.021817578 0.051252101 0.21073228 -0.13546659
