1113 128
1006 0.12441469 -0.39673707 -0.19198415 0.067096375 0.22394104 -0.2417705 0.058481485 0.3744321 -0.066309914 -0.065942355 0.53948206 -0.14223535 0.08908576 0.0071722157 -0.21023177 -0.08209991 -0.4992939 -0.26826134 -0.15030077 -0.07882448 0.07219798 -0.1642211 0.16844097 0.27232167 -0.17912108 0.24037668 -0.1104019 0.0846831 -0.4456552 -0.16006114 0.09079729 0.012504351 0.5103884 -0.27187595 -0.12069937 0.06204073 -0.420574 0.16251294 -0.2514061 -0.23925911 0.39672855 -0.38615906 -0.3478874 -0.0998041 0.30907694 0.19846795 -0.08407519 0.123726875 0.24455011 0.030024175 0.069360256 -0.03360626 0.25177318 -0.045207277 -0.122513704 0.112117335 0.18867993 -0.3020279 -0.29837513 0.13430884 0.12065693 0.4074067 0.33072227 0.4430471 0.1381466 0.044171985 0.11773003 0.22014856 -0.24145441 -0.32335916 -0.08906135 0.02894943 0.122671485 -0.0595388 0.14048165 -0.5085381 0.2115709 0.1242324 0.09997247 0.2150525 -0.3786239 0.7491982 0.109689616 -0.66306895 -0.014928006 -0.2135779 0.5786131 0.2479326 0.027590133 0.12585455 -0.109365 0.199709 -0.16867398 -0.12268979 0.013940064 0.16572063 0.21195002 0.5177123 -0.23799415 -0.1149793 -0.18123151 0.2980425 -0.17185165 0.2336172 0.22380354 -0.3784152 0.17244785 0.19569458 0.014375859 0.28417188 0.05940108 0.16270949 -0.1681366 0.07545534 -0.15223284 -0.2227796 0.14727548 -0.14576086 -0.07530465 0.080052614 0.07868021 0.0023378877 0.06055871 0.0062301913 -0.1821034 0.14390178 -0.30419576 0.20134838
506 -0.06151833 -0.29318422 0.0374779 0.18767327 -0.06529549 0.014163243 0.07028245 0.36413237 0.20125692 -0.13371003 0.19434349 0.0155485105 0.27208373 0.1507756 -0.33751792 0.00931417 -0.39869472 -0.2741941 -0.18078183 0.046983067 0.11745159 -0.19414666 0.33510372 0.27112684 -0.1589643 0.26896623 -0.2664218 0.14688902 -0.47997808 -0.29275703 0.3112896 -0.012750798 0.63493437 -0.30355194 -0.23979817 -0.027481278 -0.32752332 0.22915818 -0.16383974 -0.39694872 0.47842634 -0.46161142 0.015821971 -0.37910518 0.3743866 0.29630172 -0.095118456 -0.024102265 0.20634173 -0.02615171 0.018229486 0.1391986 0.47518444 0.16847949 -0.29243568 0.17891514 0.3229971 -0.37869373 -0.3326494 -0.030592259 0.11316753 0.4924279 0.3057438 0.34115517 0.13411999 0.033022918 0.023859136 0.11269407 -0.08147996 -0.21197604 0.028274423 0.20557074 -0.4124327 -0.17307854 -0.07629529 -0.13305637 0.08542421 0.117739566 0.011327542 -0.04487341 -0.4666575 0.42816177 0.20532195 -0.7151171 -0.08930693 -0.0036337923 0.48270586 0.21137816 -0.0686703 -0.011633513 0.089418404 0.2055341 -0.12027455 -0.14873902 0.18590161 0.36516294 -0.0006938483 0.6336743 -0.393778 -0.16782744 0.16691782 0.20809335 -0.33722538 0.27950105 0.5762156 -0.4281099 0.3921299 0.20439592 0.01151674 0.30488473 0.09886024 -0.1588013 -0.20325467 0.12074846 -0.23067455 -0.13543177 0.14842738 -0.29675132 -0.26878577 -0.107309334 0.031209191 0.2354361 0.09679145 -0.32303113 -0.21761446 0.21926013 -0.20792468 0.2448794
823 -0.061227698 -0.31232134 0.0169291 -0.02573556 -0.075673394 -0.09965033 -0.028030641 0.28438017 0.17298596 -0.17258349 0.20820653 -0.08113258 0.41201308 0.15127847 -0.08300271 -0.059269834 -0.38570613 -0.33273295 -0.25570953 -0.11346914 0.01428663 -0.25438404 0.18238515 0.3141752 -0.3028805 0.32758376 -0.24472027 0.18649915 -0.4271706 -0.33202916 0.32083163 -0.029079573 0.7052343 -0.36840558 -0.06462684 -0.14752597 -0.28647012 0.056641284 -0.08432543 -0.43195122 0.66040367 -0.45041978 0.069072545 -0.2671783 0.33056363 0.23318298 -0.23933898 -0.054616276 0.1667197 0.20369017 -0.13427122 0.14868759 0.3564511 0.022002947 -0.3475414 0.15550047 0.29230613 -0.36335146 -0.34570226 0.018410666 0.12930402 0.3027817 0.23195535 0.29804894 0.1086317 0.016857682 0.06788602 0.14966883 -0.106821746 -0.40116778 -0.19224185 0.3375941 -0.2567151 -0.08617074 -0.02831725 -0.18418647 0.21639055 0.15545149 0.12436773 0.055212606 -0.30697274 0.3629909 0.15642905 -0.60205036 -0.0017216691 -0.015964417 0.43053964 0.31079617 -0.10154917 0.018067215 0.020156018 0.21674366 -0.2117484 -0.2589464 0.2161337 0.55640453 0.09091559 0.6378788 -0.3501542 -0.22134314 0.1318899 0.1844878 -0.2496849 0.29345444 0.5446632 -0.47606155 0.2225339 0.16519588 0.084327206 0.26252013 0.047080655 -0.11504296 -0.17897569 0.42451563 -0.19683874 -0.29504597 0.13394667 -0.14446148 -0.12512405 -0.0049629407 0.008606168 0.34454384 0.0851838 -0.19015256 -0.24974158 0.0860231 -0.14794885 0.40185142
512 0.011198442 -0.35660136 -0.043699555 -0.047909204 0.095771715 -0.046724167 -0.055327423 0.4037781 0.29529688 -0.1435154 0.20584829 -0.11338428 0.44161284 0.1588366 -0.21595249 -0.07666636 -0.40461907 -0.3300925 -0.26636586 -0.13904454 -0.0040476955 -0.19181062 0.19270325 0.3345497 -0.145437 0.34019628 -0.11581474 0.225882 -0.38743147 -0.24769492 0.26532412 -0.026033778 0.8557044 -0.34188774 -0.1742319 -0.06912459 -0.268637 0.056800924 -0.080798395 -0.28782433 0.49705565 -0.46327722 0.028031414 -0.33027154 0.43100482 0.23660596 -0.18526012 -0.06275455 0.26023892 0.05058406 -0.047651976 0.30010036 0.3553688 0.09330138 -0.4727639 0.015371965 0.34075707 -0.39200807 -0.29572126 0.023460895 0.060278688 0.34570885 0.3677856 0.3710386 0.13357136 -0.06970933 0.16418307 0.10759211 -0.02457681 -0.35867786 0.013577011 0.2667357 -0.36274844 -0.062466875 -0.08482003 -0.23831892 -0.023050115 0.057686385 0.05678765 0.09336607 -0.27515376 0.42368454 0.359802 -0.7054606 -0.024497544 -0.03358804 0.44036424 0.22552425 -0.08366357 0.06307982 0.08277535 0.35533574 -0.117783725 -0.04469263 0.27234864 0.51364744 -0.011963108 0.5129162 -0.44254845 -0.26746896 0.098016754 0.14528829 -0.26562208 0.23583035 0.5319551 -0.39087322 0.28698647 0.13993703 0.02632356 0.11140699 0.2673828 -0.14630131 -0.12687586 0.25026143 -0.18559484 -0.077866584 0.26924765 -0.2761821 -0.088537395 -0.08618809 0.051162407 0.2456425 0.013889569 -0.23989502 -0.15713644 0.1750712 -0.16610163 0.2952682
859 -0.10449222 -0.25022742 0.1038963 0.11704548 -0.13033865 -0.05784338 0.043045208 0.4137399 0.13534474 -0.18981974 0.13625365 -0.14570703 0.3768207 0.28007123 -0.15216176 0.011405592 -0.45995638 -0.20298065 -0.21571234 -0.11671596 0.19316655 -0.24449722 0.17593212 0.282056 -0.29090872 0.1903445 -0.31716803 0.01815588 -0.36698353 -0.331034 0.36577204 0.2535338 0.6158282 -0.30598134 -0.2529371 -0.024712032 -0.32030034 0.04845296 -0.16747372 -0.28532794 0.54066396 -0.4051793 0.15559816 -0.27542534 0.33912227 0.42109206 -0.18234558 -0.08887937 0.24744323 0.10021882 -0.08067416 0.08040152 0.34692362 0.21258423 -0.38555476 0.15432303 0.27738062 -0.44957465 -0.34532353 0.062206943 0.13258111 0.3721526 0.5096673 0.40708092 0.21387775 -0.02841553 0.106265634 0.2822164 0.03277856 -0.27170366 -0.0048694094 0.3938119 -0.43713585 0.04487374 -0.09396857 -0.21499 0.10288157 0.10309345 0.09590784 0.043048427 -0.26236007 0.44155923 0.34405637 -0.65469253 0.006554861 0.00036278766 0.506046 0.101834185 -0.017020486 -0.04586572 0.14412685 0.15987772 -0.015512174 -0.26100454 0.10051519 0.4922688 -0.087584 0.6311356 -0.30186874 -0.32964596 0.19299173 0.23770434 -0.19297804 0.17759252 0.24302725 -0.47985652 0.29479158 0.22827606 0.16306695 0.2907433 0.24144037 -0.14215721 -0.20007686 0.32427722 -0.33625615 -0.18479711 0.08788203 -0.18173206 -0.0028848117 -0.18784313 0.140197 0.2144511 0.018102044 -0.31467927 -0.20986712 0.12815468 -0.02517708 0.26360518
839 -0.12347326 -0.41138503 0.008688804 0.08156249 0.02190805 -0.16688177 -0.05227963 0.26506346 0.164944 -0.18353964 0.16104084 -0.018907966 0.27504 0.060193874 -0.3118354 0.08667516 -0.43287855 -0.22451824 -0.18516994 -0.08011607 0.013968432 -0.14161117 0.40453738 0.36572912 -0.30671287 0.20523779 -0.2122173 0.1381675 -0.49629945 -0.31164214 0.27979305 -0.05074452 0.6740129 -0.36214218 -0.26662788 -0.09030133 -0.46431258 0.025710836 -0.1869215 -0.17620744 0.4059992 -0.41452023 0.02669111 -0.2814693 0.2970749 0.14833085 -0.27036154 -0.101706006 0.20624243 0.17883475 -0.023504173 0.40738177 0.29047236 0.106018044 -0.5074253 0.19174129 0.39072165 -0.42365688 -0.27984375 0.052847948 0.12993659 0.45804995 0.3311151 0.30111894 0.07476139 -0.11422615 0.049178682 0.16849196 -0.01155039 -0.35234123 0.049554758 0.09315834 -0.37986875 -0.07588654 -0.04626604 -0.18045603 0.13044232 0.17382982 -0.06828354 0.03280674 -0.3699687 0.42620403 0.37958255 -0.67029905 -0.10544153 0.036653318 0.4127373 0.14750336 -0.06671838 0.11352415 0.1201705 0.29777792 -0.2260797 -0.117463514 0.14345908 0.46747938 0.078935735 0.6960643 -0.30943576 0.00934413 0.20234244 0.19839664 -0.30118054 0.22766104 0.53235435 -0.46957013 0.36100733 0.09818835 0.018473938 0.17580695 0.14746493 -0.12583594 -0.28192955 0.18045335 -0.29716742 -0.11035346 0.15584624 -0.11715964 -0.20209092 -0.21402809 0.009503683 0.32650653 0.08360846 -0.2988449 -0.24012491 0.056837752 -0.19313747 0.25148466
178 0.11764382 -0.026009096 -0.069414966 -0.12296813 0.04983171 -0.20475481 0.16489542 0.08699181 -0.19379495 0.20933124 0.05512884 0.2511333 0.29348207 0.38989282 -0.0069246776 -0.009424072 0.09163674 -0.0324257 -0.19872181 0.09126273 0.19954638 -0.31700864 -0.13160323 0.28880984 -0.26606563 0.30622402 -0.24567351 0.31868592 -0.53324336 -0.31996605 0.39827877 -0.03981004 -0.057098 -0.092370935 0.13157819 -0.026285378 0.0063181375 0.10662992 -0.20277457 0.08092195 0.43500245 -0.1894462 -0.16898306 -0.26622647 0.06548649 -0.1107388 -0.24542534 0.07000397 0.09551228 -0.47801977 -0.23190308 0.09491692 0.2803435 -0.07086823 0.29983804 -0.23754732 -0.13652404 -0.2200047 -0.12227096 0.17394853 0.42585847 0.09730118 0.35442957 0.18743216 -0.094810195 0.12768175 0.043322176 0.041235816 -0.047003094 0.29500002 0.1990506 0.17058946 -0.15824763 0.021634137 0.14384273 -0.40318403 -0.06412162 -0.4216433 -0.11172115 -0.065370046 -0.3248858 -0.113189146 3.134387e-05 -0.32016397 -0.28744614 0.017356444 0.24516867 0.5333333 -0.0024895712 -0.068460196 0.34484145 0.12086658 -0.15476024 -0.1603571 0.23144987 0.20235781 -0.13328862 0.14133184 -0.19557104 0.058769736 -0.005382615 0.17360169 0.016614933 -0.19656277 -0.25212651 -0.45763648 -0.02059928 0.00816534 -0.30730784 0.21581449 0.09038934 -0.18684061 -0.0149403475 -0.14461032 -0.11173855 -0.49172282 0.44582912 -0.13700713 0.06147089 -0.036003117 -0.15435202 -0.26606536 -0.5140803 -0.5286792 -0.274267 0.25723222 -0.09360938 -0.2264107
1004 -0.031996816 -0.21979654 -0.44981676 0.12927565 0.8850591 -0.72786236 0.05402372 0.020452494 -0.6051745 -0.24743477 -0.015268889 -0.5145872 -0.16225658 0.67307055 -0.2719848 0.12421092 0.4219563 0.13501625 -0.38161522 0.1628148 0.09050034 0.1253975 0.1361065 0.1555317 -0.43101057 0.42833614 0.6398632 0.2956521 -0.60366 0.12908684 -0.28009477 -0.07303512 0.6011157 -0.633284 0.14488535 0.05646463 -0.1347334 -0.07038831 -0.15668818 -0.21951613 0.7048066 -0.41425207 -0.4068099 -0.26813057 0.30605906 -0.096585676 -0.09951534 0.042488184 0.67091626 0.47680256 0.5020367 -0.28826496 0.3641641 0.061841417 -0.031680256 0.2056132 -0.029159045 -0.3411471 -0.33752397 0.119103566 0.6012433 0.08995473 -0.053216152 0.3146112 0.2959759 0.12560032 0.35222602 -0.15492147 -0.033634707 -0.07798388 -0.13297364 -0.39622173 0.20503205 -0.11572788 0.43124637 -0.15599523 -0.053126622 -0.09880115 -0.4736237 0.17395207 -0.5132124 0.20968868 -0.37682733 -0.55094737 0.15388763 0.29481393 0.98973715 0.39221472 -0.19251324 -0.113993734 -0.0219796 0.5459688 -0.17842023 -0.10644336 -0.13298312 0.021116775 -0.6393275 0.5445903 0.1394669 0.09610918 -0.8590138 0.0830645 -0.007083059 0.0863494 0.31451005 -0.26480955 0.51204294 0.3056167 -0.0065741097 -0.11072524 -0.024024764 -0.13141546 -0.43618166 0.037688173 -0.5989872 -0.34981263 -0.44309753 0.26049998 0.10001762 0.17578536 0.4283166 -0.53810084 0.19333446 0.02545669 -0.0709325 0.04694886 0.6862679 -0.2696374
501 0.056473605 0.056266982 -0.13332756 -0.14327382 0.12563546 0.16371976 -0.33047003 -0.15347145 -0.33828256 0.08309203 -0.24699368 0.25568953 -0.20425098 0.37323004 0.36786982 0.27976638 0.02781219 -0.098834716 -0.12701125 0.14283422 0.19246732 -0.28473976 0.0956098 0.22143209 -0.29778868 0.19622386 0.0044307997 0.29623106 -0.5108312 -0.27832267 -0.02983691 -0.053704433 0.005795947 -0.046393454 -0.20393854 0.2548591 -0.3473592 0.10220041 -0.106427394 -0.15006988 0.06523642 -0.3460568 -0.276327 -0.070921764 -0.027963025 -0.1994904 -0.5444022 0.21865933 0.20131597 -0.06334204 -0.027178122 -0.11175112 -0.08352114 -0.033745673 -0.14439152 -0.019393833 -0.27385417 0.2637274 0.18742238 0.09221263 0.26476058 0.3517405 0.25871307 -0.10608961 0.2142511 -0.15299052 -0.2621166 -0.010570284 0.21180771 0.081787564 0.083097845 0.13208175 -0.1445011 0.10885213 0.09024824 -0.4075918 -0.16360752 -0.005645857 -0.027029343 0.24049751 0.16348928 -0.16500132 0.043005876 -0.5240238 0.04016135 -0.10664251 0.23952882 0.40502438 -0.22502685 0.36474705 -0.16421756 0.18202566 -0.21899334 0.121255085 0.19469154 0.061286047 0.25961676 -0.21181081 -0.1279903 -0.43241245 -0.122868024 0.37785015 0.45988458 0.12710729 0.50903165 -0.47404814 0.18008322 -0.23691048 -0.09243739 0.15764304 0.12071372 0.1270222 -0.14382946 -0.014662353 -0.14412324 -0.09844657 -0.002861114 -0.050194692 0.1400777 -0.38361448 -0.04068837 0.06330224 -0.27415493 0.00029976686 -0.25373402 -0.041986544 0.24261472 -0.046160217
301 0.037996147 0.027238084 0.1579677 -0.13982108 0.120331906 -0.13099676 0.07675952 0.29169387 0.08010036 0.04003581 -0.09945766 0.12426563 -0.21911877 -0.12076878 -0.16206694 -0.18678845 -0.12418237 0.041433576 -0.11729587 0.2852014 -0.1572813 -0.070612215 0.04583986 0.20197856 -0.14441903 -0.10804793 -0.10070041 0.060782697 -0.13525918 0.121662915 0.06805244 -0.29933882 0.049545374 -0.1102761 -0.2715374 -0.13776268 0.0617473 0.01489744 -0.121781945 0.26951662 0.13166098 -0.09551081 0.06565901 -0.047519427 0.25011563 0.10690882 -0.22887358 -0.15627299 -0.3575758 -0.013693736 0.0014823187 -0.28516966 0.026323888 0.029685728 0.120841645 0.0872635 -0.083906025 0.09903911 -0.072565064 -0.21117628 -0.117584735 0.21359847 -5.353094e-06 -0.05994263 -0.08762955 0.09845001 -0.02508758 -0.26967487 0.19242942 -0.17254636 0.060271118 -0.12862042 -0.23658946 0.25814354 0.08492542 -0.06589229 -0.05041228 0.12957673 -0.20496882 -0.08011472 0.26677358 0.17638749 0.25243607 0.16268298 0.10847435 -0.06274252 -0.034641225 -0.01937561 -0.28277075 0.073592 -0.04070861 0.1085344 -0.11040789 -0.004606406 -0.17220822 0.19909312 0.05069003 0.10222283 0.019635865 0.11036107 0.024321832 -0.15684618 0.16066721 -0.16167396 0.0836318 -0.03172626 0.07868972 0.032678124 0.054908052 0.22431086 0.017305953 -0.08865429 0.0015045231 -0.08744026 -0.116617545 0.17918056 -0.11062057 0.068498686 -0.06889799 0.16692124 0.054536987 -0.3627974 0.091125004 -0.14895919 0.036068525 0.115718774 0.119337276 0.15822761
1005 0.15456623 0.024942966 -0.07385983 -0.015384003 0.114079505 -0.05716482 -0.007836036 0.17014444 -0.28308573 -0.06833446 0.21809508 0.009555817 0.17274049 0.65403885 -0.03356644 0.058612168 -0.1928856 0.21921578 -0.23299278 0.16972311 0.03005362 0.009408253 0.08929082 0.19821715 -0.05266331 0.01981509 0.036794014 -0.15570962 -0.31062642 -0.6531603 -0.3084653 -0.13879915 0.23285377 -0.24176739 -0.00696632 -0.24996433 0.11383279 0.05980109 -0.39516133 -0.12182877 0.34652987 -0.23159385 -0.6075084 -0.3335635 0.14280304 -0.09761249 0.059247408 0.11877505 0.24182995 0.2429907 0.09962215 -0.19303149 0.21355557 -0.094053864 -0.30238864 0.31040516 -0.12641463 -0.55421346 0.116630785 -0.07911778 0.4386228 0.21104811 -0.09500239 -0.057824533 0.021433989 -0.1655385 0.15546483 0.3887613 -0.00649375 0.122294985 -0.021028021 0.23497769 0.07224256 0.12537527 0.3583268 -0.48467395 -0.10291819 -0.22740619 0.017462766 0.095823996 0.1678949 0.13051395 -0.12333669 0.10266703 0.01621591 -0.074464016 0.09003177 0.5686455 0.55729145 0.15089396 -0.18861079 -0.0077641173 -0.13299024 -0.18331486 -0.11147895 -0.22241186 -0.30451524 0.2561308 0.099568516 -0.3075288 0.0545749 0.03155105 -0.026771462 0.19850713 0.5066206 -0.11258719 0.20907225 -0.017487522 0.15543096 0.038644508 0.1522293 0.31458986 -0.20193122 0.2701928 -0.30463082 -0.14626616 0.013087896 -0.026045779 -0.11086773 -0.075594485 0.20916428 -0.13568743 -0.6645766 -0.079428315 -0.08247359 -0.077540874 -0.4813347 -0.19476694
133 -0.07053049 -0.04404978 -0.027251739 -0.09638895 0.25281334 0.057292145 -0.0013259891 0.01901829 0.030153602 -0.009203648 -0.02172287 -0.107387155 0.051094368 0.022087298 0.06130103 0.113935865 -0.09912546 0.015028342 0.046905912 0.18107274 0.10095389 -0.2833404 0.1179032 0.1043627 -0.13888475 0.12922414 -0.03789025 -0.10752183 0.020485802 -0.11446171 0.11303778 -0.004924573 -0.0044557047 0.065306574 -0.3338589 -0.2197946 -0.13698022 -0.16542818 0.16801165 0.12590815 0.20451264 0.067684375 0.26042837 -0.16623531 0.23054816 0.08752969 -0.081015736 0.08875703 -0.20954825 -0.08298395 0.0026033502 -0.0625022 0.020725196 -0.25958154 -0.023200132 0.0649097 -0.03251276 0.10912057 -0.28560323 -0.17557994 -0.04533548 -0.034537457 0.03356755 -0.02281136 0.23907655 -0.052190818 0.12534514 -0.038572263 0.035878815 -0.030954745 0.1852759 -0.1308523 -0.11293485 -0.037160765 0.17073144 -0.054193404 0.20527312 -0.051248915 -0.19935617 0.016545633 -0.0151603995 0.14705396 0.017418392 0.10449288 0.050775506 0.042928245 -0.2476351 -0.008389518 0.24948768 0.08735922 0.0062625804 -0.060501818 -0.11408202 0.026614439 -0.17099436 0.066820435 0.14859009 -0.02893811 0.46048814 -0.101193674 0.05131803 -0.029438477 0.20602772 -0.06210408 0.18263686 0.019172644 -0.06180535 0.13789263 -0.11553859 0.07910014 -0.014918635 -0.045582786 -0.12091106 0.035344686 -0.12237644 0.05846757 -0.019095585 0.076097146 0.19706269 -0.11791884 0.20769194 -0.14181392 0.13627912 -0.1952451 -0.11879009 0.24049185 0.2660887 0.049334705
1010 0.16418843 -0.13006432 -0.15258832 0.021083472 0.22988296 -0.2203393 0.21543999 0.1463405 -0.10233892 0.01727415 0.4283859 0.27473956 0.09313403 0.5650866 0.03582202 0.1353265 0.12560646 -0.10056348 -0.08409491 0.060204536 0.23503803 0.17032875 0.24323773 0.35227492 0.105045006 -0.031000234 0.12727147 0.15486242 -0.27908653 -0.31749207 -0.38768992 -0.1610782 0.45280057 -0.07871981 0.30521533 -0.115047045 -0.19939558 -0.047210574 -0.29121226 0.052277163 0.5496083 -0.057360724 -0.57321537 -0.044080846 0.10324223 0.35370746 -0.07318763 -0.27961016 0.07303196 0.17768218 -0.035148468 -0.17459762 0.36177027 -0.32963568 -0.010174559 -0.035379082 -0.21712653 -0.3531764 0.08716876 0.1189288 0.21492343 0.35590258 -0.17720963 0.085114054 0.15941788 -0.22034161 0.3110779 0.5884043 -0.1008087 -0.15751624 -0.1573881 -0.05558877 -0.12931338 0.024089383 0.02644751 -0.5396562 0.055367757 -0.14430828 -0.031018954 0.034776878 -0.16713378 0.4065572 0.23485254 -0.01914095 0.1699935 -0.321542 0.442145 0.1677978 0.22332194 0.047539975 -0.018555388 0.2529912 0.027102143 -0.17430194 0.09200528 -0.34886393 -0.1327603 0.0333003 0.36361557 0.12440078 -0.08019344 -0.060031056 -0.027262965 -0.04520136 0.56133616 -0.24477702 0.08189 0.067608535 0.17348778 0.3227215 -0.08235699 0.30240634 -0.3464149 0.23375984 0.001465709 -0.49415103 -0.13533841 -0.14756711 0.020545647 0.18265972 0.47237527 -0.27038154 -0.3193801 -0.14723407 -0.1294569 0.091021344 -0.36102057 -0.053634893
467 -0.118479155 -0.035302226 0.1585353 0.10840151 0.1589128 -0.12254171 0.0742801 -0.022328002 0.12981562 -0.14493665 -0.0621104 -0.15561153 0.06264679 -0.06869495 0.16714805 -0.050742544 0.088155314 -0.033922777 0.004143153 -0.10610455 -0.06672912 -0.21020535 0.0898019 -0.21082382 -0.11584518 0.123342626 -0.11469604 0.049740326 0.08278321 -0.07408431 0.058204696 -0.21706598 -0.12806496 -0.008903876 -0.17194 0.05442417 0.012425074 0.012567744 0.03710474 0.25329053 0.1883304 -0.09397832 -0.04282914 -0.025444694 0.07106925 0.042964734 0.101821184 -0.05497508 -0.1962078 -0.06728639 0.08348449 -0.045194637 0.08296991 -0.07548941 0.024509385 0.07386766 0.16077149 0.12994352 -0.09417051 0.009230622 0.0044851694 0.07161435 0.028558705 -0.099307485 0.04723203 -0.1093005 -0.0500637 -0.07307238 0.07503716 0.057715397 0.079847015 -0.08818765 -0.01925257 -0.113513365 0.21004309 -0.062362533 -0.060422264 0.08133564 -0.15919405 0.0033228477 0.043264616 0.15826996 0.036418602 0.049192183 -0.19815567 -0.02692349 -0.09289252 0.06654545 0.34479782 0.040638596 0.02261069 0.084053054 0.047568876 -0.18895587 -0.10004664 0.1254201 0.17723478 0.08274135 0.20324293 -0.06418862 -0.10858725 -0.0494381 0.051363423 -0.14850807 0.30712068 0.03475887 -0.042490263 0.061771534 0.15014581 0.025882805 0.09175458 -0.023310326 0.016136749 -0.046702627 0.1482115 -0.085634336 0.06739356 -0.027433095 -0.014889926 0.1448345 0.03499097 -0.15057561 -0.047153752 -0.017952705 -0.11747547 -0.17373396 0.30601364 0.075190686
404 -0.039808955 -0.17850366 0.009506309 0.0841986 0.2820392 -0.087770425 -0.08003015 0.11621222 -0.017737078 0.007499936 0.017498005 0.12920696 -0.21405451 -0.028923701 0.10591525 0.1181934 -0.16430983 -0.08925276 0.057463933 0.02168956 -0.0683963 -0.10739066 0.21370141 0.12952136 -0.04041702 -0.113188714 -0.16651961 0.30647042 -0.14014353 -0.014042589 -0.106791064 -0.032500893 -0.3419562 0.03914293 -0.058871705 -0.23167084 0.13567002 0.11785892 0.19577876 0.07839923 0.23561746 -0.19569299 0.018391667 -0.27963746 0.12506747 -0.15563835 -0.100864 -0.0053549097 -0.14944792 0.066113696 0.23613958 -0.2834745 0.104524314 0.06116436 -0.077809736 -0.23568034 0.26015767 0.011735394 -0.43745428 -0.20084174 -0.21941233 -0.18757787 0.033094503 -0.006503376 0.036657263 0.06570546 0.015937474 -0.18542475 0.22377075 0.1632869 0.12157785 -0.17229326 -0.19082306 0.12079542 -0.05969126 0.1551674 0.23438425 0.08791079 -0.18884458 -0.024719631 0.03833179 -0.06278846 -0.2267846 0.029308293 0.29506215 -0.094532594 -0.16317916 0.10039112 -0.017240994 -0.12790072 0.06637056 -0.23080143 -0.061868865 -0.045192376 0.22471792 -0.03475528 0.01226873 -0.056467958 -0.32725504 -0.07477591 -0.18133123 0.30960098 0.02708492 -0.14897327 0.43178818 0.04115501 0.041074228 0.09965678 0.09192908 0.081110984 0.0120338285 0.15558356 0.047079146 0.2188927 -0.02286164 0.23027857 -0.073093675 -0.021158678 -0.22480808 0.06789462 0.12831329 -0.18277295 -0.15170039 0.05928184 -0.10074317 -0.2736168 0.21336132 0.1373229
459 0.03818444 -0.17265588 0.012052489 -0.13930944 -0.03365591 0.03990124 -0.13742208 0.08633624 0.019914769 -0.006715519 -0.16307172 -0.3890268 0.05100637 -0.1514306 0.090272 -0.18435481 0.09195673 -0.08400573 -0.068837374 -0.12989767 -0.09896249 -0.3118127 0.1836262 0.0914932 -0.23519216 -0.04976506 -0.010305388 -0.104137555 -0.019170897 0.09587041 0.21132246 -0.23727201 0.015321094 -0.09594886 -0.19771074 -0.105368435 -0.16562603 -0.08966097 -0.0043876595 0.26665545 -0.18470268 -0.10606005 0.119613834 -0.08959712 0.16814749 0.0825529 -0.07632064 -0.15179965 -0.25359607 -0.09260514 -0.3098677 -0.042972956 -0.020154605 -0.1720939 -0.027742025 0.008056294 0.24815609 0.013149804 0.005474478 0.122401446 -0.00833543 0.23217465 0.07021801 -0.0001523794 0.116789624 0.05997331 -0.07292324 0.06302554 0.2065426 -0.18002447 -0.11188157 -0.16847916 -0.05271414 -0.0049367957 0.04463781 0.043961756 -0.041673973 0.12781826 -0.13669677 -0.03706635 0.011807866 0.26886767 -0.1746703 -0.008691833 0.12176912 -0.08068194 -0.04236255 -0.019698206 -0.050414328 -0.0009560388 0.07527437 0.04181157 0.0326724 -0.019953456 0.107417054 -0.032785084 0.0027338215 -0.1520261 -0.07828013 0.0021319871 -0.080568515 -0.12142748 0.11789429 -0.12174645 0.26282537 0.018989976 0.10460393 -0.11562677 0.00313995 0.17491302 0.014984496 -0.19898771 -0.013362298 -0.041962717 -0.03106326 0.23374486 -0.07300625 0.20290613 -0.09021106 0.16306095 0.080350995 -0.40824357 -0.006272819 -0.071017705 -0.12697145 -0.15404885 0.062200457 0.031554714
476 -0.0070861327 0.105030455 -0.13474327 -0.05388562 0.21670161 -0.041817334 0.051152185 -0.16914076 -0.17692223 -0.018491762 -0.050875645 -0.23501521 -0.19930825 0.030621937 -0.025489787 0.013756585 0.028153973 -0.03664114 0.021588944 -0.14551707 -0.08322556 -0.32681417 0.11563823 -0.16077594 -0.009648105 0.04218539 -0.2763463 -0.053583525 -0.009923106 -0.09212763 0.11204514 -0.13308078 0.018396297 0.13065203 -0.05230644 -0.05791618 -0.17820732 0.1724573 0.035896257 0.058878943 0.03178873 -0.031687062 0.06593636 0.10268697 0.1499599 0.115848325 -0.03562692 0.063678265 -0.30757338 -0.08515326 -0.032472376 -0.07147095 0.0644318 0.0686768 0.38494352 0.069294214 0.08399188 -0.051463917 -0.19160901 -0.03147279 0.13602547 0.20052724 -0.045179255 -0.03568177 -0.053525098 -0.069710664 0.022070304 -0.06318492 0.16663711 -0.028953759 0.19147903 -0.07244947 -0.010158187 -0.23177922 0.16910091 0.0075253085 -0.019398209 0.09515732 -0.13451654 -0.031681746 -0.13071726 0.12991735 0.12524877 0.09844231 0.020780157 0.013913791 -0.15676217 0.0684559 0.3559881 -0.057976663 0.018298684 0.20919871 0.119895354 -0.05838962 -0.17288598 0.17493042 0.05247754 0.06481552 0.1293799 -0.10724796 -0.037616096 0.005366434 0.27098238 0.029598624 0.28065586 0.14488596 -0.0035347897 0.021823643 0.1414632 0.024387138 -0.056495875 0.10008569 -0.13070136 0.06554752 -0.011981121 0.18594898 0.13188635 0.0027481834 -0.0686538 -0.08780073 0.051873367 -0.13803393 0.12502111 -0.3130878 0.11528794 -0.13536286 0.14247002 -0.016810061
432 -0.07765333 -0.054893162 0.094775386 -0.09640148 0.1231696 0.122712836 0.08863108 0.042596053 0.041682314 0.2267359 -0.20226116 -0.13122612 -0.0380031 -0.069221996 0.007849303 0.2143346 -0.04590235 0.101814665 -0.008558076 -0.05130193 -0.19516897 -0.17442338 -0.15189928 0.13761675 -0.012607457 0.07214909 0.022252895 0.04876711 -0.02413275 -0.028306788 0.029929383 0.047722023 -0.0071784793 0.014923837 -0.16828564 -0.25876385 -0.013008596 -0.009530886 0.09258439 0.17218496 0.15958709 -0.107362375 0.11306369 -0.21194658 0.22519106 -0.07666325 -0.10347383 0.06473019 -0.13299397 -0.07434296 0.12268675 -0.08489292 -0.043949217 0.045551684 0.015590204 -0.10826283 -0.112918034 0.08464915 -0.29878747 -0.17944042 0.15491323 -0.013136064 -0.056877732 -0.053184297 0.2142993 0.0126717 -0.05847573 0.07871381 0.025525885 -0.08453595 0.07716607 -0.012899809 0.0064208996 0.14393726 0.1959366 0.050827753 0.0123922955 0.18536547 -0.22125377 -0.049938213 -0.0021551524 0.21624193 0.042418584 0.055305704 0.08974687 -0.033231363 -0.22232057 0.011728296 0.12492751 0.048523556 -0.08979119 0.08350503 -0.08869665 -0.13026224 -0.030755773 0.1349234 0.1666166 -0.051915508 0.11214417 -0.17131527 0.15782206 -0.060270496 0.24884969 -0.12950227 0.18023469 0.01950004 -0.12005572 -0.04498047 0.0647498 0.08958529 0.019067904 0.05158564 -0.07458297 0.018342286 -0.05866481 0.06252874 -0.045166016 0.026037082 0.11516721 0.0017931185 0.22866398 -0.2571135 0.07852181 -0.223202 0.15547405 0.089519285 0.34556857 0.067359604
234 -0.075552136 -0.14942123 -0.0525718 -0.010141074 -0.0027776144 0.05941275 -0.12528408 -0.016062623 0.066934995 0.12266019 -0.046675645 -0.33465075 -0.07812007 0.032981295 0.05858526 0.09610255 -0.09462003 -0.064481586 -0.18282694 -0.0922875 -0.11546037 -0.13919893 0.09993228 -0.105876 0.002830813 -0.024281438 -0.06108026 0.14541131 0.033571813 -0.1522976 -0.0344014 0.08304543 0.027358089 0.18474615 -0.18347508 0.09033828 -0.018460345 0.21328217 0.19938236 0.07534615 0.13934559 -0.10341246 0.041922 0.03394054 0.22538014 -0.058817793 -0.022877023 0.007357619 -0.23065081 -0.064077124 -0.055844933 -0.057796925 0.009631172 -0.23018955 0.0381484 -0.07205644 -0.024023904 0.044096902 -0.25656506 -0.101836205 -0.0041163615 -0.0076617557 0.117470756 -0.15292059 -0.052261066 0.008589789 0.07102705 -0.035722613 0.15928866 -0.05546418 0.12144536 -0.043327205 0.082733266 -0.1030601 0.14623119 0.01732607 0.04822795 0.016977964 -0.20869432 -0.038259983 -0.054613575 0.08000192 -0.1005061 0.1086768 0.15283895 0.06292539 -0.00285825 -0.0056466046 0.0676093 -0.09063732 -0.012087319 0.018488314 -0.053382713 -0.16006896 -0.09623928 0.06296289 0.14350139 0.12485994 0.015787348 -0.061205443 0.010075718 -0.087367 0.008380649 -0.1256628 0.25041515 -0.070069276 0.07895795 -0.12586561 0.3072254 -0.10012546 -0.022748277 0.07072936 -0.104912974 -0.0821312 0.16885334 0.18998425 0.17612791 -0.057355676 -0.053661235 -0.13306381 0.0503018 -0.38126454 -0.06022632 -0.022364728 0.02556395 0.16687982 0.3268548 0.12060316
101 -0.05975305 -0.06082676 -0.082154796 -0.028529376 -0.09738904 -0.058985084 0.08402666 -0.05798931 -0.17266008 0.014318375 0.045359746 -0.12160144 -0.07254542 -8.9347675e-05 0.05608085 0.08541037 0.05033788 -0.24582295 -0.11477401 0.1389062 -0.13988069 -0.2339864 -0.15565597 0.013230295 -0.025861658 -0.026125504 -0.12188915 -0.0059323274 -0.0477494 -0.104217574 0.03202067 -0.13161598 -0.02980117 0.07752049 -0.124367766 -0.33057687 0.10661309 0.080382116 0.0858106 0.14473705 -0.18274641 -0.07775568 -0.054112118 -0.025971599 0.109960966 0.025067123 0.00972645 -0.044411268 -0.35651138 -0.0034750993 -0.19643149 -0.043936882 -0.019353677 0.08519706 0.06662843 -0.090083964 0.15891217 -0.1123419 -0.0019235966 -0.057138074 0.001543414 0.03373601 -0.01196091 -0.08137246 0.21161024 0.104947336 -0.013314644 0.011128349 0.07332666 -0.17687753 0.08643596 -0.06883026 0.089292444 -0.002301375 0.27599305 -0.039496377 -0.02993931 0.028314205 -0.2883022 0.015022965 -0.16487516 0.27721137 -0.15085025 -0.045251638 0.05621466 -0.10635961 0.00075764774 -0.052082688 0.07264858 0.027139224 0.1478239 0.08622408 0.08570796 -0.021734972 0.023497628 -0.013721746 0.031204693 0.11309563 0.030054994 -0.016615069 -0.04129269 -0.08692467 0.15404707 -0.007815723 0.33892503 -0.029745907 -0.06679064 -0.011048433 0.0630298 0.10888604 0.083479576 -0.2036368 0.08933892 0.017474627 0.014201624 0.05519336 0.0556277 0.14597721 0.0873835 0.08877323 -0.026355753 -0.22474864 0.13586932 -0.040324815 0.04657528 -0.04937656 0.18377028 0.029672043
85 -0.01436766 -0.13682295 -0.031303067 0.07460332 0.058456365 0.095366664 0.023036854 -0.06922605 -0.065659 0.043731853 0.025971465 -0.049908087 -0.0011310298 -0.18735446 0.052772105 -0.06506905 0.020391813 -0.049858462 -0.050249718 0.048904113 -0.2045625 -0.28152552 0.052391138 -0.03058991 -0.07097549 0.057172198 0.022475882 -0.05892349 0.01622277 -0.09860231 -0.0015107411 -0.05812835 -0.035124563 0.0836129 -0.053146113 -0.018244326 0.05367982 0.086329795 -0.004285498 0.17113122 0.056233466 -0.09850759 0.109320514 -0.07298057 0.1294625 0.12093856 -0.010758685 0.025588451 -0.236262 -0.13869675 -0.08285369 -0.09262117 -0.036356155 -0.015616831 0.07642116 -0.0767199 0.025905345 -0.055895217 -0.10723775 0.010230933 0.042933494 0.15932022 -0.0024594578 0.026287606 -0.043654166 -0.009205282 0.035660867 -0.1990408 0.014185064 0.007170802 0.07148162 -0.07534745 0.111051865 -0.03303915 0.116249986 -0.040511094 -0.044223543 0.023647416 -0.0811186 0.10435606 0.015887717 0.026494669 -0.021031931 -0.10023764 0.11160208 -0.15502158 0.025687296 -0.032301847 0.052894384 -0.14872779 -0.10972223 0.039652396 -0.07562819 0.010126633 -0.042398382 -0.022964668 0.05292826 0.0070290444 0.06709602 -0.13601233 0.016701596 -0.16582839 0.06360256 -0.084341556 0.32273048 0.07662559 0.03896203 -0.036102414 0.15809703 -0.008119927 0.04343911 -0.092967 0.050493874 -0.047755904 0.07623105 -0.03568559 0.05077734 0.18549874 -0.1479439 0.011106112 0.13958429 -0.2684511 0.025915118 -0.12342943 0.00090886053 -0.108545884 0.15062904 0.18165278
249 -0.16367768 -0.11080492 0.24430183 -0.021430118 -0.13907786 0.018480862 0.19954723 0.16925927 0.0613418 -0.05370866 -0.046255928 0.06488427 -0.16866656 -0.26844332 0.034365933 0.08548415 0.034458 -0.023827426 -0.21486337 0.0896865 -0.0016688464 -0.06440461 -0.0656857 -0.022665815 -0.13689764 0.1483225 -0.048967157 0.07375412 -0.13154283 -0.104547165 -0.09759165 -0.11776032 -0.09660532 0.044304002 -0.024376376 -0.026794141 -0.06427348 -0.15851723 0.04510341 0.28579342 0.034305435 -0.1335886 0.06005436 -0.36195004 0.38111594 0.15472914 -0.10020437 0.09922539 -0.1664424 0.05156063 -0.0027017149 -0.1722166 -0.099127375 0.05419729 0.12588008 0.008248376 0.07272757 0.14304793 -0.32141763 -0.07621946 -0.10199803 -0.0444109 -0.1136547 -0.1530852 0.15347444 -0.009046559 0.17082675 -0.2942419 -0.023840306 -0.007451776 0.017938938 -0.04644849 -0.021122918 0.044850897 0.0703506 -0.030810067 0.35651335 0.1472284 -0.17867957 -0.0075963056 -0.14209738 -0.008125502 -0.08814916 -0.06648776 -0.109787256 0.20305298 -0.3090164 -0.041234136 0.08207919 0.04653649 0.055669006 -0.040720455 -0.14799863 0.051564258 -0.026412489 0.1353117 0.0004541145 0.0532368 0.12202451 -0.060457572 -0.18808804 -0.08373174 -0.06795452 0.10961267 0.33632645 -0.016171968 0.04732128 0.07318627 0.12485029 0.22645336 -0.012783885 -0.032450486 0.18899901 0.023000726 0.12805307 -0.022941576 -0.013967746 0.013507578 0.015519868 0.09544005 0.10678516 -0.248231 -0.27881908 0.11991679 -0.051153343 -0.14436635 0.30585843 -0.034367517
167 0.025358992 -0.18043561 -0.12588522 -0.1594875 -0.026505947 0.07987327 -0.070998296 0.11866719 0.07994415 -0.031157637 -0.102045015 -0.2689646 -0.048975017 -0.10002119 -0.069002375 -0.120959 0.11123018 -0.030179273 -0.06972686 -0.044494092 -0.2345076 -0.41382307 0.182322 0.07157884 -0.042078093 0.19256105 -0.11025826 -0.1832458 -0.08102931 0.09009742 0.14057174 -0.14570919 0.024190847 -0.038861047 -0.13223282 -0.12817544 0.039229725 -0.1302512 0.1487217 0.27465075 0.027608074 -0.00015176793 0.12800619 -0.18805374 0.14911957 0.053668976 -0.042530335 -0.058726367 -0.24015617 -0.081114374 -0.15493855 -0.12343735 -0.15345812 -0.20815058 0.054126613 -0.06216273 -0.07260353 -0.054804184 -0.08805009 0.048191547 0.09175565 0.17847586 -0.09346169 -0.099153064 0.09067597 0.030678557 -0.12172935 -0.060017645 -0.004197979 0.0016249784 0.039700963 -0.080384605 0.08648922 0.08296483 0.046291552 -0.016351176 0.06714032 0.047564115 -0.24949494 0.103640705 -0.0066070296 0.09805228 -0.065377615 -0.08306822 0.119747244 -0.009316039 -0.12508263 0.009404726 -0.042174496 -0.14483695 0.07449731 0.0243278 -0.1648054 0.036865186 0.09197803 -0.010218452 0.023534402 -0.06123895 0.043248832 -0.18008643 -0.007843001 -0.04733604 0.20338443 0.17359592 0.360307 -0.0078664785 -0.018110149 -0.20368262 0.05953454 0.027978487 0.13347046 -0.26006144 0.06667912 0.13970703 0.078493685 0.08550838 0.04363351 0.05106494 -0.041620012 0.048334796 0.084453374 -0.21707948 0.02726046 -0.17188852 0.008526453 -0.017938077 0.10627796 0.0557447
232 -0.0010798641 -0.06474519 -0.3292076 -0.13381673 -0.1072884 -0.04023966 0.1302458 0.109643064 -0.019504374 -0.18320395 0.07396186 -0.1052072 -0.18559234 -0.045579094 -0.017908499 0.015438936 -0.041812982 -0.046600476 0.0062231864 0.05946467 -0.17747645 -0.012722654 0.03734007 0.107650355 -0.13655846 0.12281101 0.18680811 -0.087170735 0.0074686687 -0.13716826 0.012444169 -0.12690108 0.08348709 0.06513531 -0.018595139 -0.22861294 0.12688033 -0.14121538 -0.07175617 0.17871714 -0.19661236 -0.11680564 0.30803853 -0.063324474 -0.011904495 -0.025799053 -0.06382977 0.025780147 -0.18491447 -0.18065624 0.11823591 -0.16140889 -0.018397817 -0.010739957 0.05126682 -0.20007996 0.116366364 0.07877102 -0.04777456 0.046609417 0.080938034 0.111073844 -0.031007737 0.10340173 -0.07960134 -0.029503807 -0.00815946 -0.053679593 0.12520882 0.16709314 0.016722754 -0.08180202 -0.08768332 -0.09112361 0.2222493 -0.017881645 0.012256664 0.07470621 -0.30422363 -0.15994985 0.029527506 0.07853867 0.01617897 -0.07748557 -0.08644886 -0.12070436 -0.1557381 -0.15005398 0.08318357 -0.19824238 -0.14562114 0.28397876 0.097927764 -0.15436384 0.042693876 0.10346804 0.06149995 0.027701112 0.11961907 -0.113173395 0.118008606 -0.023280688 0.1599695 0.064031005 0.18647312 0.17103696 -0.07505659 -0.030424023 0.07592398 0.10835728 -0.061064053 -0.17444865 -0.055612564 0.04835412 -0.16307221 -0.158352 0.20288026 -0.007665597 -0.06232262 -0.14920354 0.11070045 -0.25425178 -0.040146764 -0.28006124 -0.09521455 0.0023751669 0.13970159 0.09595775
215 -0.06730451 -0.05204332 0.025425937 -0.044228245 0.092541575 0.048062496 -0.057925254 0.018769335 0.06983894 0.028093256 -0.13029772 -0.098936215 -0.09075004 -0.005839977 0.028337978 0.12938814 -0.24117804 -0.07454953 -0.17212196 0.12434614 -0.028218575 -0.058724727 -0.04278502 0.049137216 -0.09484486 0.17322548 -0.209323 0.00802064 0.04016397 -0.0028617396 -0.037085626 -0.34122702 -0.048784513 -0.08975241 -0.22345649 -0.22841549 0.06858476 -0.0055932617 0.08757114 0.030388247 0.26640308 -0.023161162 0.15231659 -0.16983247 0.14171624 -0.18248494 -0.0052968613 0.019283433 0.06068217 -0.10350119 0.012286281 0.005587969 0.04484029 -0.19656332 0.033721406 0.044923335 -0.04409933 0.14317307 -0.26725337 -0.07941282 0.22978388 -0.2634131 0.029303025 -0.21625754 0.34448546 -0.056104146 0.033497103 -0.17156294 0.14747272 0.097436495 0.21811461 -0.28753465 0.015159786 -0.035997473 0.2621959 0.069001175 0.14563279 0.020475674 0.02927538 -0.017819835 0.03897027 0.1334032 0.07109933 0.07047808 -0.191972 -0.23902115 0.034128107 -0.0126072625 0.22558312 -0.0980946 -0.0020123972 -0.07778972 -0.005801117 -0.2859356 -0.14863616 0.14641315 0.08087634 -0.147068 0.22208562 -0.31298184 0.13212754 0.010015293 0.27129474 -0.06609261 0.18586147 0.041443273 0.039118487 0.03249638 -0.07697267 0.12360039 -0.13701211 -0.0009601265 0.01367043 -0.01991437 0.13953637 0.15953588 -0.044408042 0.01346255 -0.11644345 -0.14289609 0.1686181 -0.365124 -0.074128695 -0.088825084 0.04062747 -0.13908689 0.16786283 0.06619584
253 0.02035377 -0.14398275 0.053647175 -0.0052993237 -0.0022957628 0.040423326 0.021009434 0.013187205 -0.13520452 0.077407025 0.050217822 0.050626367 -0.006127578 -0.22933355 -0.036575317 -0.1139206 0.02803889 0.00026509454 -0.11253521 0.117021866 -0.13518822 -0.20482413 0.07255796 0.012747064 -0.032456476 0.0051080026 -0.0381513 -0.08981989 -0.11908708 -0.08449033 0.02716353 0.09821938 0.0023286166 0.0879678 -0.15510976 -0.07280089 -0.020006455 -0.026383676 0.017736452 0.28365186 0.1390831 -0.14132504 0.2002226 -0.07001776 0.028059207 0.118363634 -0.09830772 0.0507837 -0.2603551 -0.1443959 -0.0017065887 -0.057132773 0.02312446 -0.006447024 -0.06310221 -0.0044210907 0.052605618 0.020585597 -0.1081506 0.011081584 0.043007992 0.1452798 -0.085656285 -0.011978121 0.0936891 -0.027979674 -0.01960214 -0.1468128 0.07464428 -0.012187549 0.008568114 -0.069499984 -0.017972225 -0.021888329 0.15104736 0.0024129536 -0.04172115 0.048062127 -0.14173514 0.023570113 -0.02838633 0.09874154 -0.1485827 -0.0029433537 0.111161366 -0.008689979 -0.097814955 -0.11779391 0.02621034 -0.13668762 0.031441398 0.040853795 0.020298267 0.030161688 0.02357544 0.06953483 0.038050905 0.026779722 0.0684729 -0.059565645 -0.008188681 -0.120235816 0.07317373 -0.040506594 0.2887777 0.094173856 0.036245633 -0.010913918 0.25668165 0.028702619 -0.042314406 -0.10109154 0.009550138 -0.05382735 -0.042654887 -0.039039366 0.08322624 0.13811405 -0.09552067 -0.09874851 0.088648364 -0.3010632 -0.006624098 -0.069439575 0.034566246 -0.114750646 0.24143067 0.08143935
86 -0.02763396 -0.09786486 -0.04255905 -0.043755602 0.07625166 0.10561861 0.13244249 -0.020245941 -0.036330353 0.056593925 -0.056046568 -0.030948283 0.022545129 -0.20736876 0.031156216 -0.13362199 0.094472796 -0.034005426 -0.06922427 0.078196585 -0.10458345 -0.1619064 0.043251622 0.06398545 -0.09593092 -0.06040826 -0.017410306 -0.17608365 0.013927767 -0.04119989 -0.036296815 -0.05497615 -0.04542982 0.05866791 -0.055609796 -0.16200261 0.06305115 0.07423138 -0.0025551103 0.1822426 0.056804173 -0.12629606 0.042324405 0.021295104 0.07567299 0.1199657 -0.070743866 0.022295833 -0.21915108 -0.095093034 0.035783105 -0.16477017 -0.064602256 -0.019985722 -0.021451453 -0.047133476 0.09625286 0.015140509 -0.14583403 -0.0531616 0.008950189 0.116405144 -0.10556983 -0.044141367 0.091102295 -0.026738416 0.020654578 -0.072526865 0.063170515 -0.01485432 0.10434894 -0.06317355 0.010601522 -0.065371074 0.18444748 -0.06527636 0.043612134 0.033456437 -0.14943202 0.059655648 -0.059319995 0.16296627 -0.14917263 -0.05076188 0.12268627 -0.052976117 0.018926198 -0.09665862 0.14498839 -0.12153826 0.013052658 0.03799107 -0.031144878 0.06487652 -0.09460359 -0.026021559 0.07790017 0.1723588 0.018402446 -0.17842735 0.041008584 -0.17420949 0.046717506 -0.03956268 0.19306836 0.033538774 0.06185504 -0.00363155 0.18967764 -0.046083298 0.10475281 -0.046270866 0.060035408 -0.08995364 0.012791006 -0.113720916 0.11302301 0.15202093 -0.0804664 -0.072944306 0.12637515 -0.236107 -0.0008086438 -0.14967652 0.077495724 -0.152413 0.2721136 0.101797074
187 -0.15232223 -0.112450056 0.14443702 -0.1123317 0.025333893 0.103856735 0.08528571 0.08653704 0.12319352 0.010681783 -0.0835735 -0.14061777 0.11151788 -0.16437326 0.3628805 -0.037001573 0.043849293 0.05836123 -0.07929626 -0.086845644 -0.006222857 -0.030783566 0.16559492 -0.047638044 -0.0067857327 -0.0033235897 -0.07179 0.10187117 0.09491633 -0.22427724 0.06250052 -0.11052002 -0.09587564 -0.012554824 -0.17914258 -0.09417157 -0.25001407 -0.031386983 0.16136365 0.18763152 0.13802147 0.041530397 0.06183486 -0.067860134 0.18783185 -0.081333615 -0.06415813 0.0036582702 -0.04780512 -0.084185496 -0.0047235196 -0.094139695 -0.10250363 -0.08339423 0.08706865 0.056577887 0.04526491 0.0030577404 -0.18203217 0.020546995 0.035926685 0.060072232 0.023117138 -0.039839588 0.07727581 0.004071239 -0.005685648 -0.05095769 0.19272178 -0.10318059 0.097586595 0.10790141 0.04802619 -0.13647616 0.20500469 -0.0064791166 0.034473468 0.123850666 -0.26049674 -0.080985345 -0.14430384 0.029714499 -0.23698066 0.06404966 -0.08747322 -0.12961534 0.010206278 -0.08137241 0.2894223 -0.094165 -0.015769545 0.07653505 -0.004282022 -0.0017167061 -0.054787956 0.038620643 0.122636825 0.11807955 0.05247795 -0.1303765 -0.1331808 -0.050282493 0.17823303 -0.13908578 0.2334499 -0.006852376 -0.04830845 -0.121956505 0.051466618 0.045813315 0.010279816 -0.12038974 -0.022979664 -0.058160517 0.06442878 -0.05744439 0.080275685 0.08081985 -0.13036202 -0.033512156 0.08496328 -0.14998764 0.009591677 -0.05610113 -0.10878165 -0.1478816 0.29649827 0.09215817
17 0.102120414 -0.15452442 -0.092716366 -0.053973462 0.07013713 0.04647033 0.037333418 -0.017708864 0.009753232 -0.05232935 -0.0038663854 -0.06550519 -0.048500177 -0.17804405 0.024866257 -0.04925527 0.009825721 0.009045186 -0.037479825 0.09570201 -0.20796652 -0.28893852 -0.056454398 0.027037328 -0.073101364 0.11761468 -0.045178715 -0.07577899 -0.080758944 -0.058692705 -0.043698106 -0.08853248 -0.07253315 -0.030989327 -0.09033537 -0.06514511 -0.03780584 -0.0024837202 0.016878977 0.1997981 0.04179522 -0.21227433 0.1254406 0.0017771471 0.13966188 0.109262645 0.019246018 0.035925366 -0.24452549 -0.17958039 0.013308128 -0.08783291 0.036244456 -0.00597731 0.008485647 -0.040934917 0.08812674 -0.031042147 -0.09945868 -0.07833271 0.04172127 0.12022296 -0.052959044 -0.06367665 -0.01705193 -0.12927802 0.0013182369 -0.09727493 0.08640006 0.11585243 0.05783222 -0.01851202 0.10399247 -0.0004188835 0.1243518 0.045862317 -0.040518288 0.021171734 -0.10265752 0.0129829915 0.067735314 0.12828656 -0.022544766 -0.021781731 0.04768605 -0.054904707 0.052269947 -0.09224086 0.02864391 -0.15376596 -0.09468656 -0.033306815 -0.048220787 0.059438955 -0.0040410906 0.058349993 0.05793309 0.018346123 0.083821684 -0.09382607 0.08110771 -0.0427251 0.08608197 -0.11345337 0.2235831 0.10636298 0.06939898 -0.04847225 0.24880077 0.047779217 0.082282275 -0.19568898 -0.08193278 -0.019471573 0.063583136 -0.017504986 0.061347324 0.12958185 -0.08383418 -0.0056367014 0.039740194 -0.28183332 -0.064313106 -0.17617281 0.06618131 -0.060668405 0.13657674 0.038914666
69 0.120265484 -0.06112881 -0.04666461 -0.11283147 0.029113702 0.045047004 -0.15494107 0.049673885 0.016467087 0.13581154 0.23319022 -0.25800171 -0.02085783 -0.14488104 0.13325906 -0.13843928 0.04835883 -0.13184115 -0.118055634 -0.114925645 -0.014344725 -0.18562096 0.12476025 -0.16486087 -0.3788537 -0.056327302 -0.071911365 -0.18331222 -0.13254891 0.1292822 0.09571662 -0.13749586 -0.3163052 0.03284292 -0.011557019 -0.070046484 0.023704732 -0.07583033 0.06184625 0.17814311 0.20569563 -0.26819587 0.17607051 -0.23095013 -0.0008299358 0.10280321 0.09516139 0.10348284 -0.10047187 0.15214421 0.036294293 -0.18429662 0.1550599 -0.047475338 0.12337519 -0.22364706 0.18701908 0.020533036 -0.045925707 0.14916 0.05005222 0.20662409 -0.28583547 -0.21588519 0.13746236 0.048176646 -0.0732702 -0.0409025 0.066721894 -0.055324607 -0.08155132 -0.03879583 -0.13703217 -0.040389594 -0.18054858 0.043625154 -0.028757239 -0.047128662 -0.37429956 -0.020671878 -0.2594308 0.20715515 0.054187216 0.1916264 0.0787872 -0.15803635 -0.07116641 -0.00502395 0.34893653 0.119045 0.06827351 0.04924626 0.11077385 0.07392436 -0.10321204 0.074315816 0.060765356 0.052989088 0.08735125 -0.2746163 -0.10887851 -0.2577475 -0.08910319 0.035126876 0.2308715 0.21230459 0.104891926 -0.19885401 0.1435392 0.10041534 -0.08929934 -0.10691634 0.05670703 0.093052946 -0.081990495 -0.015911141 -0.027431343 0.054276723 -0.1208384 0.18718709 0.19316342 -0.06985011 0.0516824 -0.265855 -0.1785459 0.030490136 0.15570307 0.14918746
83 -0.094621636 -0.07961234 -0.08064192 -0.07704184 -0.013474999 0.09284948 0.19081248 0.04163486 -0.17174475 -0.035468314 -0.10381277 -0.07652117 0.029413441 -0.1133469 0.10132358 0.013580133 0.055338502 -0.002504038 -0.007359611 -0.010554102 -0.15799086 -0.18646856 0.052397296 -0.1334721 -0.009113768 0.1647503 0.059717815 -0.021829551 -0.040557053 -0.1516989 0.028995723 -0.11984844 0.03430191 -0.024768751 -0.0665876 -0.047101066 0.057380725 -0.040691692 0.042014215 0.14720412 -0.09769042 -0.085724115 0.112848 -0.029031325 0.066752106 -0.03503732 -0.08417641 -0.08662713 -0.27195832 -0.11076383 0.020618869 -0.14952573 0.050944597 0.002136954 0.0438596 0.01875228 0.121007375 0.08121683 -0.18846302 -0.004971025 -0.023604298 0.16285926 -0.014440411 -0.015449767 -0.08544598 0.022458969 -0.008613413 -0.06569139 0.032766506 0.11712281 0.021895053 -0.1341562 -0.02100291 0.08598579 0.16429661 0.04403868 0.008473085 0.015547524 -0.2078867 0.008815781 -0.06303521 0.0778131 -0.11261908 -0.11126793 -0.025522036 -0.17844684 -0.044103317 -0.105867185 0.19867969 -0.15235522 -0.024159018 0.18313658 0.0075309225 -0.041404955 -0.004613239 0.14567134 0.16559479 -0.08769902 0.13959809 -0.05101771 0.02298289 -0.035647217 0.045592975 0.12810639 0.21158388 0.1826661 0.09863222 -0.12898523 0.035086114 0.07188707 0.14259392 -0.078396134 -0.037009384 0.07781929 -0.16711783 -0.13062672 0.18116216 -0.00894158 -0.106715925 -0.05057352 0.080448784 -0.34571028 -0.0030971689 -0.18724763 -0.046303477 -0.08121385 0.21371597 0.08641918
173 0.026391324 -0.031878643 -0.03917988 0.069007225 -0.00016795001 0.08659486 0.009357163 -0.03761409 0.037500862 -0.019243734 0.016212095 -0.0745302 -0.02273876 -0.14331672 -0.0006317682 0.024412526 0.11401454 -0.14337368 -0.11624541 0.08589778 -0.13435866 -0.23969224 -0.030198088 -0.023820868 -0.04836032 0.034429237 -0.044693165 -0.046855483 -0.090731226 -0.14576486 0.002835255 -0.045940474 -0.049397167 0.024900757 -0.024130017 -0.08027791 0.032800715 0.05294153 -0.0029559524 0.28629625 0.06879938 -0.097583205 0.117405504 0.011160239 0.08792664 0.09653078 -0.13164817 -0.01951595 -0.23559755 -0.111686796 -0.048172116 -0.07450732 -0.05909961 -0.03930519 -0.0152249 -0.08001287 0.038676206 0.015178074 -0.14858116 0.012942986 -0.042923953 0.09532979 -0.08882344 0.0036569487 0.026193133 0.005618745 0.07555221 -0.08809597 -0.009478684 -0.024726413 0.16946827 -0.12660964 0.026770994 -0.031129148 0.1311633 -0.03692457 -0.008238066 0.027052663 -0.18220247 -0.06936953 -0.04968712 0.14981148 -0.055534936 -0.07724243 0.05319619 0.030891692 -0.07428353 0.020430041 0.1119262 -0.25614947 -0.03176173 0.036607925 0.0055187126 0.025512822 0.032322884 0.10888554 -0.037775423 0.03534682 0.07774293 -0.12955031 -0.059615035 -0.14526229 0.088849284 -0.051769663 0.25674543 0.14300026 0.063580185 -0.02704767 0.15616322 -0.03806527 0.0862948 -0.08674243 -0.056774285 0.06571345 0.059884347 -0.029018685 0.07101976 0.1435627 -0.040688857 -0.00031279176 0.14652114 -0.23251982 0.016001418 -0.089760736 -0.007472639 -0.12277172 0.15056407 0.11593312
246 -0.06264202 -0.08304939 0.0995197 0.012017668 0.057734698 0.12967151 0.11071376 0.06265858 -0.01161662 0.014210048 -0.0388027 -0.15483963 -0.0110448925 -0.17662434 0.18151726 -0.18271333 0.04178456 -0.047001384 -0.06533905 0.122298755 -0.16336876 -0.12937397 0.12307932 -0.05600221 -0.059783723 -0.0670423 -0.15045561 -0.00034710424 -0.05092056 -0.12418663 0.044421267 -0.10355761 -0.07582067 0.008295366 -0.063334666 -0.037532873 -0.1504401 -0.083516724 0.12584528 0.22598185 0.049836602 0.048906375 0.060056202 -0.03739065 0.040504046 0.07382086 -0.1067426 0.056835853 -0.106872156 -0.03528209 -0.1439481 -0.09753589 0.054380197 0.023334524 0.118423134 -0.11282844 0.123214096 -0.034325313 -0.23167926 0.035004374 0.050783843 0.22485645 -0.03514578 0.025075741 0.13949637 0.14762902 0.121031016 -0.074030906 0.06511757 0.030361949 0.044742864 -0.00041185168 0.0059183217 -0.13946556 0.07799283 -0.050680768 0.027676517 0.16838512 -0.13235857 -0.025434634 -0.17361116 -0.0009352031 -0.16150548 -0.003196094 0.012146414 -0.11389127 -0.002881549 -0.06275817 0.100924425 -0.019616827 -0.050342947 0.048550636 -0.06981203 0.049692925 -0.11427912 -0.09641272 0.018627465 0.094509706 -0.006175613 -0.24244958 -0.097575285 -0.027237948 0.037583854 -0.11979664 0.3270123 0.093278505 -0.121916614 -0.024206664 0.1785158 0.057658046 0.016550157 -0.14400764 -0.025004221 -0.086535 0.11495484 0.008902726 0.010639064 0.13563591 -0.02087877 -0.033119548 0.02317447 -0.22101624 -0.0641985 -0.15247607 -0.070117995 -0.083153166 0.23882163 0.018036366
131 -0.08611475 -0.14873293 0.012994866 -0.0018512836 0.017965242 0.07018769 0.051354885 -0.040806215 -0.08826879 0.036168285 0.08759305 -0.06089005 -0.025439003 -0.1774472 -0.003587047 -0.11115111 0.021131871 -0.09673416 -0.16216303 0.087393396 -0.19363426 -0.2950052 0.06749487 -0.019764597 -0.06361891 0.007910175 -0.011973035 -0.103839025 -0.08185145 -0.050621595 -0.077836156 -0.06851776 -0.09172066 0.05894449 -0.13232893 -0.028646978 -0.036522854 -0.03340534 0.021231284 0.25587216 0.06027992 -0.015082655 0.08542792 -0.010905823 0.040621962 0.122404166 -0.10614398 -0.015917543 -0.22868654 -0.10436089 -0.062061474 -0.10502445 -0.04846368 -0.06554031 0.047990292 -0.117041156 -0.02033252 -0.0013216443 -0.08965274 -0.025100231 0.04987755 0.012073774 0.0056953174 0.00997577 0.053159382 0.033574063 0.026152145 -0.13223198 0.04387024 -0.00090800645 -0.0036292246 -0.04901458 0.11076652 0.035946395 0.1110628 -0.061605036 0.01790296 0.10847489 -0.1387671 0.03602912 -0.07753415 0.11614648 -0.10346611 -0.06052775 0.06437392 -0.02188053 -0.026580274 -0.12980431 0.10995923 -0.08710703 0.056281775 0.103668965 -0.04671285 0.007767247 0.02287135 0.055530906 0.06791262 0.012565645 0.012038217 -0.10471905 -0.02554963 -0.058816712 0.012378408 -0.049695417 0.22895844 0.1746486 -0.00071995176 -0.081071846 0.21907586 0.01684943 0.06778464 -0.10136323 -0.054589335 -0.08605272 0.07332719 -0.11648131 0.056581628 0.18241328 -0.0744212 0.027430145 0.07169417 -0.23230222 -0.07732173 -0.18020597 -0.033771183 -0.13844797 0.16132423 0.08642023
337 -0.15462258 -0.19135663 -0.010337182 0.07860222 -0.06063701 0.18629347 -0.01865345 -0.06930441 -0.075336754 -0.09678865 -0.12808311 -0.07537651 0.094990544 -0.10197033 0.003350873 -0.02776124 0.064930834 0.045049477 0.041267093 0.056158245 -0.039623164 -0.25081733 0.092876896 0.09345387 -0.12360403 0.10097386 -0.11516791 -0.1453756 0.066112325 0.04948799 -0.005554102 0.002113623 0.07883478 0.1387193 -0.04540413 0.060784053 -0.0025304093 -0.13582896 0.2046117 0.25770655 0.14382106 -0.07950263 0.22170177 -0.09430644 0.22875337 0.13441633 -0.030166402 -0.030273106 -0.25924948 -0.13977909 -0.060494386 -0.1564368 -0.16868147 -0.21834068 0.060212154 -0.026482813 -0.014780971 0.049672186 -0.10533423 0.0841148 -0.02311275 0.051859826 0.12157494 -0.042207886 0.18464617 -0.038371928 0.058079537 0.01074705 0.09656031 0.027623646 0.08605464 0.05469169 0.030697051 0.015405774 0.017513342 -0.051315527 0.052783124 0.027029848 -0.25461105 0.07158737 -0.014246672 0.14083788 -0.08332688 0.023413468 0.13388388 -0.030804511 0.036358513 -0.12000808 0.12942411 -0.09215473 -0.044582825 -0.011099183 -0.061086535 -0.045585737 -0.12373252 -0.025541967 -0.08235977 -0.0043289335 0.117106214 -0.13826275 0.0010016783 -0.16323528 0.009818164 -0.066687725 0.20243613 0.07389987 0.03852862 0.02162365 0.014593163 0.06932449 0.054148044 -0.15616578 -0.009940973 -0.12278209 -0.083213836 0.026683377 0.10154989 0.017734872 -0.057344902 -0.09649392 0.23065804 -0.22769666 0.04733343 -0.16341445 -0.09603496 0.09446372 0.18670036 0.20794773
477 -0.08955048 0.047905773 -0.08575679 -0.1946344 0.016702622 0.08148372 0.09197207 -0.01640137 -0.3890395 0.04533496 0.047754675 -0.18930075 -0.21818705 0.04659293 -0.32901955 -0.02601068 -0.3354319 0.12118263 -0.05500086 -0.07384111 -0.03758818 -0.081165195 -0.34383944 0.007472068 -0.24654715 -0.073425114 0.0015950863 0.49275997 -0.15178786 0.1992678 -0.11380484 -0.18383226 -0.10754524 -0.28082117 -0.003920002 -0.3040301 0.44629395 -0.15108244 0.13569501 0.08711963 -0.06496315 -0.11600357 0.08507227 0.03496662 0.22709693 0.008098504 -0.06566752 0.15768152 0.08810822 -0.095617145 0.16588473 -0.141891 -0.0071172793 -0.14597355 0.05858046 0.019746894 -0.17047459 -0.045504592 0.022865793 0.07984145 -0.053096052 -0.04933827 0.27412322 0.30754185 0.09402534 0.11631869 -0.052525174 -0.06361362 0.12604 0.21189573 -0.08804162 -0.15650696 -0.3695783 0.059663467 0.16237856 -0.19636394 0.009913592 0.015681796 -0.15434366 -0.26242894 0.016440235 0.037469897 0.06163208 0.0139375795 -0.27059555 -0.2845174 -0.018291323 -0.01236763 -0.008262272 -0.02338583 -0.19251016 -0.04859319 0.11320943 0.00010235704 -0.10789268 0.25533444 -0.10498503 0.09071753 -0.005043892 -0.2868939 0.07119977 0.07816609 0.30814296 -0.14053589 0.41010454 0.13450387 -0.10956419 -0.11929239 0.11026233 0.19505231 -0.18528451 -0.19771422 -0.022529572 -0.032004472 0.11951664 -0.0064619435 -0.024507774 -0.11793709 0.01475566 0.020180712 0.30483672 -0.1282541 0.0962578 -0.08328794 -0.23741287 -0.36406505 0.11710778 0.305857
56 0.04296767 -0.19647239 0.04601602 -0.079047315 -0.039466854 0.10022227 -0.06765416 -0.088422075 0.06525101 0.031003552 -0.050885588 -0.20970006 -0.036636703 -0.09876678 0.07695172 0.080862515 -0.029213967 -0.21234268 -0.07993855 0.027789166 -0.04563961 -0.092898495 0.031735476 0.078563415 -0.12785807 0.094883494 -0.09199695 0.000911145 0.029371265 0.00047982496 -0.07202823 0.10721896 -0.012229951 0.19213565 -0.09445894 -0.15299426 0.021066237 0.2533088 0.17328964 0.13332704 -0.0030476556 -0.14502145 0.055720404 0.026396427 0.19463682 0.01700704 -0.004712739 -0.015928151 -0.15037787 -0.108857684 -0.08101636 -0.13434455 -0.010011588 -0.055123437 -0.014358147 -0.08322914 -0.113692485 0.08655867 -0.09543868 -0.094280936 -0.024940927 0.034264047 -0.13148232 -0.27388018 0.09129547 0.030806143 0.13954194 -0.03706986 -0.04105009 0.07544271 0.14283265 -0.08122181 0.05855685 -0.01880337 0.09959784 -0.027644834 0.009231172 0.1136732 -0.05654449 0.028844235 0.101007976 0.26382294 -0.054691155 -0.009523654 -0.09951916 -0.1383428 0.032652717 -0.017168818 0.16914405 -0.01443922 0.038304698 0.031196339 -0.021907141 -0.17626528 -0.1518505 0.019655813 0.17159459 0.08750614 0.030154832 -0.027057549 -0.035134062 -0.22997668 -0.022844296 -0.055619087 0.21770677 -0.01791129 0.030018216 0.027976442 0.01065493 -0.08009912 0.076641545 -0.10684012 -0.17144644 -0.12988947 0.10213522 -0.060538508 0.14207321 0.16782029 0.06620334 -0.09127261 0.06171822 -0.37441534 -0.13094915 -0.12680711 -0.16636333 -0.1214475 0.3708074 0.20105949
209 -0.06963438 -0.07321706 0.007035035 0.025744716 0.061558265 0.111767955 0.025215717 -0.05670779 -0.022784632 -0.15809841 -0.036417365 0.0465475 -0.05660321 -0.16998059 0.031217154 -0.020744488 -0.00869105 -0.11090325 -0.114943765 -0.011146857 -0.12574081 -0.18345551 0.065289654 -0.08206403 -0.13996473 -0.014563655 -0.03795135 0.21164614 -0.013488015 0.04388899 0.075116076 -0.1619132 -0.11094815 -0.10268206 -0.10900527 -0.22854935 -0.10918701 -0.032770712 0.025033826 0.11677116 0.105355434 -0.25838214 0.07454352 0.08428299 0.058962733 0.28540877 0.11812115 -0.015307002 -0.20652002 -0.053143267 -0.07721509 -0.072803535 0.044793315 -0.09239362 0.04621754 -0.17937355 0.014852372 0.08225784 -0.056541268 -0.1065262 0.06421344 0.16255632 -0.039005823 -0.028943643 0.03344742 0.04657798 0.044637635 -0.11800778 0.19772896 0.15798736 0.002319872 -0.026949123 -0.059831332 0.010935863 0.15228608 -0.11050267 -0.021402193 0.1692052 -0.14277966 -0.14861736 0.25093487 0.12418919 -0.08566374 -0.061718307 0.03063572 -0.0386377 -0.085510865 0.028992197 -0.21546878 -0.079002485 -0.005289762 -0.033067416 0.042482488 -0.046927836 -0.06693455 0.09807744 -0.046454217 0.016675496 -0.006103619 -0.12764941 0.057834167 -0.042554505 0.1567247 -0.13903376 0.25736448 0.07664688 -0.09316045 -0.07159136 0.1928862 -0.04353761 -0.08713815 -0.026288707 -0.08996276 -0.015479516 -0.06390764 0.10324347 0.11227373 0.111961804 0.045633163 -0.03234537 0.14217967 -0.35692602 0.09421621 -0.08696361 -0.05043591 -0.019243225 0.20379174 0.14296296
120 -0.05119982 -0.15876076 -0.04222774 0.07133502 0.1069943 0.045151394 0.13188966 -0.034894966 -0.018448679 0.029754512 -0.041694473 -0.058257174 -0.03552623 -0.10005176 -0.012473259 -0.07179234 0.037636895 -0.047770474 -0.099023215 0.0701761 -0.15336236 -0.32792208 0.038240463 -0.102202296 -0.05888427 0.01264106 -0.018814994 -0.09702259 -0.015881315 -0.029444046 0.013129339 -0.008911477 -0.0059700417 0.080699645 0.0144756455 0.005783156 -0.03873914 0.02651834 0.01605938 0.24084674 -0.044132344 -0.09268085 0.17554493 -0.07810447 0.1246221 0.13438232 -0.028064076 -0.005175247 -0.18205065 -0.022221785 -0.10365949 -0.15880762 -0.16787848 -0.06894581 -0.043123666 -0.08775597 0.07580916 0.10164309 -0.11049131 0.027216027 -0.014644694 0.067827925 -0.052560147 -0.023439147 0.06396545 0.02000881 0.025109962 -0.07599212 0.06983545 -0.026849099 0.17712294 -0.0059872023 0.04549725 0.053203873 0.09711592 -0.021216989 0.08842277 0.0468509 -0.18120852 0.037896868 -0.120816514 0.119359896 -0.06510043 0.044035625 0.12503536 -0.01467707 0.03312069 -0.08724588 0.17928545 -0.08802706 -0.05155148 0.0990371 0.018252706 -0.012897035 0.026320241 0.113946 -0.0210414 0.08118546 0.10034765 -0.1439348 0.0146573605 -0.06713014 0.085577704 -0.0850214 0.25018767 0.040207174 -0.00088196254 -0.059709486 0.23079303 -0.033242248 0.07662896 -0.07375789 0.010152016 0.03231362 -0.091402024 0.031118473 0.009817809 0.12014746 -0.13732629 -0.012257305 0.055505194 -0.2850941 -0.035874385 -0.21644615 -0.038499504 -0.119894564 0.2054687 0.05851371
211 -0.19238704 0.036805358 0.028485447 -0.28035876 -0.18545724 0.033012185 -0.033796076 0.16326584 -0.0077511547 0.088036366 -0.08298598 0.06547401 0.035562064 -0.14317162 -0.023520261 0.054684166 -0.033316378 0.11828701 -0.12555005 0.009153686 -0.12327815 -0.34956527 0.15035321 -0.06136802 -0.3278457 -0.056989845 -0.06573495 0.16803835 0.04633527 0.108112015 -0.108368464 -0.29415125 -0.19185208 -0.15042286 -0.3164281 -0.36108425 -0.11649206 0.06263307 0.09018295 -0.010087275 -0.012976738 0.06949887 0.06353309 -0.053099923 -0.14964901 -0.12092841 -0.041311767 0.019861104 -0.08188466 -0.020871315 -0.08206852 0.24398102 -0.15481664 -0.13522118 0.23688084 -0.15274236 -0.07128278 -0.11190324 -0.23016134 -0.07751249 0.05258048 -0.07766419 0.12222106 0.008821761 0.235222 0.14978182 -0.030428175 -0.20925622 -0.058804132 0.03862261 -0.052930985 -0.20641302 -0.146639 -0.06329149 0.06882769 -0.14951333 -0.0695328 -0.13041694 -0.09904015 0.0308634 0.11136243 0.15656538 -0.15773901 0.128571 0.22524832 -0.36837685 0.13188331 -0.04881306 0.01962596 -0.027930368 -0.08796073 0.18342464 0.0056425543 -0.21756709 -0.14228117 0.23422974 0.038453896 0.21216476 0.03847082 -0.13213433 -0.07122032 -0.0013401882 -0.059499685 -0.11838354 0.109004594 0.055192653 -0.091479674 -0.03881527 0.09074002 0.51643586 -0.105293795 0.089997545 0.02241142 -0.1544634 -0.18014067 0.05775573 0.20529516 0.06978203 -0.021134444 -0.10563267 0.14344159 -0.20518051 0.121077105 -0.24413326 -0.09358023 0.05710618 0.27493256 0.2385065
45 0.01670202 -0.0945011 -0.09192755 0.02200095 -0.079894505 0.07375729 0.080702364 -0.020117411 -0.07969279 0.095095694 -0.060377445 -0.042487595 0.016035397 -0.11244716 0.022357095 -0.06919441 0.022780387 -0.07023077 -0.15112635 0.13654338 -0.027716022 -0.23073842 -0.068002775 -0.16085091 -0.10028053 -0.07137828 -0.06096585 -0.1163403 -0.009322069 -0.046234637 -0.031230893 -0.007563055 -0.03034841 0.14295824 -0.09018275 0.046221476 0.047131103 -0.098765835 0.12864617 0.25540495 0.107379004 -0.11017066 0.2101415 -0.078274585 0.07267896 0.099954315 0.04822954 -0.016947383 -0.24273443 -0.094477706 0.053379785 -0.10038628 0.004554929 0.07743928 0.04464699 -0.075703226 -0.083734445 0.048581902 -0.0384911 0.022229796 0.09976087 0.087326884 -0.06653121 -0.014133734 0.057366837 -0.03736222 0.09124295 -0.16266127 0.054826185 0.077121 0.08053919 0.052045774 0.081356585 -0.061372202 0.06627285 -0.12883198 0.10192151 0.06640259 -0.1504917 0.026602287 -0.0086955065 0.18783724 -0.1529059 -0.05142184 0.047042366 -0.08451039 0.048288655 -0.020644033 0.05661819 -0.11431082 -0.06242649 0.016248489 -0.079204835 0.03975892 0.022634003 0.066383176 -0.008801691 0.023311034 0.09615229 -0.15424195 0.010338166 -0.124488235 0.07413497 0.023481807 0.33561248 0.08309379 -0.0035964628 -0.054627508 0.21935269 -0.055758655 0.00052007235 -0.06478847 -0.12388229 -0.058967352 -0.11422627 -0.05750041 0.070019424 0.16924733 -0.12969175 -0.02179541 0.13070028 -0.2424238 -0.08788975 -0.07991251 0.02505248 -0.093040936 0.21962568 0.05954596
202 -0.13743056 -0.1193508 0.12498329 -0.09334351 0.04057347 -0.046572395 0.14433974 0.07418714 -0.18336353 0.078629315 0.08805361 0.054311644 0.03921823 -0.20505376 0.032328498 -0.18517771 -0.008037626 -0.13504103 -0.09388023 0.2200719 -0.1880634 -0.049864504 0.016621733 -0.010531376 0.03467348 0.05626728 0.07806521 -0.050705854 -0.09237948 -0.018784713 0.08608755 -0.13601165 -0.10945291 0.06262554 0.0569199 -0.09812817 0.07184577 -0.009909354 -0.07655362 0.23085277 0.08335435 -0.15519464 0.013535984 -0.09871278 0.13915713 0.14708051 -0.15930554 -0.040690754 -0.2974345 -0.06942032 0.0024546075 -0.24800426 -0.045345433 0.00929374 0.014537753 -0.023643825 -0.055627115 0.011235159 0.07153813 -0.00035954308 0.0352161 0.034189995 -0.14438182 0.024305688 0.10481012 -0.16295102 -0.025293075 -0.24701594 -0.00050103007 -0.05701548 0.07522669 -0.06592595 0.07399872 -0.020136964 0.17386842 0.04694638 0.02552536 0.04000564 -0.1378443 -0.024553014 -0.0743757 0.11817585 -0.023505356 -0.0037129363 0.14304392 -0.20322165 -0.080373295 -0.018912992 -0.061605386 0.037973337 0.08570277 -0.03240513 0.03835724 -0.1628013 0.06310945 0.07480063 0.09111457 0.085885376 -0.02570377 -0.10692797 0.02160173 -0.17014955 0.052327976 0.07470225 0.25394604 0.10829869 0.04682531 -0.011851741 0.2031875 0.089025185 -0.03719409 -0.08036015 -0.08627508 -0.019015698 -0.0028620986 -0.032558657 0.14525925 0.063141346 -0.05135197 -0.044293053 0.14607172 -0.29600817 0.08285086 -0.1476051 0.13841209 -0.1448453 0.33862153 0.048912708
323 -0.1336723 0.08397638 0.018791514 0.103192836 0.08764149 -0.066078484 -0.1218885 0.1865222 -0.01993177 -0.061132584 -0.02185414 -0.19188516 -0.052763127 -0.14579494 0.3062629 -0.11739325 -0.01359701 -0.17113239 -0.09288791 -0.22567488 -0.10907905 -0.23860838 0.14541781 -0.024987442 -0.088276826 0.1421411 -0.14532422 -0.11165118 -0.053039085 -0.20463187 -0.07249163 -0.1754328 -0.13748293 -0.025902199 -0.20783488 4.3202297e-05 0.044167396 0.0964245 0.0005741526 0.17210919 0.08493314 -0.07522519 0.0685801 -0.20939173 -0.019295014 0.12668782 -0.019761328 -0.020337252 -0.23195744 -0.12057078 -0.06479545 -0.06782708 -0.09452704 0.01709677 0.20804243 0.03276066 0.09217749 0.029901333 -0.28829002 0.1894627 -0.108017646 0.13688076 0.069714636 -0.045074284 -0.005588242 -0.20165345 0.017225012 -0.28394204 0.14820533 -0.19537725 -0.07245426 -0.05273359 0.09922648 -0.09102829 0.12334927 -0.22012 -0.01541489 0.10113854 -0.04780735 -0.04993325 0.044790808 -0.10285246 0.037934143 0.17943934 0.019014567 -0.041259304 0.06690484 -0.06366088 0.10548526 0.011820775 -0.0020748214 0.05665751 0.07746978 -0.085430965 -0.28601673 0.10467018 -0.027016472 0.17066023 -0.07737194 -0.13953285 -0.06738303 -0.18277566 -0.013689548 -0.021612296 0.20810443 0.3139167 0.07209521 0.039934848 0.024249382 0.05116927 -0.06846661 0.0009761848 -0.06266529 -0.053907264 0.049544208 0.029703861 0.13346401 0.009229856 -0.20366722 0.0335097 0.09917528 -0.19172566 -0.0964296 -0.08829891 -0.121298954 -0.09085687 0.31646267 -0.066483565
468 -0.03272205 -0.13986126 -0.13089406 0.08703064 0.03587515 0.03667509 0.10865207 0.056600403 -0.08359571 0.08369019 -0.0025844972 -0.004505825 -0.062331457 -0.118127145 -0.04356631 -0.0043953224 0.06557334 -0.0703136 -0.12964012 -0.010249135 -0.15413988 -0.15157531 -0.024177933 0.011352941 -0.020080809 -0.007858618 0.022061592 -0.1745671 -0.11279187 -0.054490235 -0.056743056 -0.07921052 -0.09100047 0.097038314 -0.03155136 -0.1575494 -0.014850754 -0.060714252 -0.030785639 0.2136551 -0.01570115 -0.091408215 0.07140491 -0.21055776 0.10077897 0.11226993 0.01333184 0.03172755 -0.22146426 -0.15951973 -0.053587317 -0.14544097 0.027110277 -0.00036406115 -0.0017857898 -0.14878777 0.17134978 -0.055915248 -0.13719012 -0.07198229 -0.013632757 0.04500892 -0.036211357 -0.052340236 0.039906625 -0.07709547 0.08876843 -0.14786315 0.08985994 0.009806892 -0.011938561 0.021587487 0.0118497005 0.045167316 0.11784483 0.012821548 0.018843511 -0.008250915 -0.20148048 0.012250595 0.022358831 0.15960635 -0.12202967 -0.06645287 0.12722786 -0.02165432 -0.03395777 -0.09733732 0.062348925 -0.1423457 -0.08009347 -0.023658307 -0.020205902 0.045675643 -0.12704435 0.058048178 0.077378176 0.08141775 0.003945289 -0.08005429 -0.009312441 -0.17163134 0.022931421 -0.03906865 0.26023635 0.081075065 -0.01965174 -0.023975145 0.13460058 -0.1359668 0.06561785 -0.14457841 0.016698383 -0.0464258 -0.02278884 -0.010398212 0.06847127 0.02274738 -0.122086 -0.12517028 0.14696886 -0.19883706 0.022375539 -0.14882559 -0.025088698 -0.10420501 0.26059356 0.07329485
430 0.022052942 -0.18682125 -0.024542777 0.1279969 0.12830646 0.00080584065 0.07593506 0.035882115 0.005579409 0.04399875 -0.036432516 -0.085185856 0.013298999 -0.19374439 0.050591916 -0.0177279 0.0097786 -0.014686721 -0.040165037 0.06223269 -0.16186854 -0.19302396 0.0016660565 -0.036892693 -0.10071346 0.015249076 -0.08159377 -0.09367586 -0.029972168 -0.033729345 -0.11028455 -0.13012369 0.024963781 0.038407613 7.524273e-05 -0.07001675 -0.0026678864 0.006850928 0.06098431 0.18678859 0.17246242 -0.06990819 0.08314192 -0.014394009 0.08651678 0.12453027 -0.029040774 -0.075644165 -0.18474017 -0.1742263 -0.10808912 -0.13975541 -0.10894057 -0.06643592 -0.021489104 -0.04466269 0.10243767 0.022458108 -0.1082182 -0.008986524 -0.011532053 0.06414443 -0.0052394844 -0.059026256 0.062097374 -0.035856564 -0.041500714 -0.15965322 0.15822074 0.039584145 0.07186435 0.0034034117 0.077114254 -0.033526797 0.18953224 -0.07846517 -0.023115689 0.061482746 -0.03533783 -0.031691115 0.06370717 0.098722 -0.136439 -0.040197 0.054012377 -0.07556595 0.029728282 -0.14658745 0.09496253 -0.123767115 -0.14990237 -0.04017305 0.026832117 0.031019872 0.05128293 0.062118128 -0.011797513 0.04849507 0.0036948211 -0.14165498 0.018628556 -0.094519764 0.06846563 -0.029041722 0.2700398 0.09279998 0.015817862 -0.09624671 0.08570034 0.019705646 0.109282464 -0.14522931 0.087515384 -0.13802163 -0.05382824 0.07238436 0.063192755 0.20440032 -0.032654356 -0.07875422 0.12037201 -0.24740782 -0.042667795 -0.11954539 -0.015578952 -0.11414044 0.21610269 0.17950892
279 -0.08078489 -0.08206441 -0.10493763 0.06872574 0.03519861 0.12997994 0.014787676 -0.044685464 -0.039043836 -0.027279032 0.04704483 -0.103864975 0.0008565169 -0.24170958 0.020138903 -0.08422789 0.006159483 -0.15493892 -0.118463285 0.16116163 -0.18153813 -0.14133887 0.0055935853 -0.06421745 -0.04606475 0.027542451 -0.045290645 -0.025932582 -0.08996839 -0.0973642 -0.074450046 -0.07042358 -0.08294157 0.017111728 -0.066873565 -0.026911834 -0.09824321 0.110100694 0.022915408 0.1577321 0.026938826 -0.11685637 0.048880562 -0.016066726 0.06777019 0.09756624 -0.07479105 0.04118209 -0.25319135 -0.15518917 -0.07706543 -0.15180698 -0.008073223 -0.10903173 0.07231135 -0.10397151 0.085915476 -0.0052010813 -0.063577764 -0.06363573 -0.03416306 0.043233544 -0.085211016 -0.0317542 0.08885031 -0.048090786 0.05921572 -0.21637009 0.065633066 0.13630703 -0.029293925 -0.06893066 0.14511289 0.013397693 0.14060508 -0.10592961 0.019295625 -0.022023547 -0.16024527 0.08026861 -0.07061674 0.17491692 -0.14752235 0.010272792 0.0046005985 -0.03344724 0.06912904 -0.07117426 0.024020275 -0.11070111 0.01686381 0.0105702365 0.022872705 0.039153952 0.06074192 2.3947293e-06 0.04891258 0.10411536 0.037111938 -0.24169397 0.07560148 -0.16877271 0.03261585 -0.13332069 0.30688763 0.07404912 -0.024113819 -0.07981566 0.14884323 0.07925784 0.060578253 -0.10222901 0.021251246 -0.013674933 0.00295124 -0.008924666 0.11709484 0.22923188 -0.13247533 -0.042767864 0.122885786 -0.23796235 0.038889375 -0.089516856 0.040642496 -0.098706245 0.12708959 0.0758138
299 -0.16393407 -0.09834789 0.028532455 0.13322335 -0.036830675 0.097687796 -0.047681488 -0.059111115 -0.0677466 -0.022255896 -0.032496743 -0.062496275 -0.0019845092 -0.205288 0.0069874953 -0.17059891 0.09960013 -0.0070053553 -0.006646489 0.09560411 -0.06778364 -0.18719725 -0.007924875 0.03172428 -0.049821902 -0.06602256 -0.015864389 -0.10765939 0.015518872 -0.0316705 -0.024398763 0.02837682 -0.033169035 0.064041786 -0.15673529 -0.0459649 -0.01672318 -0.04781446 0.062150005 0.21879399 0.118281506 -0.05034238 0.061183985 -0.06562802 0.08443777 0.034008175 -0.10610608 -0.059788007 -0.22650336 -0.038973216 0.06250829 -0.16639385 -0.1080757 -0.0012767337 0.014407832 -0.054948278 0.096421875 0.034063064 -0.122279555 0.03916671 0.019368136 0.09321801 2.9658633e-05 -0.03662893 0.15616632 -0.07775551 0.07807676 -0.16648422 -0.0141413305 0.053193603 0.14001663 -0.025414167 0.10181301 0.02315852 0.15145896 -0.08734227 0.007193481 -0.028935816 -0.15722065 0.037560232 -0.08848329 0.0887527 -0.10696139 -0.15600789 0.083175786 -0.15975894 -0.013373955 -0.073475145 0.12562785 -0.23332019 -0.0022092178 0.002279154 0.031083204 -0.008924096 0.08776671 0.06419714 -0.007301109 0.016600411 0.057544038 -0.04544725 0.014767849 -0.1567431 0.0007705906 -0.053654585 0.2507032 -0.046588454 -0.04113882 -0.06553001 0.230548 0.08628055 0.09101876 -0.11338168 0.0405613 -0.027692372 -0.005025776 -0.008380626 0.022814836 0.08631417 -0.18160652 -0.06626224 0.1284117 -0.26389778 0.033922344 -0.21733195 -0.020476704 -0.16969237 0.1895679 0.0717446
373 -0.00081125967 -0.07599639 -0.019525878 -0.009429352 0.055306617 0.06078767 -0.0023830803 -0.08196393 -0.0978301 -0.009534303 -0.07173809 -0.055017404 -0.3427305 -0.07465622 -0.12048893 -0.080474235 -0.0712186 0.017389338 -0.15295912 0.020558344 -0.10935361 -0.22368252 0.014283979 0.019658634 -0.094728746 0.0589892 -0.03012299 0.028518474 0.040605202 -0.00019297237 0.03173844 -0.067463994 0.18765287 0.058364227 -0.05884799 -0.11118378 0.020714123 0.019110871 0.038211346 0.122445874 0.0734097 -0.15762144 0.15639004 -0.093308054 0.15750413 0.119639955 -0.08042352 0.063312836 -0.16868849 0.00753629 -0.13678919 -0.20499149 -0.11327596 -0.03931125 -0.11204656 -0.19119097 0.040260408 0.11222883 -0.09092727 -0.11461989 -0.0129923895 0.17866544 -0.004412807 -0.107525304 0.06817553 0.08373169 -0.110115334 -0.17993611 0.10031405 0.052703142 0.054130424 0.048678346 0.0255171 0.06035417 0.06558989 -0.115875185 0.17776954 0.08548759 -0.2264841 0.04249251 0.061167546 0.17307025 -0.07787428 0.05383792 -0.033730607 -0.09910879 0.060484536 0.037274223 0.07714647 -0.124659754 0.059457377 0.061940085 -0.16241612 -0.16157994 -0.023098465 -0.12926447 0.06554663 -0.14030023 -0.027483357 -0.06924276 -0.048042513 -0.18108201 0.0724279 -0.105815716 0.20482583 0.10975503 -0.12699446 -0.10490312 0.20044045 -0.05224924 0.14903784 -0.05878109 -0.10206832 -0.20584476 -0.035055496 0.11569064 0.017930971 0.11402953 -0.13693564 0.006424215 0.008282434 -0.1913381 -0.10320791 -0.1911066 -0.15018064 -0.16126922 0.16970244 -0.020017153
343 -0.01704688 -0.11069938 0.025440577 0.019329347 -0.0017763983 0.07967756 -0.08032958 -0.043864403 -0.08080284 0.033099156 0.005490681 -0.043098614 0.019057041 -0.15787467 0.13121781 -0.060921248 -0.027063284 -0.05749939 -0.06988805 0.051085085 -0.10254689 -0.16810007 0.03495036 0.035573773 -0.10937573 0.0023204505 -0.052534882 -0.057409864 -0.0054868013 -0.1049232 -0.009076191 -0.046071105 -0.0014832751 0.038344603 -0.020925172 -0.043477286 -0.037189804 -0.02449692 -0.011727523 0.18549265 0.08319938 -0.06328749 0.15050311 0.009102594 0.051930755 0.16200706 -0.016536646 0.049236096 -0.1848543 -0.12677574 -0.0681272 -0.11060696 -0.07157108 0.055780683 -0.08589545 -0.07549036 0.125444 0.0903536 -0.18485759 -0.028217575 0.119283654 0.07628348 0.021839721 -0.118033364 0.020580593 -0.04893398 0.06837921 -0.12348641 0.073725425 -0.011644558 0.04233265 -0.09844672 0.057208896 -0.024306683 0.12901498 -0.07740996 -0.0041516037 -0.009472223 -0.18370952 -0.03569741 -0.04751388 0.14631987 -0.099480696 -0.06754549 0.029158019 -0.15753415 -0.017506963 0.012561629 0.13803689 -0.17561565 0.0033119093 -0.053948775 0.02335836 -0.06414438 0.005491963 0.029336067 0.06934963 -0.02585167 0.05547651 -0.10857875 0.036568876 -0.13412747 0.0561335 -0.009144571 0.24995795 0.08807492 0.00855847 0.03458553 0.15292446 -0.010060704 0.014811512 0.061401404 -0.035239287 -0.06949842 -0.039168783 -0.017373096 0.10134546 0.23744921 -0.079568565 -0.0042070425 0.07167462 -0.283055 0.029233979 -0.16693197 -0.004446566 -0.08871724 0.22833358 0.055195007
127 -0.046531927 -0.22445348 -0.03370709 0.023999998 0.012415014 0.092010655 0.06625758 -0.05902232 -0.07103648 -0.02762212 0.018630099 -0.035958394 0.00031603524 -0.2495998 -0.031708 -0.09937472 0.015235141 -0.09063566 -0.13990913 0.033203427 -0.11087184 -0.1833456 0.024914581 0.020747788 0.0016908338 0.13769034 -0.11568691 -0.10454583 -0.014988884 -0.08060594 -0.06352119 0.008741433 -0.024860358 0.1014813 -0.026489362 -0.14975597 -0.060938388 -0.112517856 0.04518621 0.22282639 0.0766096 -0.13231407 0.07714527 0.07549878 0.1027451 0.07033831 0.074367255 0.038491182 -0.1893553 -0.08306707 -0.032444663 -0.10810044 -0.08774085 0.034287833 -0.0031610061 -0.12431035 0.01818005 0.031549506 -0.10753119 -0.12314703 0.07764089 0.05771443 0.07978305 -0.011459455 0.021356726 -0.09759032 0.09984891 -0.08903324 0.11536943 0.043199994 0.07837343 -0.08873149 0.024908792 -0.08855439 0.21464176 -0.011378369 0.02837965 -0.049576618 -0.21817581 0.0352339 0.028303541 0.12929568 -0.07401955 -0.042045843 0.01520886 -0.066324815 0.003027878 -0.1310093 0.045181062 -0.15293226 -0.077825725 0.02409459 0.0018404385 -0.00031567618 -0.041334536 -0.0099425055 0.13027367 0.022470545 0.036283232 -0.117466755 0.04053081 -0.07440804 0.04641468 -0.07579601 0.2221582 0.08425734 0.05170397 0.043473154 0.20403628 -0.023510987 0.061806828 -0.100677714 -0.10845921 -0.059531987 0.10255275 0.009999753 0.03686274 0.13269216 -0.09595161 -0.1093553 0.0471725 -0.19566402 -0.01807707 -0.108349554 -0.12666744 -0.2078562 0.26986855 0.063667856
174 -0.02869301 -0.09830287 0.019057948 -0.02103925 -0.008271108 -0.07665145 0.0113090975 0.006960514 0.17883398 -0.049557887 -0.1462549 -0.07687436 -0.10789224 -0.29812947 -0.13337635 -0.2887112 0.085567854 -0.21508463 -0.12761915 0.087806426 -0.011711159 -0.1682054 0.050872397 0.053058747 -0.1386106 -0.0435456 -0.22203134 -0.08925854 -0.10486351 -0.0055157435 0.055325974 -0.18482669 -0.062384017 0.09632395 -0.1669127 -0.16253302 -0.029357167 0.06740808 -0.0018028219 0.20630072 0.0315054 -0.17026924 0.02864494 -0.031447493 0.08518942 -0.021388894 -0.02077817 -0.090582974 -0.15850882 0.01850209 -0.0721489 -0.22384411 -0.06326936 -0.10705669 0.043785434 -0.042695187 0.056803904 -0.09932536 -0.19248272 0.036242433 0.041034836 0.20791456 0.04166706 0.007906503 0.021006187 0.044211473 0.0015785438 -0.13103321 0.11448338 -0.10834918 -0.014114039 -0.055872735 0.08233552 0.1856365 -0.0071265004 0.15840228 -0.053398315 -0.07785142 -0.028248582 0.04335438 -0.07578271 0.10040715 -0.019322058 0.1982329 0.18446793 -0.15679859 -0.009527841 0.008364143 0.062764496 -0.18042748 -0.054765273 0.36235946 -0.01996786 0.0720124 -0.08731133 -0.020556677 0.0667776 0.01815237 0.09075403 -0.16083044 -0.09258732 -0.101918645 -0.11533559 0.11192341 0.19314122 0.09046054 0.07397821 -0.0061353217 0.08109114 -0.034779735 0.0059806393 -0.13548128 -0.100664556 -0.0015478275 -0.07904094 0.089849934 0.030342814 0.16752052 -0.13725238 -0.07401978 0.2054434 -0.14833853 -0.08051182 -0.13482732 -0.12210707 -0.036740657 0.22602329 0.097806305
106 -0.054218497 -0.15729159 0.029191231 -0.031605605 -0.022532547 0.030212086 0.039694306 -0.041605767 -0.09562289 0.07590487 0.0057026995 -0.10040961 -0.037373155 -0.24097128 -0.013215369 0.08671465 0.04505666 -0.034527205 -0.112883344 0.021267036 -0.18017569 -0.23474218 0.045225233 0.014845298 -0.087345295 0.12562132 -0.011143979 -0.14158024 -0.03393651 0.0032626917 -0.109986864 0.014190724 -0.026888974 0.08859489 -0.095571004 -0.10094334 0.102453515 -0.011028593 0.037945636 0.20757528 0.008432838 -0.1788269 0.07301668 -0.17013077 0.10417922 0.13829878 -0.1421397 0.03218802 -0.23255631 -0.10318036 -0.1289287 -0.16790561 -0.071506605 -0.12108636 0.017344194 -0.03444436 -0.018883318 -0.015678296 -0.09275456 0.052919757 -0.02510248 0.043439224 -0.038737506 0.0153256245 0.07139768 -0.064641245 -0.003263576 -0.18769088 0.04525258 0.073324874 0.1455432 -0.08280322 0.093742065 -0.008123935 0.104349084 -0.10591752 -0.052899253 0.0072994665 -0.15488647 0.09780384 -0.07454034 0.2022927 -0.17112379 -0.077214606 0.10487643 -0.08253188 -0.09308133 -0.008752096 0.036338415 -0.08069157 0.020961694 0.038114842 0.07555993 -0.0906252 0.16095282 0.043679 0.075626284 0.021887127 0.090631165 -0.12996802 -0.026132353 -0.15531428 -0.0119110765 -0.027322408 0.22911963 0.10581216 0.0060033645 -0.018337471 0.08842857 0.020127706 0.11503731 -0.06128701 0.055212077 -0.078845344 0.040324755 -0.050874002 0.076195136 0.14097507 -0.052676987 0.037335332 0.08287648 -0.22744538 -0.046146568 -0.06455835 -0.036983743 -0.11551257 0.23675469 0.16119534
90 0.09620277 -0.1742794 0.0036074927 -0.042459857 0.019544192 0.107208095 0.13335344 -0.09389011 -0.011850538 0.035845384 0.040293295 0.0022380892 0.07248857 -0.13804154 0.016763393 -0.052818917 0.035442445 -0.040187348 -0.017264862 0.035160862 -0.15439914 -0.103102125 0.022051295 -0.11835384 -0.083930604 -0.0074912924 0.04086679 -0.0038158162 -0.051967375 -0.06237187 0.03839485 -0.012266663 -0.048499733 0.026375527 -0.00647764 -0.08330105 0.0081691565 -0.12866154 0.10575916 0.2463546 0.067227386 -0.1586112 0.14712276 -0.07287926 0.093686774 0.12819953 -0.08267934 0.03693426 -0.24590069 -0.085599326 0.024143884 -0.02118115 -0.05095903 -0.08872853 0.021036295 -0.09129654 0.06677533 -0.015657289 -0.11682969 -0.00016904113 0.04745734 0.09471412 -0.047713984 -0.09002462 0.074365735 -0.048481833 0.024576064 -0.18467 0.061391994 0.033097245 0.11761331 -0.04494648 0.07240154 -0.09084989 0.22981179 -0.07654767 -0.07820171 0.08065799 -0.172327 0.06335438 0.032986876 0.121917315 -0.19112748 -0.10004849 0.063976936 -0.1008875 -0.01217493 -0.030331008 0.08681346 -0.14328294 -0.031427424 0.059317816 0.032505926 0.020974182 -0.021245176 -0.013406458 0.09071106 0.029734215 0.003716971 -0.022852354 -0.02083644 -0.18243961 0.1012608 0.049216174 0.29424033 0.17010608 -0.0118681 0.01343893 0.21116784 0.055337965 -0.02402213 -0.029443124 0.110494405 -0.11404365 -0.08412895 -0.081763856 0.051959198 0.1416927 -0.084768385 -0.11390513 0.15341105 -0.16570856 0.08711703 -0.24015263 -0.03510228 -0.11116087 0.2356494 0.081914626
151 -0.0076120156 -0.09743908 0.081160225 0.07591219 0.011971898 0.0066087586 0.1354695 -0.023643194 -0.09835329 0.06344017 0.04042735 -0.09728142 -0.08673906 -0.18346709 -0.005917203 -0.03726776 -0.015605126 -0.06685214 -0.21250446 0.02384644 -0.122977324 -0.2048884 -0.0036772003 -0.16701381 -0.07394313 -0.07210385 0.0064064735 -0.079713486 -0.11138497 -0.027258031 0.02613268 -0.064846106 -0.062691 0.102224864 0.007859308 -0.018126223 -0.01913407 -0.032838788 0.018691037 0.21636237 0.1255903 -0.12465563 0.15557404 -0.018861532 0.027365826 0.063192405 -0.025435705 -0.115007706 -0.3127218 -0.23244172 0.05325685 -0.08064584 0.07042157 -0.012565196 -0.043280773 -0.048094306 -0.049300153 0.08937914 -0.08251535 0.065364175 0.06409286 0.08661264 0.019653957 0.021152956 0.034282736 0.0075942893 -0.0064470107 -0.114172235 0.08989083 0.04844941 0.11801683 -0.15032795 -0.05320114 -0.010201147 0.0767084 -0.085625924 -0.0057395105 -0.012161019 -0.16101444 -0.02360981 -0.09465854 0.09991473 -0.09029525 0.02632056 -0.0086475145 -0.10829923 -0.027995566 -0.034277033 0.18649633 -0.15152505 -0.104428396 0.031109465 0.019450175 0.10389538 0.059466418 0.015841234 0.034726 0.054771427 0.053378448 -0.122235045 0.02756621 -0.09277396 -0.0014114396 0.025275549 0.31973496 0.15453881 -0.061663166 -0.019915728 0.21806085 -0.03334971 0.0948907 -0.06623224 -0.07967263 -0.06158799 -0.015598738 0.070710525 0.058943477 0.19520088 -0.021836102 -0.03051524 0.09775578 -0.22038361 -0.0373569 -0.15641673 -0.12615025 -0.07636748 0.20061311 0.09668966
48 0.008798366 -0.08976006 -0.069719285 0.06490727 0.03654574 0.0018625809 0.08663819 -0.13306656 -0.033550162 0.08002393 0.029829415 -0.11716588 -0.12448089 -0.20010091 0.049207043 -0.12787512 -0.02452682 -0.02250475 -0.14754385 0.024195304 -0.17580256 -0.19516174 -0.01634111 -0.08838955 -0.14054741 -0.031738494 -0.05809633 -0.12775517 -0.09319811 -0.038846552 -0.012051073 -0.13887934 0.014269267 0.04022397 -0.046922553 -0.07658638 -0.051552746 0.041665502 -0.023664998 0.25944012 0.025315508 -0.122579955 0.07710898 -0.020745957 0.07493413 0.11651189 -0.034012735 0.021543901 -0.27033257 -0.10432737 0.01034247 -0.111442655 -0.021044282 -0.010232083 0.01810708 -0.14606659 0.055584524 0.022399208 -0.057469215 0.060131583 0.066663526 -0.013212924 -0.0749329 -0.08531206 0.037858624 -0.014643017 0.05503894 -0.15570898 0.1311799 0.015244356 0.11977907 -0.058939207 0.026406927 -0.038963396 0.04789958 -0.07977367 0.03713184 0.08734189 -0.10376444 -0.01212772 0.0013246572 0.19779375 -0.130888 -0.014514095 0.07458451 -0.07600437 0.09123871 -0.060075626 0.0634517 -0.13063031 -0.03851325 0.053896487 0.009330044 0.03000581 -0.010879884 0.042123567 0.054047335 0.04129911 0.09738455 -0.064679675 0.15762176 -0.07023747 -0.003085448 -0.016510498 0.30633694 0.0030263313 -0.013114299 -0.06724553 0.24141952 -0.082698815 0.06188401 -0.12962544 -0.06800396 -0.05106884 -0.01888731 -0.053119697 0.08737781 0.15789412 -0.19080943 -0.025250709 0.10278936 -0.18855004 -0.043753725 -0.146752 0.0353761 -0.12062945 0.21919285 0.033664238
231 -0.078027695 -0.11972278 0.025278434 0.040217865 0.014160187 0.16243313 -0.00624279 -0.0630071 -0.055064324 0.09708674 -0.06131429 -0.03505533 -0.037221808 -0.17857309 0.004087074 -0.07899288 0.030070946 -0.11188072 -0.13440801 0.11779749 -0.06522245 -0.19219163 0.05750761 0.0063423985 -0.024381181 0.0057726204 -0.04493087 -0.063408755 -0.038151205 -0.08311084 -0.06840604 0.051604792 -0.023024125 0.09568498 -0.07319652 -0.07930034 -0.11365271 -0.052480325 -0.03403947 0.14818895 -0.024198564 -0.1414684 0.11313078 -0.03650844 0.08203101 0.18294075 -0.114896886 -0.006791866 -0.24047548 -0.106070265 -0.0639544 -0.078905754 0.03286559 -0.04907827 -0.07475766 -0.04486856 0.093610935 -0.044478644 -0.14772198 -0.019785212 0.00997099 0.038923323 -0.06690355 0.009564548 -0.0146000795 0.043856956 -0.04410521 -0.053714328 0.106297664 -0.028242514 0.15429312 -0.09153394 0.08717097 0.004310159 0.12590966 -0.012394884 -0.031385183 0.051151212 -0.14452119 -0.0033677348 -0.062429734 0.21978676 -0.0969198 0.08432976 0.03287865 -0.13683833 -0.05729956 -0.083274595 -0.023880994 -0.1316342 -0.025244473 0.1151126 0.032661878 -0.032820977 0.041805178 0.037733987 0.10131269 0.022040578 0.116700925 -0.07044225 -0.027148169 -0.14662136 0.050315056 -0.06856257 0.30911216 0.048196632 0.00049926754 -0.076280184 0.18592227 0.024274155 0.023921102 -0.095030256 0.023135789 0.059987698 0.011636815 -0.029291237 0.023102017 0.2397006 -0.011045951 -0.07123316 0.14698574 -0.3334178 0.035253096 -0.10283327 0.028864136 -0.18104108 0.20153682 0.06346705
282 -0.025643287 -0.103465274 0.016638367 -0.016722053 0.1673402 -0.053784665 0.13256827 -0.10822739 0.053472597 -0.027730709 0.104215115 -0.0567297 0.04016045 -0.07786382 0.12430325 -0.15126303 -0.05833463 -0.050351348 -0.12566976 0.042309932 -0.18009919 -0.2908765 -0.033254787 -0.04622565 -0.017763227 -0.036426134 0.063131966 0.0006949067 -0.035514936 0.003880097 0.058991738 -0.1439611 -0.242474 0.09561678 0.010591113 -0.28990877 0.053830944 0.09927425 -0.0556202 0.14637229 0.11184703 -0.14248297 0.26358446 -0.021485271 0.1368916 -0.015960181 0.07748047 -0.066361375 -0.28227583 -0.071310505 0.101700336 -0.10005881 0.01151671 0.22118382 0.089086406 -0.029691897 0.004666224 -0.117521495 -0.055228025 0.056784317 0.034084488 0.06882226 0.059497427 -0.043043736 0.032645766 -0.13972652 -0.06902991 -0.14973661 0.067397185 0.024646867 0.097499184 -0.0660541 -0.0033295024 -0.18698135 0.08229114 -0.047484618 0.06191225 -0.050297882 -0.10991322 -0.026161445 0.03282039 0.08732096 0.0542089 -0.012168068 0.024401788 -0.30458248 0.010634196 0.03268825 0.22657447 -0.034123074 0.034949888 0.07356912 0.11027497 -0.047139257 -0.028112361 -0.08993609 0.015344983 0.04609738 -0.0095236255 -0.24640372 -0.06500292 -0.16536605 -0.08546501 -0.06220049 0.26384616 0.05145313 -0.037152704 -0.038076814 0.25061944 0.008349611 0.104361996 -0.09149517 -0.0046186657 -0.073070444 0.06669497 -0.12447015 0.030157743 0.09003303 -0.016586019 -0.08826201 0.12260671 -0.1906046 0.042541258 -0.06959503 0.01972958 -0.09045632 0.3137831 0.081595786
353 0.0063119507 -0.103829145 -0.06705055 -0.0048675416 0.013952478 0.1082696 0.10365085 -0.055638757 -0.047928434 0.024191381 -0.010470125 -0.06491125 0.009317551 -0.19285086 -0.0041940394 0.0019260155 0.049927972 -0.062174853 -0.16585092 0.0627188 -0.229829 -0.1660554 -0.0754091 -0.07939297 -0.14480491 -0.059761856 -0.04175996 -0.0017382363 -0.04462518 -0.09623592 -0.017014928 -0.0064304755 -0.0551629 0.03548235 -0.09028329 0.0044201906 -0.036188185 -0.09606068 -0.09372213 0.10419517 -0.10558157 -0.123591945 0.09350305 -0.06412636 0.06449488 0.12837586 -0.07893549 0.009737664 -0.22467928 -0.14659217 -0.031468526 -0.1425334 0.0538101 -0.07960977 0.06006701 -0.11967982 0.011924499 -0.005639226 -0.12627119 -0.049949378 0.014988874 0.06320194 -0.09304878 -0.022673428 0.094193 -0.10132822 0.05511419 -0.16810982 -0.01433002 -0.00050938956 0.06462316 -0.06592719 0.10246311 -0.011008108 0.12097127 -0.067266375 0.054161694 0.1308084 -0.22998467 0.0057573053 -0.030699315 0.18207529 -0.09007991 0.045034315 -0.01926072 -0.124016166 -0.022171006 -0.021818893 0.08875739 -0.06025461 -0.06478873 0.07883859 -0.012903115 -0.02112865 -0.02906305 -0.0044257557 0.051780764 0.08567461 0.10277084 -0.2548293 0.037810706 -0.08315351 0.05332518 -0.012477794 0.22504774 0.048728917 -0.029076446 -0.012093965 0.16899121 -0.009961958 0.09791078 -0.091399066 -0.06598579 -0.063638285 0.027518786 -0.018036995 -0.01783218 0.111178346 -0.034925036 -0.12122546 0.0706247 -0.2935642 -0.10132246 -0.11370731 0.009319219 -0.008278905 0.18843815 0.12501198
54 -0.008876047 -0.08773564 0.14644751 -0.08896064 0.16329384 0.10464134 0.17621751 0.07520268 -0.03653807 0.0026811452 -0.012545458 0.029094713 0.1268926 -0.10061865 -0.02075753 -0.1570696 -0.02445692 0.06991866 -0.059942767 0.21788026 -0.15688108 -0.3023459 -0.09134308 0.042478193 -0.10278719 -0.011175094 0.02629864 -0.13886648 -0.07074289 -0.046104584 0.037352163 -0.058005836 -0.053556822 0.043912698 -0.003647316 -0.07475916 0.033345398 0.041333452 -0.02253735 0.112009436 0.10875453 -0.05535547 0.030108364 -0.18549852 0.13623255 0.1320625 -0.14959072 -0.014387923 -0.25536984 -0.039774094 0.16999073 -0.21512417 -0.054593083 0.12326797 0.116426066 -0.038282223 -0.056284115 0.01470726 0.0004432738 -0.06249134 0.07501603 0.053791802 -0.07224416 -0.12350812 0.07265391 -0.02489605 -0.08555266 -0.13991997 0.11953337 -0.051454727 -0.022145782 0.033469222 0.08931897 0.025394622 0.115634024 -0.121466964 0.019825326 0.061700486 -0.17767586 -0.051192094 -0.0019367709 0.11110273 -0.014869937 0.063440114 0.09274808 -0.08764366 -0.065134734 -0.06607733 0.030761834 -0.077974774 -0.13785215 0.12315931 -0.10980641 -0.14081079 -0.07821471 0.17627412 0.03564587 0.008897765 -0.05603708 -0.053926658 0.039727286 -0.2638314 0.110014856 0.14153993 0.12546189 -0.048024964 0.09869174 -0.1540263 0.08882951 0.030945832 6.895969e-05 -0.05454507 -0.032772686 -0.03032772 0.17446108 0.062311493 0.0030728255 0.11724106 0.04252825 -0.079766326 0.19851734 -0.25476265 -0.033681992 -0.15093592 0.1383473 -0.06444105 0.29831108 0.120424144
115 -0.0069248904 -0.12650694 -0.026312795 0.029969133 -0.004049953 -0.007859237 0.024799261 0.024342762 -0.047101706 0.07288913 0.023346618 -0.09340206 -0.00026710675 -0.043716192 -0.0357268 -0.17818253 0.09192605 -0.06998751 -0.080180116 0.116842985 -0.10860971 -0.18606248 -0.06500285 -0.06968754 -0.079867296 -0.11509977 -0.09163227 -0.10111846 0.03741934 -0.05253456 0.043104146 0.013864947 -0.106506854 0.0770176 -0.018512221 -0.12933508 -0.009161149 0.039475072 0.09475283 0.1135895 -0.027324252 -0.10676241 0.13131098 -0.0597261 0.057727896 0.14051102 -0.062451016 -0.047314566 -0.13084507 -0.14427207 -0.040600553 -0.05383854 -0.037088584 -0.0955385 0.026686607 -0.02400708 0.05779441 0.027726803 -0.19688468 0.006737017 0.052802704 0.13419126 0.013849038 -0.08689439 0.03831236 -0.046241105 0.021073882 -0.12632301 0.013946422 0.085066505 0.17240603 -0.15646794 0.085653655 -0.08751925 0.12918065 -0.046103396 0.074688725 0.018111093 -0.23257485 0.077441454 -0.08845201 0.13145235 -0.15125395 -0.025366016 -0.02665829 -0.04580536 -0.015237063 -0.063646086 0.12605006 -0.11797778 -0.15558141 0.0776283 -0.036680236 0.062126406 0.019053172 0.07812292 0.031490926 0.030426295 0.078723066 -0.06174801 0.031414267 -0.1448585 0.107098706 0.015505904 0.32038698 0.0011092238 0.062361646 -0.06833191 0.32644305 0.032187533 0.07811097 -0.18250687 -0.011322713 -0.14928988 0.008845193 -0.07536162 0.061588652 0.06303527 -0.13849504 -0.042118777 0.12781249 -0.20772752 -0.0065252087 -0.14400283 -0.054000735 -0.08264033 0.19116709 0.092175215
486 0.013237265 -0.15574461 -0.022832029 0.011691856 -0.061552167 -0.024306789 0.0020528855 -0.070147604 -0.03768844 0.016085587 0.007407955 -0.022766115 0.06287999 -0.13468055 0.045089833 -0.10013807 0.04552739 0.033595093 -0.07733386 0.025999881 -0.18116777 -0.20662288 -0.004734556 -0.048224833 -0.071014084 0.008855386 -0.05558843 -0.0969301 0.036064725 -0.09965369 0.015577665 -0.086335085 -0.08136469 0.030365216 -0.05690568 -0.10310193 -0.027602797 0.013202549 0.047351375 0.19756985 0.1130918 -0.08982167 0.17077927 0.0043635797 0.13732715 0.17011267 -0.097109884 -0.013678958 -0.31175548 -0.12206025 0.057694323 -0.11358592 -0.056231685 -0.09474743 -0.061255213 -0.1724124 0.043016165 0.031246485 -0.16087514 -0.05295866 0.049875755 0.15539517 -0.049575835 -0.009652974 0.09212289 -0.066572785 -0.06951762 -0.15751965 0.04694229 0.033319928 0.027251983 -0.09029766 0.07279156 -0.100995116 0.08551144 -0.04375828 -0.057342734 -0.040316753 -0.11961195 0.03407123 0.016847469 0.17386466 -0.17068835 0.023198046 0.06614644 -0.13367163 -0.012900069 0.052635763 0.08860353 -0.13776349 0.006380386 0.10817096 -0.11379163 -0.07395147 -0.0023642662 0.09628689 0.111170165 0.019110804 -0.06922269 -0.04186065 0.0043827905 -0.026899526 0.13875113 0.010905037 0.21391399 0.05930079 -0.05152751 -0.072392724 0.17445523 -0.04524538 0.124773666 -0.022983603 -0.027519368 -0.015541146 -0.09240597 -0.05633078 0.10547408 0.115112886 -0.062401094 -0.0373875 0.1410905 -0.25432858 -0.053026177 -0.088534795 0.089245446 -0.19860452 0.27531263 0.0828307
35 0.006278044 -0.14864273 -0.00018764325 0.030840067 0.060567215 0.09297685 0.08452488 -0.07213464 0.02238821 0.006626656 -0.0866372 -0.009272692 0.08567515 -0.16558856 0.02085524 -0.14583994 0.040639877 0.005737322 -0.08772273 0.1308577 -0.0623541 -0.18849108 -0.012398551 0.026848387 -0.01986678 0.07782848 -0.02157439 -0.117122866 -0.08584648 -0.09173472 -0.09239646 -0.06271617 -0.034308404 -0.007847377 -0.06537897 -0.090347536 0.015553307 -0.11525878 -0.061930872 0.24634819 0.11667566 -0.13797788 0.088795595 -0.03215991 0.15276323 0.07721325 -0.05241772 -0.14247757 -0.22000188 -0.100988664 0.015813334 -0.13786496 -0.058057573 -0.0260381 0.045193035 -0.058241293 -0.13842908 0.13653524 -0.1517412 -0.040878773 0.06070462 0.032803196 0.0076943142 -0.04715366 -0.01822178 0.029342728 0.02284996 -0.12879503 0.034745473 0.0075542745 0.16158518 -0.19471885 -0.020365488 -0.06171145 0.23707004 0.034331802 -0.028043242 0.005353552 -0.15571155 0.01345701 -0.108387366 0.1308682 -0.06260428 0.112263225 -0.00024163742 -0.056402493 -0.024739303 -0.15941012 0.23805127 -0.17950885 -0.023340374 0.04359749 0.004285152 -0.029366516 -0.025797673 0.067410804 0.033420518 -0.009429863 0.013957905 -0.07958612 -0.039374184 -0.19344929 0.033966936 0.017166357 0.29183704 0.051545896 0.043578897 -0.08608624 0.16442406 -0.030713119 0.07280097 -0.13597739 -0.045116957 0.05617833 -0.009964842 -0.09805285 0.06694049 0.18040553 -0.12595025 -0.013581519 0.117253765 -0.1301269 -0.009654293 -0.10530261 -0.11273314 -0.2622262 0.23873085 0.118994616
186 -0.03983106 -0.13933715 0.042381898 0.048578706 0.021287069 0.041547723 -0.0070552463 -0.01206834 -0.04442453 0.012450318 0.036374945 -0.03969911 -0.12875858 -0.2288367 -0.03044097 -0.124228165 0.058650505 0.039267328 -0.0389191 0.14553449 -0.14035599 -0.164475 0.0149344355 -0.08808986 -0.10319956 0.026811628 -0.14019425 -0.07452528 0.053507768 -0.0171194 0.08103763 -0.017719172 0.01170016 0.0929367 -0.089056395 -0.11213828 -0.010584486 -0.071375534 -0.082357325 0.1784868 0.103769615 -0.14397791 0.10427784 -0.042083014 0.1257906 0.032991674 -0.051460505 -0.07552771 -0.14780657 -0.025203045 -0.031984143 -0.110855944 -0.089937896 0.00063818565 -0.053701244 -0.17022878 0.0043228325 0.016437966 -0.09014847 -0.0021748238 0.039028395 0.08734868 0.017134722 -0.110961184 -0.08059754 0.076574184 0.039750792 -0.099792786 0.122165374 0.0817867 0.043649234 -0.062999606 0.00897542 0.0014576232 0.17812127 0.012429054 0.102385 -0.052337356 -0.072112784 -0.04488593 0.06402306 0.21534345 -0.058397293 -0.016483162 -0.008760391 -0.08664222 -0.057650108 -0.018489476 0.14901806 -0.19837406 -0.010323464 0.15099752 0.021914119 0.0049647754 -0.08348587 0.001385528 0.025030795 0.049190775 0.040274344 -0.14057812 0.031424772 -0.16038439 0.03997499 0.019444885 0.35669392 0.15967114 0.05821457 0.038604364 0.18066193 0.09290272 0.065924056 -0.016139494 0.021174325 -0.102130406 0.018281328 -0.018050192 0.069052845 0.21572177 -0.12319821 -0.077186786 0.16796204 -0.2703698 -0.031522557 -0.055894792 -0.07867141 -0.045691404 0.13223116 0.12733033
38 -0.06714266 -0.11237234 0.06331206 0.024495376 0.043597028 0.017282851 0.0071163597 -0.0036079257 -0.064379394 0.04903268 0.0065614176 -0.09856462 -0.0026005434 -0.22200799 0.06584266 -0.07469031 0.09093457 -0.011491391 -0.055720776 -0.026351754 -0.14541756 -0.26556838 0.071543306 -0.14035366 -0.04923261 0.05945831 -0.078143455 -0.14301813 -0.0009845446 -0.066965096 0.00066794764 -0.042260036 -0.022675825 0.13946222 -0.012653559 -0.048971113 0.0028782177 -0.10053761 0.10269428 0.16715868 0.05464898 -0.10964936 0.116072126 -0.046948355 0.14515443 0.13636331 -0.13474262 0.0059059635 -0.16443793 -0.111953974 0.03967409 -0.0769894 -0.05959704 0.010956942 0.026384631 -0.09474093 0.041559562 0.023223693 -0.102516696 0.0037667467 0.048867088 0.031609535 0.09964282 -0.030346114 0.051351614 0.01784848 -0.0124362735 -0.06661221 0.021456411 0.068841994 0.01639322 -0.05816197 0.07757265 -0.04510685 0.15691961 -0.1124638 0.046740033 -0.021190234 -0.16180973 0.0374571 -0.07726572 0.06502567 -0.21737745 0.0073870555 0.07750665 -0.12977673 -0.022581017 -0.12700355 0.06548591 -0.0829415 -0.08555185 0.13975699 -0.027078576 -0.009293897 0.064209975 0.10828517 0.09906501 0.037885852 0.072972365 -0.077149585 0.09023542 -0.19512619 0.0657931 0.03829929 0.38918322 0.1450477 7.156113e-05 -0.07122767 0.11655169 -0.057220697 0.07319753 -0.028825428 -0.024583085 -0.080502175 -0.011232199 -0.055338338 0.123739384 0.14116459 -0.12089073 -0.01831051 0.10642502 -0.3063173 -0.03717215 -0.09907403 -0.00021665951 -0.03276082 0.22286655 0.10843353
395 -0.019473102 -0.116953634 0.002012285 -0.0075565986 0.0034144658 0.11119517 0.026159065 -0.0591537 -0.014849782 0.03963603 -0.11115922 -0.11871459 -0.058212265 -0.047031406 0.0051338966 -0.17073354 -0.046475694 -0.01348444 -0.13976799 0.045562543 -0.077626586 -0.111250825 -0.040662266 0.020420527 -0.07760022 0.096041426 -0.053929187 -0.1638926 -0.031819165 -0.11218091 -0.02854036 -0.095630415 -0.0249842 0.07095541 -0.07420399 -0.056820076 0.021755397 0.02334921 0.08911233 0.24216332 0.083757915 -0.07310824 0.14036149 -0.08812262 0.19280256 0.1477712 -0.072010264 -0.040475048 -0.23153141 -0.149681 -0.07819981 -0.14235911 0.023218885 0.010233008 0.014490012 -0.0168761 0.09005818 -0.015882162 -0.1797017 -0.049481235 0.05825889 0.04223935 -0.04203364 -0.029964857 -0.05487195 -0.033341806 -0.025182378 -0.18607806 0.10908379 0.100295976 0.08918388 -0.08231368 0.030561749 -0.027824476 0.05154189 -0.10221725 -0.0557642 0.09703991 -0.11913814 0.016106248 -0.0006619556 0.26404133 -0.21050915 0.030899234 0.17005287 -0.049416788 -0.022581508 -0.021376565 0.08427712 -0.20595194 -0.028433481 0.14106274 0.036935017 0.12177119 -0.021216907 0.08209228 0.09927836 0.007981914 0.021460466 -0.07281185 0.012734135 -0.09873787 0.12157834 0.01658053 0.12352363 0.114209 0.025476497 0.023944166 0.14432026 -0.04336465 0.11443379 -0.09383743 -0.07406229 0.005490479 -0.0061567645 -0.19357033 0.065082066 0.031737454 -0.019935407 -0.06999145 0.10841616 -0.24612103 -0.033261355 -0.18262352 0.020629635 -0.15880258 0.21750659 0.09428377
