1113 128
1006 -0.16592605 -0.11825229 -0.14078191 0.16167615 0.025093947 0.3796156 -0.19027019 0.6029484 -0.26945007 -0.043986347 0.13529354 0.14256094 -0.09946591 0.22204144 0.103873834 0.118508436 -0.14778705 -0.11352778 0.5102992 -0.38631615 0.113338955 -0.10795701 0.2487665 -0.042402662 -0.26201835 0.14845328 0.13880338 -0.027201695 -0.18713196 -0.21638206 -0.28495362 -0.2360518 -0.38933668 0.3170123 0.15696439 0.053385314 -0.48574898 0.3926778 -0.4057285 -0.33849317 0.4387389 -0.4352138 -0.19002363 0.10548386 0.2900109 -0.27513823 0.31725502 -0.0959175 -0.17032127 0.18631494 0.07583189 0.31257102 0.110673204 -0.18793635 -0.027730182 -0.2848396 0.30575135 0.20254329 -0.07977468 0.017138656 -0.30549392 0.48120505 0.34642765 0.022192752 0.32792935 -0.33622515 -0.1011253 -0.356821 0.027390283 -0.23955499 -0.1239105 -0.017639361 0.1281477 0.12499485 0.08954457 -0.21449974 -0.23368157 -0.35466272 -0.28193802 0.0632983 -0.28466678 0.35893163 0.002053911 0.06907217 -0.385595 0.08217373 -0.20951556 -0.060136035 -0.18752283 0.09891748 -0.030627405 0.15724945 -0.39319515 -0.17453313 -0.113549635 -0.22755595 0.15789247 0.24210261 -0.008370217 -0.4515666 -0.20348024 0.038022105 -0.058021072 0.06100763 0.038262937 -0.052186083 0.45138103 0.015608792 -0.105063684 0.033103023 -0.19648692 0.30513164 0.48547748 0.42175934 0.30561405 -0.28993216 -0.08429782 -0.16213077 -0.08363843 -0.109177634 -0.2639338 0.012689545 -0.20677173 -0.2599613 -0.042115994 0.071693905 -0.0053388607 0.37154683
506 -0.3590342 -0.029703012 0.0810437 0.1055531 0.08525913 0.29951376 -0.15912296 0.42002624 -0.44248638 -0.038622808 0.07891859 0.3707004 0.12682693 0.21632414 -0.08956706 0.21065108 -0.031185802 -0.25153285 0.38633126 -0.24029522 -0.06733074 -0.38174772 0.49370402 -0.037383817 -0.4016084 0.062147386 0.0020437217 -0.23784062 -0.17910866 -0.3303699 -0.32876787 -0.22684531 -0.48615348 0.030338911 0.14441632 0.11805592 -0.4894694 0.4216547 -0.092057675 -0.46659836 0.3800417 -0.3245104 -0.19460203 0.25726035 0.22828071 -0.16489045 0.44830784 -0.4784706 -0.5029419 -0.14261736 0.11952261 0.35791144 0.2094161 -0.07222431 -0.3061785 -0.2671774 0.28837648 0.13914928 -0.3081999 0.09461827 -0.39049977 0.7447057 0.09042409 0.09154463 -0.07792501 -0.46604508 -0.19968095 -0.23483506 -0.08991843 -0.33948824 -0.097086065 -0.11600024 -0.06602768 -0.116527416 0.025060982 -0.05231553 -0.3450524 -0.38775933 -0.16068861 0.066760816 -0.15668194 0.00056603225 -0.06033459 -0.037478432 -0.3132805 0.09700915 0.04838536 -0.06818128 -0.034240577 -0.03209317 0.18420221 0.14426921 -0.47084862 -0.10699098 -0.1646594 0.18642499 0.20756227 0.32989052 -0.113875814 -0.31306568 -0.09456196 0.08422799 -0.02177414 0.06304604 0.083221644 -0.0029358019 0.33934668 0.18248552 0.09879648 -0.114961244 -0.021526672 0.13197769 0.16219652 0.6973068 0.28333563 -0.28550094 0.14534408 0.05889365 -0.3982746 -0.298006 -0.19998601 -0.24287023 -0.18572338 -0.31209147 -0.28946164 0.3862813 0.04467239 0.32651398
839 -0.44912562 -0.11367161 -0.028129863 0.09326781 0.1235337 0.30142555 -0.15241656 0.49439242 -0.48385388 -0.20972978 0.23440035 0.2553131 0.09731526 0.17688885 -0.087177984 0.17784801 -0.08339469 -0.111278705 0.27240586 -0.37899074 0.024614673 -0.46804956 0.41025487 -0.22016113 -0.26818335 0.043110345 0.20975791 -0.22747442 -0.04267024 -0.3063822 -0.3306058 -0.27788386 -0.38505635 0.043368652 0.11728625 0.0632176 -0.43418977 0.35066146 -0.40436774 -0.35354325 0.31624654 -0.24306737 -0.2755075 0.28934553 0.2577267 -0.28075093 0.37356937 -0.57064843 -0.47841907 -0.14122707 0.1065688 0.3688092 0.27550498 -0.097853996 -0.29568574 -0.42659158 0.32196617 0.06447681 -0.062783025 0.0072086416 -0.47223195 0.8453736 0.050709724 -0.07083435 -0.026653403 -0.49833712 -0.21271959 -0.16601284 -0.008147573 -0.4609265 0.012568828 -0.090486415 0.013969171 0.00012946992 0.15840352 -0.07418189 -0.32938755 -0.25492457 -0.15333986 0.09944443 -0.18117435 -0.08505147 0.01820381 0.069395445 -0.2960033 0.10281704 -0.14223534 -0.058055926 -0.12117985 0.14459765 0.15316358 0.07005287 -0.40980506 -0.15210596 -0.21991082 0.01838319 0.2971153 0.23286378 -0.083026566 -0.36247188 -0.24223848 -0.01519632 -0.076875545 -0.00522658 -0.052965697 -0.13497466 0.4583149 0.19043045 0.16950707 -0.15312828 -0.079134576 0.07913517 0.15765901 0.6693899 0.47979504 -0.2535079 0.07511368 0.024155984 -0.22008583 -0.14685485 -0.36500326 -0.16371448 -0.18148607 -0.42119014 -0.2893583 0.24659483 0.064599 0.2504908
823 -0.5009922 -0.094017975 0.09730079 0.22373171 -0.08488593 0.3385253 -0.18063895 0.39376187 -0.43161818 -0.18834363 0.14797147 0.3347487 0.14880039 0.29625124 -0.050927784 0.07787719 0.015919382 -0.16951561 0.38612118 -0.36041722 0.11061968 -0.3561818 0.31835863 0.09487612 -0.39762896 -0.06992058 0.09086667 -0.25266597 -0.14826128 -0.39041993 -0.28066614 -0.366336 -0.336215 0.08088832 0.1822013 0.1619284 -0.5313428 0.39807206 -0.11680472 -0.3048442 0.25474945 -0.25623396 -0.18499939 0.38348186 0.17849462 -0.26164335 0.4353921 -0.4533671 -0.50506645 -0.10384519 0.1972731 0.17421202 0.28335705 -0.11452028 -0.39191204 -0.29826856 0.14326733 0.22215779 -0.2650233 -0.070585534 -0.33645225 0.83751583 0.051104125 0.08735986 0.019452117 -0.44787014 -0.19720946 -0.1592907 0.075265825 -0.4564912 0.06110728 -0.02650031 -0.09252784 -0.11314779 0.1894007 -0.08777606 -0.26835027 -0.2488784 -0.19491293 -0.025710434 -0.26112348 0.19140756 -0.14323474 0.21330419 -0.24052796 0.16276939 0.033255056 0.018276276 -0.095678635 0.18390448 0.15891615 0.15661603 -0.23207328 -0.16027255 -0.012420979 0.00045238592 0.16622792 0.2611653 -0.17990099 -0.5401883 -0.15028644 0.028059993 -0.012148779 0.08513726 -0.07278359 -0.08798371 0.30711713 0.14354745 0.12805003 -0.16545686 -0.115823425 0.25005388 0.14708564 0.7485918 0.46529165 -0.1985301 0.15112972 0.09153456 -0.36791983 -0.10032423 -0.47676307 -0.105785325 -0.12315097 -0.30868486 -0.28701022 0.37533265 0.04022505 0.29976708
859 -0.28143165 -0.16471876 0.017364543 0.06280724 0.06860082 0.42970783 -0.13205597 0.38009837 -0.29874453 -0.13059574 0.15082598 0.35792196 0.15853398 0.21018638 0.11738883 0.16236636 -0.06541502 -0.085557245 0.2734279 -0.27058965 -0.0011109656 -0.35729593 0.36761832 -0.15485403 -0.3580724 -0.003269533 0.12657242 -0.2925411 -0.00868519 -0.45910406 -0.34898657 -0.09831851 -0.3340924 0.08197044 0.04463746 0.07838034 -0.3047448 0.35333157 -0.18528779 -0.33734637 0.39294007 -0.19495833 -0.35109437 0.3761712 -0.026632354 -0.27811837 0.27069503 -0.39754692 -0.34436864 -0.12817894 0.040283453 0.3351455 0.2810596 -0.0857314 -0.3204012 -0.44437283 0.4112721 0.069153406 -0.22979325 0.094615646 -0.46297163 0.9146659 0.112288214 0.0014430925 0.01187794 -0.5096731 -0.17367586 -0.17889625 -0.068243064 -0.29373085 0.060265474 -0.21679276 -0.0007634405 -0.009329799 0.14563553 0.021656357 -0.25422874 -0.34144148 -0.24096036 0.13758475 -0.33472654 -0.022319479 -0.22040182 0.062046014 -0.40206015 0.09478463 -0.12509046 -0.07518703 -0.066219166 0.2700144 -0.056145266 0.023426188 -0.46365008 -0.09588028 -0.13292997 -0.02250923 0.154389 0.24668907 -0.07742591 -0.37104955 -0.07336343 -0.0288508 -0.1047625 -0.02429954 -0.10088716 0.012364865 0.533173 0.113028936 0.1947922 0.0051428075 -0.1951068 0.31283945 0.20255291 0.62888783 0.1950413 -0.29549924 0.13351893 0.13021539 -0.29196385 -0.24978851 -0.39192897 -0.047052104 -0.16758014 -0.43005008 -0.3554953 0.4015369 -0.11990898 0.15762559
512 -0.4104115 -0.13479348 -0.03261496 0.114991754 0.13693406 0.33818114 -0.20568258 0.36044744 -0.41022667 -0.024094187 0.09949757 0.2891998 0.17863616 0.22897114 -0.055777192 0.29989162 0.10600829 -0.1588015 0.2574072 -0.43611553 -0.123355545 -0.38031027 0.36270243 -0.0031591614 -0.41379067 0.048777483 0.17801072 -0.17085974 -0.14021169 -0.2612414 -0.3943149 -0.26749116 -0.39203987 0.0030740697 0.05631591 0.12097164 -0.34442905 0.4372427 -0.18617295 -0.46987402 0.42650133 -0.16829117 -0.10550793 0.22500907 0.37332755 -0.19588675 0.3961817 -0.5348882 -0.43004286 -0.18758656 0.045461036 0.4359501 0.15559326 -0.0034037877 -0.30320877 -0.41685447 0.23030387 0.112001374 -0.33507338 0.0038894103 -0.45094296 0.7430189 0.04776935 0.04216024 -0.0058998833 -0.42003572 -0.24016275 -0.20825532 -0.025016004 -0.39825696 0.022112187 -0.15541007 -0.08348979 -0.11908124 0.15967911 -0.02236111 -0.31144333 -0.31841087 -0.20883645 -0.053182088 -0.19369543 -0.03588158 -0.0159197 0.13482058 -0.1981891 0.14088818 -0.10366593 -0.044943504 -0.2388215 0.14536586 0.07850793 0.2243577 -0.35828745 -0.081665106 -0.12140219 0.009601047 0.14081633 0.14369127 -0.06402371 -0.3054619 -0.048029147 -0.041342422 -0.077713765 0.020593418 0.16272044 -0.10280181 0.363539 0.16169596 0.11477483 -0.059815202 -0.026251107 0.091750816 0.30991298 0.7704248 0.5074234 -0.37151036 0.12645625 0.14203666 -0.35319147 -0.25938344 -0.2731399 -0.21876104 -0.15431543 -0.2117778 -0.28980055 0.34543473 -0.020502415 0.2365081
178 -0.13343187 -0.016376227 -0.03676584 -0.20862308 -0.028509408 -0.13360842 -0.26980454 -0.00470035 -0.13265154 -0.1760247 -0.50139827 0.19181722 0.04224632 0.15149477 -0.078783125 0.33835447 -0.36557552 -0.036175646 0.04745915 -0.15262158 0.028463144 -0.23840603 -0.11059253 -0.26108006 0.22653854 0.0920966 0.29473785 0.012548905 0.102331996 -0.11740745 0.054131635 -0.13201052 -0.16718327 0.10517358 0.12623452 0.21328938 0.07615438 0.29171142 -0.27413246 -0.10029465 -0.0065568625 -0.008081373 -0.07993653 0.007958546 -0.108121894 0.06448947 0.07839055 -0.07715768 -0.2791676 0.09361232 -0.04122783 -0.07743856 -0.10840046 -0.07518372 -0.24444912 -0.18690476 -0.11231179 0.030813038 -0.062026843 -0.294576 0.11149835 0.3266261 0.120564096 -0.2573886 -0.36877397 0.004543118 -0.39706078 -0.35218447 -0.08681247 0.01105512 -0.5187945 -0.33766913 -0.16767636 -0.15826029 -0.07000781 0.19825491 -0.16415766 -0.53605443 -0.10892087 -0.031980064 -0.12562154 0.011773617 -0.18436356 -0.029707225 -0.059414033 0.01897933 0.042675752 -0.29751036 -0.0018828348 0.18739997 0.068755664 0.4180052 -0.10289743 -0.0883204 -0.18527307 -0.08210797 0.16814189 0.6153344 0.11601331 -0.100502506 0.40110633 0.027679516 -0.010203355 0.050540708 -0.27463493 -0.27865455 0.44216067 -0.39938506 -0.18615949 0.17438172 -0.5171152 0.01739855 -0.030022739 0.376195 -0.03489406 -0.13562703 -0.2786104 -0.06493153 -0.42466953 -0.42785364 -0.37534946 0.10622314 -0.2563557 -0.25849614 -0.23349974 0.34522018 -0.07893687 0.4802235
1004 0.35870585 -0.5563729 -0.2179688 0.14473741 -0.61613643 -0.2874168 0.16507845 0.49060586 -0.30320728 -0.20688714 -0.649834 -0.4439375 0.03882353 0.2971653 0.18563505 0.22828895 -0.03088406 0.13277407 0.5661061 -0.4689955 -0.4455477 -0.18206315 0.38486063 -0.20332009 -0.24940248 -0.076379545 0.25730467 0.46500257 -0.3982431 -0.512029 -0.17595798 -0.3323481 -0.15700738 -0.5370102 0.6133845 0.27363232 -0.41697964 -0.082155265 -0.42271885 -0.40658528 0.64880407 -0.14946595 0.13701563 -0.0011011807 -0.42730936 -0.091931246 0.3101445 -0.008026332 0.19384494 0.8075938 -0.4099665 0.040074404 -0.1625586 -0.33667803 0.038598083 -0.8864103 0.16734056 -0.06637822 -0.11685301 0.28623173 -0.37570322 0.5703526 0.34828508 0.25704288 0.25846833 -0.12881464 -0.013151425 -0.27555558 -0.034329142 -0.066912845 0.09459573 0.52725 -0.058249366 0.213956 -0.12400382 0.6352227 0.014100824 0.11059581 0.17725934 0.3567522 0.06796812 0.84380525 0.51286805 -0.15789758 0.17577071 0.17638522 -0.3775581 -0.49954742 0.060580213 -0.2594319 -0.3204581 0.06966755 -0.21695375 -0.3910562 0.16703333 0.05358136 0.5273926 0.2611307 -0.3421169 -0.5440216 -0.018728884 0.63708264 0.013315196 0.08513905 -0.01589118 0.22138779 0.68116343 -0.0044823107 -0.5170791 0.12062015 -0.11736421 0.13600743 0.22782598 0.3510339 0.1357907 -0.40140173 -0.5834913 -0.43372682 -0.36042827 -0.22701311 -0.3243952 -0.41260898 -0.50456053 -0.61326313 0.4076452 0.11354553 0.6640126 0.0076881154
501 -0.28078133 -0.38498437 -0.026026836 -0.25788462 -0.18893489 0.09237839 -0.33942175 0.40458882 -0.43295103 -0.038761757 -0.27484968 0.27335668 -0.015926555 -0.16825041 0.14020097 0.5607367 -0.2661211 0.06475616 0.21917377 -0.36892673 -0.10996437 0.13803096 -0.06327112 0.11565695 0.23001814 -0.00517431 -0.050495367 -0.11399792 0.34982127 0.08179799 0.08828131 0.20353253 -0.057243023 -0.093331 0.13812602 0.35066542 -0.028552277 0.12756789 -0.09219547 -0.18147147 0.11142275 -0.19319557 0.45991042 0.019607967 -0.14013955 0.053004265 0.17100869 -0.09875057 0.10748828 -0.21964216 0.07022887 0.04327693 -0.081559 -0.19225128 0.08609728 -0.403871 0.04509414 -0.3452193 -0.46672085 -0.2568789 0.05654424 0.3160409 -0.21255308 -0.22918284 0.19891044 -0.019719925 -0.38057137 -0.32733923 0.4681845 -0.003148266 -0.09087601 0.0047046007 -0.3764013 -0.12132603 0.028649526 -0.041048888 -0.0493844 -0.20922595 -0.08646763 -0.31220058 0.033615343 0.19015299 -0.3026216 -0.18451951 -0.08549069 -0.0098516755 -0.28218788 -0.18605126 0.2768072 0.07438905 -0.043765083 -0.115799636 -0.15616952 0.22691344 -0.28043026 0.06576597 0.44487786 0.44953617 -0.10141633 -0.16368113 0.026802503 0.347443 0.10247032 -0.17132133 0.040393535 0.005965583 0.0576158 0.17263101 0.40167058 -0.05362045 -0.008567666 -0.09723636 0.19242308 0.29085463 -0.09618762 -0.27912763 0.03365959 -0.0895666 -0.05954557 -0.00021515954 -0.4783801 0.18181841 -0.33893389 0.20955232 -0.15661168 -0.16840672 0.103780404 0.29888105
301 -0.24095106 0.01156238 -0.034542777 -0.3403621 -0.11260132 0.15830839 0.09153766 -0.0628485 -0.11462851 0.21488641 0.14069606 -0.23065579 0.0046520107 -0.07476704 -0.03391754 0.017370176 -0.090675004 0.051602326 0.08563645 -0.120750025 0.026378559 -0.26243728 -0.23962736 -0.16197231 -0.054165445 -0.045074273 0.07037451 0.15437695 0.16990279 -0.01573503 0.04522362 -0.11163712 0.02088699 -0.26137444 0.07484861 0.049497284 0.18095359 -0.15519606 -0.095247425 -0.04826469 -0.17473118 -0.08364597 0.2603727 -0.17331839 -0.089808784 -0.20430422 0.24283518 -0.04665935 0.0011953352 -0.34239006 0.06574172 0.114548914 0.08396821 -0.20074396 -0.013500972 0.013753155 -0.048448227 0.27882937 0.05930924 -0.11306978 -0.015003074 0.029640112 0.1509912 0.022195669 0.03895603 0.019369548 -0.20920882 -0.20425713 -0.004142224 0.07003784 0.066830486 0.20587951 0.11748345 -0.08445144 0.09808166 -0.057611912 -0.12292756 -0.06658864 -0.09789945 0.17630258 0.065417394 0.1931447 0.02898141 0.12730902 -0.116169915 -0.24756595 -0.0030491212 0.15639225 -0.0326748 -0.058025837 -0.18928911 0.0370842 -0.09139664 -0.16918118 0.114446655 0.26608118 0.25348905 -0.18454188 -0.09518065 -0.01834166 0.057192367 0.12427262 -0.07461905 0.045845408 0.031101532 0.08766949 0.056011595 -0.017588174 0.037319653 -0.16663995 -0.15629333 0.038278583 -0.046134464 0.115466855 0.10614441 0.026816983 0.10518926 0.29211196 -0.2479334 -0.18405929 0.29364645 -0.066877715 0.06937401 0.16788557 0.12005529 -0.14684165 0.10302669 0.050939858
133 -0.13656369 0.014589321 -0.34825385 -0.008710975 0.029600222 0.055771302 0.06940968 -0.060043227 -0.060796153 0.251661 -0.02669593 0.20937932 0.08072588 0.033894546 0.058050755 -0.10557256 0.11135008 -0.10127723 0.17451175 -0.21742404 -0.07245353 -0.15615262 0.033577707 -0.17574205 -0.23741937 -0.03510604 0.016693277 -0.16561624 0.32505727 -0.19308674 0.053623267 0.23008111 -0.21147911 0.04932919 -0.04072743 0.06718911 -0.039179314 0.10385075 -0.17662756 0.064071946 0.040554173 0.124360844 0.15093878 -0.052891675 -0.08254717 -0.21032983 -0.050926503 0.05334907 -0.06327299 -0.19044559 0.1289507 -0.10225558 0.10323061 0.00942203 -0.09493584 -0.13803472 0.04170115 0.14690802 -0.0644205 -0.19162777 0.09003766 -0.14050369 -0.108378336 -0.10527732 0.020983307 0.06478902 0.041337304 0.04010442 -0.002974148 0.106462054 0.011402399 0.18483934 0.088720255 -0.14402907 0.3432892 0.23377489 -0.03548996 -0.14079322 0.09473512 -0.14191407 0.1883067 0.18433627 0.10062321 -0.07884917 -0.19100562 -0.19450068 0.0106777875 -0.22276384 0.14429016 0.04335969 -0.07677725 -0.19563471 0.1583208 0.13084269 0.0503447 0.106055036 0.087551214 -0.026061267 0.0075444765 0.030267067 -0.07878148 -0.007109532 -0.1500278 0.19185926 -0.033244807 0.08411584 0.29701263 -0.07288636 0.021839758 0.12104632 -0.2484019 0.27125037 -0.055191107 -0.21526016 0.13621351 -0.043529328 -0.0055370377 0.23832697 -0.11653774 -0.070909105 0.026733223 -0.07380912 0.12676717 0.047418747 -0.008809122 -0.114117816 0.011572963 -0.21619238
432 -0.1174515 -0.16703029 -0.14180915 -0.07052134 -0.09965844 0.2546543 0.060251452 -0.14207765 -0.16195427 0.097884834 -0.0069234553 0.13376 0.026774501 -0.17807761 0.007071426 -0.12130134 0.13146943 0.11731688 0.13880742 -0.08780259 -0.065430515 -0.012567266 -0.16435382 -0.12288497 -0.08253646 -0.076546416 0.21801022 -0.051665355 0.028575722 -0.07418819 0.004193909 0.03328006 -0.117403895 -0.07973075 -0.18387122 0.070745684 -0.058361594 0.062394246 0.17246442 0.17034298 0.08370561 0.0040738015 0.15810677 -0.05616204 0.012755192 -0.19962302 -0.02185677 0.0004878022 -0.13536918 -0.010761796 0.09239414 -0.10077582 0.02115384 -0.28466937 -0.14771505 -0.07464531 0.044716183 0.19440691 0.12122452 -0.085917816 0.04184677 -0.0026589774 -0.19568144 -0.093572505 -0.0006638256 0.0056482134 0.055031642 0.07416839 0.050463207 -0.1947584 -0.07944531 0.1140007 0.08787478 -0.05113095 0.27705446 0.13758717 -0.04625436 -0.034269404 0.032678694 0.08873018 0.1050054 0.12632696 -0.049019057 -0.1637623 -0.03191622 -0.20557685 0.17430872 -0.009685037 -0.076818764 0.09342056 -0.0225757 -0.13735124 -0.0060247206 -0.05366634 0.050043065 0.15396659 0.18446086 -0.082505785 0.021423314 -0.13646682 -0.09102152 0.15407988 -0.1080972 0.06657117 -0.087594286 0.06647393 0.13923372 -0.2530234 0.008001116 0.0033462085 -0.20464036 0.05149896 -0.017157262 -0.20882963 0.03964397 -0.076305 -0.0376767 0.26794562 -0.07739494 -0.14549004 0.1111772 0.031688172 0.013222118 0.07527953 0.015082408 -0.16452 -0.075066365 -0.067774765
1005 -0.023046419 -0.11951069 -0.34417397 0.11109961 0.21653958 0.121019736 -0.08097711 0.49223936 -0.12023427 -0.13292393 -0.46354812 -0.014470114 0.21121216 -0.07264082 -0.17960158 0.1272671 0.07355423 -0.18821368 0.021573812 -0.49785545 -0.3995103 -0.67041177 0.18633325 -0.10915711 0.07696042 0.03176984 0.13315584 -0.1255979 -0.33792427 -0.18108186 0.01326342 -0.2363398 -0.101657234 -0.1401372 0.053272445 0.09064157 0.20305054 0.45179412 -0.15220107 -0.31271467 0.33703697 -0.28091803 -0.19394408 -0.12440089 -0.2109495 0.1733418 0.15215544 0.27440664 -0.019855907 0.1747692 -0.20657623 -0.13320929 0.12908795 0.08917759 -0.11234521 -0.2412703 -0.07103849 -0.21767747 -0.09902989 0.24001722 0.3274311 0.18199746 -0.021598076 -0.33898196 0.43524808 -0.27788848 -0.3493027 -0.3552739 0.2916637 -0.08365275 -0.3330077 -0.006941271 0.25435236 0.12891087 -0.21334544 -0.007939415 -0.058900993 -0.25417 -0.7446801 0.033455975 0.2344442 0.27172694 -0.3106147 -0.16654846 -0.10440136 0.094114706 0.022173893 -0.013098339 0.51971096 -0.071299054 -0.2076385 0.060092513 -0.08156966 0.035864223 -0.08447339 -0.36630088 -0.20354468 0.19199128 0.08411381 -0.1539387 -0.02674677 0.35173714 -0.5832119 -0.0002830558 -0.24604218 -0.36916798 -0.010716964 0.016354619 -0.21685034 -0.010518065 -0.15186489 0.06487512 0.23026696 0.22899336 -0.09722274 -0.19045515 -0.18202104 -0.17400332 -0.26020047 0.10103954 -0.16910167 -0.08835829 -0.32287034 -0.29471233 0.16119064 -0.2133246 0.24352147 -0.27190745
234 -0.13980108 -0.19603457 -0.03279625 -0.025406094 0.027493631 -0.03988146 0.106711924 -0.13955998 -0.0926359 0.16561842 0.18860346 0.03868688 0.10639439 -0.006844333 -0.10001648 -0.2025871 0.11980245 0.15895922 0.19456239 0.074467234 -0.014426357 0.017558618 -0.1271722 -0.088898234 -0.13333036 -0.12259343 0.14634745 -0.26204765 0.13179113 -0.14290136 -0.18276247 -0.07496052 -0.059057765 0.07899079 0.009822184 -0.046161033 -0.106230736 0.06332444 -0.0096676005 0.18601376 0.05503 -0.13378704 0.19185624 -0.00036132426 -0.10846041 0.0539904 -0.08172757 0.06747621 -0.03397024 -0.11166669 0.093827754 -0.025658065 -0.103624105 -0.2542648 -0.0090179695 -0.31229395 0.06664249 0.36193293 -0.031426016 -0.14053492 -0.056877416 -0.051988594 -0.36529353 -0.090824164 0.12466279 0.062274706 0.00079275697 -0.08861924 0.07460778 -0.14388515 0.068974614 -0.095083006 0.10162892 -0.04455496 0.23078313 0.15936987 -0.12388672 -0.017340397 -0.18083858 -0.15911955 0.1703552 0.028800853 -0.14768751 -0.057915874 -0.014523425 -0.15647416 -0.15532988 -0.097407736 0.21057716 -0.03527569 0.05324377 0.02673053 -0.014594969 -0.03466586 0.1360866 -0.042623412 0.115494624 0.0045472034 0.16332558 -0.05115444 -0.033799 0.16577736 -0.02751847 0.2386818 -0.015993388 0.050511483 0.044045333 -0.089376055 -0.19015504 0.03925013 -0.18979527 -0.06939681 -0.25196046 -0.18789007 0.039979585 -0.007387463 -0.015914792 0.21121152 0.0051913103 -0.18916935 0.085480705 -0.052616894 0.027407533 -0.0298033 0.12938896 0.06576417 0.15195423 -0.07948772
467 -0.026583644 -0.13690074 -0.08878375 -0.11428213 -0.015506306 -0.13483262 0.18080285 -0.15702443 -0.04567816 0.1662965 -0.06355626 0.10409982 0.14304501 -0.124122046 -0.10659589 -0.21121745 0.051109266 0.07582416 0.12267605 -0.2023127 -0.11857482 -0.106194146 -0.095025584 -0.2542221 -0.07722376 0.04701051 -0.062153183 0.020448742 0.09885172 -0.09219301 -0.071263425 0.07554931 -0.18403502 -0.15386268 -0.06615192 -0.07957845 -0.118266895 0.05883124 -0.09414581 0.34963858 -0.07479436 0.03601583 0.15799929 -0.07466709 -0.039608013 0.092535645 -0.1168563 -0.090901665 -0.07075077 0.11801002 0.10695465 -0.23312207 0.23173358 -0.09076456 -0.105249934 0.07607301 0.035789415 0.115934804 -0.27035898 -0.1226374 0.0576054 -0.066072166 -0.23000783 -0.06144127 0.07919732 -0.19914313 0.017595647 -0.0050275913 0.18502489 0.17693031 0.03884189 0.026893105 -0.11419268 -0.032330774 0.25695336 0.104048006 0.067313716 -0.15290341 0.002723606 -0.05407604 0.10651297 0.039793115 -0.035496067 -0.09205774 -0.07185793 0.09543309 0.19285618 -0.019918667 0.115399204 0.19295098 0.056501325 -0.056227185 -0.034824323 -0.3261207 0.10087149 0.13225046 0.09423319 -0.024396738 0.114220895 0.15924044 -0.17787966 0.114744395 -0.05931766 0.10878438 -0.026997646 0.10218483 0.010662022 -0.140855 -0.07160255 -0.18893883 -0.20485917 0.16571611 0.13173957 0.0003634201 0.22107056 -0.16419654 0.010259941 0.12139878 0.07687404 -0.01987367 0.105787404 -0.055234328 0.054371983 -0.14635435 0.014078014 -0.05940448 -0.035548877 -0.060627796
209 -0.113694996 0.018144034 -0.06244992 -0.18500958 -0.0959135 0.07807316 0.060662758 -0.13022558 -0.12568612 0.06114913 0.14172779 0.014286346 0.06435768 -0.27897125 -0.021312755 0.03448975 0.026630314 -0.15548287 0.17282867 -0.15166892 -0.16349965 -0.12661481 -0.04513247 -0.1510409 -0.06836053 0.040299226 -0.06058316 -0.016332703 0.036558658 -0.12369916 -0.0653054 -0.11845439 -0.01709416 -0.019045528 -0.19057696 -0.10251139 0.037864245 0.0012651369 -0.037760988 0.24116148 -0.07857741 0.053363305 0.1711914 -0.20661387 0.04663276 -0.122658126 -0.0885369 0.021587435 -0.01873406 -0.010174591 0.056290362 -0.016635716 0.039220583 -0.27690938 -0.32454175 -0.18718521 -0.004921276 0.15871589 -0.10201228 -0.17452934 -0.07910263 0.010993108 -0.1114933 0.061692845 -0.052857336 0.08319704 -0.06278739 -0.1916659 0.15661281 0.08249593 0.09180414 0.05424126 0.01212456 -0.11764124 0.25879577 0.103068314 -0.03191072 0.1359951 0.018569998 -0.004888115 0.043948587 0.044128597 -0.08789623 0.0006886369 0.07242149 -0.10143162 0.029695028 0.04431001 0.056186944 0.046118435 -0.18172067 -0.058885127 -0.029429976 -0.0436778 0.1291954 0.13566294 0.16483563 -0.15477984 0.0036615382 -0.067916065 -0.06213907 0.22554092 0.07262998 -0.029700672 -0.029086675 0.17933695 -0.047927145 -0.011981824 0.009399384 -0.036873456 -0.086055666 0.03608329 0.06148264 -0.004120679 4.8589205e-05 -0.1207835 0.08106986 0.077680364 0.028398968 -0.020364922 0.12631162 -0.079435535 0.1015022 0.027910283 0.0070957197 -0.045751832 -0.10555823 0.09307216
69 0.008507344 -0.038522776 -0.18401021 -0.12241854 -0.14578897 0.04771221 0.16333863 -0.0107036885 0.027660165 0.1231239 0.16829126 -0.08565069 0.08424403 -0.03851997 -0.11695008 -0.05394416 -0.124096766 -0.015985824 0.050101675 -0.1310111 -0.19058281 -0.039093588 -0.025928404 -0.21272257 -0.035560265 0.14670797 0.0323307 0.17817047 -0.020482743 -0.092034996 0.053904094 0.09501579 -0.014202014 0.020353453 -0.06442342 -0.39498585 -0.009039678 0.10537043 -0.041280877 0.27619392 -0.14548455 0.06296746 0.005854082 -0.08902134 -0.18494096 -0.004646113 0.035127893 -0.08367535 -0.10801097 -0.16539474 0.114311986 0.08168744 0.085602485 0.048757166 0.07838111 -0.06912711 0.02743903 0.12605809 -0.14541227 -0.14850816 -0.06565583 -0.05708139 -0.23840232 0.124737754 0.09376002 -0.07974547 -0.28026107 0.09013079 -0.019119315 -0.00042139253 -0.009908199 0.17654456 0.08279742 -0.17725514 0.2664064 -0.009387496 -0.014605033 -0.041992724 -0.000118665535 0.03786 -0.06447502 0.29842287 0.0390853 -0.09469134 -0.048966836 0.009660519 0.117592886 -0.07446595 -0.009877875 0.17796423 -0.122439265 0.2248321 0.20453082 -0.14525378 0.021533232 0.053783555 0.10363134 0.089677796 0.2913273 -0.18164875 -0.14239009 -0.08250987 -0.017092288 0.07492528 -0.06509433 0.210389 0.03582312 -0.13987204 -0.1697765 0.11090003 0.08107847 0.070000134 0.22618754 0.057920694 0.21358033 -0.24706836 0.13138306 0.36643028 0.086540386 0.074746385 0.39130622 -0.04535504 -0.097085536 -0.16196848 -0.011578712 -0.053639784 0.15873182 -0.030745124
1010 -0.030383624 -0.21274033 -0.14088315 -0.2673191 -0.014146504 -0.016177649 -0.014508462 0.5228433 -0.11293512 0.1876287 -0.15818526 0.022917157 0.21710443 0.13582633 -0.025311977 0.16877142 -0.2987667 -0.37609714 0.4524999 -0.56435007 -0.26796058 -0.48020494 0.004749982 -0.0041274303 -0.006786873 -0.13202143 0.16437437 -0.054506764 -0.39870307 -0.045806956 -0.16464606 -0.5545449 0.049997043 0.029504921 0.26709723 -0.21884592 -0.48860365 0.16083364 -0.3389056 -0.05497895 0.42576575 -0.063156396 -0.15659639 0.1621003 0.022838276 0.025807295 0.17654103 0.22007331 0.011081198 0.06664199 0.04611096 0.03315411 0.03638787 0.055690423 0.09238168 -0.1808244 0.11130732 -0.44874367 0.13964085 0.14121613 0.14458585 0.14154287 0.07133105 -0.16925816 0.15620804 -0.46451697 -0.23718798 -0.42191654 -0.030889766 0.06558994 -0.65236634 0.19100092 -0.14813031 0.3636483 -0.28989562 0.100722566 0.09758578 -0.3892163 -0.4880219 -0.08502935 0.19166866 0.24501432 -0.40066156 -0.15017925 -0.11422909 -0.08201404 0.12127589 0.33814365 0.25625986 0.033174988 -0.17714638 0.288758 -0.08936066 0.2457733 -0.23716988 -0.38738567 0.35011268 0.091844946 -0.0381212 -0.17025198 0.05524606 0.22648968 -0.31923714 -0.022141226 0.08651345 -0.5208334 0.15412784 -0.067019045 -0.34969428 0.2043858 0.004766035 0.35280627 0.48935014 0.2721191 0.030923773 -0.48113522 0.14542785 -0.3321086 -0.03614648 0.04547834 -0.21443063 0.1343711 -0.07355688 -0.29426798 0.14322145 -0.02123848 0.06523948 -0.29028097
476 -0.011817693 -0.038785536 -0.08800411 -0.058767177 0.01654553 -0.18433118 0.26284343 -0.057148565 -0.20892991 0.2975763 0.13114905 0.059982117 -0.06369044 -0.14547788 0.070372455 -0.28520212 -0.0142319165 -0.26092184 0.20180944 -0.02627237 -0.04618781 -0.06324115 0.076611266 -0.2573296 0.1953692 -0.10921847 0.14783849 0.04784385 0.13269554 -0.16075335 0.058138475 0.050008744 -0.26242346 -0.068554126 -0.09511509 -0.06490872 -0.055808596 0.14952472 -0.061508175 0.1910063 0.094187945 -0.0058029206 0.119260825 0.11278685 -0.1583488 0.11267781 -0.119885586 -0.24816437 -0.0757201 0.02449427 0.01678815 -0.04899624 0.018806819 -0.21654418 -0.000550929 -0.09623635 0.036418904 0.17336865 -0.1411438 -0.14268994 0.05511654 0.017564643 -0.015724631 0.02096359 -0.14916475 -0.14097083 -0.05143487 -0.11554952 0.0679388 -0.091542415 0.18312767 0.13404119 0.11436772 -0.1721725 -0.021410326 0.19664034 0.016079335 0.037882976 0.1705104 -0.08536259 0.030234968 -0.08596842 -0.01806931 -0.18524809 -0.054220244 -0.11987118 0.23533112 -0.06872723 0.029717892 -0.19005129 -0.049574234 0.12318853 0.16093644 -0.20262873 -0.123397045 0.10854935 0.09016703 0.11149242 0.25405896 -0.002335801 -0.09488306 0.12181883 0.057722956 0.16577505 0.0765631 0.002472719 -0.14731953 -0.22552493 -0.012372198 -0.024095569 -0.18842664 0.108592935 -0.16449441 0.17162746 0.030932806 -0.2988243 0.17492473 0.14182208 -0.090532586 -0.03800963 0.20380281 -0.0020382951 -0.03999649 0.1431814 0.14058526 -0.21452315 -0.016970262 -0.06480994
459 -0.075216055 -0.10139224 -0.26189196 -0.014297291 -0.12784943 0.047425948 0.16239631 0.019689856 0.038048856 0.12817174 0.18304013 -0.08806554 0.07326 -0.051841397 0.00051794696 -0.063922584 0.0409477 -0.04001302 0.13392697 -0.0019560533 0.005023311 -0.13236824 -0.08424235 -0.17832577 0.030426798 0.18059509 0.16525207 -0.042532474 0.23200119 0.057938628 -0.27196032 -0.1201138 -0.041166298 -0.015772523 -0.13861807 -0.17212252 -0.03652417 0.102398686 -0.020096116 0.263774 -0.0048191915 -0.039617736 0.28081498 -0.03239845 -0.012130534 0.019184604 -0.01896892 0.0366236 -0.337571 -0.07846046 -0.0062048784 -0.26060268 -0.068755 -0.19544011 -0.20324324 -0.05504516 0.101217575 0.15725762 -0.048584957 -0.32911515 -0.19120014 -0.019174919 -0.03995261 0.25734848 -0.04421998 -0.01547557 -0.24867384 -0.024948053 0.04767286 0.020690048 -0.1274593 -0.03198171 0.18271291 -0.20177644 0.14204793 0.060683165 -0.13062343 -0.004130248 0.018023476 0.04326222 0.008777966 0.3050482 0.13419639 -0.040304117 0.0014218837 0.072989695 0.0011229786 0.23593685 -0.08865668 0.15492707 0.017379085 -0.0977816 0.1961187 -0.07050607 0.06565664 0.19033936 0.01685996 -0.24205962 -0.14476457 -0.268609 0.15168168 0.10208417 0.04614447 -0.12719159 -0.0031401003 -0.019667061 0.043828122 0.01951994 0.008769806 -0.09190053 0.019315965 -0.01032662 -0.050119936 0.051018756 0.05904954 0.02022893 -0.05627299 0.19871783 0.15958959 -0.14687192 0.14515011 -0.12320951 -0.058244977 -0.07503868 0.006209537 -0.26591542 -0.011192081 0.110477544
101 -0.020010186 -0.17700554 -0.2135264 -0.057372026 0.043465976 -0.047777485 0.016494026 -0.26729876 -0.1303914 0.23006243 0.2174418 -0.16118757 -0.08396696 0.031083979 0.15906064 -0.15823224 -0.04244365 -0.035620432 0.18078464 0.051177412 0.07260309 -0.12638716 0.0067798533 -0.2039571 0.025186384 0.117792144 0.17895088 -0.0073821503 0.1382772 -0.15716812 -0.19942185 -0.15906094 -0.18812737 -0.052066334 -0.16789995 -0.20997176 -0.11908479 0.10749933 -0.027706284 0.12640265 0.08995937 0.03490509 0.21194796 0.019115034 -0.15450379 0.109197855 -0.11634766 -0.019837553 -0.043216866 -0.18388265 0.04825924 -0.14968829 0.036505688 -0.2737359 -0.053474087 -0.0076947096 -0.060679816 0.24408928 0.006055553 -0.17960612 -0.16266294 -0.014511498 -0.1795961 0.14401296 0.0820004 0.032391455 -0.15198281 -0.1087849 0.16238083 -0.058526836 -0.0073421923 0.08087252 0.06527444 -0.092844345 0.08361616 0.09436521 -0.08409967 -0.011952547 -0.084547974 -0.06297949 0.21830176 0.11568664 0.05194162 -0.0270435 -0.067746595 -0.111364946 0.15373321 0.08861628 0.038728595 0.048764426 0.04811813 -0.012491291 0.024285242 -0.063249886 0.17568974 0.03916577 0.12674275 -0.1307459 -0.06102211 -0.17332862 -0.053674325 0.013602569 -0.1422526 0.10837266 0.015883941 0.026597718 -0.06432913 0.055770177 -0.13757116 -0.0636914 0.038319908 -0.13671702 -0.095084496 0.010087069 -0.0656627 -0.20657416 -0.16604832 0.114235006 0.17430201 -0.2632433 0.08575531 -0.060212504 -0.013459363 -0.022218527 0.01351027 -0.19257025 -0.17476748 0.04237251
211 0.10634837 -0.020532602 -0.48509476 -0.15832582 0.13237585 0.22346465 0.012663318 0.0013950262 0.043189533 -0.13146706 0.20215239 -0.10277103 -0.1298733 -0.24662034 0.16198303 -0.26864251 0.055578183 -0.0012119503 0.1916627 -0.085092455 0.031024367 -0.30394572 0.13309461 -0.26767564 0.21880068 0.0554679 0.0610016 -0.012054019 -0.046584032 -0.094227135 0.09347742 0.12094289 -0.0026642883 -0.052477043 -0.07866131 -0.20591046 -0.10756462 0.1300574 -0.16899893 0.071504846 -0.17450666 0.13442448 0.20651668 0.01831069 0.21623391 0.019501915 0.028753525 0.12756045 -0.09108473 -0.22850893 0.080792 -0.028979411 -0.15625344 -0.057816572 -0.10123173 -0.27674112 -0.079504035 0.13029784 -0.26192838 -0.35184112 -0.05968076 0.17159377 -0.09687613 0.10750502 0.097869 0.19685847 -0.04696652 -0.031728692 -0.021387137 -0.17247692 0.08123683 -0.08036538 0.20956182 0.0773465 0.08044201 0.23012048 -0.047236416 -0.27825713 0.16963972 0.05897483 0.049358852 0.0071670236 0.062180948 -0.05526865 -0.07898142 0.05746369 0.07855577 -0.09501317 -0.059884492 -0.13800636 -0.11662813 -0.024165131 0.10271387 -0.21878372 0.016660133 0.025420044 0.13723134 0.088374466 -0.1830344 0.0593627 0.101081684 0.09495724 0.038783304 0.04100198 0.022972783 0.14729674 0.2810019 -0.09287016 0.23007144 -0.19934842 -0.08556876 -0.025399985 -0.15757635 -0.17425984 0.047567666 -0.093154706 0.065153815 0.3854977 -0.05427577 -0.20733708 0.059804868 0.048743583 -0.011080952 -0.09882883 0.136606 0.042174984 -0.012708994 0.06008735
152 -0.073008984 -0.05290406 -0.08093263 0.01678163 0.052139696 0.09761607 0.17334184 -0.151494 -0.14007206 0.23737806 0.13036795 -0.032342106 -0.07656836 -0.24448875 0.12707512 -0.04174152 -0.040933393 0.09385023 0.1501479 -0.04432367 -0.14550358 -0.23783043 -0.25559005 -0.18345444 -0.12794948 -0.11296576 0.090334766 0.045673702 0.13560955 -0.19440827 0.037878428 -0.06458398 -0.06421775 0.010606343 0.022669286 -0.18375194 0.14554237 0.029076774 -0.016219832 0.12662746 0.07133673 0.13540645 0.122296095 -0.14300853 -0.083579406 -0.105661094 -0.08526178 0.068759724 -0.062715754 -0.04400722 -0.054818988 -0.03023196 0.14039564 -0.09865683 -0.0114993835 -0.059902925 0.028277654 -0.058304556 0.030404663 -0.02946825 -0.17993404 0.07970705 -0.13253334 0.1489106 0.022163143 0.032815002 -0.07868499 -0.14635643 0.0727313 0.12633502 -0.04275508 -0.016412953 0.07837837 -0.043828845 0.27476123 0.09481894 -0.062496174 -0.015436127 0.034697436 -0.07196638 0.21191986 0.042311758 0.004822194 0.023006232 -0.0754118 -0.16491364 0.09497315 -0.010512127 -0.03343142 0.07044911 -0.13107581 0.0012529851 0.051262572 0.029109556 0.036361955 0.3211731 0.15191044 0.07483848 0.12746939 -0.08321749 0.07909762 -0.05050168 -0.0804922 0.14583455 -0.03648237 0.16164154 0.01627643 -0.0592326 -0.028444007 0.006673368 -0.10736312 -0.114988774 -0.11338684 0.04227922 0.10608067 -0.19659378 -0.041872595 0.20859382 0.06284799 -0.2315539 0.09401336 -0.063246 0.025444347 -0.053828865 -0.057117425 -0.1918532 0.009629081 -0.02377408
187 0.101685025 0.033922154 -0.03378627 -0.0803101 0.01425002 -0.016655235 0.17989016 0.010573771 -0.04807817 0.034983873 -0.024306795 0.12883316 0.08227758 -0.25458363 -0.036055416 -0.24128269 -0.04417409 0.14893068 0.1365759 -0.09394714 -0.0992071 -0.21349865 -0.1014138 -0.22804831 -0.043940734 0.047363598 -0.055721298 -0.15809636 0.07480216 -0.037933048 -0.12838499 0.023381323 -0.13585763 -0.027923385 -0.0045067277 -0.12195961 -0.15241976 0.08831075 -0.035839036 0.31680483 0.08291138 -0.0022953255 0.29952675 -0.056208234 -0.011776768 0.16795136 -0.08388028 -0.1126544 -0.03709544 0.023527836 0.21702284 -0.052550923 -0.05774901 -0.06315595 -0.09511668 -0.0010460209 0.0075105354 0.12868434 -0.23155323 -0.2981808 -0.0880493 0.0552546 -0.27509943 -0.041369498 0.055267654 -0.18237008 -0.041583914 0.14623551 0.14129236 -0.07124265 0.040926404 0.13573551 0.14229688 0.07943256 0.19986884 0.06349491 0.064107664 -0.05212414 -0.0056285425 0.05296062 0.15433039 0.028330712 0.06680267 -0.08333934 -0.1855427 -0.1797275 0.048456043 -0.03850562 -0.009697637 0.038444452 0.046527117 0.024572179 0.02307066 -0.09307158 0.13508534 0.18238756 0.013745106 0.18224208 0.09590708 0.040396605 0.0067214165 0.024593208 -0.020856425 -0.059089143 -0.1503046 0.0037699859 0.04900217 0.023032397 -0.006363253 -0.11901312 -0.3427213 0.0645944 -0.06042869 -0.119686894 0.08831131 0.008307287 -0.009784096 0.08048742 -0.013086145 -0.18628412 0.08432668 0.01745351 -0.05825735 -0.000121438214 0.05837641 -0.19259626 0.069049016 -0.011475839
416 0.029905243 -0.0815662 -0.053971943 -0.06268758 0.07047657 0.0062917243 0.111768305 -0.12291454 -0.06776862 0.18168615 0.15299125 -0.0008667339 -0.057992414 -0.19239777 -0.08537996 -0.12823378 -0.0077149854 -0.02603423 0.0854921 0.021213097 -0.1314217 -0.06757531 -0.17040549 -0.16781133 -0.12079958 -0.061589196 0.057411797 -0.01371761 0.08022027 -0.054072365 -0.03922501 0.020514823 0.06991761 -0.0027350164 -0.036078576 -0.13615316 0.04976097 0.0038060655 0.043951716 0.13312006 0.10831685 -0.09978366 0.20359038 -0.09119025 0.009807527 -0.017527869 -0.13646744 0.06456025 -0.072593294 0.09350658 -0.028723517 -0.040621754 0.0555169 -0.15473573 -0.082766086 -0.14605345 0.0048393644 0.053314615 -0.015548715 -0.18611594 -0.27811724 0.018812614 -0.16506626 0.0693819 0.019731764 -0.016856518 -0.1010584 -0.22933932 0.015888063 0.088190615 0.027341602 0.10160492 0.09683149 -0.13881034 0.16982076 0.11536187 0.01996283 -0.0627281 0.066368036 -0.013713146 0.14216924 -0.01125769 -0.071254455 -0.04347202 0.008022005 -0.09605317 0.15344422 0.08375227 0.16301647 0.0018062469 -0.09312266 0.1283193 -0.06057163 -0.20699094 0.12751167 0.04141121 0.0939019 0.036410045 0.076863006 -0.11616285 -0.0056146835 -0.0048041865 0.0072242 0.03903306 0.047183752 0.11243103 -0.032701895 -0.120343596 -0.03859458 -0.07040248 -0.032793578 0.047770057 0.08871649 -0.012536077 0.12691575 -0.080148034 0.03725542 0.25883186 -0.035860907 -0.059785042 -0.0036632298 -0.017953357 0.0038933367 -0.036653686 0.07360541 -0.14173234 -0.08714451 0.15960701
477 0.016572276 -0.25224116 -0.26928693 -0.10763283 0.19839104 -0.027024703 -0.040188845 -0.06315867 -0.09781417 0.10323269 -0.042932637 -0.05679559 0.02341865 -0.22096583 -0.36695272 0.11427841 0.15410078 -0.28360876 0.290431 -0.11543461 -0.011589744 -0.13138159 -0.08344969 -0.29426217 -0.30202815 -0.014310499 -0.21597299 0.043053877 -0.16220953 -0.14241046 -0.21002086 0.049708076 0.098148555 -0.35116592 -0.11456011 -0.17132682 -0.22181414 -0.0009968919 -0.13847227 -0.18078475 -0.08891209 0.31963822 0.134046 -0.103171706 0.03598752 0.24552992 -0.015995216 -0.16867177 0.05762243 0.025374752 0.3323691 -0.13493176 -0.13050891 -0.16032991 -0.24621418 0.2083075 -0.10583637 0.25645262 -0.13852908 0.06557305 0.1404273 0.015786115 0.098073274 -0.057536274 0.07762161 0.07963645 -0.13517685 -0.23734832 0.18181726 -0.06969471 0.23477048 0.28707525 0.15415479 -0.031868864 0.17883603 0.0104171615 -0.08592653 -0.121551424 -0.06778333 0.050762165 -0.0023414523 0.09111916 -0.15602468 -0.23337859 0.06991433 -0.0764883 0.055584915 0.20463239 -0.13550527 -0.088404156 -0.31771582 -0.12219212 0.07836102 -0.07416135 -0.14096697 -0.10873924 0.14194444 -0.02191911 -0.037261996 -0.18236609 0.06977276 0.38120893 0.36741078 -0.08734775 -0.0404696 0.2474111 0.053621978 -0.22112346 0.02334099 -0.03454341 -0.049078297 0.051609732 0.13750263 0.044480473 -0.085375875 -0.28211823 -0.13585472 0.16856782 0.22858837 0.07126736 0.41700983 -0.08277629 0.038504675 0.08158329 0.08482677 0.10340587 -0.31236252 0.21225627
373 -0.16908777 -0.11508028 -0.11090025 -0.1826732 -0.027993657 0.05104818 0.008472392 -0.14789042 -0.22430956 0.08294384 0.12791848 -0.079317234 0.009790081 -0.22894199 -0.30993024 -0.091975406 0.00017488742 0.064713925 0.1327094 -0.020458912 -0.119245954 0.014024605 -0.07460403 -0.053411342 -0.13373452 -0.03339557 0.12946227 -0.083101995 0.15896928 -0.08783971 -0.038822103 -0.13207525 0.0024201653 -0.014871927 0.010924107 -0.03030019 0.039499175 0.0036533794 0.05948607 0.12413573 -0.12554742 -0.11552824 0.17444336 -0.14412417 0.020400561 0.04671875 0.033908956 0.13021244 -0.08744577 -0.04970626 0.05207448 -0.07424166 -0.16383758 -0.1227633 -0.27671546 -0.11396623 0.10694553 0.20278281 -0.009895847 -0.22355397 -0.24531837 -0.05722608 -0.0065342565 0.09964637 0.022775207 -0.02824661 -0.09386657 -0.026406024 -0.047967684 -0.09499973 0.0799964 0.1731018 0.17299916 -0.1288284 0.22793114 0.10761257 0.05966241 0.0072521814 -0.061058268 0.1061677 0.15568733 0.17446698 -0.14990085 -0.08561049 0.021013927 -0.18946882 -0.04539067 0.0020070972 0.020892233 0.056954652 -0.15655027 -0.059904903 0.077305175 -0.12744226 0.16926268 0.08976572 0.049603734 -0.14283274 0.044985134 -0.07497356 0.018262977 0.12824164 0.00031781467 -0.12320704 0.13933179 0.14580439 -0.14229934 0.024193417 -0.00027106743 -0.05994924 -0.23190847 0.08063578 0.008077102 0.04533045 -0.010501346 -0.13802855 -0.08825033 0.024357295 -0.023965288 -0.26756245 -0.0378438 -0.0043808357 0.10173282 0.087648675 0.08345728 -0.17369148 -0.055902913 0.061793376
402 -0.04247646 -0.07551353 -0.07067876 -0.08971447 0.028505955 0.030299 0.12176908 -0.034738738 -0.028350418 0.15873411 0.24097916 -0.06292381 -0.011008746 -0.12181476 -0.06279212 -0.10040439 -0.03825866 -0.03489526 0.06377367 0.057980273 -0.03915084 -0.08666735 -0.04308673 -0.23276041 -0.1334202 -0.0366459 0.07407424 -0.09058322 0.04142757 -0.15554962 -0.021460062 0.0067966627 -0.025288878 0.038856346 -0.016932242 -0.113596216 -0.038594723 0.00025615684 0.013411209 0.13545111 0.088906586 -0.084231056 0.14832594 -0.09188455 -0.07473715 0.02880318 -0.077899404 -0.0005537845 -0.14557332 -0.002583464 -0.069211386 -0.055236883 -0.16353753 -0.17052671 -0.08259629 -0.116912276 0.021726767 -0.036354408 -0.0823363 -0.161579 -0.22396481 0.009575603 -0.13810584 -0.074766785 -0.029436782 0.018824745 -0.031488866 -0.15879384 -0.02213959 0.15201618 0.08484795 0.01811897 0.09022412 -0.035065822 0.25501516 0.01947492 -0.05231428 -0.02226274 0.0065812985 0.100055024 0.15146217 -0.021829426 -0.07454427 -0.009557678 -0.03498201 -0.17854199 0.0152834 -0.006055755 0.11189392 -0.06519657 -0.108609624 0.13778272 -0.044157464 -0.120224856 0.15417866 0.2523744 0.13921458 -0.12069648 0.078958236 -0.08393626 -0.0066116573 -0.0016040339 -0.0031454572 0.14068075 0.12835576 0.08267274 -0.007895026 -0.14197591 -0.0639716 -0.045932345 -0.0028293338 -0.027457757 0.015342518 -0.088862866 0.046786997 -0.15901944 -0.046723764 0.12208608 0.051778037 -0.05316358 0.027881812 -0.08164097 -0.010923432 0.032431155 -0.00063885737 -0.15021083 -0.07796978 0.08504816
183 -0.10454105 -0.016633697 -0.08863143 -0.09983624 0.0718651 0.08967086 0.065748125 -0.014746516 0.036895882 0.0733241 0.16208951 0.020267049 0.10170216 -0.19827466 0.12797163 -0.18900053 -0.018960936 -0.19724773 0.15519027 -0.04907293 -0.034699183 -0.09705944 0.15723242 -0.09554143 -0.068165794 -0.08949395 0.12439519 -0.066823 0.027413163 -0.16905758 0.016587606 0.07982691 -0.009182927 0.08497873 0.06590273 -0.15830053 0.12604254 0.15307786 0.1907269 0.24623054 -0.005958996 -0.10722032 0.26266345 0.08732796 -0.09506936 0.0736845 0.080448754 -7.044135e-05 -0.12934256 -0.0738848 0.0060047964 0.012800163 0.044985835 -0.2382554 -0.06451804 -0.21165913 0.08714354 0.07071855 -0.0778899 -0.19322973 -0.09096112 0.17753498 -0.08238344 0.06687721 0.07394625 -0.06751871 0.007380945 -0.016877204 -0.12785253 0.03933444 0.0006736162 -0.076732635 0.19532183 -0.10021819 0.24432006 0.10227506 -0.029098472 0.06913042 0.09414712 0.03701047 -0.11621257 0.16592357 0.10577032 0.05394622 -0.020524647 -0.15848415 0.137644 0.04708371 0.046457976 0.06447925 -0.14054056 0.23865463 0.008900859 -0.00923937 0.34961912 0.10978385 0.017553056 0.058022432 0.20941171 -0.050183423 -0.01883781 0.015054728 0.003710342 0.010248272 0.23105778 0.22930397 0.09567598 -0.15484513 -0.14522812 -0.0043122615 0.013311361 0.10228905 0.018764438 0.0076503363 0.08186446 -0.093475305 0.098300435 0.23908725 -0.0005124642 0.02669922 0.19018033 0.11996733 -0.0058373706 -0.11221302 0.2222815 -0.0754884 -0.11078147 0.14826322
249 0.018674519 0.022248989 0.025939021 0.03102429 0.14094159 0.049740784 -0.1689005 -0.09727833 -0.23097864 0.0058286074 -0.094441675 0.023739006 -0.0032054747 0.09233819 0.03044169 0.041867103 -0.012652748 0.17742884 0.25568494 -0.12355869 -0.09067191 0.11737752 -0.19900733 -0.19011353 -0.12318948 0.012402661 -0.057242826 0.15587978 0.18760917 -0.13713953 -0.06688006 -0.01636718 0.007729153 -0.1168027 0.034126844 -0.11600469 -0.12914737 -0.0538817 0.13852477 0.13083613 0.05979899 -0.076337405 0.03506639 -0.21675934 0.0037036445 -0.021481626 -0.080299474 0.032381266 -0.19442414 0.020163434 -0.044558067 -0.10968598 0.1284597 -0.14216655 -0.05244047 -0.065152965 -0.018554071 0.2028742 -0.008068097 -0.29332268 -0.10862009 0.056157324 -0.3501587 -0.036477868 -0.021558257 0.005455168 0.15473288 -0.06284205 -0.022860989 0.24961057 0.16444325 -0.010447116 0.10477913 0.0025716135 0.49622676 0.11280744 0.20157358 -0.23401608 -0.057759307 0.1758502 0.21287341 0.15406036 -0.057835326 -0.1059837 -0.20066509 -0.09511943 -0.026584111 -0.023658376 0.17245576 -0.08738767 -0.00065791304 -0.051274743 -0.008613862 0.030101283 0.23829754 0.22097759 -0.12287797 -0.11612484 0.042584192 -0.15865278 0.18372525 0.15925296 0.011370953 0.09436012 0.051396593 -0.03459708 -0.121994175 4.724222e-05 0.040101886 0.13157181 -0.12800133 0.18450178 0.10062513 0.010590671 0.1369766 -0.058652967 -0.05437723 0.23408824 0.036553957 -0.126211 0.1604027 -0.1546622 0.0828786 0.033571992 -0.19033107 -0.165175 0.05608392 -0.03750379
54 -0.080511026 -0.018741408 -0.0066857077 -0.0778087 0.01817087 0.030440455 0.07381571 -0.034714215 -0.1593438 0.22915569 0.10333955 0.08900133 -0.047419585 -0.07881092 -0.096686415 0.022653732 0.0015234662 0.14350666 0.13883318 -0.08458884 -0.08060644 -0.008713087 -0.3247464 -0.31976447 0.017009338 -0.17190032 0.16341408 -0.013267346 0.0734299 -0.10662682 -0.06747068 0.02957452 -0.026917638 -0.053779006 -0.0054123937 -0.12734057 0.06871737 -0.059934374 0.049038272 0.059407923 0.07826354 0.028595805 -0.0015506364 -0.1235194 -0.040512364 -0.119828805 -0.007874415 -0.078815654 -0.1549928 -0.0032126831 -0.11535041 -0.058615986 0.07480303 -0.21533357 -0.15435748 -0.021927465 0.014321482 0.05476243 0.06758584 -0.13537572 -0.05090455 0.04557282 -0.15547127 -0.034528464 0.08832011 0.070484646 -0.12020885 -0.15606022 -0.016602496 0.016887804 -0.0071610576 0.09026398 -0.009621448 0.04795435 0.27782702 0.06612219 0.063953936 -0.002703585 -0.034401227 0.059024785 0.19266073 0.062247265 0.11104391 -0.09476626 -0.115193754 -0.16908535 -0.018819785 0.060230788 0.10877716 -0.010193922 -0.115806304 0.13581197 0.08722972 -0.17527568 0.23205878 0.09298176 0.080310576 0.0091956975 0.060302123 -0.07824555 -0.14184316 -0.00096135284 0.080635205 0.021663819 -0.09536468 0.097477175 -0.11728161 -0.089776166 -0.013453127 0.020817613 -0.12784997 -0.05818443 0.026489982 -0.0139133865 0.20387398 -0.07361637 0.09985545 0.3343163 9.634356e-06 -0.22473192 0.12696186 -0.00063624355 -0.09408477 0.06772866 0.18159854 -0.18009247 0.00012081432 -0.019582734
196 -0.028530588 -0.047194626 0.032926127 -0.060112733 0.050591473 -0.0037486672 0.05855549 -0.090658836 -0.091646746 0.13963738 0.12023043 0.0012845413 -0.09497917 -0.15522482 0.021668285 -0.17436522 -0.01537866 -0.0025652815 0.12529324 0.07429061 -0.064967066 -0.12545308 -0.0974812 -0.10108118 -0.05870992 -0.04291498 0.08712068 0.028943727 0.09165658 -0.08953473 -0.074480034 -0.14474404 0.05641534 -0.049058393 -0.060645718 -0.19677323 0.032827746 0.017014606 -0.055156905 0.23563069 0.08359889 -0.064880006 0.13918339 -0.09899182 -0.06719597 0.011160326 -0.021133874 0.0119019905 -0.13351862 -0.0076696533 0.01024241 -0.01886557 0.07494618 -0.120715186 -0.16594112 -0.018067164 0.06381758 0.053479645 -0.08641463 -0.12617064 -0.16204722 0.0327358 -0.2043574 0.12761813 0.10561422 -0.0072151064 -0.08840242 -0.020407265 0.059170958 0.07084914 -0.054372832 0.09680803 0.018050686 -0.11427592 0.22873424 0.09004911 -0.046173915 -0.010050089 0.07623414 -0.019140754 0.10300112 0.07218343 -0.08246927 0.020228744 -0.042284828 -0.14172179 0.12474185 0.058489867 0.14982975 -0.06043544 -0.16671929 0.059710894 0.003118895 -0.09303413 0.10039083 0.18848206 0.08290945 -0.024022447 0.08354427 -0.10375926 -0.06717476 0.11787255 -0.048281666 0.03553633 -0.009654027 0.1440961 -0.0641993 -0.04649117 -0.04830962 -0.011165625 -0.031059256 0.036418136 0.03329066 -0.06722304 0.14525145 -0.20114875 -0.024353936 0.13356805 0.018239753 -0.10669608 0.10463151 -0.14749815 -0.0014210981 -0.05010299 0.037490543 -0.2096551 -0.016603934 0.086821906
337 -0.08833909 -0.12690547 -0.059880268 0.055122405 -0.1689371 0.06531822 0.14599028 -0.0041104695 -0.016013348 0.21784653 0.16926743 -0.0012398021 0.016175907 -0.16672595 -0.037206158 -0.18420845 0.067438714 -0.045998786 0.07193681 0.11471353 -0.090971455 -0.08248285 -0.07801942 -0.07581256 -0.1977131 -0.06509727 0.0018360266 -0.023687702 0.18654627 -0.19371513 -0.12271928 0.24272354 -0.08803118 0.045245692 -0.0411019 -0.12666763 0.060653582 -0.06521138 0.1146107 0.24315776 0.019533297 -0.05557036 0.21222 0.061989147 -0.05106259 0.027989509 -0.1117501 0.021503236 -0.073990524 0.03109363 0.040878847 -0.1218359 0.013659068 -0.043526653 -0.16793832 -0.14327787 0.11779263 0.108120725 -0.047333445 -0.18411215 -0.18788749 -0.011730277 -0.015025265 -0.03791599 -0.06626109 0.0241262 -0.117051974 -0.103880145 0.20326346 0.04624903 0.021706032 0.1598325 0.23563963 -0.23104355 0.24009843 0.1433235 0.13538934 0.1465361 -0.032408338 -0.06051945 0.07466134 0.24770556 -0.067175575 -0.044743482 -0.11805591 -0.19083668 0.15993966 -0.03817217 0.2712593 0.0743356 -0.07801867 0.13663419 0.045384213 -0.030815374 0.16902097 0.051972385 0.056153253 0.10675834 -0.046660967 -0.22990416 -0.060733303 0.013653905 -0.04091053 -0.05008018 0.040290665 -0.06614896 0.17383115 0.0027692453 0.0889958 0.04475923 0.025996398 0.124540426 0.14163747 -0.12759049 0.09856828 -0.15520346 0.046891835 0.24497339 -0.12101782 -0.005472536 0.11315874 -0.17995326 -0.03894472 0.009735132 -0.07515871 -0.13735396 0.010855717 0.07888886
493 0.0370054 -0.1163619 -0.068839185 -0.08262563 0.059364256 0.067348264 0.16530384 -0.13740616 -0.0302034 0.15289444 0.1389909 0.022085145 -0.00054080924 -0.18986532 -0.09192937 -0.18614058 -0.051331125 0.062329914 0.103333935 0.059683833 -0.10730691 -0.16911547 -0.17508169 -0.12799464 -0.06422856 0.019051284 0.016173556 -0.026379915 -0.05200577 -0.22940534 0.00090754 0.006614261 0.002713335 -0.024440384 0.0031068856 -0.15612191 -0.014217089 0.13814935 0.041372746 0.08794643 0.06162261 -0.069718376 0.09150181 -0.21027191 -0.045077357 0.041172102 -0.13199198 0.02167198 0.009516095 0.0057310783 -0.008634805 -0.102475785 0.033928327 -0.14466336 -0.13973403 -0.15668806 -0.040565744 0.007209054 -0.09990268 -0.082921356 -0.17698565 -0.033586316 -0.08707126 0.022820741 0.072957546 -0.0065064924 -0.10524989 -0.055586826 0.10719809 0.036851715 -0.019920012 -0.04557217 0.09592254 -0.07651006 0.32685068 0.06899748 0.054437954 0.121166795 -0.028217746 0.032923806 0.027286274 0.08695362 -0.029264377 -0.02960624 -0.04411316 -0.14930551 0.18011892 0.009548781 0.08756539 -0.009890872 -0.11933582 0.12743947 -0.059851278 -0.0776367 0.16585661 0.12644883 0.075650126 0.056379404 -0.019294292 -0.079213426 -0.014391825 0.04026646 0.06297718 0.08666784 -0.04215669 0.11330301 0.019337934 -0.05560907 -0.07722027 -0.027752316 -0.048050057 -0.019025048 0.06336178 -0.13085097 0.119986884 -0.11523352 0.022446606 0.2121657 0.04064398 -0.16888966 0.014577143 -0.1510319 0.027733598 -0.096449666 0.03751308 -0.15917817 -0.08806413 0.10755236
56 -0.08944151 -0.17130296 -0.11932332 -0.113895714 0.022010807 0.0637976 0.19304949 -0.16041872 0.032259505 0.13491355 0.17329843 -0.07196786 -0.057554476 -0.16054443 0.019581245 -0.00945865 0.12523824 0.15859503 0.13702135 0.07603872 -0.08640378 0.012138902 -0.024591543 -0.03855599 -0.18223055 -0.061502196 0.15620692 0.0313718 0.13595527 -0.109335415 -0.18208395 0.08133932 0.057977766 0.10838516 0.0011281958 -0.11475018 0.05782947 0.062434062 -0.14673433 0.21927798 0.12494525 -0.12339558 0.24087588 -0.070905276 -0.058581706 -0.007500019 -0.035918325 0.03879779 -0.15937427 -0.10087367 -0.020527897 -0.010677096 -0.10871889 -0.08341526 -0.23178798 -0.17651752 0.12921007 0.10993331 -0.027187552 -0.076979205 -0.08908506 0.09695446 -0.21705729 -0.23327789 -0.023979723 -0.069838546 -0.0615333 -0.16314577 0.03085999 -0.028736811 0.07358714 -0.08460734 -0.016458439 -0.028902525 0.22559428 0.0076064365 0.0018324786 -0.06187552 -0.049153637 0.050663654 0.22999705 -0.031993903 -0.003599262 -0.19384104 -0.2010393 -0.08552733 0.00027684812 -0.012671662 0.08233826 -0.064470194 -0.07320228 0.1041321 0.1419265 -0.11840995 0.11637943 0.037190475 0.19215532 -0.0530066 -0.009387648 -0.04999484 -0.041686434 0.16050006 0.0013042607 0.13842843 0.096511245 0.06720056 -0.1140646 -0.028475795 -0.018624732 -0.021254359 -0.17222492 -0.10883185 -0.27613986 -0.15621367 0.049068436 -0.046438895 -0.029328227 0.051735293 0.09588109 -0.28021014 -0.01760269 0.025238277 -0.088548236 -0.21970704 0.03049284 -0.087090775 -0.0818612 -0.042041916
167 0.013558604 -0.1856432 -0.114603825 -0.10964727 -0.17137642 0.069374956 0.056234393 -0.0034977507 0.045715 0.20219332 0.100449376 -0.08152593 -0.027169393 -0.1510183 -0.013841784 -0.14926086 0.086817466 -0.14172606 0.10418445 -0.014045553 -0.025480136 -0.079933725 -0.087530635 -0.00916449 -0.19028665 0.10719211 0.17009343 0.06913332 0.33272815 -0.09532712 -0.04531034 -0.013882689 0.003475436 0.034870774 -0.1052082 -0.17348252 -0.07025826 0.15591681 0.035517547 0.09607554 0.18116356 0.10121462 0.14754257 -0.037306797 0.011816743 -0.0008386002 -0.11521387 0.025885075 -0.17286891 0.022039453 -0.01663104 -0.049046848 -0.14475769 -0.13862363 -0.20272912 -0.0733623 -0.05046894 0.13312864 -0.022838328 -0.22652845 -0.21052861 -0.050190534 -0.09052487 0.077355646 -0.063011505 -0.04476482 -0.14633988 -0.03042504 0.10333667 0.02015429 -0.1697292 0.18358126 0.14477386 -0.19235168 0.25961694 -0.030416738 -0.08070865 0.047235277 0.0580064 0.05315027 0.07595331 0.11567852 -0.009985198 -0.121796206 -0.07789587 -0.110580355 0.025575243 0.028055606 -0.008546018 0.007885172 -0.15193051 0.06132586 0.25726557 0.033801347 0.1802372 0.22611715 0.05446504 -0.02126796 0.0121057555 -0.21355152 -0.03786003 0.14254385 -0.2372135 -0.12881498 0.0024707892 0.113341086 0.046729386 -0.06458434 -0.055039648 0.051878415 0.028150031 -0.048239093 0.18724795 -0.07350409 0.18831044 -0.020552155 0.03221362 0.18101113 0.032457814 -0.011702438 0.127876 -0.008516918 0.012970436 0.108798765 -0.11334039 -0.10005343 -0.017367966 0.25879025
62 -0.11279279 0.007862219 -0.015681706 -0.05574482 -0.018533073 0.075131476 0.14486586 0.07162769 0.088106036 0.048084866 0.1422224 -0.0054061012 0.11883525 -0.19266556 0.12717743 -0.07253324 -0.06560119 -0.20668083 0.2065331 0.03582486 -0.18157028 -0.28412625 0.075869024 -0.040566713 -0.06404119 0.016573748 0.122612424 -0.044538252 0.15702645 -0.10835015 0.025169963 -0.0335978 0.06695518 0.03904534 -0.09209517 -0.04271739 0.018197121 0.06551343 0.048729748 0.24140099 0.00040664448 0.01174115 0.18458004 -0.018325455 -0.03864939 -0.103260875 0.037918013 -0.058030616 -0.22322015 -0.09839581 0.0035753713 0.05433307 0.115619786 -0.1747649 -0.13571732 -0.1902632 0.10494889 -0.04376219 -0.11827928 -0.21654963 -0.1274402 0.049723484 -0.15930036 0.06962699 -0.058395218 -0.043933325 -0.03759997 -0.020612417 -0.06103156 0.173251 0.029472867 0.06565533 0.20688194 -0.16501324 0.22704923 0.07724145 -0.16615228 -0.020034978 -0.0037688538 0.13837996 -0.08464956 0.25930342 0.030652715 0.047659643 0.113368675 -0.12447665 0.020467365 0.05474465 0.04586409 0.09647286 -0.07375504 0.23704536 -0.028549343 -0.013036773 0.37991574 0.023769388 0.066919476 -0.12422286 0.18085822 -0.053052753 -0.07675075 0.014086545 -0.127046 0.07871804 0.020885993 0.26609388 0.118178405 -0.115255795 0.008163063 0.13361266 0.12735428 0.030502407 -0.10735967 0.018515877 0.09961616 -0.13352439 -0.040040564 0.17013438 0.07071423 0.013304523 0.16413268 -0.03390535 0.18485947 -0.11235549 0.04319067 -0.118778184 0.061981644 0.12997177
319 -0.14684616 -0.022175873 0.0093960855 -0.04389527 0.026362006 0.019108057 0.028742487 -0.03601233 -0.07266176 0.18615726 0.15724589 -0.042520806 -0.059640206 -0.20441234 -0.023849733 -0.15251216 -0.07239016 0.005220864 0.23099695 0.06000663 -0.1451793 -0.10148013 -0.13063076 -0.07608315 -0.12045771 -0.015858447 0.03389569 0.016965302 -0.05722189 -0.04548873 0.019785 -0.0037852812 -0.014406216 0.07339292 -0.05214354 -0.21119866 0.020703696 0.02150428 -0.08167701 0.15763846 0.10261606 -0.06081563 0.14719044 0.012039553 -0.053585816 0.006579282 -0.042245943 -0.056603875 -0.123452514 0.05945649 0.0019380966 -0.19211657 -0.05764072 -0.20691767 -0.12224399 -0.039953396 -0.032074623 0.086300015 -0.042771187 -0.14375697 -0.19412474 -0.027920492 -0.17117149 0.08113126 -0.012117207 -0.0074429926 -0.14831585 -0.18308575 0.13796589 0.10048614 -0.040344756 0.025692478 0.057782058 -0.17413993 0.23926347 0.15082943 -0.037752382 0.06767384 0.04888792 0.09177177 0.0753755 0.042035613 -0.01125009 -0.084828444 0.016409101 -0.201836 0.14999087 -0.0018251508 0.06603557 -0.12388069 -0.15017326 0.035615105 0.0074316068 -0.122034736 0.17234787 0.13177022 0.052619133 0.06491939 0.09673193 -0.10445008 -0.05275032 0.047677957 -0.08765237 0.1002583 0.025452998 0.093101546 -0.060325935 -0.02941866 -0.09259497 -0.07283208 -0.093159944 0.013734443 0.013063744 -0.1703729 0.09302422 -0.12767287 0.043914195 0.13671991 0.08893581 -0.10829253 0.0025284018 -0.08758274 0.010575692 0.014676921 -0.045350406 -0.11928809 -0.055221688 0.1196735
404 0.19363813 -0.15580687 -0.045889538 -0.045689426 0.047969084 0.2674943 0.008188657 0.0657621 -0.13289946 0.09650918 0.08741444 0.14952087 -0.1650181 0.16639654 0.028449187 -0.09199983 0.057391133 0.05519296 0.1234552 -0.13068031 -0.09351863 -0.055109423 -0.052911587 -0.07073046 -0.08548744 -0.2222539 -0.24447472 0.11751778 -0.086162284 -0.023565535 -0.045908675 -0.19493866 0.15316251 -0.39736804 0.052896794 0.0068562287 -0.19724967 0.43358654 -0.039178178 0.113966584 0.04970901 0.0030199985 -0.061342888 -0.071117796 -0.06625982 -0.051877957 0.0075884485 0.11162023 -0.15165846 -0.04452797 -0.0029775656 0.03228044 -0.036655214 -0.2821855 0.03820829 -0.07040374 0.14709257 0.091367036 -0.15065114 -0.3833111 -0.0112717245 0.09025482 -0.10800699 0.050903372 0.080779225 0.19195364 -0.13476764 0.0046710623 0.08124655 0.27507928 0.308056 0.119943306 0.051788155 -0.22734155 0.44946745 0.084754735 0.051299937 0.09544454 -0.19955045 -0.16495927 0.17625964 -0.12341367 0.12403858 -0.050240193 0.1722903 0.011377147 -0.31357872 0.21313868 0.24161625 -0.2586369 -0.18128332 -0.080047265 0.06499697 -0.29614916 0.21849701 0.055738557 0.054871287 -0.09381664 0.2848532 -0.13238744 0.21380022 0.22385119 -0.06397041 -0.14013429 -0.2378224 0.36911577 0.011211971 0.033083446 0.041696653 0.010868189 -0.25881508 -0.09584204 -0.08935171 0.047298163 -0.19533664 -0.0016871785 0.09021402 0.27763784 -0.23370174 -0.057559077 -0.0044487217 -0.0796508 0.114268504 0.023826571 -0.18738744 0.16556568 -0.012050803 -0.30831477
282 -0.01720047 -0.22564119 -0.08241497 -0.078061976 -0.008338707 0.08446021 0.1318653 -0.12705278 -0.0059995092 0.07496759 0.17898923 -0.009869465 -0.029314408 -0.023533145 -0.140567 -0.10909186 -0.022876244 -0.02044233 0.23386405 -0.026657742 -0.18924375 -0.024975097 -0.22679438 -0.19968529 -0.038404495 0.0066271573 -0.009943083 0.08666751 -0.09414032 -0.14607531 0.04716784 0.118587285 -0.112910315 -0.02246692 -0.06862619 -0.064660214 -0.07608671 -0.07681346 -0.08850924 0.17704272 -0.029732766 -0.1511953 0.10903479 -0.021094577 -0.08431015 -0.021027308 0.03580319 -0.12214067 -0.1779587 -0.042147033 0.13939475 -0.08540859 0.056834504 -0.15460975 -0.1743466 -0.1815853 0.0027987212 -0.010847759 -0.12910245 -0.20117263 0.04570353 0.028461274 -0.09481013 -0.016336216 -0.038272955 -0.16783865 -0.046095587 -0.03863877 0.052123718 0.10603162 -0.026678441 0.06663475 0.0369667 -0.08358925 0.21629669 0.09901643 0.12904938 -0.015960103 -0.053866476 0.114283696 -0.0023661936 0.09250621 -0.032309443 -0.099731624 0.0606943 -0.15703171 0.22506872 0.058693092 0.08546993 -0.003594134 -0.065471716 0.12560317 0.16053893 -0.25674868 0.07587694 0.16324705 -0.021099243 0.095274985 0.09992219 0.006802209 -0.20735152 -0.035559453 0.12176137 0.0040088403 -0.04824832 0.047520135 -0.07820736 -0.31406158 -0.073351 0.03719884 -0.04304452 -0.06370655 -0.01790038 0.017514698 0.11540237 -0.0811849 0.06263547 0.08628496 0.053281773 -0.20747326 0.13838688 -0.1348855 -0.08722816 0.11791859 0.06003571 -0.117694005 -0.032413457 0.0028823363
232 -0.06706344 0.00429764 -0.17113657 0.020429445 0.16972142 0.14184822 -0.0375661 -0.2854591 0.18054469 0.11300989 0.025494063 -0.058781676 -0.12282303 -0.28989595 -0.04105972 -0.026597487 0.04321146 0.091569 0.15248086 0.06133893 0.029003652 -0.011523512 -0.055335537 -0.42118078 -0.078616515 -0.14977731 -0.046786215 0.026115995 -0.006101159 -0.11470607 0.023420304 -0.20480739 -0.09789944 -0.050645664 0.07475014 -0.25597152 0.038163476 0.0070345737 -0.09705034 -0.24638861 -0.024034057 0.059388798 0.18029004 -0.12796977 0.05892535 -0.028894052 -0.073704556 -0.029083079 0.07497376 -0.2571788 0.006664229 -0.20854907 -0.049624156 -0.06338653 -0.24458368 -0.10185019 0.049385995 0.1767627 -0.0282252 -0.20481427 -0.115791254 0.10022811 -0.19965161 -0.034731444 0.06921857 -0.005855003 -0.21655722 -0.13911296 0.20382932 0.15634392 0.03616246 0.126009 -0.105102636 -0.08492556 0.042854287 0.009990529 -0.06668158 0.07149736 -0.074165754 -0.011880991 0.03772241 0.073106505 -0.06752886 -0.07768588 0.12001355 -0.2762571 0.058834422 -0.039544333 0.023492783 0.0004482506 -0.23527706 0.12317323 0.1472476 -0.09761324 0.066550404 0.09137448 0.045658648 0.048398547 -0.0772787 -0.08569091 0.039357424 -0.024053572 0.016230382 -0.050853096 0.22295137 0.14364699 0.22974719 -0.12239586 -0.17298698 -0.0851906 -0.09798069 0.05735168 -0.18057515 -0.15459199 0.2787571 -0.24800184 -0.03397174 0.21951897 -0.1105609 -0.09895541 0.26729006 0.076471716 -0.11054825 0.033831645 -0.0028056798 -0.16083212 -0.08894436 0.11409593
253 -0.012832513 0.0052370476 -0.04802335 -0.117054075 0.010645369 0.07971813 0.04225736 -0.073360346 -0.07575464 0.12568496 0.16417338 -0.04005526 -0.02099691 -0.18214883 -0.11439629 -0.14528589 -0.04564185 -0.031912908 0.1377484 0.058454804 -0.10817088 -0.054873087 -0.11330142 -0.17887193 -0.06965862 -0.07297457 0.084430896 -0.050561693 0.10605156 -0.11673419 -0.052046236 -0.017851897 -0.07177943 -0.14525276 -0.07981189 -0.13217574 0.046127364 0.0071738204 -0.018492516 0.14772405 0.18789843 -0.057905372 0.1626191 -0.060917683 0.020529123 -0.005439377 -0.17077619 0.038071968 -0.063038476 -0.01332638 -0.11342582 0.039213497 -0.0065919477 -0.09056156 -0.087887645 -0.07305435 0.022657365 0.026800908 -0.050849542 -0.11249041 -0.18441875 -0.03334384 -0.23465285 -0.027316079 0.07295235 0.025345108 -0.076795794 -0.13190627 0.052683096 0.03284239 -0.053927112 0.11993655 0.18101032 -0.17476635 0.2025274 0.1677059 -0.050539926 0.03858607 0.051204294 -0.0008080937 0.18438515 0.071061894 -0.18389045 -0.0030411026 0.034819152 -0.08429231 0.13804886 0.0024855672 0.11447466 0.023828212 -0.11156242 0.2040517 0.046898097 -0.13576049 0.1215751 0.106836304 0.013002804 0.13006157 0.047490075 -0.047496017 -0.052009486 0.059571166 -0.030297028 0.08415626 -0.012946609 0.23968512 -0.024789745 -0.03642966 -0.107691325 0.019424444 0.0026925183 0.035188776 0.092218466 -0.077798754 0.13089572 -0.16093399 0.051813226 0.21566062 0.054369077 -0.077270105 0.038708273 -0.023687646 0.06373032 -0.01030895 0.01427507 -0.13425134 -0.0033587918 0.08457521
215 0.018334841 -0.308818 -0.21836062 -0.05479323 0.019689117 0.11920674 0.10870181 -0.07568878 -0.05634037 0.119624674 0.020855445 0.25148094 0.018589975 -0.19146703 -0.13236386 -0.14095731 0.123328455 0.04874253 -0.014887657 -0.10205082 -0.19870141 -0.031503312 -0.06390073 -0.24476114 -0.047840044 0.030622805 0.22050676 0.24593647 0.088318914 -0.24283762 0.04034771 0.065145805 0.06483782 -0.059043128 0.040651813 -0.067862794 -0.029695388 0.16740409 -0.2351735 0.040778093 -0.047445204 -0.055215273 0.106122375 -0.052561767 -0.07091455 0.053518806 -0.002148867 -0.05261066 -0.0906172 -0.23743455 0.09427895 -0.12303301 0.002671354 0.017189689 -0.3176277 -0.17957947 0.029187726 0.016430477 -0.056497835 -0.21623063 -0.0015523478 -0.15224442 -0.09029808 -0.3095824 -0.0054500727 -0.1414246 -0.065698974 0.12455137 0.007825494 -0.14374605 0.18345167 -0.07372675 -0.11214304 -0.18800776 0.1948308 0.2579385 -0.18909316 -0.11794634 0.014518179 0.088893235 0.1806082 0.078922376 0.0014105138 -0.288485 -0.0704104 0.00123814 0.0061483104 0.02910187 0.1311318 -0.06196823 0.10130912 -0.30744419 0.18149129 -0.0072046327 -0.018431544 0.044781655 -0.06571926 -0.06755783 -0.07019173 0.004324808 -0.0865338 0.20804448 -0.10531086 0.19376333 -0.06470753 0.12406849 0.043690864 -0.14354596 0.18004222 -0.15850486 -0.36540234 0.114428006 -0.030773038 -0.108199194 -0.045750704 -0.023942921 0.09694155 0.25961283 0.07500287 -0.042034775 0.29548615 -0.16687237 -0.06987107 0.009386965 0.17617743 -0.0038906392 0.14085124 0.017886143
430 -0.052767333 -0.057650726 -0.08104054 -0.061084453 -0.04526633 0.16555436 0.044344723 -0.14258389 -0.022295563 0.19729853 0.12938102 -0.00965347 -0.116533205 -0.16403486 0.013370066 -0.15452683 -0.022532968 -0.0392846 0.17387696 0.08914358 -0.063546814 -0.08829905 -0.1159676 -0.22837703 -0.10801593 -0.05984776 0.0041599874 -0.04014487 0.096345186 -0.058398563 -0.028111102 -0.058977753 -0.05545674 -0.012995152 0.018579572 -0.22640346 0.0707847 0.10717707 -2.064834e-05 0.09716521 0.080558404 -0.08387821 0.08737914 -0.099996015 -0.04347416 -0.08321271 -0.04019851 0.010006584 -0.1665952 -0.028861787 0.014055575 -0.018241927 -0.076537795 -0.1254553 -0.101473734 -0.13363476 0.11521989 0.08523529 -0.05804052 -0.08415736 -0.15511747 -0.06115661 -0.16587204 0.011967713 0.05558467 -0.021937836 -0.15663089 -0.1072028 0.008820853 0.17783621 -0.0048046666 0.02432934 0.06281502 -0.08086823 0.19868042 -0.00043980096 -0.02373515 0.0752779 -0.028887637 0.07161588 0.054969843 -0.038367715 0.009536821 -0.07299341 0.0136925755 -0.009283878 0.12647527 0.015478876 0.16630724 -0.09677776 -0.096400596 0.07217425 0.08990262 -0.12967466 0.25767875 0.15354009 0.105053745 0.021319594 0.020287853 -0.17144988 -0.13960001 -0.015018115 0.0014185645 0.07221585 0.019542877 0.15917897 -0.069220535 -0.07705823 -0.14845811 -0.032677542 -0.06325497 0.030431248 0.037739865 -0.06708741 0.036304533 -0.11714217 -0.0023158474 0.22902773 -0.029712066 -0.1283041 -0.04818201 -0.020657847 -0.043079387 -0.11901407 -0.08082677 -0.1899425 -0.0052397293 0.04449901
64 -0.013143998 -0.022617627 -0.0024344088 -0.07530148 0.010608982 0.13128425 0.022810452 -0.2169411 -0.10950857 0.108279325 0.060649175 -0.044678014 -0.13353886 -0.23122913 -0.06647373 -0.07445822 0.062784836 0.038466826 0.1112527 -0.0043631466 -0.10186426 -0.036595464 -0.1515591 -0.26016286 -0.027718207 -0.107100606 0.024419205 -0.044728383 0.0039322344 -0.11806006 -0.027023729 0.03743846 -0.010505056 0.018647758 0.026042648 -0.0559588 0.06914434 -0.043481756 0.024376694 0.10203812 0.05426924 -0.098502174 0.0774215 -0.041693047 -0.038691513 -0.085054226 0.0822226 -0.015584651 -0.1268461 -0.092996396 -0.06595542 -0.028717538 -0.07984441 -0.1986599 -0.18366383 -0.15019388 -0.054495122 0.070785634 -0.0378313 -0.10112137 -0.10754625 0.09075541 -0.048371494 -0.015701095 0.073605105 0.07687533 -0.13856584 -0.14337273 0.0019728623 0.12781417 -0.02078936 0.1531545 0.109385826 -0.1422106 0.30075973 0.076044664 0.1712518 -0.11073806 -0.063015625 0.01738078 0.13562785 0.018292893 -0.048828915 -0.014705952 -0.13443537 -0.15694955 0.025383895 0.21336575 0.19623531 -0.011154454 -0.09115759 0.12829886 0.1195049 -0.1796253 0.34638098 0.15544942 -0.0048516686 -0.038306814 -0.06076287 -0.04120049 -0.054179985 -0.11802025 0.13827105 0.10424581 0.03507672 0.0036890388 -0.02308922 -0.047515158 -0.1791134 -0.02659426 -0.05799694 0.04138993 0.02089922 -0.015277646 0.21216896 -0.115280464 0.07470444 0.22082405 -0.08597589 -0.12060332 0.061442528 -0.10057914 -0.11524074 0.0032190254 0.14209531 -0.20397803 -0.044490416 -0.010236745
259 -0.15151492 -0.006858376 -0.046248138 -0.070353895 0.028112413 0.032649484 0.07491722 -0.07391755 -0.01816149 0.15100041 0.19114931 -0.05606222 -0.008578369 -0.15683068 -0.04280812 -0.11108433 -0.041535813 -0.01603437 0.18256345 0.07401395 -0.13801642 -0.10523608 -0.12757121 -0.12459835 -0.066322096 -0.0063520507 0.11958154 -0.07603675 -0.047403354 -0.097878166 -0.05074815 -0.045600552 -0.00031903054 0.0799951 -0.04439379 -0.02120516 -0.026549632 0.0012360625 -0.08331193 0.09565653 -0.03226477 -0.13337658 0.26217628 -0.09339771 -0.061793577 -0.035124548 -0.0956679 -0.048123576 -0.014732936 -0.06421504 0.10566407 -0.006422243 0.0021620297 -0.02877476 -0.13388194 -0.20955312 0.009083395 0.06062627 -0.028375542 -0.16242763 -0.1596265 -0.038902804 -0.14217244 0.018939517 0.04921907 -0.06174978 -0.03483917 -0.14474778 0.016804291 0.022835378 0.0027630818 0.034359526 0.09982684 -0.02317958 0.26983875 0.020444041 -0.062035132 0.08789759 0.14262104 0.06667477 0.19384088 0.08185728 0.03320775 -0.17044291 0.00147234 -0.27320996 0.03544137 -0.011095653 0.041131377 0.008817197 -0.08008118 0.036905635 0.00082784623 -0.1362462 0.20340014 0.12007465 0.13788207 -0.071261 0.09500961 -0.12620978 -0.039560985 -0.08615129 0.051547356 0.051360253 -0.03990535 0.1192255 0.049843423 -0.01549062 -0.13728483 -0.00014143361 -0.09018873 0.031166412 0.087096915 -0.110436864 -0.0013048047 -0.217932 -0.03517246 0.23154557 0.024199616 -0.028092036 0.008362351 -0.094469525 -0.0060710185 -0.06404357 0.03784364 -0.17523976 -0.007838028 0.03975244
298 0.0026415382 -0.04123866 -0.058472943 -0.007741154 -0.045266077 0.078143634 0.10155814 -0.13383628 -0.00019060457 0.13053487 0.22926658 -0.010842869 -0.07141144 -0.070000045 -0.059753615 -0.18845408 -0.029134585 -0.014836282 0.18466143 0.011858216 -0.09138789 -0.1968546 -0.1173876 -0.11600209 0.0013619846 0.013594901 0.050292317 -0.033700123 0.112112366 -0.061400335 -0.06373236 -0.04383463 -0.00967959 -0.09751502 0.06198674 -0.16690835 0.043971386 0.054729182 -0.0072315177 0.06324341 0.124107964 -0.03128259 0.073639736 -0.13475886 -0.0646004 0.016310211 -0.07480525 0.09232191 0.017089922 0.00030529575 -0.034198094 -0.061662327 0.01139438 -0.1499877 -0.14862387 -0.11661106 0.0054516876 -0.026610043 -0.08753948 -0.1597878 -0.13836174 -0.023268247 -0.15864958 0.02610501 0.026552098 -0.04557817 -0.10786929 -0.10046189 0.09412035 0.19062033 -0.08645672 0.027798621 0.1568795 -0.21119784 0.31656817 0.009615648 -0.037663057 0.0108297765 0.08058238 0.050829757 0.114714436 0.07349888 -0.087158166 0.06517796 -0.10454447 -0.22579525 0.02506321 0.0037684483 0.027695574 0.006738981 -0.1942726 0.12407619 -0.044160284 -0.1642946 0.18639967 0.17750019 0.067953035 -0.052137837 0.014293081 -0.0057654274 -0.047616765 -0.001962277 -0.007894958 0.03843244 -0.019409908 0.12197916 0.04292831 0.0012593473 -0.053383775 0.015918365 -0.048444435 0.024720177 0.029751468 -0.14694405 0.087507114 -0.16107316 -0.06702287 0.14830385 -0.045646094 -0.18884093 0.0054721646 -0.08775842 0.0007996726 0.013742193 -0.06242251 -0.08598137 -0.011714803 0.011362486
251 0.04117735 0.024279844 -0.065703794 -0.160695 -0.09633337 0.0020907582 0.14568636 -0.17143114 -0.05862072 0.14796096 0.20971912 0.038234975 -0.06690967 -0.14234856 -0.076440364 -0.23657855 -0.083050966 -0.06462982 0.14517345 0.053335506 -0.26230377 -0.09059815 -0.123677544 -0.24222033 -0.027075153 0.03133237 0.0834222 0.015560598 0.061954454 -0.12978992 -0.0431621 0.0064906003 -0.04821476 -0.05914874 -0.13237804 -0.12239901 0.12194176 0.054850083 -0.1356372 0.09117795 0.102544434 -0.1144427 0.19478004 0.009971856 -0.01962611 -0.040891014 -0.05879047 0.0071086627 -0.113756776 0.089581534 -0.049347956 -0.12600796 0.056362975 -0.13280185 -0.10853762 -0.055936147 -0.012304452 0.025102433 -0.11609912 -0.20942152 -0.17897788 -0.05777853 -0.15722263 0.09024905 0.11713188 -0.04203689 -0.20387064 -0.041060824 -0.0010915034 0.112887725 0.05168002 -0.028154625 0.06402406 -0.08911877 0.26373497 0.04938139 -0.09309073 0.0028690412 -0.04901899 0.0752686 0.1530399 0.0802797 -0.061897766 0.04273391 0.021681707 -0.1573256 0.07994266 0.07314078 0.08782927 0.02262671 -0.08742197 0.013775754 -0.05038769 -0.08037448 0.25936297 0.13406484 0.04424488 0.035029903 0.11727093 -0.11243875 -0.058080062 -0.052923415 0.020871835 0.093782544 0.042071152 0.12789582 0.0024836208 -0.087544 -0.098431714 -0.09508362 -0.056323506 -0.040793687 -0.039114513 -0.048792623 0.18983886 -0.056045987 -0.02105622 0.1244793 0.042733032 -0.04069238 0.07079114 -0.016769733 -0.04716777 -0.03597481 -0.05092799 -0.1417488 -0.0030881148 0.13891895
50 0.014902846 -0.029234475 0.078485906 -0.08720325 0.094895765 0.08877352 0.10910769 -0.03903545 -0.16981414 0.07615058 -0.023282303 0.018592376 -0.24179403 -0.18268947 0.012849115 -0.17502059 -0.025470397 -0.071504 0.10122062 0.035824735 -0.03428244 -0.20164762 -0.04668103 -0.013468692 0.018157078 0.010083671 0.13941102 -0.031407896 0.17342035 -0.09400485 -0.076531656 0.024493987 0.057001792 -0.014804485 0.013435328 -0.18356855 -0.06259617 0.09898879 0.119200155 0.14124809 0.04235883 -0.057071164 0.17224462 -0.03900176 0.08627435 -0.07402793 0.0023721831 0.02296752 -0.17432725 -0.20343915 -0.005821717 -0.03431394 0.002280927 -0.25457457 -0.057078697 -0.15001936 0.047173467 0.14905924 -0.12785837 -0.19637169 -0.19454126 -0.0053256187 -0.20159833 -0.07038249 0.082665086 0.044558104 -0.013213671 0.0046372074 -0.1297694 0.0969949 0.076076 0.10127931 0.07935376 -0.115288295 0.33668092 0.082343854 -0.02221576 0.013960591 0.070127115 0.022161093 0.1507493 0.18109336 -0.07607245 -0.048994202 0.014967732 -0.059882443 0.15392274 0.03987499 0.20367214 0.042673852 -0.06346384 0.065855905 0.028153613 -0.0737649 0.124956354 0.1636081 -0.08333202 0.07706126 -0.07490811 -0.13681339 0.13076206 0.0215317 0.0032468839 0.027757961 -0.084638536 0.16112825 -0.12930799 -0.05137381 -0.03966644 -0.009142381 -0.011678845 -0.014022275 -0.007079405 0.062426746 0.089479 -0.24871732 0.049585376 0.13691197 0.07817491 -0.077765815 0.08809144 -0.093821704 -0.051831644 -0.12271015 -0.036264002 -0.11467824 -0.06574832 0.123024054
293 -0.14385593 -0.059628505 0.0035760992 -0.11745382 0.04552287 0.02108799 0.065285236 -0.07851995 0.046150986 0.15348916 0.24672984 -0.05274069 -0.04931855 -0.14995934 0.036949374 -0.17282577 -0.0037477028 -0.13210064 0.25569496 0.044940762 -0.123374924 -0.10987639 -0.14696297 -0.058409978 0.0075490195 -0.07502916 0.04867908 0.052151628 0.10066659 -0.027551591 -0.04448148 -0.0044236793 -0.05680421 -0.04345497 -0.041644022 -0.11856674 0.05085982 0.08384149 -0.11715724 0.17043367 0.118971094 -0.06421671 0.09857279 -0.043029558 -0.106123805 0.012595972 -0.14451769 0.039860334 -0.11976566 -0.022377474 -0.070243046 -0.13710728 0.015908657 -0.10816579 -0.09670342 -0.079674214 -0.1221978 -0.0053005726 -0.07096779 -0.19552915 -0.15257573 0.061697043 -0.10808286 0.121825814 0.08364004 -0.027465012 -0.13047619 -0.14460225 0.049637977 0.07195564 0.07490866 -0.028844174 0.09810067 -0.06697338 0.28779423 0.028322775 0.062577166 0.04372401 0.051113136 0.018371304 0.057266917 0.07654914 0.030368453 -0.032381523 0.012802002 -0.18661343 0.06428828 0.20209359 0.08843276 -0.07196461 -0.13371573 0.12572877 -0.014614648 -0.088564806 0.17860532 0.18665646 0.1359401 0.11528588 0.05891993 -0.035024703 -0.11393793 0.014049812 -0.057229407 0.07409592 -0.008708578 0.22492006 -0.037632816 0.02239149 -0.09009631 -0.07881095 -0.071302526 -0.06517057 -0.042075045 -0.07159832 0.13912095 -0.13757738 -0.046292104 0.15490687 -0.06809025 -0.09059943 0.024741797 -0.03791874 -0.040949184 -0.10579404 -0.0463782 -0.18873613 -0.02849742 0.059613373
246 0.041546755 -0.02732511 -0.12738347 -0.081615485 0.0072057913 0.00071296416 0.08954061 0.047154102 0.036700975 0.0021033224 0.19586845 -0.012316745 0.043271016 -0.23535027 -0.0790132 -0.008339047 -0.059845604 0.06610118 0.1970678 -0.0024692928 -0.13863815 -0.14707695 0.03994217 -0.20230569 -0.01014386 0.01701064 0.03330585 -0.06593272 0.20005539 -0.11448447 -0.10824268 -0.071224764 -0.052246667 -0.006373617 -0.10331763 -0.09786035 -0.11090416 -0.016585417 -0.017663054 0.36843374 0.09817157 0.001637742 0.2996687 0.019812386 0.004597054 0.11517045 -0.0066246213 -0.014227146 -0.10083934 -0.020332906 -0.02651331 0.0034026657 0.047789875 -0.06281136 -0.16283214 -0.105502985 -0.035151742 0.0021211288 -0.08225158 -0.16961345 -0.10662453 0.033420194 -0.1653802 0.09927772 0.0050295936 0.049102474 -0.14699084 0.043532565 0.036474526 -0.039366476 0.0038529583 0.16099374 0.18104614 0.013553398 0.21286927 0.008123653 0.0028015613 -0.07648037 0.07408565 -0.075500764 0.067697264 0.09772156 0.0063147563 -0.023396092 -0.14080514 -0.10776473 0.14333907 0.094177745 0.091445275 0.04702029 -0.15839288 0.095538564 0.020446219 0.01159855 0.06152584 0.21065748 0.10336989 0.11250118 0.028728724 -0.05666842 -0.06643488 0.067940176 0.13928178 -0.013908857 -0.05301686 0.12326986 -0.062729575 -0.032360036 -0.05681549 -0.1844511 -0.0704845 0.0036565766 -0.023228543 -0.038578566 0.14859428 -0.10662087 0.079515815 0.20242515 0.12194043 -0.21677887 0.087564185 -0.082417056 -0.007395505 -0.049695715 0.030869322 -0.26000082 -0.0064795814 0.06766184
177 -0.06859236 -0.070974626 -0.030395748 -0.18914418 -0.010649679 0.08914149 0.09063953 -0.13481791 0.0660557 0.10870363 0.22206464 -0.03331931 -0.037999857 -0.19772238 -0.011390867 -0.1359904 0.011457007 0.015952641 0.141494 0.053023525 -0.0962745 -0.10737939 -0.071436174 -0.10333489 -0.16884792 -0.047928788 0.058730077 0.0041786744 -0.061876085 -0.07517423 0.008974748 -0.07751476 0.014461688 0.000295502 0.004256611 -0.2008169 0.093772285 0.024229584 -0.17006671 0.16951166 0.07281473 -0.12643825 0.23229402 -0.1158731 -0.07705643 -0.05409106 -0.0049665207 0.056026608 -0.09367622 -0.043318044 0.016526736 -0.06316536 -0.040272042 -0.13596117 -0.092361376 -0.12543672 0.1298474 0.08489771 -0.08121277 -0.08454244 -0.12205552 -0.04437925 -0.18483809 0.048647866 0.0062817424 -0.07382541 -0.016291032 -0.07892942 0.092629775 0.06347761 -0.04580309 0.025394682 0.101570554 -0.12032633 0.25978547 0.047954712 -0.1274698 0.026614157 0.03514996 0.059628528 0.07987624 0.060763698 -0.10709124 -0.021455415 -0.04551179 -0.18702821 0.06820302 0.02337557 0.10669633 0.1193247 -0.19806077 0.006944943 0.07531908 -0.10279854 0.1495452 0.052744363 0.1551011 -0.015429428 0.042934746 -0.08237636 -0.046052754 -0.042084523 -0.029246187 0.09654537 0.049480714 0.07702895 -0.0051028016 -0.04947659 -0.040307667 -0.07947379 -0.051760506 0.00587331 -0.05271981 -0.06882704 0.075900406 -0.15462069 -0.09003675 0.077406 0.0021549175 -0.22376196 -0.016080242 -0.089781776 -0.061578963 -0.07353178 0.07130173 -0.1867464 0.024033112 0.021821298
186 -0.05276151 -0.11815001 -0.09510083 -0.03138747 0.041055392 -0.04248141 0.050419055 -0.08277702 -0.095248476 0.1408784 0.1979246 -0.04839094 -0.07297032 -0.17761074 -0.11363364 -0.16239128 -0.04173062 -0.05077627 0.15222968 0.023150632 -0.101328716 -0.13091183 -0.0908397 -0.20445189 -0.03565584 -0.027922343 0.16478443 -0.046424482 0.07329943 -0.08778037 0.01625235 -0.07639402 0.048349597 0.11415557 -0.0722522 -0.088415526 0.024660032 -0.07185811 -0.06758614 0.15727434 0.041394882 -0.16731352 0.17178869 0.032564405 -0.033930108 0.060778152 -0.07814146 -0.058581557 -0.097705014 -0.046041567 -0.0022590528 -0.03985985 0.008635166 -0.18743996 -0.09654602 -0.012995833 0.04755647 0.13018264 -0.01680566 -0.2287525 -0.06172787 0.02836403 -0.15592603 0.0075982716 0.12830377 -0.16230568 -0.107478134 -0.0037041137 0.098779805 0.15666367 -0.062637314 0.093074076 0.0726155 -0.11055423 0.19879884 -0.036030825 -0.05469488 0.05568583 0.032030057 -0.038616866 0.106644 0.034181323 0.03798227 0.041346326 0.07702732 -0.16217244 0.058481533 0.058703914 0.053773746 0.07785736 -0.18154833 0.09976224 -0.04539559 -0.15886576 0.20851217 0.16251966 0.08559512 -0.06131138 0.047376715 -0.05129622 -0.08851393 0.022749847 0.029777342 0.057877395 0.030288238 0.09816497 -0.049775504 -0.18977854 -0.071589135 -0.050505336 -0.09132487 0.051208384 0.0058480464 -0.085955955 0.10512266 -0.21492267 -0.075101644 0.1286387 0.021244323 -0.12222186 -0.010126518 -0.08434537 0.092581555 -0.083908856 -0.04253254 -0.12968236 0.036012042 0.07713175
33 -0.002577143 -0.07294808 -0.1767861 -0.06299217 -0.03406727 0.027482776 -0.008617636 -0.1377992 -0.06782481 0.21156111 0.26278573 -0.028294029 -0.18278486 -0.10172886 -0.012581835 -0.10328221 0.06127182 0.015249057 0.17174011 0.14574786 -0.12069247 -0.1344791 -0.12826553 -0.10586892 -0.119894534 -0.071981095 0.059557166 0.01837916 -0.030765915 -0.096542485 -1.5906888e-05 0.022875827 -0.007548686 -0.004530255 0.015969835 -0.18272687 0.07787766 0.06405107 -0.023179758 0.054376207 0.059783272 -0.03559022 0.14727384 -0.08546233 -0.05449313 0.026387272 -0.07197366 0.0028036528 -0.15838242 0.03851823 0.0132893985 -0.01753545 -0.01349086 -0.1028288 -0.034766134 -0.14161557 -0.04974532 -0.045482125 -0.15115584 -0.16816194 -0.18317458 0.05333537 -0.11795282 0.031632584 0.05596571 0.10446426 -0.117257744 -0.06263616 0.108768545 0.15995775 -0.067715906 0.016656311 0.08755646 -0.07392645 0.26074475 -0.001472214 0.0006497501 0.06555012 0.025553433 -0.019037275 0.10956251 0.050278284 -0.12728013 -0.06995914 -0.02679451 -0.11383373 0.06449931 0.12535994 0.113781705 0.03228114 -0.15050301 0.13489181 0.042530898 -0.17897426 0.23105839 0.24729547 0.09383861 0.03135427 0.0466487 -0.12427641 -0.17325982 0.05738275 0.06306303 0.030069536 -0.029093482 0.07191417 0.025719156 -0.038933896 -0.084477775 -0.10621268 -0.053057447 -0.014007257 -0.008696865 -0.09973432 0.04857193 -0.12807882 -0.03345949 0.14606966 -0.026914077 -0.048470303 0.05577742 -0.09212813 -0.048935026 -0.11783675 -0.03189425 -0.0686131 -0.07861927 0.100352354
375 0.021650571 0.007140613 -0.14091808 -0.09322517 0.10577454 0.008775512 0.065551825 -0.11291018 -0.05697811 0.16327372 0.1822662 -0.07796463 -0.081925884 -0.2264807 -0.050998937 -0.14673983 -0.05360849 -0.040106375 0.14687362 0.042933192 -0.1392354 -0.12620567 -0.1945478 -0.06851825 -0.11209282 -0.06821956 -0.06670144 0.10914978 0.023007276 -0.0565593 -0.03795769 0.020854373 -0.007677685 0.0028563228 -0.07027518 -0.19924106 0.03492681 0.015332455 -0.067345805 0.17266303 0.16871594 -0.08524903 0.051016763 -0.16129105 -0.13247325 -0.039274823 -0.084545426 -0.04728718 -0.052940223 0.008464912 0.005080412 -0.06693867 -0.07151901 -0.12036162 -0.05014815 -0.0955329 -0.058543887 0.1327542 0.0059182243 -0.16626658 -0.16328992 0.0475031 -0.18145876 0.07406347 0.07768925 -0.06755942 -0.11077777 -0.086650826 0.15999883 0.040271796 -0.10365604 0.035538245 0.12957194 -0.05342876 0.16743116 0.049678467 0.054979123 -0.008064762 -0.016562786 0.00968114 0.1292579 -0.059114605 -0.04853597 -0.08128496 -0.06829293 -0.1336059 0.10867092 0.06117079 0.012233785 0.08189017 -0.1723238 0.020508409 0.044142067 -0.111441426 0.11708033 0.029216925 0.1094218 0.068111844 0.02591822 -0.20365019 -0.034169853 0.05948659 0.03043153 0.15170087 -0.009896719 0.13405834 0.03077301 0.014629486 -0.072563685 0.017393999 0.03595296 0.0108026145 -0.017075215 -0.05024701 0.12470465 -0.16929199 -0.036021456 0.24303827 0.0069965897 -0.2130497 0.05160423 -0.11108597 -0.027783124 -0.020943806 0.094124235 -0.102224015 -0.02913128 0.005521039
94 0.0033136376 -0.14870264 -0.059261713 0.0023258375 0.069963746 0.14048678 -0.0134372385 0.0040017706 -0.060543593 0.043985542 0.19471738 -0.12854525 -0.010121459 -0.12248628 -0.046532836 -0.13999611 -0.071711265 0.0010270454 0.17256486 0.12845397 -0.10535632 -0.14007752 -0.06788809 -0.20698956 -0.12696408 -0.035843875 0.08029326 -0.049365442 0.059992526 -0.0939041 -0.0074130674 -0.08084657 -0.054856773 -0.021895347 -0.099270396 -0.18929306 0.008358949 -0.050877657 0.029373147 0.120408416 0.07138271 -0.12822346 0.16428722 -0.07313568 -0.09789799 0.060461197 -0.017059634 0.06279875 -0.11839055 0.066487074 -0.034007065 -0.06504168 -0.0056131454 -0.09621363 -0.14115141 -0.00037929878 -0.01993016 0.13332759 -0.039074987 -0.10938728 -0.13590959 -0.030665832 -0.17445369 -0.038760494 0.115922175 -0.06285148 0.005036084 -0.13069469 -0.03067645 0.024489861 0.022066709 0.005701813 0.15547803 -0.14873846 0.30919638 0.053978052 -0.026556749 0.108884886 0.06704449 -0.027621828 0.14906424 0.037862018 -0.019047141 -0.091424875 0.01869426 -0.17756036 0.12175588 0.025922969 0.04343302 -0.002592543 -0.117571145 0.06264553 0.041595556 -0.15567094 0.15358645 0.20062418 0.022895304 -0.0066470266 0.061045807 -0.011603266 -0.05527385 0.105607264 -0.06571134 0.0940271 0.109067574 0.19562158 0.056633454 -0.036381926 -0.019307312 0.024827791 -0.006519166 -0.026168749 -0.029692428 -0.103708565 0.037172392 -0.21069923 -0.057897467 0.18813495 0.016043808 -0.084487006 -0.051819123 -0.08204926 -0.09277068 -0.07784447 -0.07205271 -0.21094158 -0.052077834 0.017583711
323 0.18587929 -0.042113453 0.018264815 0.035923097 0.08334637 -0.0452889 0.19900312 0.027177818 -0.095129855 0.19037917 0.21159641 0.16292161 0.008449956 -0.0639404 -0.09962649 -0.2861812 -0.013510875 -0.021121336 0.07869268 -0.02784294 -0.06181309 -0.0803055 0.036248907 -0.14304434 0.053968504 -0.10066191 0.01735583 -0.013223993 -0.0837191 0.09340841 0.015316352 -0.17151071 -0.108754545 0.026082935 -0.13661742 -0.013936467 -0.12649375 0.17053987 -0.074305266 0.45022294 -0.15397552 -0.2191129 0.121709794 0.049315363 -0.23503749 0.15208827 -0.08403386 -0.070702255 -0.20587353 0.08169757 0.04404174 0.0020965778 -0.0009050727 -0.22277741 -0.20663524 -0.13558997 0.02159472 0.071623415 -0.13585709 -0.23979464 0.057722498 0.14223932 -0.2673298 -0.017975496 -0.044068675 -0.10036237 -0.027541397 -0.33901304 0.1025972 0.14463995 0.08504144 0.12224374 0.022625206 -0.14476235 0.232872 0.07738562 0.08967838 -0.05554441 0.17533314 0.096624784 0.141273 0.08394164 0.024283517 0.020364793 -0.12787756 -0.04504856 0.19218016 -0.18461907 -0.070384555 0.01662302 -0.13367999 -0.0022275317 0.19369261 -0.19184108 0.04362317 0.12086354 0.017056761 -0.050805096 0.12616134 0.066184305 0.0373105 -0.01680525 0.056582756 0.14185067 0.089049004 0.0336906 -0.028593818 -0.20006537 -0.15315436 -0.16510116 -0.12555343 0.13721147 0.01187909 -0.011154794 0.059370738 -0.2081302 0.18936849 0.06143003 0.023569833 0.030915866 0.17770745 -0.09763958 0.058515776 -0.021901887 0.036343843 -0.033391673 0.072624914 0.07739617
202 -0.05404095 -0.05055488 -0.007657501 -0.12467139 -0.013421877 0.06959064 0.12403444 -0.17578273 -0.04215699 0.23944879 0.11034628 0.033262596 -0.033865605 -0.18101974 -0.049153972 -0.11687164 0.0063311355 0.02372878 0.19573987 -0.03521783 0.032119703 -0.1367573 -0.18852751 -0.35608083 0.09006151 -0.10192926 0.045543056 0.073984355 0.05364473 -0.22622699 -0.16411519 0.020369519 -0.08382186 0.0074511725 0.14270788 -0.13169938 0.14245547 -0.10724003 -0.019735247 0.14471176 0.068852596 -0.10449334 0.08780464 0.0015182834 -0.004434421 0.0009188626 0.023073312 -0.003970783 -0.105789065 -0.055935744 -0.085469544 -0.012737948 -0.036523417 -0.11577649 -0.14737882 -0.052486647 0.0058210865 -0.06874146 0.0069970433 -0.0727703 -0.06761593 0.13140377 0.02958153 0.00405671 0.018365292 0.078767166 -0.121336475 -0.16453584 0.03526128 0.25396395 0.06584274 0.16192786 0.097125046 -0.009267744 0.2748188 -0.023916425 0.008631304 0.030439286 0.020971043 0.06724038 0.071125865 0.010779049 -0.040120102 -0.08674634 -0.13762337 -0.186278 0.03015102 0.12573935 0.19195305 -0.014127792 -0.13592933 0.171886 0.12545308 -0.10109167 0.18976448 0.21910875 0.09221991 -0.018762592 0.030583572 -0.086990595 -0.114049084 -0.16573021 0.0075344555 0.07885888 0.05546664 0.03691062 -0.06614923 -0.094559446 -0.15809257 -0.0844827 -0.015175348 0.05347969 0.029211238 0.028689068 0.1894473 -0.049558356 0.124990016 0.1330787 -0.12228984 -0.16563931 0.085822776 -0.08656817 -0.11573834 0.113447204 0.16246133 -0.1618601 -0.015857872 0.0058285687
468 0.0053411657 -0.07638447 -0.09266586 -0.06321257 -0.03885034 -0.03531246 0.13310692 -0.094609834 -0.08570777 0.14779393 0.16538465 -0.044583257 -0.06550071 -0.25204313 0.062081195 -0.16405904 -0.06891278 0.022665821 0.08837706 -0.0508587 -0.021203766 -0.072866224 -0.010088504 -0.1618802 -0.074003235 0.02433074 0.07828657 -0.1185844 0.066461384 -0.15044372 -0.063791975 -0.014223832 -0.090483144 -0.060923137 -0.04911282 -0.082704164 -0.007743697 -0.04214151 -0.0021593666 0.16264218 0.052617352 -0.1025869 0.11038784 -0.12788272 -0.09968911 -0.0490942 -0.053254385 0.007032808 -0.09990683 0.028378993 0.010809493 -0.03529535 0.0029910116 -0.08075989 -0.053584464 -0.011831563 -0.026607888 0.08849237 -0.1192442 -0.14959462 -0.15261833 0.1579234 -0.14277096 -0.047562387 0.024773806 -0.10364751 -0.04560483 -0.17650475 -0.044845592 0.12332708 0.010009231 -0.04738576 0.16726673 -0.1578978 0.33854818 0.020747324 -0.049188923 0.07739529 0.037778854 0.116037905 0.15737171 -0.025190635 -0.082259566 0.0011390493 -0.04875491 -0.23367912 0.17696708 0.057420667 0.145397 0.04669467 -0.087447345 0.07106315 -0.03838784 -0.082996905 0.1804412 0.22571483 0.038182136 0.09174945 0.04259023 -0.080372185 0.044774946 0.0653412 -0.052769758 -0.006007699 0.0694144 0.101005 -0.05822165 -0.060000625 -0.10177679 -0.04787543 -0.012508608 0.021414481 -0.071963444 -0.090458535 0.094637506 -0.08897753 -0.050568245 0.19521944 -0.013767276 -0.0982647 -0.028528683 -0.05485994 0.058310263 -0.11253284 0.031934615 -0.28312826 -0.039617512 0.024207456
23 0.012249275 0.018878417 -0.09244675 -0.03684045 0.03321286 0.048003435 0.090083174 -0.0554053 -0.117826894 0.085865535 0.22994187 -0.06700965 -0.0800775 -0.17251758 -0.04493733 -0.17977169 0.060311384 -0.0055233273 0.12793447 0.009558057 -0.17900787 -0.14677162 -0.17555103 -0.1368966 -0.020259716 -0.009154188 0.03643191 0.087433636 -0.031504955 -0.11217179 -0.05161184 0.022204628 0.017484779 -0.010192613 -0.05880056 -0.19446577 0.064434 0.0025377276 -0.07171565 0.11391359 0.046664838 -0.088323 0.11302374 -0.07800466 0.00525302 -0.029390603 -0.007040746 -0.0018096141 0.007636478 0.054715935 0.028090725 -0.030228985 0.068259574 -0.06071789 -0.07061568 -0.122047625 -0.007109322 -0.06628679 -0.099647135 -0.12031523 -0.14031148 -0.0747535 -0.13263917 0.08704312 0.053176742 0.07709249 -0.20589253 -0.21884122 0.13297841 0.018257601 -0.022900844 -0.035067763 0.1010513 -0.16991138 0.31830263 0.12062308 0.014754345 0.01243119 0.0671161 -0.026086932 0.16772565 -0.02209821 -0.0898154 0.019825775 0.022170596 -0.25078827 0.05928988 0.022215283 0.07432349 0.023065597 -0.12185146 0.07547518 0.0797139 -0.15358377 0.16291405 0.11557413 0.0062327357 -0.0029016044 0.03959165 -0.14446206 0.04745857 0.07561104 -0.021041319 0.15838455 -0.005148788 0.14960898 0.011104781 0.01079869 -0.045598663 -0.0011384129 -0.003849869 0.07747554 0.024714706 -0.03992922 0.1154707 -0.1358533 0.0054660933 0.20540068 -0.04385558 -0.14004938 0.043448042 -0.11513545 -0.08146483 -0.057022043 0.038036194 -0.2489031 -0.018481521 0.10313879
5 0.010002312 -0.119565435 -0.08357293 -0.18175653 0.13215478 0.08276827 0.13564424 -0.17473033 -0.025826622 0.2612145 0.099022835 0.022542862 -0.060279798 -0.146839 -0.051452886 -0.15758438 0.007092814 -0.077582754 0.14886846 0.12123145 -0.08992911 -0.045512658 -0.071463756 -0.20233212 -0.16398436 -0.04597458 0.049051564 -0.0793513 0.02768607 -0.10587236 -0.026600163 -0.066633135 -0.0065220296 -0.06181534 0.011897682 -0.18185191 0.036381803 -0.035531737 -0.09752125 0.15028207 0.11311579 -0.1995436 0.19844964 -0.06271158 -0.10472728 -0.0104061 -0.02514467 -0.034333445 -0.012626136 -0.09270837 0.02301506 -0.032346975 -0.022517769 -0.16182823 -0.074827485 -0.14850049 -0.032477517 0.10738436 -0.08692606 -0.12229239 -0.19073822 -0.032730505 -0.17474401 0.07127792 0.044687778 -0.073449455 -0.03519127 -0.17852668 0.1420818 0.099690385 0.06814758 -0.027655987 0.14996517 -0.07893327 0.25813335 0.05464239 -0.08268731 0.061577164 -0.04692115 -0.008139979 0.14777572 0.06406518 -0.026191795 -0.13712174 -0.042714573 -0.157588 0.06612006 -0.032193474 0.07410526 0.070589215 -0.16130786 0.09466958 -0.020998077 -0.11826017 0.28793672 0.070729 -0.016260594 -0.038768064 0.0437749 0.03274354 -0.002375866 -0.02152279 -0.0053777243 0.065222524 -0.018495273 0.07162436 -0.18857963 -0.07942305 -0.055220984 -0.03720474 0.0033041374 -0.006155793 -0.017512612 -0.03666379 0.03678052 -0.1984987 0.079928085 0.08056675 -0.0035132712 -0.15559034 -0.012632035 -0.028437639 -0.01562961 -0.06203941 0.039207544 -0.12857512 -0.011211522 0.03821541
401 -0.048005845 -0.045806356 -0.10159 -0.101466596 0.094700016 -0.026223324 0.07786125 -0.052772067 0.010236237 0.08655948 0.19267851 -0.09384292 0.016431766 -0.22721072 -0.02095668 -0.22575076 -0.11074131 -0.0048662396 0.1572735 0.0018419463 -0.16359341 -0.12170696 -0.068371065 -0.12502111 -0.1053211 -0.107104935 0.09661573 -0.037202027 -0.03300927 -0.11539535 -0.113769606 -0.08977248 0.020915989 -0.015486714 0.045664433 -0.14192577 -0.0039036344 0.012110566 0.025510022 0.17009148 0.082045466 -0.08936161 0.20485419 -0.13093908 0.03423805 0.030009689 -0.04995879 -0.03767376 -0.09239999 0.024463287 -0.016800527 -0.07663556 -0.008057016 -0.10153962 -0.132033 0.0192366 0.08399574 0.11561172 -0.05550112 -0.10548014 -0.08257415 -0.011519237 -0.13227238 0.099393934 0.11326149 -0.12355777 -0.100194685 -0.030991668 0.1318361 0.14524782 0.07223207 0.029573012 0.1239908 -0.08539408 0.24266736 0.034481607 0.030382141 0.023585506 0.012807436 0.04307587 0.014885468 0.03886514 -0.04394298 0.056976657 0.013024483 -0.1751263 0.029992081 -0.012767872 0.055235445 0.009115967 -0.25073195 0.11549651 0.07404692 -0.12810984 0.21122992 0.23572986 0.12413454 0.043457266 -0.012641754 -0.059245143 -0.03889085 0.10071177 0.009212755 0.060938172 0.05046944 0.16000327 0.04277549 0.026841696 -0.04624236 0.048189726 -0.0006648573 0.006501073 -0.09736554 0.0070579695 0.055390004 -0.13839717 -0.009026134 0.12211445 -0.017087396 -0.17509136 0.0006865928 -0.068297885 0.015498709 -0.06644309 0.011760244 -0.2288572 -0.16826327 0.089894675
140 0.04374019 -0.0750837 -0.019256929 -0.10238439 -4.3229174e-05 0.0078185955 0.19638191 -0.0903585 -0.10669719 0.027957162 0.15638688 -0.082768895 -0.12327577 -0.18647814 -0.06555499 -0.18934785 0.088049956 0.01640947 0.11840732 0.0734541 -0.10704539 -0.14364943 -0.14902209 -0.089906394 -0.055976532 -0.048360758 0.073566034 -0.1375977 0.06474673 -0.11157485 -0.11779347 0.006377553 -0.09471741 0.04716354 -0.018802868 -0.17415309 0.06664372 0.047046427 0.030304752 0.12649874 0.13179034 -0.09102238 0.13360636 -0.013813906 -0.15072095 0.0013188118 -0.0110033685 -0.040049482 -0.11171546 -0.016777411 0.07971396 -0.105710454 -0.03894184 -0.08303073 -0.1678853 -0.11912027 -0.024022186 0.049418885 -0.11399464 -0.25584626 -0.12833866 0.016884923 -0.14579192 -0.030286303 -0.029999612 -0.040972132 -0.017767586 -0.04413437 0.13317247 0.18806836 -0.035371978 0.0048363367 0.14093575 -0.081528775 0.23870808 -0.01839908 0.00125087 0.09351457 0.02223686 0.09207133 0.06585861 0.031167494 -0.2021074 -0.20860088 0.054470774 -0.098319605 -0.041873485 -0.007388357 0.08880183 -0.012930444 -0.19341995 0.14336286 -0.09585766 -0.15717945 0.22692715 0.13394187 0.010892176 -0.043905817 0.01766551 -0.03375979 -0.04407195 0.08617951 -0.06765383 0.012273033 0.104229555 0.22765961 -0.08421275 -0.065008625 -0.15519336 -0.0024374728 0.005896373 0.070067495 0.005635912 -0.07600933 0.10751891 -0.1212205 0.045296736 0.13467032 0.063684516 -0.24061354 0.00917088 -0.066128075 -0.0058260737 -0.09887343 -0.015792623 -0.11911433 0.045867395 0.09036784
485 0.034670837 -0.13553514 -0.0353742 -0.101860724 0.05452423 0.05014228 0.09358592 -0.14811654 -0.023493517 0.17301916 0.112545036 -0.023436768 -0.050707757 -0.22390181 -0.059880644 -0.23778284 -0.018312443 -0.12989417 0.06140815 0.13022982 0.0013267389 -0.15817967 -0.054359313 -0.1400504 -0.13489038 -0.041098237 0.17252626 0.066677436 0.076536566 -0.024904681 -0.014382195 -0.12088699 -0.03218608 -0.008413416 0.039311644 -0.217614 -0.039139662 -0.09566166 -0.07884912 0.15604624 0.061607625 -0.024315722 0.11639252 -0.12342378 -0.11231772 0.057615165 -0.06533105 -0.009363828 -0.09913933 0.028144978 -0.022290515 -0.023593316 0.02243622 -0.17280565 -0.10016215 -0.045625858 0.054603633 0.030370992 -0.098852724 -0.15285653 -0.26733258 0.014272716 -0.1956955 0.016783247 0.11433679 -0.062574945 -0.06361601 -0.06382789 -0.055044696 0.044099115 -0.020657102 0.08567793 0.13364203 -0.15777738 0.3105849 0.006074254 0.02389367 -0.067123696 0.0005033447 0.08799984 0.11993835 0.00025465907 -0.10160381 -0.016897572 0.035344373 -0.22749123 0.06750385 0.04066546 0.12672861 -0.006669316 -0.08602091 0.11089541 -0.00011649003 -0.10138119 0.16240934 0.14749196 0.14561747 -0.04748318 0.06440638 -0.03723462 -0.05038857 0.010293123 -0.16737853 -0.0039133993 0.055217214 0.044512406 0.010633349 -0.012835669 0.026524182 -0.058575023 -0.04558307 -0.08874239 0.007916535 0.014620183 0.06841361 -0.17823811 -0.08074031 0.14752276 0.054231465 -0.09657182 -0.0148583865 -0.1414278 0.05042587 -0.16654953 0.031595495 -0.19551241 -0.03727027 0.13291591
75 -0.08281989 0.019099602 -0.082898 -0.14306404 0.01965483 -0.027648387 0.018113574 -0.06746619 -0.02025541 0.08986 0.17522801 -0.009002947 -0.06791302 -0.13658704 -0.11255586 -0.10961266 0.024715697 0.008153103 0.13971628 0.042498633 -0.06916272 -0.12728253 -0.10687604 -0.1453501 -0.08189698 -0.018950291 0.022012366 -0.09763621 -0.0394094 0.0064791557 -0.081678785 -0.10347274 -0.108416356 -0.017852334 0.0025597753 -0.20131066 0.086517334 0.07907163 0.007224916 0.1815867 0.11606537 -0.06330964 0.2592313 -0.17964515 -0.054835774 0.0038005395 -0.0896834 0.0062438534 -0.07611167 0.05633268 0.002649934 0.024158902 -0.013106683 -0.100691445 -0.15391551 -0.081190884 -0.0377748 0.012705968 -0.092358485 -0.084073044 -0.117652014 -0.016959451 -0.18239218 6.9193455e-05 0.07750144 -0.03253199 -0.11007252 -0.048989072 0.036001094 0.013906417 -0.035744514 0.15926625 0.04049373 -0.07747912 0.27062675 0.055077463 -0.02161893 0.044547793 0.049550038 -0.015552265 0.11250103 0.059536934 -0.06845549 -0.09297186 -0.11637088 -0.10799317 0.054860923 0.058030054 0.09536218 -0.06328574 -0.14772406 0.087301396 0.051916804 -0.16263327 0.1154033 0.19534807 0.06780271 -0.01717387 -0.018278597 -0.047371205 0.004844839 0.03197764 -0.036831595 0.16982296 0.040973928 0.12849824 0.032396603 -0.1532442 -0.018044125 -0.05632743 -0.104089685 0.027046537 -0.061507497 -0.027740203 0.046097867 -0.19463369 0.041762363 0.15983444 0.008346847 -0.122370586 0.073831275 -0.14703886 0.037810557 0.013360429 -0.022467997 -0.11853572 0.021278176 -0.0016636631
