1113 128
1006 -0.33036762 -0.31980819 -0.048210192 -0.17900144 -0.37430832 0.11838864 -0.74297476 -0.23381495 -0.24986719 0.10548837 0.35820875 0.052343354 -0.16307281 0.099531822 0.18126233 -0.070285119 -0.51552153 -0.26886815 0.26133841 -0.047459982 -0.023191007 0.24040078 -0.00035142791 -0.11417907 0.29532579 0.1225803 0.34447831 -0.10459508 0.29895911 0.28364429 0.34989744 0.093800224 0.11266944 -0.016134067 0.17438295 0.031857152 0.043387558 -0.091993727 0.042288583 0.14035815 0.33561286 0.095701784 0.039746653 0.16578747 -0.30123106 -0.070333071 -0.13380741 -0.025559714 0.15080945 0.13713607 -0.29111242 -0.024408821 0.30332026 0.58847612 -0.23974396 0.38076842 -0.40071806 -0.35276842 -0.15092573 -0.062278934 -0.2979725 -0.0076562064 -0.30129123 0.15270747 -0.00076518068 -0.23155604 0.29748788 0.095120154 -0.19128667 -0.054265033 0.15651125 0.047934741 0.091348276 0.17615063 -0.24712335 -0.057220478 -0.089868024 -0.29370952 0.35045412 0.038048349 0.33256337 -0.012795309 0.65473169 -0.28022385 -0.16826257 0.11930388 -0.051230785 0.048706841 -0.17882672 -0.21008362 0.24153459 -0.50456792 -0.18976811 -0.092747115 0.065596111 0.32413831 0.14231668 0.061720222 -0.3977282 0.12497454 0.18340333 0.17459674 0.13870926 -0.15578634 0.16497721 0.38321245 -0.0094833104 0.27292272 0.21575642 0.031140501 -0.16820227 0.27967432 -0.10605179 0.11772881 -0.39739406 0.34981424 0.39081362 0.068175547 -0.18769422 0.075541005 0.62158328 0.16691417 0.11451519 -0.43087295 0.023062589 0.041119959 0.41602433 -0.070385225
512 -0.17615443 -0.29500344 0.18850045 -0.085085101 -0.36531156 0.37904602 -0.47240937 -0.26902947 -0.45712656 -0.14888641 0.20913848 -0.085404865 -0.052168343 0.12233767 0.12992446 -0.093790181 -0.53752583 -0.1819277 0.36776087 -0.34605786 -0.13874814 0.39705399 0.084067315 -0.30192581 0.20574664 -0.15427722 0.45007423 0.032552533 0.40549105 0.58759844 0.16362551 0.173338 0.18775585 -0.13067299 0.10545427 0.11591571 0.11163948 0.23923984 0.18830661 0.2237661 0.26296058 0.037344597 -0.10374892 0.32576722 -0.26176816 -0.0014901895 -0.093459949 -0.17846614 -0.044710081 0.13788307 -0.55312753 -0.039397344 -0.0046556653 0.49069649 -0.17253259 0.3667126 -0.42210057 -0.60153455 -0.24359123 0.23569167 -0.34417167 -0.044525534 -0.38397363 0.20409654 0.024005312 -0.13029799 0.50727367 0.49154538 -0.30210346 -0.18281935 0.26840666 0.16766578 0.18088447 0.099111646 -0.36230373 -0.035402421 -0.3673529 -0.27048591 0.051038153 0.25228801 0.20870298 -0.13079356 0.49452353 0.21928246 0.031200515 0.19583744 -0.14676982 0.13454746 0.039606582 -0.045784261 0.1393048 -0.36929458 -0.18608789 -0.20674495 0.14153709 0.13546988 0.050737441 0.40563351 -0.11298557 0.098346308 -0.012752077 0.47234583 0.33521885 -0.42415544 0.041321605 0.18565868 0.21286871 0.14334206 0.028636632 -0.1291049 -0.29503205 0.28453207 -0.25873318 0.12922584 -0.42537034 0.45816323 0.28464425 -0.006851905 -0.12923414 -0.070195466 0.40889883 0.20436633 0.028146185 -0.49593735 0.11560395 -0.031872649 0.09334188 -0.043375652
859 -0.22342706 -0.36822495 0.18895218 -0.17637937 -0.3554844 0.44924659 -0.38953152 -0.15807341 -0.4979088 -0.024731752 0.29017195 0.034433663 0.13706575 0.19258989 0.1616047 -0.17387511 -0.50377077 -0.087060519 0.61425143 -0.39742199 -0.2265344 0.44590583 -0.026585419 -0.19550827 0.096468262 -0.068062119 0.49418682 0.022174489 0.29540837 0.47728315 0.24202551 0.022348352 0.068076991 -0.06566906 0.15763271 0.11822275 0.055242587 0.22320031 0.17358233 0.36813584 0.1477361 0.029948926 -0.22827648 0.29458633 -0.21253955 -0.037033536 0.0034314133 -0.15972288 0.064429156 0.047749668 -0.56224096 -0.229113 0.081511252 0.42758131 -0.20239769 0.5022133 -0.21740359 -0.48052558 -0.21467456 0.24578987 -0.40187582 -0.043180227 -0.30269194 0.34852874 0.02662294 -0.15452813 0.33822545 0.30367893 -0.17895858 -0.093302839 0.15711536 0.080929987 0.1215482 0.048379906 -0.30657268 -0.027715983 -0.37086597 -0.29352179 0.12861761 0.1662104 0.45403177 -0.1018136 0.42976227 0.32657269 -0.11035825 0.21895707 -0.18622895 0.05280365 -0.019308195 -0.036905967 0.085746884 -0.39353526 -0.18562917 -0.25790566 -0.11432872 0.012634409 0.031344764 0.40795448 -0.19371748 0.0027055005 0.045174994 0.31367892 0.35930064 -0.41347447 0.09018375 0.022217354 0.12016017 0.3204979 0.080825597 -0.1507577 -0.40683347 0.34601998 -0.22457118 0.070081398 -0.40084869 0.41459444 0.3625741 -0.11613775 -0.17372224 0.0075920993 0.24705495 0.25420892 0.23350362 -0.56045079 0.34544823 -0.043858252 0.094051681 -0.059816509
506 -0.31066889 -0.36378723 0.43283552 -0.1402162 -0.45275348 0.36244512 -0.55935508 -0.29204565 -0.33649132 -0.094357803 0.14502028 -0.031858448 0.017008999 0.13655235 0.19146672 -0.10983758 -0.5709793 0.034424908 0.42138788 -0.22933868 -0.32512572 0.41314918 0.093109928 -0.16958129 0.069500931 0.076137684 0.50364262 -0.088903725 0.30610779 0.51547921 0.26145121 0.12165058 0.17906904 -0.06539727 0.18900558 0.076056607 0.1286772 0.26636875 0.17774075 0.34150946 0.24091233 -0.056360122 -0.11498094 0.42279258 -0.22785829 -0.0099618454 -0.033018034 -0.11365931 -0.051408611 0.073222287 -0.59256148 -0.14643741 0.066477194 0.23439033 -0.32870141 0.55208564 -0.36068591 -0.46782973 -0.1027432 0.34513378 -0.26149067 -0.042914312 -0.39248797 0.22856776 -0.011670959 0.040602617 0.42052034 0.49756393 -0.26732069 -0.19428572 0.12928987 0.17184663 0.0640302 0.039206874 -0.32831278 -0.019969055 -0.27010205 -0.2438336 0.026371809 0.27219757 0.1198826 -0.18775447 0.48960105 0.26630756 0.0090283463 0.2309034 -0.13436724 0.055564519 -0.02705889 0.0029713509 0.20884554 -0.47249404 -0.20749842 -0.18072473 0.17513846 0.13900854 0.09999419 0.33215946 -0.21665849 0.17002814 0.038804788 0.43266189 0.24051137 -0.42684692 0.0095082857 0.05901625 0.078671001 0.22204143 -0.046016905 -0.17445832 -0.43404365 0.33325392 -0.28365329 0.12774786 -0.34407029 0.25594467 0.29144928 0.040641956 -0.44182107 0.018133843 0.39044112 0.31080461 -0.020064671 -0.52135444 0.24179006 0.012964086 0.14523619 -0.070002139
839 -0.15793613 -0.21191488 0.16376099 -0.11477312 -0.33236006 0.47408354 -0.51880634 -0.18353654 -0.44214085 -0.050726332 0.36333957 -0.057220839 0.12379142 0.1871442 0.12259092 -0.058498725 -0.5544554 -0.17683241 0.41124481 -0.31420588 -0.21354207 0.4559741 0.019858558 -0.23420197 0.2432339 -0.0064930096 0.57958502 -0.018744949 0.26544449 0.53249735 0.18852878 0.30559137 0.13828339 -0.036856007 0.1084361 0.27319896 0.16750771 0.18313189 0.1321775 0.32350791 0.2928791 0.012836843 -0.11639725 0.34236488 -0.17193663 -0.027834674 -0.20154031 -0.21368794 -0.0033396163 0.082285471 -0.59466237 -0.11351769 0.017118821 0.38881034 -0.22816762 0.39389524 -0.4724353 -0.65724969 -0.23365313 0.1947545 -0.30285874 -0.075557813 -0.35197291 0.10663537 -0.06145633 -0.10916736 0.44853184 0.43004119 -0.18440817 -0.13354044 0.22154704 0.21850546 0.16825166 0.11138282 -0.1771837 0.010082443 -0.33480355 -0.10333733 0.14344518 0.29802841 0.17224388 -0.10107721 0.55565286 0.30696598 -0.029778402 0.16804115 -0.17048803 0.18312341 -0.16631414 0.018021148 0.15442431 -0.36256832 -0.18875752 -0.27330369 0.076260298 0.10401718 0.0014062931 0.48014963 -0.21558347 0.084547997 0.085472979 0.41949493 0.34440491 -0.27171147 0.077994421 0.20392472 0.16068701 0.12551989 -0.083061166 -0.19438703 -0.42428043 0.21958859 -0.29551083 0.21024537 -0.33967376 0.39858451 0.28552502 -0.05087769 -0.15888013 -0.12751862 0.38957816 0.26155451 0.056074064 -0.53646106 0.19808415 -0.085485421 0.12248809 -0.033165414
823 -0.2303112 -0.40274316 0.051068086 -0.12391116 -0.29149735 0.45458937 -0.63120818 -0.24703878 -0.37858462 -0.093251131 0.29648462 0.063402116 0.0057011228 0.08879669 0.12660837 -0.063835509 -0.47538117 -0.1193377 0.35540226 -0.31491649 -0.40045905 0.25882509 0.18743171 -0.13130262 0.19218095 0.049358923 0.56761241 0.066254079 0.27104333 0.53015167 0.25531885 0.18746221 0.22045602 -0.06613332 0.10527813 0.19828007 -0.0010588864 0.43378544 0.07924968 0.42165643 0.32754612 0.17754532 -0.1474708 0.26225522 -0.32537591 0.024990834 -0.19049968 -0.20197231 0.12173258 -0.087155558 -0.67841816 -0.082760029 -0.012414157 0.44494161 -0.18906905 0.37371325 -0.25891513 -0.54395288 -0.19862348 0.29004362 -0.37663621 -0.08983665 -0.31424269 0.26327282 0.048435722 -0.11318164 0.37350202 0.38323665 -0.24337228 -0.093915343 0.22140223 0.24656916 0.1811406 -0.087399565 -0.24107888 0.0066977087 -0.35779291 -0.25145599 0.019883588 0.076148443 0.17094947 -0.15507497 0.5755893 0.18358552 0.10255302 0.20209084 -0.11386057 0.13389878 0.049020536 -0.055950712 0.17459022 -0.43000251 -0.27383032 -0.23856907 0.204016 0.15784626 -0.01470947 0.31569394 -0.22534746 -0.023163375 0.11351415 0.36296567 0.31659275 -0.39341372 -0.079431862 0.13621593 0.21169747 0.2230268 0.053651903 -0.16637288 -0.25096691 0.41720983 -0.29324147 0.16709271 -0.31476083 0.41018319 0.2635836 0.029481452 -0.069143213 -0.024648905 0.35705364 0.23729034 0.0038902981 -0.41922638 0.26836267 -0.14993665 0.044929087 -0.054675281
178 0.27445701 -0.53617257 0.013195559 -0.15076596 -0.38870686 0.3107104 -0.14263523 -0.40393907 -0.040442564 0.11493769 -0.043490265 0.018122405 -0.047444843 -0.085511424 -0.22775511 0.053789698 -0.36241007 -0.094564758 0.082842343 -0.0038940948 -0.042662602 0.15423535 0.50158578 -0.22410448 0.53727025 -0.046376027 0.25242221 -0.076565549 -0.015701208 0.13539413 -0.036896579 0.12568067 0.050464287 0.07715597 -0.055421334 -0.077381663 0.21213704 0.091650613 0.23040776 0.32848048 -0.064605318 0.25886655 0.16097954 0.20591535 -0.13519014 0.14032103 -0.2435341 -0.18181847 -0.14509116 0.25271514 -0.24868928 -0.41916528 0.31195354 0.17450303 -0.030908911 0.25811821 -0.30774388 -0.14963603 0.17111439 0.27276361 -0.57346249 0.38329443 -0.097751886 -0.34076175 -0.40861386 0.35853922 -0.18238585 0.12436589 -0.022882372 -0.23386192 -0.048720051 -0.13161997 -0.16515043 0.19457017 0.011518183 -0.1855171 0.1782811 0.15218368 -0.20427169 0.079363666 0.21705918 0.11601522 -0.083759889 0.42829773 0.037134536 0.3511565 -0.015648289 0.35183847 -0.27957121 0.17354468 0.16413186 -0.26724747 -0.23472413 0.129511 -0.0083878171 0.25562432 -0.16162279 -0.024223369 -0.079885051 -0.037388019 0.21171252 0.30101028 0.17004114 -0.21524133 -0.21920882 0.16739307 0.11343379 0.14963424 0.11776668 0.28429249 0.27685335 0.47903046 -0.061708279 0.38300464 -0.0063214507 -0.1759451 0.092472091 0.10305651 0.12472887 0.15569814 0.38510519 -0.096033357 0.23243865 -0.11064048 0.1841255 -0.050845858 0.24997933 -0.41311994
1004 -0.13025461 -0.88177341 0.18492077 -0.20292754 -0.18675873 0.14118302 -0.83476937 -0.26985022 0.083027281 0.12104654 -0.36185467 0.3812643 -0.10796498 0.2930046 -0.059662953 -0.12288792 -0.1259526 -0.14715372 0.041625753 -0.099946968 0.2379649 0.11812633 -0.34808165 -0.46968696 0.29780212 -0.13795017 -0.068739429 0.0056334841 0.22882661 -0.48309436 0.41206899 0.16110098 0.17275754 -0.2850326 -0.11417267 -0.18775456 -0.18486641 -0.036421373 -0.37889281 0.090393379 -0.43452021 0.39325687 0.13132767 0.15983307 0.23030937 0.086849891 -0.25466198 -0.53299278 0.17563191 -0.32785103 0.20639792 -0.31968349 1.0730195 0.06034828 -0.5681113 0.68611705 -0.29094693 -0.097758248 -0.040403564 -0.2401312 0.18091808 -0.038631681 -0.44721058 -0.057252951 -0.070625804 -0.034900341 0.19940692 0.53067207 -0.11680754 -0.68008292 -0.10430298 0.20820282 -0.097507201 0.045610189 0.27810374 -0.22207704 -0.4318423 0.13204022 0.53502923 0.21584024 0.69225585 -0.32011867 1.056893 -0.3872728 -0.066380128 -0.72634596 -0.028241778 -0.33953476 0.04061833 -0.1658832 0.55269784 -0.50514412 -0.26306963 0.30647141 -0.096730158 0.32692844 -0.67539561 0.47255102 -0.35896462 0.45418206 -0.059456676 0.016111508 0.39894384 -0.56281179 0.25081652 0.2649385 0.40866187 -0.044314694 0.03334124 0.21035108 0.048331492 0.36331749 0.066644229 0.40027472 0.3059462 -0.064841248 0.65525103 0.25139853 0.64452058 -0.16537927 0.48053113 -0.24209422 0.041471492 -0.19575562 -0.13941537 -0.029630838 0.78058803 0.4317117
501 0.11973074 -0.39675584 0.22485738 0.25352666 -0.21671814 0.63742757 -0.23379697 -0.32788607 -0.1160217 0.23400435 -0.02291186 0.4473114 -0.051598165 0.34948453 -0.20566243 0.20159417 -0.32257229 -0.17577931 -0.033469167 -0.1416966 0.18885118 0.14461654 0.48461419 -0.088661499 0.11297648 0.32877377 -0.01954956 -0.038111433 0.13682213 0.25713035 0.045814157 0.45010841 -0.036802076 0.18113799 0.20071912 -0.36230344 -0.28660372 -0.041645493 0.003087183 0.6293754 -0.069394805 0.20412487 -0.16170195 0.099746659 0.0513984 -0.21797249 0.020757508 -0.082411796 0.017512875 -0.15751809 -0.14012736 -0.067201875 -0.0079320781 0.091317952 -0.092288755 0.30871138 -0.24160551 -0.18430682 0.054240916 0.39698714 -0.32385221 0.026789738 -0.18924144 -0.10063598 -0.023286937 -0.29100472 -0.077239104 -0.34200123 0.040031888 -0.43218511 0.19966252 -0.31973678 -0.14239371 0.2332046 -0.13156098 0.099069208 -0.057548933 -0.071128011 -0.080446064 0.27341706 0.3888633 0.20780523 -0.33155259 -0.075029843 -0.025864437 -0.51438248 0.018432161 0.42627656 -0.13887647 0.18496668 0.18937017 0.011615092 0.15881917 -0.054468181 0.063299648 0.058657601 0.095239662 -0.12884213 0.20577314 0.13691665 0.013801295 -0.085775882 0.19871253 -0.044253338 0.19028346 0.23585701 0.068412475 0.17702103 -0.12286947 0.16380994 -0.10820838 0.13763179 -0.148121 0.1100278 -0.090024985 -0.11415476 0.22467558 0.086109124 -0.084858686 0.12188028 0.087936275 0.035890836 0.15153916 0.34881964 0.015070416 -0.24786049 0.28180876 0.32725877
301 0.1477363 0.20220774 0.20014583 0.20661102 -0.0051090918 0.33298776 -0.00080482184 0.11081754 0.12310112 0.10065399 0.067653313 -0.10952199 -0.051281758 0.095823817 0.01246083 -0.42910606 -0.22618176 -0.052485172 -0.10590839 0.067409374 -0.032974917 0.12069626 0.28806138 -0.072427586 -0.13634704 -0.23857361 0.28921932 0.13425113 0.14520989 0.0048975004 -0.036137663 -0.0026065509 -0.10059734 0.2554526 -0.096156336 0.13398665 0.1114027 0.20557664 -0.17928344 0.19501016 -0.06230982 0.093359821 0.055109289 -0.11655527 0.3899402 0.061940294 0.063789926 -0.11316185 0.045575291 0.15226148 -0.25965062 0.20647807 0.17583056 0.0039112819 -0.12631632 -0.083995104 -0.27876803 0.077547245 -0.010171878 -0.054607783 0.10588824 -0.086957105 0.033949431 -0.24431001 -0.27834553 0.081927851 0.088745438 0.034287952 -0.16536418 -0.051131345 0.026630471 -0.2607038 0.12909876 -0.044555232 -0.14032707 -0.097050674 -0.028532356 -0.10319977 -0.1499562 -0.15398285 -0.086020678 0.058466151 0.3355144 -0.075071253 0.081420526 -0.045229476 -0.1916486 0.031185618 0.05871154 -0.037894927 0.26954764 -0.032124653 0.14083818 -0.097395331 0.021662142 0.16023815 0.0033811785 -0.13467756 -0.14202705 -0.06929259 -0.13567534 -0.20671803 0.0089260815 0.0022102613 -0.066163756 0.05624029 0.11788172 -0.11282766 0.0083463788 -0.13304716 0.15303555 -0.25285658 0.02360997 -0.097387716 -0.00025559953 -0.10458499 -0.013116817 -0.020720208 0.029231297 -0.0078933612 0.036901351 0.1556787 -0.047684152 -0.096136756 0.097783953 -0.15613453 -0.034129668 0.016460059
133 0.20663352 -0.10729578 -0.03981325 -0.061836846 -0.02930288 0.21972026 0.25729254 0.19858494 -0.099638142 0.0048575811 -0.061939485 0.09587492 -0.10560164 0.20176443 0.1995347 -0.15923505 -0.047072779 -0.059108738 -0.038587261 0.067876711 -0.1789491 -0.034854345 0.069546185 -0.13777371 -0.2494522 -0.080843076 0.018535048 -0.040682591 -0.045702178 0.05216904 0.077788353 -0.060580812 0.13137554 0.10125582 -0.16111685 -0.077811643 0.092877351 0.019644743 -0.31142256 0.23203541 -0.13719283 0.18138295 -0.082774051 -0.20630787 0.20797326 -0.043915633 -0.080943726 -0.27333564 0.31912395 0.16080241 0.019663451 0.040636327 -0.23050658 0.096646845 -0.14781319 -0.038216077 0.080862015 -0.17263672 -0.1232323 0.0062536583 -0.23966922 -0.14821 0.068557657 0.10530019 -0.23955043 0.38438103 -0.076092027 -0.12452333 -0.043407843 0.080253281 -0.053343531 -0.17783949 0.0058496068 0.24265839 -0.10686267 -0.17259529 -0.21765958 0.13029715 -0.016717134 -0.038147617 -0.002206895 0.07971441 0.038076144 -0.12739424 0.0026148688 -0.15828045 -0.010797621 -0.0090428991 -0.021399286 0.074761428 0.037397597 0.078945421 -0.1400208 -0.048521351 0.19388735 -0.046764553 0.05794508 -0.15041538 0.15277876 -0.19183025 -0.27152994 -0.12824593 -0.050347753 -0.12248278 -0.0010579011 0.071113996 -0.19154038 0.0076885251 0.32621449 0.032689076 -0.19718277 -0.059033688 0.078814596 0.057496294 -0.071435772 0.050801378 0.16136312 -0.001251651 -0.023047578 -0.090656057 0.096428774 -0.017093584 0.082697168 -0.3662878 -0.053916767 -0.044623349 0.043984354 0.12701358
1005 0.19120906 -0.32168433 0.19444889 0.060859744 -0.29905719 0.12120134 -0.27014253 -0.30596635 -0.33759841 0.40746588 0.097398125 0.27996534 -0.045667127 0.48455143 -0.13530277 -0.2604976 -0.131658 -0.51350808 -0.051438048 -0.084779315 0.01267448 0.30801907 -0.04187876 -0.23755869 -0.0086488556 0.0096271355 -0.15190241 -0.35276046 -0.26192388 0.018202491 -0.31602433 0.37822872 0.026356213 -0.12813239 -0.22303943 0.11028953 -0.22928362 -0.25835013 0.44006479 0.24351403 -0.19794242 0.26403517 -0.25257447 0.3385897 -0.22803268 0.14534238 -0.11765767 0.068383485 0.18064396 -0.0018683311 0.23024328 -0.27323693 0.48008841 -0.0062261876 0.16323482 0.30253991 0.051526457 -0.26543599 -0.28714386 -0.2023544 0.079458244 -0.14327417 -0.1026085 0.17219228 0.033258237 0.10491529 -0.22608349 -0.04464335 -0.11818562 -0.41725168 -0.1183672 0.27194104 0.22762674 0.22222523 -0.24343657 -0.21744451 -0.30477172 -0.09255679 0.30879951 -0.49031383 -0.053424865 -0.11478239 0.10608248 -0.0010741878 -0.3883357 -0.10279394 -0.088652074 0.23446685 0.098208174 0.11796112 0.11140807 -0.26755604 0.20227729 -0.036900192 0.13318323 0.20810951 -0.20226499 0.011500444 -0.39890361 0.076227523 0.21152413 0.27666843 0.53385109 0.10353613 0.51034784 -0.20189619 0.12304506 0.07024917 0.42106453 0.40672484 0.032575849 -0.052991323 0.026883887 0.42482504 0.1030568 -0.092678279 0.38905153 0.14044397 -0.16324659 0.28202632 0.13615696 -0.15157372 0.033379685 -0.11345216 0.24479605 0.028824233 0.39131507 -0.26323858
432 0.17075874 -0.047157992 -0.12212615 0.010845519 -0.0009261106 0.073647425 0.23369229 0.05280507 -0.13695396 0.042499259 0.064121686 0.19137508 -0.081305839 0.10146197 0.084980212 -0.086239636 -0.12019849 -0.001481714 -0.043874089 0.1144218 0.036017418 0.087392636 0.38526863 -0.21822532 -0.099868 -0.25458923 -0.022091977 0.0058806404 0.056651685 0.0072188657 -0.097849913 -0.26642138 0.060487889 0.16735955 0.023359375 -0.19522777 0.0090521807 -0.013250441 -0.20504394 0.12639318 0.011738722 0.10373507 -0.011603407 -0.18123126 0.30138573 -0.010900994 -0.020369608 -0.08891809 0.3085084 -0.0018623339 -0.052815676 0.044184316 -0.097627953 0.13673721 -0.04335501 0.034684684 -0.24007471 -0.15836558 0.038484614 -0.0064384681 -0.054157734 -0.088456199 0.014563056 0.13420248 -0.1134248 0.10877104 -0.017221848 0.020004369 -0.23898947 -0.034117866 0.12513757 -0.21854959 0.18761301 -0.098122492 -0.21392989 -0.1033126 -0.1371506 0.19527428 -0.038443729 -0.055903733 0.010654099 -0.060387529 0.14908144 -0.030906865 0.078346111 0.030179217 0.0060323766 0.081342772 0.017128782 0.17083122 0.095623322 0.11971267 -0.10777815 -0.076007254 0.034843162 -0.00048665798 0.042671423 -0.0010870915 0.10384246 -0.1655442 0.035821583 -0.25088653 -0.0066532926 -0.0071910066 0.024399402 -0.060343575 -0.078231797 -0.074627966 0.096281596 0.068896912 0.0019566556 -0.186079 0.032301109 -0.12907179 -0.013101647 0.043642182 0.26859665 -0.035454709 -0.079064004 -0.21557879 0.060358893 0.067852333 0.068152785 -0.14056025 -0.074898757 0.02814888 0.046670195 0.16852956
1010 0.1274499 -0.31286934 0.10820708 0.084740803 -0.31180286 0.1213031 -0.54205734 -0.046422835 -0.24982524 0.24867564 0.24224907 0.16108067 -0.14819619 0.37746978 -0.16528209 -0.12314306 0.15074317 -0.43173736 -0.17947586 -0.25590953 0.091579892 0.25474536 0.0354135 -0.44813129 0.0071113482 -0.089336723 -0.044742215 -0.28562674 0.2169873 0.09465605 0.018930973 0.37144116 0.17914498 -0.0033594982 -0.27402288 -0.013379803 -0.49178606 -0.084015764 0.088794 0.28838813 0.06821806 0.099696033 0.24346466 0.16044882 -0.20383242 0.19838072 -0.42745718 0.16039363 0.1966918 0.057099711 0.055515643 -0.13251542 0.56015688 0.48691016 0.048833892 0.33082402 -0.25091469 -0.37274489 -0.29986715 -0.13216098 -0.032692164 -0.0085960887 -0.1377202 -0.36825031 -0.23815261 0.021216195 -0.29148015 -0.20171325 -0.27573422 -0.29789516 0.039030988 0.40518236 0.18154384 0.051470004 -0.014831233 0.010695876 0.22213718 -0.08934585 0.53980339 -0.43437433 0.59657711 -0.36119023 0.1319579 -0.23411316 -0.17904079 0.12010062 -0.020712394 0.0022151209 0.089307696 -0.13483706 0.19732994 -0.39996749 0.37547538 -0.23333444 -0.0042021698 0.2710084 -0.15252863 -0.28063101 -0.21246135 0.21485494 0.21381143 0.30428621 0.41077745 -0.034247156 0.32163379 -0.19570491 -0.19451456 0.085957542 0.1896067 -0.0011444868 0.04228035 0.125294 -0.17732994 0.17384236 0.046185028 0.037961245 -0.018497471 0.063921645 -0.18104762 0.24341677 0.43765515 -0.2584962 -0.014308554 -0.35918045 0.21303745 -0.023965191 -0.19130988 -0.16362391
404 -0.12244542 -0.18292287 0.13860583 0.08234629 -0.05838431 -0.015191575 -0.1511009 0.0093681244 -0.13868804 0.22360533 -0.021834802 -0.20780185 0.0069812429 0.14558451 0.24391627 0.025523609 -0.16433713 -0.074741296 -0.16954239 -0.014243515 0.063366316 -0.16504632 0.1890958 -0.032869201 -0.20817018 -0.16119467 0.19313405 0.51499784 -0.36013973 0.031007994 -0.17134075 0.084707513 -0.1204847 -0.27575162 -0.058166225 -0.074874431 0.043457404 -0.015956566 -0.16363728 0.079005241 0.011978287 0.094663046 0.025372248 -0.13728055 0.15307362 -0.14423718 0.020635091 -0.042265754 0.15459034 -0.21402363 -0.2049091 -0.18983831 -0.13993123 -0.065087177 -0.12272456 0.14087091 -0.0036807363 -0.24560232 0.14760704 -0.021647798 -0.10923836 -0.24344371 0.33101195 0.016433587 -0.12777106 0.18837139 0.054690272 -0.0047551361 0.097140998 -0.22728544 -0.1640064 -0.064159878 -0.012127551 0.1666353 -0.14680624 0.13464502 -0.18842955 -0.0081116557 -0.22053301 -0.17785086 -0.10878791 -0.078490019 0.39682245 -0.041822694 -0.1210124 -0.154043 -0.40301219 0.043747488 0.01457261 -0.10786542 0.32031557 0.075437739 -0.043317325 -0.03014645 -0.18096636 -0.041197468 0.10503705 0.120235 0.3713308 -0.28443256 -0.033501815 -0.46334025 -0.04123022 -0.19846275 0.016417943 -0.01156062 -0.1493687 -0.1419235 0.08325246 0.18094264 0.1668292 -0.030291192 0.023937821 0.013327344 -0.21393207 -0.13507526 0.0074400618 -0.11588245 0.095361263 -0.063506223 -0.073341712 0.053272244 -0.014025385 0.021367386 0.16658433 0.15789391 -0.0007167547 -0.061263669
467 0.044430308 -0.16922967 0.099242151 -0.00060410256 -0.28201053 0.2445346 0.077486597 0.10191815 -0.058110483 -0.048387326 0.05287423 0.10103821 -0.14059721 0.23741826 0.19918226 -0.060238652 -0.029219681 0.2565881 -0.35089967 -0.0080817482 0.21031909 -0.16727768 0.091610685 -0.064454094 0.028404653 0.062338635 -0.031513143 0.048028689 0.087672658 0.039856154 -0.075635821 0.097076185 0.08842285 0.13327189 -0.10638954 -0.17678611 0.03575832 0.097024456 0.21260232 -0.092892773 -0.1997388 -0.039120242 0.023741307 -0.12310482 0.15342087 0.050966162 -0.10617526 -0.31280288 0.067075789 0.0042342898 -0.054759115 -0.10320741 0.03176669 -0.14438593 -0.1303588 -0.017609255 0.10908844 -0.12538715 -0.13345058 -0.01504986 0.04939808 -0.126092 -0.046622042 0.12912166 -0.24647261 0.26046136 0.04846042 0.13096464 -0.11361177 0.17818192 -0.056332696 -0.17875893 -0.00201423 -0.055351675 -0.10654442 -0.16214278 -0.17344007 -0.017757516 -0.070933193 -0.11907184 -0.10445937 -0.051606677 0.30747056 0.037788853 0.030552257 0.081020422 -0.19505847 0.042817049 -0.14149253 0.040742885 0.096028708 -0.065205514 0.01688865 -0.084443174 0.10019998 0.16288665 0.052277934 -0.1725364 0.26697564 -0.20736659 0.062690198 -0.03504695 -0.05726099 -0.045427278 0.076363407 0.12763996 -0.11574855 -0.11224924 0.17604251 -0.018159419 -0.15122062 -0.14007057 0.16093308 -0.03438054 0.17518452 0.092796184 -0.13540834 -0.061425127 -0.12393397 -0.060015768 -0.16125447 -0.052074518 -0.080807224 -0.00051537418 0.0045024324 -0.010566828 0.015142121 0.031891208
476 0.020548077 -0.14486919 0.091625519 -0.035081297 -0.16811499 0.11732833 0.040577654 -0.0042922101 -0.056990989 0.0062380941 0.10828026 0.071182638 -0.22257496 0.34838957 0.19855694 -0.1940811 -0.07405518 0.10347795 -0.038879164 -0.12333293 -0.036729574 0.038909402 0.25506917 7.007207e-05 -0.093809992 -0.0734469 -0.015141097 -0.14688922 -0.26092041 0.010528053 -0.071628869 0.00085213245 0.08848469 0.14333369 -0.13342108 -0.22721164 -0.11690255 0.07125093 0.090824969 -0.12973963 -0.32328916 0.073809855 -0.0495473 0.075546272 0.066719845 -0.093915798 -0.072249241 -0.16917378 0.20021451 -0.10794681 -0.10625236 0.055357303 -0.22937185 0.097727098 -0.20226833 -0.18719792 -0.0032605045 0.10517425 0.039050575 -0.040593363 -0.02582529 0.047313899 -0.070778862 0.031090828 -0.13506256 0.055616572 0.046092652 0.081927307 -0.2441892 0.12932989 0.069471911 -0.083665147 0.082643554 -0.088500433 0.060552809 -0.11511836 -0.12405181 -0.072146453 -0.062604003 0.062032044 -0.11823377 0.1034916 0.22203152 0.2057949 0.0070962179 -0.11960001 -0.10071552 0.0016772972 0.090006605 0.10893469 0.10030215 -0.14579824 0.046857636 0.047409527 -0.09413337 -0.12445285 0.10587458 -0.28216064 0.038328655 -0.10219616 -0.014999259 -0.12759538 -0.22078459 0.11018693 0.024702033 0.12620921 -0.21566427 -0.17634776 0.22350669 -0.25680166 -0.064502105 0.0098978635 0.043949019 -0.13218515 0.20154692 -0.12607759 0.041793011 -0.01034261 0.0052911243 -0.037624702 0.21696372 -0.062256247 0.02972002 -0.17957781 -0.041542504 0.063204288 0.035880603 -0.003579014
225 -0.042487655 0.029143682 -0.12599638 -0.053080272 -0.03957554 0.14911145 -0.019186061 0.18711543 -0.14403796 0.28136817 0.11195215 0.11782164 0.047302194 0.2541526 -0.01388938 -0.11516779 -0.097016521 0.029757842 -0.030144306 0.0700216 -0.070998996 0.019057626 0.15830448 -0.084718347 -0.077824958 0.10842557 -0.2084547 0.14492033 0.08830718 -0.10997409 -0.12441282 -0.025934393 -0.038495917 -0.050294023 -0.11300758 -0.029440617 0.098164611 -0.060136709 0.037412144 0.035420187 -0.13811941 0.041319646 0.13358797 -0.11645423 0.22459568 0.0078833811 0.13233481 -0.096702024 -0.051642925 -0.01145484 -0.18570811 0.10219882 -0.088289388 -0.00074975938 -0.029723054 0.039304629 0.027455866 -0.17860544 -0.01610416 -0.010083852 -0.11318967 -0.078343667 0.2552155 0.053424787 -0.25110811 0.17848518 0.10604808 0.14139532 -0.11665838 0.025764028 0.14826858 -0.036317468 0.070271887 -0.032394812 -0.24712664 -0.12141707 -0.0057256441 0.13187444 -0.092271656 0.10942072 0.045989856 -0.063522123 0.1515951 -0.049600042 -0.10471351 -0.0024633291 -0.16527556 -0.17101549 0.010894398 0.052960213 0.18371902 0.12409633 -0.083049722 0.10779732 0.09036535 0.12774849 -0.093807779 -0.11933442 0.035124768 -0.20193444 0.094426051 -0.14665702 -0.045742597 -0.065482624 -0.083218381 -0.016136928 -0.075317428 -0.057889111 0.05522627 -0.18471573 -0.23707275 0.0031475292 0.022649737 0.020389337 0.044638231 -0.078405313 0.0042329282 -0.012671876 0.041048426 -0.15876862 0.031062651 -0.0017903267 0.034085013 -0.14814183 -0.12767129 -0.17363557 0.0032790911 0.084062345
459 0.26207286 0.025970021 -0.029332945 -0.1745256 0.084354505 0.19673799 -0.11607266 -0.10786876 0.11804432 0.17373961 0.16008799 -0.0004158614 0.10486889 0.087873533 -0.081075996 -0.012373739 -0.20075978 0.073957793 -0.063227758 0.11387681 -0.18936957 0.053427301 0.14791584 -0.082008719 -0.19079234 -0.16711053 0.039237704 0.073329583 0.11781719 -0.087478429 -0.068281703 0.039320473 0.036166266 0.22946088 0.0071273153 0.070468575 0.090644971 0.16998814 0.061462533 0.21899189 -0.070645086 0.17148505 -0.0058333748 -0.07852377 0.26116416 -0.064415924 0.13253997 -0.1080064 0.0018147287 0.061955921 -0.024108503 0.21922389 0.12726347 -0.00056549767 0.020050514 0.021392182 0.32312754 -0.16860677 -0.015837366 0.071041428 -0.060609732 -0.12505427 -0.15047318 0.092024416 -0.31426087 0.056957074 0.34260717 -0.03135661 -0.27124536 -0.077976719 0.024207853 -0.12728763 0.2469162 -0.07183858 -0.12247375 -0.06688524 -0.016141817 0.20805286 -0.0081304265 0.0088105286 0.1320108 -0.12471049 0.2713576 -0.21720263 -0.037041634 0.21884011 0.049906041 -0.095813259 0.030017896 0.034658793 0.16198285 0.01913763 0.014644413 0.003255886 0.040420346 0.12029058 0.1904909 0.0034461217 0.15539661 -0.23642166 0.11038204 -0.28292152 -0.057762887 -0.31409463 -0.064577512 0.10170594 0.032032244 0.049204089 0.031215683 -0.12830815 -0.11238753 -0.17943396 -0.029849084 -0.0098822434 0.061291225 -0.19068421 0.068599947 -0.089081749 -0.17504334 -0.017363487 0.022358123 -0.062172644 -0.11025731 -0.19662222 -0.21084447 -0.036547974 -0.22287241 0.071979389
234 0.040312696 -0.12288041 -0.025140436 -0.040701248 -0.19557451 -0.066290349 -0.044585507 -0.048627377 -0.16417399 0.20298354 -0.070628121 0.095645644 0.073908307 0.023208583 0.02534171 0.047842186 0.025888801 0.037890922 -0.23383754 0.19319461 0.13235532 -0.0081061833 0.3854484 -0.082623862 -0.11557024 -0.13013479 0.011812862 0.087932631 -0.03476695 0.23815227 0.088314325 -0.051595002 0.17756253 0.13967079 0.046198882 -0.19472115 -0.15189709 0.084135965 -0.083241366 -0.10778306 -0.094176054 0.033870783 0.021035144 0.069932781 0.093563668 -0.20407584 -0.12826362 -0.19622731 -0.03833304 -0.21287653 -0.12360652 -0.19250469 -0.018627347 -0.063682929 -0.047258615 0.031867027 -0.0074007562 -0.078406855 -0.012526105 0.19630076 -0.11001621 -0.21658818 0.2942192 0.082426399 -0.18582676 0.24041057 -0.009652338 0.13477774 -0.20258915 0.20853475 0.07790719 -0.17311592 0.23126601 -0.055999178 -0.12191387 -0.063291185 -0.090826161 0.18568611 0.11416136 0.10065308 -0.15269351 0.011508933 0.095476389 -0.033891387 0.092947826 -0.058855366 -0.12765701 -0.064614035 0.077967383 0.1142114 0.095536955 -0.11285678 -0.21989004 -0.102088 0.039790615 0.093190402 -0.11073788 0.023219446 0.016572192 -0.19128817 0.032452039 -0.27207628 -0.06398461 -0.011284066 -0.046172302 -0.018634591 -0.047260161 -0.19637451 0.21897328 0.01199711 -0.23320808 -0.26789165 0.10975431 -0.091091029 0.043612361 -0.17879727 0.083603367 -0.2319676 -0.049481392 -0.090773128 0.06902165 -0.055726133 -0.073133506 -0.061798736 -0.013066915 -0.074692234 -0.0029109586 0.005542744
323 -0.019883314 -0.33766529 0.0050017647 0.058914676 -0.037498381 0.093175247 -0.013325588 -0.0085957358 -0.024159987 0.023152372 0.091649562 -0.2833882 -0.16660435 0.28151661 0.27103579 -0.061961479 -0.038249612 0.040003061 -0.010583571 -0.043616705 -0.089932673 0.073343359 0.18595639 -0.2206288 -0.084988981 0.017749516 0.086758822 0.064094812 -0.041049995 -0.11682454 -0.13850951 0.15731725 0.036735021 -0.011050156 -0.078081071 -0.060892235 0.022949366 0.19352446 0.18105379 0.018863188 -0.077583566 0.10421639 -0.081298649 0.0020635538 0.1036633 -0.061387002 -0.20224711 -0.1580431 0.18345183 -0.032205503 -0.048331 -0.12517631 -0.3456825 -0.03191505 -0.17126924 -0.15083669 -0.044463281 -0.10273986 -0.19046989 -0.008401202 0.0099480357 0.03011623 0.15589376 0.079678677 -0.28124729 0.07036379 0.0077839028 0.15185706 -0.085107319 0.13550308 0.1255649 -0.23738852 0.036694769 -0.08371491 -0.16336973 -0.047362462 0.044636179 0.01352498 0.012351445 0.11069517 -0.023727395 -0.001256915 0.036981951 0.010325083 0.17764919 -0.12010732 -0.17606269 -0.16819675 -0.0095946547 -0.062395424 0.12361801 -0.10891771 0.15541229 0.07115601 0.14098154 0.1068913 0.017740043 -0.10705347 -0.025046388 -0.25205857 0.054819427 -0.12976909 -0.15891102 0.12999749 -0.052113779 0.15077513 -0.062591866 -0.10361594 0.12750493 -0.17016412 0.036565445 -0.061354537 0.025955293 -0.029061552 0.20348482 0.078516483 0.075936846 -0.13270383 0.11398703 -0.095455058 -0.0036210236 -0.03768222 -0.098194316 -0.069061823 -0.13791721 -0.001643453 -0.015070918 -0.075416528
416 -0.040538177 -0.094429381 0.0015560469 -0.0042251293 0.064852491 0.20508352 -0.033568557 0.091078818 -0.095557489 0.16116999 0.076489501 0.049156163 0.050934777 0.25080416 0.040243108 -0.16562246 -0.070794709 -0.12932098 0.026453482 0.067785986 -0.02497456 0.085992463 0.12486291 -0.11660593 -0.1258025 0.018866435 -0.098142691 -0.020406352 -0.044122558 -0.055777419 -0.094964094 -0.028162865 -0.038496029 0.010729085 -0.066476472 -0.12835558 -0.026940061 -0.030390063 0.013026687 0.019582102 -0.090725951 0.036010712 0.00045856097 0.13609448 0.18344504 -0.066864125 -0.080190025 -0.17141834 0.058280949 0.018385168 -0.057840105 0.037133493 -0.046219595 -0.012197019 -0.080551378 -0.090579711 0.077991448 -0.18582396 -0.039373342 0.040533856 -0.042099301 -0.10518926 0.18712844 -0.045337547 -0.24221323 0.20524681 -0.018213309 0.12467 -0.14169784 0.2329039 0.068159848 -0.10957775 -0.022875879 -0.12668739 -0.044773277 -0.1106648 0.025418926 -0.028371364 -0.096886784 -0.012239567 0.032997996 -0.022812784 0.29504949 -0.056117311 -0.1061398 -0.060487494 -0.22556742 -0.13179033 0.0016923057 -0.086491004 0.15478539 0.03301394 -0.056599587 0.035384264 -0.023317501 -0.02944785 0.0046232631 -0.038171358 0.0065226485 -0.20971692 -0.071701989 -0.081039041 -0.065115444 -0.037527557 -0.13662815 0.030046936 -0.068978593 -0.093992785 0.057095196 -0.0034094814 -0.15839253 -0.112113 -0.0014964257 0.013868636 0.062813058 -0.034142841 0.10030223 -0.068158485 -0.1007964 -0.081608847 0.027047625 -0.037480276 -0.037095439 0.076429613 -0.074638151 -0.087376013 0.032426447 0.04060252
69 0.023530638 -0.16186336 -0.09905576 -0.18667102 -0.055025849 -0.0073622786 0.23322071 0.092620678 0.13947105 0.17635003 0.13175605 0.094320141 0.013249816 0.53592533 0.22561328 -0.2345178 -0.043792229 0.21845162 0.062062204 0.03187196 -0.010187907 -0.054985594 0.29205695 -0.10829526 -0.11940331 -0.13570976 -0.04086753 -0.0044834996 0.12019686 -0.11022589 -0.042540446 0.051992889 0.081595935 0.29852059 -0.11379942 -0.058755953 -0.03502278 -0.087550923 0.092057504 -0.07772132 -0.089826986 0.078349486 -0.046851713 0.086823016 0.058204491 -0.068404898 0.027069375 -0.058878034 0.24913514 0.13718957 0.046325766 0.043972928 0.021452418 0.095672205 -0.088196971 -0.077044442 0.1456586 -0.26737687 -0.13378721 0.097865075 0.11546372 0.0188736 -0.12015558 0.011016672 -0.083104014 0.061357994 -0.040429272 0.042760029 -0.092101924 0.052052841 0.077845834 -0.020711647 0.27747947 -0.031446721 -0.22783874 -0.28590208 0.0054261433 0.17284767 0.053883754 -0.073363945 -0.093468651 -0.073579423 0.42285651 0.091560058 -0.059847765 -0.049050715 -0.28947142 0.016695952 -0.15944894 -0.015978394 0.020877916 -0.025614319 0.032883149 -0.037737709 0.088280708 0.030769743 0.11434451 0.035357922 -0.010100513 -0.18952723 -0.085999928 0.005601163 -0.14605321 0.0068456098 -0.17832595 0.06933555 0.0060949884 -0.0062311026 -0.096851133 -0.15888871 -0.1939476 -0.011175656 -0.013223425 -0.014088254 -0.017387126 0.08679945 -0.036456361 -0.0033901981 -0.086636342 -0.13076341 -0.012478439 0.028782779 -0.22707537 0.016433381 -0.25530764 -0.022215771 0.036612079 0.02620725
131 -0.049156599 -0.14119986 -0.014719318 0.013371253 -0.0029361544 0.15543178 -0.0047018938 -0.041142758 -0.12268323 0.2500976 0.11110114 0.073145732 0.030323245 0.16738112 -0.0056108129 -0.17537297 -0.13536604 0.050957892 0.036383733 0.138069 -0.066550836 -0.052359946 0.21546173 -0.013192296 -0.12554492 0.013917007 -0.12474035 0.06540215 -0.079508089 -0.099217109 -0.0039192094 -0.039273158 0.019565571 0.034108154 -0.015811156 -0.086959437 -0.038343586 -0.11062849 0.069824122 -0.0077255773 -0.16364983 0.075245164 0.13235399 0.10561968 0.094752446 -0.012873824 0.069695048 -0.093968958 0.043074686 0.058505811 -0.0046586855 0.084319293 -0.0475257 0.042398084 -0.030729607 -0.020288883 0.013932408 -0.17890754 -0.054248787 -0.034031026 -0.037945013 -0.1118092 0.10158148 0.029891247 -0.29627496 0.20314966 -0.027823649 0.20486829 -0.18091668 0.16830075 0.04676763 -0.12333074 0.1197649 -0.10281487 -0.058127292 -0.15992935 -0.048172895 0.001968639 -0.018569309 0.003183844 -0.048744589 -0.0048563774 0.25893486 -0.070630275 -0.0045322427 0.056229122 -0.11250617 0.043097965 -0.069112577 0.029581679 0.020661555 -0.030792344 0.0041439519 0.055276472 0.052949876 0.018421594 0.094718546 -0.038350269 0.054174766 -0.13410656 -0.083491474 -0.21031168 -0.042773724 -0.027494071 -0.12889901 0.10554128 -0.12016154 -0.075094283 0.037667297 -0.083552018 -0.096798524 -0.10782271 0.039231423 -0.043383218 0.067948073 0.081391908 0.036252983 -0.11690197 -0.0590089 -0.11014263 0.060365774 -0.052158736 -0.1332037 0.067859858 -0.14565212 -0.16774076 -0.034169339 0.052459251
493 0.027228018 0.038979445 -0.085959293 0.052937511 -0.058406256 0.22930358 0.046087723 0.084579855 0.058420822 0.061453287 0.11892937 0.067810416 0.041031368 0.13802297 0.037978999 -0.17921317 -0.20006026 0.01248074 0.066768065 0.086832635 0.013312494 -0.039051075 0.24196504 -0.073607594 -0.041762155 -6.2848259e-05 -0.11270516 0.014001496 -0.018187167 -0.063581742 -0.074595109 0.007352117 0.070735209 0.085609861 -0.065200642 -0.18714628 0.001701913 -0.086142957 -0.010184282 -0.022424469 -0.1516102 0.060694281 0.016908595 0.018348478 0.1396658 0.096976504 -0.030682238 -0.10779114 0.047277279 -0.0066198348 -0.0099428669 0.098659053 -0.045543671 0.035608664 -0.071895875 0.029690243 -0.084053166 -0.075025164 -0.079379991 0.070715055 -0.053397991 -0.082202859 0.14086626 0.081831299 -0.24256243 0.30379617 -0.016163545 0.14968956 -0.14960159 0.1206758 0.01687466 -0.1163431 -0.029539339 -0.16946539 -0.084286198 -0.23627251 -0.10667066 -0.054902483 -0.054662302 -0.0060202214 -0.039200235 -0.068680003 0.32519212 -0.087183379 -0.0017881899 -0.017227713 -0.064757705 0.0097947503 0.095621988 -0.027186528 0.024161315 -0.012862113 -0.11221295 -0.02662863 0.054080784 0.11269068 -0.089136943 -0.056470912 0.10848875 -0.10830062 -0.028721936 -0.17852129 -0.040939011 -0.021073578 -0.059128866 -0.031177029 -0.11460592 -0.035742529 -0.036843903 -0.054055307 -0.090207838 -0.08770287 0.052640308 0.001510576 0.091620438 0.1027965 0.083573461 -0.13194001 -0.16920151 -0.11327735 0.061025515 -0.079178192 -0.11758424 -0.011670463 -0.13654853 -0.097458079 -0.10909958 0.13249843
101 0.11582711 0.027494013 -0.097741306 -0.030174302 -0.074455932 0.12972358 0.025604676 -0.13803147 0.098302975 0.25287586 0.12207516 0.077199496 0.10764412 0.07732451 0.080839045 -0.12257281 -0.14745447 -0.00037388393 -0.16454878 0.10270797 -0.20872119 -0.091921784 0.295423 -0.13066818 0.033202395 -0.14219296 -0.18068069 0.048254207 -0.18718027 0.05195231 -0.0538183 0.057847735 0.10248794 0.042796202 -0.14668192 -0.13071987 -0.029503878 0.016724654 0.026660306 0.060710844 -0.085907012 0.057642326 0.0063341288 -0.10210164 0.11584447 0.016332027 -0.048454411 -0.21269602 0.035039283 -0.053036403 -0.050716661 0.27510703 0.023262294 0.10330534 0.021031689 -0.061069064 0.081379972 0.0075518987 0.0086846836 -0.090041138 -0.11762381 -0.041942254 -0.057381753 0.046668019 -0.15609841 0.13135801 0.14428826 0.051998463 -0.27817675 0.15001406 -0.10842147 -0.16336465 0.1932485 -0.22831087 -0.046241626 -0.13228329 -0.20679399 0.10817118 0.15461838 -0.019308088 0.060237322 0.055883393 0.23148291 -0.10005714 -0.071469501 0.0045230398 0.021943271 0.049186464 0.01071483 -0.045009434 0.114884 0.0092937676 -0.025794966 0.029991051 -0.04774861 -0.055820078 0.15081948 -0.04844993 0.10268114 -0.1246888 -0.0061931945 -0.29291254 -0.089185737 -0.32497558 -0.15315861 -0.00082656229 -0.062791094 -0.15076338 0.01286109 -0.2389445 -0.10033449 -0.23851168 0.13251922 0.071131185 0.036001965 -0.021678943 0.10322639 -0.044973731 -0.074385293 0.031522065 0.17531653 0.031100178 -0.017705748 -0.092145346 -0.060877398 -0.14352927 -0.082832687 0.051549319
373 -0.012406573 -0.12383994 -0.062714517 0.11875649 0.015374147 0.16538087 -0.11793912 -0.086847447 0.019773854 0.20502014 0.12095986 0.084965795 0.010653492 0.26625377 -0.035078868 -0.15380466 -0.12627698 0.0095909256 0.075686067 0.00013047349 0.037499752 0.0037870787 0.3153621 -0.13476545 -0.091950282 -0.1566713 -0.09934511 0.15357962 -0.11772595 -0.16101712 0.043498576 -0.073778979 0.021945506 0.055137135 -0.0033120469 -0.13541009 0.070310056 -0.0029027159 -0.15014821 0.024625389 -0.15792422 -0.044257604 0.061688583 0.16673696 0.27054104 -0.03625758 0.076817863 -0.15894918 0.143978 0.096920721 0.0039455811 -0.0147468 -0.095083535 -0.13749965 -0.01205788 -0.039543893 0.0035175199 -0.018762801 -0.018082265 0.020599872 -0.17804161 -0.20954455 -0.0015393961 0.038697425 -0.1907239 0.21683671 -0.027420355 0.22026801 -0.10115158 0.012155684 -0.03131298 -0.022133974 0.049484443 -0.13651322 -0.10098643 -0.020773306 0.045687303 0.026563214 0.09117955 0.041662518 0.1682751 -0.078109935 0.18670593 -0.056815356 0.064028338 0.039414119 0.025022395 0.020220742 0.11466128 -0.062031552 -0.025435399 -0.063970238 0.05516094 -0.064049385 -0.14028168 0.043334007 0.020911546 -0.17053536 0.019381514 -0.19887097 -0.073501103 -0.31236434 -0.068880901 0.018345473 -0.026894605 -0.11917262 -0.10350852 0.044958878 -0.065353662 0.0005055482 0.11259557 -0.09220165 0.034716945 -0.018166162 -0.048170444 -0.12215461 0.11071615 -0.21546029 -0.11381194 -0.094500214 0.11298805 0.092223808 0.046594761 -0.17641868 -0.12939636 -0.18251936 -0.053340789 0.11336219
469 -0.037464403 -0.070598736 -0.047835138 0.011309431 0.020029044 0.096677803 -0.073072262 -0.051241465 0.023324149 0.14247124 0.13271582 0.085376814 0.065585218 0.1069119 -0.051245913 -0.16570935 -0.085524589 0.023672031 -0.028729977 0.10937347 0.046268441 -0.0017307182 0.24785683 -0.12663494 -0.081360541 -0.01288334 -0.1674196 0.055923678 -0.040841274 0.023034627 -0.089576602 0.065007769 -0.025090776 0.064569853 -0.049287733 -0.11507395 0.019211814 0.0042241272 -0.0027695626 -0.036110237 -0.14188069 0.12692769 -0.024040563 0.024368403 0.16241121 -0.009422862 0.0027081312 -0.15425035 0.0046819565 0.035133891 0.021256179 0.083322793 -0.082930356 0.076004662 -0.036755338 -0.03167202 -0.02523084 -0.076087371 0.0019862785 0.017456042 -0.057685409 -0.15034106 0.047060251 0.042252071 -0.25604895 0.27874705 -0.024584217 0.1263677 -0.19441353 0.092858233 0.021900516 -0.052409403 0.015570682 -0.17195208 -0.025535056 -0.10987889 -0.081928052 0.044717316 -0.056789763 0.087427877 0.017898016 -0.05581297 0.22516493 -0.017616022 0.037174534 -0.071166329 -0.10416613 -0.086970933 0.057620235 -0.017058849 0.069497496 -0.025573671 0.019238496 -0.0032904868 0.0082405983 0.089390539 0.0051805764 0.0097511718 0.080743186 -0.096619666 -0.028598534 -0.18209867 -0.15861291 -0.076373577 -0.12742746 -0.072435111 -0.11772162 -0.041981004 0.065308422 -0.11699117 -0.15821567 -0.1049656 0.01816559 -0.066134639 0.083701104 0.0053248866 0.2473191 -0.17443132 -0.053801883 -0.010737676 0.089355767 -0.035982948 0.043966286 -0.0336705 -0.14978242 -0.035472203 -0.06175999 0.067947194
232 0.046272252 -0.053901374 0.068010069 0.048355196 0.24848658 0.26367709 0.11540308 -0.061982855 -0.19482741 0.20040382 0.03928373 0.11488288 -0.008294031 0.18032791 0.0091588087 -0.072722495 0.046486869 0.10566891 -0.055006102 0.061874315 0.11395989 0.019859709 0.23612662 -0.15921992 -0.1864191 0.0073950305 -0.067516513 0.024121158 -0.2759347 -0.015730247 -0.07015349 -0.0098290388 0.024890974 0.047144998 -0.061497323 -0.076498754 -0.048761975 -0.065253265 0.11449847 -0.0076745092 -0.087907054 -0.0091914078 -0.024702292 0.082646698 0.33418337 0.067781217 -0.04138907 -0.076751396 -0.0069488147 0.10683464 -0.17222635 0.091586679 -0.049476791 0.032710813 0.00679398 0.19098192 -0.094635367 0.19647455 -0.081747562 0.19918777 -0.017426271 -0.2296464 0.066858508 0.082981631 -0.25551638 0.3548333 -0.090668619 0.059559971 -0.10288952 0.067734838 -0.021144986 -0.028314762 -0.035646714 0.058984425 -0.010929674 -0.28317153 -0.11832841 0.15440591 -0.038465738 0.31410754 -0.10299958 -0.061742119 0.17260556 0.099094741 -0.12269612 0.10709471 -0.057184059 0.075856864 0.17253879 -0.065793537 0.18988019 -0.26146695 -0.16776146 0.04266493 0.06683857 0.078358404 0.16257589 0.067618169 -0.091881327 -0.027228365 0.054258581 0.028995702 -0.11134623 -0.0046311328 -0.15110649 0.075016871 -0.16618903 -0.062374134 0.20362656 -0.1558 -0.034853678 -0.058682822 -0.09256722 -0.37386709 0.25301588 0.075021833 -0.017564349 0.017335728 -0.084376805 -0.10841209 0.21727943 0.015196531 0.13814518 0.070480533 -0.26999211 -0.053887103 -0.019226423 0.0039621866
249 -0.071138784 -0.14867646 -0.23773545 0.14381011 0.048799146 0.15038088 0.066913158 0.015317904 -0.068382099 0.022298384 -0.064644299 0.060235158 -0.26704848 0.27549818 0.13921057 0.0013082416 -0.023895416 -0.043633156 0.048530854 -0.11745015 0.025867073 -0.24750023 0.102683 -0.14454779 -0.052611575 0.15439415 -0.039429549 0.16378742 -0.13425648 0.05016385 0.0021144894 0.03998531 -0.12996782 0.035037547 -0.11261534 -0.31029457 -0.11175188 0.11182489 -0.094609246 0.13212353 -0.050241046 -0.01171394 -0.0602106 0.17862244 -0.13393991 0.044384751 0.070151418 -0.28820512 0.0088250404 0.099826388 -0.14351229 0.11351326 -0.1148891 -0.056921124 -0.14998731 0.075301528 -0.024158524 -0.010622932 -0.084114924 -0.04365623 0.26359886 -0.035258263 0.038625874 -0.032187611 -0.24707744 0.39803717 0.15924565 0.059623111 -0.1790404 0.037731033 0.0041265101 -0.18813568 -0.097885616 -0.031043397 -0.13162872 -0.011120156 -0.08494363 0.098829217 -0.061089508 -0.15038699 0.029743068 0.04140361 0.28524345 -0.043080445 0.07309024 -0.12072789 -0.032196768 -0.077155091 -0.07913319 -0.0031161807 0.033645634 -0.037722532 -0.14411536 0.013078959 0.2235214 0.20407577 -0.022495985 -0.079076976 0.27760425 -0.30345351 -0.050094534 -0.2036985 -0.076660372 -0.062971495 0.27322292 0.098438516 -0.32825628 -0.035379801 0.022381186 -0.050929632 -0.051543981 -0.30091953 -0.072396994 0.071103722 0.019430274 -0.08235094 -0.051307216 -0.057385199 -0.083982088 -0.12498194 -0.050754271 -0.092397034 -0.1071614 -0.1590872 0.0062721428 -0.15967698 -0.0037500355 0.086056329
209 0.0017913305 -0.010544436 -0.028851544 0.15168449 0.096146122 0.33295849 -0.094604261 -0.0021881419 0.072127596 0.11438877 0.037122358 0.14372507 -0.0016297855 0.11065706 0.16011655 -0.15202434 -0.11157823 -0.018923813 0.025395826 0.020683141 0.040762395 0.010257003 0.33283725 -0.15908015 -0.19549428 -0.075632639 -0.070333414 0.057606392 -0.035427425 -0.080131538 -0.077840663 -0.081133932 0.011528922 0.093911216 0.07866177 -0.20448877 0.13364457 -0.062203266 -0.12548101 -0.0074071507 -0.030153472 -0.00076497049 -0.013721738 0.15461466 0.2426596 -0.023183472 -0.11068629 0.092672288 0.012431708 0.14038241 -0.071812347 0.016628351 -0.11872425 -0.0029939732 -0.14967856 0.026930211 -0.099713966 -0.013327609 -0.18161315 0.065500632 0.029587405 -0.077743381 0.20487638 0.060531188 -0.21231316 0.24325317 0.094335578 0.096357897 -0.16490847 0.0018402815 -0.17864685 -0.15336739 0.11020932 -0.022143714 -0.2302855 -0.087794334 -0.079272725 -0.012003098 -0.095145456 -0.060170095 0.076984197 -0.007052877 0.1649252 -0.12628724 -0.080099218 0.073053129 -0.00047358926 0.0036875496 0.05699278 0.18404293 0.067255817 -0.18011284 0.021206301 -0.099645525 -0.073067158 0.03528164 -0.030198738 -0.055219751 0.11488847 -0.097728662 -0.00029995348 -0.11933501 -0.14991759 -0.0028593983 -0.097754814 -0.0027576375 -0.01913744 -0.20560698 0.0026816225 0.04892027 -0.13167498 -0.092968673 -0.058106098 -0.3412953 0.19803552 0.083091639 0.034573127 -0.15668046 -0.030996101 -0.1871929 0.09141814 0.0037272361 -0.060877349 0.06059495 0.0054545905 -0.23748069 -0.0068547805 0.20200944
169 -0.047080848 -0.1538069 -0.060886972 0.027531406 -0.014639152 0.15933029 -0.054442316 0.022684367 -0.057026923 0.13267449 0.13224703 0.1189881 0.091843434 0.16879809 -0.092127331 -0.12680787 -0.10260816 -0.051301982 -0.026744433 0.15492967 0.10538352 0.059866842 0.289572 -0.16611139 -0.11458195 -0.053323179 -0.14895101 0.056340683 -0.069594324 -0.02350032 -0.11842356 -0.025508143 0.029843986 0.022092523 -0.063691586 -0.17198731 -0.036568776 -0.045609716 -0.0028246301 -0.10397643 -0.10803679 0.062656403 -0.010669572 0.013916983 0.15329255 -0.088175684 -0.023342334 -0.18621841 0.041827735 0.13118362 -0.010494749 0.013069773 -0.12721539 -0.0042193769 -0.00093915203 -0.022197641 0.04843647 -0.029156277 -0.069881663 0.011100995 -0.099718437 -0.073089711 0.11358541 -0.024188325 -0.21971728 0.16990384 -0.025791207 0.18340744 -0.13114229 0.16395484 0.024534985 -0.07704208 0.022937786 -0.1172194 -0.078668244 -0.13539968 -0.12653629 -0.055014528 -0.11305383 0.11381711 -0.036649168 -0.0084479218 0.19092891 -0.069456212 -0.057224393 0.061534259 -0.12869215 -0.12606631 -0.069262244 0.080743521 0.077493876 -0.086093642 -0.017275712 0.11635695 0.034887612 0.050324168 0.081634283 -0.13160431 0.15095797 -0.14180619 -0.017674165 -0.16052355 -0.049502559 0.033990599 -0.15604798 0.053611428 -0.080339186 -0.071256608 0.056531083 -0.18117262 -0.17740142 -0.093146205 -0.047995869 0.045057587 0.12211581 0.054315701 0.11191172 -0.14342967 -0.02164655 -0.082594357 0.065235771 -0.062763616 -0.036805063 0.013622385 -0.096837111 -0.0398544 -0.024517169 0.092366032
406 -0.00067170273 0.01085091 0.0025018682 0.15149023 0.011987659 0.18019383 0.045077953 -0.061578237 -0.015039082 0.14507897 0.23570667 -0.038976785 -0.016114255 0.2611441 -0.051807467 -0.2567744 -0.22851771 0.10663286 0.096357398 0.10562315 0.042484317 0.13781701 0.067006133 0.056190722 -0.095118925 -0.074085169 -0.093674891 0.12603401 -0.027867923 -0.05653752 -0.098575957 -0.058289625 0.097871207 -0.063690871 -0.0034606734 -0.04617567 -0.15264805 0.15253122 -0.05633897 0.12004092 -0.19353744 0.083168544 0.018118193 -0.10239081 0.18732618 -0.033391483 -0.029631756 -0.011440453 0.038005568 0.069666155 0.062725998 0.10236501 -0.1430666 -0.059304822 -0.042962428 -0.047411297 0.13539784 -0.075426541 -0.077301562 0.049050841 -0.046146628 0.012322691 0.13301298 0.084117509 -0.139763 0.15828161 0.042708904 0.16519214 -0.13208845 0.045144487 0.057503067 -0.10942444 0.09316127 -0.19343454 -0.14477801 -0.06339258 -0.06210126 0.13095334 0.017116344 -0.10802738 0.14521006 -0.1246568 0.37050003 0.068929017 -0.093708612 0.0091286628 -0.1765139 -0.15696339 -0.026283462 -0.037937809 0.17628267 -0.055832002 0.045625802 0.088166453 0.017504968 0.2280187 0.070246227 0.089411192 0.048541576 -0.28850672 -0.12845892 0.025304103 -0.21537168 -0.098260105 -0.18897055 0.1567069 0.025206968 -0.057106994 0.056341704 -0.10709669 -0.31908 -0.098012283 -0.0029765833 -0.047828712 0.10035988 -0.041391186 0.11230268 0.018918272 -0.15067124 -0.097375616 0.07109803 0.0428431 -0.1567079 0.037675444 -0.0089825969 -0.066389039 -0.074091822 -0.084917381
38 -0.10085057 0.013095587 0.032067139 0.002993572 -0.0067532193 0.18573579 -0.04682767 -0.057613425 -0.065490223 0.1923587 0.12935983 0.029290287 0.044050246 0.20106216 -0.0534437 -0.24536315 -0.12286863 -0.050185565 0.066880703 0.1572399 -0.026629023 -0.016642727 0.13724892 -0.14140788 -0.086946577 0.016966455 -0.01491436 0.014393279 0.000727996 -0.032094274 -0.14630628 -0.073724829 0.078169703 0.056669258 -0.14900669 -0.13950767 -0.048080198 -0.11117481 -0.056301896 0.035843786 -0.19517484 -0.062241342 0.044402841 0.067866512 0.16322021 -0.10109623 -0.0042335992 -0.085256308 0.03703234 0.017281055 -0.044695146 0.070271701 -0.11520206 0.027441749 -0.10464443 -0.050183591 0.0021727835 -0.080736928 -0.0040068012 0.050535653 0.024981607 -0.097185604 0.19244507 0.0340942 -0.24502015 0.24472974 0.009452913 0.1019623 -0.1610316 0.028923605 0.036138862 -0.1626876 0.015612091 -0.11255039 -0.0014330068 -0.046221122 0.026074171 0.027438957 -0.08581686 0.038621623 0.0094860317 0.011504492 0.24539988 -0.075413547 0.019241471 -0.12048345 -0.10048044 -0.11011627 0.048552278 -0.023310954 0.053747345 -0.10766744 -0.030035552 0.10388364 0.047855385 0.029514898 0.10069678 -0.021247024 0.069083475 -0.18917868 0.0078903418 -0.10245539 -0.087592766 -0.033016976 -0.16116498 0.075555034 -0.033803374 -0.064542696 0.063442372 -0.084012568 -0.096024759 -0.094007753 0.028646624 0.021656634 0.067952089 0.072340153 0.098708451 -0.17621776 -0.079024054 -0.050462671 0.090426967 -0.046232305 -0.014048007 -0.031716689 -0.045768455 -0.15312563 -0.096539982 0.12503275
251 -0.043580063 -0.01651825 -0.038361564 -0.088622443 -0.0010738643 0.12162719 -0.021138461 -0.046592262 -0.022025649 0.15113102 0.16521704 0.12111643 0.0022548595 0.13725291 -0.049135517 -0.25272536 -0.062458724 0.023092922 0.071398951 0.093136981 -0.010713144 0.044152997 0.23598792 -0.068788894 -0.18799075 -0.0046571232 -0.074981496 0.0018897248 -0.10255103 0.062149107 -0.22598092 0.017349213 0.019342152 0.033286635 -0.09369164 -0.053646632 -0.043186903 -0.05826249 -0.0078292852 -0.059475593 -0.15933973 0.042971257 0.08734028 0.082755372 0.2147671 -0.10579623 0.091663726 -0.17090547 0.053249832 0.03021206 -0.046771012 0.064041615 -0.11141467 -0.052804086 0.023956968 -0.040763598 -0.0031218661 -0.016659945 -0.021795664 0.033124883 -0.048001599 -0.062727831 0.093864024 0.070207439 -0.2276226 0.28925529 -0.017698402 0.1894352 -0.1186538 0.10707647 -0.0051024058 -0.088983849 0.062674746 -0.11516438 -0.10762428 -0.13751239 0.020856757 0.056837853 -0.016069092 -0.0063292016 -0.0057968884 -0.00095192494 0.27926272 -0.0079570357 -0.0019390231 -0.10963552 -0.12176825 -0.044347715 -0.038950063 -0.0044917781 0.0058532339 -0.031083172 0.011586954 -0.031560101 0.098311357 0.026717776 -0.099717967 -0.062526338 0.020372976 -0.19331861 -0.076879911 -0.17035979 -0.05475574 -0.039760754 -0.10157566 0.078019224 -0.057578608 0.0035212755 0.079267181 -0.061654136 -0.16239718 -0.073383614 0.017478213 -0.082712218 0.12320071 0.045452278 0.1274375 -0.082703471 -0.11173434 -0.10063621 0.0431615 -0.083113804 -0.12135771 -0.085223705 -0.055771723 -0.11030742 -0.064050935 0.10076068
54 -0.097187899 0.04800595 -0.15790069 0.14780788 0.015043053 0.14384623 0.00011049083 0.074835308 -0.13627954 -0.022385618 0.010331864 0.016013432 -0.021353776 0.1826248 0.12463882 -0.19470489 -0.12748067 -0.11203924 0.11798748 0.24022894 0.027515646 0.098496705 0.14153601 -0.19974573 0.028599953 -0.083738379 -0.23221883 0.087893553 -0.14760195 -0.005853341 -0.10305361 -0.17758074 0.15112583 0.044200402 -0.049506065 -0.16275337 -0.072465077 -0.02926545 0.03866975 -0.011669814 -0.17346434 -0.012224372 0.080448426 -0.031782344 0.21008554 -0.015881693 -0.028152466 0.073021971 0.12012672 -0.1207935 -0.24416098 0.13187639 0.10132588 0.11119302 -0.15005106 -0.065728784 -0.04298823 -0.071332045 0.14389147 0.026203195 0.030945294 -0.10449603 0.0078704264 -0.11241701 -0.26811457 0.3013379 0.043670308 0.1567751 -0.21686618 -0.013142736 0.11813843 -0.2870093 -0.082727768 -0.19246955 -0.008993255 -0.10805959 -0.030033963 -0.045393575 -0.053438626 -0.14892106 -0.060366821 -0.088637181 0.19800432 -0.047257125 0.028201835 -0.054389074 -0.2645818 0.0041711731 0.050981279 0.07335303 -0.0056366469 -0.10319748 0.058166135 -0.011514839 0.033183392 0.0036944288 0.023228131 0.010435796 0.17858563 -0.14517078 -0.089725845 -0.12805204 -0.071194582 0.038556766 -0.074788295 -0.08700633 -0.061623551 -0.062818125 0.093770526 -0.04221876 -0.079581164 -0.15113536 0.14181264 0.031649303 0.07338164 -0.086794108 0.11827409 -0.20444216 -0.032135185 -0.063996531 -0.0183846 -0.011846444 0.017072331 -0.1160322 -0.07600908 -0.097492591 0.067571491 0.059314299
477 -0.20161815 -0.28859839 0.069895223 -0.0084954714 0.061515443 0.24519268 -0.22075252 -0.14532973 0.054248914 0.12911652 -0.088174716 0.054219197 -0.043669611 0.32140648 0.28332603 -0.27221602 -0.040063683 0.26660267 -0.012866231 -0.013558782 -0.0537971 0.0070834253 0.27592885 0.10060966 -0.22728038 -0.25740767 0.021345312 0.15884925 -0.25984237 0.16325608 0.00010172285 0.13884819 -0.0721002 -0.097081095 0.26060253 -0.14574225 0.18223251 -0.15365577 -0.026745949 0.10282476 -0.097783074 -0.019146845 -0.010423057 0.040056575 0.36295238 -0.052068092 -0.2598289 -0.035314236 0.18750562 0.13037503 -0.24289593 0.055518396 -0.082196206 0.15302688 -0.21452333 -0.1192886 -0.15342794 -0.19149432 -0.026381217 -0.07894183 0.40079558 -0.2240091 0.029934293 -0.24345143 -0.030608028 0.091576785 0.020293791 0.051222928 -0.05160901 -0.47931325 0.078041568 -0.16984423 -0.060024556 -0.077071689 0.0064945887 -0.27540159 -0.0049488684 -0.11721687 0.072657391 -0.032987066 -0.14124414 -0.031469967 0.0022073216 -0.047607392 -0.06206391 0.094464265 0.28448269 0.11008383 0.09884651 0.15295964 -0.023336094 -0.15332425 -0.077004775 -0.27953136 0.066851497 0.18150271 0.0467223 -0.12504034 -0.19878566 -0.037514515 0.0091377012 -0.34567475 0.060048733 0.046839837 -0.21802735 -0.37066436 -0.21831377 -0.160779 0.1950653 0.069361791 0.21873905 -0.23610064 -0.0057899426 -0.27416041 0.12802072 0.17984687 -0.077386186 0.12855253 -0.090580948 0.086011231 0.086161688 -0.018914063 0.098556273 0.24362655 -0.22367366 -0.15067071 -0.038773332 -0.074000955
92 -0.069474392 -0.083946817 -0.019658266 0.0030890573 0.053109277 0.16957389 -0.066269249 0.138964 0.0092048431 0.15086274 0.043071408 0.045914885 0.086287297 0.054570094 0.035472471 -0.28877759 -0.10592224 -0.074800245 0.028044034 0.13475935 0.040394012 0.14844416 0.18872736 -0.035195872 -0.093916729 0.017934037 -0.13131136 0.043130409 -0.090478271 -0.093412645 -0.19003005 0.011015663 0.17085749 0.065956391 -0.055425663 -0.053432342 -0.10104848 0.0074928817 0.020426098 0.00036136026 -0.13938616 0.086866036 -0.0373009 0.01366265 0.086769089 -0.021280052 -0.0080262488 -0.16689311 -0.032173507 0.051294055 -0.071497723 0.13732587 -0.040890567 0.027051803 -0.10858893 -0.043571275 0.0078163818 -0.09795323 -0.036145616 -0.030503804 0.031735431 -0.11599283 0.18686664 -0.023480885 -0.26581413 0.276853 -0.031245917 0.16452101 -0.18263207 0.11346736 -0.00078145391 -0.086261339 0.095787488 -0.14461966 -0.027869483 -0.22645433 -0.11212895 -0.021476891 -0.10866944 -0.037086245 -0.092159867 0.0038950397 0.28463829 -0.060267486 -0.018362032 -0.044888977 -0.10682415 -0.072880089 -0.038151994 -0.0097386353 0.046576116 -0.073628478 -0.046558276 0.097820252 0.072427005 -0.017377328 0.075911768 -0.078838155 -0.004021897 -0.12148866 0.067084849 -0.18765242 -0.10804735 -0.052817695 -0.19342177 -0.025918191 -0.091168135 0.026841046 0.0041652271 -0.1262296 -0.17014517 -0.052834459 -0.012060305 -0.040577371 0.14044692 0.13835521 0.13122581 -0.13756092 -0.10817989 -0.035557535 0.11306002 -0.034645036 -0.028671727 -0.034016464 -0.14397834 -0.061416306 -0.032264452 0.14052899
56 -0.056587439 -0.079958707 -0.075023331 -0.052681368 0.014129076 0.078186065 0.038367078 -0.12922132 -0.063332148 0.24331422 0.056141485 0.067933865 -0.02757754 -0.024174701 -0.101542 -0.097015142 -0.16442712 -0.0078648403 -0.078249462 0.022216987 0.091496229 -0.068248697 0.2288591 -0.098620676 -0.12654448 0.0096451566 -0.056678932 0.082738943 -0.17735422 -0.0001812548 -0.032620054 -0.0075352294 -0.013022057 0.084508151 0.12809019 -0.11647689 -0.17389253 0.0059622629 0.076943837 0.046517495 -0.072730534 -0.0045036147 0.063643739 0.036868487 0.17958674 0.03064796 -0.10310563 -0.058863223 0.050289739 -0.10010487 0.10415992 -0.16454725 -0.01358457 0.14678802 0.10715948 0.041443113 -0.012029923 -0.099334873 0.00033638184 0.045591891 -0.1355733 -0.12371842 0.025554601 0.017854014 -0.18106773 0.31899497 0.080037326 0.25572553 -0.18657014 0.15819412 0.11786114 -0.19974805 0.15934336 -0.19943535 -0.17518803 -0.044220157 -0.14399822 0.10569835 0.10237831 -0.032672256 -0.019386139 -0.083150104 0.25005686 0.0160315 0.061798133 -0.017008912 -0.036551803 -0.10731363 -0.016296333 0.069958292 0.19433722 -0.0060649631 -0.11646017 -0.011228636 0.13865134 0.09733066 0.059093673 -0.14738157 0.024483651 -0.10289548 -0.013197766 -0.23727795 -0.11960146 0.038744137 -0.047468811 0.061582949 -0.13267125 -0.039639749 0.18722802 0.036447402 -0.13358594 -0.1064986 0.076329321 -0.08435224 0.059472989 -0.081083909 0.085197374 -0.097885095 0.01275199 -0.089343153 -0.15460905 0.10272341 -0.046486691 -0.023303891 -0.062840909 -0.19129106 -0.077361986 0.16178077
375 -0.045160562 -0.076537319 -0.079273596 0.024965439 -0.0038500729 0.19453666 -0.045618471 -0.040953893 -0.045999885 0.086787835 0.14964139 0.040380929 0.040917266 0.19163156 0.0026600261 -0.22611865 -0.084001742 -0.057471856 -0.085528441 0.082814351 0.032028679 -0.083237328 0.22985362 -0.12926094 -0.059743609 -0.049286418 -0.13478918 0.0029516991 -0.15561604 -0.021225281 -0.13588631 0.024839967 0.013941443 0.024505835 -0.070040941 -0.12116837 0.037958149 -0.037051063 0.060323026 -0.080944628 -0.14961153 0.061798315 -0.038577918 0.085831597 0.24192929 -0.05621203 -0.068242185 -0.16989475 0.10992023 -0.066869445 -0.089422531 0.063622631 -0.10755059 0.012367579 -0.071871541 -0.070393145 -0.020816814 -0.056694087 -0.048012313 -0.020132506 -0.058383539 -0.050746359 0.042393781 0.028999599 -0.26790342 0.17891073 0.0059658904 0.12816861 -0.10625869 0.10780499 0.068921722 -0.13985138 0.0010151049 -0.096735708 -0.1110273 -0.13254215 -0.022603845 -0.060064215 0.043933325 0.058266625 -0.010250947 -0.12770703 0.19783549 -0.10223021 -0.065494426 -0.0014148448 -0.051033348 -0.019421563 0.031698853 -0.0022257965 0.0026284733 -0.043340057 0.032475669 0.093568586 -0.0765374 0.057409119 0.0042015132 0.013251915 0.068985291 -0.11398374 0.055854078 -0.11412178 -0.14006372 -0.10367025 -0.13549151 0.06182462 -0.13927349 -0.039053801 0.069927767 -0.14237294 -0.23056412 -0.086575687 0.096836746 0.083457977 0.060996458 0.024887495 0.061956931 -0.053175651 -0.052520163 -0.056898911 0.039841272 -0.089971133 -0.11801886 -0.037241697 -0.07456705 -0.10436086 -0.02379882 0.043885194
151 -0.086061575 -0.20928517 -0.090039752 0.0013927433 -0.022793557 0.11134398 0.026376033 0.05855168 -0.0097311912 0.094080508 0.14375445 0.061980497 0.07318195 0.13969035 0.095265314 -0.16404048 -0.11922692 -0.03690169 -0.086952686 0.17573105 0.071663477 0.044568058 0.2059821 -0.073412016 -0.10674624 -0.029665936 -0.098573379 0.038726989 -0.058651112 0.05430514 -0.19306193 -0.01094636 -0.021855153 0.058590595 -0.077379778 -0.11152469 -0.0069857393 -0.047574602 0.021121867 0.059125543 -0.16760266 0.0057342229 0.0047302688 0.063214593 0.11543453 -0.12035325 -0.04683166 -0.14431845 0.033886064 -0.032582734 -0.014700718 0.062877759 -0.074658483 0.041876774 -0.033723552 -0.054347545 0.041897148 -0.0034808295 -0.06124061 -0.090426363 -0.10786811 -0.14790814 0.17748259 0.09296947 -0.3327513 0.26525104 0.041434918 0.20301147 -0.2024996 0.099669471 0.084306881 -0.12887415 0.070074715 -0.13557976 -0.059634686 -0.05433441 -0.064849585 0.04977987 0.023787554 0.015739571 0.028012441 -0.016111488 0.17455663 -0.090260237 -0.056990802 -0.060073014 -0.027939115 -0.04400973 0.02452584 -0.0566242 0.12816468 -0.0027413501 0.0077189025 0.097973704 0.064895064 0.042223416 0.04108556 -0.028882021 0.091669045 -0.11867517 0.014960883 -0.029629283 -0.020117363 -0.042316597 -0.15886965 -0.0067848577 -0.16287933 0.019067708 0.080835693 -0.16319756 -0.13822523 -0.084563725 0.13338171 -0.0016592923 0.089493833 -0.020999137 0.15129238 -0.13238791 -0.073254786 -0.069779724 0.06991753 0.0062549645 -0.0011237857 0.017936109 -0.041714843 -0.13431428 -0.011014788 0.041545566
90 -0.029578412 -0.130924 -0.1267269 0.044967711 0.034962907 0.14546093 0.0099051371 0.015972434 0.0076572658 0.13012315 0.10400567 0.065101996 0.055022061 0.14959049 -0.011817141 -0.20619802 -0.082171626 0.017167874 0.078111306 0.099096529 -0.049402174 -0.068491831 0.22151959 -0.10847247 -0.09059307 0.075664207 -0.12097459 -0.016152222 0.004072879 -0.064179294 -0.033862691 0.044027001 0.053898096 0.034952249 -0.040285423 -0.0499238 0.021713251 0.0045611467 -0.016982783 -0.0055602645 -0.19850853 0.028614277 -0.0051172678 0.045310531 0.1960251 -0.040965546 0.069377564 -0.048055761 0.03286393 -0.00011175851 -0.10485815 0.035658814 -0.14974003 0.055366606 -0.0060259579 0.061402924 0.065592393 -0.13478434 -0.039403021 0.0086394139 -0.09260112 -0.10805004 0.15714188 -0.049469117 -0.26896131 0.20986103 0.036873281 0.17978987 -0.10909748 0.11811783 0.10889051 -0.077310465 0.082529925 -0.076986276 -0.13482732 -0.14888737 0.01218968 0.039667077 -0.027406154 -0.039838508 -0.067938037 -0.097219855 0.23758599 -0.06472861 -0.072029434 -0.066914558 -0.17524047 -0.046643641 0.01029237 -0.024652474 0.11423442 -0.074386559 0.025820935 0.032761887 0.049050529 0.012313556 0.042158764 0.057480253 0.042972863 -0.21200779 -0.060171437 -0.10699015 -0.079075575 -0.019821916 -0.20108767 0.061253261 -0.070755221 -0.0026955833 -0.018255278 0.042988941 -0.20337172 -0.11154851 0.072033212 0.052884415 0.21814562 0.075348057 0.10924637 -0.048619438 -0.13946417 0.029354107 0.03278745 -0.064770222 -0.021797057 0.00078764255 -0.04982217 -0.12879874 -0.011596995 0.06617821
51 -0.1632303 -0.11531124 -0.1109326 0.036751397 -0.070038825 0.11197087 0.022548972 0.049849518 -0.10246099 0.16505915 0.073021919 -0.00069230067 0.092364915 0.18262349 0.024311293 -0.047418252 -0.13014902 -0.011995474 -0.045486111 0.036034536 -0.034303468 -0.048966788 0.29860827 -0.1064565 -0.070674457 0.096228577 -0.13105309 0.062363986 -0.082563154 0.018985046 -0.14856178 0.011732571 0.0075528477 0.042000983 0.0089362692 -0.093690239 0.0011135917 -0.088017873 0.061796594 -0.059649121 -0.18695763 0.075519092 0.14957282 -0.0096054561 0.20139618 -0.086645715 -0.017745893 -0.14994085 0.066301361 0.022680953 -0.098236941 0.049914837 -0.10492562 0.050748434 -0.087404341 0.010507709 0.032801416 -0.1190387 -0.070501909 -0.020697482 0.039431188 -0.12933128 0.13972043 0.063710608 -0.23956887 0.18387161 -0.01611183 0.27212253 -0.09508878 0.10003543 -0.039715085 -0.061537109 0.070683353 -0.16475184 -0.13837087 -0.15006392 -0.042754378 -0.02569722 -0.041834217 -0.01153951 0.0093845697 -0.035676897 0.20261347 -0.090549313 -0.038978789 -0.049350742 -0.13734353 -0.021338154 0.039352186 0.01639431 0.16404156 0.016734587 -0.044308748 0.058466453 0.009321101 0.069457829 0.010983682 0.012823003 0.048135962 -0.11450917 -0.028918164 -0.21804532 -0.04623545 0.0040271771 -0.15587495 -0.054306157 -0.082730927 0.027327178 0.074550293 -0.033406302 -0.12632513 -0.00017582893 0.049794033 -0.056267984 0.20311712 0.068739615 0.15354623 -0.10445997 -0.12836802 0.074740447 -0.0065698749 -0.12147772 -0.10370731 -0.048858337 -0.10762801 -0.12622511 -0.064949088 0.036193617
36 0.039049838 -0.15324041 -0.042711236 -0.042318922 -0.035680085 0.23413622 -0.036768887 0.015382122 -0.078719363 0.24298611 0.080191001 0.055120341 0.047243312 0.24856891 -0.032303125 -0.20607597 -0.15320513 -0.045692362 0.14555359 0.021120697 -0.016447973 0.0044873105 0.1907769 0.0025515521 -0.021298822 0.021218859 -0.11311594 0.0682806 -0.10961663 -0.075593337 -0.062440809 -0.048524771 0.03333303 -0.015358685 -0.025217548 -0.12984195 -0.076630078 0.048098337 6.7096e-05 -0.11828641 -0.16409096 0.0016822363 0.03437959 0.074312538 0.13245359 0.0104251 -0.084726624 -0.093300447 -0.042574804 0.08139322 -0.1161374 0.16460393 -0.076839976 -0.035625059 -0.002211283 -0.0061218506 0.087889761 -0.11081379 -0.11335135 0.013518469 0.01636436 -0.061152667 0.10928258 -0.00070740969 -0.20350693 0.182409 0.061803218 0.071386732 -0.21223205 0.091212548 0.12484258 -0.04801986 0.068658158 -0.087733887 -0.037865799 -0.27230382 -0.0058007776 0.073316753 -0.053225696 -0.034943834 -0.10340017 -0.088747449 0.27709222 -0.03016944 0.058648165 -0.057495885 -0.20416272 -0.081118025 0.022770476 -0.12434399 0.02835172 -0.014163703 -0.054827157 0.13094404 -0.013047168 -0.081102721 -0.019261526 -0.020318979 0.00092616002 -0.05281968 0.047659531 -0.32323608 -0.065238565 -0.035172012 -0.21758832 -0.0088577177 -0.064137392 -0.090803958 0.03861871 -0.010667746 -0.21126561 -0.15234075 -0.084302649 -0.047453366 0.15873632 -0.080396526 0.14777415 -0.15204297 -0.066358596 -0.036118142 0.015223918 -0.089839213 -0.069426917 -0.015627241 -0.11779442 -0.03311165 -0.083958387 0.059653912
391 -0.051385719 -0.12993921 -0.039534871 -0.064021468 0.028491955 0.30955365 0.047027759 0.013087256 0.0038907218 0.090419739 0.10681504 0.071272507 -0.012776197 0.14109054 -0.019947557 -0.14650352 -0.09653157 -0.045457385 -0.066393539 0.05219746 0.050077762 0.043752875 0.22259758 -0.12579997 -0.049895868 -0.0849078 -0.11262716 0.10438492 -0.030844584 -0.014341363 -0.056976166 -0.045196302 0.13675499 -0.04409555 -0.083391152 -0.13832328 0.00461041 -0.063548528 0.096304089 -0.090819389 -0.21326609 0.086687237 0.019125834 -0.028460946 0.20651953 -0.012002764 0.046252821 -0.078891031 0.062408824 0.027572664 -0.066186935 0.100573 -0.075986639 0.08726716 -0.045859672 -0.039432641 0.034413114 -0.040724557 -0.1075042 0.018701144 -0.20689061 -0.12130511 0.12388007 0.06955786 -0.31793571 0.2173057 0.039506149 0.13896981 -0.27969471 0.023601739 0.064951092 0.0073524979 -0.019594073 -0.22254328 -0.065229863 -0.11901044 -0.063897736 -0.058408599 -0.15267022 0.048797168 -0.041346122 -0.045739528 0.19644338 0.015490161 -0.082131691 -0.052275777 -0.090879597 -0.084385142 -0.042764306 0.062887028 -0.09512078 -0.094188206 0.0078692185 0.074549563 -0.0075889835 0.070977166 0.047577947 -0.055777472 0.04975019 -0.18531992 -0.027638799 -0.077714212 -0.082036458 0.064002223 -0.20449963 -0.0039682947 -0.064212911 -0.059077114 0.10854901 -0.016318966 -0.14276932 -0.12549068 0.0069000809 0.041748412 0.11100626 -0.035002325 0.12531607 -0.014564261 -0.093842737 -0.12092493 0.071140863 -0.026364559 -0.098760642 -0.060699284 -0.051437803 -0.13415065 -0.10178593 0.06958317
98 0.0034399915 -0.087538101 -0.11431153 -0.027695993 0.04457172 0.10439279 -0.067275494 0.012127115 -0.073854722 0.17882752 0.12491122 0.0036889887 0.062938191 0.13602388 0.036598064 -0.1210018 -0.14271383 -0.041214947 -0.017122036 0.083276138 0.010369086 -0.00053834374 0.24366337 -0.085378349 -0.076424867 -0.075695887 -0.064819068 0.058766816 -0.07516405 -0.047979344 -0.039610926 -0.014453903 0.1104589 0.069186926 -0.042791378 -0.12510876 -0.03112492 -0.0054393825 0.054312356 0.027120935 -0.15819728 -0.0081436327 0.091290459 0.062797531 0.25471178 -0.12706541 -0.0039992584 -0.15000349 0.028417885 -0.030808758 -0.060591146 0.057349198 -0.14774674 -0.057561893 -0.077584401 0.033831671 0.075276338 -0.062660128 -0.075486019 0.0038034732 -0.12946889 -0.10662664 0.081891 0.084022246 -0.27615383 0.21557318 0.040494166 0.12512097 -0.1587892 0.0966627 0.0031818866 -0.15765384 -0.0063909222 -0.14778718 -0.11689234 -0.10722456 -0.044999894 0.012270334 0.012497937 0.018559767 0.027096428 -0.14117481 0.19546042 -0.021668803 -0.052587543 -0.10478811 -0.19174388 -0.0076258681 0.091939814 0.017334517 -0.010683216 -0.052128155 0.10587415 -0.004919 0.040361892 -0.034356754 0.0068865269 0.072963551 0.056415636 -0.068290159 -0.09027414 -0.13955443 -0.0056745615 -0.042727817 -0.19241293 0.033112254 -0.038881384 -0.03028034 0.10219546 -0.080066383 -0.16989022 -0.13685906 0.14520347 -0.044439338 0.22282927 0.072800152 0.1398896 -0.09108337 -0.15389797 -0.03678114 0.068570457 -0.054545701 -0.026554765 -0.021681702 -0.092527173 -0.19038804 -0.095715076 0.078594424
215 0.14219065 -0.2736659 -0.18922539 0.061899539 0.091683447 0.053736858 0.21657483 -0.0048476076 -0.14149523 0.13691173 -0.14753102 -0.066614605 -0.0066530197 0.14468408 -0.052900545 -0.14919263 -0.249112 0.093655787 -0.039586596 0.0055390615 -0.052860107 0.18419163 0.1459426 -0.088342927 -0.18822061 -0.14308238 -0.11370304 0.29208639 -0.17480795 0.094404206 0.022605961 0.048967484 0.053559281 0.16705476 0.038066082 -0.096746467 0.065631315 -0.12868272 -0.092404827 0.14235179 -0.067274995 0.04893044 -0.033222958 -0.25331682 0.25099471 -0.1149133 -0.18475935 -0.33459976 0.40484047 0.090334073 0.093209088 -0.23437369 0.013613082 0.032059535 -0.077140927 0.06569308 0.065401755 -0.27931425 -0.11237907 0.056757648 0.049648903 -0.26267412 0.08177641 0.05612734 -0.17102215 0.22564651 0.1006261 0.1689567 -0.092511445 0.044661876 0.022841569 -0.080219917 0.24858098 0.091467366 -0.038388129 0.062086567 -0.28873229 0.040470932 -0.02861225 0.041856464 -0.063963681 -0.051563814 0.14431132 0.054175548 -0.14835221 0.15925445 -0.091156267 0.018216962 -0.15859886 0.1695399 0.27212611 0.025068728 0.052607667 -0.079493292 0.14919019 -0.083453067 0.044452835 -0.29097092 0.10033964 -0.096005768 0.048917644 -0.13207272 -0.13888268 0.1071272 -0.11558637 0.17712399 0.15153584 0.098495156 0.2040575 -0.034925036 0.098637126 -0.19551274 -0.077980734 0.00079016888 -0.11999165 -0.0088050319 0.039488267 -0.060948841 -0.14216806 -0.037367225 -0.049594324 0.054694213 0.02702814 0.099839918 -0.15718906 0.099290349 0.1247523 0.045002438
454 -0.14123929 -0.088864058 -0.099582016 -0.030740473 -0.011359295 0.1772535 -0.049672216 0.058458243 -0.057277612 0.22052595 0.15024142 -0.005504455 0.12488011 0.2310055 -0.036075901 -0.2348517 -0.054370042 -0.029107582 0.017774157 0.0091235563 0.019951969 0.040302094 0.18952425 -0.063645452 -0.11911311 -0.054047231 -0.081614979 -0.017474057 -0.097152986 -0.036867738 -0.02059597 0.0037460905 0.12668329 0.046306666 -0.013794809 -0.076648585 0.0045608068 -0.075690076 0.0060304259 0.042164791 -0.15466899 0.033660915 0.09033668 0.098664224 0.24233629 -0.019746192 -0.029131005 -0.1648436 0.066709377 0.017501341 -0.085579395 0.1676233 -0.102761 -0.045956962 -0.015812334 0.048078448 0.020561073 -0.099956989 -0.054502025 0.0013114368 -0.10079201 -0.031769879 0.16337322 0.095315672 -0.21125516 0.2660419 -0.030273929 0.11654167 -0.19778971 0.040483862 0.01506668 -0.021657903 0.039755955 -0.12162088 -0.084175959 -0.16576891 -0.055304818 0.054565832 -0.079206891 -0.010360763 0.073360227 0.0018471538 0.20060852 -0.039165508 -0.05074764 0.0073335641 -0.11791757 0.01220478 -0.026540017 -0.062809885 0.10343032 -0.018175008 -0.0035793241 0.0058074491 -0.024754725 0.05571603 -0.0080759777 -0.01127355 0.10982535 -0.19207945 -0.075755425 -0.22660659 -0.1286325 0.085305914 -0.12863693 0.04426647 -0.11009508 -0.017031984 0.036947284 -0.09446051 -0.13623323 -0.15670274 0.10266453 0.0027456942 0.13624844 0.089755319 0.11749911 -0.019673232 -0.021046104 0.032386884 0.0010988385 -0.0018052398 -0.098324485 -0.09388224 -0.074840091 -0.11399917 -0.063636534 0.038687367
185 -0.028067365 -0.1130567 0.020064799 0.062432546 0.048524223 0.13273434 0.078763522 -0.045323316 0.02794837 0.16237418 0.079080686 -0.06216193 0.048958678 0.11993627 0.012669845 -0.16876528 -0.10191767 0.024978422 0.033844508 0.088252559 0.021025568 -0.039658964 0.18722978 -0.16586211 -0.10332412 -0.0033977753 -0.10571767 0.068518534 -0.06321919 -0.10184564 -0.0241275 0.074074574 0.058899745 -0.045695405 -0.050294645 -0.14056142 -0.067152128 -0.048461113 0.086928681 -0.086787552 -0.11693486 0.018757753 -0.043951657 0.036209829 0.060947616 0.045545895 0.12573554 -0.24521805 0.032025363 0.10426183 -0.093365714 0.046756271 -0.013153655 0.082543761 -0.034482524 -0.033570651 -0.016030254 -0.038270015 0.021266209 0.052497163 -0.0417713 -0.053542126 0.072067477 -0.10078811 -0.28427199 0.30486143 -0.05658241 0.18083383 -0.12025037 0.14188702 0.038526893 -0.11220527 0.13901961 -0.16722082 -0.06211466 -0.12350217 -0.06034828 -0.020517899 0.071185268 0.083804943 0.01048957 -0.091403849 0.19814575 -0.014138347 -0.011497126 -0.10498447 -0.16201317 -0.15035836 0.076735936 -0.037123833 0.17112197 -0.0051946235 -0.075794324 0.041343108 0.033802006 0.057910543 -0.022353731 -0.14019099 0.059454348 -0.10478508 0.0094715916 -0.15134878 -0.072569542 -0.0018325553 -0.16902424 -0.0040847072 -0.13329273 0.043996453 0.084565639 -0.077025495 -0.14127129 -0.025308164 0.085587122 0.020355614 0.10365655 0.099588476 0.14917308 -0.088041253 -0.13587871 -0.031107191 0.032939058 -0.076178201 -0.059674207 0.015402284 -0.21556273 -0.074857049 -0.068278402 0.038782716
114 -0.12368609 -0.032506209 -0.016928613 -0.0073605734 -0.018394329 0.16165669 -0.0054080863 0.040323328 -0.062129654 0.22045422 0.063289672 0.034218717 0.12573829 0.17424905 -0.064200431 -0.26683488 -0.17224841 -0.030232605 0.044702947 0.012735001 0.091435157 0.0091231083 0.20964465 -0.037596758 -0.077723868 -0.031348236 -0.070234016 0.0093923835 -0.031988632 -0.08961764 -0.032324616 0.095039606 0.013656602 0.045094796 -0.024446039 -0.10535563 -0.078728795 0.00012112822 0.00067961984 -0.091074437 -0.091752544 0.013711182 -0.017242473 0.10907029 0.24026456 -0.011831553 -0.018989306 -0.25630605 -0.020165127 0.098586582 -0.14899933 -0.020758152 -0.072844461 0.014488913 -0.033473976 -0.041896332 -0.0020095762 0.019960994 -0.038010366 0.053538803 0.0052307583 -0.019946201 0.061562341 0.16604838 -0.18630742 0.33595183 0.0068477993 0.047913846 -0.082215391 0.052549001 0.0096871108 -0.071598038 0.070110083 -0.15270095 -0.12557408 -0.14013588 0.017241661 0.015967803 0.014504533 0.032361303 0.059828766 -0.010726128 0.24643382 -0.11192875 -0.021292605 -0.074791588 -0.070973158 -0.17588791 -0.0020316136 -0.065839671 0.027895862 0.0062146578 -0.070678271 0.0035785607 -0.05841646 0.015209649 -0.1507532 -0.091658905 0.116662 -0.10699626 -0.055749908 -0.21354508 -0.07581611 0.077607855 -0.081448667 -0.0094771339 -0.089928813 -0.009560314 0.065055765 -0.13267228 -0.078865513 0.026416078 0.016774312 0.023150543 0.11702505 0.034309056 0.14178731 -0.15776061 -0.090538725 0.0033536439 0.052058749 -0.042233583 -0.037666567 -0.1117418 -0.071634889 -0.12730365 -0.099295706 0.0012731146
231 -0.070080124 -0.11418906 -0.10674842 0.067288145 0.055878598 0.22422217 -0.036095094 0.029220482 -0.099456966 0.12733537 0.11611199 0.12263438 0.023768723 0.17595246 -0.010500232 -0.23787715 -0.099000931 -0.11171872 -0.0073479298 0.092917755 0.031701539 -0.046265494 0.30308941 -0.10006694 -0.092550866 -0.035095941 -0.16879098 -0.028306013 -0.11539158 0.028777579 -0.23487726 -0.086201243 -0.01349208 0.0056700869 -0.037595473 -0.13942651 -0.070588283 -0.05199232 0.081148833 -0.072637446 -0.12704146 -0.00045844805 -0.031653948 0.062590949 0.21643579 -0.047198616 0.023934999 -0.13218947 0.025497526 0.038188182 -0.091467984 0.11427359 -0.063943915 0.034557495 -0.053807825 0.054606754 0.054321457 -0.058112323 -0.010513891 -0.038557831 0.063394554 -0.032116324 0.081986226 0.07740929 -0.31374124 0.17673077 -0.036966689 0.13255644 -0.13221991 0.042467408 0.050876316 -0.14586411 0.029445121 -0.077933617 -0.048197266 -0.15701942 0.019668438 -0.032343034 -0.060855474 0.0024740426 0.11447009 -0.0055067856 0.21786387 -0.032918539 -0.0097344639 0.014142959 -0.19113924 -0.125857 -0.039679259 0.012921042 0.12102117 0.027505118 -0.015616025 0.083377436 0.061646979 -0.059674736 0.085484654 0.021729276 0.11462931 -0.13856384 0.005095643 -0.13193838 -0.051735021 -0.037980989 -0.14606604 0.090138264 -0.066957213 -0.021239223 -0.025641998 -0.052900478 -0.16672179 -0.1004987 0.084314995 0.044794451 0.061019972 0.012449382 0.10758966 -0.024431614 -0.068568714 -0.022648424 0.059911046 -0.02956824 -0.075700872 -0.049258433 -0.10360697 -0.11215562 -0.058521729 0.077947423
282 -0.055784933 -0.19955716 -0.12139735 -0.023735996 -0.059753984 0.14528617 -0.09328299 0.1769976 -0.032241248 0.099730298 -0.047419887 -0.065636747 -0.10466008 0.25325403 0.024688397 -0.2045843 -0.064310394 0.075255074 0.094960429 0.10089641 0.0012002962 -0.059344072 0.15383203 -0.17667691 -0.020444389 0.04960664 -0.030617725 0.14445864 -0.10588843 -0.089613035 -0.081491843 0.03325481 0.00017648758 0.05430872 -0.048373207 -0.11571139 -0.1688859 -0.074051529 -0.011224304 -0.096705265 -0.18949506 0.011310949 -0.092029706 -0.075086378 0.1054581 0.041333623 -0.063026659 -0.083293848 -0.018134184 0.060737338 -0.14200349 0.024030399 -0.002400782 0.0083847325 -0.043608744 -0.094731696 -0.075687796 -0.12729238 0.022412311 0.036927707 0.05848467 -0.13702436 0.05710078 -0.099757202 -0.22608766 0.30752191 -0.022595322 0.16615923 -0.15080762 0.081247792 0.049613249 -0.14507753 0.22551639 -0.20503171 -0.084648572 -0.046930492 0.11510785 -0.030822152 0.077424288 0.060745224 -0.041823044 -0.060212936 0.23393585 0.15570641 -0.12314387 -0.0043671569 -0.23383771 -0.09256015 0.0078677572 0.034254987 -0.0091163013 -0.016087977 0.14951268 0.056229122 -0.13060389 0.022708708 0.17213821 -0.091250509 0.18309863 -0.19781472 -0.12803225 0.043090317 -0.18130875 -0.11193623 -0.04951594 -0.19265075 -0.036136515 -0.034795407 0.16663662 -0.094092585 -0.095374279 -0.11395167 0.16623241 0.10927808 0.15860131 0.01515978 -0.045059562 -0.15778001 -0.081008658 -0.094395451 0.083391666 0.0400851 -0.014821107 -0.026087426 -0.10930224 -0.050215971 0.10078339 0.029285591
106 -0.063346528 -0.097045854 -0.03873169 -0.039501019 0.020060632 0.19511585 -0.01773146 -0.083529145 -0.051420268 0.16500211 0.10970885 0.062325738 -0.0058666505 0.16361947 0.043606117 -0.21653415 -0.11304741 -0.092237085 -0.03607522 0.055757046 -0.064666905 -0.033570074 0.28762174 -0.036563847 -0.12742224 0.018784106 -0.057244204 -0.012266302 -0.11005669 -0.076585114 -0.16160154 0.025144739 0.06685406 0.032319963 -0.030215099 -0.0580047 -0.1246472 0.0041214712 -0.050011631 -0.071320161 -0.097407214 0.12641804 -0.0063041756 0.092902891 0.2310392 -0.11486851 0.023856016 -0.25571465 0.014948079 0.033367958 -0.084288441 0.07842762 -0.069974884 -0.042972405 -0.032557145 -0.018502217 -0.021966984 -0.061294865 -0.13034613 -0.0083948756 -0.0788716 -0.032027937 0.11829158 0.033981327 -0.29758075 0.16112487 0.0018337307 0.12799108 -0.14505567 0.07176955 0.0085602216 -0.1780163 0.019579899 -0.16270158 -0.13349339 -0.14778517 0.010620545 0.022071794 -0.12837322 -0.054459903 0.010514179 -0.050922554 0.26980904 -0.17096211 -0.11427518 0.0061868411 -0.1445968 -0.0036856004 0.10066531 -0.058651365 0.085248858 0.0069794133 0.090625964 -0.025649307 0.040978689 -0.077439725 0.0098900488 0.060993738 0.057443801 -0.0009918455 0.032241076 -0.17456615 -0.10075434 -0.020196492 -0.14305164 0.055319075 -0.12563102 -0.044901956 0.0085483743 -0.039066162 -0.12481708 -0.17548546 -0.0027394772 -0.047617357 0.0890847 0.083134726 0.093569435 -0.066565499 -0.036981918 -0.018599994 0.087195776 0.078282453 -0.10829491 -1.2984308e-05 -0.10921367 -0.1333366 -0.068607084 0.028814672
246 0.030902553 0.036365066 -0.0499634 -0.16268244 0.0038932734 0.12973608 -0.041564371 -0.0093309991 -0.16557103 0.19179183 0.010852848 0.11928435 -0.048712365 0.27557725 0.13776264 -0.12410492 -0.092622027 -0.0017838147 -0.0023188398 0.1243297 0.047221083 -0.028510537 0.1457281 -0.10665893 -0.071290135 -0.093786903 0.012341653 0.090113252 -0.042633682 -0.044334862 -0.079741478 -0.069043815 -0.015543996 0.090710275 -0.056636494 -0.065453567 0.065931536 0.062506609 0.17221913 -0.093392141 -0.18206589 0.091308355 0.12970197 -0.018275855 0.22967058 -0.087882102 -0.01861047 -0.089749016 0.11988118 -0.036047436 -0.099805743 0.02231797 -0.050556205 -0.018828239 -0.064078055 -0.022110544 0.086267918 -0.10429287 -0.13723539 0.095111445 -0.10742328 0.076128438 0.24119739 0.080688737 -0.29545259 0.05674497 0.079336308 0.015202615 -0.16295055 0.020517252 -0.030435145 -0.14943677 0.22186083 -0.11315628 -0.18732071 -0.10446044 -0.019820876 0.21944217 -0.14972945 0.094400406 -0.0042825243 -0.041587487 0.15880866 -0.084461302 0.0020792861 -0.11166813 -0.19896305 -0.17068367 -0.093463741 0.089709029 0.030198205 -0.18259503 0.12700544 0.044914849 0.13866945 0.11433911 0.023662383 0.061198026 0.037986171 -0.2062735 -0.045111656 -0.22538731 0.039496619 0.02811319 -0.11237463 0.066623427 -0.12356026 0.082201824 0.016269661 -0.026485436 -0.099616006 -0.045204114 -0.05842346 0.0025394852 0.083448753 0.045189857 0.010484756 -0.14036499 -0.013626147 -0.2080141 0.032133415 -0.00393384 -0.063220151 -0.13868973 -0.055434562 -0.03306371 0.0082708132 0.13428771
86 -0.057483759 -0.15560235 0.039641406 0.060927827 0.018722365 0.16124098 0.019201618 0.038082086 -0.0037322219 0.21027102 0.15322371 -0.01757047 0.057220791 0.075532742 0.052809853 -0.085613288 -0.13634305 -0.026045509 0.10131418 0.047552824 0.055748191 0.068876162 0.1957036 -0.10745034 -0.17016774 0.0019817713 -0.12434131 0.12172765 -0.0079408158 -0.023022426 -0.1554276 0.038093515 -0.002299383 -0.018649273 -0.095824495 -0.18378894 -0.050012074 0.0032998563 0.056204274 -0.11180588 -0.090534568 0.019729475 -0.057970516 -0.069328032 0.23535955 0.0056278594 -0.027684769 -0.16707033 0.031082125 -0.10884663 -0.011732535 0.090846308 -0.12083197 0.0043436377 -0.037624002 0.052827351 0.030338386 -0.080920525 -0.19342029 0.051540058 -0.049049962 -0.013498048 0.059087906 0.1276993 -0.25333688 0.27552554 -0.028711192 0.15263441 -0.16866231 0.16651286 -0.063729182 -0.090816773 0.076655827 -0.04652914 -0.1091166 -0.085760854 -0.012153145 0.11337151 -0.10937423 0.053911228 -0.001763463 -0.082170211 0.24174191 0.0048893364 0.01050371 -0.058134224 -0.15475281 -0.089868546 0.080524579 0.029648326 0.017752968 -0.094377436 0.040732332 0.067620531 0.023359179 0.020957224 0.05806949 -0.057125144 0.034994546 -0.15254667 0.059523646 -0.15573393 -0.11735701 0.010596052 -0.18649229 -0.066517621 -0.11561323 -0.021455972 0.0016868121 -0.12379781 -0.029289434 -0.09633828 0.099788651 0.0017928741 -0.0083986297 -0.0015887397 0.15171932 -0.062282458 -0.045808449 -0.091846079 0.069806196 -0.10203151 -0.069075815 -0.027594175 -0.088939324 -0.065987043 0.00013751442 0.027226551
136 -0.067292035 -0.017203005 -0.037040401 -0.026169032 0.044082694 0.17882328 -0.0029623054 -0.038182095 -0.033419512 0.18373622 0.072039761 0.021143569 0.075504676 0.18829779 -0.017462421 -0.17168579 -0.13235421 -0.005915666 0.015966812 0.049744431 -0.026470155 -0.1057725 0.23733369 -0.074458346 -0.069134243 -0.030956497 -0.03010409 0.054522522 -0.15829231 -0.0012146489 -0.19541299 0.0043037427 0.040424824 0.12003981 -0.10814046 -0.0059668794 0.0097997813 -0.060371943 0.063908249 -0.0078259511 -0.17164993 0.030756874 0.009772799 0.090869799 0.18379611 -0.13283928 0.0041766157 -0.11751217 0.080336444 0.10362234 -0.040945522 0.12114239 -0.0099750152 0.0095932903 -0.089476332 0.015185243 -0.051877502 -0.10581782 -0.0385179 -0.030946141 -0.050887499 -0.14002636 0.12990269 -0.051301748 -0.17708574 0.22268391 0.048394401 0.11680702 -0.22429447 0.10971858 -0.1216585 -0.050059706 0.012287121 -0.068581291 -0.083002828 -0.12492798 -0.063818827 -0.031239333 -0.042819593 0.0070708352 0.051603008 0.054731615 0.25197381 -0.1262386 -0.017463613 -0.086400725 -0.079149604 -0.037349667 -0.0083941193 0.014705347 -0.008611531 -0.039503016 0.025813425 0.075955935 0.032372039 0.057712562 -0.0068673841 -0.069932535 0.061633848 -0.15678233 -0.050500341 -0.2667501 -0.19404195 0.018040154 -0.18464558 0.0089390939 -0.18646635 -0.051498555 0.072678342 -0.0098163374 -0.20248801 -0.044246379 0.046049144 0.058384251 0.039562825 0.0053758165 0.078473702 -0.13894072 -0.10772024 -0.091499649 0.071616046 0.0070748199 -0.044742581 -0.052178413 -0.020116571 -0.1210757 0.041364394 0.082633995
446 -0.02903779 -0.1471127 0.02280659 0.047089189 -0.065907948 0.20048767 0.12205809 -0.024037547 -0.072749391 0.044621639 0.1219285 0.04539869 0.10496914 0.27719715 0.070662878 -0.086469017 -0.13010962 0.011605065 -0.070819572 -0.039694078 0.04586092 -0.14691404 0.21853665 -0.15493597 -0.14549215 -0.059206132 -0.1496726 0.0064242147 0.0047780504 0.073698401 -0.12418041 0.067950606 -0.040772494 -0.0026166565 0.062651508 -0.070795275 0.11337598 -0.047711257 0.022812545 0.052058589 -0.15531677 -0.076246321 -0.022620546 0.078242406 0.20110863 0.0126851 0.084849037 -0.26015934 -0.077583328 0.047663569 0.017761596 0.00061013293 -0.14307052 0.057148114 -0.10209925 -0.009197983 0.030916514 -0.11321755 -0.042945892 -0.055257998 -0.083950251 -0.082142465 0.15936507 0.11061399 -0.22312249 0.21462308 -0.070173733 0.0897903 -0.17598979 0.12782055 -0.071706362 -0.073004201 0.052820992 -0.048554547 0.05518565 -0.067997165 0.0033309897 0.09231928 0.018098691 -0.058879029 0.059719864 -0.038480282 0.26345763 0.025416622 0.24120662 0.031203272 -0.094573781 -0.12779433 0.0062754164 0.034354325 0.093086794 -0.13572797 -0.037962586 -0.14091347 0.14063554 0.067891479 0.073372215 -0.03720611 0.1352115 -0.16170007 -0.01377415 -0.16288379 -0.071781218 0.032778863 -0.017943148 0.10515761 -0.18811987 -0.0024162391 0.13674821 -0.070401251 -0.13345931 -0.20329714 0.054902215 -0.067630567 0.15355483 0.050250921 0.1864268 -0.14079793 -0.056825057 -0.085051253 0.011190778 -0.041424464 -0.019234581 -0.055673845 -0.08715532 0.049940083 -0.013868576 0.061309889
189 -0.042231109 -0.013242438 -0.042150039 -0.023063626 0.043730594 0.034385152 -0.040581215 -0.027743446 -0.036269497 0.13668221 0.084578246 0.16505739 -0.021138849 0.17873973 -0.0026711654 -0.24463663 -0.11208539 -0.044459619 0.073900312 0.097434334 0.0068785055 0.0004607731 0.25804082 -0.055413164 -0.08407449 0.076358095 -0.081936441 -0.025020177 -0.1112847 -0.017600978 -0.076537788 0.012208934 0.0041201096 0.13914607 -0.1234082 -0.11971928 -0.080677561 -0.026300047 0.082860067 -0.0077113863 -0.2168265 0.020949995 -0.035737813 0.12725845 0.11730464 -0.087729432 -0.006055472 -0.13853234 -0.055094253 0.090991609 -0.086347505 0.10685633 0.0052874084 0.028388061 -0.083046898 -0.044879548 -0.044439342 -0.050987389 -0.05457712 0.044636048 -0.019209774 -0.037690409 0.1112496 0.15835951 -0.25451967 0.21774597 -0.024331585 0.15824364 -0.14538355 0.20775945 -0.037077218 -0.11008237 0.0028466955 -0.15936676 -0.024351565 -0.1605797 0.0028889836 0.099716723 -0.049194962 -0.0099952845 0.03112017 0.033201564 0.24866989 -0.029981207 -0.0099959159 -0.11215644 -0.12897734 -0.16886905 0.062483616 -0.033773575 0.029183084 -0.059873551 0.038290061 0.014113096 0.054784805 -0.022009151 0.11382428 -0.11889336 0.12189379 -0.1563905 0.0094362376 -0.087149367 -0.084920749 -0.13290942 -0.14595157 0.10852396 -0.19653659 0.023737267 0.0718612 -0.13594031 -0.047676645 -0.15141277 -0.012801314 -0.059973735 0.11139976 -0.05295125 0.082995266 -0.025649931 -0.10702019 -0.031628765 0.10643487 0.00017552752 0.068776429 -0.093665436 -0.094063781 -0.14928974 0.023206629 0.18613756
299 -0.050832652 -0.11136954 -0.10947394 -0.025494225 -0.062461395 0.20548356 0.040457133 0.014064944 0.0027415699 0.1543081 0.064007491 0.03733078 0.093341343 0.14290859 -0.029467029 -0.21617614 -0.10818882 -0.0074649681 -0.035343606 0.072412476 0.12249896 0.043371309 0.24647059 -0.095469266 -0.097547747 0.038123276 -0.03812905 0.044391535 -0.14160599 0.027336521 -0.005871742 -0.015638839 0.0090718493 0.02124963 -0.085779123 -0.14123693 -0.019972427 -0.05323752 -0.032409117 -0.02910563 -0.11726413 0.051448293 -0.069840871 0.008725076 0.12199385 -0.012684349 0.039023161 -0.080590628 0.0089736972 0.092009895 -0.10030517 0.10659759 -0.061165009 0.093525089 -0.025229812 -0.034563173 0.014221106 0.040581349 -0.061101586 0.0051491531 -0.081783839 -0.2112667 0.081244215 0.10674878 -0.31019026 0.26865453 0.058458827 0.097003244 -0.18601236 0.089585401 -0.042356212 -0.10615625 0.092595875 -0.15191585 -0.10679019 -0.15801118 -0.044244073 0.0038855327 -0.062333394 -0.019831937 0.0098689934 -0.032168321 0.25880674 -0.062879659 -0.062779859 -0.046476983 -0.088931531 -0.080889374 -0.0053293081 -0.031498794 -0.072358549 -0.049421772 0.022522947 0.15347672 -0.05394863 0.13607107 0.015394695 -0.028021382 0.081598364 -0.09688513 -0.039157663 -0.093476757 -0.12989697 0.0056337006 -0.20505373 -0.027575843 -0.030586854 -0.040931575 0.11449685 -0.13692251 -0.089319967 -0.061598897 0.090857454 -0.029933201 0.12507303 -0.012135591 0.14171344 -0.135635 -0.034744456 -0.080843262 0.056296192 -0.0098541705 -0.10320537 -0.043241154 -0.091655456 -0.15516599 -0.0054533156 -0.071959734
40 -0.07219746 -0.022515036 -0.006327433 0.056414384 -0.047804382 0.32157531 0.010558086 0.019681819 -0.061465912 0.20589724 0.1536842 0.036890481 0.033985123 0.1464304 -0.061226606 -0.21696086 -0.060112879 0.027207509 0.096812792 0.13828613 0.05848784 0.050187636 0.1361541 -0.091402113 -0.14368212 -0.02827383 -0.12718068 0.10480043 -0.049884401 -0.040434167 -0.093275808 0.042018417 0.010458913 0.032878034 -0.077557616 0.019937271 0.056791026 -0.13625383 0.10442112 -0.094327301 -0.21765698 0.056612615 0.041046057 0.051586997 0.18491989 -0.0091506485 -0.0056924 -0.096978828 0.048270922 0.021883782 -0.055736832 0.077257037 -0.12301175 0.0078221783 0.011953833 0.045761596 0.054573234 -0.0036037904 -0.048762929 0.015516398 -0.091783412 -0.20384271 0.090322688 0.039033182 -0.1842788 0.18949229 -0.021505071 0.080262728 -0.13355 0.046275757 0.010515261 -0.094405107 0.11982957 -0.16385692 -0.046487201 -0.12593597 -0.050790228 -0.044406641 -0.0053947899 -0.011082367 0.049852531 -0.10697241 0.32127795 -0.11442038 -0.0013856501 -0.10631387 -0.19060595 -0.1132213 -0.032015417 -0.076112084 0.095326871 -0.072531268 -0.021450933 0.052878298 0.030407608 -0.0059291688 -0.017757967 -0.065328546 0.074391544 -0.14551076 0.063700192 -0.17771736 -0.033559218 0.038653929 -0.15673998 0.034757771 -0.13023648 -0.034852389 0.029418714 0.0079429746 -0.13735561 -0.14412995 -0.056579541 0.0030547897 0.042742014 -0.054130916 0.12445211 -0.11326508 -0.01507029 -0.033088826 0.044626582 -0.017716836 -0.040964685 -0.0036612414 -0.11313436 -0.14600763 -0.14108212 0.11887095
33 -0.063356988 -0.14955345 -0.063432388 -0.079416282 0.0069445344 0.07026992 0.016671292 0.035938296 -0.12097539 0.14098878 0.021504154 0.095831223 -0.0068542697 0.12928139 -0.017528312 -0.21755083 -0.19961363 0.0084282542 0.056046356 0.1008342 0.0011839923 0.031381253 0.13736643 -0.12634021 -0.059757352 0.0039286064 -0.16066936 0.13751023 -0.039956797 -0.044226978 -0.21272315 -0.060817428 0.15042673 0.038230333 -0.07316149 -0.11957258 -0.093142718 -0.091292374 0.080686122 -0.037167259 -0.072662301 0.024857163 0.060877342 0.076822869 0.19555867 -0.010114498 -0.052761625 -0.13445073 0.10715533 0.012359816 -0.1307925 0.06274128 -0.035799854 0.069179714 -0.012491658 0.010254857 0.0053790286 -0.038986251 -0.047233459 0.096953757 -0.040315092 -0.076903567 0.17137468 0.04816984 -0.2438212 0.19679023 -0.082579888 0.10411368 -0.21905454 0.17896084 0.040650509 -0.055304293 0.19618545 -0.15159874 -0.020743547 -0.12110581 -0.075641669 0.014592732 -0.14227025 0.05228636 -0.023324335 -0.011203722 0.26223639 -0.056731194 -0.035762515 -0.027822297 -0.15148164 -0.02737185 0.07217966 -0.060419291 -0.042077366 -0.02230769 0.026570845 0.057332147 0.05819774 -0.013960723 0.066188462 -0.064811751 0.080314882 -0.13068312 -0.0058474881 -0.22166587 -0.16604298 -0.018934555 -0.18836966 -0.073105425 -0.10856654 0.021926826 0.080114126 -0.04247484 -0.13296232 -0.18310855 0.051106531 -0.026229167 0.076378889 0.024585329 0.13146535 -0.10616183 -0.096774347 -0.042649534 0.11580661 -0.0043501314 0.051500242 0.0063424385 -0.078994051 -0.17345396 -0.011936117 0.1465835
135 -0.16458102 -0.063591719 0.079102919 0.081104107 0.064529754 0.25128829 -0.15411143 0.039001402 0.028206205 0.12374632 -0.0073375632 0.101593 0.13079211 0.18680067 0.02257615 -0.20028536 -0.063196838 -0.0071174884 -0.10110755 0.045325134 -0.0014944603 -0.019631116 0.28039247 -0.096491426 -0.15651023 -0.053565443 0.013761871 0.097226597 -0.046624925 -0.070161693 -0.067250326 0.02765739 0.11728436 0.070289314 -0.081862904 -0.15378998 -0.054008219 -0.066324361 0.029392602 -0.025573747 -0.20343381 -0.02756699 -0.02473883 0.070101745 0.10642112 0.03897297 0.04243343 -0.17668469 -0.0079444759 0.097936414 -0.036968995 0.074497469 0.017037418 0.0033343069 -0.0010996597 -0.056765407 -0.021499669 -0.029677972 -0.024911167 0.031382117 0.012453434 -0.045791052 0.14711791 0.11534163 -0.17113905 0.36824569 0.017031739 0.11976584 -0.12773576 0.096374914 -0.0093865329 -0.16962147 -0.04324859 -0.046945125 -0.11511642 -0.14186387 -0.014867653 -0.014927117 -0.15707032 -0.086272746 -0.063134529 -0.051608603 0.19546644 -0.1597985 -0.034267969 -0.029302064 -0.11756133 -0.032598093 0.03322887 0.046296753 0.067714565 -0.0040407362 -0.045404967 -0.028876564 0.10761291 0.0987866 0.051824257 -0.040972568 0.08265736 -0.05217579 -0.010199955 -0.050014485 -0.18401204 -0.091637947 -0.075359903 0.175148 -0.087585121 -0.12207519 0.11624458 -0.091484562 -0.071890756 -0.054796908 -0.014630641 -0.15868919 0.16651733 0.21866502 0.16329148 -0.144005 -0.10237377 -0.096762881 0.061561394 0.017180663 -0.075902842 0.081451207 -0.00041307561 -0.097644858 -0.0022408527 -0.011491959
53 -0.099697568 -0.093098931 0.051997148 0.0075950068 0.038286064 0.20945314 -0.031893387 0.1044888 0.027086735 0.12853089 0.10258007 0.0709133 0.13281001 0.087708123 -0.021886228 -0.1691937 -0.17696241 0.0034458595 -0.0006529786 0.04922713 -0.055843089 0.0094317272 0.29263106 -0.13096498 -0.07808429 0.12605724 -0.11134464 0.039153092 0.0059992014 -0.069726676 -0.071839496 -0.075839452 0.12199213 -0.041763064 -0.038028613 -0.13723557 -0.083791271 -0.073839061 -0.096711606 0.014973834 -0.24669226 -0.051272139 0.11301567 -0.030625455 0.11954384 -0.014129294 0.0337101 -0.13016108 0.032511037 0.05534292 -0.045183174 0.063260376 -0.028143929 0.028677981 -0.051067993 -0.085589945 -0.034428924 -0.052605562 -0.07684885 0.056679282 -0.065233923 -0.031321593 0.16038327 0.0072100512 -0.25201198 0.25617 0.03382396 0.18229575 -0.14449351 0.10726558 -0.025689263 -0.092865758 0.11884156 -0.11394436 -0.038131259 -0.1165295 0.0048559075 0.04307811 0.017147277 0.038659006 -0.050581891 -0.12293892 0.30070102 -0.036586918 -0.031400729 -0.058035128 -0.024631258 0.076265313 0.044960931 -0.11192588 0.1031197 0.025924379 -0.039974242 0.013546541 0.024221981 0.026442183 -0.0070058028 -0.028684895 0.14613704 -0.02703812 0.038579714 -0.18038262 -0.039492797 -0.10651111 -0.21747379 -0.072306179 -0.073229365 -0.049663454 0.12951989 -0.13973492 -0.072060362 -0.092583999 0.090929836 0.056713387 0.15630214 0.074628159 0.055586658 -0.12799251 -0.13344461 -0.1108787 0.087755255 -0.043924991 -0.029850723 0.014828777 -0.1104328 -0.13623075 -0.0070893997 -0.04511885
152 0.042712808 -0.096410803 -0.038027607 0.10048869 0.0065568653 0.23946448 0.12554984 0.058064111 -0.091735616 0.029248308 0.052332595 0.091954783 -0.027723789 0.12545592 0.0040932288 -0.24434209 -0.062034812 -0.04111876 0.10759354 0.1405149 -0.11050813 -0.0094855232 0.21584031 -0.12442385 -0.12618265 -0.060877934 -0.04678281 -0.0041139517 0.0056526712 0.08311592 -0.17691694 -0.10523738 0.01222002 -0.022709936 -0.17066804 -0.035211097 0.050570361 0.037726801 0.0023354206 0.065437369 -0.077396534 0.065852553 -0.012732954 -0.12897024 0.24602659 0.0030480321 0.080779463 -0.088921338 0.11164575 -0.044004139 -0.012358325 0.14055176 0.038986433 0.060473274 -0.12664942 0.045475915 -0.14857343 -0.069201767 -0.041547559 0.063387766 -0.06294015 0.051986158 0.11571523 -0.0453256 -0.20738663 0.27725303 -0.027571112 0.26012608 -0.28113332 0.083095543 -0.077062495 -0.12143665 0.055042066 -0.061408639 -0.060326587 -0.23030183 -0.035436425 -0.053620931 -0.16875297 0.056977496 0.036972251 -0.11727895 0.18385914 -0.1203725 0.011065812 -0.097097307 -0.021461178 -0.14088818 0.0069120461 -0.021158909 -0.017494988 -0.042487361 -0.0065573785 0.1163699 0.03997336 0.11159588 0.040341124 -0.036117274 -0.051492449 -0.09303204 0.14294833 -0.17402966 -0.15005964 -0.047011044 -0.21296333 0.039405707 -0.11825088 -0.00013115507 0.096516304 -0.10342167 -0.14113899 -0.24547961 0.082199745 -0.07827618 0.10701849 -0.01710311 0.14153826 -0.1348514 -0.0021153735 0.046857193 -0.018195793 0.10716728 0.0025297201 -0.087348439 -0.087801553 -0.16505621 -0.0073735346 0.12507169
